{
	"model_params": {
		"input_dim": 10,
		"units_per_layer": [
			20,
			2
		],
		"acts": [
			"tanh",
			"identity"
		],
		"init_type": "uniform",
		"batch_size": 16,
		"decay_rate": 0.95,
		"decay_steps": 500,
		"epochs": 700,
		"lambd": 0,
		"limit_step": 500,
		"limits": [
			-0.001,
			0.001
		],
		"loss": "squared",
		"lr": 0.001,
		"lr_decay": null,
		"metr": "euclidean",
		"momentum": 0.4199289601348085,
		"reg_type": "l2",
		"staircase": false
	},
	"train_params": [],
	"weights": [
		[
			[
				0.0008602941689231319,
				0.0007430601927094437,
				0.00019110457883089174,
				-0.0008289815043425315,
				-0.0004798901355679237,
				7.903436011928396e-05,
				0.0008891327796796517,
				-0.00015716183204119805,
				-0.00010247768972541449,
				-0.000697203698413315,
				0.0006242769510957564,
				0.0009562846866279949,
				-0.000792723764038449,
				-0.0005433128953205155,
				0.0007607937218271855,
				-0.00032066078605902024,
				0.00011092819540816355,
				-0.0006408103654032318,
				-0.0008241137240181538,
				0.00030155072479222584
			],
			[
				0.0008960251232113224,
				-0.00012801170373650899,
				0.0005581811306617352,
				0.00047635749901994554,
				-0.0006653543049437236,
				3.245232500929994e-05,
				0.0005882597254160411,
				-0.0006871172490638051,
				-0.0001598785294444012,
				-0.0005219098967150409,
				-0.0001931682793154119,
				-0.0004429908109462393,
				-0.0005051356622711097,
				-7.763904601515393e-05,
				3.2775561050131996e-05,
				-0.00026511594636518024,
				0.0006859967106797014,
				0.0006026681076836923,
				0.0007339262884170968,
				0.00040298065482806877
			],
			[
				0.0009588769860500537,
				0.0005837097038824573,
				0.0007367812572422396,
				0.000186350811909042,
				0.0007816529066956596,
				-0.0008621974969047075,
				-0.0007795177180192021,
				-6.829344874748088e-05,
				-1.112850072053969e-05,
				-0.0009655523079391046,
				-9.615171718248532e-05,
				0.0001529149835464783,
				-0.0007117961606361467,
				0.0007353691636417712,
				-0.0005158884566197666,
				2.992257103510412e-06,
				0.0008914812596853288,
				-0.0004235941366225711,
				-0.0005241761900715773,
				-0.00031303028430068093
			],
			[
				0.0006724503918459608,
				0.00047670648573466833,
				-0.0006489198788958237,
				-0.00017889455921362395,
				-0.0003241974247780111,
				0.0003931926963479642,
				-9.653924037724673e-05,
				0.0006249269797301857,
				0.0006326613974074224,
				0.000886358089713642,
				-0.00045861458554392117,
				0.0002933824026447032,
				1.8767585434592777e-05,
				-0.0008222307670569969,
				0.0003487759291298457,
				4.1116445916614076e-05,
				0.00018578603260643953,
				-0.0005714129505112661,
				-0.00012179177934458529,
				0.0009315996305555348
			],
			[
				0.00032681193463136664,
				0.000589494176649752,
				0.0004075694609291941,
				-0.0004551232392614324,
				-0.00028235509479579294,
				0.00019088938712357654,
				-0.00043373243763514854,
				0.0007593382132414464,
				-2.71169490312815e-05,
				5.281438978005674e-05,
				-0.00021222416788577744,
				0.0007749338298304387,
				0.00023105757429955215,
				3.0403824166174136e-06,
				0.0005162398699851431,
				-0.0006986778988921326,
				-0.000471570943633131,
				-0.00010033845385666693,
				0.000549908924676407,
				0.0006584077821438566
			],
			[
				-0.0003631244063458305,
				-0.00045034044188345574,
				8.755326488041944e-07,
				0.0003556835786604389,
				-7.392409697088635e-05,
				-0.00047819448993114474,
				0.00043968866136285807,
				0.0008934963007563225,
				-7.350872418497014e-05,
				0.0002804534473940421,
				-0.0002681594289269402,
				-0.00018167858190706074,
				-0.0006859610392417739,
				-0.0006246936230141176,
				0.0007449213681819204,
				-0.0003921185768405133,
				0.00012318152356963034,
				0.000529175679459773,
				0.00018585161925233507,
				-0.0006893820266697806
			],
			[
				0.0003892320010201091,
				-0.0003553096040847729,
				0.0001056553705740342,
				-0.000781855999348656,
				-1.4306711109935647e-05,
				0.00011960943938049999,
				-0.0006463837005157969,
				0.00038120136018972273,
				0.00042507272109075685,
				0.0001988000159397099,
				-0.0004714349023815596,
				0.000421703163632163,
				0.0004516217395499505,
				-0.0003504360060853466,
				0.00012650099122081754,
				-3.348587621223318e-05,
				-0.00032593647502063435,
				-0.00017376206143722374,
				-0.00021681818967999385,
				-6.607970265935532e-05
			],
			[
				0.00022403095349877154,
				0.00042869774662710847,
				0.00016387105407269609,
				-0.0007098588587617079,
				3.599037706244817e-05,
				-0.00017449308094710943,
				0.0006143622094804261,
				-0.000875586407493875,
				0.0008461116661728477,
				-0.0003878766815155532,
				-0.0004372665748429705,
				0.0004496759765728268,
				-0.0006320173751010157,
				-0.0008850016200176725,
				0.00016652036864080524,
				7.424180384836055e-05,
				-0.0006396799705866368,
				-0.00039478051756578814,
				0.00048564958847890937,
				-0.00030691179338235904
			],
			[
				-0.0006435059707368638,
				-0.0007974837656540528,
				-0.0009237634879335965,
				0.0006074130872326926,
				-0.0005251979888290066,
				0.00042558540354020345,
				0.00022421960457179747,
				-0.0007611748676195922,
				-0.0006846502201125104,
				0.0006356899248694846,
				0.00047134582383316767,
				0.00011536448424484774,
				1.1877993538924724e-06,
				0.0005321289263643916,
				0.0008408539336323916,
				-0.0005714808001672329,
				-0.0006156067187892765,
				0.000533889001435037,
				0.0007389786421950633,
				-0.00046852408523237465
			],
			[
				-0.0008851427258096991,
				0.0008630304392966766,
				-0.000281890378846424,
				-0.00010266861403411824,
				0.0009053973512605845,
				-0.0001758339573855115,
				-0.00042083585737565457,
				0.0009407322880043935,
				-0.0009489982754681346,
				0.0006597342884672121,
				0.00029204889149944506,
				-0.0001335276100893004,
				4.999932964801007e-05,
				-0.0007474490473127913,
				0.0009019349901231365,
				0.000852335744845824,
				-0.0009092524287224324,
				0.0004864948792336586,
				0.0005886967925248985,
				-0.0008432908103324923
			]
		],
		[
			[
				0.0009902617950165102,
				-0.000806022253651492
			],
			[
				-0.000959354990462889,
				4.583361099151249e-05
			],
			[
				0.00012237399324945713,
				-0.0004597509312448813
			],
			[
				-0.0007064541131980846,
				0.000347179491613056
			],
			[
				0.0003137352609548225,
				0.00041989652672959213
			],
			[
				0.00032445228043929465,
				-0.0005757386626556325
			],
			[
				0.00043235759817732795,
				0.0008075232969891116
			],
			[
				6.762900969721941e-05,
				-0.0006816849015750821
			],
			[
				0.0009828230440589005,
				-0.0008945597826763603
			],
			[
				0.0003874836969973549,
				0.0006687428151784158
			],
			[
				-0.0002435641061925509,
				0.0009314630595490432
			],
			[
				0.000758606139183253,
				0.0006972556749418807
			],
			[
				-0.0007528827584832123,
				0.0003441095436622389
			],
			[
				-0.000564786297162214,
				0.0006988660907312895
			],
			[
				0.0006765753236775253,
				9.35615844099456e-05
			],
			[
				0.00033841312085357354,
				-0.00029986346930740244
			],
			[
				0.000472494306578529,
				-0.0009397210170752208
			],
			[
				-5.4985365479967704e-05,
				0.0002539305528877179
			],
			[
				-0.0009960817797943237,
				9.011780819774442e-05
			],
			[
				0.0006572310404330719,
				0.0006712348919338904
			]
		]
	]
}