{
	"model_params": {
		"input_dim": 10,
		"units_per_layer": [
			20,
			20,
			2
		],
		"acts": [
			"tanh",
			"tanh",
			"identity"
		],
		"init_type": "uniform",
		"batch_size": 100,
		"decay_rate": 0.95,
		"decay_steps": 500,
		"epochs": 150,
		"lambd": 0,
		"limit_step": 500,
		"limits": [
			-0.001,
			0.001
		],
		"loss": "squared",
		"lr": 0.00891214076925288,
		"lr_decay": null,
		"metr": "euclidean",
		"momentum": 0.6,
		"reg_type": "l2",
		"staircase": false
	},
	"train_params": [],
	"weights": [
		[
			[
				-0.00044793549736507263,
				-0.0004351842289752006,
				-0.000286648302490474,
				0.0005184306539985999,
				-0.0007093320535493553,
				0.0001311486449461364,
				-0.0002886382518257851,
				0.0005788554079574563,
				0.0008938893569727334,
				-0.0005266729429857178,
				0.0005765361327312484,
				0.00020002676458908352,
				0.00029562288380969204,
				0.0007020006636511567,
				-0.0006319812092243666,
				0.0009682990836869716,
				-0.0006409273452479376,
				0.0004567400458970411,
				-0.0006452745775748268,
				-0.0005673161690217651
			],
			[
				0.0005539817288751591,
				0.0007374284953171007,
				-0.0002141873766042502,
				-0.0008562811092962568,
				0.0003055473265265445,
				0.0009650492434135718,
				-9.547609946333616e-06,
				-0.00024151798508048432,
				0.0002002558095635671,
				0.00033783414971513413,
				0.000587059954180412,
				-0.0006170103305346189,
				-0.0005580515737581863,
				-0.0005585622385412838,
				0.0006299008095866957,
				0.0009534194062045032,
				0.000357925461658553,
				0.0006776574443297285,
				0.0007976523913434917,
				0.0007603418741096843
			],
			[
				-0.00023790874718511315,
				8.080518686810452e-06,
				0.00030451111210158944,
				0.0006818388033323602,
				0.0009228954315101193,
				0.0006843946786245178,
				-0.0007396427307165736,
				-0.0001259221123123353,
				6.530446106992071e-05,
				-0.0006958166105653473,
				-0.00021537236206145387,
				-0.0005727887692693736,
				0.0002493978745042795,
				-4.4707528780691926e-05,
				0.0002365543122041776,
				0.0003015328435243632,
				-0.0005759051823462107,
				0.0009664750688184987,
				-0.0006428724776260126,
				0.0002720841919775904
			],
			[
				-0.0003399346352985093,
				0.0007711748894388248,
				-0.00015284759009905264,
				9.63569093104025e-05,
				-0.0006915930754008188,
				-0.0003869598342303111,
				0.00040662226755014625,
				0.0006664550915751108,
				-0.00029710947870312384,
				0.0006883113364777216,
				-0.0008792798964365627,
				0.0007365353408806086,
				0.0006160236395537301,
				-0.0007676616150116769,
				0.0008833760928809462,
				-0.000660228651422983,
				-0.000499128625645442,
				-0.0004112850849322718,
				-0.0005533775964026079,
				-0.00012967380974997277
			],
			[
				0.0004622901649065814,
				-0.0005341587102926908,
				0.0007082560104396671,
				0.0003248973284398051,
				0.00047344873890780735,
				-0.00016110135793289174,
				-0.0009526963178952743,
				0.0005045910061503987,
				-5.440590559355489e-05,
				0.0004862360475151454,
				-0.00025232684379078527,
				0.0006056173525566802,
				0.0007313236417268022,
				0.0002350881081585024,
				-0.000844654445686935,
				-0.00048714412368853566,
				-0.0009100537270767914,
				0.0005737349195281197,
				0.00017816757468258875,
				-8.724976222127272e-05
			],
			[
				0.0009685070324130952,
				-0.0004592358231939888,
				-0.00017600545031783762,
				-0.00011107732720866089,
				0.0005458161157894401,
				-0.00036668819637850894,
				0.0003710442872209396,
				-0.0007516617278395415,
				-0.0007126116452833096,
				0.0003525761245255633,
				-0.00011548616553213817,
				-0.0003277411764127156,
				0.0007132815405418481,
				-0.00039434032763276,
				-0.0004949287381185534,
				-3.98828283625026e-05,
				-0.0005200701849491825,
				0.00039633312548810863,
				-0.0008339662395159859,
				0.00043297415914288553
			],
			[
				-0.0004149874183379989,
				0.00016436828414524512,
				-0.0003595982165645093,
				-0.000636502452013261,
				-0.0009408488094086593,
				0.00020213885889307356,
				-5.8197170828028005e-05,
				0.0006247159419827356,
				-5.360460461613294e-05,
				0.0003164019681167656,
				-0.0009037920921099816,
				0.0007511363183260132,
				6.889541146594619e-05,
				-0.0001377697730870187,
				-0.0006853265521905823,
				-8.063867007237363e-05,
				-0.00023176231352027782,
				0.00024162196411861266,
				0.0009547126878820399,
				0.0003619553835514063
			],
			[
				0.00032268972312145825,
				0.0007053283265575961,
				-0.000991174865351949,
				-0.00011410720784194809,
				-0.0008354728921754051,
				-0.0008110955995066214,
				-0.0003506871956912718,
				0.0008234439091899398,
				-0.00029132625856522095,
				0.0002711347728340458,
				0.0009374850153179562,
				-4.52668637296893e-05,
				-0.0006038649992638964,
				-0.0007123138043531874,
				-0.000644930678240032,
				-5.659395107419972e-05,
				0.0008518324185075611,
				-0.0005337708511520496,
				0.0008984538866107677,
				0.0007343894991655613
			],
			[
				0.00030020610460011624,
				-0.0001303041968726351,
				-0.0007272660779077179,
				0.0006718614230317684,
				4.430665865813501e-05,
				0.000622671664384741,
				0.0006020648630786322,
				-0.0008510479339262209,
				-0.0008386482345297366,
				0.0007148253993167883,
				0.0008915828884618678,
				-0.0002763209193935972,
				-0.0006280731208514897,
				-0.00035343961212969414,
				0.0005009798904850047,
				0.0002464971941690784,
				-0.00024142480182701327,
				-0.0005364197568415301,
				0.0005936833075800736,
				0.0003948074793060988
			],
			[
				-0.0006242887105183612,
				0.0001747347351082418,
				-0.0003427236706019576,
				-0.0007734675892052403,
				-0.000749117970222628,
				-0.00020968590987929532,
				0.00021242298614534126,
				0.0009469117581808498,
				0.0005609650106149428,
				0.000822702375396323,
				-0.000797950271353081,
				-0.0008668496186179577,
				6.6071661837436e-05,
				-0.0009739062336597844,
				0.0005862019839326478,
				0.0003347522498253119,
				0.0008343420609906917,
				-0.0008694148065369488,
				0.0007070480041749428,
				8.787475476040169e-05
			]
		],
		[
			[
				-0.0003766808529232713,
				-2.6065364933926423e-05,
				-0.0006565706374118441,
				-0.0004604362823318924,
				-0.0007398168272099272,
				0.00050453760504181,
				0.000847662043669912,
				0.0009978049503889391,
				-0.0008117606485056692,
				0.0009643059591906149,
				-0.0003545407448015303,
				0.0001356485822832168,
				0.0008439108688020047,
				-0.0005221003093405401,
				-0.000375103565410442,
				-0.0008228390885517272,
				0.0007572707095374789,
				0.00020929140292459312,
				-0.00016214095515409489,
				0.00039138994121777214
			],
			[
				-0.0005621505329828362,
				0.00025175936405045954,
				0.00015267364421743968,
				-0.0009140866024619559,
				-0.0009853313911197571,
				0.0003215044894308134,
				0.0004743875371432133,
				0.0005706384644321764,
				-0.0007547645709599791,
				0.00045499313129611493,
				0.000283623665508736,
				-0.000839151916850085,
				-0.0009230124060054141,
				0.0008101827679968736,
				-2.3188131074497118e-06,
				0.00034234836400370817,
				-0.000696612327649872,
				-0.0003030510573474426,
				-0.0005844092543727647,
				-0.00013589582034946774
			],
			[
				-0.0009765069522205661,
				-3.395891949187365e-05,
				0.0009503690398613783,
				-0.0006938473517442048,
				0.0006535588294850003,
				-0.000653508038374308,
				-0.000770000440470823,
				-0.00021508420836095614,
				-0.00022188575001464252,
				-0.0008130550219018425,
				0.0002699569183651446,
				0.0006846985855128703,
				5.406958456144451e-05,
				0.0009527955206523261,
				0.0005871768921365404,
				-0.0009285506625715549,
				-0.000756813004981524,
				0.0008747807845836855,
				-0.0004178936811815346,
				4.0800952684423445e-05
			],
			[
				-2.5962786785569455e-05,
				0.0008688109600674002,
				-0.0002603813267207744,
				-0.0004251335319394189,
				0.0003110132658182404,
				0.0008520359815893149,
				0.0005408730464637156,
				-5.593989766600573e-05,
				-7.954073436755007e-05,
				0.00013998326625510346,
				0.00036757729576647686,
				-0.0003762301589682941,
				-0.0005478617767650205,
				-0.0007311576525492331,
				0.0007367398945179516,
				-0.0005840030440215239,
				0.00011575887909701901,
				-0.00033807536454813643,
				1.7653429226999065e-05,
				0.0006735459707583255
			],
			[
				0.0007875023771704457,
				-0.0008106048938499746,
				-0.0009487688582659873,
				0.0008607492644401222,
				0.0009598845328515049,
				-0.0003686386588150417,
				-0.0002647989418587012,
				0.0007218955223083699,
				0.00012674210861532507,
				0.0008959525947745282,
				-0.0006653269317326829,
				4.374881991626566e-06,
				-0.00047196992633994326,
				-0.0003777459567546284,
				0.000557917833176124,
				-0.000585393766153302,
				-0.0007416974846393132,
				-0.00043298091256204515,
				0.00029640033812350537,
				-0.0001265673081365555
			],
			[
				-0.0006083032635715421,
				0.00026145538106564243,
				-0.00044764509194167323,
				-0.00017561004340922986,
				0.0006168311542773435,
				-0.0009813499646254295,
				-0.0009750710306414938,
				0.0008918892349678304,
				-7.184304055654373e-05,
				0.00021375102012748635,
				-0.0008178748080284149,
				-0.0009592208230593554,
				0.00031634683138453404,
				0.0003249817176519134,
				-0.0004742616263249149,
				0.00045196073391384046,
				-0.0008610329536478889,
				0.00043897192648239864,
				-0.00036656155203206866,
				0.00015752914786491628
			],
			[
				-0.0006390030010309444,
				0.0007643244079212864,
				1.859134019935901e-05,
				-0.0004520946087881465,
				9.888964934096187e-05,
				-0.0003089318659279263,
				-0.00016718352431060437,
				-0.0002895350141342494,
				-0.0003097967884097857,
				9.668793430870812e-05,
				-0.0003295342907083383,
				-0.0007472661060294371,
				-0.000287684104087534,
				1.6886446348727754e-05,
				0.0005052253642304574,
				5.59706060479614e-05,
				0.0009616019123440179,
				0.0003285556295351691,
				0.0008103771541326935,
				8.49806562973805e-05
			],
			[
				0.0002971912962157334,
				-0.0007756662092707692,
				-0.00024528168077255625,
				-0.0005985459425240178,
				-0.0008881588997685042,
				-0.0006648491527444381,
				-0.0007301586659730283,
				-0.0006491896314529317,
				-0.0007153406800253837,
				0.0005736789939542496,
				-0.0006541662436509628,
				-1.2571101720046732e-05,
				-0.0005538765799727836,
				0.00023199725949724212,
				0.0002509591365578588,
				-0.00042120169122768876,
				0.0008389635806266146,
				3.105505982792787e-05,
				0.000289446286949981,
				-0.0005157968865227738
			],
			[
				0.0004299733187629474,
				0.00019141588466554168,
				0.0003208856326714165,
				0.0006762790291028082,
				0.0008816745420211815,
				0.00035111267336821383,
				-0.0005095947761942965,
				0.0005753264375942639,
				-0.0004856337465258074,
				0.0004547202312119884,
				-0.0008173652476526672,
				-0.00017147453217563973,
				0.0004476850545472313,
				5.614316807524039e-05,
				-0.00046236747096146935,
				-0.0006186439426591806,
				-0.00023694634733628227,
				0.0008176495889324611,
				0.0005199399833989604,
				0.0006246272366972907
			],
			[
				0.000514882720232121,
				0.0007274643620082191,
				-0.0006140535710200717,
				0.0005606285773122163,
				0.0007052158701594438,
				0.0003161270064416452,
				-0.0006261110307514148,
				0.0007508731174705381,
				0.000618860059903873,
				0.0006753791511389599,
				0.0006606451420590501,
				-0.0005467794496982594,
				-0.0001143769082008468,
				-0.00018944931889862816,
				-0.0005798727205113504,
				0.00024531027194329004,
				-2.6938182641799585e-05,
				-0.0005483271931988645,
				0.0007938086653412381,
				0.0008436723942991111
			],
			[
				-0.0007346654530812893,
				-0.000439926094351103,
				-0.0003581483676666355,
				-0.0008945918632859164,
				0.0008782227178429456,
				-0.0008409896201204789,
				-0.0008837529546722871,
				0.000269536765803009,
				-0.0004381692682855023,
				-0.00020672253627754028,
				0.000488769610378859,
				0.00023531446367952504,
				-0.0005533983726610423,
				9.737155916135585e-06,
				-0.0009637379302433553,
				0.00017234526077092283,
				-0.0008889871208721356,
				-3.7043075810753784e-05,
				0.0003549426225391431,
				0.0005774766306183158
			],
			[
				0.0005628064210896737,
				6.373243697571748e-05,
				-0.0009548144106208161,
				-0.0006323082165334055,
				-0.0007291458400269333,
				0.0007943066191811985,
				0.0007736401939221144,
				-0.00017476318159205789,
				-0.000218130167506037,
				0.000963258180339952,
				-2.8784330722921177e-05,
				-8.811597874253249e-05,
				0.0008227030354678493,
				-0.0005540195927245398,
				-0.0005118822016930906,
				-0.0008217914479320621,
				0.0008265304502490232,
				1.3641359164350171e-06,
				-0.000968002613854966,
				0.0002475305313479224
			],
			[
				0.000495996658059421,
				-0.00047059302109576874,
				0.0006622995971499116,
				0.0006649983859858375,
				0.00018303110151617562,
				0.0007656369913453772,
				-0.0001175769060628003,
				-3.455511877180654e-05,
				-0.0009125281957242375,
				-0.0007506442665412327,
				0.0004324987875900569,
				0.00018094741168438958,
				-0.0008423594389515323,
				-0.0006217588548876223,
				0.00016092872293286512,
				0.0001277837747462264,
				0.0003938590365354694,
				0.00014361045376048206,
				-0.0002590073928632777,
				-2.7137533884998163e-05
			],
			[
				0.0008089932779962472,
				0.00018185268792365481,
				-0.0005375732410545845,
				0.00035852761999210646,
				-0.00036041265006693025,
				0.00025427018606525567,
				-0.0003633212314291687,
				-0.0008105884347600629,
				-7.91890135705129e-05,
				-0.0004199047417084991,
				-0.00028451937296640505,
				-0.0001248617397079597,
				-0.0006866203291118391,
				0.0007180593701324547,
				0.0004017024288043582,
				0.00019723198564039913,
				0.0007808096197905049,
				3.499034455140904e-05,
				0.0006356969920464184,
				0.0004037926454688451
			],
			[
				-3.9603072398892904e-05,
				0.0008814831301264796,
				-0.000662840382053705,
				0.0006188952416340502,
				0.0009700956505117736,
				0.0007871125312955962,
				-0.0009847234520155655,
				0.0007942106315117882,
				0.00056378828349475,
				-0.0008000243455555607,
				0.00014977377618133878,
				0.00016031933212298506,
				0.0008790752052162292,
				-0.0003934728329334574,
				0.0008760769392156145,
				-0.00016135661692965654,
				0.0003336250705968846,
				-0.000695831238700424,
				0.0003972738262887508,
				0.0007504836168716125
			],
			[
				0.000122357441676123,
				-0.0005046036590221483,
				-0.0004981498609411747,
				0.0005011215592821917,
				-0.00028949844164157803,
				0.0007260383889480854,
				0.00039421638894182663,
				-0.00039526057904519464,
				0.000564470501267559,
				-0.0004472438951545394,
				-0.000728054256279451,
				-0.00037571833720648434,
				3.6403822387330066e-05,
				0.0006666482587256765,
				-0.0005240845638718819,
				-0.0005725817754366933,
				-0.00025415574857825705,
				-0.0002873349382962484,
				0.00028741416242606126,
				-0.0007748222171510629
			],
			[
				0.00022026851503415337,
				-3.1969223728265154e-05,
				0.000295172777184604,
				-0.0004969134532094685,
				8.243653380003604e-05,
				0.00024504428613652965,
				0.00030043073562031463,
				-0.00038038831240425996,
				-0.00035702706358825976,
				-0.0007311741842182399,
				0.0007187719475385513,
				0.00023563036899187234,
				-0.0005334971724120916,
				-0.00012300676370707734,
				-0.0005057983512779904,
				-0.0004621943315090178,
				-0.0001548977438762158,
				0.000831447806518972,
				0.000452466123146376,
				-0.00042272901302102333
			],
			[
				0.0006558913177010098,
				0.0009017237102340021,
				-0.0003532151569164059,
				-0.00024392541145795926,
				0.000887776352274001,
				0.0002937930316188203,
				-0.00023551609986496543,
				0.0006691259690548416,
				9.443980236621317e-05,
				-0.0008434432092540869,
				-0.0004934916385139021,
				0.0008548989735820427,
				-0.0006604034719952983,
				0.0005727672595868057,
				-0.000781105238504271,
				0.0006123400947503769,
				0.0005073284691228823,
				7.824022961190808e-05,
				-0.0003122462148139318,
				0.00044882984454279657
			],
			[
				0.00034563811785116123,
				-0.0009458549059130223,
				4.903257712099603e-06,
				0.00048772840027581964,
				-0.0007422914980954301,
				0.0002696354536344287,
				0.0008311662465646976,
				-0.0006244610619251923,
				-0.0008445341146033854,
				0.00010847975923314128,
				-0.00034200238877304186,
				0.0009602474742004857,
				0.0004009601823494874,
				-0.00026422177177828866,
				-0.000622945862030504,
				0.0002881990137379839,
				0.0008160933776659963,
				0.0009469404000670954,
				0.00031266803932191497,
				-0.0008526177172287648
			],
			[
				-0.0009156451792907425,
				0.0009483098277704698,
				-0.00012631061844400795,
				-0.0002205551284539531,
				-0.00043449332027615075,
				0.000828376955601283,
				0.0002069184539421039,
				-0.0007081635659236281,
				-0.0004246426820558504,
				0.0006655117086400433,
				-0.00036821077995545016,
				0.0008997457189479051,
				0.0004644996027275167,
				0.0008524451403716302,
				-0.00035410981234478055,
				-0.000935457626609336,
				-0.0007493134781109618,
				-0.00040953154925626816,
				-0.0005266734491272331,
				0.0002770094128388017
			]
		],
		[
			[
				-0.00028182898130978693,
				0.000283992995831302
			],
			[
				0.0003444170179380051,
				-0.0007817614995289381
			],
			[
				-0.0008443167450777403,
				0.0008345710425592531
			],
			[
				0.00023804317605757028,
				0.0002552745356767842
			],
			[
				-0.00015438344334550713,
				0.0005349045083261664
			],
			[
				0.000805366897126257,
				-0.0009752032165324692
			],
			[
				-0.00015855015674372415,
				-0.0009493298411282838
			],
			[
				0.0004913055705424694,
				0.0008344521449595256
			],
			[
				-0.0007099655429620289,
				0.0007252880555255949
			],
			[
				-0.00021333201970580285,
				-0.000649595914354167
			],
			[
				-0.00017475230258593192,
				0.0008214982401283911
			],
			[
				-0.0005957297485857807,
				-0.0006579996575134868
			],
			[
				-0.0006588026408351471,
				0.00019973043862307272
			],
			[
				0.0003175529588435404,
				-0.00041545274743053496
			],
			[
				-0.0009662231093711975,
				0.0008451016023379974
			],
			[
				0.0004370196643747194,
				2.0782547658973298e-05
			],
			[
				-0.0004785929950970049,
				-0.0008730630704484941
			],
			[
				-0.0005082644354427433,
				0.0005715991441669216
			],
			[
				0.0007627806567635307,
				-0.00025698756274870774
			],
			[
				0.00012527576840006102,
				0.0003414352256099198
			]
		]
	]
}