{
	"model_params": {
		"input_dim": 10,
		"units_per_layer": [
			20,
			20,
			2
		],
		"acts": [
			"leaky_relu",
			"leaky_relu",
			"identity"
		],
		"init_type": "uniform",
		"batch_size": 200,
		"decay_rate": 0.95,
		"decay_steps": 500,
		"epochs": 800,
		"lambd": 1e-05,
		"limit_step": null,
		"limits": [
			-0.001,
			0.001
		],
		"loss": "squared",
		"lr": 0.005,
		"lr_decay": "exponential",
		"metr": "euclidean",
		"momentum": 0.6,
		"reg_type": "l2",
		"staircase": true
	},
	"train_params": [],
	"weights": [
		[
			[
				-0.00041060661809543865,
				-0.0009370837903956184,
				-0.0007482805471228297,
				0.0001722362969203235,
				0.00022636504977556135,
				0.0005662960467362821,
				0.0004901434384188606,
				-0.0006031838108769203,
				-0.00016327173711023655,
				0.0008650912077754237,
				-0.0005880399093846599,
				-0.00023226010741841344,
				0.00019557202412916934,
				0.0002958926059108335,
				-0.00039361915626053153,
				-0.0005740393738566183,
				-0.0009903135755361555,
				0.0005834400279605841,
				-9.604944150157094e-05,
				-0.00094476942176895
			],
			[
				-0.00015969767193032983,
				0.00042722559950467555,
				-0.00045833462077234284,
				0.0003886518624673168,
				0.0009065090602090767,
				0.0008401464900898638,
				0.00017979626910683195,
				-0.0006998458921853068,
				-0.0008478547318124212,
				-0.0007673809416831192,
				-0.0006079713441086033,
				-0.0008889275646745276,
				-1.403921693790772e-05,
				-0.000716286485759125,
				-0.0008092781226093222,
				0.0006072262235057939,
				0.0007992241180926878,
				-0.0008534411691546247,
				-0.00019263103410998683,
				1.6902346101252538e-05
			],
			[
				0.0003337403559692271,
				0.0008873900977246268,
				-0.0007894712566418206,
				0.0006697107284058957,
				-0.000617007466135443,
				0.0009811347951749314,
				0.0008482594380006694,
				-0.00047422609137303545,
				-0.0003426641247048155,
				-0.0008355719112845008,
				0.0004124204144448757,
				0.00037693308918034657,
				0.00018660719357514472,
				-0.0007595416124015586,
				-0.0008871961793205621,
				-0.000797616476391565,
				0.0007382099782961631,
				0.0003456104312499653,
				-7.521316707320301e-05,
				-0.00044100024267750633
			],
			[
				0.0002808368772546457,
				-0.0008237625638659189,
				-6.825414032882171e-05,
				-0.0002677501002951981,
				0.0008456171013379468,
				0.0005856889747649181,
				-0.0009831907179247443,
				0.0009176246587023135,
				0.0008063140999451457,
				-0.0003565796574820859,
				0.0009991586669489266,
				-0.00032061364601748026,
				0.000501959583093993,
				0.000697807314932761,
				0.00018119896456523848,
				0.0006666996515504236,
				-0.00021331459965236773,
				0.00016651756452532355,
				-0.00019330561933532755,
				0.00020225974572238726
			],
			[
				0.00048192194537051663,
				-0.0001893969639975375,
				0.0006548111796800568,
				-0.0008998775838932984,
				-0.0001810551113556689,
				8.222101060851423e-05,
				-0.0006485615931594526,
				0.00011076312650900883,
				-7.247259844359141e-05,
				-0.00010339800937696772,
				0.000758616039001278,
				0.0009613935444977117,
				-0.0005776382843114172,
				-0.0005880471079458092,
				0.0005984411732528757,
				-0.0003829073045006641,
				-0.0006446480416785541,
				-0.0006363248217154977,
				0.0005769601725353968,
				-0.0008062212012087027
			],
			[
				0.0007568156110433013,
				0.0002546946356920454,
				0.0005380517783951867,
				0.000240394481522815,
				0.0005960929839218326,
				0.0009533674559244988,
				-0.0006251236913290021,
				0.0004185684976747853,
				4.4646305207002215e-05,
				-0.00045136827309771627,
				-0.0003374001486636537,
				0.0002793622899567871,
				0.00011438062749217744,
				-0.0008245059165254702,
				0.000954953682802052,
				0.0007096009761310279,
				0.0006211004253818253,
				-0.0008043410371325266,
				-0.00042654800982424917,
				-0.0009415636298759389
			],
			[
				-0.000537269330630875,
				0.0006882992393992724,
				0.0009687773525364645,
				9.302815638613992e-05,
				-0.0002670522794548215,
				-0.0008045852435113221,
				0.0008456529589444272,
				0.0005780011597644281,
				5.412275083478322e-05,
				-0.00017346512875027447,
				0.0002471050204652359,
				0.0003484560397606733,
				-0.0007210172907916328,
				0.0008441843342227187,
				0.00013098634008849538,
				0.0007662193407494326,
				0.0006486625502688818,
				-9.621590654984471e-05,
				-0.0008930297539658408,
				1.1729671955881815e-06
			],
			[
				0.0009991020995209123,
				-0.0006946305137182829,
				0.00047819207473988497,
				0.0008601602334217793,
				-0.0005621419197796075,
				0.00029665185406781776,
				0.000983839132087565,
				0.0004111941850578973,
				0.000534599670046023,
				-0.0001396169134257894,
				-0.0003887410655099903,
				-0.00015110742612899487,
				2.831566744161771e-05,
				0.00033256132354263224,
				0.0008732910872114256,
				0.0002809992112212175,
				0.000980565082818762,
				-0.0009729610230828964,
				0.0002370087366547599,
				0.0006437643296649553
			],
			[
				-0.0004146587648623907,
				7.87170583868525e-06,
				-0.0007286280462016257,
				-3.20338613800015e-05,
				0.0006758370001729167,
				-9.664140309285018e-05,
				-0.0009081797333177087,
				0.0007188786906810146,
				0.00034331108324560963,
				0.00020132162988225092,
				0.0007470063462239407,
				0.0006614157219652034,
				-0.0003080152574975654,
				-0.0005045728866865878,
				-0.0007686043149976989,
				-0.0006802997434769274,
				0.000423797843635929,
				-0.00046078310499744757,
				-0.0007889067706647061,
				0.0009429565950313434
			],
			[
				-2.47108750546359e-05,
				0.0007385443787368726,
				-9.476780528972634e-06,
				-0.00035668881656308687,
				0.0006501899055306657,
				0.0006373645536825784,
				-0.000654578041494301,
				-0.0007363106263539587,
				0.0005385991425468732,
				0.0008496193054860221,
				0.0004977389141603034,
				-0.0003158433590434433,
				-9.202212133156598e-05,
				0.0007807363677986229,
				-0.0002961442506739853,
				0.0009193953711966031,
				0.00014801317354356147,
				-9.039037785491867e-05,
				0.0008001470745065337,
				0.0003734605017134422
			]
		],
		[
			[
				-0.0006858394111019588,
				0.000894790370958061,
				-0.00016634008440184148,
				3.282910254192553e-05,
				0.0009741011853147468,
				-0.00022283656628179968,
				0.00034151902375177353,
				-0.0005093396022375465,
				-0.000305123008610283,
				0.0004372375396251261,
				-0.0006679287796005414,
				-0.00025047021033385323,
				-7.071266930076445e-05,
				-0.0003514418825734056,
				-3.908980985147111e-05,
				0.0005190225202390867,
				-0.000601755277877857,
				-5.170286094418632e-05,
				0.0007314142372635264,
				0.00016421751634308496
			],
			[
				0.00043699639415541256,
				-8.047877969940935e-05,
				-0.0009150259345874563,
				0.0006623330876838107,
				0.0006094764796260497,
				-0.00042208980180610497,
				0.0009163639509709857,
				3.946489072406581e-05,
				0.0003136607881800298,
				0.0001017303418364428,
				0.0003742895307892746,
				0.00033507949148478067,
				-0.0008068437327038338,
				0.0007711244367043281,
				-0.000635812911683797,
				0.0008974722675006131,
				-0.0007682562266170781,
				-0.00025922899711750566,
				0.0004373020153383639,
				-0.0003021297655418587
			],
			[
				-0.0007501183516211279,
				0.000920719988509519,
				-0.0009444422562688106,
				-0.0008842164940251072,
				-0.0008177391219644798,
				0.0008708774354974844,
				0.0002504339907345109,
				-0.000775091392261603,
				0.0002539653201380624,
				0.000541925550388501,
				0.0006067776744654307,
				-0.0001737540942553206,
				0.0004969894932413778,
				0.00028349321368510596,
				-0.00019476924315985804,
				-0.00042652437709313727,
				-4.633885501076091e-06,
				-0.0008425563341381821,
				0.0003009504383236995,
				-0.0008374839011663559
			],
			[
				6.480949947980158e-05,
				0.0005238179690770467,
				0.0001500533407689489,
				-0.0006897953386571342,
				-0.00029130340894342765,
				0.0008299534742384545,
				-6.167786779814129e-05,
				-0.00048406281813936935,
				0.0008966924020155787,
				0.00019467915650376514,
				-0.0009559977391007166,
				4.486490465610972e-05,
				0.0005835476502949897,
				0.0008417141305408118,
				1.113741971791823e-05,
				3.0051939045995816e-05,
				-0.00019273341531355378,
				-0.00027700275139186186,
				6.458032918694556e-05,
				0.0004543858635338424
			],
			[
				-0.0006060695717181621,
				0.0007843149921219266,
				-0.0004000309373696152,
				-0.00010036072896145117,
				0.00040086301434764243,
				0.0006874895906018822,
				0.0002625581873963844,
				0.0008906363894486049,
				0.00044181123898543264,
				7.794133853343543e-06,
				0.0008786376451245974,
				0.0008396722856247121,
				1.539644547526452e-05,
				-0.0006454514823107402,
				0.0001399573842875148,
				-2.8785347101381305e-05,
				-0.0006918510959298568,
				-0.00014536088496757847,
				0.00010247298299396134,
				0.0007400993215479592
			],
			[
				-5.708862487865908e-05,
				0.00046847444690465345,
				-0.00019064698711217926,
				0.00044182174702167175,
				0.0002732407969346781,
				-0.0002539223633887226,
				-0.000940964411540058,
				-0.00011812245417405667,
				-0.00013262938532514342,
				-0.0005768657823679694,
				0.00029235570674345543,
				0.000265278882038623,
				0.0002747752553410301,
				0.0008889037886343661,
				-0.0004376096203747695,
				0.0005602874492414206,
				0.000631729445787132,
				0.0007248927051635348,
				-0.000493634051499968,
				-0.0002642238316936811
			],
			[
				-0.0009687402756602277,
				0.0009767583593687911,
				0.0003268131933406621,
				0.0005767570896851176,
				0.0006799066682683836,
				-0.0004147694674635072,
				-0.0007522175641735636,
				0.0006207760605736181,
				-0.00039041173414296605,
				0.00032739659768156655,
				-0.000491010548024511,
				4.355107675526747e-05,
				0.0004370858480882301,
				0.0008368896081728046,
				-0.00046987411535266113,
				0.0005945322509240739,
				-0.0006926954722929657,
				-0.0008212137001390378,
				0.0007969141155388657,
				-0.0005674266088253814
			],
			[
				0.00046055213528149144,
				-0.00027027763963246307,
				-0.0007679135716636448,
				0.000619863735495191,
				-0.0003014022081394423,
				-0.0007969805963395364,
				0.0006255268714718942,
				-0.0007231823336669934,
				0.0001499727571245789,
				-0.0006689259953320743,
				0.0005051549737757166,
				0.0004923659347390013,
				-0.0009739074503652064,
				-0.0007697899313052239,
				-0.00038027868483641366,
				-0.0006865668654185255,
				2.1480998707065335e-05,
				-0.0009661158342038953,
				0.0004260264620601047,
				0.0003904531311716415
			],
			[
				0.0008328786242744524,
				0.00048192839208484437,
				9.428356207898201e-05,
				0.0007026239592159622,
				0.00047172185770078825,
				0.00024858190298329653,
				0.0007432958912099998,
				-0.00014235562291083895,
				0.00043636050050075846,
				-0.0007293116921654643,
				5.734528910025902e-05,
				0.000686590338678326,
				0.0007611821966676158,
				-0.0001017055695712799,
				0.0003016700175923848,
				0.0007689225999726696,
				-0.0005504705243100725,
				-0.0006787835169708885,
				0.00046373445577208906,
				0.0009428019820821986
			],
			[
				-0.0008114845976954332,
				-0.0006531457492148574,
				-0.00046519669295118924,
				-0.0008800452959684637,
				-0.0007710494589499202,
				0.0001832658466044048,
				-0.00028509440058149794,
				-0.0006084856567300916,
				2.4060120174057564e-05,
				0.0003639697682343722,
				0.0009663929568930192,
				0.0006240875661437267,
				1.8477009711443705e-05,
				-0.0006139780302812199,
				-3.078321500452194e-05,
				0.0002811985155738274,
				-0.0001098837511815296,
				0.00047029785959646817,
				-0.0009036174938504338,
				-1.0809729348074636e-05
			],
			[
				-0.0005694386983188382,
				0.0003929700788837143,
				-0.0007237810820321602,
				0.00010209108444166797,
				8.25354994221678e-05,
				0.0004511572230970573,
				-0.00030307639340850304,
				-0.0005597231805360927,
				0.00018549525514312878,
				-0.00018155346152517657,
				-0.000965519299003589,
				-0.0006735903007787132,
				0.00022466257772277287,
				-0.000457664331009992,
				-0.00044167930282905713,
				0.0008082964959454147,
				0.0009949947173839816,
				0.00016628393845084582,
				-0.0008514446904655458,
				0.0007336749672188737
			],
			[
				-0.0009526255928386054,
				0.0006227437894814154,
				0.0005471948294985978,
				-0.0001547147512297,
				0.00030469126073818555,
				0.0005929567461599686,
				-0.0008614545285174087,
				0.0008577149572937003,
				0.0008438658359421359,
				-0.000956486219392045,
				0.0009010601636518939,
				-0.0003400669154768783,
				0.000835682015601312,
				0.0008354789631532268,
				0.00031053448982393847,
				-0.0008062817381680132,
				0.0006642586198295412,
				-0.0005534491220156416,
				0.0003852920327368616,
				-0.0003383954731440308
			],
			[
				0.00022245395225796525,
				0.0007500729658154795,
				0.000295648372152189,
				0.00046398829151509074,
				0.0006181236735755265,
				-0.0009576846317143229,
				-0.00011689043313480594,
				0.0007142965061254754,
				0.0007249336155554999,
				0.0005327491459642837,
				-0.0001722590854526325,
				0.0003794797785302154,
				-0.0008021967933885979,
				0.000994975057382518,
				-0.0001962073063695182,
				0.0005956906405367565,
				-0.000569246710792057,
				0.0006742155401889605,
				0.0007737996040874731,
				0.00037294762616368296
			],
			[
				-9.201749236935623e-05,
				0.0006540857257301606,
				0.0006323689392236076,
				-0.0007027489113269008,
				-0.0007744720767234859,
				-0.00036704775318733,
				1.5592727866857968e-05,
				-0.00048276065186115625,
				-7.51182358621782e-05,
				-0.0005954960417415274,
				0.0006369454265628578,
				0.0007568064132475226,
				0.0005679146341535273,
				0.00014282140054514133,
				-0.0007759558747641997,
				0.0005593289596238812,
				0.0004906497497120985,
				-0.000533677066908961,
				0.0005886771538195961,
				-0.00018266566159035676
			],
			[
				0.000783530930417926,
				-0.0001862048592884449,
				-0.0004062038201960006,
				0.0004088162269988611,
				-0.0007194110488704117,
				0.000222395502342391,
				-0.00010552411073600474,
				-0.00021142290631291313,
				-0.0007398856205112104,
				-0.0006514929769310079,
				-0.0008887205218767227,
				0.00019839622102239937,
				-0.0004507492631122161,
				-0.0005919294491791145,
				-0.0009189959639234445,
				0.0009019173479009326,
				-0.0004627900045744373,
				0.0008545882701342983,
				-2.7602049533779257e-05,
				-6.126520956957113e-05
			],
			[
				-0.0009468796822364398,
				-0.0006430999344839001,
				-0.00010598522735058612,
				-0.00043993417105806995,
				0.000254265703737292,
				-0.00016125547749470102,
				0.0005435293932694056,
				-7.717928821692182e-05,
				0.0008109997892287244,
				-0.0009175083936976758,
				-0.00015273753112393803,
				0.0005457177310790333,
				-0.00010163848894883772,
				-0.0004917401670122548,
				-0.00039295450031078905,
				-0.0006494609598751042,
				0.0005727980784900311,
				0.0005929758281303572,
				-0.00034819549444854855,
				-0.0004617194348240896
			],
			[
				0.0008608802543351049,
				-0.0003836659776276563,
				-0.0009718121122987826,
				8.51713100711081e-05,
				0.0006430230365623742,
				-0.00029895690801413455,
				-0.0008492240875671486,
				-0.0004786255403330022,
				0.0006892871698947706,
				0.0008779187499877192,
				0.00018486456643080859,
				-0.00032769333742300175,
				0.00018520440547186985,
				-0.0006513015679179847,
				-0.0002166354413643221,
				-0.00023493002544520177,
				0.0006403827785930298,
				0.0009448363975563209,
				0.0009039795293644016,
				0.0005887748766043332
			],
			[
				-0.00031695337359879884,
				0.00024234639986728517,
				0.00015833829598359338,
				-0.00019980563735443307,
				0.0005460696200005569,
				-0.0006021445109454871,
				-0.0009586893420677196,
				-0.0009107589073854261,
				-0.0005334660878684382,
				-0.000864278484983001,
				0.0009059653299975138,
				0.0005138767429473518,
				-0.00033680025032510976,
				0.00041313093296632534,
				0.0003143461482073278,
				0.000817400344348054,
				-0.0004895516873163026,
				0.0002717300997304665,
				-0.0006655375384734845,
				-0.00019994838155523698
			],
			[
				0.00010314670181306787,
				0.00028106703191142324,
				0.00013092961628361779,
				-0.0001591705147873881,
				0.00025771137759850486,
				0.0005438197352796701,
				0.000705406226762687,
				0.00035777811373670604,
				0.0005590205637549367,
				-0.0008226388698458135,
				-0.0007431055080371114,
				-0.0007596285879809395,
				-0.0006887468315034753,
				0.0009544149287174903,
				0.0005975890718383627,
				-0.0009726071495519328,
				-0.0004539684599263431,
				0.00022383643055641413,
				-0.00036265718613420674,
				0.00037218281974607395
			],
			[
				0.0008741734140789905,
				-0.000698032625095639,
				9.639868363373722e-05,
				0.00029544757187675635,
				0.0005596610656118987,
				-0.0002047405045221398,
				-0.0007705483012089045,
				0.0006062055735898365,
				-0.0008484947803714995,
				-0.00026675944333379186,
				0.0005848250121296074,
				0.000964061860322839,
				0.00024397782058248807,
				-0.0008969798690907875,
				-0.0005411863630816738,
				-0.0009675932065358661,
				0.0008222983532203347,
				-0.0004044137518535824,
				-0.0009504297545540612,
				0.00024327238080035707
			]
		],
		[
			[
				0.0008118011515858994,
				-0.0009401862740707701
			],
			[
				0.0008607173348091897,
				-0.0009895321313368542
			],
			[
				4.8496972800797684e-05,
				0.0008828962831610625
			],
			[
				-0.0009633079551217219,
				-0.0006121446104782367
			],
			[
				0.0007976448756238858,
				-0.0003895784626443841
			],
			[
				-0.0002652067215632729,
				-0.0005189678793056896
			],
			[
				0.000575769802867397,
				-0.0007525202905848559
			],
			[
				-0.00024893003463393024,
				-0.0003803146589911519
			],
			[
				0.0007417146310326316,
				0.00041036520176595246
			],
			[
				0.00028697217266719687,
				-0.0008106626721687949
			],
			[
				0.0005238085539114791,
				0.0004960723881617735
			],
			[
				-0.00041555640538067085,
				-0.0002858954026101841
			],
			[
				-0.00039797191522295125,
				0.0005167796061270006
			],
			[
				0.00022888953749038566,
				-0.00046837676955638764
			],
			[
				0.0009031065059171882,
				-0.0001421361632651508
			],
			[
				-5.6863101274657484e-05,
				-0.00026101676565725687
			],
			[
				-0.0007984917947534047,
				5.9348264298412015e-06
			],
			[
				0.00046873571115908287,
				-0.00011838432834813007
			],
			[
				-0.0003943160257937115,
				-0.0009038986082678916
			],
			[
				0.0005330566257713049,
				-0.00045875907886813955
			]
		]
	]
}