{
	"model_params": {
		"input_dim": 10,
		"units_per_layer": [
			20,
			20,
			2
		],
		"acts": [
			"tanh",
			"tanh",
			"identity"
		],
		"init_type": "uniform",
		"batch_size": 100,
		"decay_rate": 0.95,
		"decay_steps": 500,
		"epochs": 150,
		"lambd": 0,
		"limit_step": 500,
		"limits": [
			-0.001,
			0.001
		],
		"loss": "squared",
		"lr": 0.00891214076925288,
		"lr_decay": null,
		"metr": "euclidean",
		"momentum": 0.6,
		"reg_type": "l2",
		"staircase": false
	},
	"train_params": [],
	"weights": [
		[
			[
				-0.00033524267217215043,
				-0.00015057157778008957,
				6.572424214338853e-05,
				0.0002698141470596459,
				-0.0007789923224604118,
				-0.0008939931671836683,
				0.00039672020408687515,
				-0.0009183100316950248,
				-0.0006935046628078516,
				0.0006433785104348656,
				-0.00015034821804022738,
				-0.00013485097008388155,
				-0.0009639096206392,
				0.00098765695750302,
				-0.0003633532401687982,
				-0.000552224094785773,
				-0.0006287139200521861,
				0.0007079803379442895,
				0.0003771082575550985,
				-0.0009408233295601653
			],
			[
				8.150818596971694e-05,
				-0.00011601989069378194,
				-0.0009077298350739843,
				-9.279403147585284e-05,
				0.00047920759805426924,
				0.000805511670070075,
				0.00022541339619024233,
				-0.0007925911540337916,
				-0.0008417572957052235,
				-0.0005132343304563489,
				0.0007536351200436585,
				0.0008475874532353671,
				-0.0007953343327465845,
				0.0006173676510283922,
				5.458827602338552e-05,
				0.0003749943727163628,
				0.00014416315264690607,
				8.658326009376542e-06,
				-0.0006431441332277497,
				0.0007133781336728521
			],
			[
				-0.00032956152331205127,
				-0.00013516317048618224,
				0.000214562762346581,
				-0.0003207921628295944,
				0.0005232763853218051,
				0.0009133023122474143,
				0.000914334566854859,
				-0.00018998157174414908,
				0.0008239371080028006,
				-0.00047331863775549633,
				-0.0008670550861780473,
				-0.0006182117155954139,
				6.444633038135564e-06,
				-0.00028331332000090966,
				0.0005102903510488398,
				0.0002523794647073727,
				-0.0006427392304718484,
				-0.0003180302063041083,
				0.0009438913716551625,
				0.0009163556543374553
			],
			[
				-0.0002493709406646416,
				-0.0002927985116654839,
				-0.00038722375350488947,
				-0.0005660226138588202,
				0.0004768790320906222,
				-0.0005876793880562481,
				0.00033783047671001923,
				0.00034009197383455775,
				2.4822491930489698e-05,
				0.0008213603881859993,
				0.0006648838431383996,
				0.0008237923741518372,
				0.0005829148630539308,
				0.00018596535376705337,
				0.00026058355704515175,
				0.0001644108915190266,
				-0.00043938575220623505,
				0.0005295397486173904,
				-0.0004550585384089662,
				0.0005984436092272888
			],
			[
				0.0005851638011967677,
				-0.0005918044517827825,
				0.0007555557838446376,
				0.0007104879213816636,
				-0.0006070105520442327,
				-0.0005624022800486239,
				0.00014230112023512985,
				0.000458018227016197,
				0.0009540535622843379,
				-0.0008779370972319743,
				-0.000956913980136729,
				0.0006920154238404998,
				-0.00027889583641804586,
				-0.0004644875169186153,
				-0.0008591394051846673,
				0.00030842822104658395,
				-0.00011495668911097568,
				0.0006070735793056177,
				-0.0005920652995230688,
				0.00018562691989310455
			],
			[
				0.0005602609239098197,
				0.00014703487509344962,
				0.00022074345648334637,
				-0.0001485801616588218,
				1.954454191425742e-05,
				-0.00017400657326643182,
				-0.0006386291490236863,
				-3.2111808469546875e-05,
				-0.0005033698263693622,
				-0.0008163093223098661,
				-0.00022508992626098646,
				-0.0007589138365453768,
				-3.5296413425732324e-05,
				6.908463690397473e-05,
				-0.0009671244289809518,
				-0.0009288419687323317,
				0.00012130153586945502,
				0.0004061953460552112,
				-0.00019892256961689394,
				0.00039257358618403925
			],
			[
				-7.133724694663825e-05,
				-0.000793187618423936,
				0.0009491414764381477,
				-0.0006862321799152931,
				-0.0009942453483620924,
				-0.0006938934260932499,
				-0.0005722659794965301,
				-0.0001485741975168882,
				-0.0007193426150608051,
				0.0003187588971488833,
				-0.0006776647258736735,
				-0.00043328688788177923,
				0.0008669609255458682,
				0.0005385409093878995,
				0.0005538858120524494,
				-0.0007762132314795052,
				0.0005936297636553991,
				-0.00030665726575218534,
				-0.0002774872030837179,
				0.0008552306538465728
			],
			[
				-0.00039866544750815367,
				0.0003865538380503459,
				0.00037803857491593477,
				0.00038188082048825896,
				0.0006883638613415324,
				-0.0007543863884271889,
				0.0009125441188790396,
				-0.000757188180697395,
				0.0007018051182580292,
				-0.0005416273107690993,
				-0.0004196355038046846,
				-0.00010479757484989393,
				0.0005150167368158402,
				0.0007408859034986478,
				0.00028116651711554744,
				0.0007801047248812067,
				-0.0007019248818083908,
				-0.0005245691837031932,
				-0.0001382570983185996,
				0.0008015037884348335
			],
			[
				-0.00040124778598310496,
				-8.167610520897893e-05,
				-0.0003344964533354591,
				0.000979964171672181,
				0.00040297960804332243,
				0.0003970615705891818,
				-6.024420338063003e-05,
				-2.3807118120258838e-05,
				-0.0002718444776283977,
				0.00032101797884662425,
				0.000535682658441344,
				0.0004997137808446315,
				-0.0003746110998518466,
				-0.0007877880812563308,
				0.00033736476743609334,
				-0.00017362341438924745,
				0.0008537041647776976,
				0.0009508213317909148,
				-0.00043262265152676106,
				0.0009151039722108589
			],
			[
				0.0008903937988658406,
				0.00038314235242965376,
				0.0008004440264921136,
				0.0005516160193817722,
				0.0008971207728855099,
				-0.0007189206965482473,
				0.000657761381471711,
				-0.000717944265779751,
				-0.00019745017127915498,
				5.761270354855434e-05,
				-0.0008666660589653399,
				0.000592813901969632,
				0.0006048759359979024,
				-0.0006266521608226756,
				-0.0007533388502674156,
				-0.00014990437686287627,
				0.00031650714366586474,
				-0.0004833950587178628,
				0.000414910270815125,
				-0.0004493358016723905
			]
		],
		[
			[
				0.0002467815151155292,
				-0.0006006224931001879,
				-5.4293282801901326e-05,
				-0.00036456957089448807,
				0.0006521809194244351,
				-0.0008141236894053139,
				-0.000480033319942548,
				0.0007458514992830308,
				0.00043537761559312945,
				0.0007263858328436887,
				-0.00031499470924186107,
				-0.0006627258874981004,
				0.0005966504420473818,
				0.00032878600370492674,
				0.0003135199920203081,
				-6.0542707083568906e-05,
				-0.0005085022371968888,
				0.00042252360671104594,
				-0.0005413089649877532,
				-0.00028923048091945814
			],
			[
				0.000998057492138136,
				-0.00011890777672855823,
				-0.00026972286614037873,
				-0.0005408438280347692,
				-0.00038073818495691777,
				-0.0006557168922312604,
				0.0004005186704840989,
				0.0005974156255590967,
				0.00023440599087164345,
				0.0008601221501261095,
				0.00012493169866202103,
				0.0005810825548911022,
				-0.0007563353161820297,
				0.0004951413583773585,
				0.0001950908706561216,
				0.0008502563469915605,
				7.023478115407151e-05,
				9.439055596377347e-05,
				0.0006831521973645611,
				0.0004867159118932096
			],
			[
				0.00026174810273551065,
				0.0003229752384405905,
				0.0007678039412290882,
				-0.0009481362288408877,
				-5.354816221093267e-06,
				-6.756641635504801e-05,
				0.0008209359550730687,
				-0.0009953968964538287,
				-0.00024619065946794615,
				0.0002271027011809285,
				6.396673846628394e-05,
				0.0001947725459922891,
				0.0006130994189415566,
				0.0004764793584293692,
				-0.0003565375138374631,
				-9.018496223673679e-05,
				0.00046339532123272306,
				-0.000440900698040299,
				0.0005729927179986996,
				-0.000252772701326961
			],
			[
				0.0007206755840757774,
				-0.00039117464493264255,
				0.0009111327286109689,
				0.0002576873700997145,
				-0.0004426253189763232,
				-0.0004528277429972094,
				0.00034130987902797295,
				-0.000146694586045153,
				0.000759027318500095,
				0.0005311822901760568,
				-0.00037389747987991574,
				0.00028740250997926343,
				-0.000560772209455199,
				0.00038291229932434635,
				0.0007440719862296993,
				-0.0004742755970596539,
				0.0006156537239399762,
				0.0005572123856693824,
				0.00048327072572911726,
				0.0003230893925330587
			],
			[
				0.0005493422550770313,
				0.0007191052262396586,
				0.0005177421268500488,
				0.00027372510255499797,
				1.1590746071349573e-05,
				0.00048825909018723745,
				0.0006020087378001866,
				0.0009362735420650986,
				-0.00014773817511873832,
				-0.00011814206983116332,
				0.00039067180297793175,
				0.0005658176584861893,
				-0.00010238190258692037,
				9.083897457085933e-05,
				0.000651886860723706,
				-0.0005346752933484824,
				-0.0004156698902102702,
				-0.0007584387178086157,
				0.0003821314964011402,
				0.0007074754345369578
			],
			[
				-0.0005426993347418443,
				-0.0009329402629324854,
				-0.0006330012406580792,
				0.0006566859476747854,
				0.0005072122233149489,
				0.0008958774303927048,
				-0.0008317033348660632,
				0.0009963143632247661,
				0.0007220041474979802,
				-0.0007694432728952463,
				-0.0004276721495707625,
				0.00027058168867195626,
				0.0007900234890986472,
				-0.0004946768146802328,
				-0.0004800345695768187,
				-0.0007042472479115056,
				0.00026221272914207826,
				0.0002883550540659864,
				-0.0009436407174908795,
				-0.0009240958419706072
			],
			[
				0.0003311656603579374,
				0.0008304385679915793,
				0.0005092543589338679,
				7.181397925078853e-05,
				0.0007188204971741877,
				-0.00015897699305439112,
				-0.0006203695136594192,
				0.00011801212352732771,
				-0.0004629495310567804,
				-0.0007327893880523932,
				0.0007790608078219281,
				-0.0007252604175446071,
				-0.0007921000439699002,
				-0.0003558561169472621,
				-0.00015588263209590305,
				3.076536968594015e-07,
				0.0008769087770760971,
				0.00023504001674697962,
				1.3496172340188989e-05,
				0.0005798798192575044
			],
			[
				-0.0005250821876285211,
				4.85167143022317e-05,
				0.0008546393448004193,
				-0.00017376331113587624,
				-0.0001816478694857893,
				0.0002492054193220887,
				-0.00042693311491664293,
				0.00043764622868311073,
				-0.0006703532398743709,
				0.0004529393591344835,
				0.0008125111049152819,
				0.0007217471115691665,
				-0.0006792626719949224,
				-0.00043869102663497955,
				0.0008234939382540569,
				9.600546799523883e-05,
				0.0002827754311474451,
				-1.534882074408347e-05,
				-0.0004251944190971016,
				-0.0005149108149955959
			],
			[
				-0.0005059107590466485,
				0.0006872224651570528,
				-0.0007405362752963403,
				0.00046860590025209876,
				-0.0006773017727480542,
				-0.0003352350970103091,
				-0.000329672963995002,
				0.0001592040999408189,
				-0.0006223797968929141,
				-0.0008817007936862747,
				-0.0009731387611641389,
				0.0008135949463826196,
				-0.0007942506632638695,
				-8.496817500292788e-05,
				-0.0003399785036236391,
				0.0002887723368222325,
				-0.0007255741802934519,
				-0.0009089964104049559,
				0.0008445997349453545,
				0.0007564848702615392
			],
			[
				0.0008499942313519671,
				7.025215653699715e-05,
				-0.0006366771759901025,
				0.00013302934528297257,
				0.0005042735952124314,
				0.0004192020804567613,
				-0.0004388058829244807,
				-0.00012447841207543098,
				0.000884972571642305,
				-0.0009307540254082382,
				-0.0003239323721667849,
				0.0002141433649973034,
				0.0007763553061782397,
				0.0009954268980624822,
				-0.0003778477964560856,
				0.00016990331851662465,
				0.00031154669363196654,
				-0.00025215748497312853,
				-0.0006687299526270877,
				-0.0009203777411627539
			],
			[
				0.00025474833603340505,
				-0.00029488075610172926,
				0.0004346111183618441,
				-0.0001911214014332776,
				0.00031813231151362376,
				0.0002399794653117288,
				0.0003113060046408549,
				-0.00048736462866086393,
				-0.000743680006085073,
				-0.0009323265840216699,
				-0.0006783490880163246,
				-7.440926555106107e-05,
				0.0002115423086991924,
				0.0006751703650234502,
				-7.384514838376058e-05,
				0.0004691125729520784,
				0.0008931491594563201,
				0.0001646267463005129,
				0.0008196630642894299,
				0.0008382515447340662
			],
			[
				-0.0007823353841850383,
				0.0005633723968218628,
				0.00012412552952154802,
				-0.0008608195077130234,
				-0.000964061816103301,
				-0.0004905032035885926,
				0.00010891405476312101,
				0.0003746853476092038,
				-0.0005159691326193112,
				0.0004794354362729772,
				-0.0009307737085045125,
				0.0009526754254830835,
				-0.0009954555009979522,
				3.8225393971570666e-05,
				-0.00023274896481198938,
				0.00042318244451619146,
				-0.00048712517381218094,
				-0.0009830455006395009,
				-0.0006510799140163987,
				0.00033500861973589577
			],
			[
				-8.816296935356901e-05,
				0.0002557204076123285,
				-0.0003004597188898606,
				0.000840476920769551,
				-0.0006104175020302099,
				0.0004602260338550522,
				0.00028308719144059884,
				0.0005571728690546046,
				0.0006184216978804117,
				0.0007390261112219284,
				-0.0002959611603530432,
				0.0006829338198235846,
				-0.0007151066706131912,
				-0.0006991307769194086,
				-0.0008725282137976224,
				0.00014914309910346655,
				0.0008794002175571279,
				-0.0003511331606366739,
				6.944892411028239e-05,
				-6.738777313064872e-05
			],
			[
				0.0005216460925089276,
				-0.000550170927176981,
				-0.00042145827944692945,
				-0.0009078354833070479,
				-0.0009433028170154057,
				0.00011983967733667118,
				0.0005423254440754626,
				-0.0004890548016276071,
				-0.00027523591553310807,
				-0.0008738596564506234,
				-9.860084159987736e-05,
				-0.0008154787374201429,
				-0.0001970396090808684,
				-0.0005707274249084535,
				0.0009610678879969211,
				0.0002751945288525066,
				0.0007471690138868984,
				-0.00042453333507030933,
				0.0006047763882052722,
				-0.0004355721652279192
			],
			[
				0.0009711881081496915,
				-0.00023835222356963475,
				0.0008559797007468815,
				-0.000878150303631744,
				-0.0005824541943626157,
				9.337154616930561e-05,
				-0.0007595739853583225,
				0.0008431920232649436,
				-0.0005830317563751082,
				3.81742196990391e-05,
				-0.00014569182702949045,
				7.191008649420319e-05,
				-0.0005486088041697021,
				0.00023183699074220618,
				-0.0006875038383730144,
				4.6298163811160555e-06,
				-0.0007973086791592252,
				-0.0006820684657647305,
				0.000833500725499874,
				-5.303731352656097e-05
			],
			[
				-6.533841995911898e-05,
				-0.0002647527246443462,
				0.000608670224155594,
				-0.0007713932616036296,
				0.00089090919602391,
				-0.0002999041962656408,
				-0.0003215241643519808,
				0.0002991286654098965,
				-0.00010240137235766977,
				0.0007500603813148795,
				0.0001500269229633062,
				-0.0003414901677331923,
				-0.0007467298515596028,
				0.0001776483531319207,
				-0.0003588854060393845,
				-0.0006451438767357551,
				0.0006021750028653104,
				0.0005537353962957662,
				0.00043123325228513966,
				-0.0009611340415043475
			],
			[
				0.0004667219277900152,
				-0.00021884248046073426,
				-0.00030977961252724544,
				-0.00018231244932799724,
				0.0009641000005398736,
				0.0006288983588369056,
				-0.00028982548542786637,
				-0.0009132701258750329,
				-0.0003822986385344276,
				0.0005279343621623015,
				0.0007091048437431816,
				0.0005718173567241731,
				0.0009525311500482223,
				0.0003422670820964265,
				0.0007279979960273725,
				0.0003852613337492626,
				-0.0005898553654687251,
				-0.00029181274280618583,
				0.0009286886683430545,
				-0.0007523377950129275
			],
			[
				0.0007298974178067041,
				-0.0006473890519665835,
				0.00046659640272716857,
				-0.000141667523445079,
				0.00015338443149349665,
				-0.0007661268597049553,
				-0.00031631571575323637,
				0.0003413687437280311,
				-0.000495554474573812,
				6.250307701285204e-06,
				-0.0004751164600674063,
				-0.0005619204400268405,
				-0.0005269013966636071,
				0.000500148923670098,
				-0.0009719074899377451,
				-0.0003564572538704196,
				-0.0008867708727445194,
				-5.0053396761848626e-05,
				-0.00026455255389795076,
				0.0008634954249700471
			],
			[
				-0.0001393365128264279,
				-0.0007298805153227681,
				0.0005687182760201594,
				0.000599325947313524,
				-0.0002819191558277223,
				-7.5920141977299e-05,
				0.0008353162826176027,
				-0.0005172262786486202,
				-0.00032105308531259853,
				0.00019432682891025671,
				0.00040043691281557324,
				-0.0009097819242137182,
				0.000754342208172135,
				0.0004939569555277856,
				0.00013964237450704575,
				-0.000545171231503759,
				-0.0005199899725994717,
				-0.0004857928431960661,
				0.0006497529070122587,
				-0.0008152143687102631
			],
			[
				0.0004141833812771787,
				-7.225071761285374e-05,
				0.0003971286921491642,
				0.0006126598592381812,
				0.0005078789028677044,
				-0.0006820999095796415,
				0.0005522015133835154,
				0.0002506135887686853,
				4.697342365950425e-05,
				-0.00011562596332428108,
				-0.0009739775709798833,
				-6.745998285485801e-06,
				-0.0005276777889120989,
				-0.000597547970072364,
				3.974889113401796e-05,
				0.0009330209409150608,
				-0.0008394938247002353,
				-0.0003047867992568991,
				-0.00010567644292488933,
				0.0004837657684244115
			]
		],
		[
			[
				-0.00041007985388729945,
				-0.00021446538628401048
			],
			[
				0.0007987287751762937,
				8.94818224566156e-05
			],
			[
				0.00011256187887120016,
				0.0005723739472516503
			],
			[
				0.0006628009073427802,
				0.00089298024348602
			],
			[
				0.0009645209109295917,
				0.0006448375043522977
			],
			[
				0.0002172977146647991,
				-0.0006573581282028565
			],
			[
				0.0007472666671373895,
				0.0005709290286319054
			],
			[
				-0.00027454578168390636,
				-7.215003815735747e-05
			],
			[
				0.0009503021278000005,
				0.0008054366597527968
			],
			[
				-0.0009813164726888313,
				0.0003564358781202822
			],
			[
				0.0006566094239971606,
				-0.0009867887712010383
			],
			[
				-0.000559379669625266,
				-4.554790594591296e-05
			],
			[
				-0.0005345800501470082,
				0.000667909415235886
			],
			[
				-5.053300376207145e-05,
				-0.0005662752751540894
			],
			[
				0.0009283376183426082,
				-0.0001516798546230653
			],
			[
				0.000995839464052606,
				-0.0001622109159110578
			],
			[
				-0.0007958528432765078,
				-0.00020963920276418247
			],
			[
				-0.00020121533359702948,
				0.00046676662181696096
			],
			[
				0.0003561166008593049,
				-0.00036501581732465544
			],
			[
				-0.0006540213853182266,
				0.0009145272662015986
			]
		]
	]
}