{
	"model_params": {
		"input_dim": 10,
		"units_per_layer": [
			20,
			20,
			2
		],
		"acts": [
			"tanh",
			"tanh",
			"identity"
		],
		"init_type": "uniform",
		"batch_size": 91,
		"decay_rate": 0.95,
		"decay_steps": 500,
		"epochs": 150,
		"lambd": 0,
		"limit_step": 500,
		"limits": [
			-0.001,
			0.001
		],
		"loss": "squared",
		"lr": 0.007185958238678252,
		"lr_decay": null,
		"metr": "euclidean",
		"momentum": 0.7977428112252327,
		"reg_type": "l2",
		"staircase": false
	},
	"train_params": [],
	"weights": [
		[
			[
				0.000401587275643303,
				0.00047573268843256224,
				0.00025570450743351084,
				-0.0005322717017205527,
				-0.0007601781081822028,
				0.0006711240854892916,
				0.0005641635350302548,
				-0.00033274292504921227,
				0.0006315873485099339,
				-0.0002505012937825266,
				0.0008648919783551051,
				0.0008959598131523818,
				4.0671458981760954e-06,
				-0.000700249721035312,
				-0.0006146515032701256,
				0.0007318101198631034,
				0.00012648522576095569,
				0.0005572956551228893,
				0.0007516354171101594,
				0.00010251284997275486
			],
			[
				0.0008684354598715856,
				-0.0009637859009798165,
				-0.0006784589878414858,
				-0.00027483615655704986,
				-0.0006790134555873235,
				-0.0002944462539797519,
				-0.00023612005527267406,
				-0.0004609464137483783,
				0.0008260098143663388,
				9.459132985942102e-05,
				0.0003933435074543049,
				0.0008030395108688316,
				1.3922778510725483e-05,
				-0.0005715213336814069,
				0.00017168223678510068,
				0.0007024270881229968,
				-0.0001082475752119716,
				-0.0002540137350133565,
				0.0006102459736976212,
				-0.0005399172921789712
			],
			[
				-0.0003428216705158101,
				-0.0008351131150442597,
				-0.0008921306260144903,
				-0.0009896006817432374,
				-0.00023326159360068945,
				-0.0009773360644971675,
				0.000371947227960591,
				-5.89961472105407e-05,
				-0.00030191810068247557,
				0.0009673784312347381,
				0.0006223852293501587,
				0.00044258049355584586,
				-0.0009398568022110163,
				0.0007678358775040294,
				-0.0009693732183527657,
				-0.00019845135128790804,
				-0.000930588497042721,
				-9.516648031333808e-05,
				0.00052297619841543,
				0.0004645300815507491
			],
			[
				-0.0008049819137150183,
				-0.00042635081022597164,
				3.8711831789770825e-05,
				-0.00014721541591614519,
				0.00010904952026321224,
				0.00041968978517122426,
				-0.0006013782794855504,
				-0.000335825874431775,
				0.0005823293308882757,
				0.0008680090948514729,
				-0.000970978836446939,
				0.0005322935505151904,
				0.000704700488559311,
				0.0008140422547817199,
				-0.00019899553028517448,
				-0.00017891959315759882,
				-0.0001565221127516063,
				-0.0002618842547383515,
				-2.9871999992498745e-05,
				-0.00028886260536366607
			],
			[
				0.0009317816517091224,
				-0.0007230668748741146,
				-0.0005932285021743915,
				0.0002938650944372273,
				-0.00038561165386848334,
				-0.0005847415074133471,
				0.00045091379646440555,
				-0.0009968949410295337,
				-0.0009089974407348505,
				-0.0005691925197600343,
				0.0005721710227034513,
				-0.0002179218140071844,
				0.0006146644613755606,
				-0.0005802490777365836,
				0.0009498165113635173,
				-7.615100378765291e-05,
				0.0006199081879585838,
				0.000644425314160585,
				-0.0008250339381531837,
				0.00012655681554664465
			],
			[
				-0.0006197955731829811,
				-0.0004190170825597719,
				7.867622419860149e-05,
				0.000766442064737592,
				0.0007674977584279548,
				0.0009473417267223318,
				-0.0004980897617431767,
				-0.000890561997831199,
				-0.0009081051060091059,
				-0.0004000764578499207,
				-0.0005388957779181796,
				0.00037073877677613475,
				-0.00031700229520494007,
				0.0002756394709571212,
				-9.445502253828517e-05,
				0.0005044090231793646,
				-0.0007343166842152149,
				0.0005320975406079801,
				-0.0005983281733914555,
				0.00030880863431523363
			],
			[
				-0.0002408073264022066,
				-0.0008767364480445463,
				-0.0005805594834801279,
				0.0006260341290802176,
				0.0009025918957562542,
				0.0007353502802150984,
				-0.0009281081502476896,
				-0.0007762954223314522,
				0.0009318126758283264,
				-0.00027620059180109705,
				-0.0002721805012739693,
				0.0007705685979247764,
				0.0005433542447752359,
				-0.0006752429434221157,
				-0.0006791080684877251,
				-0.0007343763740261975,
				-0.00016709056162683038,
				-0.0003250947065223666,
				3.657842421638988e-05,
				9.8743222718647e-05
			],
			[
				0.00013520587655376642,
				-0.0009344014662847312,
				-0.0009357321425084979,
				0.000660942814455674,
				0.000516438143602999,
				-0.0007707521990496485,
				-0.0006972842242492798,
				0.0003725530135675716,
				0.00024858708591539913,
				0.0005543073980141071,
				0.000985188202232882,
				-8.594693548029755e-05,
				-0.0005099930489025965,
				-0.0003784199073879746,
				-0.00016384344990863096,
				-0.00017494198699201662,
				0.0002040771498202582,
				-0.000809446789874908,
				3.0441524352995677e-05,
				0.0009006776244357261
			],
			[
				8.691801263965024e-06,
				-0.00041013629243597774,
				0.0009863352468900111,
				-0.000571017597999171,
				-0.0002736199948051379,
				0.0006778067875009678,
				0.0004137549584827813,
				0.00096477957945133,
				0.0004903907326973213,
				0.0005709955030763307,
				-0.00034827895364162155,
				-0.00014206810819424227,
				-0.000915834447107031,
				-0.0007412554255255119,
				0.000976674628271351,
				0.0009078871184862529,
				0.0005893477929296671,
				0.0006202359588492717,
				-0.0005332589462787938,
				0.00016323700383275106
			],
			[
				-0.00017828271507720663,
				-0.0007177750101665251,
				0.00025484597836597555,
				0.0009725973136055291,
				0.0008576868545028097,
				0.0007025706188325722,
				0.0005906728732247742,
				-0.00026762289111458926,
				0.0008550444514450698,
				0.0006650567398866637,
				0.0007967015021185287,
				-0.0006721601385746838,
				0.0007259125823936541,
				-0.0008550389381650032,
				0.0009114142630990726,
				0.0006413786878778694,
				-0.0004952927386610738,
				-0.0008864012764683309,
				0.00030448737523921057,
				0.0005026111821827945
			]
		],
		[
			[
				-0.0001090645833571347,
				0.0001465610998846584,
				-0.0005322073923749311,
				0.0008122096247288868,
				0.0007684119939890773,
				0.0001260255021753461,
				-0.0009105654623253194,
				0.0003022778236174584,
				0.0009488495765688555,
				0.0008180840404762336,
				0.0006994763684869281,
				-0.00035934159628678275,
				-0.0006138149883129931,
				-0.00029775780271228494,
				-0.000596665359593061,
				0.0006414592455120966,
				-0.0007252234791970385,
				0.0008635947459695811,
				0.0006595511433319244,
				-9.675875383459616e-05
			],
			[
				-0.0005087723274656608,
				0.00048593382423019714,
				-0.0007882159405335181,
				-0.0006894485103411095,
				0.0007864828828475503,
				-0.000654723151914571,
				0.0004260065234666303,
				-0.0005860375793550019,
				-0.0009879388417660198,
				0.00048738560220590787,
				0.00015170323905468576,
				-0.0006214410243722315,
				0.00047431378989057447,
				0.0006116392162371189,
				0.00020606760842038427,
				0.0007656570580341184,
				4.199090526326062e-05,
				-0.0002028742680523554,
				0.0007890937545583744,
				-0.0006084252752208503
			],
			[
				-0.0008048469810172401,
				-0.00038862499203043833,
				0.0007856046354358323,
				-0.0006366002519956914,
				8.63704096378049e-05,
				-0.00042360843069839005,
				0.0005727407277835866,
				-0.0006861718640496501,
				0.0009544145181984592,
				-0.0003495310454577269,
				0.0001538463307920999,
				-2.091923398703818e-05,
				-0.0005000454885761969,
				0.00010382635118406144,
				0.0005936205304934512,
				0.0004747921841517385,
				0.0007046519252271153,
				0.0007391912574951807,
				0.0003216206636614291,
				-0.0008774472551924452
			],
			[
				-0.00019889765266241312,
				0.0009173621179056634,
				3.3410915561398174e-05,
				0.0007656690373803313,
				0.0009013880775564957,
				0.0004142219129960954,
				-0.00020284862487022256,
				-0.0006583304109818782,
				-0.0005647984402687158,
				-0.00048439802830484375,
				0.000670405779064451,
				-0.0008600632722947988,
				0.0007291356879333812,
				0.0008142368878526324,
				-0.000344590252030726,
				-0.0006454555804229177,
				-0.00016191345139747698,
				0.0008995793875617474,
				0.00017746644948567853,
				-0.0004806263550155696
			],
			[
				-0.0005825414381225454,
				0.0008955668094696237,
				7.454553597649374e-05,
				0.0003774292103989273,
				-0.000978422307879017,
				0.00040064856806875434,
				0.0006033015155529123,
				-0.00015700708674820651,
				0.00035544886455355436,
				0.00035004269526775164,
				-6.0576262795431586e-05,
				0.00015296068126420255,
				-0.0005611942870588802,
				-1.288039703248138e-05,
				0.0005953462006153347,
				-3.89786661939371e-05,
				0.00044218249989856954,
				-0.00038776386007249104,
				-0.0007760069251312712,
				-0.0001620126189333513
			],
			[
				0.0007347572292631301,
				0.0007764541180239944,
				-0.0009557972397040769,
				0.0006448969996344814,
				-0.00022391151103384407,
				0.0002815754661595691,
				-0.0005052404901589131,
				-0.00029049139856869056,
				-0.0005836918780864498,
				-0.0004769021674307654,
				0.0008868756878488771,
				-0.0008178413037760319,
				-0.0007578847850161468,
				-0.0008145821397511857,
				-0.0009036485871830571,
				0.0009318019459741333,
				-0.00026515601861156,
				0.000490382131699683,
				-0.00010700546070399098,
				0.0008527303502164855
			],
			[
				-0.000456428591485333,
				-0.0009557030108411378,
				8.375216444122548e-05,
				-0.00022218923011368323,
				-0.00017258599019279706,
				-0.0006239418594875229,
				0.0002758469325060517,
				7.754505480072802e-05,
				-0.0008907647687815331,
				0.0007970810167583044,
				0.00021129288132579757,
				0.0007138627009647142,
				-0.0006712298656018587,
				4.190589185124483e-05,
				0.0002626169777832329,
				-0.00043000386838250467,
				-0.0008338826591060029,
				0.0005991142322989945,
				0.0009197978914563362,
				1.5128964343491015e-05
			],
			[
				0.0008902799896565797,
				0.00013978559090312061,
				0.000943677131225366,
				-0.0006723324624607188,
				0.0007849046168806248,
				-0.00019159568425006505,
				-0.00017903588975731852,
				0.00020799941811902654,
				0.00022738652461004572,
				-0.0002822043453255159,
				1.3588995978395385e-05,
				6.0837367820597114e-05,
				0.0005447982713768728,
				-0.0005970389122241737,
				-0.0009177413076546133,
				-0.00016322661855544117,
				-0.000923308259715185,
				0.0008752210788597213,
				-0.0009402546850927999,
				-0.00047370616976224404
			],
			[
				-0.00015259918849995578,
				-0.00039780502240036974,
				0.0007259900805214098,
				0.0006722500720893448,
				-7.276299087232861e-05,
				0.0009771347415661177,
				2.7765179629582384e-06,
				-0.0006984432133511262,
				0.0005765319316714031,
				0.0004459728000435325,
				0.00043064371057824433,
				0.0007174595284367038,
				0.0006556344592411579,
				0.00062258093111097,
				-0.0006122202433908293,
				-9.588682586702483e-06,
				0.00010994231789246975,
				0.0002241300353266805,
				0.0008894935354834016,
				3.440776832230744e-05
			],
			[
				-0.00013007351165295565,
				-0.0003442848253404991,
				0.0007337387134844755,
				-0.00020584740490147161,
				-0.0005312037429759018,
				0.00016281866185717054,
				-0.0002969601586808759,
				0.00037859940168476344,
				-0.00017070940322817666,
				-0.0004556960144875934,
				-0.00017709588242981991,
				0.0005576500512213644,
				0.0006210921695264139,
				-0.0004785100011771964,
				-0.00023625570079124892,
				-0.0001764418489158886,
				0.0003140967310263389,
				0.0008680874690286044,
				-0.0001804541139829388,
				0.00048474490203960323
			],
			[
				0.0005587992256978196,
				-0.0005542771503403292,
				0.00014908279441227796,
				-0.000897274674879395,
				-5.692040686754163e-06,
				-9.238112468009426e-05,
				-0.0004966180923241772,
				0.0006475920522584552,
				-0.0005314001825559616,
				0.0006484690366137856,
				-0.0006609501015878308,
				0.0007501352183365022,
				5.6403911973284876e-05,
				0.0007477877163075838,
				-0.0008166619051976278,
				-0.0005644354978726776,
				-0.0003459740799392102,
				0.0002602344775410122,
				0.0003431048296954084,
				0.0006912039261634593
			],
			[
				-0.0007001942058883779,
				-6.325703061438976e-05,
				0.0008862259654900547,
				0.0005504953302611932,
				0.0007165655785828164,
				0.00032488546983995125,
				-0.00011827977292818304,
				-0.000435429515609332,
				0.0003390462708591198,
				0.0005204181179802423,
				0.0005144538795531556,
				-0.0005064473088143238,
				-0.0002582133183058311,
				-0.0009932565822785204,
				0.0005849962319230419,
				-0.0009533144331959793,
				0.0006562094272648373,
				0.0002461950172119227,
				5.6415775773696565e-05,
				-0.0005845048234137276
			],
			[
				0.0004693764760069995,
				2.883199918168075e-05,
				-3.853581070469513e-05,
				-0.0008424512960727233,
				0.00011995897540736347,
				-0.000859739429924002,
				0.0001980913054519342,
				8.450155914610253e-05,
				-0.0007114924963378753,
				0.0009489846835305615,
				-4.4873633960481295e-06,
				-0.0009889961496634186,
				-0.00042109161786236225,
				0.00027089875345712297,
				8.801783116404224e-05,
				-0.0009312129692612872,
				0.00043326140302338777,
				-0.0006062767191677954,
				0.0007304726583075808,
				-0.0008346260289163035
			],
			[
				-0.0008528886483956844,
				0.0009740899844123407,
				-0.00044042923041606047,
				-2.785405178867828e-06,
				-0.000174321017780187,
				0.0002705140521560498,
				0.0004979363797442333,
				-4.240105919145964e-05,
				0.00026720947394914775,
				0.0003529818164839521,
				-0.0006236450261425191,
				0.000825253076618473,
				-0.0006104107729149519,
				-0.0005999905172915756,
				-0.0005098649786792444,
				-0.0005839806055539867,
				0.0001521715119579027,
				-0.0008362326759327887,
				0.0001605274147729696,
				0.0002760301778808813
			],
			[
				-0.0009404037170527966,
				-0.00042350373095375574,
				-0.0003524914423997436,
				0.000630912845204123,
				-0.0007539984330026234,
				-0.00037839511299579784,
				-0.0007128894553193726,
				-0.0005620123958373271,
				0.0003606012494105724,
				7.821168839865157e-05,
				-0.0007854470441871855,
				-0.0005946395782098168,
				-0.00032227569827062786,
				-0.0009290299798658983,
				-0.00045545858968743056,
				-0.0006192851514802276,
				0.0009437260619743694,
				0.00017740894160917214,
				0.0006606306317893599,
				0.0005919288811105003
			],
			[
				0.00056856248524,
				-0.0005059626249056446,
				0.00045842961022278875,
				0.0005881398823706435,
				-6.301773112706369e-05,
				-0.0009519380268097195,
				0.0008075403548516422,
				-0.0005438730874625741,
				0.0007062912420631546,
				-5.4162713151526074e-05,
				0.0008986730038399358,
				-0.00043958362998466633,
				0.00021695147379677216,
				0.0007118411626063086,
				-0.0004460083423862382,
				-0.0001182384097891926,
				0.000142724761836286,
				-0.0003756147232414995,
				0.0001106794416592049,
				0.0002063303129943388
			],
			[
				0.0003049229347818162,
				0.0009203431730224175,
				0.00045642411216971035,
				0.0006140117164967281,
				0.000398712434167871,
				0.0008565343486009623,
				-7.00196403624711e-05,
				-0.00021317266413745605,
				9.046719316477812e-05,
				-0.0008508025103726739,
				-0.0002991252211436053,
				-0.0006330562248901856,
				0.0009038117818324146,
				-0.0003219352127519908,
				0.0005697929549802739,
				-0.0008226154464920905,
				0.0004137798765841052,
				0.00033235676338902844,
				0.0006946758399783899,
				6.65528176922751e-05
			],
			[
				0.00014380706007449803,
				-0.00017325281022117817,
				0.0004050730926533693,
				0.00011383064228154228,
				-0.0002716036766167595,
				0.0007521489156483525,
				-0.00018379278042571646,
				9.439322002594247e-05,
				0.0008897007614013907,
				0.0009122793380594183,
				0.0009803310848399195,
				-0.0003487064135765436,
				7.996306391028002e-05,
				0.000856461692888332,
				-7.521610001293545e-05,
				-0.0006264232966032455,
				-3.470297929285878e-05,
				-0.00011841988813819703,
				-0.0004640743343851543,
				-0.0008648106831600326
			],
			[
				6.797100540419858e-05,
				-0.0007050961978724492,
				0.0002820790274166802,
				-0.0006496358889503395,
				-0.0004161252331157032,
				5.912164262831393e-05,
				-0.0005036249746758979,
				0.00021835706920248334,
				-2.5764751990387446e-05,
				0.0007766453106005924,
				-0.00021927724065156132,
				-0.0008584675206533821,
				0.00042255256665657266,
				0.0007883662781709815,
				-0.00030633272757377085,
				-0.00015204553946386384,
				0.0003317111972094087,
				0.0005383825435151626,
				-7.194420309744175e-05,
				-0.00046961707638500984
			],
			[
				-8.582906156149065e-06,
				0.0006988944113925847,
				0.00011645055064995807,
				0.0009527356299545934,
				-0.00016357412631480388,
				-0.000814093691876822,
				0.000900176613500612,
				-0.0007485250818233347,
				0.000494531529259863,
				0.0009223633092385027,
				-0.000759666064542073,
				0.0008231667564223093,
				-0.0002675126304101911,
				-0.0005207874640034553,
				0.0007129942961446192,
				-7.300702927614373e-05,
				-0.0005398554179413242,
				0.0005056024265901831,
				-9.490562003185458e-05,
				-0.0006623647280972948
			]
		],
		[
			[
				0.00018380341460081892,
				-0.0003111747450764773
			],
			[
				-0.00022214990135142497,
				0.00010587222340230525
			],
			[
				-0.00019192608921079276,
				0.0005463208012040524
			],
			[
				-0.00031350859625107824,
				0.00041988153310540594
			],
			[
				-0.0004454166259572654,
				0.0003975226769335717
			],
			[
				7.036183208940163e-05,
				-0.0001398307626617343
			],
			[
				0.0008134331004447011,
				-9.195339885503318e-05
			],
			[
				0.00047963592756923665,
				0.00037071797422455607
			],
			[
				0.00028299901006780914,
				0.00045120928796560443
			],
			[
				0.0009626063626419754,
				0.0005345873179905941
			],
			[
				-0.0009686360396044525,
				8.11403464078468e-05
			],
			[
				-9.492650772673246e-05,
				-0.000746555644006444
			],
			[
				-0.0008088027807027305,
				0.0003234685787786623
			],
			[
				-0.0002631588305794226,
				0.0006600610689234561
			],
			[
				0.0004995559381827722,
				-0.0005814046939955052
			],
			[
				0.0005227225038684836,
				0.00030381076057417597
			],
			[
				1.5335822087987313e-05,
				0.0001871286757480176
			],
			[
				-0.00014987078235966032,
				-0.0003440591139025318
			],
			[
				0.00021480758633939025,
				-0.00021505637040983847
			],
			[
				0.0005588763474940553,
				-0.00023125922241964373
			]
		]
	]
}