{
	"model_params": {
		"input_dim": 10,
		"units_per_layer": [
			20,
			2
		],
		"acts": [
			"tanh",
			"identity"
		],
		"init_type": "uniform",
		"batch_size": 16,
		"decay_rate": 0.95,
		"decay_steps": 500,
		"epochs": 700,
		"lambd": 0,
		"limit_step": 500,
		"limits": [
			-0.001,
			0.001
		],
		"loss": "squared",
		"lr": 0.0021435193860245855,
		"lr_decay": null,
		"metr": "euclidean",
		"momentum": 0.6,
		"reg_type": "l2",
		"staircase": false
	},
	"train_params": [],
	"weights": [
		[
			[
				-0.0008525925215433095,
				0.000578560041336664,
				-0.0003150381428086579,
				0.0006200036957616968,
				0.00043758407014629457,
				-0.0005342815545004427,
				2.6811154086825613e-05,
				0.00034233428674902526,
				-0.0001854165536360117,
				-0.0001976551629724446,
				-0.00014753029588344122,
				0.0003828171000072268,
				-4.311990710501165e-05,
				-0.00023045220974996883,
				0.0009799638250636011,
				0.0003640737883587261,
				0.0009606184999546895,
				7.320766829994278e-05,
				-0.0009772205777900328,
				0.0005654715471510605
			],
			[
				-0.0001480342221841244,
				0.0007750751573307156,
				-0.0001842662350879749,
				-0.0009379535932909271,
				0.0007350020437253062,
				0.00032958901202140376,
				0.00023165191869832773,
				-0.0008934610889751688,
				6.059649807790878e-05,
				0.0005576592820850188,
				3.709352506765405e-05,
				-0.000586533222568691,
				-0.00012498291009108218,
				6.596264524049876e-05,
				5.248836923013372e-05,
				-0.00013559728613445011,
				-0.0004518013319113126,
				6.426831538140234e-05,
				0.0009713639843687517,
				0.0005602079919886547
			],
			[
				0.0005910389327675354,
				0.0004353654032673265,
				7.822197639885441e-05,
				0.0007161187969798196,
				-0.0005448802329132074,
				0.0004332300479069561,
				-0.0002823757775346642,
				-0.0002169761376167043,
				-0.0006445139299827991,
				0.0008658195817977095,
				-0.0007536187229245065,
				0.00038776118450604535,
				-0.0008250805796995793,
				-0.0008875887839571191,
				-0.000551534004337124,
				0.0004044592136003846,
				-0.0006003484957027301,
				0.00017782042730263032,
				9.51049555371732e-06,
				0.0004105089855884331
			],
			[
				-0.0005462198311878485,
				0.0004418165361041188,
				0.0005588950118558015,
				-0.0003366357106827431,
				0.0002574455136577071,
				0.0006392955281899939,
				-0.0004269240012282112,
				0.00028570194281310707,
				-0.0005650930881854464,
				-0.0003796146004154834,
				-0.000990569614244442,
				-0.0007972700446919205,
				-0.00013867122241908428,
				-0.00037433601688156013,
				-0.0003570417557253056,
				-0.0008914315679981025,
				0.0008259767688214954,
				-0.0006177618318800264,
				0.0007003752846781192,
				-0.0004578151686805719
			],
			[
				-2.333965212131142e-05,
				-0.0007593305344415098,
				-0.000448362934866265,
				-0.0008680359265518478,
				0.0004149925265763022,
				0.00013115993976185194,
				-0.000235357509022397,
				-0.0007092064048850489,
				-0.0009716889305554786,
				-0.0007746607196611574,
				-0.0006070100446260594,
				0.0005676405665574541,
				0.0005643868293163947,
				-0.0001208112901525853,
				-0.00010274107070549988,
				0.0008718470494523249,
				-0.00023627809597963443,
				-0.00030390242468668793,
				-0.00019041255804618526,
				-0.0002258180096645783
			],
			[
				3.044371955868391e-05,
				-1.565564750195315e-05,
				0.0006669369247781043,
				-0.00043699547410038344,
				0.00019632152048829846,
				0.00021211169168223695,
				0.0002997492055754269,
				-0.0007218750558396657,
				-0.0008540340886241768,
				-0.00016098291027754415,
				0.0002654986440969605,
				0.0006897039575101348,
				-0.0009022232273910052,
				0.00012630651103271427,
				-0.0009599268208180314,
				0.00013616474211428455,
				-9.946401242566852e-05,
				0.00046004693751961617,
				-0.0003724884476606807,
				0.0007364288502000312
			],
			[
				-0.00035659250278570064,
				-0.0007654479193048876,
				0.000577394659970705,
				0.0004570599321031786,
				-0.0009614377523358235,
				0.000548813790701171,
				0.0003157294490997748,
				-6.847818219740589e-05,
				0.0002150607076993815,
				0.00011717174692317729,
				0.0007645924568571712,
				0.0007110354618025819,
				0.00023873670082711468,
				0.0004183752190833729,
				0.0004160095276527407,
				-0.0003982530402567966,
				-0.00039295775917518895,
				8.280917760356303e-05,
				0.00040574857111576735,
				0.00027395452229428516
			],
			[
				0.0004429376396485377,
				8.362673007133417e-05,
				0.00019869125189682021,
				-0.0005998984401620093,
				-0.0007080265730732096,
				0.0007393204589071652,
				0.0009546578876886824,
				0.00028300493312490515,
				-0.00037735402299267156,
				-0.00048489534908271396,
				-0.0008215940857126494,
				0.0003677826098365932,
				0.0006718399493799954,
				0.000513270501582873,
				-0.00035235478068528024,
				-0.0008776596765180696,
				-0.00035946172058304326,
				0.00040262926639963396,
				-9.544478594817436e-05,
				-6.450022460333679e-05
			],
			[
				0.00030976723243565695,
				-0.00020576115437146033,
				-0.0009277556787932076,
				-0.0002462668316946142,
				0.0009658011836265576,
				-9.877140408583434e-05,
				0.00012759774513701038,
				0.0007836597936054621,
				-0.0009751541551272856,
				-0.0005688246558687469,
				-1.958552501476053e-05,
				0.0008350443235619089,
				0.0006056204716792025,
				0.000503002043197141,
				-0.0008470126622924266,
				0.000641758037610278,
				0.0007720366492923105,
				0.00014708687376161194,
				0.0005835111418336291,
				0.0009034024994279519
			],
			[
				0.0002861444097081432,
				-0.0007066204541189571,
				0.00036141919414889334,
				0.00017403664818338178,
				0.0005470784441535062,
				-0.0006975368571397407,
				-0.0008468922845740526,
				0.0006722421049884899,
				-0.0005549459222058235,
				0.0006387195488829422,
				0.0007884389289810748,
				-0.0006437875624009733,
				0.0001017181085062296,
				-0.0006668743722638328,
				0.0008792412521067344,
				-0.0003395920651899021,
				8.533839070582307e-05,
				-0.0009246275728343301,
				0.000871126434931192,
				0.0004465729422820056
			]
		],
		[
			[
				-0.00069093790050917,
				0.0005991250389321208
			],
			[
				-0.0004438399976559522,
				-0.0007265778311382016
			],
			[
				0.0005223457075896369,
				-0.00048240382844166613
			],
			[
				0.0005834831545317844,
				0.0007419617930224253
			],
			[
				-0.0007357189952959214,
				-0.00021939927696710182
			],
			[
				0.000756616820177647,
				0.0008412878044896791
			],
			[
				-0.00047574570665959496,
				0.0009012265288883812
			],
			[
				-9.961163481026739e-05,
				0.000642672389314304
			],
			[
				3.7280920995656905e-05,
				0.0005243411657549562
			],
			[
				-0.0008739206467819694,
				0.000978094320102952
			],
			[
				1.759338534111838e-05,
				-0.0005338810684653644
			],
			[
				-0.0007057081611817555,
				0.00046956021846672404
			],
			[
				-0.0006305307903116306,
				-0.00017158749165180147
			],
			[
				0.0001421358608496542,
				0.0005543764142312206
			],
			[
				-0.0009136899274975469,
				-0.0006325966948055243
			],
			[
				0.00016097846045330156,
				0.0007177601968270449
			],
			[
				-0.00071192975642136,
				-0.0008059214397662909
			],
			[
				-0.0008093183295533157,
				0.00011705466089378708
			],
			[
				0.0007689175471435011,
				0.0008632220053494846
			],
			[
				0.0009105018779923453,
				-0.0009476525836120167
			]
		]
	]
}