{
	"model_params": {
		"input_dim": 10,
		"units_per_layer": [
			20,
			2
		],
		"acts": [
			"tanh",
			"identity"
		],
		"init_type": "uniform",
		"batch_size": 16,
		"decay_rate": 0.95,
		"decay_steps": 500,
		"epochs": 700,
		"lambd": 0,
		"limit_step": 500,
		"limits": [
			-0.001,
			0.001
		],
		"loss": "squared",
		"lr": 0.0021435193860245855,
		"lr_decay": null,
		"metr": "euclidean",
		"momentum": 0.6,
		"reg_type": "l2",
		"staircase": false
	},
	"train_params": [],
	"weights": [
		[
			[
				0.0008797353297693073,
				0.00025114508395191566,
				0.0005807643085409739,
				0.0006567589026300962,
				0.0005403844918264102,
				-0.0001336577419999565,
				-0.000886370749443617,
				-0.00029700333743100133,
				0.0003806575061894187,
				-0.0005444750889332841,
				-0.0007844207706227374,
				-4.01069225705919e-05,
				0.0001502500073641386,
				0.000969765060368907,
				-0.0009982555047447976,
				0.000532870462476815,
				0.0002590823576428135,
				0.0005298757771563182,
				0.0008975845060930369,
				0.00042016440864918805
			],
			[
				-0.0008592999750234654,
				-0.0001036738349671051,
				-0.0006636006975421593,
				0.0006697325797358487,
				0.00023506598134513472,
				-0.00036088191035972203,
				0.00022420314056570694,
				-0.000625327534711152,
				-0.0005016437618198999,
				0.0003581374678701024,
				-0.0008963714483983165,
				0.0006167403736028264,
				-0.0008480810097449447,
				-0.00052424193939694,
				0.0004910864352352861,
				0.0008417972368182133,
				0.00016108864548822362,
				-0.00021470936708056331,
				0.00078619457137502,
				-0.00027639887473336036
			],
			[
				0.00022029623547432714,
				-0.00041305342977285167,
				-0.000929627279357773,
				-0.0007501900368922854,
				-0.0009227373251597262,
				0.0002111731826805244,
				0.0003687452557991401,
				0.0006566325812042439,
				0.0002822270198880473,
				0.00020555167810345663,
				-0.0005931282778283653,
				-0.000717494285951087,
				-0.0009494080829789811,
				0.0008503088691428587,
				0.00026713821688686273,
				-0.00014451345595938839,
				-0.0001251060372491912,
				0.0008490558091306696,
				-0.00034173850628222097,
				-0.0009386102330232828
			],
			[
				-0.0005536653272628966,
				-0.0008362959294975552,
				0.00019787592102701282,
				-3.473613985773374e-05,
				-0.0008580475193709305,
				-0.00020129187027029748,
				-0.000282329033177434,
				-0.0003576695195944362,
				0.0007616437137990656,
				0.00031601896117310936,
				-3.408719488975475e-05,
				-7.782141339867895e-05,
				-0.00010737614787126608,
				-0.0005166603336895195,
				0.00011820932552270751,
				0.0009573482036331518,
				0.0003075938165462719,
				-0.0004188969158149369,
				0.0004463013121015222,
				-0.0009752306256706202
			],
			[
				0.00029941735665899244,
				6.528749726580452e-05,
				-6.0008084607376944e-05,
				4.2099753459077334e-05,
				-0.0004884816059729583,
				-8.956225969027412e-05,
				0.0004549024892451575,
				-0.000654473709232684,
				0.0008646894651701546,
				-0.000547367618962153,
				-0.0005270517215256935,
				0.0008052113835935902,
				-0.0009626885626723496,
				-0.0008826521367189555,
				0.00031028434956532967,
				-0.0007230874357215016,
				-0.00012312250729525531,
				-0.0002222490150679843,
				-0.0009850402460975774,
				-2.8964324565026794e-05
			],
			[
				0.00094543566328077,
				0.00038551280140881536,
				-0.0002570406506331249,
				0.0005391538249959768,
				-4.791319303210973e-05,
				0.00017410958545136836,
				0.00048169279353481396,
				-0.0007149829283735552,
				-0.0008072511255537804,
				-0.0005823866887125855,
				-7.301222460691956e-05,
				-0.0008926703272730206,
				-0.0007246745098167542,
				-0.0008487350571603674,
				0.0006017445658781744,
				0.0005803597638688333,
				-0.0004827329788455319,
				-0.0008004258694213594,
				-0.00020356523443225958,
				0.00038592018844211986
			],
			[
				-0.00023923952070372106,
				-0.0004259556170128642,
				0.00028988833573357926,
				0.0008234611803486789,
				-0.0008572711847001868,
				-0.000269944144406663,
				0.0006513970632094559,
				0.0009434645196194007,
				0.000993597066908524,
				-0.0002606661208579943,
				-0.0008101425178540289,
				0.0008417801778904269,
				0.0005862649080476945,
				-8.646400285771728e-05,
				0.0008078523548824545,
				9.604359134000396e-06,
				-0.0008180983057298978,
				0.00014724120384055966,
				0.0008563088635234954,
				0.0008420838224723534
			],
			[
				0.00018273638891718683,
				9.304066903867902e-05,
				0.0006791451026190293,
				-0.00014971130933140822,
				-0.00043960449531911007,
				-0.0009536337511107118,
				-0.0007773310372112312,
				-0.00040012352162230563,
				-0.0005737173504358291,
				0.0009526168354434372,
				0.0005610953480427987,
				0.00032537729636425666,
				-0.00016956152353882908,
				0.00020610951376470775,
				0.00019115450424971449,
				-0.00045830807931151974,
				0.000996369318313772,
				-0.0006506491092526383,
				3.7950300199281585e-05,
				0.00045614593802460203
			],
			[
				0.0009742570761342201,
				-0.0008379685251829905,
				0.0007935804091629038,
				-0.000951522818506309,
				-0.0009707726263922305,
				-0.0009205811947662297,
				0.0007888630715358507,
				-0.0008332126324341143,
				-0.0005131347538171398,
				-0.0001626418050845839,
				-0.0004943943966161506,
				0.000937936602756953,
				0.0003106478475858349,
				-7.071863228595655e-05,
				0.00023711538597435424,
				0.00016335033718890076,
				0.00032946979430676336,
				0.0007393444080499669,
				-0.0005723801040393306,
				0.0006605851946690866
			],
			[
				0.0002456606355866202,
				-0.0009377000040961423,
				0.00016711645095518132,
				-0.0003734758678174923,
				0.00033137048235282597,
				2.049488011516263e-05,
				0.0005620079578774132,
				-0.000650084258472249,
				0.0007087161916490186,
				-0.0005313562192485446,
				-8.80545602789225e-05,
				-0.0007116219190941738,
				-0.00021294048253766955,
				-0.0008562376432934807,
				0.0008798812987391904,
				-0.000563528118880227,
				0.0008456085459816578,
				-0.0005807506615906395,
				0.0007588583385449948,
				0.000816239151607185
			]
		],
		[
			[
				-0.0005233727662525045,
				-7.928311639186368e-05
			],
			[
				0.000409322750535971,
				-0.0009184455217125463
			],
			[
				0.0007253901403836572,
				0.000475843574870062
			],
			[
				-0.00030363935943339144,
				0.00014634136280269514
			],
			[
				0.0009031506430480789,
				-0.0008438039439050945
			],
			[
				0.00024999187576711245,
				0.00029587148865363325
			],
			[
				0.00012209869346684835,
				-2.547170704219725e-05
			],
			[
				-0.0005490445694933982,
				-0.0006104087764701052
			],
			[
				-4.5112548736037875e-06,
				0.00037917494843235015
			],
			[
				-0.00045317669588217655,
				-0.00043849096555743873
			],
			[
				0.0009049776646543343,
				0.0007336620178216863
			],
			[
				-0.000990321710266779,
				-9.781869413262665e-05
			],
			[
				0.00015394762722897685,
				0.0004597114468174177
			],
			[
				0.00021060295272576834,
				7.977960406178137e-05
			],
			[
				0.0009173712797095545,
				-0.000356916572418009
			],
			[
				-0.0005318219311724226,
				0.0008513185659789922
			],
			[
				0.0007569846759055666,
				-0.0002868015497624061
			],
			[
				0.0006370877549833694,
				-0.0006559261732839765
			],
			[
				-0.0006125019999197161,
				-4.8092916863019114e-05
			],
			[
				0.00019384520406248826,
				0.00019244631956315608
			]
		]
	]
}