{
	"model_params": {
		"input_dim": 10,
		"units_per_layer": [
			20,
			20,
			2
		],
		"acts": [
			"tanh",
			"tanh",
			"identity"
		],
		"init_type": "uniform",
		"batch_size": 100,
		"decay_rate": 0.95,
		"decay_steps": 500,
		"epochs": 150,
		"lambd": 0,
		"limit_step": 500,
		"limits": [
			-0.001,
			0.001
		],
		"loss": "squared",
		"lr": 0.00891214076925288,
		"lr_decay": null,
		"metr": "euclidean",
		"momentum": 0.6,
		"reg_type": "l2",
		"staircase": false
	},
	"train_params": [],
	"weights": [
		[
			[
				0.0008655130783056146,
				-0.00020145416602550335,
				-0.0008553901668894967,
				-0.00021374316982963946,
				0.0005364208089140171,
				-5.8217590550141396e-05,
				0.0005629875665877936,
				0.0001288834270664601,
				-0.000788031243783202,
				-0.0005951120259126848,
				-5.832207280698535e-05,
				0.0001696642941027308,
				-0.0002716013274069436,
				0.00031251887506301697,
				-0.0001777260420561588,
				0.00018257337979666471,
				0.00011044160024889504,
				-5.809400335009675e-05,
				0.0006872877710752969,
				-0.00033854520962046865
			],
			[
				0.0005025929830337909,
				-0.0006717879157667067,
				-0.0002504661252185174,
				-0.0008141194655685267,
				0.0005668202032726396,
				0.0005647903062952519,
				0.0005662212532070335,
				0.00029028203363892,
				-0.0007496800460490103,
				0.0007007885856399074,
				0.00017456707560575282,
				0.0006187302404488265,
				0.0002542378947916126,
				-0.00036596496690965324,
				-0.0006541766495209121,
				-0.00029383164097439177,
				-0.0008104228099036557,
				0.0002271852904165879,
				-0.0006757861136676104,
				-2.6603640134625905e-05
			],
			[
				0.0006363575638120868,
				0.0007351214278223832,
				-0.000551268944740531,
				0.0003244269652368469,
				-0.00037154285166187946,
				0.0007379320167445519,
				0.0008060893472186215,
				-0.0005396546328850103,
				0.00019390201553811152,
				0.0005697131211662579,
				-0.0008008902653954646,
				0.0008978382048757654,
				-0.0007070091276041586,
				0.0009154608824299005,
				0.0009563258134063436,
				-9.173832785314411e-05,
				-0.0005031780504203081,
				-0.00033142150017457703,
				0.0006137482649638277,
				-0.0009841778864111798
			],
			[
				-0.0007999362941125106,
				0.0005743974851619724,
				0.0008201416494769873,
				-0.0005815493941995235,
				7.766964912759981e-05,
				-0.0009795663358364265,
				0.00040625776445293036,
				0.000836610544279737,
				0.0005878497349117104,
				0.0008655085044944209,
				-0.00016633870726308223,
				-0.00039020849514946425,
				0.0007781651163806199,
				-0.0004726753510499508,
				-6.585358624211501e-05,
				0.00019606712948449525,
				0.0005542049706128821,
				0.00012463492699311008,
				-0.0009386295357628207,
				-8.832993214465026e-05
			],
			[
				0.0007218746308397174,
				0.000415610024096649,
				-0.0005191629159305899,
				-0.0005459005191362727,
				-0.00010999948587600095,
				0.000483554849057301,
				0.00021704772902390868,
				0.00014260472844841135,
				-0.0004418388773584994,
				-0.0008455188733336796,
				-0.0006746476403359067,
				0.0009688217367420184,
				-0.0008628365909191698,
				0.0008576481398332469,
				0.0004873669517985544,
				-0.0009464563184337443,
				0.0007536459393008323,
				-9.19219325787033e-05,
				0.0009392479342340454,
				-5.511809479681487e-05
			],
			[
				-0.0006641459323084968,
				0.00015858560708561847,
				0.0009956620149095025,
				-0.0006960939593554398,
				0.0009329778920063021,
				-0.0009405111012931629,
				-0.0004480541145718553,
				0.0008808908594519296,
				0.0001425651481053588,
				0.0001517248973528164,
				-0.0001662748689075297,
				-0.0006620581920040009,
				0.0002482823016363143,
				-0.0002508454406155207,
				-0.00081974036186623,
				-0.00042941847009108876,
				-0.0009606399251251698,
				0.00067138710235722,
				-0.0004995869262032471,
				-0.00033588370236250034
			],
			[
				-0.00019286370628848347,
				0.0008963082110389747,
				0.0009678827382310256,
				0.0007529407930044281,
				8.024293769156253e-05,
				-7.01667082088391e-05,
				-0.0003473599668521299,
				0.0006118236873498548,
				-0.0008559209776782049,
				-0.00038956762236253125,
				0.00012181935973233702,
				-0.0004739393178170077,
				0.00018373954964248564,
				0.0004362822466028903,
				-0.00045053273794135127,
				-0.0005042880347311998,
				0.0005058297106256293,
				-0.00032122546657262533,
				0.00023695337617666385,
				-0.0001647891165864106
			],
			[
				2.3224455004420283e-05,
				-0.0008165050338985767,
				-0.0006535737291675041,
				0.0007451951618108778,
				0.0005568010661152365,
				-0.0003881368681091068,
				0.0006861134582874049,
				-0.00028101547680401144,
				0.0008210603649287192,
				-0.0004208053888495625,
				0.0006636208390259043,
				-9.46240405520466e-05,
				0.0005236567934630528,
				-0.0004836698779752084,
				0.00019020766488495587,
				0.0009112125550435727,
				-0.0007206033272270414,
				-0.0006800470325839425,
				2.144459236071627e-05,
				0.0006599089924382185
			],
			[
				0.0006357231942540852,
				-0.0009313403125345177,
				4.191459959431874e-05,
				-0.0005048868854365167,
				0.0007911891437303049,
				0.0009979829966421262,
				-8.816217031690557e-05,
				0.0007153767039248568,
				0.0009273011541106205,
				0.0007278576705919033,
				0.0005818046808390351,
				-0.00014057492017785012,
				-0.0005309048359637284,
				-0.00031621497222028897,
				-0.0002957056547882815,
				-0.0004873908866344014,
				-0.0006695408347002329,
				-9.236136428732026e-05,
				-0.00029593963899519405,
				-0.0002968407451906858
			],
			[
				6.41989789983621e-05,
				-0.00022258820673650857,
				-0.000125193327560563,
				0.0006604340743234323,
				0.000940792647727785,
				-0.0006694065237894264,
				0.0005606412450961584,
				-0.0006673015114576886,
				0.0006413772620262276,
				0.00044542668304547767,
				-0.0004929696649413569,
				-7.032320024748316e-05,
				0.0004297977707256816,
				-6.379323309816526e-05,
				0.000817940781644739,
				8.990932787231458e-05,
				-0.0008451010988811301,
				-0.0003608766961000962,
				0.0007128715730308445,
				-2.983510614576869e-05
			]
		],
		[
			[
				0.00038194562739547397,
				0.0009047792058174886,
				-0.000916045281740385,
				-0.0009399237891417478,
				0.0006455410515599596,
				0.0009734689950959496,
				-0.00025473903412386446,
				0.00017296733837381204,
				0.00025586128377719144,
				0.0007921719535263303,
				0.00022841255111081572,
				-0.0005791859484297597,
				0.0004451910249506253,
				0.0007573847454413309,
				-0.0005203211000750474,
				0.00012064173375909569,
				-0.0008557000228828357,
				-0.0007042159584929815,
				-3.650360450820815e-05,
				0.0005360877546963668
			],
			[
				-0.000314505921513939,
				-0.00031302452142322346,
				0.000448086150080369,
				-0.0005669520311568874,
				-0.0006590971159245282,
				-0.0004468519174560704,
				0.0009100202314646598,
				0.0009935058399705458,
				-0.0003254071731097259,
				0.00042324104304452756,
				0.0007793996242928462,
				0.000134807369438142,
				-0.0006779564980842006,
				0.00036354885714453265,
				-0.00026190414283977167,
				0.00017530769558674877,
				-0.0005588141674570189,
				-0.00046467256719810886,
				-0.0009252585914937162,
				-0.0006398807293552396
			],
			[
				-1.2534718844581976e-05,
				0.00013110828825094178,
				-0.0009064934059420269,
				-0.0007007116627419294,
				0.00016459086690749354,
				0.0006313997770109839,
				-8.219280619097067e-05,
				0.0005836355909593935,
				4.8816299257884886e-05,
				8.688631099017523e-05,
				-0.0007227072071947207,
				0.00011200371676761689,
				0.0008649612580816882,
				-9.502689245441593e-05,
				-0.00037013960500557636,
				-0.0008849361408830214,
				0.0002780090390902849,
				-0.0003172357413183274,
				0.00023600628533428504,
				-0.0007338560117505048
			],
			[
				-0.0006218216756714212,
				0.0007221678707409905,
				0.000712793352371489,
				0.0007506676586384641,
				0.00046476827292078553,
				-0.0007156687801993483,
				-0.0009975065131511054,
				1.2942219114416877e-05,
				-0.0004867656177097888,
				-0.0004502030895993116,
				0.0002137912471281752,
				0.0008724603294025868,
				-0.0004134751396402452,
				0.0004981587442921555,
				0.0005818050617160072,
				2.0692042377636662e-05,
				0.0005034616368652981,
				0.0008956597152742364,
				0.0001001626757520409,
				-0.00013406200768754234
			],
			[
				-0.00025779300824699974,
				0.0006963432221440836,
				-0.0003736403162252408,
				-0.0002641795921799415,
				-0.0004591658513589565,
				0.00025393468950083483,
				-0.0009569958807701876,
				0.0008226052305851529,
				-9.124580311578394e-05,
				0.0004617392255218016,
				-0.000744862925943499,
				-0.0007670242794363398,
				0.0009968721302782203,
				-0.00041765786881066977,
				-0.0007079160920343266,
				0.0008305501832515357,
				0.0005229677258474254,
				0.0007657325480326233,
				-0.0003647552557847506,
				-0.00039213190860879843
			],
			[
				4.163360032808164e-05,
				0.00013387467456104285,
				0.0007875635449071804,
				0.00048453450329080444,
				-0.00022761743341467747,
				-0.0009782084421479274,
				0.0008954081893267536,
				-0.00047673862201632635,
				-6.242513801102054e-05,
				0.00048497223345520717,
				-0.00044631698771260787,
				0.00015393183828842473,
				-0.0008914238997680429,
				0.0008379037266127087,
				-0.0006180961232417253,
				-0.0009804890443139804,
				-0.0007291302672915887,
				0.00035932639169865125,
				0.0009301032076113698,
				-0.00043885740513492167
			],
			[
				-0.00021369476300530635,
				-0.0008275895277330295,
				-0.0005985779144302085,
				-0.00014177832613997165,
				0.0004529776793404548,
				0.00033907085792534136,
				0.0009558154782360845,
				-0.0006719301595731362,
				-0.0004916548100324312,
				0.0004368322030906906,
				-0.0003383382022664665,
				-0.0005082984708927087,
				0.0009193142450912169,
				0.0008824932955407117,
				0.0007605145755470433,
				-8.540702215001188e-05,
				-0.0003854869304573454,
				0.0008319209329064557,
				-0.0002102612708531213,
				-0.00029585163716593966
			],
			[
				0.000998472859560741,
				-0.000985833683422836,
				-0.0005283976310256535,
				0.00018921483151148992,
				-0.0002414936037392286,
				0.0009590908967866008,
				0.0009734436703329134,
				0.0007906889321031361,
				0.00019497086576185678,
				-8.929077508275959e-05,
				0.0006524606827488203,
				-0.0002830598023005886,
				-0.0006854299821290737,
				0.0009714633104823821,
				0.00023796468661691026,
				0.0005760217815157559,
				-0.0009948115266657542,
				-0.0009299350576701024,
				-0.000252007283775076,
				-0.0005768003622733831
			],
			[
				0.0005482530293497404,
				0.00014714631438040898,
				0.0009255788350967557,
				0.0003000717961365914,
				-0.00010134893600754948,
				0.00023996814246298923,
				-0.000726615015203924,
				0.0008780986985722943,
				0.00012192723331358609,
				-0.0007853635742619551,
				-0.0009863618922703193,
				0.0008253970670195055,
				0.000789409643392771,
				-0.000702730178916634,
				-0.000509299597071704,
				0.0009316653074908203,
				0.0006621363910310298,
				0.00014683275209850647,
				0.0004507326680104303,
				-0.0001522687298981775
			],
			[
				-0.00014415000697438668,
				-0.00010490069160106201,
				-0.00023549925126251667,
				-0.0007234453209412374,
				-0.00030058540349685466,
				-0.0008540515633447845,
				-0.000894833441526627,
				0.0007529152004883519,
				-0.0004319398088724293,
				0.00014495500973322074,
				0.00011270754423470578,
				-0.00032401748683638654,
				-0.0008572091656756655,
				-0.0003474982477673187,
				-0.00038772370807404924,
				0.00026719135202725106,
				0.0002470765649252064,
				0.0007797671397397879,
				0.0006653439660148444,
				7.551266888756276e-06
			],
			[
				0.0003787165545425153,
				-0.0009915211873095073,
				9.818457352364727e-06,
				-0.0007723859415600067,
				3.494732902296774e-05,
				-0.0008373231579304892,
				0.0007128514264109706,
				0.00019368353293214638,
				0.0007167962315675919,
				-0.0006143818567770385,
				0.000482829926607473,
				-0.00040645422034198673,
				0.00015500058419831318,
				-0.0009913577193483654,
				0.00033917969400260256,
				-0.00017437760379751532,
				8.869520887224889e-05,
				-0.0008726373023614871,
				0.0001980389377859229,
				0.000796085935103701
			],
			[
				0.000920630613650076,
				-0.0007827244327076548,
				0.0008607891100028814,
				-0.0002663402775057624,
				-0.0008539337627996018,
				0.0009221711867170028,
				0.00028679828586536003,
				7.379926461443436e-06,
				0.0008904631940955541,
				-0.0007827581461391114,
				0.0008469802996422797,
				0.0006211928263294775,
				-0.0006458860800553092,
				0.0008216749177748222,
				-0.0004879990497210023,
				-0.00024558431461411327,
				-0.0005925768773711135,
				-0.00040436667854875676,
				0.0006027802604281316,
				-0.0003925207480622408
			],
			[
				0.000386345128703234,
				-0.0005629164455544149,
				-0.00023168930645815582,
				0.0008911156822085241,
				0.0003642315020191986,
				0.0008992557138710223,
				0.0003155228156341799,
				-0.00019518770207576416,
				-0.0004204582424457724,
				0.0006053162564346717,
				-0.0004550850004446516,
				-0.00033166414604819997,
				-0.0002921744101686039,
				9.27956706104128e-05,
				0.0009150824939925173,
				1.537884043583608e-05,
				0.00036431965512413907,
				-0.0005954112824098543,
				0.0005419833653623374,
				0.0007008955764028616
			],
			[
				-0.0004213288261917125,
				-0.0008014297318375696,
				9.954126509744538e-05,
				-9.344844253322674e-05,
				0.000936212423511543,
				0.000965672502084635,
				-0.00036092685201227835,
				-0.00044493292436589306,
				0.0003643466980983059,
				0.0004703106993489477,
				-0.00036728259344750503,
				0.0003323082831687193,
				0.0003754287481522751,
				-0.0006896781791855197,
				0.0004178032163275893,
				0.0009798243771573889,
				1.0081801016014478e-05,
				0.00039480895897977555,
				-0.0007134816808006793,
				-0.0009684897611907581
			],
			[
				-0.00023762874157358914,
				-0.0009134675566987327,
				0.0008868270561662793,
				0.0005565942593652277,
				0.00022332524799264955,
				-0.0004752517210768821,
				0.0009851937067071282,
				-0.0006583338683747755,
				4.272479250733087e-05,
				0.0009588588369900913,
				-0.00021741063478836328,
				0.00021428281676771216,
				-0.0002757117292425821,
				0.00029130114097211473,
				-0.00044476417333171665,
				-0.0009173408777484995,
				0.00018794453632676425,
				-0.00012911043217278247,
				0.000399384635537461,
				-0.00021520799343381777
			],
			[
				-0.0008318113614850717,
				-0.0009909437456246102,
				0.0001607065657481194,
				-0.0008361523672094826,
				-6.907559409025229e-05,
				-0.0008410234355459961,
				0.00043305822989664236,
				-0.00014691305317432706,
				0.0006660351971091432,
				-7.103840734100017e-05,
				-0.0007137754434360215,
				-0.0009379094677485236,
				-0.000977447549805347,
				-0.0008063688765964856,
				-0.00010869812980595901,
				0.0002633344916727711,
				2.469209568450978e-05,
				-0.0009174704780266907,
				0.0008150380799496809,
				0.0007874815177268744
			],
			[
				0.00011327453657015204,
				-0.0008693955779562328,
				0.00042595934717310456,
				-0.00024168373419877656,
				-0.0006101805649215735,
				0.000653288375352855,
				-0.0005512476885885422,
				-0.000595483746247416,
				0.000856141394171442,
				-0.0005512724126128415,
				-0.00021643625038848422,
				-0.0009806253466962298,
				0.000876183324472396,
				0.0004804306026787769,
				9.571366216786815e-05,
				0.0006761456353154048,
				0.0005997824157678113,
				7.112805225798651e-05,
				0.0004717629453021271,
				0.0008755246429698667
			],
			[
				0.0006555487039080639,
				0.0009741181928615648,
				0.0005050259592660185,
				-0.00034073739966046035,
				0.0004962792607766714,
				0.0007753549832611474,
				-0.0007915064639798129,
				-0.000824413344014376,
				0.0009735215030529268,
				0.0005399116132248538,
				-0.00014827759382872354,
				-0.00022415717490745202,
				0.00045699170098969523,
				-0.0008249277544416509,
				-0.0006566057826804188,
				-0.0008900812726173688,
				0.0007524083730107859,
				-0.00010204812174833351,
				0.0003651486082236926,
				-0.00037276159530853727
			],
			[
				-4.375317076479651e-05,
				0.0007596031565639259,
				0.0007727926481990981,
				0.0005933123391817152,
				-9.684274015601816e-05,
				-0.00014184327598692277,
				0.00023179729762764015,
				0.0007112278756143077,
				0.000290414484647181,
				0.0007121048458359066,
				0.000640602022124247,
				-0.0007517550035240765,
				0.0005929699772352654,
				0.0005512087437874185,
				0.0007642769054607981,
				-0.0008595801436219531,
				0.0003415302881052517,
				-0.0006060717286793895,
				0.0006074629629172947,
				0.0008519941910001742
			],
			[
				0.0008880543732261914,
				5.466585616225564e-05,
				-5.86472840348822e-05,
				-0.0008477384894772256,
				0.00019206004470435304,
				-0.00012137459142483515,
				-0.0003054379832715257,
				0.0006547454356111585,
				-0.0007682546792822524,
				0.0004324135318294162,
				-0.00041158547390230836,
				-0.0007848302764752527,
				-0.0009897906155300776,
				-0.0001682571836093776,
				0.00037708554616471836,
				-0.0006905710130857398,
				2.9663940043567162e-05,
				-0.0005948030898796823,
				0.0008825801357676332,
				0.0005922575465400577
			]
		],
		[
			[
				-0.00045833635631134203,
				-0.0004887841626492096
			],
			[
				-0.0008824988021143281,
				6.477397662780701e-05
			],
			[
				0.0009514192780391377,
				0.000575929023654742
			],
			[
				0.00019629814791439267,
				5.751683716266761e-05
			],
			[
				0.0004632012457017015,
				0.00015159169317509671
			],
			[
				-0.0006710125518207969,
				0.0009131621423133095
			],
			[
				0.0002662717383779549,
				-0.0007581616399888642
			],
			[
				0.00013257316174400987,
				0.00010372256434591559
			],
			[
				-0.000592142724891586,
				0.0001836214826469412
			],
			[
				-0.0008327576444927352,
				-0.000611359139770052
			],
			[
				0.0005932167427530441,
				-0.0008618180990403259
			],
			[
				0.0006684224147586073,
				0.0006238134742844487
			],
			[
				-0.0003281176137115634,
				-0.0009119828605268148
			],
			[
				0.0007789309889524674,
				-0.0002721765956983671
			],
			[
				-0.0003662151186909022,
				-0.00077947784506824
			],
			[
				-0.00020991017500849576,
				0.00019676499308037346
			],
			[
				0.00030194645129369185,
				-0.000840859233818134
			],
			[
				0.0005342564071003633,
				0.00036198760091428364
			],
			[
				4.92946328309585e-05,
				-0.0009754917112620222
			],
			[
				0.0008387624387468534,
				0.0008852925056661532
			]
		]
	]
}