{
	"model_params": {
		"input_dim": 10,
		"units_per_layer": [
			20,
			2
		],
		"acts": [
			"tanh",
			"identity"
		],
		"init_type": "uniform",
		"batch_size": 16,
		"decay_rate": 0.95,
		"decay_steps": 500,
		"epochs": 700,
		"lambd": 0,
		"limit_step": 500,
		"limits": [
			-0.001,
			0.001
		],
		"loss": "squared",
		"lr": 0.0021435193860245855,
		"lr_decay": null,
		"metr": "euclidean",
		"momentum": 0.6,
		"reg_type": "l2",
		"staircase": false
	},
	"train_params": [],
	"weights": [
		[
			[
				-0.00029564627907095796,
				-0.0002373096743361493,
				-0.0007923563171733277,
				0.0005936440065242941,
				0.00034118632865546184,
				-0.0008904081445305423,
				-0.00046280979749139736,
				0.00019460300295144617,
				0.00036194721967880666,
				0.0007772724765739436,
				0.0006482533769547102,
				-0.0006022329945902798,
				-0.0008089318929655734,
				0.000976706186739596,
				0.0006358706402022807,
				-0.0004925651134005929,
				0.00020604958716056694,
				0.0009903804396297956,
				-0.0009492130290871064,
				0.0006665814082682489
			],
			[
				-0.0008938581053253823,
				-0.00022925513498984595,
				-0.0008412814689803854,
				-0.0003693862853866676,
				-0.00042150421083048497,
				0.0008034864495629597,
				0.0003795394696648022,
				-8.5032887703441e-05,
				0.00023784284747939964,
				0.0005715499423907611,
				-0.0003664680821724003,
				0.00020016218988541212,
				0.00011799209123641895,
				-0.00028910987127933293,
				0.0009565156065897114,
				-0.0002750329713987771,
				-0.0008401590267842179,
				0.0004514402262215981,
				0.000952093827159109,
				0.0007603495180239677
			],
			[
				0.00044739594265858786,
				-0.0007420330946100675,
				-1.0054970151767307e-05,
				0.000672061972861725,
				0.00036330989399044355,
				-0.0007431502822352071,
				0.0008767957218907812,
				0.0006209112990173205,
				0.00038922223795738453,
				-0.0005007589275221782,
				0.0007061045368509887,
				-0.0008927612962302634,
				-4.806000351614554e-05,
				0.0008609206456152254,
				-0.00015841532391710578,
				-0.0008540524877198916,
				-0.00024274687678055382,
				7.496291428766796e-05,
				0.00021498043066275375,
				0.0009904496785851143
			],
			[
				-0.0009318051868797739,
				0.0001673410805019353,
				-0.0006412385268279073,
				-0.0009507581756620684,
				0.0005064684454006462,
				0.00030790299076447055,
				-0.00049335188901023,
				-8.05993710338409e-05,
				-0.0008766507960551607,
				-0.00021776933342000703,
				-0.0008943616567340768,
				0.0007184853624967022,
				0.00041156170356297173,
				-0.00046264605603655445,
				1.0285063056313711e-05,
				0.0005757421547442571,
				0.0004972991375840692,
				0.00033012482438204874,
				-0.00022141109537109484,
				0.0009103921849380077
			],
			[
				0.0001061402999485454,
				-0.00014546088759458575,
				-0.0006008814288187969,
				-0.0009720594101194897,
				-4.845787095631576e-07,
				-8.840742825800478e-05,
				0.0005222602849572319,
				2.3671527189526257e-05,
				0.0005484906962661606,
				-0.0002462122985577755,
				-0.00018092704608653487,
				-0.0006116432460699906,
				0.00021571972592305004,
				-0.0009000174522225291,
				0.0006902912222696714,
				0.000588651474420562,
				-0.0006426822605817208,
				0.0003500134760156023,
				-0.0005848707700970919,
				0.0007174706083302449
			],
			[
				-3.92914157677953e-05,
				0.0005775466370217933,
				0.000277252145464034,
				-0.00041454363903615295,
				-0.0005599793963629275,
				-0.00019542500722767955,
				-0.0003977795199032936,
				0.00011811177790194073,
				-0.0003862387694373497,
				-0.0003054484095315358,
				0.0002644578408440162,
				-0.00062865619525,
				0.0001591380667738992,
				0.0005877215395347791,
				-0.0005026901373104205,
				-0.0004386537061440783,
				0.0008192537140009259,
				0.0005940574144734844,
				0.0005033299997541413,
				-0.000500739305558838
			],
			[
				0.0008419350798805022,
				-0.0004382513700048438,
				0.0008983623448722948,
				0.0002286032194576777,
				-0.0008507360590698501,
				-0.0003338086437603647,
				-0.0002491111533100117,
				-0.0005651788852973441,
				0.0006305240381388425,
				-0.0007609753703287244,
				-0.00022359476583940397,
				0.0007383016672036613,
				0.0007858999351556155,
				-0.0003776441418059611,
				-0.00019825601635781664,
				-0.0005997142094803024,
				-0.0006825041734661532,
				0.00014490315552715045,
				0.0005645541230519129,
				0.0008375865291052015
			],
			[
				0.0004240967504110845,
				-0.0006681673091390831,
				-0.0008284076117057284,
				-0.000775261918277607,
				-0.000645382521367836,
				-0.0009960317452303593,
				-0.0007585103538731222,
				0.00048695056145070244,
				0.000859284217052197,
				0.0007074112942496078,
				-0.000882098728999411,
				0.0009858217637138144,
				0.00022688046970467841,
				0.00030337012004696853,
				-0.0005985575356409667,
				-0.0002572193987641498,
				0.0009427319871678039,
				-0.0009943998503148886,
				-0.00027586593787862993,
				0.0005129187822302704
			],
			[
				-0.00016726028162027421,
				0.000974560362690789,
				0.00029420532425604657,
				0.0002070504541728344,
				-0.0005265221592521832,
				0.0006218089019958161,
				0.0005224605700023886,
				0.00038873662930835455,
				0.0003883756785451212,
				-0.00034050507498341646,
				-0.0004679904232174314,
				0.0003814937501167802,
				0.0006457491381496603,
				-0.0007758781580635993,
				-0.0009751849475438286,
				-0.0008497469412993364,
				-0.00041916619717985177,
				-0.0003367735743211866,
				0.0002132404939334581,
				-0.000951142942390617
			],
			[
				0.0006993897596360656,
				0.0009552927127596737,
				0.00015627942437463726,
				-0.00012261652988116898,
				-0.0003199371018027717,
				0.0001790056302211618,
				0.0009296138947957548,
				-0.0009318971238227631,
				-0.00037029689268753185,
				-0.0007644904878235504,
				0.0006976063653146279,
				-0.00027108206935566766,
				-0.00022148482738349622,
				-9.947412550712293e-06,
				0.0003663354121341011,
				0.0004157101517324531,
				-0.0009045719926578395,
				-0.0007199091179393817,
				0.0007387015538400069,
				0.0006733636062019196
			]
		],
		[
			[
				0.00036503443615490535,
				-0.0003640601868318418
			],
			[
				-0.0006249091716918196,
				-0.0001346585989587235
			],
			[
				0.0008261436664890021,
				0.00027021569472482636
			],
			[
				-0.00020012820660584012,
				-0.000434714951465027
			],
			[
				-0.0001176131364256334,
				-0.0003545839961376458
			],
			[
				0.00035753510541078034,
				0.0007518048382708501
			],
			[
				0.0009622513989402193,
				0.0002880961483356754
			],
			[
				0.0007252835691347538,
				-0.0009151642947626877
			],
			[
				0.0009537137008148971,
				-0.0006544266403445695
			],
			[
				0.00028344132576053893,
				0.0004273498048639542
			],
			[
				-0.0005033028286264951,
				-0.00014603774959925085
			],
			[
				-0.0007858530799808216,
				-0.0006581627293508034
			],
			[
				0.0007366757762970082,
				0.0006491068651122544
			],
			[
				-0.00011940496424182694,
				2.754558665780905e-05
			],
			[
				-0.0006839047318674689,
				0.000724959579199463
			],
			[
				-0.0002430381364585028,
				-0.0004750483824509464
			],
			[
				0.0005774716579517087,
				-0.00012559056269503908
			],
			[
				-0.00017765549130784248,
				-0.0006194965940136015
			],
			[
				-0.000937292478648517,
				0.0005320727246260171
			],
			[
				-0.0005777677964421571,
				0.00036231688766440325
			]
		]
	]
}