{
	"model_params": {
		"input_dim": 10,
		"units_per_layer": [
			20,
			2
		],
		"acts": [
			"tanh",
			"identity"
		],
		"init_type": "uniform",
		"batch_size": 16,
		"decay_rate": 0.95,
		"decay_steps": 500,
		"epochs": 700,
		"lambd": 0,
		"limit_step": 500,
		"limits": [
			-0.001,
			0.001
		],
		"loss": "squared",
		"lr": 0.001,
		"lr_decay": null,
		"metr": "euclidean",
		"momentum": 0.4199289601348085,
		"reg_type": "l2",
		"staircase": false
	},
	"train_params": [],
	"weights": [
		[
			[
				0.00010619870531111447,
				-0.0006374530390697449,
				-0.0006641277688890641,
				-0.0001611881599427905,
				0.0009232017028866031,
				-0.0007966142690953872,
				0.0006309493805318287,
				0.0002121108065371931,
				-0.0009919321954859094,
				-0.0006876986802201376,
				-0.00011199889455033168,
				-0.0003888496355390034,
				0.0007852236568532795,
				-0.0008961795328707525,
				0.00031987610549541316,
				0.000958119534543474,
				-0.0006465043550305236,
				-0.0002537204055122992,
				-0.0004990281366354743,
				-0.00040922768278623984
			],
			[
				0.000181737840897788,
				-0.0006057598688360364,
				-0.0003203858505500248,
				-0.0009980369021385248,
				-8.627757511982237e-05,
				-0.0008218237460225999,
				0.0006393010296047109,
				-0.0008288562120390726,
				0.0006303524165713736,
				-0.0008533055027954286,
				-0.00029547024195044843,
				8.907671707041216e-05,
				0.0001512247081947131,
				0.0002780303576573285,
				-0.0005802541254082074,
				0.0009741989803001517,
				0.0009167695931233057,
				-0.00042698395002001787,
				0.0005548685381314791,
				-0.0003343491955604558
			],
			[
				-0.00022964147073305425,
				0.0005411213892200838,
				0.0007809749611115799,
				-0.000848854388322777,
				-0.00028657077020232346,
				-0.0007609134568068761,
				-0.0007626516837105147,
				0.0007413304853183837,
				0.00048560975631252814,
				-0.00014220537591861596,
				0.0004989909746462406,
				0.00042418680622138545,
				0.0009447557761428562,
				-0.0003327288085207687,
				0.0003026320342748186,
				0.0006957805618523771,
				0.0009498764755475433,
				-0.0006529769237500743,
				0.0008073603006789386,
				0.00034320746764063357
			],
			[
				0.00021235408871664568,
				0.0009067049947664033,
				0.000507949046600167,
				0.0006754613791661577,
				0.0008917730451850684,
				0.000621138338940131,
				-0.0005568726405442161,
				-0.0006248231916865131,
				0.00020321720913550178,
				0.00035970236553721415,
				0.0007983228482630008,
				-0.00040188366124694036,
				0.000689389497842712,
				0.000417168674851334,
				0.00011952479345572861,
				0.0007102553640085595,
				0.0009164279686148576,
				-0.0007722464095654433,
				0.00029569806241389984,
				0.0003447711564252944
			],
			[
				0.00025044802446939473,
				-0.00013881098118215696,
				3.5097112070052016e-05,
				0.0008768782705412953,
				-0.0009279127110771388,
				-0.00017105425456747888,
				-0.00043244730750566967,
				0.0003779125591197247,
				0.00040678288568514226,
				1.1765938567001848e-05,
				-9.446038341930519e-07,
				-0.00032473122822753407,
				-0.0007077361445554418,
				0.0006797280543985713,
				-0.0002690581074582339,
				0.0008806029928395214,
				0.0002024221057344731,
				0.00025362812016894954,
				0.0003899823619597769,
				-0.0002947196332537343
			],
			[
				-0.0005140703840175471,
				0.0005167454325672089,
				-0.0007781342599772676,
				0.00015084257387719532,
				-0.0002002963044704369,
				-0.00018671840881213095,
				0.000632383479025067,
				0.0009695218294866613,
				0.0008927370293840449,
				0.0005131424962685296,
				-9.205292782608128e-05,
				0.0005849878665820216,
				-0.00011813881487940381,
				-0.0005347818070438961,
				0.00028993589509144547,
				0.0009710399256309546,
				-0.0007268094802040752,
				0.0009274719627534189,
				0.000868584583997858,
				-0.0007998589173838457
			],
			[
				0.0004295658073973144,
				-0.00014264555362313437,
				0.00041022950316333003,
				-0.00027863533305388846,
				-0.000423665450028127,
				-0.00022123993384107687,
				0.0008829291581083146,
				-0.0007592220961538123,
				-0.0007609001717906954,
				-0.0006370773132555308,
				0.0009484597684101129,
				0.0008416626419366011,
				-0.0005869273368211181,
				0.0008011612882577745,
				0.00011215372542744059,
				-0.000986018660127844,
				-0.0006166995852809943,
				0.0005052503117865077,
				0.0007578571408140859,
				0.000671357015463638
			],
			[
				0.000984408367617639,
				7.407785955534062e-05,
				-0.0009632773371700272,
				0.0006976220290349693,
				-0.0008503919290288949,
				-0.0004890238459712406,
				-1.555065025205145e-05,
				-0.0002444232847662811,
				0.00011725565667030876,
				-0.0009125104399352557,
				-0.0006257516199016933,
				-0.00041131433460800057,
				-0.000913684548533321,
				0.00015472758228798097,
				-0.0005441939588565348,
				0.0002650047819976989,
				9.479327023800203e-05,
				0.0008679191740310619,
				-0.0006422257019551274,
				0.00018915940194818345
			],
			[
				0.00048814897276133794,
				-0.0006627905147013928,
				-0.0003432622145177873,
				-0.00045954893631956154,
				0.0009122732461012194,
				0.0004066600486659574,
				0.0007076049822661817,
				0.0005692314417689492,
				0.00030879694369311786,
				0.0006363022406105771,
				-0.0006212618035219537,
				0.000959861650868794,
				-0.0007134128354794476,
				-0.00044390485822669984,
				0.0008776686490827017,
				-7.864361287332011e-05,
				0.0004713897265870835,
				-0.00015860612435861547,
				-0.0007000350602439829,
				0.000146809682949304
			],
			[
				-0.00010561587783190654,
				1.4642145993983653e-05,
				0.00015967207691978307,
				0.0006969728566265424,
				0.000993016400289933,
				-0.0006070294563576886,
				-0.0009732605721219636,
				-0.0008344248917126809,
				-0.0005091632195931619,
				-0.000490271449671722,
				0.00038164850076763813,
				0.0004967273491377235,
				-0.0005368794444076787,
				0.0006496221711764702,
				0.0006659887315404846,
				0.0005059264174151347,
				0.0006465038005187042,
				0.0009983563016858921,
				0.0006349604904437294,
				-0.0005285124235942303
			]
		],
		[
			[
				-0.0001863938518647932,
				0.00042743146896874755
			],
			[
				-0.0007856201024301545,
				-6.654196097198996e-05
			],
			[
				-0.0007044880619199814,
				-0.00042792848308858145
			],
			[
				0.0001145746503295813,
				0.0005344861831086715
			],
			[
				0.000687147429224487,
				-0.0004434018919303908
			],
			[
				0.0002020291777770052,
				0.0008137948177168266
			],
			[
				0.0008744574401179013,
				-0.0009944747336414078
			],
			[
				0.0005383432806054685,
				4.75316826642118e-05
			],
			[
				-0.00018540947113496653,
				-0.0008645457789490847
			],
			[
				0.0009957248602139473,
				0.0005959143083959619
			],
			[
				0.0008110036867519084,
				0.00023030730223698708
			],
			[
				4.099687881371143e-05,
				-5.048734645493537e-05
			],
			[
				-0.000366206561209804,
				0.0002723903960923377
			],
			[
				0.0003765478395894501,
				-0.0006109218806162136
			],
			[
				-0.00041046282122749746,
				0.0007932036843159354
			],
			[
				-0.00035762089018846527,
				0.0007629604424890899
			],
			[
				-1.1954590981760275e-05,
				-0.0008359856458587982
			],
			[
				-0.0004083604764899471,
				3.509796597384583e-05
			],
			[
				-0.00010693777423170434,
				-0.0002743430164207666
			],
			[
				-0.0005508097525531585,
				-0.0007297310277515501
			]
		]
	]
}