{
	"model_params": {
		"input_dim": 10,
		"units_per_layer": [
			20,
			2
		],
		"acts": [
			"tanh",
			"identity"
		],
		"init_type": "uniform",
		"batch_size": 16,
		"decay_rate": 0.95,
		"decay_steps": 500,
		"epochs": 700,
		"lambd": 0,
		"limit_step": 500,
		"limits": [
			-0.001,
			0.001
		],
		"loss": "squared",
		"lr": 0.001,
		"lr_decay": null,
		"metr": "euclidean",
		"momentum": 0.4199289601348085,
		"reg_type": "l2",
		"staircase": false
	},
	"train_params": [],
	"weights": [
		[
			[
				-0.0002475807464645914,
				0.0005600484081262911,
				0.0009717684895527972,
				-0.0003523742467035565,
				-0.0004911507430705586,
				0.0003386797055796656,
				-0.00021593937545772031,
				-0.0006663306973384859,
				0.00015305207717355258,
				-0.0002768555350319027,
				-0.0008727415895314905,
				-0.0009360109988181955,
				0.00064166345220407,
				0.000732344540252852,
				0.0003220279049700723,
				0.0003375591572548171,
				-0.000980309670276279,
				0.0005550197862771581,
				0.00020042624273646469,
				0.00034828714144999676
			],
			[
				0.00021397622201884737,
				-0.00045504899238303013,
				-0.0004772973149267172,
				-0.0008169386392142219,
				0.0004668251037147008,
				0.0007153530098995503,
				0.00015178782363681827,
				0.0002224583651933025,
				0.0007683051493045743,
				-0.00020251039839602346,
				0.0007552774715062294,
				-0.0007958412004059781,
				0.0001901594610785439,
				0.0006167879991554762,
				0.0009178880845818068,
				0.0008962131056042479,
				0.0001949591967799454,
				-4.738687402602436e-05,
				0.000837432146379525,
				0.0002617441745133488
			],
			[
				-0.0007096021006743026,
				0.00032254689393349596,
				0.0006652045221249778,
				-0.0001412760195117275,
				0.0001163215976837256,
				-0.000970065394745734,
				-0.0007031322947672078,
				0.000348511579376703,
				0.00024185855882710478,
				0.0009653237577913814,
				-0.0007299146047711445,
				-0.00024022264982355467,
				-2.7512485950233548e-05,
				-0.0008841709903289175,
				-0.00021172573882463858,
				-0.000488446836097975,
				-0.0003536278820980317,
				0.0006198921439953689,
				0.0008739962186516941,
				-0.0004606695734270678
			],
			[
				-0.000417922285462744,
				0.0009267747280126235,
				-0.0005088308504968436,
				0.0009273175849054045,
				-0.00041645655564401056,
				0.0005127477326875923,
				0.0007441164282735459,
				-0.00015146277496571442,
				0.0009546863314463141,
				0.0006821915355247695,
				0.00029562074726079243,
				7.5057639321153e-05,
				-0.0003238822918072286,
				0.0008761134095535998,
				0.0006063225721340115,
				7.740551009671336e-05,
				0.0007736791663656539,
				-0.0006467073272014674,
				-0.0004889481054052687,
				0.0005759287484796314
			],
			[
				-0.00013548576704187725,
				-3.853951654599031e-05,
				0.00045059693688995206,
				-0.0005256837385096307,
				-0.0002547856725152633,
				0.0007689737019899547,
				0.0003378521882934414,
				-9.606822324518887e-05,
				0.0009963584226323255,
				-0.00018400012255622995,
				-0.0006436366290755169,
				-0.0004675584709454692,
				0.0002447410984488035,
				-0.00013506593312833368,
				0.000918363414282382,
				-0.0008901722168059838,
				3.5942569807777746e-05,
				-0.0006099206840365918,
				0.00029166400023111056,
				-0.0002591159212881344
			],
			[
				-0.0007363183022777468,
				-0.0009975471729462733,
				-0.0005059805750035047,
				-0.0003925059011426193,
				-2.1295661157908754e-05,
				-0.00030960687121072295,
				-0.0004456917609083562,
				0.0001414257580931199,
				-0.00019731622841589731,
				-1.0290826668228918e-05,
				0.0008168838887563335,
				-0.0006071777187659633,
				-0.0008764234294575639,
				0.00012635844063540753,
				0.00034164793343119176,
				0.0007419312209206248,
				0.00091392016551015,
				0.00018156565071057967,
				-0.0009680383815964626,
				0.0008193676014847124
			],
			[
				0.0009197557905700744,
				0.0006184711406986298,
				-0.0008164193529238124,
				-0.00020545027528587952,
				-0.0009969005142734155,
				-0.00016157860476858656,
				0.0001935045405433069,
				-1.0792071411591837e-05,
				0.0006824061362286288,
				0.00038925170925563704,
				0.00029795472941308073,
				3.2188305377971876e-05,
				0.0002725615638082886,
				0.0006294528291403507,
				-0.00034368603581749714,
				-0.0005887011794275727,
				0.0006794027492807006,
				-0.0003765304868173138,
				0.0009615438522457037,
				0.00010941854273929341
			],
			[
				0.00030669417139157686,
				-0.0007279655036312178,
				4.5101435096648896e-05,
				0.00032908826724090297,
				-5.863367476157126e-05,
				0.0007108805956267115,
				-0.0007099755660817044,
				-0.0001757775678582292,
				-7.789957200725816e-06,
				-0.00018893487832637916,
				0.0002465985324408527,
				0.00042577575674382817,
				0.0002989931602593904,
				1.0146419708507472e-05,
				0.0006213418589210071,
				0.0007279256909643944,
				0.00011749630651320189,
				-0.000366483416391113,
				0.0007208156788462261,
				-8.059364015999002e-05
			],
			[
				0.0006459679095765516,
				-0.00040603934437613695,
				0.0006400191164083612,
				-0.00010993251365740673,
				0.0006774570446707929,
				-0.00044098710641099893,
				0.00028777580680181447,
				0.0008927393374293397,
				0.0005248616648857237,
				-0.00030435666514895424,
				-0.00012709619526527762,
				-0.000969894975018925,
				0.00023365702287504188,
				-0.00030921775061614647,
				0.000561876134625006,
				-0.0007885827786870676,
				-0.0005180311575998897,
				-0.0003075507051280079,
				-0.00010535413930546798,
				6.314239847110374e-05
			],
			[
				0.0005260956727782069,
				0.0003081639470233562,
				0.0002880832255812288,
				-0.00041812622548569565,
				0.00019687725256398994,
				0.0005006148694038071,
				0.0007433096330295647,
				0.00010666735884761738,
				0.00040861742373329195,
				-0.0003827721281402099,
				-0.0009260532589609785,
				0.00019576548184410854,
				-0.0007095526669890993,
				-9.737379914176621e-05,
				0.000383779420050089,
				0.0007703583136030715,
				0.0007578411062405437,
				-0.0009526099344770374,
				0.0005456918720698237,
				0.000736122661144903
			]
		],
		[
			[
				-0.0007989364351105357,
				-0.00010885245281240703
			],
			[
				-0.0009507664076937872,
				-0.0006597346986454778
			],
			[
				0.0007608981649702071,
				-0.0009149333989171331
			],
			[
				-0.0005542595615222765,
				2.5983998369581707e-05
			],
			[
				0.0006149320957581021,
				-0.0005493878701804264
			],
			[
				0.00017345027426685523,
				-0.0008245898972233819
			],
			[
				0.00046777140817621295,
				1.5920993684138225e-05
			],
			[
				-0.00048016532520553845,
				0.0004101704643029787
			],
			[
				-0.0004757677789788381,
				-3.160098472980953e-06
			],
			[
				-0.0005587656226622958,
				9.479324195245907e-05
			],
			[
				-0.0002710822815182223,
				-0.00037491542629068133
			],
			[
				-8.618614072629274e-05,
				-0.000226009353151559
			],
			[
				-0.00047885211788031737,
				0.0001613554153183977
			],
			[
				0.0007564469152470821,
				-0.000860540191197386
			],
			[
				0.0002431282359815481,
				0.0004833180263123999
			],
			[
				1.9747932825351115e-05,
				0.00047240925480271476
			],
			[
				0.0006696416750034257,
				0.0009868374275744133
			],
			[
				-0.0005488518308603054,
				-0.0003961045763542166
			],
			[
				0.00037131125862796674,
				-0.00027174924398474
			],
			[
				-0.00020702376328529497,
				-0.00018389851585963934
			]
		]
	]
}