{
	"model_params": {
		"input_dim": 10,
		"units_per_layer": [
			20,
			20,
			2
		],
		"acts": [
			"tanh",
			"tanh",
			"identity"
		],
		"init_type": "uniform",
		"batch_size": 91,
		"decay_rate": 0.95,
		"decay_steps": 500,
		"epochs": 150,
		"lambd": 0,
		"limit_step": 500,
		"limits": [
			-0.001,
			0.001
		],
		"loss": "squared",
		"lr": 0.007185958238678252,
		"lr_decay": null,
		"metr": "euclidean",
		"momentum": 0.7977428112252327,
		"reg_type": "l2",
		"staircase": false
	},
	"train_params": [],
	"weights": [
		[
			[
				0.00012829470761244622,
				-0.0005240310728624089,
				-0.0006023712608035333,
				-0.0006680579990167897,
				0.00020430656079727886,
				0.0004367513128294802,
				-0.0006878504691380973,
				-0.0008152306276873165,
				0.0003243551979745915,
				0.0005422657508441522,
				-0.0008076303109130283,
				-0.000772022558072271,
				4.540853402460257e-05,
				0.0007313560803013472,
				0.00021077163906012297,
				-0.0007991272485060069,
				-0.0007037134784457515,
				2.253495007156596e-06,
				0.00017658184338692484,
				-0.0009023487693251504
			],
			[
				0.0005646968364948742,
				-0.0009550777154756511,
				0.0003311642245901925,
				-1.3065757655265822e-06,
				0.00045918155325890713,
				5.0545785946239444e-05,
				-0.00023301655429318498,
				-0.00018950656094679388,
				-0.0006556700574754988,
				9.120597096034231e-05,
				-0.0007246339656400847,
				-0.0006714205564070401,
				-0.0007297754953317764,
				2.826029835816565e-05,
				-0.00010567761327684314,
				0.0003766270027176948,
				0.0009453682885695092,
				0.0007832998047177572,
				-0.00039203805105179673,
				-0.0004967573831490116
			],
			[
				-0.00039151991088287575,
				-0.0009504879359096141,
				0.0005144903722811862,
				0.000994283076666979,
				0.0005788281244388938,
				0.000675746704498474,
				0.0009247939106875949,
				7.005603493503553e-05,
				0.00036727267545448973,
				-0.0004736438367587164,
				0.00019177682380739345,
				-0.0003867157851899465,
				0.00032478068888169473,
				0.0007385125317337807,
				0.0009415825638039849,
				0.0008332324243336235,
				-0.00042971095489406717,
				0.0007755512703941836,
				0.00046097771509347554,
				-7.389777007910103e-05
			],
			[
				-7.242272046668766e-05,
				-0.0007550810947114311,
				-0.0004403295232220004,
				-0.00031999489213203837,
				-0.0004918240520076025,
				0.0001547745934011638,
				0.0003120206688283062,
				0.000526402877096878,
				-0.0002714552375578345,
				-0.0007672451856333489,
				0.0004856755439041195,
				-0.0002614496454123685,
				-0.0005756112076042474,
				-0.0005125906000789813,
				0.0008419705855322933,
				8.518353327488775e-05,
				0.0008620108005810314,
				0.0002830184849080214,
				-0.0009359255909652418,
				0.0002668727749082793
			],
			[
				0.0005450325326843432,
				-0.00026599933330892457,
				-0.00010855533697734997,
				6.726852194148796e-05,
				0.00031138190416295035,
				-0.0007852394374568709,
				0.0006325426734034457,
				0.00013829740277059195,
				0.00092692414844917,
				0.000514787595503963,
				0.0001649681423920898,
				-9.323608735483703e-05,
				-2.6708696262968575e-05,
				0.0008365090604406436,
				0.00016322416947049927,
				0.0008971122270885097,
				0.00021384448231555764,
				0.0003336073755155996,
				0.00029880693407706264,
				-0.0007464731300330537
			],
			[
				-0.0002011014272984182,
				0.000967909604544427,
				0.0005156622056496246,
				0.00034557152696292103,
				0.0008330656739032913,
				-0.0004741598554221433,
				0.0002056475107582766,
				6.405172946853514e-05,
				0.0007810114430372287,
				-0.0003423744465575083,
				0.0007411776583057684,
				-0.00038518198593687724,
				0.0007262108944656905,
				-0.0007071781996806845,
				0.0006831001997698778,
				-0.0007147417414537884,
				-0.00043062426369084976,
				0.0007472799051040633,
				5.343497634155035e-05,
				0.0009140551244427308
			],
			[
				-0.0003424774892191886,
				-0.000547585512546438,
				-0.0008860181876416175,
				0.0004346940147863124,
				0.0003883270299632573,
				0.00014301605362992314,
				0.0002088200234641399,
				-4.4456770187814034e-05,
				-0.00012842504889540394,
				-0.00025038504577268685,
				0.0008758237644181468,
				0.0007252414265075441,
				-0.0003069707750499455,
				-0.0009121331143877674,
				-0.00042514196278881317,
				0.0006550138260434462,
				0.0009131584665406215,
				0.0007088512133550024,
				0.0004582100515979747,
				1.688794229849546e-06
			],
			[
				8.119744220881847e-05,
				-0.00028913127765116213,
				0.0005905415515615364,
				-0.0005354202248645335,
				-0.0004087726254587365,
				-0.0008981220073901397,
				0.00028106792201022107,
				0.00018727103438989255,
				0.0007521507002794076,
				-0.00048017218807605653,
				-0.0004392191024378294,
				-0.0003162728029340174,
				7.803903825782076e-05,
				-0.0009326810021066983,
				-0.0004495086599885359,
				0.0008071510298393702,
				-0.0007388860430502657,
				-4.45907300860648e-05,
				0.00024015370906172655,
				0.0003308323401104167
			],
			[
				-0.0008639761181346366,
				-0.0001911347364575458,
				0.000664675062484717,
				-0.00021191582562432858,
				-0.0008285961825094896,
				-0.000661949466683681,
				0.00042699582191479805,
				0.0004707006384755963,
				-0.00020329978174788473,
				-0.00011574763311719542,
				-0.0004876872386932492,
				0.0004927511797731905,
				-0.00019950403558416732,
				0.0004305412636567106,
				0.0008245746754848699,
				0.0006539004347680209,
				-0.0008809251099988442,
				-0.0006642972818651763,
				0.0005236582990919667,
				0.000781121936295246
			],
			[
				-0.0006101572510303295,
				0.0001768288702220101,
				-0.000500857910242035,
				-0.0006390670949607265,
				0.0005126111857673855,
				-0.0008542580163041616,
				0.0005213447489042331,
				0.0007796252419687867,
				-0.0005575512664720735,
				-0.0007596159547330508,
				0.0008279518860375939,
				-2.489721564764033e-05,
				-0.0006645829723638365,
				-0.0009251012449348017,
				-0.00092907997534182,
				0.00035345160466691795,
				-4.6415855865122e-05,
				-0.00024368489469636418,
				0.00012996133481513444,
				0.0008164267614128176
			]
		],
		[
			[
				-1.6659801225182586e-05,
				0.0005625279038855551,
				9.038268619993256e-05,
				0.0005223130590260032,
				1.5271148222474303e-05,
				0.0003384550392389945,
				0.00046674921800870205,
				-0.00047890580564748596,
				-0.00011839605829334682,
				0.0004907086336103917,
				-0.0006497702084225906,
				-0.000920899726645541,
				-0.0004864895269703109,
				-0.0008552790841032978,
				0.0006627981132856988,
				0.00023414230684800567,
				-0.00025159969208496565,
				-0.0004258988547487406,
				-0.0005286718026103919,
				-0.000705082006245193
			],
			[
				0.0005839991320240811,
				0.0003596644081255635,
				-0.0005552029905094953,
				0.000447249349053949,
				-0.0009803356997222774,
				0.0003601556754218838,
				-0.000587091949176948,
				0.0005365046558380394,
				0.0007940376912249187,
				0.0006466879377870275,
				-0.0002129163965114005,
				-0.0003545694373569806,
				0.00023526766453320228,
				-0.0005941350309090728,
				0.0004152304376769708,
				-0.0006401086038435935,
				0.0004679714959976405,
				-0.0007303440459899215,
				-0.0001796231735198046,
				-0.0003503457399994809
			],
			[
				0.0004922050505751961,
				0.00032133588084035146,
				0.0005038603946796788,
				-0.000620108008191363,
				-0.00030573072031048003,
				0.00048075382310573873,
				-0.000980887563148198,
				0.00020425926442420826,
				0.0004241925769121258,
				0.00043859801096604524,
				0.0003319388085557427,
				3.3888362333109844e-05,
				0.0002440285581237992,
				-2.5922884073778865e-06,
				0.00023940270593102316,
				0.0004159474062105984,
				-0.0009158860222393879,
				-0.0006057230795363562,
				-0.000912466078270886,
				-0.0008004928646894758
			],
			[
				-0.00046337460355687203,
				-0.0005429121476584538,
				-0.00026308012082467075,
				-0.0009490673837817934,
				0.0009428483743627643,
				0.0006457416120244524,
				-0.0003217154003313247,
				0.00033058979940178354,
				0.0001757767889193605,
				0.00011951768443497785,
				0.00023453007622458626,
				-0.0007208498743279712,
				0.0008196589284175772,
				-7.60346356177854e-05,
				0.0005963506653972222,
				0.00037791970319594505,
				0.00011882957378153052,
				6.358047806795625e-05,
				0.0001590841208746964,
				-0.0002451180175065162
			],
			[
				-0.00020938284899380216,
				0.00038997654903621254,
				-0.0007965134896184556,
				-0.0005738721578334863,
				0.0006046363236609197,
				0.00030697616886099705,
				0.00013617326485679824,
				-0.0005878911003442897,
				0.000652150563720338,
				-0.0005405748374271429,
				0.0004898306536732762,
				0.00023141861133614593,
				0.00024933330222129597,
				0.00012009003171796527,
				-0.0007693853992580286,
				-0.0006658310560571058,
				-0.00047695792000802427,
				-0.000872861380659469,
				0.0004756392061459494,
				0.00038451097619779254
			],
			[
				-0.0009770468926029664,
				-1.4369353328329022e-05,
				0.0004819454941259076,
				0.00032241149274308146,
				0.0006373646150168628,
				-0.00046970353649808264,
				2.216781225415805e-05,
				-0.0004581313634591863,
				0.00031558752451259263,
				0.0006353246365861907,
				0.0005281545169034405,
				-4.1276473986244164e-05,
				0.00011559219592533572,
				0.00012235718204666683,
				0.000767979627313387,
				0.0007563637528108602,
				-0.0005446020424600133,
				-0.0008134786939918445,
				0.0002385606825573048,
				-8.016885550674437e-05
			],
			[
				0.00014752484157631645,
				-0.00012181186259168774,
				0.0008705240544547676,
				-0.00014182484095898282,
				9.456480978521403e-05,
				0.0003345501839513232,
				-0.000991716162807179,
				-0.0005986228251379644,
				0.00035164101809255933,
				-0.0006044547410072054,
				4.001926939500508e-05,
				-0.0002977727548463292,
				-0.0006976440505877507,
				-0.00075520499517639,
				0.0005348129928384952,
				-0.00038530582897794386,
				-0.0007011387448097785,
				-0.0005117623484089554,
				-0.000864056574346328,
				0.0006234571349884911
			],
			[
				-8.397797727987969e-05,
				-0.0007466228789408098,
				0.000815745746854655,
				0.0009032333802759624,
				0.0006572903135154096,
				7.366000291698536e-05,
				-0.0005869315743118673,
				2.8193565834886032e-05,
				0.000783917356538024,
				9.883415415441331e-05,
				0.0004427220561751409,
				-0.0008227814180565825,
				-0.000610531503481619,
				0.0002305161996019997,
				-1.4507089915282226e-05,
				-7.85897920897098e-05,
				-0.00011158421846111201,
				-0.00022568110206022825,
				-0.0007032168096883453,
				0.0007936428863730496
			],
			[
				-0.0008623794677794388,
				-0.00046361932040841136,
				0.0002578315794654136,
				0.0006246310375404858,
				-0.00018530787805199212,
				-0.00090731161788679,
				0.0009102920508521643,
				-0.0005181367620800978,
				0.00046595098133749317,
				0.0001716439378489211,
				0.000663135383417446,
				-0.0006462677359281759,
				-0.0008366210723764582,
				0.00015039621261889375,
				-0.00023536633265972397,
				-0.0002627035144868315,
				0.00016822428368738697,
				0.0007836069698239191,
				-0.00011112163591779005,
				-0.00012854608678423962
			],
			[
				0.0006133399336551843,
				0.0004900752952385398,
				0.0001797068394309878,
				4.097047681702768e-06,
				0.00040841845238640353,
				-0.0006058987775288161,
				-0.00043140343435401545,
				0.0006361247692223218,
				-0.0007456885670216839,
				-0.0006716919995025894,
				0.00011253048887605423,
				-0.0005640678114590685,
				0.00048236828213342594,
				0.0004037201730424601,
				-0.0008233502249043751,
				-0.0005381133143472555,
				-0.0002769865399864538,
				0.00026176493905950707,
				0.00019044741768956311,
				-0.00012592100648595194
			],
			[
				0.0007283703999889542,
				-0.00011928433283733635,
				0.0008202015953832982,
				-0.0005253315508028627,
				1.0989301878581255e-05,
				0.0006315888464425655,
				0.00020957300992372244,
				-0.000878068525066277,
				0.000831327764481613,
				-0.0008712128782736473,
				-0.00023042783095759598,
				1.688761667429338e-07,
				-0.0005364064092249472,
				-0.00025399394660556606,
				-0.0009383351639151438,
				-4.714926408755122e-05,
				-0.000604382757827286,
				8.098563277530264e-05,
				-0.000954324092403296,
				-0.0004451810708278989
			],
			[
				-0.0006653295956491605,
				5.493789800230936e-06,
				-0.000992828895073543,
				-0.0007514333696601377,
				-0.0004979462741924073,
				0.0009854056176016417,
				0.0006461246945089175,
				0.0009230045930531286,
				0.0001242179383213497,
				0.0009125091749112727,
				-0.0005462216119661563,
				0.0007780897794036742,
				0.0009020401419567283,
				-0.00021857558547207548,
				-0.0008055619675678081,
				-0.000338964334532651,
				1.6979787669212923e-05,
				-0.0008438994282344654,
				0.00021059049964709114,
				-0.000552359646248975
			],
			[
				0.000941753930895361,
				-0.0009957050151771553,
				0.0005065761148000736,
				-0.00037846370047186833,
				0.0009073720300886347,
				0.0005855776386939153,
				-0.0007912026983955945,
				0.0005661559451252266,
				-0.000794600507017648,
				-0.0008428835954142591,
				7.892880680152948e-05,
				-0.0009655137481264858,
				0.0007051690419259313,
				-0.0007578154938861177,
				-0.00013979173630997719,
				0.0005725031801966539,
				-9.331256980476567e-05,
				0.0006520505627275468,
				-0.00036624455847672,
				0.0007498300881913281
			],
			[
				-0.0004766189386863431,
				-0.000924387962169898,
				0.0006405391091163612,
				0.0009808788635966405,
				0.0005011429393707481,
				0.000548280555876867,
				0.0005975377829872633,
				-0.0004895931702594658,
				-0.00024015745356015337,
				-0.00012982369896434912,
				-6.26811302609795e-05,
				0.0005598348350634144,
				0.0003707461168354488,
				-0.00024794775368520256,
				-0.0004142965966779655,
				0.00046111406408093445,
				-0.0009421452630356446,
				-0.0005878207847639372,
				0.00039293158836097085,
				-0.0009075757707626682
			],
			[
				0.00010610481755728737,
				-0.0005219063454183223,
				-0.0004069500709705274,
				7.483204681936278e-05,
				0.0005648421306555503,
				0.0008623213166748663,
				-0.0006466902397474634,
				-3.974099851064344e-05,
				0.0009587975034487562,
				0.0007392311355142692,
				-0.00030749883258645184,
				0.00037425888446564995,
				-0.0007258108960032069,
				0.000787105720745601,
				-0.0007969941814587054,
				0.0007266145428475397,
				-0.000480866160359313,
				6.847085135379318e-05,
				-0.0008437603293047695,
				0.000828016317137684
			],
			[
				-0.0003984427470090122,
				-0.00043487874798660915,
				-0.0005664426355408734,
				-0.0002163460718191812,
				-0.000883379663805548,
				-0.00017662100547486607,
				-0.00013389662885555605,
				-0.00017138077802603656,
				0.000979242200871159,
				-0.00010389617986190003,
				0.0001002681739868483,
				-0.0008372616572443532,
				-0.00034052930195743714,
				0.00024728518179067504,
				-0.0005699901782048507,
				4.566644735438333e-06,
				-0.0001747767831182383,
				-0.0002971737857251184,
				0.0009547108607222791,
				-0.00014771244561298947
			],
			[
				0.00018058928774027766,
				0.0005122586066041289,
				-0.0008302917779284229,
				-0.0007497388350032142,
				0.0005686369793645128,
				0.0007517777362739493,
				-5.8285184338098105e-06,
				0.0007711881941338198,
				0.0003547882491026341,
				7.032284399805726e-05,
				-0.0007136077737112068,
				0.0005487465305431833,
				0.0001855423342826579,
				-0.00040506479735890233,
				-0.0004770961690730742,
				-0.0003655002268903415,
				-0.00010222717641380542,
				-0.00017346403157859295,
				-0.0004923030748227346,
				4.7705708442027364e-05
			],
			[
				-0.00039559395860761166,
				0.0003358661779802692,
				0.0003876395461457113,
				-0.00041107167457077386,
				-0.0002943811517140977,
				-0.00020616437403581968,
				-0.0008659146297027414,
				-0.0008214456483999069,
				-1.8038382105434268e-05,
				-0.00019108361686716877,
				0.0006989838566107687,
				-0.0009221496815641646,
				0.0003796360414018184,
				-0.0009663889674595496,
				0.000833249661128519,
				-0.00047748223637193667,
				0.0003077207500927655,
				-0.0007375390185991213,
				-0.0005154375800655979,
				0.00023041521119176425
			],
			[
				0.0009798504094774671,
				0.0009523456697556431,
				0.00021943197093736997,
				0.0008723242712491259,
				-0.0007412492862883586,
				-0.00010252319974470296,
				-0.00014130134178395664,
				-0.0006472274735383137,
				-0.0003964159829184113,
				0.0006272483878763636,
				-0.0004391469332807198,
				-0.0004975405731230036,
				0.0003383313434205009,
				0.0004540240643006487,
				-0.0003118910955918051,
				0.0006875942444107823,
				-0.0007196185428469933,
				0.0007714801282480931,
				0.0009924308031396432,
				-0.00012255712131483863
			],
			[
				-0.00011300922301442991,
				-8.877712790663229e-05,
				-0.00024273076373123085,
				0.00020327172478911294,
				-0.000624744915888503,
				0.000570373092161872,
				-0.0007708223562169292,
				-0.0005248419265383071,
				0.0005169449390305507,
				-2.4249331301036793e-05,
				0.0002061211279064596,
				0.0008928736392094399,
				-0.0002929167247130162,
				-0.00043980207765940407,
				0.0005219737840106294,
				-3.0377548683360408e-05,
				-0.0006045746572720008,
				0.0008622279556829114,
				-0.0005992560950530815,
				-0.0008256372786964297
			]
		],
		[
			[
				0.0003152599137675545,
				0.0005155800307038579
			],
			[
				-8.972351604175663e-05,
				-0.0009244073718660702
			],
			[
				0.0009794481018608131,
				0.00016621204311335794
			],
			[
				0.000860073995827416,
				0.0007673414734411682
			],
			[
				0.0006323612589430963,
				-0.00018983958783114056
			],
			[
				-0.00042316534481594075,
				0.00041460572159164166
			],
			[
				0.0003682407498490964,
				0.0005341053088268029
			],
			[
				0.0002208764606355096,
				0.0009842790002043268
			],
			[
				-0.0009433882788755342,
				0.0005008069520672502
			],
			[
				-0.00033122486036908107,
				-0.0009325211368809372
			],
			[
				0.000888488987725123,
				-0.00016829563138550882
			],
			[
				0.00013424560941470475,
				0.00012070466118629572
			],
			[
				0.0008495908738950875,
				-0.0004552524469177006
			],
			[
				-0.0008617024053754807,
				-0.0003443172380329795
			],
			[
				-7.252970931390698e-05,
				0.0004495208952131767
			],
			[
				-0.000996919643051917,
				0.0008825390119295647
			],
			[
				-0.0007508459409364152,
				0.000321600252757059
			],
			[
				0.0009968508062119896,
				-0.0006391176966045907
			],
			[
				-0.00024483451180254705,
				-0.0001647312595188888
			],
			[
				-0.0002475651200817637,
				-0.00016785024744880796
			]
		]
	]
}