{
	"model_params": {
		"input_dim": 10,
		"units_per_layer": [
			20,
			20,
			2
		],
		"acts": [
			"tanh",
			"tanh",
			"identity"
		],
		"init_type": "uniform",
		"batch_size": 100,
		"decay_rate": 0.95,
		"decay_steps": 500,
		"epochs": 150,
		"lambd": 0,
		"limit_step": 500,
		"limits": [
			-0.001,
			0.001
		],
		"loss": "squared",
		"lr": 0.00891214076925288,
		"lr_decay": null,
		"metr": "euclidean",
		"momentum": 0.6,
		"reg_type": "l2",
		"staircase": false
	},
	"train_params": [],
	"weights": [
		[
			[
				0.00047151423291813327,
				-0.0003949323105435005,
				-0.0003386716767965481,
				-0.0005329107429375741,
				0.0002387899082269189,
				-0.00035860513467333435,
				0.0002864395904884399,
				0.0005714878531289283,
				0.0004992824763699647,
				0.0007421743451042797,
				0.0009302244793812922,
				0.00033281141275402987,
				-0.00014968954577706996,
				-0.00025437325696598973,
				0.000819354932451359,
				0.0003027491767181741,
				0.000745491937852864,
				0.0007906327579213848,
				-0.0006643193751178822,
				0.0006956657141359084
			],
			[
				0.0002746891285194651,
				0.0003727205836386181,
				0.0002735120399487449,
				-0.00048486247189770306,
				-0.0006051009665373703,
				0.0005976593549868292,
				0.000537751562884054,
				-0.0009154024324434802,
				-0.000943292708413231,
				-0.0002578605888889702,
				0.0005832315542528544,
				-0.0007475430544026565,
				0.0002994058184785063,
				0.00015610407594048047,
				-0.0005304714993702613,
				0.0006132834618829228,
				-0.0005604577270710636,
				0.0003828422023716613,
				-0.00045716789458483695,
				0.00034910323005416964
			],
			[
				0.0007300451553846497,
				0.0005384967644164566,
				-0.0009641686454682113,
				0.00040145701127703055,
				-0.0004688040829250688,
				-0.00011233778701291296,
				0.00010238080586399425,
				-0.0009674276307673215,
				-0.000975486618458888,
				-0.0004898757193791252,
				0.00038394501462292127,
				0.0004486538028561503,
				0.0008156357154270096,
				-0.0009306891494636671,
				0.00040560505617516225,
				0.0005800350847785241,
				-0.000897967528821866,
				0.0008404432951051217,
				2.7784626121310062e-05,
				0.00025486212763882834
			],
			[
				7.41366510966391e-06,
				-0.00033487546947504575,
				-0.00021609193503075775,
				0.0005703820544185122,
				0.0007730407546613005,
				-0.0007221309665852791,
				-0.0003480576351421431,
				0.000713019620788404,
				-0.0001560732263254065,
				-0.0003622989329058275,
				0.00029661361865312074,
				-0.00039869413586511235,
				-0.000817688502708946,
				-0.0008321726899282803,
				-0.00040604802479238017,
				-6.470140189906103e-05,
				0.0007996082895161741,
				0.00033730559465842513,
				3.474424887535128e-05,
				0.0004400866214603976
			],
			[
				0.0008786079457134026,
				0.00045285726927504744,
				-0.0004215238834649833,
				0.0005356513897059887,
				0.0006649108513774073,
				0.0008511344459621914,
				0.00028479919292728577,
				0.00033938056246573416,
				-0.00021141863351497366,
				0.0006826102237115226,
				0.0004917248540034706,
				-0.0002790995949623743,
				-0.0007273236488467096,
				0.0002202250862043775,
				-0.00045322703674384316,
				0.0007597691169763988,
				0.000645483561793167,
				0.00012150724157375587,
				-0.0006643894532965837,
				-0.0008641257897220788
			],
			[
				0.00043093433796696323,
				-7.944266101574235e-05,
				0.0007026855800607477,
				-0.00039401811021855357,
				0.000637251776859703,
				9.013933837502324e-06,
				-0.0006151416543077655,
				4.0920859677465345e-05,
				0.0005775966164051002,
				-0.0002588627699511934,
				-0.0003508209406760976,
				4.840353652042035e-05,
				-0.0005847343847064455,
				0.0007696993264167916,
				-0.00030683337183628817,
				0.00027290955375572357,
				0.00010228119623698225,
				-0.00037711231936489063,
				0.0009090966552705311,
				0.0005030004942712652
			],
			[
				0.0004721518480220318,
				2.4358861583467697e-05,
				0.0007208426935775615,
				0.00024003826823769674,
				-0.0009386350882669672,
				0.0001782954908311732,
				-0.0009035166331173019,
				0.0004424127537167911,
				5.303202212284734e-05,
				-0.0002419730782144072,
				-0.0005478904097894631,
				-0.0008735341376084948,
				-0.0009288752037953172,
				-0.0004082389567040874,
				-0.0008192951843640439,
				0.0009227423177516055,
				-0.0006350770026237987,
				-0.00023336083555492945,
				4.2756107396351925e-05,
				0.0002567419771703301
			],
			[
				-0.000856343430729988,
				0.0008167556362042845,
				-0.0008550836642184988,
				-0.0006081652119855814,
				0.0003595914569977244,
				-0.0007642985801992841,
				0.00016398717853935646,
				-0.00039573082560968615,
				-0.00029065302026704324,
				-0.0003369974071199002,
				0.0005377174500949663,
				-0.0006486905270705777,
				0.0005673547911219218,
				-5.4624264350957544e-05,
				0.0003430750861652201,
				0.00022053053039485957,
				-0.0006035149418524958,
				-0.00028820099088425915,
				0.0006212224714699534,
				-0.0003638434022587556
			],
			[
				0.0009487685058210808,
				0.0002009671910725517,
				-0.00047996406652446003,
				-0.0006559096260640694,
				0.0007164286761316134,
				4.8690034787826804e-05,
				0.0001157633940627532,
				-4.922796110322955e-05,
				-5.0440712164426184e-05,
				0.00032352698509381813,
				0.0007407079044108608,
				-0.000472537466277356,
				-0.0002547140400477406,
				0.0007631008460716718,
				0.0009090321536948396,
				-0.0007469962509137227,
				-0.00014058160801653206,
				0.0008336608363315008,
				-0.0005080641398248036,
				0.0007126779499201786
			],
			[
				3.8428352094387356e-05,
				-0.0006196146151477015,
				0.0009705525537162148,
				-0.00015824231475705663,
				-0.0006461472472425538,
				-0.00039860130075570815,
				-0.000669309169137686,
				0.0009656546343818919,
				0.0006708756613652814,
				0.0009084350929791441,
				0.0007511717435563505,
				-0.00011158086941122239,
				-0.0003967991092213996,
				0.00042512099930964,
				-0.0004564249518395942,
				0.0008565208084484206,
				0.0004666230623496064,
				0.0003596304801124655,
				-0.00038490698552491316,
				-0.00020566629481170453
			]
		],
		[
			[
				0.0005826346292078499,
				-0.00028059793034587385,
				-0.0002942243038466521,
				0.0007790760525150284,
				-0.0006440802826676626,
				0.0008827960515557696,
				0.0006847686091987937,
				0.0008639615766793196,
				-0.0006336579499862891,
				-0.0003376847354287786,
				-0.0002608574808906776,
				-2.9071277226396116e-05,
				-0.0007292498108908236,
				-0.00021494846155287824,
				-0.0003332515408284595,
				0.00022965018900744237,
				0.00048402198374557833,
				-0.0004475190990725429,
				0.000790193549075202,
				0.0007690362957687952
			],
			[
				-0.0002818836782687613,
				0.0005353756496315415,
				0.0002969049849118027,
				-0.0009282862132079934,
				0.00010901524847474193,
				-0.00017565264998964532,
				-0.00036334280876434044,
				0.00015982281929289872,
				-0.0007124193541506087,
				0.0001748909692556209,
				-0.0007071359569229503,
				0.00039309430725636345,
				-0.0001136665945878386,
				0.0009293263432276829,
				-0.00034623373207207184,
				-0.00015939993402738306,
				-0.00015074413773128305,
				-0.0003467303441858303,
				-0.00041304293915297465,
				-9.656255374876799e-05
			],
			[
				-0.0008752913960874376,
				-0.0004909358743845162,
				-0.0006272706333743489,
				-0.0006700315791394409,
				0.0008134662963707661,
				0.0002481955878271135,
				-0.000889236868932624,
				0.0008236473144903873,
				0.00011810974087911059,
				0.0005292661692354605,
				0.0007996873535579113,
				-0.00012142296895816473,
				0.00046043202812792706,
				0.000734771091869703,
				-0.000372782527329506,
				-0.0008388037957288177,
				-0.0008636272230291807,
				1.672424192544525e-05,
				0.0006605966113406988,
				0.0004214308520004515
			],
			[
				0.000756924057071958,
				0.0004006670425856229,
				-0.0005613759174173776,
				8.721775450937891e-05,
				-0.00014253731332966038,
				-0.00026719761604786446,
				-0.0008037829156028125,
				0.0009559580096926549,
				0.00024415695096127016,
				-0.00039299836730078666,
				-0.0005373811210514037,
				-0.0007230868720289106,
				0.0005951026020376638,
				0.0003651763252645237,
				-0.0009901879603874141,
				0.0004856090913799647,
				-8.70701533181355e-05,
				-0.0009264231781849339,
				0.0007094465046971214,
				0.00019974642393333244
			],
			[
				-0.000782259463553215,
				-0.000179672847320024,
				0.0009579231069943793,
				0.0007815500185683298,
				0.0006701884649280134,
				-9.271258817798505e-06,
				0.00013544692367562883,
				-0.000481616227087907,
				-0.0004486280432883347,
				-0.00020321364107738198,
				0.0005807175639157009,
				-0.0008284262805106453,
				0.0005198660098564686,
				-0.00036210587296861216,
				-0.0004663492457468583,
				6.795578864349011e-06,
				0.0009274918629745075,
				-0.00040549287435498883,
				0.0003439611568813116,
				0.0009481183646497559
			],
			[
				-0.00045994559611944614,
				0.0008938103422862125,
				5.5344385687853105e-05,
				0.0008775680167517764,
				-0.0007522277830532018,
				-0.0005217013493626383,
				-0.0006787013500789429,
				-0.000786905416052589,
				0.0003618367289476023,
				0.0005532291837024692,
				-7.86840704841067e-06,
				0.00028614363136016726,
				-0.0009961584153600294,
				-0.0007267234098720988,
				-0.0007783889362569254,
				-9.077164605225609e-05,
				0.0005040181180450843,
				0.0005384415288941197,
				0.00017022271148768022,
				-0.0004958007904679689
			],
			[
				-0.000768802498845806,
				-0.0006892753556800972,
				-0.0005726792944740349,
				-0.0008378382435214947,
				-0.0006804791313234782,
				0.0005815655374739176,
				-0.0005372714723493842,
				-0.0004239973571257265,
				-0.00026101809710421867,
				-0.00044676319395567203,
				0.0009827885121191163,
				-0.0005128793356429036,
				0.0008833885256520238,
				0.0007005101309910115,
				0.0008042610968941434,
				0.0006025438127294303,
				-0.000971968247158559,
				-0.0006333586392126618,
				-0.0008711051083289727,
				0.0007567400787863562
			],
			[
				-0.0008825437824357234,
				-0.0007403782162971816,
				0.0003366115260254126,
				-0.0006243215141889542,
				0.0009072251260998304,
				-0.000987889025044887,
				0.0009783880623012234,
				0.00021388194468262918,
				-0.0005680080963776858,
				-0.0006687829878784918,
				-0.0008524811666514192,
				-0.0001107381509862273,
				-0.0007653180623488534,
				0.0008283872921185252,
				0.00028777432589786336,
				-0.0003933290235764897,
				-0.0004279743335928299,
				0.0008246268967816166,
				0.00023291640394178486,
				0.00048234825847341244
			],
			[
				0.0004416354028770955,
				0.0005375142037595869,
				-0.00015985302908031373,
				-0.0005620098584744888,
				0.000846596112893975,
				0.000500597725685647,
				-0.0007477826644449385,
				0.0008653772065979743,
				-0.00046604915270485295,
				-0.00075271528895437,
				-0.00014324813836750995,
				-0.0004940663046406664,
				0.00032357917070208425,
				0.0009921106174256987,
				0.000491029039284977,
				0.0004555996010493302,
				0.0006728767601010001,
				-0.0008734312622052694,
				7.184567372363923e-05,
				0.0006863324145735207
			],
			[
				0.000746179579324669,
				-0.0006542567179619541,
				-0.00027253989601953843,
				0.0007134110584270604,
				0.0007886827265952069,
				-0.0005019915050367079,
				7.027260039793571e-05,
				0.0006127155113825244,
				0.0006002144085846253,
				0.0004633265897166774,
				-0.0003857337780583936,
				0.00028064918931394907,
				-7.076961371774583e-05,
				9.744187229930872e-05,
				0.00022018762078793923,
				-0.0008474385797446223,
				4.227361483926566e-05,
				-0.000504336265041188,
				0.000862157879031795,
				0.0009198310061996544
			],
			[
				-0.0006348476256354376,
				0.0007981579386895506,
				0.0005102693352263591,
				-3.8535086986077435e-05,
				-0.0003929447458200679,
				-0.00047667349168305597,
				-0.0003225047948298372,
				-0.00029323479164508745,
				0.0004950578603124382,
				0.0005523717993670164,
				-0.00031407642509944636,
				0.0003023260354278047,
				-0.0007697875383969275,
				0.000134090903437324,
				0.0006904007995685226,
				-0.00026829304534902116,
				-0.0005764000030648249,
				-0.00010912969393368592,
				-1.952887976272512e-05,
				-0.00022576953765180937
			],
			[
				-0.00017841248637928415,
				-0.00028778644049820665,
				-0.0004928803466047905,
				-0.0009113403675270826,
				9.557286474826121e-05,
				-0.000815286891942947,
				-0.0004969207113659315,
				0.00013357392439277945,
				0.000408449913497265,
				0.0007451063886389166,
				0.00015940710422311113,
				0.0004962046316339885,
				-0.00017386232705616145,
				-0.00028991949869586534,
				0.0004199213285935061,
				0.0005274956764581029,
				0.00041369267426767946,
				0.0001983351841600711,
				-0.000809016301913496,
				-4.8187438576166044e-05
			],
			[
				0.0001192938445134027,
				-0.0002943356226945684,
				0.00014258128783097511,
				0.000313331692647228,
				-0.0005840752239573393,
				0.0007369046019123431,
				0.00039506731435383726,
				0.0009808396541701988,
				0.0008598443260407519,
				1.3513682546026579e-05,
				0.00012722672800874902,
				0.0008750394631559329,
				0.0008455332981913049,
				-9.147788667266202e-05,
				1.7738713980600552e-05,
				-0.00011962028816870805,
				-0.0007951956706509671,
				-0.0008928671066538345,
				-0.0001781122224722866,
				0.0002503017085453941
			],
			[
				0.0005207272941785779,
				-0.0005603865082669305,
				0.00012335930723712308,
				-0.0008877400060202634,
				0.000437511303680008,
				0.0005979700962186101,
				0.0008687970171299241,
				0.0006712202207719163,
				-0.0004608198927468814,
				0.0008979757319668366,
				-0.0006153326829606569,
				0.0002127821429246412,
				0.0009951883848573844,
				-0.000826411795779384,
				0.00037152738816974284,
				-0.0008033451323442029,
				-0.000866804277599542,
				-8.812856998791682e-05,
				0.0009044025440548766,
				-0.0009365720534671289
			],
			[
				0.00015207778189426854,
				-0.000268411750990285,
				-0.0005377612986982818,
				-0.0008607916968676552,
				0.000579215428827769,
				-0.0005797771953407669,
				-0.000702629545777091,
				0.0008382684308349635,
				-0.00036211408135411796,
				0.0006765543582782335,
				-0.0009763380510548146,
				-0.000897689932765493,
				0.00033112974977630885,
				-0.0002717688791801185,
				0.0005697254531071502,
				-0.0008041673407124137,
				-0.00013861911467804645,
				-0.00018441004455437417,
				-0.0009122893525654918,
				0.0006684990877900434
			],
			[
				0.0005928410263964774,
				-0.00085952044860008,
				0.0005786915362916538,
				-0.0006064958722977005,
				-0.000815566122358471,
				0.00020950135646217766,
				0.0008994219100358712,
				-0.0005950454237511382,
				-0.0006614555761689005,
				-0.0004259618762639983,
				0.0005582414368891337,
				-0.0008628538743561042,
				-0.00045652884136674384,
				0.0009186403248410556,
				-0.0008614401466723323,
				0.00023275580548798237,
				0.0004401585388534087,
				0.0009547428243677244,
				0.0007813314533491101,
				0.00011979957364456248
			],
			[
				-0.000677679064378752,
				0.0008536757931156896,
				-0.0006647573616032616,
				-0.0004519180682495727,
				-0.0005396757772959569,
				-0.0005989337508189327,
				-0.0009857301348632456,
				-0.0005724366378090672,
				-0.0007767392181514681,
				0.0003107124880050653,
				-0.0006201806646568477,
				0.0008385960810454694,
				-0.00033669604604871274,
				-0.00047418310607811676,
				0.0001952442241429462,
				-0.00039500251774691564,
				-0.0005521205575105695,
				0.00046585475394912636,
				0.0006910075019639702,
				0.000674147861898444
			],
			[
				0.0008079003147289637,
				0.0007163990450480028,
				-0.0007077464027131276,
				8.501329175427319e-06,
				-0.0006708298896116978,
				-0.0002064555657646576,
				-0.00011504166101955547,
				0.00040105095977793965,
				0.0008167347353288822,
				-0.000596972145160263,
				0.0009647056610317599,
				0.0008280710451953944,
				-0.0005259110596789083,
				-0.00030857902456779616,
				0.00010403903652347001,
				-0.0005823064952968402,
				0.0007311141412162741,
				-0.0008991462799601964,
				0.00029350658654532405,
				0.0004053614885719556
			],
			[
				0.0007155806444560885,
				-0.00034451108863035103,
				0.0006661758172716828,
				0.0002261175648134693,
				2.3189916110203605e-05,
				-0.0009732857369900692,
				0.00021115052157127338,
				0.00021180496562382017,
				-0.000877984487436853,
				-0.0004454911092624061,
				-0.0005338993114227533,
				0.00032611979916547483,
				0.0001780997201549959,
				-0.0008571933940200087,
				-0.0007535570112711532,
				0.0009619848750276215,
				-0.00026648030772992155,
				-0.0005478808140800271,
				-0.0002729400218557398,
				0.0003973052258214795
			],
			[
				0.000889360676697403,
				0.0006022920394017173,
				-0.00026846249413358606,
				-3.380188886068479e-05,
				8.723926802047541e-05,
				1.5375212574965857e-05,
				0.00020272359450119863,
				0.0006321995230809787,
				-0.000984532822374633,
				0.0009569361570163871,
				0.0007678818088303393,
				0.0003136714336690065,
				0.00043730452339004497,
				-3.763948275701699e-05,
				0.0005755034687843215,
				0.0007736249362291193,
				0.0008430231828723445,
				0.0004213141367516162,
				0.00013483547375999698,
				-5.1593691505218814e-05
			]
		],
		[
			[
				-0.00044283272952403286,
				0.0005131588932776423
			],
			[
				0.0005246631617696128,
				0.0008644102363184441
			],
			[
				0.0008273558215677029,
				-0.0007594981215624528
			],
			[
				-0.0003960347848582051,
				0.00034123064615695616
			],
			[
				-0.0003300566290628691,
				8.821480569390643e-05
			],
			[
				-0.00010927433765472365,
				0.0009260126757702338
			],
			[
				0.00020424533614542164,
				0.0001354935189501194
			],
			[
				-0.00010556166555869995,
				0.00011937680094266053
			],
			[
				0.0003457107834161162,
				0.00034609593734365065
			],
			[
				0.0009149432176402148,
				0.0005990783580869187
			],
			[
				0.0007771988287772534,
				-0.0007429196852554096
			],
			[
				-9.826423158556662e-05,
				6.661855940172942e-05
			],
			[
				-0.0004124423870396541,
				0.0006403247256075927
			],
			[
				-0.00033752262903745183,
				-0.0001714459890695552
			],
			[
				0.0002630400257969735,
				0.00023688790532376157
			],
			[
				-0.0009229449818514821,
				7.882381915828591e-05
			],
			[
				-0.00039261592838526083,
				0.0005958645329286305
			],
			[
				-0.0007911369761790201,
				-0.0003127047318033396
			],
			[
				-6.255304065189626e-06,
				-0.0002838770761768157
			],
			[
				0.0005074341849957472,
				0.0009615562121782291
			]
		]
	]
}