{
	"model_params": {
		"input_dim": 10,
		"units_per_layer": [
			20,
			20,
			2
		],
		"acts": [
			"tanh",
			"tanh",
			"identity"
		],
		"init_type": "uniform",
		"batch_size": 100,
		"decay_rate": 0.95,
		"decay_steps": 500,
		"epochs": 150,
		"lambd": 0,
		"limit_step": 500,
		"limits": [
			-0.001,
			0.001
		],
		"loss": "squared",
		"lr": 0.01,
		"lr_decay": null,
		"metr": "euclidean",
		"momentum": 0.6,
		"reg_type": "l2",
		"staircase": false
	},
	"train_params": [],
	"weights": [
		[
			[
				0.0007407309355912397,
				0.0002873062738329786,
				-0.0008380885919208024,
				-0.0006623681877101426,
				-0.0008637077438891106,
				-0.000437892801848298,
				-0.0003779479394085903,
				-0.0008482629463760459,
				-0.00027447217971972673,
				-0.0009973441612232048,
				-0.0007309800456166133,
				0.0001575513644983587,
				-0.0002484298013507686,
				-0.0009605086559690988,
				0.00040870152486039346,
				-0.0002597376884717606,
				-0.0008937094123177205,
				0.0007436631053376584,
				0.0009328097892277393,
				0.0007282131381172656
			],
			[
				-0.000381369384262092,
				0.0006405613200032325,
				-0.00025843054425089677,
				0.0008363981749094907,
				-0.0009301183251995391,
				0.000325116944920389,
				6.489042573801598e-05,
				0.0005633908021506087,
				0.00011145443712944785,
				0.00011276954082356234,
				0.0007591201442785904,
				0.0009977242748499043,
				-0.0002792272948221688,
				-0.0003268309912492633,
				0.000824099299091402,
				0.0005069351790405957,
				0.00017470467076806644,
				-0.000193794522582702,
				-0.00044875373583216894,
				0.0008051578836299723
			],
			[
				0.0008942189924378127,
				-0.00011498206492553025,
				0.00044581269226826145,
				0.000387456880390777,
				0.00018678592759815852,
				0.00022053090241096825,
				-0.000410077754106891,
				0.000652438803386962,
				-0.0007571112237583126,
				0.00044032281562535126,
				-8.192945508430434e-05,
				0.0008724455533975237,
				-0.00013294259051927024,
				-0.0006069381226463202,
				0.00020315453120872077,
				0.0007343732123228236,
				-0.000379226471314138,
				-0.0004844064741707175,
				-0.0007191829494937874,
				-0.0008044101872054486
			],
			[
				0.0009097480782156522,
				-0.00043008338551463405,
				0.0005511670607408975,
				-0.0008257356533684082,
				-0.0005773806009812954,
				-0.00024067653767396438,
				-0.0004951475843043543,
				-0.0009881198897967118,
				-0.0007366667860995045,
				0.0007574203495195159,
				-0.000817307406792083,
				-0.00029570688844296304,
				-0.0009558084395238595,
				5.3535679648086245e-05,
				-0.0002048308720847687,
				-0.0006935378377440722,
				-0.0009919927787759503,
				-0.00044246748496603683,
				-0.0008094090814816879,
				0.0003229573634151847
			],
			[
				-0.00011291518787409638,
				0.00041994927173335085,
				0.0007015767556706569,
				0.00020491804264777627,
				-0.0007009582321338834,
				0.00019716312719610845,
				0.00034008213667488236,
				0.0004887661786237018,
				0.00047515645724876816,
				0.00035230084241012413,
				-0.0003779742445897094,
				-0.0004349768129785176,
				-0.00028360059550775233,
				-0.0007831015866644314,
				-0.0006347528618141227,
				-0.0008504055985189007,
				-0.0002850184991422611,
				-0.0008575666002349374,
				0.0006520450957291663,
				0.0005003652868538525
			],
			[
				-0.0003354101848591616,
				-0.0005284867178659876,
				7.141856871754437e-05,
				-0.0005068880375345302,
				0.0007078438572932831,
				0.0008061444702216623,
				-7.07978345034486e-05,
				-0.000780657447133183,
				-0.000805221158536831,
				-0.000101734499204595,
				-0.0003257209496797897,
				-0.0004768727718800394,
				0.0007841914249309616,
				-4.001625690734905e-05,
				0.0007645640407051278,
				-0.0003273937234330093,
				0.0006553196931064667,
				0.0005719258812051033,
				0.00018219263315973392,
				0.00014034939760481095
			],
			[
				0.0001503857064033005,
				0.00036321186959415146,
				0.0009058367153629008,
				-0.0007862222596997235,
				0.0009236052768108979,
				-0.0008430031273348686,
				0.0008051317748353007,
				-0.0007033663097682596,
				0.0007988531601077192,
				0.0006680481836032919,
				0.0008957615183481464,
				0.00043591285140262776,
				0.0004985469073667619,
				-0.0009613998732621964,
				-0.000638204533348268,
				3.197458183113659e-05,
				-0.0005808540116576233,
				-0.000938179138147965,
				-0.00031058758719274525,
				-0.00024989287488703417
			],
			[
				-2.4477871595201682e-05,
				-0.0003246471368083377,
				0.0008000273762435661,
				0.0006615787810864632,
				0.00038586498986945775,
				0.00040848831298144267,
				0.0002694640293938338,
				0.0009175921359937992,
				0.00046629179469557754,
				-0.0009515121465732326,
				1.6046342928331594e-05,
				0.0004514340468690632,
				0.00038621399789431714,
				-0.0005013382748872773,
				-0.0006657030401073767,
				0.0009759516615372422,
				-0.0004963990890868464,
				0.0003395127400279607,
				-8.792114198581669e-06,
				-0.00015338081366810875
			],
			[
				-3.433100066899434e-05,
				-0.0005037695288020447,
				0.00010085708552940299,
				0.000500983784373349,
				0.00012543440843655889,
				0.0008374117207485467,
				0.0002559241553130537,
				0.00047988629698048047,
				0.0007760210071830443,
				0.0008090089119144757,
				-0.0006062740435768363,
				-1.0417189602409489e-05,
				0.00025829876474095753,
				-0.0005857352625197674,
				-0.0007516455822236829,
				0.000602106728483097,
				-0.0008648338096760449,
				-0.00026813115626689906,
				-0.000975929328684733,
				0.0008480628147018584
			],
			[
				-0.0001838505825452983,
				0.00030096204458943967,
				-0.0006365681779096316,
				0.0008115564799127167,
				-0.0008169192087155488,
				0.0002666576485979705,
				-0.0007156141693311618,
				-0.000371089735237756,
				0.0007639073198126094,
				-0.0004911354481033528,
				-0.0004800236010201271,
				-0.000205207106078936,
				0.00038960735032999433,
				0.00017560900838453262,
				-0.000914358485013777,
				-0.00019489970349388305,
				0.0007151215151746306,
				0.00027349801447469515,
				-0.00020583953780788696,
				-0.0007716371211813052
			]
		],
		[
			[
				-8.01892522997612e-05,
				0.000916748719190249,
				-0.00034454401966359965,
				0.0009733333365942302,
				-0.0007042649187694208,
				0.0002831059422351116,
				-0.00032885382205107927,
				2.5251035218499347e-05,
				-0.0005144025642406791,
				-0.0009548264894465039,
				-0.0006919738905038177,
				0.00033987057139851285,
				-0.00031910863539753366,
				-0.0006282566704040946,
				-0.0007210393094653235,
				0.0003010152969047887,
				0.0005447001788704666,
				0.00023192319692831478,
				-0.000471366242445064,
				-0.0006756266838702331
			],
			[
				0.0008164792695120541,
				-0.0009371529348155081,
				0.0006226118126004411,
				-0.0003498508151794762,
				-0.00028231240637117147,
				-0.0009195953037825192,
				-0.0001230651289486429,
				-0.00023533045023646168,
				0.0006576322586166227,
				-0.0008485544108662524,
				-0.0006974992635627802,
				-0.000903742844641489,
				7.568552861884795e-05,
				-0.0002046719194767337,
				-0.00051352682555568,
				-0.0008538620944039497,
				-0.0009492275689999692,
				-0.0005380050385351517,
				-0.0005421453382278565,
				-0.0003297067258757573
			],
			[
				0.0002460454855011693,
				7.268100201987711e-06,
				-0.0005717694154686961,
				-0.00026005122270967586,
				0.0002955149993432054,
				-4.035276138004268e-05,
				-0.0005114784850691088,
				0.00025489257618902883,
				0.00020372112007618058,
				-0.00021079865788095132,
				0.00032859452206029016,
				0.00028701985028163624,
				2.353474202937086e-05,
				0.00030124047877251267,
				0.0009559871879966956,
				-0.00045154101598762677,
				-0.0007035473944536064,
				0.0007442920093991561,
				0.0005444849783908373,
				-0.000560811093117599
			],
			[
				0.00015537243823780214,
				-0.0008386998441959866,
				0.0007198641439109224,
				-0.00014714489785847267,
				0.000976802088912201,
				-0.0002906666541043732,
				-9.870492983447441e-05,
				0.0006026304658130022,
				-0.00038769186326743867,
				0.0008048042180831558,
				-0.0002017350302572112,
				-9.955921649562984e-05,
				-0.0006032391334448886,
				0.00023444835330421417,
				-1.9388159508552157e-06,
				0.0005674853622982363,
				-0.0009961049770207426,
				0.00042025713753384114,
				-0.0007068654254370537,
				0.0006620720745409074
			],
			[
				-0.0005499488253923857,
				0.00031852058743535067,
				0.00016038719681395587,
				0.0008646797835154874,
				6.466121430051346e-05,
				-0.00035017803989209997,
				-0.0007855867967176892,
				-0.0009281709302233559,
				-0.0008807813648750764,
				-5.109003534672137e-05,
				-0.0009137204596035689,
				0.0007354096415609203,
				0.000894126011126243,
				-0.0007197417680890623,
				0.0009525574334465882,
				6.215676467967077e-05,
				0.0005285013133544821,
				-0.0008627891027610341,
				0.0005974600116155193,
				0.0008488905518959187
			],
			[
				0.0006145632335007103,
				0.00016961602945564564,
				0.0006134092934651169,
				-0.0004847041936498364,
				-0.00045528615357119163,
				0.0005621826213259185,
				0.000196621115159885,
				-0.000146769029174048,
				3.756097270242323e-05,
				0.00039685292633382155,
				-0.0002773457677637672,
				6.105658705598985e-05,
				-0.0005175523574367831,
				-0.0007231775466899378,
				0.0007812957784445556,
				-0.0006315557189624569,
				-0.0007950809656941884,
				0.00015160836424895903,
				-0.00043214507535669516,
				-0.0007795140142654484
			],
			[
				-0.0009036228217655469,
				0.0001594235383417721,
				0.00027086024862553416,
				-0.0007391942829618694,
				-0.000319322343228513,
				-0.0007098494028046027,
				-0.0009986811870253858,
				9.457897161904401e-05,
				0.0005533846179137727,
				0.00033056575057859787,
				0.0009387614541626335,
				-0.0005112340753752136,
				-0.00029382181848131863,
				-0.0004575285031078529,
				9.332004744782825e-05,
				0.0009808679838270488,
				-0.00017154340123625887,
				0.0007915446745949471,
				0.00013013724056955799,
				0.00043532897471429996
			],
			[
				0.00015468670543100182,
				0.0007863197611449708,
				-0.0009531869022679351,
				0.0008430188694168918,
				-0.0004141938578561186,
				0.0006208946848521844,
				-0.000564586087952526,
				0.0003675877408852513,
				-0.0007410329064574948,
				0.0005373688927701387,
				-0.0006969603964157725,
				-8.08802588551711e-05,
				0.0005983797612220459,
				0.00034203346818497586,
				0.0003300975510466958,
				-0.000918296541438607,
				-0.0005966696031843064,
				0.0005041512265785187,
				0.0009145721133810084,
				-4.6893273963858327e-05
			],
			[
				-0.0005536485579886854,
				-0.0001213753590293225,
				-0.0005814312668941653,
				0.0003942928768357512,
				0.0006012965425652593,
				0.000766212039435989,
				-0.0005768213218661271,
				0.0004752443958576959,
				7.370581040560447e-05,
				-0.0003830585143602083,
				-0.00046783855936146713,
				-0.000513513614138607,
				0.0008374628578475902,
				0.0004761048970129359,
				0.00013858293066179952,
				0.000833630396863841,
				0.0002558548102309026,
				-0.0008867310377557549,
				0.0007010885119758622,
				-0.0007091552183200367
			],
			[
				0.0003480370492084091,
				0.000567062454979305,
				0.0002472875624678966,
				0.0008512203664759656,
				0.0006427907443091122,
				-0.0008286103975106492,
				-0.0006007502011367491,
				-0.00042866866659331017,
				0.0007867776643616805,
				0.0007190661425314924,
				0.0009759504717449011,
				0.0001855188998353878,
				0.0006561765075842087,
				-0.0009363316964823416,
				0.0004131017286176362,
				0.0006087859569315142,
				0.0005587120744510235,
				9.738779403446968e-05,
				-0.0003408910511467786,
				0.0003887458382644238
			],
			[
				-0.0005153694753455007,
				0.0003200407701535045,
				0.0004952506773137266,
				0.0008503552502034941,
				-0.00059618909260964,
				0.0008237478456146084,
				-0.0005916491459772437,
				0.0006751570490315798,
				-1.1844412247773465e-05,
				9.4578415755402e-07,
				-0.000568792189130982,
				-0.0006705241849666406,
				0.00019642720934268825,
				0.0001534635046352025,
				1.787617279001559e-05,
				-0.0009048623604947111,
				0.0007399829281052772,
				0.0005635978413676924,
				-0.0005361896957673633,
				-0.0007568999799218464
			],
			[
				0.000982186945970518,
				0.0009671996131362711,
				0.0009059717182466564,
				0.0007011090977492736,
				6.267434267287313e-05,
				5.53714197206272e-05,
				0.0002005395180516979,
				0.00022033306567049624,
				-0.00027486457067688107,
				0.00012688249037101553,
				7.274687946306644e-05,
				0.0007953520519693395,
				0.000419549324041392,
				-0.00029522862258865427,
				0.0004967104424880404,
				-0.0004988570687379643,
				0.0008681005217547131,
				-0.0008725868663838326,
				0.00025813799070806384,
				-0.0008973193458011622
			],
			[
				-0.00026485109526255357,
				0.0006003190243849303,
				0.000829688426968903,
				-1.4022247112892901e-05,
				0.000794583660252369,
				-0.0008804754168695795,
				-0.00017074943531120471,
				-5.842031238052249e-05,
				-0.000576260625730147,
				4.2942607569043494e-05,
				-0.0008417078318764351,
				0.0006481214853225183,
				0.0006903173598345189,
				0.0009847829064087601,
				-0.0007156196283586089,
				0.0006734719132150157,
				0.00031510179561978634,
				-0.000123586924207316,
				0.0008172829788049346,
				-0.0004183144465925912
			],
			[
				0.0007348317656672579,
				0.000308750056887658,
				0.00021609088328871187,
				-0.0005347803802871398,
				0.0006170466615645854,
				0.00019715509701370964,
				0.000607560486720808,
				-0.00014759164965907608,
				0.0003915752590955325,
				-0.00035093327552174355,
				0.0005756617767870321,
				9.980441190811026e-07,
				0.0003208135087077529,
				-0.0004782685877179573,
				0.00019394645836625615,
				0.0004046432222363809,
				-0.00021689371944037176,
				0.0009826594615553728,
				-0.0006423781707711744,
				0.0009378747828818154
			],
			[
				-0.00018602964123208944,
				6.232985812981056e-05,
				0.0008650592863879041,
				0.0006916855709462155,
				-0.0006623717111355798,
				-0.00036406788416443094,
				-0.0005934123123999479,
				-0.00015206496928210297,
				-6.469801033269463e-05,
				0.0007050523775414535,
				-0.0008916952629291828,
				-0.00024419259889579164,
				-7.421613793192857e-05,
				0.0009184194303216405,
				-0.000208286770049996,
				0.0002837412259678743,
				-0.0002894182455523511,
				0.000805958789615322,
				3.424388989452221e-05,
				6.30039195731848e-05
			],
			[
				-0.00028421512814202953,
				-0.0003756031007537122,
				-0.0004079408324349238,
				-1.7543788441681156e-05,
				0.00041075301434910375,
				0.00017874025584050345,
				1.7180247545829207e-05,
				0.00033513235943667934,
				0.0006328297656249548,
				-0.0005913200528618776,
				-0.0006993983563307591,
				0.00028815704105357985,
				0.00016830195166686818,
				0.0009870184409178466,
				-0.0004907816170246273,
				0.0009523861790525872,
				-0.00030000848135145917,
				-0.0007529991626630365,
				-0.0009659950101318998,
				-0.0004242574542514854
			],
			[
				-0.0008653390179883394,
				0.0001156905579975452,
				-0.0002960726467461859,
				0.0009573476003993278,
				0.00027794367382647845,
				0.0006800948784538589,
				-0.00019735573818993179,
				-0.0007604258248365846,
				0.0007544834807572899,
				-0.0005342262930010924,
				-0.0007810673416048053,
				0.0005677055488049003,
				-0.0004061961156356191,
				0.0005981815730310893,
				-0.0007325241550367823,
				0.0004139381773324564,
				0.000897385522871238,
				-0.000184355019695674,
				-0.0002507502096993193,
				-0.0008449378933764327
			],
			[
				-0.00011190924688864407,
				-0.0006731032515562372,
				0.00031177041468019584,
				9.148091370936415e-05,
				9.146557849559604e-05,
				-0.0009365678984370903,
				-0.0004999187330659343,
				-0.00036043166865661687,
				0.0006940810103844685,
				-0.00012339627604229775,
				-0.0008251114044953314,
				0.0009182653493498099,
				-0.0009036635980844548,
				-0.000511812256771718,
				-0.0003402198909142717,
				0.00032770449255521044,
				-9.62557773517361e-05,
				-0.0007582323448061678,
				-0.0004031549426742634,
				0.0005246287858094059
			],
			[
				-0.00014763912999398007,
				-0.00033159470097178674,
				-0.00029512310595792494,
				-0.00013857788204863658,
				0.0005556701542131152,
				-0.0002575001904151124,
				0.00046234397066549854,
				0.000998064319349652,
				0.00028562650861431015,
				-0.0007276469433305907,
				0.00042201932818471816,
				0.0007865968294070462,
				0.0009977746715037227,
				-0.00039458102139472277,
				-0.000539859939872295,
				0.0006049822544586705,
				0.0004495640823507629,
				0.0004183388962043983,
				-0.0008721097162548384,
				0.00014412621654269486
			],
			[
				-0.00039157463829329366,
				-0.00036843776390579604,
				0.0009675914640434797,
				0.0006707113977751505,
				0.00014323014370856246,
				0.0007545885687932589,
				0.00010038299429986314,
				0.0008218981175590479,
				-0.00022374080936138775,
				-0.0004312197844903021,
				-0.0005167765947185887,
				-0.0004311401242505419,
				0.0006912246448443644,
				0.000852087946816935,
				-0.000514477272895485,
				-7.306427836131432e-06,
				-0.0009704296333615996,
				0.0006303611026390679,
				-0.0009983903418496196,
				0.0002354563744957328
			]
		],
		[
			[
				0.0002935705771831467,
				-0.0007061495450458699
			],
			[
				0.0005076103787335351,
				0.00016938421009053228
			],
			[
				-0.0008831487706883283,
				-0.00047960624534000855
			],
			[
				-6.226812620244626e-05,
				0.00013859882065935599
			],
			[
				-4.867862860003381e-05,
				0.0006373521191582996
			],
			[
				0.0003887096423485141,
				-5.9394639179754854e-05
			],
			[
				7.992837460915289e-05,
				0.0008148805783966058
			],
			[
				0.0009650514074235291,
				-0.0006419990235155957
			],
			[
				-0.0007887178320073924,
				-0.0007814701340823005
			],
			[
				-0.0004707863113598623,
				0.0008915932613756056
			],
			[
				0.0005553850257891647,
				-0.0008958015364253793
			],
			[
				-0.00038524777848336145,
				-0.0007217916555850041
			],
			[
				0.0005876152358850455,
				-0.0006182711346533179
			],
			[
				-0.0007191117151356807,
				0.0005835613070250048
			],
			[
				0.0007906842812032463,
				0.00010188653185298443
			],
			[
				-0.0007875816649537209,
				-0.0004374270665105451
			],
			[
				0.0006031412554801969,
				5.772468082737743e-05
			],
			[
				0.0006010236851127831,
				-0.000982686416082506
			],
			[
				0.00014390835806025494,
				8.316655763329996e-05
			],
			[
				0.0005607747956071179,
				-0.00023064159442107537
			]
		]
	]
}