{
	"model_params": {
		"input_dim": 10,
		"units_per_layer": [
			20,
			20,
			2
		],
		"acts": [
			"tanh",
			"tanh",
			"identity"
		],
		"init_type": "uniform",
		"batch_size": 100,
		"decay_rate": 0.95,
		"decay_steps": 500,
		"epochs": 150,
		"lambd": 0,
		"limit_step": 500,
		"limits": [
			-0.001,
			0.001
		],
		"loss": "squared",
		"lr": 0.00891214076925288,
		"lr_decay": null,
		"metr": "euclidean",
		"momentum": 0.6,
		"reg_type": "l2",
		"staircase": false
	},
	"train_params": [],
	"weights": [
		[
			[
				1.5537498993088098e-05,
				0.0009202981941036209,
				0.0005384193961262061,
				-0.0009484201738755775,
				-0.00016283259102032482,
				0.0005569260784535428,
				0.0008532940409658736,
				-0.0007127902559633432,
				-0.0007928457834195995,
				-0.0006097091982543274,
				0.000597870355912501,
				-0.00013444254799008703,
				-0.0004389367590711706,
				0.0002555418409863684,
				-0.0005095500522387664,
				-0.0006174742712386284,
				-0.0007568309046748532,
				-0.0008357013257395416,
				0.0007250540204286962,
				-0.0006620347145630465
			],
			[
				-0.00043278413827575464,
				0.000275951458584881,
				0.000162162795702333,
				-0.0003171294854168276,
				-0.000764270529022415,
				-0.0005781637845398471,
				8.56628954391044e-05,
				-0.0002204832951441649,
				0.0007733973444803818,
				0.0004449816325142041,
				-8.030517473776454e-05,
				0.0008273923693644912,
				-0.00015900165947142276,
				0.0003302719596718097,
				6.442871290626489e-05,
				-0.0005695801202741191,
				0.00043316327814340444,
				-0.000245327277613959,
				-0.00029192314100618983,
				-0.0009076847740139835
			],
			[
				0.0005641119939857242,
				0.00043617475642484366,
				-0.0006295427258404627,
				0.00040371828207608185,
				-0.0004105095483368899,
				0.0008535027728457222,
				0.0008371211605896457,
				-0.0006531370873908077,
				0.000580321559821419,
				0.000491474553925015,
				-4.943930969925807e-06,
				0.0001676123761991655,
				0.0002459046927041648,
				0.0009499950552194173,
				0.0006754192128099273,
				0.00047308265321103766,
				0.0007250194438690111,
				0.00015149004269823687,
				0.000746254612943799,
				0.00020062007461352227
			],
			[
				0.00032168579889910783,
				0.0008316934045069534,
				-0.0005740438529420975,
				-0.000391749685277931,
				0.0006585839333613118,
				0.00024260441380925053,
				0.0002082404059305567,
				-0.0005686518859429426,
				-0.0009380720525493062,
				0.000327809129486985,
				0.0001530724448208327,
				8.101181166402069e-05,
				-0.0005457550791628533,
				0.00035805804152059585,
				-0.00012352882778753147,
				0.0008862744621573892,
				0.0005707780751638763,
				0.0009412964670482036,
				-0.00020326115798668032,
				4.7150106043481e-06
			],
			[
				-0.0007154456312194822,
				-0.00027229361892350766,
				0.00032673885263583566,
				-0.0007065051993446442,
				-0.0003620167733153723,
				-0.0005926980381924228,
				0.0003274669703927692,
				-0.0007415491596076094,
				-0.0009395389575139383,
				0.0009626782378889883,
				-0.0008297057667874801,
				-0.000994437765303943,
				-0.00030600435779446996,
				0.0005632950998305871,
				-0.0009490633178160817,
				-0.00022020166449408123,
				-0.00013461461756494094,
				0.0008059146087251094,
				-0.0006145073948893263,
				0.000713046219113211
			],
			[
				-0.0007266551640304595,
				-5.3504865374406365e-05,
				-0.000161477211102921,
				0.0008145066453804388,
				-0.00028875843270231936,
				0.0006234186851679692,
				-6.119172220729044e-05,
				-0.0007549821145997837,
				0.0007026233410992017,
				0.00032509320673037266,
				0.0008465463000329671,
				3.5952115184210596e-05,
				-0.0003946725115412524,
				0.0005287240363932699,
				-0.0007493580208885633,
				-0.00015879297098494267,
				0.0003266584285136114,
				0.000379250147022447,
				-3.6915576418537354e-05,
				0.00019077028363766657
			],
			[
				0.0005888320621118626,
				0.0008145515772538647,
				0.0008827240870399879,
				0.0009622285726247275,
				0.00028248119504495394,
				1.382805238914599e-05,
				-0.0008270286384965741,
				0.0007081182469682917,
				0.00038660453138323865,
				-0.00022557725532138667,
				5.4722740232696424e-05,
				0.0005927886002329598,
				-0.00066862883132913,
				0.0003362887706492594,
				-0.0002899506888067205,
				0.0006705415470949362,
				0.0005389464436537422,
				-0.0001195372073370558,
				0.0001086925501522203,
				0.0006829428450204657
			],
			[
				0.0009658765059203695,
				-0.0001219685017308632,
				0.0009671737877451872,
				0.0004490254399541966,
				-4.902780277222347e-05,
				0.0001568237137801339,
				8.835047902499074e-05,
				4.006901662773283e-06,
				-0.0009390961221561041,
				-0.0006555544829405019,
				0.0007703409831995088,
				-0.00034547421087105176,
				0.0002813390333528539,
				-0.0006903032900486168,
				-0.00019534108303361246,
				0.00014241135017605704,
				-0.000827299009551773,
				0.0006808943791780859,
				0.00033509910715805624,
				-0.0003048120644126448
			],
			[
				0.00014617704140590967,
				-0.0009820726704599509,
				-0.00014980822700697558,
				-8.238059942226417e-05,
				-0.0005132293728186954,
				2.2841360020125915e-05,
				0.0007541950132747654,
				0.0008123865595076323,
				-0.0009281482656026316,
				-0.0006014288143119115,
				0.00014131733932734353,
				0.0007998209403904638,
				-0.00017756282609577667,
				0.0006599441262539227,
				-0.0008484681087158714,
				0.0008164119441981879,
				0.000779981934223576,
				0.0005529163290908933,
				-0.0005272229883144545,
				0.0009306873571298278
			],
			[
				0.0007604446230114875,
				-0.000696100386548237,
				-0.0008517355198806313,
				-0.0003270509133290212,
				0.00022499803409513136,
				0.0005440330355609244,
				-0.0006798205509035446,
				0.0007673027772815565,
				-0.0008671788898786144,
				-0.0005284970881984701,
				0.0006877724916576709,
				0.0008689776799181469,
				-5.067238430384697e-05,
				-0.000546772317063412,
				-0.000563182080614816,
				-0.00031818345543123926,
				0.0005013037687467423,
				0.00018915597011219748,
				-5.528317002298142e-05,
				0.000462799641637439
			]
		],
		[
			[
				-0.0005190764591333332,
				0.0007076075396874305,
				-0.00010520513766726141,
				0.0004460306679204735,
				5.4463943831813307e-05,
				-2.9229011173391287e-05,
				0.00045254595515550737,
				-0.0007465735083958241,
				0.000583450319856736,
				-0.00019737084973948103,
				-0.0006218838273459124,
				-4.29922891655647e-05,
				0.0005327282329496245,
				-0.0005240753960365858,
				-0.000519100757197873,
				-0.0002902929930407689,
				-2.0582196115106902e-05,
				-0.0009344254269175034,
				-0.00021649512908304724,
				0.0001855349926609324
			],
			[
				0.0001603884145861881,
				-0.0004539457151557405,
				-0.0005975863897429703,
				0.0008658159060781823,
				-0.0002118584204289666,
				-0.00010167901017709769,
				0.0008246694833891626,
				-0.0009443134870603236,
				-0.0009982922463840141,
				-0.0005214467599671821,
				-0.00025831647281546145,
				0.0008212242227508965,
				-0.0006702909839111381,
				-0.00043889192294368985,
				0.0008398011562963555,
				0.0001326150994733744,
				-0.0007234792970725336,
				0.0002193293358471191,
				0.0003923873954966258,
				0.0003261681677597201
			],
			[
				0.000726282503364564,
				-0.000151540370344142,
				0.0004372787888547755,
				-7.20071588172622e-05,
				-0.0008923401378314764,
				-0.0009072652126604659,
				0.0007131756668310681,
				-0.00018975603125987893,
				0.00017211783832933093,
				-0.00010182316770392498,
				-0.0009190375443402577,
				-0.0001894961034851093,
				-0.0008463127228162384,
				-0.00039819967639925704,
				0.000676839185914397,
				0.0008350006638836679,
				-0.0008572509533900669,
				0.0001708517640833958,
				0.00039374165548592484,
				-0.00021211373208852424
			],
			[
				0.00015618017866001724,
				0.0009346307613216185,
				-0.0003372893655554175,
				-0.0009220952232267049,
				8.943576553994493e-05,
				-0.00037868617555901767,
				0.0002396697136133072,
				-0.000982816361523465,
				-0.00016185610019552607,
				-8.959834106424377e-05,
				0.00010902805442185195,
				-0.00028212347778232803,
				-0.0003185099126769642,
				2.201203492938216e-05,
				0.0007257967406891245,
				0.0008784267632753759,
				-0.0006627926361779282,
				0.0006691692396755397,
				0.0005443180437154462,
				-0.00020761807174241584
			],
			[
				-0.0008592529715058059,
				0.0007948446040931844,
				-0.00026674759358887707,
				-0.0003044309463670587,
				0.00020515941650938677,
				0.00017072980200890232,
				5.9930568311809644e-05,
				0.00024144990178534206,
				-0.0003955101117491187,
				-0.0001997222565332759,
				0.0002682688557855721,
				-0.00027681546089723197,
				-0.0005599741641832661,
				0.0009641765106455781,
				0.0004756520965714195,
				0.0009820051065629054,
				-0.00012494787211982854,
				-0.00011177899635888666,
				0.0005610273902953713,
				0.0009288662736112122
			],
			[
				0.0006534252930250118,
				-0.00028447650348711884,
				-0.00023260995685702574,
				0.0008905473586800687,
				0.00022613320748926307,
				0.0006619885985955092,
				0.0008163752362629071,
				0.00011247808828412573,
				-0.00023993732118931762,
				0.0005799550140016016,
				0.0005787368124559869,
				-0.0001317810123886991,
				-0.00039982903624712464,
				-0.0005937065123986096,
				-0.00043648346009577896,
				-0.0008482805292654048,
				0.0009536393922448074,
				0.0004841899315629738,
				-0.00039225108260774186,
				-0.0008168088098156716
			],
			[
				-0.00012433313721706423,
				0.0008150736534350454,
				0.0008732225354122684,
				-0.000575191790121935,
				0.00011844892374599132,
				-4.6634858740540524e-05,
				0.0009851937338312537,
				-0.0003829665145018053,
				-0.0003461458479900024,
				0.0006372248051452832,
				-0.0001146657002639548,
				0.0004764381412327317,
				0.0005844437896220789,
				0.0009936618952163692,
				-0.000586263563304888,
				-0.0007295923759928506,
				0.0005384209754086978,
				0.0008593609224435772,
				-0.00046005096586149326,
				-0.0001943470328731187
			],
			[
				0.0003300191821663334,
				0.0008681145295161307,
				0.0002547044459985232,
				-8.249176449207335e-05,
				-0.00025981336521687813,
				0.0008127024134123753,
				4.06254948616281e-05,
				0.0006733473928275614,
				-0.0003406372509717683,
				0.00011823133021758949,
				-0.0006790587705225609,
				-0.0007824261174412766,
				-0.0003996789722048484,
				-0.0006912106000408959,
				0.00016458746184954223,
				0.00032679812176632933,
				0.0008537613105776608,
				-0.0007009452207263085,
				0.0005900066875890396,
				-4.977382420632485e-05
			],
			[
				-0.0007145755276475934,
				-0.0007271270710343287,
				-0.0004805304228015808,
				0.0002072558569744887,
				-0.000539840869731421,
				0.00042172946735095375,
				0.0009852375110592274,
				0.0007758721882763773,
				0.0003790207126021445,
				-0.0002837815563458575,
				0.0003757830028739502,
				0.0005633948090548965,
				0.0008810797044518281,
				2.752333007656374e-05,
				0.0003147482628139673,
				-0.0004974726295034452,
				-6.187631376214277e-05,
				-0.0005643664089804222,
				0.0007051919538559111,
				-0.0005020189273998505
			],
			[
				-0.0006548935865108809,
				0.0005131224004943358,
				-7.980155932424404e-06,
				0.0009553610166143675,
				6.34680645225118e-05,
				0.0006081977054403906,
				0.0006891410641531673,
				-0.0002844929916901056,
				0.00044638666808662357,
				0.0007810483621266526,
				0.00018133269800062603,
				0.0005385926122938639,
				-0.0009093948518009984,
				-0.0003259307742097617,
				-0.0009717323597859988,
				0.0007204594403677031,
				0.0003560962035071293,
				-0.0001241761909016399,
				-0.0003564090599780785,
				-0.0008563840429811471
			],
			[
				-0.0005353820336679485,
				0.00038726275549991044,
				-0.0006754838779645948,
				-0.0005136007918499259,
				-0.0003759315192084691,
				0.0008357136810148373,
				-0.0009075376973075109,
				0.00023264470209515649,
				-0.0003328080827284827,
				0.0009348366090362571,
				-0.00025267672845714873,
				-0.0005111778472811068,
				0.0005055412341866778,
				-0.0005354459319318755,
				0.0003732399879483488,
				-0.0006410920128406253,
				-0.00023700516136476637,
				2.3392606412285088e-06,
				-0.0006507309872249743,
				0.00016930509291623094
			],
			[
				8.597823735417408e-05,
				-0.0009478610742190186,
				0.0007497886245104179,
				0.0006736033433935183,
				-0.00042016508757186503,
				0.0006780873635963613,
				-0.0007047995928605357,
				-0.00010409781472005665,
				0.0007994524955814372,
				0.0003364813155682994,
				7.029120662958984e-05,
				-0.0006573884323403912,
				0.0006519193810742361,
				-0.00030955902717289896,
				0.0007773632682117882,
				-0.00048648053988397777,
				-4.3714831487224486e-05,
				0.0006957773418310841,
				0.0009599722538724416,
				-0.00018029416350975836
			],
			[
				-0.0006894883083710045,
				-0.0009914385017281958,
				-0.00014500702880156655,
				0.0008246844827989933,
				0.000492255589508281,
				0.00042679576049434913,
				0.000681222875505656,
				-0.0007442296306257384,
				0.0009035042603115389,
				-5.1279679254794225e-05,
				-0.0008981678212897415,
				0.00035883006882213883,
				-0.0006141229655412164,
				-0.00014946103289605354,
				-0.0007379434183776956,
				0.00027319877591619056,
				-0.0005967969929671329,
				-0.00010158424374864653,
				0.0009833688048276725,
				0.0009865004483701374
			],
			[
				2.9265937394715343e-06,
				-0.00038834052456717186,
				0.0006837069783827896,
				0.0008763224837919656,
				-2.1993985832854035e-05,
				2.750748246892307e-05,
				0.000834329505868899,
				-0.0006002418075720076,
				0.00028686821763295486,
				0.0003953828859596402,
				-0.00016472272453638365,
				-0.00035022514500654585,
				-0.000460989129872003,
				0.0007499248881911475,
				-0.0008944077349086908,
				1.0218574018007378e-06,
				-0.00011031246273702979,
				0.0009935622206438026,
				-0.0002688640762222725,
				-0.00021710301302153476
			],
			[
				-0.0004411671440100426,
				-0.00012721721750540117,
				-0.0007344192443853193,
				-0.0009346169737471215,
				-0.0002481664455157562,
				-0.00035183384604317006,
				0.0009322383798433373,
				0.00015119531132309818,
				0.0004220077060064196,
				0.00024208599592001937,
				0.0009653218595811874,
				0.0007336404925841723,
				-0.0006712978735203612,
				-0.0002300128242882824,
				0.0004945281330416967,
				0.000926514465517951,
				0.0007883580615240355,
				-9.114355656099154e-05,
				-7.917656493409877e-05,
				-0.000727218929431049
			],
			[
				-0.000411279930685567,
				-0.00029152374594410783,
				0.0008743554646712763,
				0.0006809254872384436,
				0.00036639696303207873,
				-5.323627007862994e-05,
				-0.0008976548486314662,
				0.0008541269501445763,
				-0.000755324630747136,
				-0.0005945528832752402,
				1.0361005177899089e-05,
				0.00017016639356859159,
				0.0007416489837609546,
				-0.00013144819156542882,
				0.0008371382780162321,
				-0.0006647353937954634,
				-0.00034345834936734424,
				0.0005566478846428973,
				0.0007956632809403214,
				0.0005069839871754357
			],
			[
				0.0005824059479709687,
				-0.00025332606101856683,
				0.00059237402168331,
				8.785903186412248e-06,
				-9.972197473111439e-05,
				-0.0005668594674235144,
				0.0004107868797411287,
				0.0008719439679441348,
				0.000977989757457727,
				0.00041780341989600405,
				0.00010244491639901801,
				0.0002791706700042949,
				-0.0007896464595063624,
				-0.0008549537972586407,
				-0.00037604897622204225,
				0.0008762457804453649,
				-0.0004412158475998856,
				-8.35460730670834e-05,
				0.0008473493260247992,
				0.0009745457200625429
			],
			[
				0.0003300821696441865,
				-0.000685673945026623,
				0.0009776386393029498,
				0.0003756516332237131,
				-0.0005930403576504348,
				0.00047423528079468106,
				1.4770611479515347e-05,
				2.9940567488601468e-05,
				0.0009537231920393211,
				-0.0005584959584383751,
				-0.0005052486801226246,
				-0.0009033948428554753,
				0.00010962106342276754,
				-0.000524409268308044,
				-0.0003026205188175659,
				0.0007622644707976261,
				-0.0003544882712562045,
				-0.0007425829340770438,
				-6.137806716947989e-05,
				-0.0005503769576358333
			],
			[
				-0.0001577991408726598,
				0.0008100499718908148,
				0.000829686639926901,
				0.0007288684184747968,
				0.0001713949430295768,
				-9.390946435142513e-05,
				0.00025986743119035013,
				4.0235662179533005e-05,
				-0.0009979115232389467,
				0.00034745847991233896,
				0.00015171858588635973,
				-8.635335729940193e-05,
				-0.0003662627926213673,
				-0.00010356843319328599,
				7.996323056558914e-05,
				-0.0004761631590505857,
				0.0002569776461054114,
				-0.0009423945138487601,
				-8.488636908734538e-05,
				0.00018761827896453384
			],
			[
				-0.0006482417509973617,
				0.0003058854778843086,
				-0.0009926264825552034,
				0.0005997228455428478,
				0.0004115715103374237,
				0.0002697291150665314,
				0.0006035203611201613,
				-0.00029006138142308657,
				0.00020280710726536645,
				-0.0005978839072999992,
				-0.0005281439917074424,
				-0.00029273097112566876,
				-0.0006040179496309853,
				0.0005509991979896274,
				-6.160232186204029e-05,
				-0.000448802101295386,
				0.0006443023498532911,
				-0.00016795639669577912,
				0.0009512161620474282,
				-0.0006152070216253043
			]
		],
		[
			[
				0.0005597817732970591,
				-0.0009217870932963508
			],
			[
				0.000823319416944922,
				0.0009624465728013715
			],
			[
				-0.00015057681026720406,
				0.00038425400809307753
			],
			[
				-0.0007324064680237897,
				-0.0007823068090239083
			],
			[
				0.0009124216500416029,
				0.00021895900484244016
			],
			[
				-0.00014304301757161976,
				-0.0005392582258994967
			],
			[
				-0.0002837136300755296,
				-0.0004088310225853878
			],
			[
				-7.994624128352453e-05,
				-0.0006792770900161636
			],
			[
				-0.0004789390705382643,
				-8.112207635972962e-05
			],
			[
				0.0007858707522830585,
				4.822383651521974e-05
			],
			[
				-0.000565800802841028,
				-0.00012320965338441623
			],
			[
				-0.0009330816654242442,
				0.0007353298530636116
			],
			[
				-0.0009205349494726936,
				-0.00025465203791466974
			],
			[
				-0.00028200849653947006,
				0.00028868274182301855
			],
			[
				0.0005338641172588719,
				-0.00032070127022057894
			],
			[
				-0.0003318528150011549,
				-0.0006467448706845632
			],
			[
				-0.0009428696719192973,
				0.00042348204941445016
			],
			[
				0.0007855632612509564,
				0.0009438207401664626
			],
			[
				-0.0007661319524901336,
				0.0007933157825063923
			],
			[
				0.0003073170550831729,
				-0.0006173258008606981
			]
		]
	]
}