{
	"model_params": {
		"input_dim": 10,
		"units_per_layer": [
			20,
			20,
			2
		],
		"acts": [
			"tanh",
			"tanh",
			"identity"
		],
		"init_type": "uniform",
		"batch_size": 91,
		"decay_rate": 0.95,
		"decay_steps": 500,
		"epochs": 150,
		"lambd": 0,
		"limit_step": 500,
		"limits": [
			-0.001,
			0.001
		],
		"loss": "squared",
		"lr": 0.007185958238678252,
		"lr_decay": null,
		"metr": "euclidean",
		"momentum": 0.7977428112252327,
		"reg_type": "l2",
		"staircase": false
	},
	"train_params": [],
	"weights": [
		[
			[
				0.0007836594737569815,
				0.0005373534520451903,
				0.00042277444870772213,
				-0.0008527674190255325,
				-0.00025906815975884406,
				-0.0009821335746117443,
				0.0009020277561649598,
				-0.00041171507237134947,
				0.0005078697254117988,
				-0.00017266211352681118,
				0.0009442799486100583,
				-0.0006866733516231985,
				0.0005890705445556015,
				-0.0009226753687464231,
				0.0001793940130166041,
				0.0008342750730503329,
				0.0009761341650478365,
				0.0005631461583189864,
				0.0007700216575813126,
				-0.00020821665794793214
			],
			[
				-3.681518554728353e-05,
				0.0003985417397733655,
				-0.0006590313603353571,
				0.0009901368616905873,
				0.0006856214288595503,
				-0.0003302005716949661,
				0.00030577523580191477,
				0.00012174575675600826,
				0.0007842934873220889,
				0.0007916337782047191,
				0.0008519983418045496,
				0.000902467387144153,
				3.3925931120308214e-05,
				0.0002836514206743636,
				4.449903177742372e-05,
				-0.0003892618112422148,
				-0.0004934704098132125,
				-0.0008783739588240815,
				0.00024039800862036805,
				-0.0005532270769679673
			],
			[
				0.00036095010154360194,
				-0.0007025140695897452,
				-0.0009110791417614193,
				-0.00036497365516547124,
				0.0002613939701066215,
				0.0007826825177749636,
				0.0006043385089815479,
				-3.4273706700448624e-06,
				0.0008977804498635285,
				-0.0006202534255935642,
				0.0003629227239369153,
				0.00040057791287084537,
				-0.0009293891974733986,
				-0.00039999494298672915,
				-0.00041499127732538767,
				4.1863075488250906e-05,
				0.0009241319700593964,
				-0.0009748969776598832,
				-0.00024931930416176404,
				-0.00025296562378109195
			],
			[
				-0.0006906634074404687,
				-0.00022671633910266854,
				0.0006880703198518666,
				0.0006103854623967884,
				-0.0005713205989606112,
				0.00018212342411319136,
				0.0004063854057444285,
				-7.645281831412509e-06,
				0.00039683930206981725,
				-0.0004594424371651655,
				-0.00022330280727860072,
				-5.944489632774669e-05,
				-0.000998725607919869,
				0.0005843680505303415,
				0.00011697675865737995,
				-0.00017860330584569507,
				-0.00034232965542022866,
				0.0007314112148525194,
				2.3000527049674103e-05,
				-5.193649927500311e-05
			],
			[
				-0.0008989847680575906,
				0.0007875073307255531,
				0.0002062454653894378,
				-0.0004954411118701758,
				-0.0006146622559396651,
				-8.942290548638729e-05,
				0.0005629392219124322,
				0.0006399901623270691,
				-0.0004282520567219348,
				-0.00033665108545175796,
				-0.0007322243612371663,
				0.0004807152203691195,
				8.006767688659242e-06,
				0.0007011118754500097,
				-0.0009423707273523978,
				-0.0004635314311105146,
				0.00038073532420008485,
				-0.0005357132953062737,
				-0.00023809551953971584,
				-8.716169034448632e-05
			],
			[
				0.0006190345868444308,
				-0.0005932229432209211,
				0.0002633063398134977,
				0.00022482120545880605,
				0.0009738503657812287,
				0.00032016396258721723,
				-3.353295927002709e-05,
				3.2469715126685764e-05,
				-0.0009144830112384816,
				-0.0001943239430317518,
				0.0005325659239669258,
				-0.0007319962209290586,
				-0.0006790525404800408,
				0.0006932371151092812,
				0.0005931652023680985,
				-0.00015200254388668052,
				-0.0005043748855826786,
				0.0002535336486796573,
				-0.00035373621422830827,
				-0.0003685954751297924
			],
			[
				-0.00022949003414455334,
				-0.00018656365361960185,
				0.0003718660789946086,
				-0.00046837761185533893,
				-0.00020088049857719013,
				0.0006710436115086593,
				0.0005022861182105219,
				-0.00029100218318873594,
				0.0008234029093802113,
				0.00014749753797674054,
				0.0004872626861204461,
				0.00028550304406586933,
				0.00038188808904950143,
				0.0009529644118997684,
				-0.0005896785245577427,
				-0.0008994314129992452,
				-0.00023074177326055543,
				0.0009965067338595338,
				0.0007387318997444372,
				-0.00063682414223775
			],
			[
				0.00011366622032381703,
				-0.0003400272878347916,
				0.0005443851276468142,
				-0.000454574175644757,
				0.0004019489706440476,
				0.0007240446544130063,
				-0.0008578358229921044,
				0.0009898750927106203,
				-0.00040413612924133685,
				-0.00020602674861233217,
				0.0007649621204968815,
				0.0007379149868265995,
				-0.000735177175451089,
				0.0004885272376044202,
				0.0003438577050265965,
				-0.00022221009701341241,
				-0.0007636322231509302,
				0.00045317173492624837,
				-0.000796133662668697,
				-0.000164824249052326
			],
			[
				0.00043721174463802557,
				-0.0006465974658671856,
				0.0008881776387730709,
				0.0005025655324985996,
				-0.0006125663204142192,
				0.0008462610223800321,
				0.00037852304946423736,
				-0.0005795324221243466,
				-0.0001810355183764316,
				-4.243636933813893e-05,
				-0.00012714654058269218,
				5.149423818095393e-05,
				-0.0003541239777635634,
				-0.0005032729988648588,
				0.00029618080593342747,
				1.1692695763044396e-05,
				-0.0008128176053459468,
				-0.0002810952289474105,
				-0.00045188004709269096,
				-0.0004538146036045747
			],
			[
				0.000683483353917839,
				0.00023635497294672582,
				0.0007265575820837469,
				0.000562218315733105,
				-0.0003086947365913862,
				-0.0009376904780475195,
				0.00030418703985271383,
				0.0009243521819601943,
				-3.325550040872362e-05,
				1.7955111524339947e-05,
				0.00026812599530441085,
				0.0005875173909615189,
				0.0006301356117276824,
				-0.0006796902959243425,
				-0.000588515353545715,
				-0.0005308018172921741,
				-0.0003611526140504109,
				-0.0008303169765759981,
				0.00011710512944125475,
				-0.0006483342747008223
			]
		],
		[
			[
				0.00016510202771734934,
				0.00041330724269005286,
				-0.00014743782819528302,
				-0.0009057171351367988,
				-0.0006089665713408237,
				-0.0005447726919717204,
				-0.00019620743330708715,
				0.0009443382516210823,
				0.0007151771378727083,
				-0.0007806311569517928,
				-0.00040689046580375313,
				0.000508709707627286,
				0.0008140553362371357,
				-0.0001125480811193445,
				4.873947987515167e-06,
				0.0002553004025230615,
				-0.0007664904410593085,
				0.0008041664489810715,
				0.00021535490190302,
				0.00016257454931037862
			],
			[
				0.0007982304123713281,
				0.0007982323909992055,
				0.00034214433510239154,
				-9.859208869012902e-05,
				7.335302516454792e-05,
				-0.0008932853576141915,
				0.00025138397762380547,
				0.00014268944927698355,
				0.0003655734242537258,
				0.00016423180530764428,
				-0.0008525487209033083,
				-0.00035038605778421486,
				0.0009707690862357258,
				-0.0002207977013869071,
				-0.0007541211240509642,
				-0.00013922264747619954,
				-7.458327319897215e-05,
				0.0004927558649599555,
				-0.0009254318618028766,
				-0.00041681883438739816
			],
			[
				-0.0001498787659352408,
				5.008469236863068e-05,
				9.041377927165471e-06,
				-0.0007588871970821312,
				0.00046616551129277563,
				-0.0004301455746745839,
				-6.81498421470372e-05,
				3.3577333928738306e-06,
				0.000739448245571609,
				-0.0009610766365668067,
				-0.00048441669141846663,
				-0.0002693789366461166,
				-0.00014100622935642453,
				0.0005382036049970962,
				-0.00021486404455810985,
				0.0008794619245115253,
				-0.0004906935837382897,
				9.85023538319996e-05,
				-0.0006687911249657643,
				-0.0005786389457262384
			],
			[
				0.0008398783391046919,
				-0.00010428158766423315,
				-0.0008538680760140114,
				-0.0008434546856475998,
				-0.0002808252963809641,
				-0.0009211867383371235,
				-0.0008168192377616956,
				0.0008092940560628745,
				0.00032714572570796555,
				0.00010791024999054879,
				-0.0009671413395828315,
				0.00042790983179346307,
				-0.0008334775502636673,
				0.0005219463345511716,
				-0.00037720684669059464,
				-0.00035730459039095424,
				-0.0004766991186201812,
				0.0005578814754259016,
				-0.0003642585475542335,
				0.0008479532286203811
			],
			[
				-0.00028480202922516766,
				0.00010456820359400578,
				-0.0005973934080584855,
				9.134849243169546e-05,
				0.0006395000005057986,
				0.0003664615150679195,
				-8.782102980278532e-07,
				0.0007403305493396098,
				-0.0008767691195676959,
				-0.0007866492170264441,
				-0.0008360690394731661,
				0.0001986496993155503,
				-0.0003936431372793776,
				0.000360098035611284,
				0.0006326998489286683,
				-0.0006712893839655683,
				0.00045009160426958,
				-0.0007639499200865862,
				0.0006534344185776778,
				-0.0004703591295377803
			],
			[
				-0.0003732676758554088,
				-0.0004403228915888833,
				0.00010887769001132939,
				0.0005196357081856888,
				0.000331738673845824,
				-0.0005820418848318724,
				0.0003321027989698019,
				5.1061068666838306e-05,
				0.0005834598320558608,
				0.0004430470635607849,
				-0.0007776118971711967,
				0.0004603914224704682,
				0.0004442752628447751,
				-0.00015016836707042343,
				-0.0006103743854146368,
				-0.0008399460884588425,
				0.00060440648411322,
				-0.0008347748513079162,
				0.0009343219519613944,
				-0.00018916104655161247
			],
			[
				-0.000492750577448482,
				0.0008615508839497372,
				-0.0003241458585560306,
				0.0007455059688029676,
				0.00036210628515897505,
				-0.00044307966700551395,
				0.00010729129272300754,
				0.0007497357328610716,
				-0.0006264936311718286,
				-0.0009923320412597862,
				-0.00034983675534387064,
				0.00031362445159998286,
				0.0003716008798717956,
				6.287007808517897e-05,
				0.00021232828786886125,
				0.0002870375929700723,
				0.0005272116946845023,
				-0.0006789437366934343,
				4.2083685940003416e-05,
				-0.0009204592480124823
			],
			[
				-0.00039395645018179646,
				-0.000576083962383444,
				-0.0008123446909268845,
				0.0009534233734674238,
				-0.0004681021381458821,
				-0.0003855818803997562,
				0.0008839136792300134,
				0.0006478399492578439,
				0.00025955474914985126,
				-7.074667860428778e-06,
				0.0003520615907695128,
				0.0008689583447366151,
				-0.0001679904956908225,
				-0.0005505904778136284,
				0.00032639608431873413,
				0.00025899608347839504,
				2.6356519984050992e-05,
				0.000800986190755495,
				-0.0005524113924671399,
				-0.0004987347460179503
			],
			[
				0.000990384314216179,
				-0.0005114583710789549,
				-0.0008880163678332583,
				0.00030888508452897026,
				-0.0006778052470144003,
				-0.00036507142717011234,
				-0.0009745934621386805,
				0.0007032904064368246,
				-0.0005590337872415034,
				3.252676922672697e-05,
				0.00024424996212433635,
				-0.00022772930525801404,
				0.0006853340932052214,
				0.0008031163221951174,
				-0.00019284103960227168,
				0.0002462098668275614,
				0.000828981881390529,
				0.0004979230667268349,
				-0.00012064833333007144,
				-0.0001769716153091097
			],
			[
				-0.000465388838199482,
				0.0008442814573204106,
				-0.00042690493558487593,
				-0.0003007408998341372,
				0.0004917659453445692,
				-0.0004575095204769022,
				0.0003391685884537429,
				-0.0001444792424392722,
				-0.000625089832819757,
				-0.00010659655926239034,
				-0.0007838386740995391,
				-5.880959913959725e-07,
				0.00043801196190227537,
				-0.00023556308780617492,
				0.00018135323772810758,
				0.0004254133582074675,
				-5.3575287869450216e-05,
				-0.0009364535043732683,
				-0.00036853937551883356,
				-0.0001110588871970035
			],
			[
				0.000912562435702674,
				-0.0008586002416625202,
				-0.0004686257578657123,
				0.000312924898202757,
				-0.0007915280808894039,
				0.0002485542921448025,
				0.0009298558242357322,
				0.00021264013366582607,
				0.000605971288111554,
				-0.0004699662312372348,
				0.0005358736504957791,
				0.0004683453059282604,
				-0.00012101234983011256,
				0.0004942754953892914,
				0.0006166742248752311,
				0.0006657145863923513,
				-0.0002536364239940327,
				0.000846011770926511,
				0.000995805905672486,
				-0.0006173179726528906
			],
			[
				0.0008872494239926339,
				-0.000929948405013586,
				-0.0005398537436461671,
				0.0006300597344341809,
				-0.00023228156949049717,
				0.0004434736647840271,
				-0.00041524261288816634,
				0.000523312705929504,
				-0.0009069945355453877,
				-8.320850317907261e-07,
				0.0005878995414480975,
				-0.0007241143755933834,
				-0.00022114901369648602,
				-0.00023598202026989409,
				0.000852307023676281,
				2.582266772868007e-06,
				-0.0004766927604729816,
				-8.988356229986403e-06,
				-0.00019017400285596068,
				0.0006994223297127288
			],
			[
				0.0008995458273028454,
				-0.00033292069953256404,
				0.0006423870297711347,
				0.0007425223993074209,
				0.0003042075764974001,
				-0.0007522572984651726,
				0.00016135970044054695,
				0.00018425070815157444,
				-0.0004351110585857121,
				0.0008168491546652482,
				0.0001573727295165904,
				0.0004976398494271489,
				0.0002512051307966331,
				0.000772706074682243,
				0.0009236859032793626,
				0.000696359709362945,
				0.0004500714596123996,
				-0.0008199209128679519,
				-0.00023033607709940893,
				-0.0007731940560488011
			],
			[
				0.0005333253795933028,
				-0.0006597339834677745,
				-0.0003439380185689243,
				-0.00019369550728827087,
				-1.3093794128692104e-05,
				0.000765628066843538,
				-0.0005807748652931594,
				-0.00018414477970157426,
				-0.0005625004150123838,
				-0.000974091624125097,
				-0.0003511822295560825,
				0.0001783521223534389,
				-6.018855642168149e-05,
				-0.0006891919722860596,
				-9.100654062418553e-05,
				-0.0007143307983210932,
				0.0006340631299820291,
				0.0008005663392526854,
				-0.0007178301769243432,
				-0.0008352945205685022
			],
			[
				0.0009399735299703699,
				-0.0007143599723697047,
				0.0007025263907363204,
				-0.0007426768319433636,
				0.0007486231876041938,
				-0.00015876267069690937,
				-0.0007198104283442832,
				-0.0009646762354493657,
				-0.0009957651903654463,
				0.0002765041747405581,
				-5.219894306965171e-07,
				0.0009971006628550104,
				0.00012841474145081294,
				-0.00036349999695999187,
				0.00033851375507313415,
				-0.00012872430226337685,
				0.000249028431338694,
				-0.0007772083104095356,
				0.00033826735443097345,
				-0.00048104409366033017
			],
			[
				0.0009882710889417027,
				0.0007340395605118886,
				-0.0009664957546189563,
				-0.00044079736815213556,
				9.629265707379315e-05,
				0.0005554664508244074,
				0.0007765365325027563,
				0.0004219723581771425,
				0.00040925684471776035,
				0.0007739733510919121,
				0.0008896368695982923,
				-5.191970613594365e-06,
				-0.00038425729872418996,
				-0.0001363609619228108,
				-1.0631951318383973e-05,
				0.00034900906173499576,
				0.00029538842277225053,
				0.0002858147043377985,
				-0.00022408656133298635,
				-8.915545412155248e-05
			],
			[
				0.0006756727358249741,
				-0.0007547019900190204,
				-0.0001269242249528562,
				0.0003490888588231708,
				-0.0008227508552143892,
				-0.0005076182189798224,
				0.0007312662867228323,
				0.00044693605317331275,
				-0.0005596605173911254,
				0.00018749520648112254,
				0.00046264818557689713,
				-0.0007948533547709898,
				-0.00034237986496263014,
				0.000961593312628834,
				0.0005289970096706441,
				0.0005299090616927673,
				0.00036200603078815697,
				-0.00014074457290477315,
				-0.0004110533701561505,
				-0.0009908944695747567
			],
			[
				0.0008713023226883934,
				0.0009322417924953492,
				0.0006689246316116564,
				0.00080779071275872,
				0.00011237327739302308,
				0.00022364861989080114,
				0.00022351528733055245,
				0.0004420335970266758,
				-0.0009349001484113395,
				0.00017863775501749074,
				0.00010295023056678385,
				-0.00036632753455635107,
				-0.0005344021263478404,
				0.0008786345862757683,
				0.00027809259238706515,
				-0.0005522909010915985,
				0.0007285482974852574,
				-0.00038762682920809647,
				-0.00048025878629417626,
				1.2707794320322664e-05
			],
			[
				-0.00037973021522218306,
				-0.0005454232736199056,
				0.0007767466637744809,
				0.000742883874262747,
				0.0009667069102425453,
				-0.0006525120092610549,
				-0.00025508971793248246,
				-4.0366497196748954e-05,
				-0.0006484876504274779,
				0.000755050543484428,
				-0.0006111345131781119,
				0.0009795097887365547,
				0.00033378062362015215,
				-0.000263654662897882,
				4.01587317721793e-05,
				1.3970860555095367e-05,
				0.0001347331369065492,
				-0.00044788511408111334,
				-6.778142125768124e-05,
				0.000859591580600242
			],
			[
				0.0007663469350371605,
				-0.0007222138020847448,
				-0.00014851648703845765,
				0.0005272257912513263,
				-3.5278296895776976e-05,
				-0.0004069052585320257,
				2.300956988253596e-05,
				-0.00022573964426636126,
				0.0009794075869219198,
				-0.0007426850497084874,
				-0.0004495822167473422,
				-0.0009353057670940464,
				0.00026139502648452615,
				-0.0002827285773101722,
				0.0007670132994593048,
				0.00013004447839579884,
				-0.000994835155994649,
				-9.182800578929793e-05,
				-0.0005977145880857553,
				0.0007896525520432861
			]
		],
		[
			[
				-0.0008372401302631352,
				0.00017397517212877417
			],
			[
				0.0008436507758643103,
				-0.0008752132516401127
			],
			[
				-7.668206699763889e-05,
				-0.0009232293507218341
			],
			[
				-0.00017749167729065314,
				-0.0008819509934057968
			],
			[
				0.0006964315795713197,
				0.0008578218384198454
			],
			[
				-0.0003302205467946062,
				-0.0008038070614634269
			],
			[
				0.00014545935643861508,
				-2.5955773713861783e-05
			],
			[
				0.0006155558049266373,
				0.0006063417828946493
			],
			[
				-0.0003773647822454099,
				-0.0005805147414970069
			],
			[
				0.0001206751349889536,
				0.0006615362047236665
			],
			[
				0.0009815341114986437,
				4.4822050009155154e-05
			],
			[
				0.00043912546629018036,
				-0.000815928013925505
			],
			[
				0.0003202773454843461,
				0.0003553901974411827
			],
			[
				-0.0006441389316689063,
				-0.0003415678431012499
			],
			[
				0.00030942519863483807,
				-0.0006123440941327105
			],
			[
				0.00022467733346863677,
				-0.0009148917221627577
			],
			[
				0.0005189361950381391,
				0.000351973873047132
			],
			[
				-0.0007951806767093108,
				0.0008092961490111497
			],
			[
				1.3340774815201939e-05,
				-0.00036040344289006514
			],
			[
				0.0004934284343839903,
				-0.00017608581232551044
			]
		]
	]
}