{
	"model_params": {
		"input_dim": 10,
		"units_per_layer": [
			20,
			20,
			2
		],
		"acts": [
			"leaky_relu",
			"leaky_relu",
			"identity"
		],
		"init_type": "uniform",
		"batch_size": 200,
		"decay_rate": 0.95,
		"decay_steps": 500,
		"epochs": 800,
		"lambd": 1e-05,
		"limit_step": null,
		"limits": [
			-0.001,
			0.001
		],
		"loss": "squared",
		"lr": 0.005,
		"lr_decay": "exponential",
		"metr": "euclidean",
		"momentum": 0.6,
		"reg_type": "l2",
		"staircase": true
	},
	"train_params": [],
	"weights": [
		[
			[
				-0.000570415516718687,
				0.0006220864527533298,
				-0.000224076799649396,
				0.0005591395029243542,
				-0.0006586940599826255,
				-0.00020893592168944443,
				0.0007552678364961497,
				0.00040162988582575815,
				0.0007777018929211274,
				-0.0004583453348852711,
				-0.00025123742879756253,
				0.000696685786290956,
				-0.0004657552595163758,
				-0.0006361929798079195,
				-0.00040147743262480297,
				0.0009176822765099863,
				0.00038787802477020187,
				0.00022394522506994762,
				-0.0005074091607146345,
				0.0008141780456449486
			],
			[
				0.0003943202128133161,
				-0.00030317024168769206,
				-0.0005744048150666983,
				0.00025805822552165303,
				0.0008462781837973042,
				0.0005768826712333737,
				-0.0005606365534505753,
				-0.0009124431312352464,
				0.0002824942745418707,
				0.0003752890315862191,
				-0.0007295036504177924,
				-0.0009620298486727836,
				-0.0005960230267671876,
				0.0002971505040200984,
				-0.0007882027533957687,
				-5.590384071585701e-05,
				0.00025713230729773866,
				-0.0003542590404596211,
				0.0006832140568345333,
				0.0007029380508546377
			],
			[
				0.0004269993547141369,
				-0.0006209099570009598,
				-0.0009320946506375516,
				-0.00028707634535363375,
				0.00018073693512985997,
				-1.48558902821705e-05,
				-0.0007146852003625782,
				0.00018946876714768406,
				-0.00032798380194557387,
				0.0009031562672885973,
				0.0009583598730437187,
				-0.0009092709644475419,
				-5.3325889616992386e-05,
				0.00025230727470112384,
				-0.0003159778337407655,
				-0.0003326343784535855,
				0.0003571750756890641,
				-0.00038032998346396445,
				-0.0006125372114289289,
				-0.00036232176447126155
			],
			[
				-0.0009462895912382976,
				-0.0007198157787362664,
				0.000487075280297924,
				-0.0003333412038266497,
				0.0008295077691002806,
				-0.0008037626595513381,
				-0.00021988484736493305,
				-0.0001719476084827827,
				-0.0006366712389829859,
				-0.00032436233154503765,
				-0.0002885537958630446,
				-0.0007982935726687641,
				0.0003085272470075922,
				-0.0005015317345358403,
				0.0003338642114717803,
				-0.0008876666959374098,
				0.0009290580864771982,
				3.512263335324621e-05,
				0.0009107287474254516,
				0.0009908225059479378
			],
			[
				7.278114766088618e-05,
				0.00040481182316692496,
				-0.0007501905798593591,
				0.0005722111268988629,
				-0.0005362251981105874,
				0.0006602082373729471,
				0.00021424047146936082,
				0.0009693062801552029,
				-0.0001634679689957579,
				0.0004886413482205053,
				0.00028384262601645793,
				-7.70312942125601e-06,
				-0.00045335447347769043,
				-0.0008103423441078151,
				-1.911474512999653e-05,
				0.0001495099120909589,
				-0.0007914999526050546,
				0.00087391090670586,
				0.000375529630372928,
				0.0006138767559767714
			],
			[
				-0.0005497498120547128,
				2.892487674934787e-05,
				-0.0001766491745454823,
				0.00017547176279988637,
				-5.847698693411019e-05,
				0.0009533494181700442,
				6.441672324615727e-06,
				1.9755635685750122e-05,
				0.0006663078865498545,
				-0.0008591096283790178,
				-5.925390075701769e-05,
				-0.00013607941956079235,
				-0.0008005056067076493,
				0.0005955491385100269,
				-0.00016445040832335463,
				-0.0005894269614250964,
				0.00041006853167830184,
				-0.0007417013228444829,
				0.0007095275956385723,
				0.00012049144595708151
			],
			[
				-0.00036964138301283443,
				-0.0003421362259167415,
				-0.0007742792180294023,
				0.0007595958316474378,
				2.4511478015194115e-05,
				0.0005584329836155891,
				0.000748099839316128,
				-0.00040673201690670697,
				0.0009814733234698113,
				3.12537969559927e-06,
				-0.0006855374089561222,
				0.0007290237788606688,
				0.00037365954168378933,
				-5.270181945728593e-05,
				0.00016604117895153742,
				-0.00021000380927980555,
				-3.3012318983365345e-05,
				0.00014834744305233338,
				-0.00039549276456154493,
				-0.00056196637606358
			],
			[
				-0.0005956504571312598,
				0.00014864415483651803,
				-0.00045493722485480273,
				-2.0197513770167045e-05,
				-0.0004202644271247178,
				0.00011365630853943701,
				0.0002510126622761483,
				0.0006598255373026138,
				-0.0004953079824741533,
				-0.00043936979690174143,
				0.0004129143742773896,
				0.0007267451744939789,
				-5.193812100154241e-05,
				0.00038813797029623267,
				-0.00046810574863496936,
				-0.0008001844983685722,
				0.0002306444960167057,
				0.000948460036938047,
				-0.0008081221630956297,
				0.0004337651034242995
			],
			[
				0.00038030976114378245,
				-0.000856490231822234,
				-0.0008367055442293925,
				9.689950946599663e-05,
				0.0008723341201965897,
				-0.00046666860950166523,
				-0.0003012861334714407,
				0.0008623516736133423,
				-0.0007266066617904599,
				-0.0005996786305602575,
				0.0003186362988609559,
				-0.0003667246689649952,
				-0.00011955469696958937,
				0.0007705232714998399,
				0.0009168080292523398,
				-0.0006230006580058192,
				0.0001409545637391953,
				0.0005233662675093887,
				-0.00016903742721185598,
				0.0008359573808841853
			],
			[
				0.000765262881243669,
				0.0007706601758061618,
				0.0006509092100277418,
				-0.0009879293305633254,
				0.0008302678014237583,
				-0.00036283416588906055,
				-0.0001169724487044137,
				-0.0008755494529271259,
				0.0004123577647783749,
				0.0005038188597739671,
				-0.0007630997255804266,
				-0.0008017496557536779,
				-0.0004841316713013981,
				-0.0005450696278337583,
				-0.000990519729337462,
				0.0003447557520612455,
				-0.0006192882338958741,
				-9.545164507688609e-05,
				0.00046441552204238364,
				0.0002961336869964177
			]
		],
		[
			[
				0.00047808259027799045,
				-2.5736939798482144e-05,
				0.0007657255841459613,
				-0.0009434133658315635,
				5.282141704072182e-05,
				0.0008745814498874061,
				-0.0005663513407516577,
				-0.0006436597777071247,
				0.0005535753349090347,
				-2.80778842458914e-07,
				-0.00013090758341830465,
				0.00040040039061489414,
				-0.0009006277980136652,
				-0.0008679447778665455,
				-0.000623976490579806,
				-0.0005146423645102183,
				-0.0002754938445147932,
				-0.0004901555470375423,
				0.0008035860197335065,
				0.000269244537331622
			],
			[
				-0.0006325949702991203,
				-0.0005661786597553405,
				-0.0007037162625084315,
				-0.000785867673210062,
				0.000747332595122436,
				-0.0003282178232200386,
				0.00044596166788418864,
				-0.0006931135251938126,
				6.945809778596021e-05,
				0.0002689577686160571,
				0.00015887162713509179,
				0.0001227225872575356,
				-0.00019541081785560217,
				-6.86955794413518e-06,
				0.00017961321547815714,
				-0.00042712765720763393,
				-6.840935692736696e-05,
				0.00016628659102017385,
				0.0008908139212085444,
				0.0009999399673565582
			],
			[
				0.0008927337578267733,
				-0.0004228601251561673,
				-0.0008078559055837448,
				-1.9818074918996793e-05,
				-6.527269922321883e-05,
				0.0009213831402852778,
				-0.0003490263884448504,
				0.0009800675115684055,
				-0.0009614736092246612,
				0.0006583418044585111,
				-0.00017979234783105922,
				0.0008811132665254523,
				-0.0001784385894209946,
				-0.0007099749113332172,
				-2.1649340271761176e-05,
				0.000339912458587328,
				0.00018856295963997575,
				0.0004474884593638473,
				0.00037650077137468016,
				-0.0009427173557087614
			],
			[
				-0.0007961416768654268,
				0.0006031229014406348,
				-0.0008545878778479143,
				0.0003682036815130668,
				-0.0006041615615832911,
				0.0006487697097565814,
				-0.0002484560937889166,
				-0.0005781012458155188,
				0.0003483228696893651,
				-0.00042320054996860244,
				-0.0007111914832372133,
				-0.0003430079179092074,
				-0.0006359668157924793,
				0.0006919250098839662,
				8.93006819490936e-05,
				-0.0008235759318054702,
				-0.0009421559510393006,
				-0.00026026279215386565,
				-0.0006113466672803682,
				-0.0004914039089096783
			],
			[
				-3.146711588889351e-05,
				0.0006140854761734664,
				-0.0007572791315407933,
				-0.0002623163058914779,
				-0.00046417617206026,
				0.0005474219423668143,
				0.0003898079699421119,
				-0.00040918515200381747,
				0.00012112943154044789,
				4.275476955397381e-05,
				0.0002674791263702378,
				-6.195022913750223e-05,
				0.0002831914591631098,
				-0.0003531169286960707,
				-0.0004493636537826204,
				0.0006969222956291841,
				-0.0005105778478679785,
				-0.0009293198809985079,
				-7.245531611618295e-05,
				0.0002723225869899616
			],
			[
				-0.0007760156254420941,
				0.00010500626147714803,
				-0.0006530689729753853,
				-0.0006712085887447754,
				0.0005375479646726221,
				-0.0006770894525801588,
				-0.0005166960054913746,
				-0.00018406142521354733,
				-0.0009078188977266615,
				0.0007565781235210874,
				0.0006180780156776972,
				-0.0001646975876649164,
				0.0009187862324120781,
				0.0008796694654049104,
				2.7792893173456644e-05,
				0.000753174513735101,
				0.00031295177661708564,
				-0.000435883098282565,
				-0.0006825540355198272,
				-0.00019197881464211438
			],
			[
				0.0008931019869730622,
				-0.0005066844415002802,
				-0.0005600532842268571,
				0.000674051651408322,
				-0.0004784958767856633,
				2.083705115368882e-05,
				0.0007698160581442648,
				0.0004392198478446348,
				0.00010026462050642974,
				-0.0007682809897418685,
				-0.0009574866231326216,
				-0.00017249866733195466,
				-0.00041055038568087946,
				0.00010447773739196819,
				-0.0008857919954410636,
				6.245777133210098e-05,
				0.0003678523097303784,
				-0.0005195854918000835,
				-0.00027036410045383464,
				-0.00042307314082736577
			],
			[
				-0.0009782065296494939,
				-0.0009089133437842911,
				0.0006859608707191732,
				-0.000349180782654811,
				-0.0004974337759453025,
				0.00021426026201102266,
				-0.0006553518766731299,
				-0.0008160637325369109,
				0.0001542583921916457,
				-0.0005010922611845185,
				-1.031276175487289e-06,
				-0.000387019332200881,
				-0.000365214028523033,
				-2.179638564603261e-05,
				0.0005018757986356699,
				0.0005357138118458238,
				-0.0006514514935578399,
				-0.0008604270979946013,
				-0.0006083313785775876,
				0.00030910639608861435
			],
			[
				0.000720008859955347,
				-0.0003225572752563623,
				0.0006059608201515797,
				0.0002136110072063213,
				-0.00018406015705633267,
				0.0002067084926672348,
				0.000508125880946244,
				3.712850130698701e-05,
				0.000459915503313742,
				0.00080392176188025,
				-0.0006222374731619726,
				-0.0004655422245511178,
				-0.0009224885296068382,
				9.809488776457492e-05,
				-0.0005025221000514098,
				-0.0008821146749408248,
				0.00020488783542574308,
				-0.000907963516075744,
				5.284416269781163e-05,
				-0.0009779339548523593
			],
			[
				0.0006359737153826173,
				0.0007304524449802854,
				4.0832726241359996e-05,
				-0.00031306757404928813,
				-0.0005626880592070331,
				-0.00041931880550504094,
				0.0005746818824928382,
				6.478398686807002e-05,
				-0.00037771146649689393,
				-0.00021968658109227063,
				0.00045492715871061707,
				-5.9797913120122914e-05,
				0.00046273412657342147,
				0.0005875804279038758,
				-0.0005631271375126179,
				-0.0007897444754235014,
				-0.0001539029483274239,
				7.014545850877367e-05,
				-0.0009441033677868074,
				-0.0007750537449842019
			],
			[
				-0.0006241386329712595,
				0.00013531589908029112,
				0.0005733311254715158,
				-0.0007475287104092864,
				-0.00044362277354571594,
				-0.0004611121189516934,
				-0.0004188438156169399,
				0.0008450458932383394,
				0.0009737740372967353,
				-0.0008182773280571946,
				-0.0004633891167481508,
				0.0007267014761893288,
				-0.00040980385099892013,
				-0.0007016912269006102,
				-0.00028022500995774453,
				1.269218924071936e-06,
				-0.0009162960209847912,
				0.00013648455541307152,
				-0.0009085282854538968,
				0.0007969243133918876
			],
			[
				0.0002474107421989839,
				-0.0005131756468665202,
				0.0008257229905387386,
				0.0003757244808114137,
				0.0006595581087169417,
				0.0004444518078580925,
				-0.00035134220280473886,
				0.0004205111718159336,
				0.0006918717207937922,
				-0.0007478809007947329,
				-0.0005990660266300736,
				0.00010303846823706995,
				0.0009098527708600193,
				0.00031071672728204226,
				0.0009715250383234494,
				0.0004028920074119057,
				0.0007756023334006591,
				-1.1899326855428901e-05,
				-0.00015783177090759296,
				-0.0001953624168100365
			],
			[
				0.0007511477304847072,
				-0.0009834353266025473,
				-0.00032989662472109374,
				0.000739470490028561,
				-0.00029993411365770767,
				0.00044762746270221566,
				-0.0004555503881971992,
				0.0006103297773322714,
				0.00010106449641337947,
				0.00018912188720038325,
				0.0007471771237307699,
				-0.0008618158865048722,
				-0.0001904672664292189,
				0.0008824493432538581,
				-0.0007850066568495017,
				-9.641648081477232e-05,
				-0.0007200611001535682,
				0.00010226836803496988,
				-0.0009021714554531641,
				-0.0005465737251602795
			],
			[
				0.00020916204137587336,
				-0.0005561762639789811,
				-0.0009270531456202868,
				0.0008163765415925015,
				0.0004963295188263035,
				-0.0007362009599675086,
				0.00077657849323094,
				0.0003155592134342054,
				-0.00022484766418812586,
				8.069785211097056e-05,
				0.0007309849653617574,
				0.00060209522535186,
				0.0002198407328466486,
				0.00010428108522751289,
				0.00020938319196338318,
				0.00044888384438499136,
				-0.00047998736397175776,
				-0.00047580534779337216,
				0.0001367997982010911,
				-0.0009179225845717945
			],
			[
				-0.000610282862047101,
				0.0005216449338681308,
				8.803988894644644e-05,
				0.0006616175208253308,
				0.0004900499048070424,
				6.522737406697678e-06,
				0.00019903861778395563,
				-0.0006746306467177305,
				-0.00045239374459824313,
				-0.0006026034339179811,
				-0.00045167066456016606,
				-0.0005563566956613907,
				-0.0006490925004824781,
				0.00014065745878311846,
				-0.0006161251844534032,
				-0.0009433902977048778,
				0.0008649614663520915,
				-0.0003253148407151965,
				-0.000984774906140795,
				0.000505233887744309
			],
			[
				-0.0006307227167996097,
				0.0008045852287880669,
				0.0008456383083311216,
				-0.0007996638994215584,
				0.0001347786202246337,
				-8.089145205749412e-05,
				-0.00046771317481171743,
				-5.571763422847155e-05,
				0.0002061193214542604,
				-0.0008880469241974137,
				0.0009025221212610296,
				-0.0005014320423616783,
				-0.000561495234723913,
				0.0008107265527098385,
				0.0009645220040524248,
				-0.000448714569818129,
				0.0007483931480902737,
				0.0003513246828806781,
				0.0005101345823394917,
				0.0009394819876938549
			],
			[
				-0.0006621976266779929,
				-0.0009794178925422962,
				7.986596052023598e-05,
				-0.000451640794102061,
				-0.0006867921927511242,
				0.000598627696720349,
				0.0005991334485235206,
				-0.000583448497067508,
				0.0007474824612401408,
				8.62872259932753e-05,
				-0.0007946399762018108,
				0.0005857681452851981,
				-0.0004786070357724894,
				-0.0006757621134051862,
				0.0003514813786311742,
				0.000246159885659996,
				0.00035391743721407054,
				0.00042811823764584,
				-0.0005323923499826191,
				-0.000593273260758024
			],
			[
				0.000793903373738344,
				-0.00028928464960209,
				0.0005084521467544636,
				-0.0008520519747565924,
				-0.0002751381310154119,
				0.00022111640960738245,
				0.0005230286316006733,
				-0.0006050433064905632,
				0.00022036034291419027,
				-0.0004893729937712254,
				-0.0005975068295700945,
				0.0007842074846846224,
				-0.0007514275448805798,
				1.8866087351197868e-05,
				-0.00018905643346387065,
				-0.00030839325468693497,
				-0.0006892938247469284,
				0.0006161331193189764,
				-0.0007798991554694023,
				-0.0005247742390818637
			],
			[
				0.00022938160683356155,
				-0.0009414699324124209,
				0.00017292919642219497,
				-0.0009601258160893947,
				0.0009151299157075447,
				0.0002904035006725291,
				-0.0004474629264975956,
				0.0003954773348394437,
				0.0001756481750227793,
				0.00020438215239979973,
				-0.000678541618110406,
				0.0004982279632562933,
				-0.0006371082400745602,
				0.00023276986161564935,
				-0.000726257920445277,
				-0.0007209719609380978,
				-0.0003398320363325329,
				-0.000776980136846625,
				0.0006055071642918639,
				-6.582897595408196e-05
			],
			[
				3.1365515909227227e-05,
				-0.0002072118649967332,
				-0.0006503380020584866,
				0.0005714305336835877,
				0.0007779962531998521,
				0.00028501464634024466,
				0.0003649181985377087,
				-0.0004694882043951643,
				-0.0008966347198768749,
				-0.0005666696657386463,
				0.00040280530573581297,
				0.00037316826591585607,
				0.0007788380914962366,
				-0.000758001948051831,
				0.000297605491810887,
				-0.0002018958120048373,
				-0.0008376610676704555,
				-0.000297080404192305,
				0.0009857585085288243,
				-0.0005507457749182984
			]
		],
		[
			[
				-0.0002470634165505827,
				-0.0008856582905670634
			],
			[
				-0.0006428664657841595,
				-1.2980970984088382e-05
			],
			[
				0.0003368350194513422,
				-0.00019165194158058134
			],
			[
				0.00024894523164192394,
				-0.00047614929135929177
			],
			[
				-0.0005852585924868983,
				-0.0007716256039750564
			],
			[
				-0.0003273182869542753,
				0.0005708858156490953
			],
			[
				-0.0007118430158166349,
				-0.000884065173775245
			],
			[
				0.0006203521557838203,
				0.0002407687628826656
			],
			[
				0.00042273084867367416,
				-0.00039465706360665973
			],
			[
				-0.0009125630208688007,
				0.0009170466106377985
			],
			[
				-0.0007233871155854367,
				0.0007334609940598379
			],
			[
				3.0733917136265172e-06,
				0.0009993319021118622
			],
			[
				-0.0001272816754467203,
				-0.00011913780682523841
			],
			[
				-1.4932866260527772e-05,
				-0.000317462936480291
			],
			[
				-2.6029655095863844e-05,
				-0.000999130260655737
			],
			[
				-0.0007632705744742023,
				0.0008170020667968025
			],
			[
				0.0003503011104801809,
				-8.250204524455347e-05
			],
			[
				0.0003197501884103951,
				-0.0006465736279272472
			],
			[
				0.00044954303547954807,
				0.0006087535910106921
			],
			[
				-0.00034829914543888126,
				-0.0008632165111209233
			]
		]
	]
}