{
	"model_params": {
		"input_dim": 10,
		"units_per_layer": [
			20,
			20,
			2
		],
		"acts": [
			"leaky_relu",
			"leaky_relu",
			"identity"
		],
		"init_type": "uniform",
		"batch_size": 200,
		"decay_rate": 0.95,
		"decay_steps": 576,
		"epochs": 800,
		"lambd": 1e-05,
		"limit_step": null,
		"limits": [
			-0.001,
			0.001
		],
		"loss": "squared",
		"lr": 0.005655844946607864,
		"lr_decay": "exponential",
		"metr": "euclidean",
		"momentum": 0.7709349296879282,
		"reg_type": "l2",
		"staircase": true
	},
	"train_params": [],
	"weights": [
		[
			[
				0.0007044082308160101,
				-0.0006938102450163373,
				-0.000709391754310307,
				4.1499090118479265e-05,
				-3.3824167770188916e-05,
				0.0006448730560146829,
				-0.0006526707584591333,
				-0.00020136646221602915,
				0.0004448090778090396,
				0.0003832277757666112,
				8.265182286518744e-05,
				0.0003679445778378334,
				0.0008754160814447717,
				0.0004488743793089431,
				-0.00017802725356383983,
				-0.000362175539882696,
				0.0004436913117828562,
				0.0002479010466108619,
				-0.0005969876883959795,
				-0.0005809374101593734
			],
			[
				0.0002509141862825214,
				0.0001963011848677876,
				0.00022932637088599137,
				0.0006963301471124789,
				-0.0008945576365735901,
				0.0004578987651995812,
				0.00026416950058131953,
				0.00035864806643148123,
				-0.0004965243604110501,
				0.0003868636265481986,
				0.00011219909096403611,
				-0.0007432886462278279,
				0.00014167467798610112,
				0.0002436584320328098,
				0.0007885582208759325,
				-0.0006041086647310659,
				-0.0001732665604075106,
				0.0007529837404838698,
				9.395070125705132e-05,
				-0.00021508422416459253
			],
			[
				-1.6361988831791515e-05,
				0.00011713459274344663,
				0.0003346775753940033,
				0.0006230123548665494,
				-0.0008105961153113206,
				0.0007285011110964373,
				0.0008815981248262083,
				-1.2524958089551574e-05,
				-0.000545771126998834,
				-0.0003587915760429008,
				0.0006713887869749286,
				0.000305076051965146,
				0.0005268812733591321,
				0.0002718628819715866,
				-0.00021173223492533815,
				-0.0005036913153577758,
				0.0002327871657253882,
				-0.0004199302750871577,
				6.6865158772087e-05,
				0.0006827952201714496
			],
			[
				-0.0009170324719646024,
				0.0009283258817139018,
				0.0009174089801144746,
				0.0007285424516346678,
				0.00016373414105995496,
				-0.0007147945509658786,
				-4.9703309177126184e-05,
				6.062018044461644e-05,
				-0.00021497769393902689,
				0.0005506484409136606,
				9.235122459558048e-05,
				0.0007915655892568334,
				-0.000630716558142356,
				-0.0001544519557768691,
				0.0004333643299313597,
				0.00029997415831646643,
				-0.0005132419110396146,
				3.787254022427828e-05,
				0.00018149503621642097,
				-0.0004461849624231717
			],
			[
				0.00048054758491223974,
				-0.0005063687973252924,
				0.0007289649583767826,
				-0.0009021092135605769,
				-0.0007451256290052666,
				0.0006650664886301467,
				-0.0007686482660866608,
				0.00036192319988982854,
				5.999627837259243e-05,
				-0.0003108533423486921,
				0.00045413075462271833,
				-0.0002159253187817219,
				-0.0005602280504040727,
				0.0004145390361734937,
				0.0007522334679222495,
				-6.04826377530285e-06,
				-0.00038990947165489854,
				-0.0009296871041046186,
				0.00023218281166946866,
				0.000702853143908289
			],
			[
				-0.0005826330144089481,
				-0.000400457386912817,
				0.00034203918861096206,
				0.0009707802914233391,
				0.00023867908988053584,
				0.0004195168117440771,
				0.0005580624206063293,
				0.0009240334511061358,
				-0.0005293749514976349,
				0.0006563654311284148,
				-0.0003430724828445939,
				0.000479922968139201,
				0.000903020744236843,
				-0.0007771944074034925,
				4.492419402815531e-05,
				-0.0006295347287295206,
				-0.0005836086325669938,
				-0.00022779138201717774,
				0.0004639391411870276,
				0.000773980153975137
			],
			[
				0.00017024570002926922,
				0.0005868874405967341,
				0.0007247751911385277,
				0.0005740789301653146,
				0.0008295855116990456,
				0.0006653326547048635,
				-0.0008541276013464933,
				-0.0004345586426504791,
				-0.000748704366454492,
				0.00048010910865294585,
				0.00039076407917590524,
				0.0007770989663571683,
				-0.00019370532226036929,
				0.0004729886664934528,
				-0.00022756920345145247,
				-0.00019587498594176276,
				0.00016719213061862814,
				-0.00011282691878909245,
				-0.0007267208123083913,
				0.00016819789441383805
			],
			[
				0.00035559240885430204,
				0.000673773725853144,
				0.00044902630251786573,
				0.0007488670064061626,
				-0.0006678310288991747,
				0.0008869488650778143,
				-0.0006047206254359776,
				0.0001593783463412449,
				0.000842872976513729,
				-0.0006943349029034505,
				0.0005124934179855311,
				0.00026911667530177133,
				0.0002003403802630099,
				-0.0009806705649445244,
				0.0004107544888008116,
				0.00020763174024763338,
				-8.203418972043666e-05,
				-0.0009911931046180172,
				0.0005107580260610579,
				-0.000694951684846358
			],
			[
				-0.00032997971145926313,
				0.0002737528402721003,
				-0.0003830218920818911,
				0.0007499615128119276,
				-0.0001530744370277857,
				-0.0006609246256588566,
				-0.0002994642715584046,
				-0.00026587675420053087,
				-0.00040439434471400526,
				0.0009425112419262039,
				-0.00044789359438198036,
				-0.0006090679553577808,
				0.0003766394380602274,
				-2.830635858376302e-05,
				-0.00087071147485225,
				0.0008147370779689029,
				-0.0007111618678483516,
				-0.00015081519166338015,
				-0.000970653136594754,
				0.0004049167455418743
			],
			[
				-0.0006979112343369891,
				-0.0008917038178111052,
				0.0009191813399530755,
				0.00023437011733810583,
				0.0006579040852707587,
				8.24052897244118e-05,
				0.000776984704992111,
				-0.00018793211080345325,
				0.0004928113150771565,
				-0.0002456032165753188,
				-0.0002533512171547221,
				0.000734570910975974,
				-0.0005972765866986873,
				-0.00010651588391883098,
				0.00016102582277009616,
				-0.0006394740579629648,
				0.0007993734133468844,
				0.00015245160103015518,
				-0.0005236632715010554,
				-0.00013547035172071674
			]
		],
		[
			[
				-0.0004980185457232999,
				-0.000510882238097041,
				-1.194573894479768e-05,
				0.00022649627493418205,
				-0.0008000499547874598,
				-0.000842105626794635,
				0.0003001880577103587,
				0.0009963915977513668,
				-0.000160217577586766,
				-0.00047074967221341234,
				-0.00011653989047495769,
				-0.000604425787870065,
				-0.0002472034869305973,
				0.0005127973843805948,
				-0.0005600768608739603,
				0.0009583630689151607,
				0.0006514500818779539,
				-0.0002968780141605925,
				0.0004954379850493121,
				0.0002446635664755993
			],
			[
				-7.655183317852293e-05,
				0.0001481949115214238,
				-0.0005290236522877247,
				-0.0005688449672419634,
				7.577507783143372e-06,
				0.0006398013005339902,
				-0.000986477545401026,
				0.0006199835101515791,
				0.0007666573679429422,
				0.0002391185856535057,
				0.000618125761295094,
				-0.0004644346155647166,
				0.0005869322617907352,
				-0.0003368029992937738,
				-0.0009203724545738784,
				0.0008362758225493173,
				0.0004276920434836927,
				-0.0007856878883811987,
				-0.0008804336839014209,
				0.00031092800995440105
			],
			[
				0.00048571783526873773,
				0.0004860098409097478,
				0.0008188460705017388,
				-8.606439538566676e-05,
				0.0009700513400847104,
				0.00014771270846295078,
				0.0006631631402388761,
				-0.0004263490186996173,
				-0.0009550449821988842,
				0.00026169958950710524,
				-0.00034785911522856037,
				2.8039438109124168e-05,
				0.0005820370386430283,
				0.0004274232325587701,
				0.0006854916596052724,
				0.0008678064670656622,
				-0.0005711723578097447,
				-0.00029755335972309147,
				0.0003895772328951529,
				-0.0001595103385330117
			],
			[
				0.0005084898473559736,
				-0.00041709953762034905,
				0.0006083506256972782,
				-0.0002264817721641468,
				-0.0009545127884369238,
				0.0006882954265710025,
				0.0004133735928983108,
				0.00029373047576150123,
				-0.0005417997438698892,
				-0.0007801005207851604,
				-0.000427460030015858,
				-0.0009336304592234622,
				0.0006116685110746469,
				-0.000496543725397911,
				0.0006196562797351171,
				0.0004546023461286814,
				0.00023456948937223892,
				0.0002277639096975371,
				0.0007634072960974786,
				-0.0006439076695058381
			],
			[
				0.0006671846927004772,
				0.0005998272600620919,
				0.0008778274440285443,
				0.0006301294741974262,
				-0.0008340916678039922,
				0.00012874992823841283,
				0.00014574277225458247,
				0.0004628020712892575,
				-8.33209390654734e-05,
				0.0006390766019759642,
				0.00020096216025132724,
				0.0004132898241056319,
				-0.0007093428701212645,
				0.0004775771651587377,
				-0.0004804245095398501,
				-0.0005162574932444228,
				0.00020072604390501615,
				0.0001528411140422918,
				-0.0008566628153116078,
				-0.0002227069632877183
			],
			[
				0.00033954679532504826,
				0.0004908904088099344,
				-0.000377299034974852,
				-0.00013069308709249378,
				0.0005676156683500776,
				9.04317021142311e-05,
				-0.0004971103167757733,
				-0.00042123162215574553,
				-0.000825224810263754,
				-0.0007265152717073389,
				-0.000568724772063714,
				-0.0006234126216235747,
				0.00013911836429726806,
				0.00013965692897105106,
				0.0009692911889391748,
				-0.0008362220287546351,
				0.0001712025352632574,
				-0.00030535737455829044,
				-0.00064732728935686,
				-0.0008754066830679022
			],
			[
				0.0007303365136849124,
				0.0003915407953079906,
				-5.722251532400602e-05,
				0.0008167869313602596,
				-0.000546456763546107,
				-0.00043760202898944663,
				0.0005243533836127164,
				-0.00017995130046083018,
				-0.0009032232961080635,
				-0.0007994879290532033,
				-0.0001532096674803625,
				9.145916783684285e-05,
				-0.00025067432800971855,
				-3.521077675576283e-05,
				-0.0009328736833476724,
				0.0005095794044252522,
				0.0008632097543160016,
				-0.0004082213980525527,
				0.0004952206622163037,
				0.00016998421407663942
			],
			[
				-0.00018214469835834215,
				-0.0007420345703553473,
				0.00022676948672478584,
				0.0006795332872402023,
				0.000125659851506533,
				-0.0003540414760251604,
				-0.0003899200025743885,
				-0.00026793757681087076,
				0.0006551279411020551,
				-0.0004019626708872048,
				0.0008216362160809983,
				0.0003827323777717416,
				-5.0224111723734944e-05,
				-0.0009412615999825904,
				-0.0007799443549033778,
				-0.0001300428790653443,
				0.0002473237316848115,
				-0.0007369434375877723,
				-0.00047450429880542804,
				0.0005767070591935369
			],
			[
				0.00018382837334852162,
				-0.000535082035448583,
				0.0005977224567389812,
				0.00030109217921690736,
				0.0005714558785976638,
				0.0006006674278093802,
				-8.119379355097853e-05,
				-0.0009471375786332186,
				-0.0004618548466067005,
				0.0001889646750303127,
				0.0006812610020359218,
				-0.00027328720101401597,
				0.0006761774638480644,
				-0.0005081430487866076,
				0.0009691036334784848,
				-7.245783970917996e-05,
				-0.0009756876109528836,
				8.460502901019482e-05,
				0.0008667652308641807,
				-0.0005331840320913555
			],
			[
				0.0007858738407927118,
				0.0009383930903477358,
				-0.00021800369778274416,
				0.0007835927245748537,
				0.0008459564912673414,
				-0.0005964166203736921,
				-0.0005107141624908716,
				0.00047155800554496354,
				-0.0002050545304382623,
				-0.0008627810020009379,
				-0.0006024724420027175,
				0.0002377742280389541,
				0.00037551355701072385,
				-0.0003236016080051396,
				0.00035845726510243,
				0.0002874200767625872,
				0.0008598249909037316,
				0.0006318328424354917,
				-0.0007303377575297403,
				1.4900545310601778e-05
			],
			[
				-0.0005725270338226225,
				-3.0851768250298914e-05,
				0.0007673101118438374,
				0.0008139915375117493,
				-0.00047997603005242454,
				-0.00036564675305187256,
				-0.0007478172019163228,
				-0.0007776371245543867,
				0.00029817744596716224,
				0.0002662383518943249,
				0.0009572888403516443,
				0.0003157153148401466,
				-0.0006590785524172485,
				0.0008506021833244624,
				-0.00013633686256335899,
				0.0004490753151226261,
				-0.0006080798248579069,
				-0.000992675494539857,
				-0.0008588492069533931,
				9.366714396546842e-05
			],
			[
				0.0007414650947548313,
				0.0008566188846586295,
				-2.8398768519396892e-05,
				0.00019420298107654561,
				-0.0001316064740117278,
				-0.0008323267958470864,
				-0.000836523293796207,
				-0.0002867204973561535,
				0.00046836498230286923,
				0.00062199187182477,
				0.0009637696749440284,
				0.0003207939260569902,
				-0.0001473249031761659,
				0.0006500371297033598,
				0.0005286286351944625,
				7.929092744457219e-05,
				0.0001278393288449539,
				-0.0005589634106314723,
				-0.0007462426611166992,
				4.2972453095751735e-05
			],
			[
				0.0008123357842491209,
				6.744176108411924e-05,
				0.0007184294397707901,
				-0.00020191501352313714,
				0.00048175835923213286,
				0.0009432761277718355,
				-0.0007719938750002276,
				2.8131268997799762e-05,
				-0.0005128437128480006,
				0.00019751208619395535,
				-0.0008545476361410127,
				-0.0009358159925238951,
				0.00012463337436963585,
				0.0003103994062202977,
				-0.0007453415576907363,
				-0.0003732437834384322,
				7.897024097391317e-05,
				-0.0001381273485518786,
				-0.0001080501030670866,
				-0.0005558114637874338
			],
			[
				-0.0002810551815791054,
				1.673495227693094e-05,
				0.000994194052374324,
				9.449818136596688e-05,
				0.0006494512299464849,
				-0.00031661781397632736,
				-0.0006633457241392811,
				-0.00027078123679787145,
				0.000885521654628813,
				0.00039144133724694063,
				-0.00024744888489603323,
				0.0005508212377348177,
				-0.0003089063429925805,
				-0.0006364780250963634,
				-0.00034997278364100543,
				0.0003141322643696405,
				6.909264840000294e-05,
				0.0007930896572032214,
				-0.00044398982979775535,
				7.175406988680429e-05
			],
			[
				-0.0004139961051407284,
				-0.00022414602106464042,
				4.926938204248077e-05,
				7.722125098922803e-05,
				0.0004789873049696944,
				-0.0003487273940889677,
				-0.00042071191146881735,
				0.0004082105825159864,
				0.0005364466014611332,
				0.0009632699314157211,
				0.0007228989919573629,
				-0.00021001180661163455,
				0.0008722955658002479,
				-0.0006076371011868904,
				0.0004581266095415274,
				0.0003378052050935904,
				0.00012429206890375794,
				0.0008973546450069677,
				-0.0009614263822356788,
				-0.0008168847874646769
			],
			[
				-0.0007435498274283441,
				5.33780251759982e-05,
				0.0002795869789289857,
				0.0006135482329578039,
				-0.00032083713807180673,
				0.0002669146589435647,
				-0.0005358388174144191,
				0.0003340639161750771,
				-0.0009215666556636746,
				0.0007304196322290171,
				-0.00033998704209541985,
				0.0004044410066118512,
				0.0007651764515665556,
				0.0003902158985278634,
				0.0008916787754633944,
				0.0005776535333354654,
				0.0008312187917234484,
				0.00039605055760111264,
				0.00036394619352945546,
				-0.00031632218084478355
			],
			[
				-0.0007171158485927698,
				0.0003573084442471575,
				0.0007201472933332628,
				0.0008251463254224844,
				0.0006812644697459214,
				-0.0009737613407223395,
				-0.0005465068854147411,
				0.00029607993883368124,
				0.00048790413097944967,
				-0.00023621749253012925,
				-0.0007284868954134107,
				-0.00016174075677335867,
				-0.0009520246660887959,
				0.0008824610350909846,
				6.809066021441377e-05,
				0.0008305899817692729,
				-0.0006863384741472777,
				-0.0003727712415099629,
				0.00031602728752313613,
				-3.4918013420556435e-06
			],
			[
				0.0006828830385769524,
				0.00042659072132922955,
				-0.0009098617259100013,
				0.0008976745810347338,
				0.0003921752826510762,
				0.00022062910709426788,
				0.0009345450596604506,
				-0.0005728855584536383,
				0.0006144251640083187,
				0.00020468557968492465,
				0.0007068264753448171,
				-5.797289435925462e-05,
				0.0007803189844886045,
				-0.0008036586490181301,
				0.0008954411760079947,
				-0.0008909889079442665,
				0.00039133502622947175,
				0.0001600801517947486,
				0.0004196592640372844,
				0.0006349631455147239
			],
			[
				0.0007208988701975722,
				0.0005523694276245411,
				0.0008954652862537057,
				0.0009143640145261446,
				-0.0009800270307248726,
				-0.0009301295911050949,
				0.0005445817601165816,
				0.0003943747627258812,
				-0.0006213807021261439,
				0.00020187159062547274,
				-0.0003935344105858747,
				0.0002236130925112477,
				-3.407487231275614e-05,
				-0.00043589668299724173,
				0.00012055547200689218,
				-0.000572970758243675,
				-0.0008111685290958428,
				0.0007061110879065513,
				0.0005634040238779252,
				0.0004938287993394165
			],
			[
				-0.0009389002370245403,
				-0.0008847139402048214,
				-0.00021645282509479837,
				0.000362760938183291,
				0.000940811932827419,
				0.0004744833566645531,
				-0.0001209001901870515,
				0.0008462729883228367,
				0.0009494016664340296,
				-0.00027584271529451155,
				-0.00021643050563616845,
				-4.9473519411738845e-05,
				0.00013996277927034247,
				0.0006876743200297081,
				0.0003766208679655183,
				0.00029950252582565005,
				0.0008853209902057993,
				-0.0003008570077386712,
				-0.0007755354382881914,
				0.0008306569803667382
			]
		],
		[
			[
				-0.0006412748639382841,
				0.0008377234670077672
			],
			[
				1.466162393217894e-06,
				0.00031176147484174516
			],
			[
				0.00041011746386307706,
				-0.0009897543451539378
			],
			[
				3.221387535204748e-07,
				0.0009463274449003631
			],
			[
				-0.0009785051696156598,
				-0.00015850794415896965
			],
			[
				0.00011632588289279535,
				-0.00013257527973368122
			],
			[
				-0.0006799310420183098,
				-0.0007127087056894581
			],
			[
				6.576288694719237e-05,
				-0.000286468307473787
			],
			[
				-0.00041090408065442793,
				-0.0005984866288368884
			],
			[
				-5.4891665922046184e-05,
				-0.0005196678261653869
			],
			[
				-0.0005527952329033594,
				0.0009126294956015993
			],
			[
				0.0005705880382492173,
				-0.00032620068875502503
			],
			[
				0.0004865641217174678,
				-0.0006498680665624936
			],
			[
				-6.085643990150853e-05,
				-0.0006726714832269911
			],
			[
				-0.0007987982573200181,
				-0.0003636194027553212
			],
			[
				-0.0008138736194060887,
				-0.00016416128814390567
			],
			[
				0.0006589037631474352,
				0.0005422897138081962
			],
			[
				-0.00037938624782361027,
				0.0007341767164582604
			],
			[
				0.0009476670992752709,
				-0.0008351258206881609
			],
			[
				0.0007431366442092666,
				0.00010848097129700961
			]
		]
	]
}