{
	"model_params": {
		"input_dim": 10,
		"units_per_layer": [
			20,
			20,
			2
		],
		"acts": [
			"tanh",
			"tanh",
			"identity"
		],
		"init_type": "uniform",
		"batch_size": 91,
		"decay_rate": 0.95,
		"decay_steps": 500,
		"epochs": 150,
		"lambd": 0,
		"limit_step": 500,
		"limits": [
			-0.001,
			0.001
		],
		"loss": "squared",
		"lr": 0.007185958238678252,
		"lr_decay": null,
		"metr": "euclidean",
		"momentum": 0.7977428112252327,
		"reg_type": "l2",
		"staircase": false
	},
	"train_params": [],
	"weights": [
		[
			[
				-0.0009921281819852393,
				0.000125245379277696,
				-0.000658356116293418,
				0.0009004683743889462,
				0.0005907636285855922,
				0.0007011883021682563,
				5.4395882950998824e-05,
				0.00029655233061501416,
				-0.0006954635241596268,
				-0.0001381292799102447,
				0.0009563938519800666,
				0.00036034268372734323,
				-0.000183105762969505,
				0.00022747013594621025,
				-0.0007999747768354835,
				-0.000984696152455389,
				-0.0006396013155060339,
				0.0007305270853168143,
				0.0004976975627113286,
				0.00022122509418022246
			],
			[
				0.00019599631726245517,
				0.00042501679728329826,
				-0.0003620359610361588,
				0.000787055357542175,
				0.00014967801243470353,
				-1.8267733784028744e-05,
				0.0006530150327971947,
				-0.00034601282889628693,
				6.141225493459758e-05,
				0.00033073200374460687,
				-0.00017079875612525486,
				-0.0004997501114479586,
				-0.0004839538459928092,
				-5.496737858263015e-05,
				0.0004506078670120793,
				0.0008957497521480486,
				0.0005798258499237741,
				-0.0003522654699280619,
				-0.0009784397297713926,
				0.0005315105833947195
			],
			[
				-0.0006469577772584005,
				3.3715622565870518e-06,
				0.00018311449538687178,
				-0.0005451110368760411,
				1.3833878085525069e-05,
				0.0009024306313002524,
				0.000991912637745825,
				-0.0005460972581631467,
				0.000541251270843941,
				0.0007534254835533498,
				-0.0005281422564216647,
				0.0006779479768117757,
				0.0008711055650365612,
				-0.0004934859532301128,
				-0.0008033088235883612,
				0.00011468474066210553,
				0.0007616393018456404,
				0.00017756539048583396,
				-0.00045805454080384816,
				0.0009281857934383925
			],
			[
				-0.0009041853151465214,
				-0.00040731576125383276,
				-0.00023861415200371967,
				-0.0008942339759636398,
				0.0004889003448109923,
				0.0003206977749997328,
				9.637371111757289e-05,
				0.0009262665654453763,
				-1.3198219531882546e-05,
				0.0002913685081493186,
				-9.646698029699594e-05,
				0.0007444775478943721,
				0.0009884085401203353,
				4.467837493140128e-07,
				-0.00014562088224361113,
				-0.00018513576890970816,
				0.000616560512883058,
				0.0003919480176641215,
				0.000524788356213641,
				-1.5670068025674467e-05
			],
			[
				-0.00037516379733249774,
				0.0003341017184657158,
				-9.750817577937787e-05,
				0.00011088021717853757,
				-0.0002317276274365523,
				-0.0006524133574623186,
				0.0008475431929088164,
				0.0006102809351518875,
				-0.0005059505405462643,
				0.00023951653086818746,
				0.0005026395287339401,
				9.531134977189054e-06,
				0.00025475152338071843,
				-0.0004034315745610839,
				0.0006659405979981274,
				0.0009357577825698676,
				0.0008250159543940817,
				-0.0009655926641236636,
				0.00043464943892816297,
				0.0007147578483464334
			],
			[
				-7.758496187653145e-05,
				2.4116588100123963e-05,
				0.0007468614209516827,
				-0.0005630741344775128,
				-0.0007753191830725417,
				-0.0009671642247449808,
				0.0005430235059192751,
				-0.0003801786921644128,
				0.000299900166375363,
				-0.00036204776617790226,
				4.587389008659827e-06,
				-0.000781193360447108,
				-0.00010515621170167737,
				0.0004411390266333317,
				0.0008285212430001541,
				-0.0003170023900804351,
				0.0005815076427992864,
				0.0009898218742420513,
				0.0002130303229039127,
				-0.00016482148523023165
			],
			[
				0.0003993247436764628,
				0.0006968094206809387,
				-0.0006023625684323095,
				0.0008224773171992791,
				0.0005566660538811128,
				-0.0007790296312373628,
				-0.0002515925351850765,
				8.650861593545705e-05,
				-2.5383793989465237e-05,
				0.000129595031885806,
				0.0004810873612774581,
				-0.000567907266522136,
				0.0009483848785807848,
				-0.0004744391293222374,
				0.00025440921280901925,
				0.0006181443099917839,
				0.0009818595795540509,
				0.00011279577336023301,
				-0.00036248272844878655,
				0.000796836284742871
			],
			[
				-0.000671561763043105,
				0.0007114844754401251,
				0.0002310336187515726,
				0.00032796698367554234,
				-0.00042706788446222204,
				-0.0007409964702192705,
				6.133380455847193e-05,
				-0.0002897565210573394,
				0.0005556014718909332,
				0.0008259936399727435,
				-0.0009060273821223195,
				0.00025384245591801276,
				-0.00021298646149363516,
				-0.0005520861285775458,
				-0.0004400628954385053,
				-0.00032744641041426844,
				0.0009347634137949032,
				9.968053713856604e-05,
				-0.0005092112680456784,
				0.0002515359880273357
			],
			[
				-0.0001839323403004838,
				-0.0007775345698030171,
				-0.00046291895208864055,
				0.00046901148667530626,
				-0.0003372698250271453,
				-0.0006492252340565175,
				0.0009664005452325853,
				0.0002507295233040879,
				0.0009973727311631004,
				0.0003240230444953335,
				-0.0002651714563746024,
				0.0003418213978800045,
				-9.982689027374363e-05,
				-3.9153746724757544e-05,
				-0.00020010895509370568,
				0.0008922913539418868,
				-0.0001237123104418931,
				0.0004914225781783136,
				0.00037911165384059333,
				-0.0008369576075700804
			],
			[
				-0.0002441843302647247,
				0.00024258105437050936,
				0.00029816600994236994,
				0.0009581377417559878,
				-0.0005902679038414696,
				-0.00023404571262860727,
				-0.0009819673096208349,
				0.0008798426782181154,
				0.0008576639839887915,
				-0.00011709473010699048,
				0.0003885943443886291,
				0.00043850526418919684,
				-3.773140228089994e-05,
				0.0004152953861575521,
				0.0007702774833693508,
				-0.0007343017670823946,
				-7.371714582976932e-06,
				9.264900896875324e-05,
				0.0008899729715398687,
				-0.0004404144980251323
			]
		],
		[
			[
				0.0007118768643759148,
				-0.0004202092829520066,
				0.0007328055067954231,
				0.0005254523874177294,
				-0.0009115435000945056,
				0.0003417415079847179,
				0.0007573297597185692,
				-0.0009760104419262763,
				-0.00015451409803413313,
				-0.0009157981472519732,
				0.00044596990702906237,
				0.0007711001143097867,
				0.0004981374651069107,
				0.0008548078651748417,
				-0.0007994952858310707,
				-0.00023857405253463492,
				-0.0009312457567244115,
				0.0005849015943519831,
				0.0006779962206605481,
				0.0006835504807353936
			],
			[
				0.0008745126231867416,
				-0.0007979256730283675,
				0.0003841173045256265,
				-0.00029492835561598736,
				-0.0006633715971887935,
				-0.0005244388880727093,
				0.0008511495237755553,
				-0.0003187680788508847,
				0.0006927974746901999,
				0.0004279046585044042,
				-0.000655801320075548,
				-0.0009868762822720977,
				9.682732514581182e-05,
				-0.0005414104732277747,
				-0.0008089325711892203,
				0.00011737322164552338,
				0.0007724913788718338,
				-0.0006425907576401411,
				0.0004839852621707633,
				-0.0008522063373291535
			],
			[
				-0.0009259611998440778,
				1.8793997327228636e-05,
				-0.0008956032849437644,
				0.0004816268959154564,
				-0.00037747118753240767,
				0.00016406854279233567,
				0.0008344635413135961,
				7.708932048088686e-05,
				0.0007524902974112584,
				0.0005452135909651589,
				0.0005210291202351219,
				-0.00039639300356585766,
				-3.074147955543793e-05,
				0.0008341568581915928,
				-4.362648510368092e-05,
				-0.0009139134401825489,
				0.00022357605628786788,
				0.0008770024620626986,
				-0.0005147111941254357,
				0.00025272277226590935
			],
			[
				0.0003615133728560474,
				-0.0007011234084512388,
				-0.0008554880827775349,
				0.0003213430048055006,
				-4.53576196374672e-05,
				0.0009764232601177656,
				-0.0003887641408423972,
				-0.0008581069203926486,
				0.00040106291774810363,
				-0.0007746580099415848,
				-5.902875129427823e-05,
				-0.0008831135553606093,
				-0.0009104336814228534,
				0.00023602491607369156,
				0.0004705154661495902,
				4.2898900436531525e-05,
				-0.0007876760680899629,
				-0.0008863333879330209,
				0.0009193770391495626,
				-2.514452121379332e-05
			],
			[
				0.00046104776224616725,
				-0.00045007243866007857,
				0.0005210065631282622,
				0.0002574303076266365,
				-0.00033243336027066045,
				-0.0003113235354148278,
				0.0007371788867133915,
				-0.0006762828251403374,
				-0.0001204435023872694,
				-0.0007810344450889693,
				-0.00038189609409869753,
				-4.6273351895936865e-05,
				0.0008186217332091434,
				-0.0006841396306150378,
				0.00039686202245433635,
				0.00042699612242441416,
				2.0191622784936167e-06,
				-1.2349070410011195e-05,
				0.00021345258611170002,
				0.00039769361307935894
			],
			[
				0.0004792617889926836,
				-0.00010534340861326989,
				0.00013539256318388887,
				-0.0009681298042497994,
				6.908140541632933e-05,
				0.0008751952025529515,
				0.0008125646189208579,
				0.00014061932901695173,
				-0.0002561611036414928,
				-0.0009501514841670196,
				0.00035881504018354547,
				0.0003898055290621034,
				6.47954455514257e-05,
				-0.0006185720498538758,
				-0.0004603765460189906,
				-0.00015347111899930723,
				0.0006450048262244524,
				0.000447830791648078,
				-0.0003605743827977435,
				-0.0008869398194995542
			],
			[
				0.0009601469766407477,
				-0.0007228779068365631,
				-0.0007718843392628994,
				-0.00016869060693796504,
				-0.00018769769516393576,
				-2.9031794255898898e-05,
				-0.000466554196767216,
				0.0006762235398224911,
				-0.0006781030066893692,
				0.0007018510927009464,
				-0.000999418687335187,
				3.701580568530108e-05,
				-4.358228251143581e-05,
				-0.0001850577124207296,
				-0.0007631665863239381,
				0.0002753312763512253,
				-0.0002334625350031885,
				0.00040677603843106646,
				0.00017969010155531248,
				0.0004335323034674245
			],
			[
				0.0006969953875860023,
				0.0006376707578471595,
				-0.00025532828532847415,
				0.0003149575579523996,
				-0.0009023912129555485,
				-0.0003868051635281198,
				0.0006740397581997497,
				0.0008052076947785188,
				-0.0004005282344919001,
				3.854381129115886e-05,
				-0.0003155678353679326,
				0.00023174920333535686,
				-0.0008947379858236833,
				6.758733946325745e-06,
				-0.0009920703632972556,
				-0.0008540190023538299,
				-0.0006870349544978891,
				-0.0007352173701826745,
				0.0005811633850132749,
				-0.00021598562428441184
			],
			[
				-0.0001735539053282979,
				-0.000258306385158656,
				0.0005933746438564513,
				-0.00028545939264900744,
				-0.00021432951754760858,
				-0.0009288964668033412,
				-0.00013362249020135543,
				-0.0005700573900269971,
				0.00011912954359294707,
				-0.00026061762100622126,
				0.00015527711130330565,
				0.00027046353734462266,
				-0.00016742646100606452,
				-0.0008977235350567654,
				0.0006937252262290135,
				0.0009471278502400072,
				-0.00012807011213265547,
				9.549384304675186e-05,
				0.00022475235357893885,
				5.4513721804051165e-05
			],
			[
				0.0008973401777954914,
				-0.000517722460018927,
				-0.00019666880859769466,
				0.0002885458211198228,
				-0.0005546528975735991,
				-0.0006514833557468363,
				0.0003869538417976086,
				0.0005203850024243512,
				-0.00031969661439190493,
				-0.00034956471189569974,
				0.00023203902716710978,
				-0.00018197479898285135,
				-0.0007643265922911267,
				0.0003294435383145442,
				0.0009348307889030661,
				-0.00029461955665748647,
				-0.0009066903468131442,
				0.0006060714262187414,
				0.00021854633876442278,
				0.0006452005534040403
			],
			[
				-0.0002454269794550637,
				-0.0004286675984672317,
				-0.0004597827453761121,
				-0.0004480340469409965,
				0.0009277661181834229,
				-0.0003331727662601707,
				-0.0008899378863598138,
				-0.00042617483470113804,
				-0.0002584212108970956,
				0.0008194353352212571,
				-0.0006002224441209136,
				0.0005705194583306829,
				0.0005631923974666931,
				-0.0009365489574093866,
				-0.0007183989429536308,
				0.0006794830760043396,
				-0.00033667791160764795,
				-0.00010563858247272546,
				7.868375720244242e-05,
				0.00042904592281886307
			],
			[
				-0.0006900515046732159,
				0.0007298606395772819,
				-3.2969039778125444e-05,
				-0.00013219874452624755,
				0.0009147562141504093,
				-3.332766988858556e-05,
				-0.0005658087358052892,
				-0.0004895741830135447,
				-3.849731678362176e-05,
				0.0007852072500450869,
				-0.00017182939261920166,
				-0.00022317500469969944,
				0.0009646553448678578,
				0.0006115322538851216,
				-0.000495202433045012,
				-0.000722519249838095,
				-6.830414634040598e-05,
				0.00018359690836479252,
				2.053659818581255e-05,
				-0.00028210840109396055
			],
			[
				0.0006793380521117908,
				-0.0006140397496805531,
				-0.00010798682908886952,
				0.0008435475717688398,
				0.000759650391519465,
				-0.0009352749847608462,
				0.0008336965225413766,
				-0.0006352368962363326,
				-0.00021367174507994308,
				0.0006112544256915433,
				-0.0005669794775662958,
				0.0008556521219806675,
				-0.00014561258370596316,
				-0.0006052638692251915,
				0.0007998147965571642,
				0.0007760481260701195,
				-0.0008925914097692224,
				0.0006167808891099642,
				-0.0006810807956218503,
				-0.0006118226178701844
			],
			[
				0.0006246567545349314,
				0.0008120053584463184,
				0.00044853322494013454,
				0.0009677385398141028,
				0.0006913519718546694,
				-4.943020375743285e-06,
				-0.00014704587805179073,
				0.00044659981590864013,
				0.0009137282398801628,
				-0.000978227675986096,
				9.047206774007947e-05,
				0.0008657250357221884,
				0.0004637995760151084,
				-0.0005429755683842654,
				0.00040090876950024147,
				-0.0008111299036403173,
				-0.0009765504358573083,
				0.000400753287697869,
				0.0003337499894105645,
				0.00031998056810948164
			],
			[
				0.0007086344364947228,
				-0.00042878770785849277,
				0.0004086345836095723,
				-4.287408713167615e-05,
				0.0007436995061602773,
				-6.849107805796586e-06,
				0.000808364340903671,
				0.0009454935038529491,
				-0.00038090756350396516,
				-0.0004911242014047701,
				0.00028714835050090487,
				-0.0005243264480630541,
				0.0007728427582173111,
				-0.0007124180569679619,
				-9.174095853517765e-05,
				-0.0004781063216660269,
				-0.0006961395507084701,
				0.0003565190848175302,
				0.0005656079309528988,
				-0.0004059857098696123
			],
			[
				-0.00027279685815164844,
				-0.00043445789097731316,
				-0.00038022939745548806,
				0.00021813590938605013,
				-0.0007438664783122448,
				0.0004891153067711842,
				0.00018985569858157524,
				0.0005615574952635644,
				0.00012034792592604334,
				0.0007795360430902956,
				-0.0008326224803497,
				0.0002980988291998222,
				0.0005091042406138854,
				0.0008892320543982515,
				-0.0009484975325904919,
				-0.00038053177195921674,
				0.000951962731704163,
				0.0005288935993691742,
				0.0005896219176417031,
				-0.0005405894631383584
			],
			[
				0.0006380670411555718,
				0.000314488236975138,
				-0.00044487101135498325,
				0.00011008752406488375,
				-0.0006342315510729031,
				-0.0003869126131439475,
				-0.00018014207519772272,
				0.0007208865786967951,
				-0.000694251704905665,
				-8.834110538199558e-05,
				-0.0005887406297488426,
				-0.0002841041473062762,
				0.0009783000585129897,
				-0.0007286252345016799,
				0.00019036938666652055,
				-0.0008565180232289003,
				0.0007603556286064012,
				-0.0004930490304633442,
				0.0003672124503690192,
				-3.937182792804043e-05
			],
			[
				0.0003573785055195763,
				-0.0006214858963910154,
				-0.0006322832945511348,
				-0.0006755499646900618,
				-0.0005735932527176904,
				6.462339648287841e-05,
				-0.0004958645106802653,
				0.0003409052374426576,
				0.0006057730074321239,
				-0.0005140323637587796,
				-0.0006372634753381972,
				-0.00022533336546009847,
				-0.00017066671092005588,
				0.00024395274560882162,
				0.00019635189630749935,
				-0.0007502674322253129,
				-0.000692497069302328,
				-0.0007430409244867349,
				0.0006092329046196478,
				0.00019051865851555175
			],
			[
				-0.0002285645065006987,
				0.000912072468234025,
				-0.0004767819716256054,
				-0.0008361868354907957,
				0.0003227767492808599,
				0.0005625063164173875,
				-0.0007072245809481432,
				0.00021622948420020713,
				0.0004245056767934424,
				0.0003921828128421324,
				-0.0004294082303363658,
				0.00033700998397838736,
				-0.00026298892980081037,
				0.0002850283371129065,
				-0.0008550514386152286,
				-0.0009099712068499495,
				0.0009441583511510504,
				0.0001807696547404885,
				-0.0003919389143951604,
				-0.0006165385099286516
			],
			[
				-0.0008527483447722264,
				0.0005491530404021893,
				5.296215782484449e-05,
				0.00024068453461836815,
				-0.0005445967065359789,
				0.00012321577042555027,
				0.00020041332000677193,
				-0.0007175854705482531,
				-0.00016230867345869225,
				-0.00023330915130613387,
				0.0009884857095829448,
				-0.0009718379641061288,
				-0.00023462928122301024,
				0.00026426571899791575,
				0.0005985793567689613,
				0.0008534396686871192,
				1.4288260994530346e-05,
				0.0005019994331214315,
				-6.649256904910246e-05,
				8.826999223950907e-05
			]
		],
		[
			[
				-0.0004525614299610216,
				-0.0004984891482688658
			],
			[
				-0.0005822695477349633,
				0.0008736917307366205
			],
			[
				0.0004196411135500872,
				-0.0006151396207968566
			],
			[
				-0.00025392130517599694,
				-0.0007808410063156457
			],
			[
				-0.0009791900792665595,
				-0.00037181282202654927
			],
			[
				-0.00030881046153777227,
				0.0009579726879784317
			],
			[
				0.000352309073920137,
				-2.407730790283686e-05
			],
			[
				0.000231040915937207,
				-3.8919267618270316e-05
			],
			[
				0.00044098660005825177,
				-0.000167645043505567
			],
			[
				-0.0009547320976376259,
				0.0009384650234116091
			],
			[
				0.0003997480011763627,
				-5.880618207804481e-05
			],
			[
				-0.00020918718872315646,
				0.0007916274403140873
			],
			[
				0.0008275614331366538,
				0.0007542662620678266
			],
			[
				-0.000652294056271029,
				-0.000676157818635412
			],
			[
				-0.0007380880151907597,
				-0.0006023691536467111
			],
			[
				-8.515810672628146e-05,
				0.0007071389830445899
			],
			[
				-5.755784963767984e-05,
				9.625493114940546e-05
			],
			[
				0.0006927326868599252,
				0.00031125397203216054
			],
			[
				0.00015528643121656433,
				0.0009477332532221124
			],
			[
				-0.0006524613907513772,
				0.0004110963260436852
			]
		]
	]
}