{
	"model_params": {
		"input_dim": 10,
		"units_per_layer": [
			20,
			20,
			2
		],
		"acts": [
			"leaky_relu",
			"leaky_relu",
			"identity"
		],
		"init_type": "uniform",
		"batch_size": 200,
		"decay_rate": 0.95,
		"decay_steps": 576,
		"epochs": 800,
		"lambd": 1e-05,
		"limit_step": null,
		"limits": [
			-0.001,
			0.001
		],
		"loss": "squared",
		"lr": 0.005655844946607864,
		"lr_decay": "exponential",
		"metr": "euclidean",
		"momentum": 0.7709349296879282,
		"reg_type": "l2",
		"staircase": true
	},
	"train_params": [],
	"weights": [
		[
			[
				-0.0007472524934085424,
				-0.0006347816605196776,
				-0.0002798898125868346,
				-0.0009519850992605397,
				0.0009057674873026173,
				-0.00044174046852130534,
				0.00032873778256728545,
				0.00042414649111882315,
				-0.000588592152676988,
				0.0004931527667535233,
				1.7779431053288218e-05,
				-0.0009747258438542861,
				-9.995987971343247e-06,
				-0.0007005346508021538,
				-7.727562073970608e-05,
				0.00012092765933020572,
				-2.2995103951966656e-05,
				0.0005606181732101029,
				0.0009595939898840336,
				0.0008349731023366389
			],
			[
				-0.0007992259781695914,
				0.0008089821259339351,
				1.745574319086279e-05,
				0.00025323202729244537,
				0.0003506322347125658,
				-0.0002720073003665602,
				0.0009839706700335979,
				0.00021111273252283585,
				0.00019243113652277276,
				-0.0005235824769047241,
				-8.472214404383021e-05,
				-0.0006154033704014086,
				0.00021860821727746633,
				-0.0006706239787409911,
				0.00041682726468686535,
				-0.0001750960125882175,
				-0.0008882667246598817,
				-0.0005472399973545794,
				-7.519902005103415e-05,
				0.0009440419083469669
			],
			[
				-0.00012379607324474536,
				0.00043001848937871995,
				0.00032508729891769176,
				-0.0002738726435995946,
				0.0004716877448251375,
				-0.00041285249537761296,
				0.00015493710976819406,
				-0.0006761230825739954,
				-2.4640125452746425e-05,
				8.393033299123275e-05,
				-0.0009520807299314505,
				0.0006105852361020586,
				-0.0006166661956128301,
				-0.0006973970922340687,
				-0.0008169133617420961,
				0.00043033533620853975,
				0.000501148811807768,
				0.0003702942670932639,
				0.0005169700029210825,
				-0.0008134463072448845
			],
			[
				-0.0007945604433219384,
				0.0009673599383918309,
				-0.0002763961303954987,
				-0.0009773889725747803,
				0.0004862232413131377,
				0.00020164058664200375,
				-9.93342474896146e-05,
				-0.00022325465963368729,
				0.00031395196257501365,
				0.0009962168860243262,
				0.0005211030033091856,
				-6.56625795730616e-05,
				-0.00082842137068108,
				0.0002577129041392277,
				-0.00046658206471824975,
				0.00027458248004764226,
				-0.0008140710309526254,
				-0.0006737452135428577,
				7.387321691644348e-05,
				-0.0008764666723818031
			],
			[
				0.0004491483538074262,
				0.00038869256060172124,
				0.0007483586215314489,
				-0.0005515910025896374,
				-0.0004098969224718261,
				0.0003001764073833136,
				-0.000757395633139919,
				-0.00022460937878756736,
				-0.0005284634578489005,
				-5.7278884951473554e-05,
				-6.441684903761601e-05,
				-0.00014326380044527064,
				-0.0004083039177505941,
				0.00040775657562863114,
				1.5571241485730532e-07,
				0.000751569077657592,
				0.00022623189459346433,
				-0.0006220406265184602,
				0.0006871122939167784,
				-2.197976908591354e-05
			],
			[
				-0.00037816952394924925,
				0.0003973109879039083,
				-0.0002393611561490452,
				-0.0006061026186381937,
				-0.00012995752289829562,
				-0.0009898473586008284,
				-0.0008801019289437562,
				-0.0007805289054301825,
				-0.00039724776425461596,
				-0.0005131462800509908,
				0.0009950430160958752,
				0.000703553834836319,
				0.0007087872574237663,
				0.00010919419251935784,
				0.0005217361369719154,
				-0.0007611977042424412,
				-0.00036050486624158507,
				-0.0008367078632209697,
				-0.0003913075471582697,
				-0.0006265832147881536
			],
			[
				0.00012776182042077244,
				-0.00030069156495653626,
				0.0009406549046704499,
				-6.103505469341947e-05,
				-0.0006487214194974032,
				-0.0006699167277367044,
				0.0003224035241570591,
				1.837205079217299e-05,
				-0.0009194424169036331,
				0.0008252965033000836,
				0.00017319032736014348,
				0.00019336669567696367,
				4.93096885434397e-05,
				4.102861909518118e-05,
				-0.0006490186862755041,
				-0.0007749879547553429,
				-0.00037638690333249717,
				0.0006427422798200866,
				-0.0006956545495203238,
				-0.00041154321184974424
			],
			[
				-0.0006934285035884889,
				-0.0005639001289042316,
				2.1447319154314047e-05,
				0.000856273894773158,
				-0.0002679530021289391,
				0.00010802615439782937,
				-0.0003504155478457647,
				0.0008800189800300048,
				-0.0005897458372957385,
				-0.0006044666089713138,
				-0.0007508797777779606,
				-0.00021915337582022177,
				-0.0007143930451187388,
				0.0003184675454713068,
				0.0005378930331661326,
				0.0008628521940169304,
				0.00078120956008973,
				0.0003863536121329553,
				0.0003018142180324409,
				0.00045461537909660134
			],
			[
				0.0007069346124327664,
				0.0006168761915167882,
				-0.0008328132602330532,
				-0.0001390491560697018,
				0.0008253259674359497,
				0.0005683414855210509,
				0.00023271495948588242,
				7.002558077746543e-05,
				-0.0003984824817975228,
				-0.0009145176994014877,
				0.0008461522764940436,
				0.00030800297161458884,
				-0.0007352579422878571,
				0.0006125872070717432,
				0.0004430221617391346,
				-0.0002994439991105862,
				0.0004935341588225544,
				0.0005688803955714082,
				0.0006733415148381322,
				0.0003697862840317779
			],
			[
				-0.00029825101421659375,
				-0.0004794324906146763,
				-0.0004092505145536239,
				-0.0005037672062470707,
				-0.0003792402483022981,
				-0.00035395908275291156,
				-7.973412510709529e-05,
				0.0004971684164742033,
				-0.0004423464139475566,
				-0.0008013144946228151,
				0.000569865828761108,
				-0.0003052641679085903,
				0.00036520186616960165,
				0.00013300176425409512,
				-0.0008571852888659099,
				0.00014323682266816897,
				0.00014826219141358867,
				2.555519768531584e-05,
				6.96315635484294e-06,
				0.00013178298228553025
			]
		],
		[
			[
				0.00063321858447379,
				-6.170447495324762e-05,
				6.810083236657018e-05,
				0.00013175634999227671,
				0.0009743903521500742,
				0.0009133883363396339,
				-0.0008538381945018405,
				0.0006657613151323919,
				0.00045340362101367214,
				-0.0006721604733981681,
				0.00098305138142058,
				0.0008805471322161959,
				0.000189423847391891,
				-0.00030492906426424237,
				-0.000979254787763899,
				-0.000985164599303837,
				0.00047642883455305696,
				0.0005683116300498074,
				0.0009834557834903978,
				0.00015184462022722303
			],
			[
				-0.0004516955634049371,
				0.0004756093974506361,
				0.0009369678860032928,
				-0.0008838261984397029,
				-0.0008242117807771275,
				0.0001882521949819931,
				0.0007242039201811412,
				0.0008578201169917106,
				0.0007011624624238639,
				-0.00022996303915327103,
				-0.0001960443342581595,
				-7.496256008308801e-06,
				0.0008587382853204692,
				7.496992537340446e-05,
				-0.0003309556677378087,
				-0.0004525560191153419,
				-0.00036932531027463963,
				-5.345477006902708e-05,
				0.00028413997251179753,
				-0.0004328733273169321
			],
			[
				-0.0009227165782944868,
				-0.00038447457867199345,
				0.0004046876737684999,
				-0.0006183559668847385,
				-0.0006602842932023483,
				-0.0005176710319357883,
				0.0006424378311551038,
				0.0007308830001350993,
				-0.00036183404150018014,
				-0.0006562591999714891,
				-0.00013762300512748808,
				0.0006763338807165532,
				0.0002641077384174968,
				-0.0003466768000157135,
				-3.417706439377182e-05,
				0.0009749356414174167,
				-0.0009711946734812256,
				-0.0004556146634477923,
				0.00017181928570927083,
				-0.0002549614847066479
			],
			[
				0.0004201472265259244,
				0.0009735242695872127,
				0.0008639723832581422,
				0.00018472684286265344,
				0.000851711952519679,
				0.00030927645639603537,
				-0.00040081208350570784,
				0.0004426668772181774,
				0.0009880356613035908,
				-0.0005142566091735326,
				-0.0007521682759925048,
				-0.000269697457515117,
				0.0009113907350333343,
				2.103556548851038e-05,
				-0.0009870303846645223,
				3.829061979560488e-06,
				-0.0002793851001717016,
				0.0007474954134075254,
				0.00036416322578072596,
				-0.0007129685760516673
			],
			[
				-0.000874274643971102,
				-0.0007264504225435464,
				-0.0009651561650188367,
				-0.0008057373567341907,
				-0.0004382072407119803,
				-0.0008041138582629446,
				0.0007024482477641075,
				0.00041291755110402597,
				-0.0009654983416453671,
				0.0007540651812776675,
				-0.0005720990017282681,
				-0.00021667810135804477,
				0.00017045520966215214,
				-0.00021649294351280932,
				-0.0007311568749576239,
				-0.0009718895634350702,
				-0.00010146694034269936,
				-0.0009277860700200322,
				-0.0004441777906022586,
				-0.0004256186269663571
			],
			[
				0.0006908526809668591,
				0.0006871560171274674,
				0.0008198585254142719,
				-0.0004654158512540852,
				-0.0003004586503196369,
				-0.0004960088556635331,
				0.00090500283476072,
				0.0006209150928782245,
				0.00032859268679514045,
				0.0003011709428427736,
				-0.00010229250246942883,
				-0.0009509669361754705,
				2.446961457873084e-06,
				-0.0007350982354494211,
				0.0008432617011596929,
				0.0008270943327324536,
				0.0004863267182035659,
				0.0006698490700216123,
				3.1398517818935923e-06,
				0.0004746368786874779
			],
			[
				0.0005986395136119169,
				-0.0009566317963912951,
				0.0006862093013427506,
				-0.00011848492221925926,
				0.0005662139412999172,
				-0.0007656654585860552,
				-0.0008061978333878317,
				7.861555140969327e-05,
				0.0005709439662047874,
				0.0009084434750788596,
				0.00032133939033972703,
				-0.0007529698656180226,
				0.0008560547494920309,
				0.0009754839682461105,
				-2.5802721438369556e-05,
				-0.0009165546477071645,
				-0.0007079435093758173,
				-0.0006334571143607706,
				0.00043130473924402773,
				0.00020488704137598614
			],
			[
				0.0004789287196936111,
				0.000992888180215164,
				0.0003114630957631987,
				0.0008790186965307171,
				0.00010474458796746696,
				-0.0006746178282648843,
				-0.0006494482739541254,
				-0.0006005834998088276,
				0.0005546830453050488,
				0.000840088180786296,
				-0.0006860330627734858,
				0.0007251880802555477,
				0.0006394119146869138,
				-0.0004827910234046116,
				-0.0007061120600448292,
				0.0007291037987483928,
				0.0004803667518736548,
				0.0007573467478851484,
				-0.0008859072496284354,
				0.00017554621718477229
			],
			[
				0.000570951577992628,
				0.00015559172348400627,
				-5.126107422869896e-05,
				-0.0003658944696870414,
				-0.0005398098712481729,
				-0.0005269371238671197,
				8.415827072331006e-05,
				4.232841328992865e-05,
				-0.0009301276734226163,
				-6.418520900542161e-05,
				-0.00022965628104379746,
				6.856546193749415e-05,
				-0.00031216282521714554,
				0.0002212156739465909,
				0.0005522867301182689,
				-0.0002721304392336645,
				0.00039948585476198254,
				0.0006606939689642608,
				-6.437172490927337e-06,
				0.000301502519526262
			],
			[
				0.00023959064131789292,
				0.0006996826441591228,
				-6.642444602823815e-05,
				-0.0001947438776904964,
				0.000804753649540186,
				0.0009511525924719474,
				6.0787667679106094e-05,
				-0.0001859990069824558,
				-0.0008327464900858765,
				6.631604656750839e-05,
				-0.00013505603635772005,
				0.00011120179672421222,
				-0.0007558647105206875,
				6.589380061108375e-05,
				7.479501729136333e-05,
				0.00018518946383869151,
				-0.0002763260059893993,
				0.00011960367126008314,
				0.0007307451418809372,
				-0.0001914874396709296
			],
			[
				0.00040137857785247375,
				0.000796942183713675,
				0.0008600512739622792,
				6.49088255310537e-05,
				0.000364456523247366,
				-0.0003961951727555863,
				-0.0002795189953585473,
				0.0005922240869311694,
				-0.0008150837325425704,
				0.00028739121821480594,
				0.0002510907077891073,
				-0.00015066794613230081,
				0.0006179711260017144,
				0.0003220357713726433,
				-0.0009047699341278064,
				0.00047974272137074397,
				0.00012351857904195347,
				-0.00025405930390842225,
				0.0007746240264095096,
				0.000578468721725025
			],
			[
				0.000642893765792775,
				-0.000844680307665356,
				0.0007357432520735769,
				0.0009347801432970785,
				-0.0009234257422969194,
				-0.000752562499430521,
				7.18339072752457e-05,
				-0.0008733402883125147,
				6.306272288768094e-05,
				-0.0006829263933384546,
				-0.0004045326698927427,
				-0.00030853814093494657,
				1.1530144911239956e-05,
				0.0005210022904629684,
				-0.0005910200099146137,
				-0.0005216360381931132,
				0.0008833082026122783,
				0.0009430607716010442,
				0.000649163406263959,
				-0.0008963016195273206
			],
			[
				-0.0008898619710565891,
				0.0006794762668973797,
				5.4168874061051456e-05,
				0.0006467328602831675,
				0.0007499717625062137,
				-0.00016179474097179547,
				0.00014393951158054533,
				0.0005180849820010567,
				0.00021759879370959875,
				0.0009494007606927533,
				-0.000550417489870044,
				0.0005648923452120083,
				0.0006561063295081929,
				0.0007302580448583348,
				0.000498609983759052,
				-0.00043548942767211837,
				-0.0008541147332894934,
				-0.0005067735143368484,
				2.2613710605788075e-05,
				-0.0003840982308031042
			],
			[
				0.0009993637540630785,
				0.0003887739327825591,
				-0.0008527110392760557,
				-0.00023682189823007378,
				-0.0007427663054903193,
				0.000649975914983542,
				0.00020218551924230748,
				0.0007247473720970738,
				-0.0008159835009694673,
				0.0003113873165475614,
				-0.0005340708996733059,
				0.00042150759742201984,
				-0.0006797284318819408,
				0.000986596576414654,
				0.0007232438846504743,
				-7.285402426065817e-05,
				0.00045179001545283984,
				-0.0007891732287250318,
				0.0006199149373142764,
				-0.0008115899022495714
			],
			[
				-0.0009988388748576058,
				-0.0009597575851181109,
				0.0008751533389494705,
				-0.0004380450436515679,
				-0.00045748645798371454,
				7.046927408421331e-05,
				0.000511989646679813,
				-0.0006360377409653091,
				0.0005601656409420215,
				-0.000815008543615966,
				0.0002391617060839011,
				-0.0009119699826292574,
				-0.000435205261821382,
				-0.0006028189073597199,
				0.0002503601553241572,
				3.298235443380932e-05,
				0.00017333329532248274,
				0.0006683982623851821,
				-0.00025984576663444937,
				-0.0002331545102762356
			],
			[
				-0.0002483161674852741,
				0.0008079150120658899,
				-0.0009131880312585703,
				-0.0008421091035208161,
				3.1816117984129894e-05,
				-0.00045511534164891843,
				0.00019986733587104826,
				-0.00013365562356812833,
				0.00023845843067772546,
				0.0005886365028759907,
				1.1403742567088438e-05,
				-0.00014991443358177879,
				-6.666096590086587e-05,
				0.0005381327328541448,
				0.0008082292542029288,
				0.0007734703865137883,
				0.0003571403882655425,
				0.0006691739061259621,
				0.000200056510092994,
				0.000883874638997324
			],
			[
				0.00012017432073977352,
				-0.0005034705734998468,
				-0.0003727188024454498,
				-0.00017742372955085388,
				-0.0002922508920920117,
				0.0007536191624583496,
				0.0001265650684550445,
				-0.0007879914045274304,
				0.000976326944043357,
				7.163332008634738e-05,
				0.0007102313898631589,
				-0.0001232504358470068,
				-0.0008946851291296414,
				-0.0009184465224567413,
				-0.0006319590447781893,
				-1.8832945944366334e-05,
				-0.0008928151726186562,
				-0.0004919967002312776,
				0.0008776827669191873,
				0.0005167656362187502
			],
			[
				-0.00014938247886974864,
				-0.0009950502779147504,
				-0.0006192426962047027,
				0.0009029348960985794,
				-7.613781042345696e-05,
				0.0004606923698645955,
				-0.000796191640337399,
				0.0009588912939558162,
				0.0006795232078166524,
				-0.0006360676146444253,
				0.00037181730647199815,
				0.00012484368862072958,
				0.0004065448396096945,
				-0.0002708776450486819,
				0.0003090845259858023,
				0.00022797346205160164,
				-0.0003095105676136367,
				-0.0008581800078930242,
				-0.0008133942561949319,
				0.00023013594644453648
			],
			[
				0.0003946399607108529,
				0.000537142065085864,
				0.0006445197228231445,
				0.0007851192190802903,
				-0.00023763275544290722,
				-0.0008541333368849087,
				0.000741929308385631,
				-0.00019120732588853804,
				-0.000887706842444014,
				0.000530104424264468,
				0.0004235663468973702,
				0.00017142536117758025,
				0.0009561103518397106,
				-0.0008306900566199766,
				-0.0007743368684775881,
				-1.1426336099054548e-05,
				-6.643528789808742e-05,
				7.801409783707151e-05,
				-0.0006784009518981272,
				0.0002596811144547249
			],
			[
				-0.0004157868398198272,
				0.00019042412766577142,
				-0.00047449415486313,
				0.0009630259277093002,
				0.000513301613043946,
				-0.0009621661357354039,
				-6.726117878124382e-05,
				-0.000733782770682399,
				-0.0009956216430903428,
				-0.0006551634199287037,
				0.00036242831449830384,
				-0.0003632852812278511,
				-0.0007314871833020531,
				0.00033994552565510617,
				0.0006421592201752218,
				0.0004947606483322994,
				-0.0007431863521745499,
				-0.0009388024925836236,
				0.0005912632964563921,
				0.0007698213185337345
			]
		],
		[
			[
				0.0002022067115339276,
				0.0005997038435086454
			],
			[
				-0.0009412022124513631,
				0.0006344791353620942
			],
			[
				0.000640785669165505,
				0.0008185772766258288
			],
			[
				0.0008258755195201264,
				0.0004953604730502698
			],
			[
				0.0002921838943371255,
				-8.73748316209135e-05
			],
			[
				-0.00037572069113402877,
				-0.0005526951754373137
			],
			[
				0.0003355945759424264,
				-0.0003379721703844425
			],
			[
				0.0002177392581299614,
				0.00037998861865661524
			],
			[
				-0.0001831618508153568,
				0.0005908912150485129
			],
			[
				-0.0002177980937788347,
				-0.0009199446162326037
			],
			[
				-0.00023090223633692416,
				0.0004884099459813223
			],
			[
				0.0009850905026461349,
				-0.0004411662811576949
			],
			[
				-0.00031854705639049554,
				5.4616541672710545e-05
			],
			[
				4.073995718876437e-05,
				-0.0009748166663196371
			],
			[
				-0.0007793901932243659,
				-0.0003421906910082255
			],
			[
				8.107160808917173e-05,
				-0.00011894859048762105
			],
			[
				-0.0001587815529474221,
				0.000891910123147004
			],
			[
				0.00013335139204271066,
				-0.00010555060913283623
			],
			[
				-0.0006649348362970998,
				0.0008108435322864351
			],
			[
				0.00012260374139401562,
				0.0006792354183616635
			]
		]
	]
}