{
	"model_params": {
		"input_dim": 10,
		"units_per_layer": [
			20,
			20,
			2
		],
		"acts": [
			"leaky_relu",
			"leaky_relu",
			"identity"
		],
		"init_type": "uniform",
		"batch_size": 200,
		"decay_rate": 0.95,
		"decay_steps": 500,
		"epochs": 800,
		"lambd": 1e-05,
		"limit_step": null,
		"limits": [
			-0.001,
			0.001
		],
		"loss": "squared",
		"lr": 0.005,
		"lr_decay": "exponential",
		"metr": "euclidean",
		"momentum": 0.6,
		"reg_type": "l2",
		"staircase": true
	},
	"train_params": [],
	"weights": [
		[
			[
				0.0008794647761561215,
				5.5949249511917654e-05,
				-0.0009143082235126723,
				0.0004692860843847318,
				-0.0009550823235382295,
				0.0006382808436911781,
				-0.0007655360929275643,
				0.00024664143826936733,
				-0.0004960021242075006,
				0.0005447290464814377,
				-0.0008558571104309407,
				0.0008631282880576614,
				0.0005060544623051325,
				-0.0008788937557230925,
				-0.0008075734883898683,
				0.0004971657101880658,
				0.0006259466123685726,
				9.862934680790014e-05,
				0.00030575803833901897,
				-0.0002314079043288722
			],
			[
				0.0004401874039457747,
				0.00016235360160306777,
				0.000664682297809529,
				-0.00041341369435369613,
				0.00019624673379959072,
				0.0009728089650554812,
				-0.0003781837124926619,
				-0.0007439533696279139,
				-0.000947765262321792,
				-0.0002739852780227532,
				9.467518971478664e-05,
				0.00027454412087051785,
				-0.0007248675420609208,
				-0.0009206674523913164,
				-4.458881900389717e-05,
				0.0005630966724911306,
				-0.00046013751291608255,
				0.0003077603632326961,
				0.00050419474849793,
				-0.0009592084255127289
			],
			[
				0.0002180408216389902,
				-0.0009713066618930837,
				-0.0005698529481277734,
				-0.0006140050897994962,
				0.0006951891491451736,
				-0.000501752331562857,
				-0.0002957666626370899,
				-0.0002558131635872294,
				-1.5897164859303686e-05,
				0.0006006002307771714,
				0.0009467445654315881,
				0.0007492234285767807,
				-0.0006134559410016292,
				-0.0006544665038127575,
				-0.00012846914895329738,
				0.0002066898437480028,
				-0.0005158429181524149,
				0.0009936965196285464,
				-0.0005633410706521231,
				-0.0004497932442870228
			],
			[
				-0.000340481374681997,
				-0.0008340693615703447,
				-0.00042209181139422805,
				-0.0005044824853567716,
				1.2251300676321747e-05,
				-0.00013316583298693938,
				-0.0009568608903120613,
				0.0003481559206721257,
				-0.0009826480251472719,
				-0.0007477790583194539,
				0.000908145378477688,
				0.0008889872830221154,
				0.0006251873358381821,
				0.0007666603618531824,
				-0.0009326960911779485,
				-0.0007976799613489873,
				0.00013282083180094482,
				3.416718250953709e-05,
				-5.7221692286037076e-05,
				-0.00027653688172455033
			],
			[
				0.0009885641796740698,
				0.00042234076314192487,
				0.00013989777119494595,
				0.0009816610121895337,
				-0.0006033596478140146,
				0.00020404247327410088,
				0.0006868488141041696,
				0.00042652418420487527,
				0.0008715716909597055,
				-0.00010573256519131853,
				-0.0008979912600286309,
				0.0004580976299126975,
				0.0006393606529919832,
				0.0007025584913837118,
				0.0007259910732686317,
				-0.0005297879809680228,
				-0.0007670425374478816,
				-9.85378152379506e-05,
				-0.0007650692214458217,
				0.0003570989872648943
			],
			[
				0.00029305679833048883,
				-7.775089649901372e-05,
				-0.0001970615503904265,
				0.0002689896986985106,
				-0.0007812005900691463,
				-0.0009421718565634672,
				0.0008452008170412575,
				-6.290706451307583e-05,
				-5.413746436910231e-07,
				-0.0007521445668163067,
				-0.0001468674330023105,
				0.000238181624170105,
				0.0006855796254123083,
				-0.0002658647495053211,
				-0.0007654274030979473,
				-0.0003011022852411798,
				-0.0007937304296328381,
				-0.0005764526620626223,
				-0.0005967850353154444,
				0.0008085339122225837
			],
			[
				-0.0003556576883026383,
				0.00015204125737084935,
				3.2005460336384343e-05,
				-0.00018227229828876904,
				-0.0005431479385189842,
				-8.242061964006207e-05,
				-0.0007757971485842075,
				-0.0005992832135632782,
				-0.00014036276785988906,
				0.0005046536827586609,
				0.0008029540285583751,
				-0.0008200910530013015,
				0.00041785269228228816,
				0.0005332890444093386,
				-0.0005801390818993481,
				0.0007950267701852822,
				0.00020023381721916535,
				-0.0004543567685097239,
				0.0009762750768339476,
				-0.000514819567537546
			],
			[
				0.0005416269283385852,
				0.0003210182660366781,
				0.0006406853368333043,
				0.0004259806498375057,
				-0.0006247827115464923,
				-0.0005336465274560433,
				0.0003839080751880384,
				8.427935320160971e-05,
				-0.00025195842291959175,
				-3.985261182634116e-05,
				0.0005579303910268568,
				0.0008935924826400925,
				-0.00013723246332189196,
				0.0009396312206862636,
				0.0005116661558254307,
				0.0002760696131646923,
				-9.534574297410448e-05,
				-0.0008204992300586555,
				0.0006122690480619003,
				0.00010983543588809577
			],
			[
				8.355192851670977e-05,
				-0.0006427767888898834,
				0.0008254524315249997,
				0.0008736684244192668,
				0.0009999989542724685,
				-8.58534971481473e-05,
				-0.00028924031196120553,
				-0.0006877134279712796,
				-0.0002453537582744183,
				-0.00026482259949968867,
				0.00048296279535304837,
				3.700468174001751e-05,
				-0.0008679309454393239,
				0.00025292380976456503,
				-0.00023092601023220972,
				0.0007833882210811342,
				-0.0007030608884845942,
				-0.00031495202663756245,
				-0.0008159908758699566,
				-0.0006996017195373125
			],
			[
				6.481404039327711e-05,
				0.0007999883101499513,
				0.00032294488073178625,
				-0.00024148706219208013,
				-0.0009723060523890356,
				2.365848084086102e-05,
				-0.00038953851269226216,
				0.0005199734102732238,
				8.340389542017715e-05,
				8.453321903155084e-05,
				0.00018109285310492036,
				-0.00014128680951707025,
				0.0006627562510863243,
				0.0007274933370195952,
				-0.00014261755495202828,
				0.0003726019066274818,
				0.0005325134846081434,
				-0.00013245944834831477,
				-0.0009502589741592243,
				-0.0002666458634765933
			]
		],
		[
			[
				-0.0005625858667993622,
				-0.0006819918757065627,
				0.0004298568876689539,
				4.451077600157571e-05,
				-0.0005010714148187729,
				-0.00012169092799375371,
				0.0006571609741715385,
				-9.1550637916779e-05,
				0.0009475853019632532,
				-0.0005117604311788511,
				9.31864494676869e-05,
				6.909201033097759e-05,
				-0.00026713554556626875,
				-0.00026722397824959887,
				0.0007265192590453226,
				-0.0005581906793042324,
				0.0004852084482641051,
				-0.0009261961362556647,
				0.0004863066620018541,
				-0.0008977620424813049
			],
			[
				0.0005677097953700021,
				0.0003231271196275699,
				0.0008721840089928846,
				-0.0002357627173711239,
				0.0008818189697779226,
				7.467482864683067e-05,
				0.0007061900990364305,
				0.0009769407781138047,
				-0.0006130578732552321,
				-0.0003883047859139035,
				0.0007370313016634197,
				-0.00012557192932940726,
				0.0005352682876171933,
				-0.0004482599516460264,
				0.000574982107224484,
				-6.473415286454816e-05,
				-0.0003770582277403318,
				0.00019926696625421057,
				-0.00023886245526570237,
				0.0006606401125953654
			],
			[
				-0.00010032034038682115,
				0.00045646183277833546,
				-0.0005745780170009427,
				0.0005038290050020963,
				0.00039322475376581275,
				0.0006701720520055374,
				-0.0007049742148255397,
				-0.0006354283575617192,
				0.0006286433048356417,
				-0.0004803584180258657,
				0.000522466796939668,
				1.5904863619297348e-05,
				0.0008261811414812189,
				0.00010456239248892319,
				0.0009739635864380114,
				-0.00030677480878281687,
				-0.0007015535621179978,
				0.0007461788912078045,
				0.0003183158016163894,
				-0.00034025451079889636
			],
			[
				-0.0007685066174897868,
				0.000251062508998736,
				-0.00020682212316737144,
				-0.00010790377159551026,
				-0.0004986931967940914,
				-0.0005437963967237973,
				0.00011347960064120961,
				-0.0007508740414804791,
				0.0009169248076142202,
				8.887105691949551e-05,
				-0.0009593055843260487,
				0.00017220719344456892,
				0.0006907921359907319,
				0.0003215739135020866,
				-1.703630199049208e-05,
				0.00014402591872005152,
				0.0007487675004344003,
				0.0008100803203045673,
				-0.00024049978138637653,
				0.000976533745864587
			],
			[
				-0.0001555479145344638,
				0.0008383424973931704,
				0.00015807421485924088,
				-0.00086312300133441,
				0.0004825492561786218,
				0.00045086553337742117,
				0.0004852494933689916,
				0.0005069659933537366,
				0.000984753463449093,
				-0.0002358656673153316,
				0.0009095724366367393,
				-0.0005646401784311956,
				0.000518209093187256,
				0.0008435295489074633,
				0.0007352654550255111,
				-0.0007822844533408662,
				0.00024929385101215683,
				0.0006818496549794632,
				-0.0007892901771144007,
				-0.0009858405355129805
			],
			[
				0.0004631744506326707,
				0.00014229993464065158,
				0.0007119826878940921,
				0.00032924037143479586,
				0.00011052713294196865,
				-0.0003845373301484958,
				-7.238459801336755e-05,
				0.0003330007328742424,
				-8.575308472844642e-05,
				0.0005391015781305089,
				0.000838434511403223,
				-1.2161406045520457e-05,
				-0.00032749219048107663,
				-0.0008130791256999106,
				0.0005105659502251051,
				-0.0005458286239395083,
				0.00028513852579039353,
				0.0001031651452667163,
				0.0002080016003107026,
				0.0008100532327624632
			],
			[
				-0.0007493686718613652,
				0.0004360909701833118,
				-0.0004319467814054703,
				1.238025669332522e-05,
				-0.0007044750925330423,
				-0.0009194086269970978,
				0.0009676755645471268,
				0.0005379224042463006,
				-0.00042195652982688703,
				-0.0003577420605115351,
				-0.00013216834856061136,
				0.0009593471104412739,
				-0.0001171628087627745,
				0.0004855250261761887,
				-8.116118341976696e-06,
				-0.00042928432535204353,
				-0.0005414261126297122,
				0.00024221663111190098,
				-0.0003738148549268683,
				-0.0007397607751803944
			],
			[
				-0.0009769373873951756,
				-0.0004879614370212202,
				-0.00039943972545128934,
				-0.00020677443753382228,
				0.0005865178240488764,
				0.0006042882434883104,
				-0.00012827804924016566,
				-0.0005478013005846393,
				-0.0008586386882882455,
				0.00035906853990019024,
				-0.0002736597291380853,
				0.00021915062348706296,
				-0.0007661907166569701,
				6.302987414332308e-05,
				0.0008023005008220615,
				-0.0006755305270100856,
				0.0007963864882574948,
				0.0003264935498436365,
				3.144270876938348e-05,
				0.0009990188617925956
			],
			[
				-0.0003518248001874438,
				-1.930120652639971e-05,
				0.00015813861382007045,
				-0.0007801990842464457,
				-0.00024666726455127976,
				-0.0008013243159625822,
				0.0005307972984152894,
				1.1855942798013556e-05,
				-0.000114304579481239,
				0.00040416471196984033,
				0.0004721549284125348,
				4.646129660728108e-05,
				-0.0007206201035239958,
				-1.536186084741568e-05,
				-9.670848280451732e-05,
				0.0003025478468697651,
				-0.0005195026708026731,
				1.318809275510386e-05,
				0.0007208314956582489,
				0.0007443942886344369
			],
			[
				-0.00042750215020370707,
				0.0003385292917468133,
				-0.00040789712213500095,
				0.00043493865427660723,
				0.0008632556790400744,
				-8.996033950979965e-05,
				0.0008841119003345241,
				-0.0006102712778114439,
				0.0009265252235509135,
				-3.203432014653115e-05,
				-0.0008038624920332534,
				-0.0009015961528203598,
				0.00017936926504481376,
				0.0008259092526429089,
				1.6040164585422482e-05,
				-0.00017545207647883768,
				0.0008864269358026826,
				0.0001358687269663937,
				0.00017186124541863196,
				0.0007682093431338045
			],
			[
				-5.5303371997977814e-05,
				0.0004666640971253263,
				0.0006118205858649123,
				-0.0007525153334075291,
				-0.00022661894113405864,
				-0.0005622820545792108,
				-0.00015728340884464838,
				-5.643627454099626e-05,
				-0.0005951357715273065,
				0.0007761042054134091,
				-0.0005940892585460079,
				-0.0006677986083907116,
				-0.0007104439344316324,
				0.00010442645006426051,
				-0.00020863927801879694,
				-0.00043167352939229957,
				-0.00027401867762813655,
				-0.000868473940679819,
				-0.0005132771706449037,
				0.0005400575576505937
			],
			[
				0.00013027400732712122,
				-0.0006274338406558517,
				0.000590920304084389,
				0.0004251269884920771,
				0.0002988212684501214,
				-0.000790735811841637,
				-0.0007518514648321742,
				0.0008394419294236307,
				-0.0009382725958741074,
				-0.0002528266977575202,
				-4.2360965638238175e-05,
				0.0005461429313320298,
				-0.0009627754432759877,
				-0.0008234859527109244,
				0.0009874870439928619,
				-0.0003333400484217741,
				-0.0009489924879892904,
				0.0009782851423458098,
				0.0005945777592534797,
				-0.0005075894663636573
			],
			[
				0.0007360009105100943,
				0.0006234262502922043,
				-0.00040948959131772284,
				-8.217549865643155e-05,
				-0.00034405353748586537,
				-0.00022762435764252145,
				0.00023422070037397024,
				0.0008944712731434874,
				0.000526668921641879,
				-6.781452869089773e-05,
				-0.00040989666669930653,
				-0.0006927512427114004,
				0.00025054537225806554,
				-0.0006631922654126968,
				0.0005111213362780432,
				-0.00038317241425258925,
				-0.0009714350320690073,
				0.0009020379540618593,
				0.0005859891439847107,
				0.0004357416012485543
			],
			[
				-0.0002598482680886183,
				0.00015411712647932382,
				-0.00030045668023074266,
				-0.00025862929624731717,
				-0.0006573175017162722,
				9.177438779233837e-05,
				0.0009324888822059192,
				0.0009305050595544266,
				0.0006473909642653942,
				-1.1304342671449117e-05,
				-0.0007402145850485438,
				-0.000439858402991141,
				-0.00029365177590543845,
				-0.0009409767388980704,
				0.0005285321298898393,
				-0.0007856540996734151,
				0.0006863887450425938,
				-0.0001567282112570627,
				0.000779726306154231,
				0.00019912425903121853
			],
			[
				0.0001892910772706407,
				0.0008307550464446581,
				-0.0009890683308572486,
				0.0002525480179971513,
				-0.0005921586269180948,
				-0.000823186711441823,
				-0.00024163153266003974,
				-1.04908795329141e-05,
				0.0003246720410265999,
				0.00021255960340632748,
				0.0009997690595301336,
				0.0009494505623784959,
				-0.0009500752817636334,
				-0.0005487558432805712,
				0.00017714882394579182,
				-0.0005999509757585062,
				-0.0002613842755169229,
				-0.0004421624945922032,
				-0.0005478492474690253,
				0.0006443998942941302
			],
			[
				-0.0009450216567234924,
				-0.0006532349243611249,
				0.0005198129237667798,
				-0.0001592848973074963,
				0.00035870388140437867,
				0.0008731130111047257,
				-0.0007824299443907493,
				-0.0005233051558214077,
				-0.0008868146259464507,
				0.0009242968779104325,
				0.0008852818602443323,
				-0.0009291870129315965,
				-0.0009193934763425149,
				0.000965641018702034,
				0.0005599808576389079,
				-0.0006482990695555854,
				0.0001958821006240695,
				0.0006566107676617618,
				-0.0009897051675932212,
				0.00046873603872190565
			],
			[
				0.00034215616770631057,
				-0.00019800361034811415,
				0.00040895440391906443,
				-0.0007167152655440556,
				-0.0007256377286291906,
				-0.000218151142523864,
				-0.0008588599602205341,
				-0.0002814821638312834,
				0.0001826553457732296,
				-0.0006484441394203168,
				-0.0004871217130204067,
				0.00018680300535000812,
				0.0005068522000200464,
				0.0006271543743996367,
				0.0006507922426443372,
				1.886412136051013e-05,
				0.0006727647794890592,
				0.0007546910547893027,
				0.0006881993300788087,
				-0.00044460447323915015
			],
			[
				-0.00086083930693671,
				0.0003636830499895976,
				0.0008600801811365722,
				-0.00026489552140812654,
				-0.00030621124164416315,
				-0.0009255648539749448,
				-0.00037575390430034884,
				0.0007508323651941428,
				0.0004019708474802667,
				0.00028999196726409615,
				0.00026064687281612104,
				-0.0007436696462707125,
				-0.0009465890031845663,
				-0.0004030319312889254,
				-0.0002719009345942265,
				0.0007613490804430081,
				-0.0005593987958034637,
				0.0007972970553761106,
				-0.0009777845367003938,
				0.0009142124352668958
			],
			[
				0.0006248727508212848,
				0.00030277112127389833,
				-0.0004597499431658749,
				-8.981499011545698e-05,
				0.00039521223129835074,
				-0.0005632196697376615,
				0.0008456099214084825,
				0.0008782987185430317,
				0.00043869684969486647,
				0.00037300360467692963,
				-4.833290566510649e-05,
				-3.846131687293571e-05,
				-0.0001954763551705607,
				-0.0004190307724045996,
				-0.00041884830176778306,
				-0.0006190095263782553,
				-0.000453982808073069,
				0.00031994371912759953,
				0.00015794851217597284,
				-0.0007229366070562877
			],
			[
				5.1760147534870475e-05,
				-0.0008582310181709325,
				0.0007535260024855296,
				-0.0007056795247284209,
				-0.0001892353213155029,
				0.0006310973553612792,
				0.0007598229572307962,
				-0.000982980250133326,
				-0.0006506639475468607,
				-6.011033132595771e-05,
				0.0009446662026019825,
				-0.0008780516160071244,
				-0.0005854334172209826,
				7.072093679608973e-05,
				-0.0005060809171102935,
				-0.0008119036897729997,
				-0.0005808701199492851,
				-0.0003300309051086005,
				-0.0009276508368348427,
				-0.0005204573512702529
			]
		],
		[
			[
				0.0008289643611462364,
				0.00014636352059027298
			],
			[
				-0.0009288758020584946,
				-0.0008956213618195666
			],
			[
				0.00040755907691893806,
				0.00044475712975346605
			],
			[
				-0.00035880854608983314,
				0.0005416959094770458
			],
			[
				0.0008895607933146097,
				-6.707832370325109e-05
			],
			[
				-0.0007211971862230158,
				0.0009245350268961992
			],
			[
				-0.00013049419496196073,
				-0.00060987392907433
			],
			[
				0.00018184240485983444,
				-0.0007511996865719299
			],
			[
				0.0002518786393428975,
				-0.0002580783094387731
			],
			[
				-0.0005153817527315468,
				-0.0003411650247069853
			],
			[
				-0.0006364438365629454,
				-3.7312751073189385e-05
			],
			[
				-0.00018830637785709529,
				-6.477003930942238e-05
			],
			[
				0.0005505274332372387,
				0.0007097489161184316
			],
			[
				-0.0004701465361697814,
				5.219000520869819e-05
			],
			[
				-0.0003369331705764542,
				-0.00026153884990390264
			],
			[
				-0.0009802835030158369,
				-0.0002579078292936379
			],
			[
				0.0007781765301733722,
				-0.000256897372798874
			],
			[
				0.0008841447361982579,
				0.00035757627112405774
			],
			[
				-6.733603772919757e-05,
				0.00046129181080014595
			],
			[
				0.00015739932341928735,
				-0.00032634915337637917
			]
		]
	]
}