{
	"model_params": {
		"input_dim": 10,
		"units_per_layer": [
			20,
			20,
			2
		],
		"acts": [
			"tanh",
			"tanh",
			"identity"
		],
		"init_type": "uniform",
		"batch_size": 91,
		"decay_rate": 0.95,
		"decay_steps": 500,
		"epochs": 150,
		"lambd": 0,
		"limit_step": 500,
		"limits": [
			-0.001,
			0.001
		],
		"loss": "squared",
		"lr": 0.007185958238678252,
		"lr_decay": null,
		"metr": "euclidean",
		"momentum": 0.7977428112252327,
		"reg_type": "l2",
		"staircase": false
	},
	"train_params": [],
	"weights": [
		[
			[
				0.0006776939041784876,
				-0.0006829511316599731,
				-0.0003485478315306068,
				-0.0006337871064112626,
				0.00021010783757058446,
				0.0006228037445119125,
				0.0004036073276740457,
				-0.0009749373025732204,
				-0.0003426577158821329,
				-0.0002784969240845847,
				-0.0002002843404836749,
				-0.0003260183449357672,
				0.0007681923260925286,
				-0.00016840567161043832,
				0.0007601512346849066,
				0.000799975486049394,
				0.0007143192041941329,
				-0.0005346213714719219,
				-0.0005127759877902869,
				0.0005272295159892736
			],
			[
				0.0006544447430325228,
				0.0002649048858321913,
				0.0007123377880888216,
				2.0086461260030494e-05,
				0.00022962022806524425,
				0.0008906997208418894,
				0.0006386515785001699,
				0.0009646490024349842,
				0.0009804510654311495,
				-0.0004685652251931454,
				-0.00018468174892373782,
				-0.0006726697526492536,
				0.00034045116499124774,
				0.0002508413246165642,
				0.0006297253045913121,
				0.00027342932977359596,
				-0.00012744525676433474,
				-0.00019934116535857017,
				-0.00021844442799083747,
				-2.3806214355673425e-05
			],
			[
				-0.000643178522132239,
				-0.0007670013676167862,
				-0.0005483002679429383,
				-0.0002828038107361941,
				1.5931368308440014e-05,
				0.0005396860662619711,
				0.00030232045103011497,
				0.0008333559752136132,
				-0.00026111175691759757,
				0.0009485749436483463,
				0.0004397776255581666,
				-0.0005390190919055733,
				0.0007425387519549357,
				0.0007429090368962657,
				-0.0003866670028030663,
				0.0006814611437869172,
				0.0007153482458657795,
				0.0007385286290700521,
				-0.0008126658004602959,
				-0.0006435028833270724
			],
			[
				-0.0008223053382875445,
				3.2253580974186393e-05,
				0.0007735781067891934,
				-0.0002911141797116519,
				0.00028104224979483066,
				0.0003577211084439449,
				-0.00021073596370609147,
				-0.0008258504228966965,
				0.0002764367861448462,
				-0.0009720938635635506,
				-0.0009242926267393726,
				-0.000688698680690446,
				0.0005924498444887199,
				-0.0009859743594570344,
				-0.000692851719575875,
				7.035132457997701e-05,
				0.0009649857600629494,
				-0.0009841203412606393,
				0.0009360286511160257,
				0.00011442193647563507
			],
			[
				-0.000518814838804525,
				-0.0005512035295826942,
				-0.00036550502767024654,
				-0.0005182773453564645,
				-0.0005657415937274056,
				0.0007339129063942678,
				-0.0004776268191903465,
				-0.0007194417289792576,
				-0.0003008675944049737,
				-0.00041296428379588733,
				-0.00015416409504459745,
				-0.0003565683839727576,
				-0.00096381318410578,
				-0.00010833474413236214,
				3.608610859573273e-05,
				-0.0009501576633426228,
				0.0008954041732471116,
				-7.020033644303595e-05,
				-2.0391609774417403e-05,
				-0.00022100057864759572
			],
			[
				-0.0005463278931147617,
				-0.00047272250137798055,
				0.00017016348246474467,
				-0.0004573169081329747,
				-0.0005150401629987098,
				0.00021860939064149792,
				0.00040992658069092256,
				0.0008619891220275999,
				0.00058313057115306,
				-0.0006112951866236662,
				-0.0006452682260802392,
				-0.00041768587686071945,
				-0.0008870982818795743,
				-0.0008356871349533326,
				-0.0008189559886164721,
				0.0009045959605970171,
				-0.00011919745171491952,
				-0.0003527436152824002,
				-0.00018121327008407322,
				-0.0008187616825623102
			],
			[
				0.0005423073933571759,
				0.0004584795022032186,
				0.00019627821003881016,
				-4.682069300377908e-05,
				-0.0003602531950680348,
				0.00022475794508836056,
				-0.0005092644580490435,
				-0.0008299634454098435,
				-2.551082746936231e-05,
				0.0008931898353197857,
				-0.00040041918888625804,
				-0.0006961882563115424,
				0.00013221251677849027,
				0.0005342701318815683,
				0.0009364446178709836,
				0.0008708328635047909,
				0.00016044941620293562,
				0.0004210005843991787,
				1.8541404326123754e-05,
				0.0003652279498156906
			],
			[
				0.0009233907470143985,
				0.00044328726334863077,
				-0.000758707243119922,
				-0.0003483535880756379,
				-0.00031874514578041687,
				0.0004703303389022573,
				-0.00015384936631241428,
				0.0002344087304754813,
				-8.93388348387319e-05,
				-0.0009009896818454099,
				0.00010786022452532085,
				-0.0007632259055846788,
				0.00044655940154748343,
				-0.0004391290431027965,
				-0.00022074137989893153,
				7.43159059593745e-05,
				0.00040952422864820484,
				0.00033909591281111443,
				0.00015735996831675743,
				0.000567454032248981
			],
			[
				0.0009611477277429916,
				-0.0006029377741790427,
				-0.00018080516855908924,
				-0.00034568546167083804,
				0.0004361120014013109,
				0.0007427680401213153,
				0.0008410527449247908,
				-0.0002007114534620831,
				0.0008110364138569431,
				-0.00030354326445101716,
				0.0005988334373763719,
				0.0009701802025914729,
				-0.000499300924586038,
				0.00021617314198476992,
				0.0008595708715485736,
				7.04445379326236e-05,
				-0.0008474243682162049,
				-0.00027431193029624223,
				-0.0005690478521023241,
				0.0006132329560029322
			],
			[
				-0.00015079032760327267,
				-0.0008824178070575269,
				-0.0002772955897532461,
				0.00019125712677308076,
				0.0008203105590657894,
				7.130933922931421e-05,
				-0.00037389543959154596,
				0.000669265176359768,
				-0.0008823369260488596,
				0.00029339338597928486,
				-0.0006169750396282979,
				0.0001568223226555874,
				0.0007767455620116715,
				0.00016687012688008148,
				-0.00021938955384526724,
				0.0007752131061974092,
				-0.00030581229530847497,
				-0.0005679071997797964,
				-2.5187836366027624e-05,
				0.000931554840460008
			]
		],
		[
			[
				0.0006310001255889139,
				-0.000608722969757097,
				-0.00014614666784665362,
				-0.00013648745973987044,
				-0.000950394293021146,
				-0.000660510567130372,
				0.00099427045158294,
				0.0004758212664158258,
				-0.00019176626723197733,
				-0.00016082879861929668,
				-0.0006709048532305355,
				0.0008292471909494051,
				-0.000846097359632382,
				-0.0006545526651298122,
				-0.0007760629603638844,
				0.00032731581201668404,
				0.0004479577083951339,
				0.000168889630693948,
				0.0006608307273464264,
				-9.654842466427359e-05
			],
			[
				-0.000895235232341455,
				9.912141238495797e-05,
				0.00047132034693346124,
				0.0008131633508272722,
				-0.0007015126112230054,
				-0.000401089599768623,
				0.0009325074657554884,
				0.00052821214262603,
				-0.0001714497595254683,
				-0.0007971695003997494,
				0.0006879456036504681,
				0.0007221661612230328,
				-0.0005683021313227293,
				-0.0001794860336621904,
				-0.000190564918902488,
				-0.0003434838083570137,
				-0.0006177236539122579,
				-0.00015219806676276446,
				0.00019982142081218434,
				0.0003692096096696714
			],
			[
				-9.666544367655145e-05,
				-0.00014583958959142086,
				0.00046317140516836854,
				-0.0009670023240082952,
				-0.0005478455280566954,
				0.0005999876952949693,
				0.00028243687776472186,
				-0.0008788809812469958,
				0.00024386822075470852,
				0.0002765467703478579,
				-0.0002226589482115036,
				-0.0008698296384544791,
				6.079394354998246e-05,
				-3.463429281039688e-05,
				-0.00019221616985547782,
				-0.000804012592989424,
				-0.00017713006253675936,
				-0.0003139042992516696,
				-0.0003273483515738127,
				-0.0006900807399105775
			],
			[
				-6.3792456499836e-05,
				0.0007256803627739129,
				9.863155259836167e-05,
				-0.0001453170323097088,
				-0.00027166679662848805,
				-0.0007473788450688473,
				-0.0009773119560915085,
				0.00048213842722066315,
				0.000646499517503545,
				0.0004911256259935647,
				0.000846965516518727,
				0.0003620826779093308,
				0.0002742984824137568,
				9.901566887779022e-05,
				-0.0004170232877642213,
				-7.633174735917868e-05,
				-0.0009660195948550137,
				0.0003078980889861288,
				0.0004673422652903118,
				0.00012253930244434958
			],
			[
				0.0007783973721260495,
				-0.0005949205195954557,
				0.0003189583265352364,
				-0.0004741799745390802,
				-0.00018548397612968984,
				0.0006644669763922171,
				-6.770603585860282e-05,
				0.0002277188229797948,
				4.605351591270394e-06,
				0.00019325773903451095,
				-0.0006542377312688475,
				-0.0009029716916465304,
				-0.0008216354354768994,
				-0.0007549305417833509,
				0.0003864578167808645,
				0.00018842368579741415,
				-0.0005616036053946423,
				0.00023429587129155348,
				-0.000656231805755978,
				6.46652569708645e-05
			],
			[
				-0.0004012869178188701,
				0.0007272118002537359,
				-0.00020674508548959895,
				0.00038985263289218657,
				-0.000723970616146468,
				-0.00018981514222919692,
				0.0007181005543893844,
				-0.0006556808078138759,
				-2.840851485324137e-06,
				0.0006451009791010752,
				0.0007652364591710893,
				0.0008756968803889801,
				0.0007302067900753742,
				-0.0005768242069583733,
				-0.0007697650225179032,
				-0.00022901916287570718,
				-0.0009741233691889748,
				0.0009931677609405104,
				-0.0007950660383463489,
				0.0006164892373835807
			],
			[
				-3.251008661822553e-05,
				4.400306370755912e-06,
				-0.0007009172386068909,
				-9.403521232943367e-06,
				-0.0007667667641675508,
				1.1904082577413955e-05,
				0.00011004471676094064,
				7.365122389505949e-05,
				0.0006276640107870097,
				-0.00023336052117233462,
				0.0005491934404511323,
				0.00034226158723485705,
				0.0007206125128214635,
				8.647444245684114e-05,
				-0.0007635327151929449,
				0.000286758815980248,
				-0.0006248990471799398,
				8.125164619964009e-05,
				0.00043377261481616393,
				1.6867014705724756e-05
			],
			[
				-0.0009929645640733226,
				7.72824383920138e-05,
				-0.0008512570040308874,
				-0.00020834468062688402,
				0.0002107949536590706,
				0.0009010858637796826,
				-0.0008750640860009491,
				-0.0008128479140118201,
				-0.0008757558447567988,
				0.0008637389904774875,
				0.00038610496677611767,
				-0.00040958664486623016,
				-0.0009336665938448275,
				-0.0008334599623098333,
				0.000279759953562267,
				0.0009971769312150788,
				0.0007704260729494946,
				-0.0009210840917869367,
				-0.00021632272469230694,
				0.00012705943512302323
			],
			[
				9.872559092865478e-05,
				0.0009848003747090473,
				0.0008506931361330684,
				0.00015123416725354487,
				-0.0005445337520448561,
				-0.00022809669536695348,
				0.00022831700905974472,
				0.0006509843667878779,
				0.0006867906317623001,
				0.0004864797732267948,
				-0.0006687850406962697,
				-0.0002485065058205993,
				0.0009727562015427369,
				0.0007559970331013843,
				-0.0001732290532931597,
				-0.0009906443622926535,
				-0.00033787126339821524,
				-0.0004526240269858388,
				-0.0005489207763550676,
				-0.0005818958909095484
			],
			[
				-0.000636807285929603,
				0.0007034963335783282,
				-0.0006072782650093469,
				-0.00028266108059308475,
				-0.00041946148045838075,
				-0.0006058589170658529,
				-0.00038032824347784106,
				0.0005070202870839833,
				-0.0002773054298694169,
				-0.000347743101902074,
				-0.0009394867386581871,
				-8.864489236780403e-05,
				0.00031067767819838925,
				-0.00011962441584227926,
				-0.00031734630325813966,
				0.0007691466481086905,
				-0.0005448034199759107,
				0.00015589829540041205,
				-0.0009066684753436401,
				0.0007716627052752523
			],
			[
				0.0008801705599936827,
				0.0008847755570241462,
				-0.0007192544394847343,
				-0.0004155606586936473,
				0.0002920410051842396,
				-0.000460491391176284,
				-0.0002816483056158752,
				-7.593805964329833e-05,
				-0.000787387492454626,
				0.0007058286481079646,
				-0.0009235922489036017,
				0.0008394822153318486,
				-0.000495189902005059,
				-0.00019707704061064704,
				-0.0004023939805047192,
				0.0009378357563243056,
				0.0004983571938485662,
				-0.000980129994867791,
				0.000773758571332677,
				0.0009882548444922422
			],
			[
				0.0005127951084879844,
				-0.00016121272054710255,
				-0.0001822355870167154,
				-0.0008254066517614403,
				-0.0001582700550845904,
				6.617739462437154e-05,
				-0.0004102840491673292,
				-0.0006496400957809554,
				0.0008667824008731148,
				0.0004977616651667279,
				-0.0008557559433457578,
				0.00044085341014768963,
				0.00028158367336655063,
				-0.0009873704078853442,
				-0.0002408566343734571,
				0.00013765889265439217,
				0.0005591036419651666,
				1.8852995179714e-05,
				-0.0009677425818761096,
				-0.0006703870837456074
			],
			[
				0.0006679674784573139,
				0.00016412566850560113,
				8.977164704116521e-06,
				-0.00014895725701197346,
				-0.0005290511726471356,
				-0.000613218410264784,
				0.0005092492421989133,
				0.0004515748261034135,
				0.0005562993510264177,
				0.0009359186202107725,
				-0.0004239119121673871,
				0.0001533564729992937,
				-0.0003465419028472541,
				-0.0007967880398582718,
				0.0002913243036952683,
				-0.00017317445193113336,
				-0.0006445431072303481,
				0.000540588002681453,
				-0.0005422333876290946,
				-8.005033348906267e-06
			],
			[
				-0.00010350051500270039,
				-0.0004930512071450448,
				-0.0006801315690887217,
				-0.0005091512088675438,
				0.0003842367813322487,
				-0.000897770919268019,
				-0.00042161004925570335,
				-0.0009122851393136941,
				-0.0008355819671892897,
				-0.0003180489942154214,
				-0.00011650820443499918,
				-0.0005268756492762081,
				-0.0003146541463412598,
				-0.0009578957859978907,
				-0.00015211580378105818,
				-0.00012952757530208575,
				0.000388812636970692,
				-2.0605859783265996e-05,
				0.0009629948574041672,
				-0.0005369083947453537
			],
			[
				-0.0009461970700997063,
				-0.0003600668437422239,
				-0.00023318700631461955,
				0.00091303644686711,
				0.0005040692112537382,
				0.00015611120493949204,
				0.0009284568380886458,
				7.78676303902924e-05,
				-9.712763517718257e-05,
				-3.699743072275172e-06,
				-0.0004969809083300703,
				-0.0009467662048686403,
				-8.687414623685056e-05,
				-0.0006492953884398718,
				-0.0007257990693894528,
				-0.0007403801660922885,
				3.721642389415032e-05,
				-7.40636584800452e-05,
				-0.0002454790533800977,
				-0.0006962458375862886
			],
			[
				0.00016643978572934248,
				-0.0009874119308540081,
				0.0007177120251945341,
				-0.0004049657318881013,
				-0.00027941853615807283,
				-2.6718888145704778e-05,
				-0.0006474720186990328,
				0.0005626446067497589,
				-0.0006611660776189894,
				0.00040277619540804097,
				9.562361163881466e-05,
				0.00013282138610361,
				0.0003916605627805217,
				0.0006227477213793869,
				0.0009634056419367347,
				-0.0004918715279296247,
				0.0002744788309010672,
				-0.0006170684888949657,
				-0.0004630907240166717,
				0.00012924861596553248
			],
			[
				0.0008932756689845702,
				-0.0006356774263028809,
				0.00046648447463832243,
				0.0008731404584009692,
				0.00018737701566927801,
				-0.0001971466397701243,
				-6.981818717158967e-05,
				-0.00010196410861325171,
				-0.0007696831899973658,
				-0.00018858483441228828,
				-0.00021691531072800597,
				0.00020686530420283098,
				-0.0005961831881260398,
				0.0008850195049882265,
				-0.0008294909886856785,
				-0.0009236854737480766,
				0.0005965626390070609,
				-0.00017243653327430404,
				0.00024070862627638694,
				-0.00035981862898090894
			],
			[
				-4.694384875842598e-05,
				0.000791046761656048,
				-0.0003988574756646939,
				0.00019421467565072033,
				-0.0009638761391973887,
				-0.0007542929403744205,
				-4.6541487985488376e-05,
				-0.00029723406173655636,
				-0.0004110004690473885,
				-0.0001280044063600792,
				0.0001757221101050875,
				-7.025806704277814e-05,
				-0.0008827098452486799,
				7.931457337626577e-05,
				0.00018685154559623966,
				0.0008812981046639439,
				-2.0446019062060877e-05,
				0.0008799977665303227,
				-0.0007264550236303116,
				0.0009813475030819078
			],
			[
				0.00015282510188371467,
				-0.0006431194685122829,
				0.0005952507428936642,
				0.0006109328497472595,
				-0.0003196436275742536,
				0.00037401587756199345,
				0.000353107987873867,
				-0.0004032785786949744,
				-0.00022805007488781333,
				0.0008480203106397124,
				0.0002417980369248901,
				0.00012571955702077114,
				0.0005305589488581481,
				0.00011324363074971425,
				0.00020308728276244152,
				0.0006446555351728215,
				8.294114688270782e-05,
				0.000572633785192324,
				0.0009988755666977657,
				0.0008813346724964597
			],
			[
				-0.00046387038413559824,
				0.0005929733659202176,
				-0.0009752039040280505,
				-0.000996179799759234,
				-2.8603607568768066e-05,
				0.0006818250364566971,
				0.0005626630744151012,
				-7.20109226684325e-05,
				0.0006548829361251467,
				-0.00040485870273941,
				-0.0003144111841608619,
				0.0003889638099814762,
				-0.0006605784896227171,
				-0.0005550364473372218,
				0.0006063712907895063,
				-0.0009757814712523522,
				0.0004959333902299255,
				-0.0005026212133009847,
				-0.0004192419255445221,
				-0.0004891283386994006
			]
		],
		[
			[
				0.0007340831520899181,
				-0.0004603437590346022
			],
			[
				7.429136582119038e-05,
				0.00034100303634371134
			],
			[
				0.0001739713921685615,
				-0.0007106562560958778
			],
			[
				0.0008266776177763733,
				-0.00015836051913874476
			],
			[
				-0.00032529467622486165,
				0.0007979087565723973
			],
			[
				-0.0005548237105277241,
				-0.0008111884438120823
			],
			[
				-0.00046454603754569575,
				-0.0004594448757073346
			],
			[
				-0.0007383039605992803,
				0.000912757418476357
			],
			[
				0.0008072930272103604,
				-0.0009263201644923423
			],
			[
				0.0006288480540663412,
				0.0005314512809083949
			],
			[
				-9.90414378167102e-05,
				-0.0008676671762363347
			],
			[
				0.0003309754067022618,
				-0.0005947255661568099
			],
			[
				0.0002560919552421837,
				0.00013562837172415628
			],
			[
				-0.00046661984381264566,
				0.0003182171285979012
			],
			[
				0.0007372234557909588,
				-0.0006846133580983698
			],
			[
				-0.0005616897105303376,
				-0.00025139184696410194
			],
			[
				-0.00045419856303475007,
				-0.0001877610011582798
			],
			[
				-0.000908169210621012,
				-0.0007008389030134718
			],
			[
				0.0004141710466200141,
				0.00022869447236852775
			],
			[
				-0.0008127333322456634,
				0.00044211176140959534
			]
		]
	]
}