{
	"model_params": {
		"input_dim": 10,
		"units_per_layer": [
			20,
			20,
			2
		],
		"acts": [
			"tanh",
			"tanh",
			"identity"
		],
		"init_type": "uniform",
		"batch_size": 91,
		"decay_rate": 0.95,
		"decay_steps": 500,
		"epochs": 150,
		"lambd": 0,
		"limit_step": 500,
		"limits": [
			-0.001,
			0.001
		],
		"loss": "squared",
		"lr": 0.007185958238678252,
		"lr_decay": null,
		"metr": "euclidean",
		"momentum": 0.7977428112252327,
		"reg_type": "l2",
		"staircase": false
	},
	"train_params": [],
	"weights": [
		[
			[
				-0.0003813722633845591,
				0.0008679318514444047,
				-0.00034236054718075296,
				0.0007569315336480021,
				0.0003309295128757343,
				-6.775850692735958e-05,
				0.00023668705541314366,
				-0.0003891130975062091,
				-0.00028419014461462315,
				0.0006281614014666513,
				-0.000984985205732627,
				0.0008610016035364263,
				0.0007417298982294609,
				-0.00027283872936845264,
				-0.00030107457957948664,
				0.0005700206772350498,
				0.0004960506489843437,
				0.0004056227017090162,
				0.0001471928774054161,
				-0.0005837500560357445
			],
			[
				0.0003040045255663193,
				0.00011169687070487636,
				-0.000761347638431324,
				0.0003571852678141668,
				0.00026040888337152453,
				0.0008734955042875899,
				0.00028931362941147154,
				0.0007078656775804683,
				-0.0006330988879985749,
				-0.0009374465801018238,
				0.0003937724812156228,
				-0.0004600023856114559,
				0.0003373066327780386,
				8.403840112825673e-05,
				-0.000611774491970607,
				-0.000611816410430144,
				-0.00036826908341346836,
				0.0005517074877131368,
				-0.0006566224468587356,
				0.00020863439280455805
			],
			[
				0.0006170692054748416,
				-0.0009777000611119445,
				0.0002540809953763105,
				0.000526922832867982,
				4.178584749126436e-05,
				0.00029508036064931236,
				0.0003638332572140741,
				0.0008725607972634775,
				-0.0002283471207892953,
				0.00015039918855601678,
				-0.0004655652235240602,
				-0.00024253763762152624,
				-0.0009649172864030504,
				0.00020454346122188638,
				0.00016895949251644104,
				-0.0007475793014928307,
				-0.0009130517997380301,
				-0.000302832327334197,
				0.0006674534069847189,
				0.0006019104854307913
			],
			[
				-0.0003862250150681297,
				-0.00036379541217078696,
				-9.775481599058101e-05,
				-0.0005149126439496412,
				0.0007900603296180277,
				-0.0002592184939028046,
				0.0002665875207598146,
				-0.0006992615611678041,
				-0.00028190796206375773,
				0.0005933208305066787,
				0.00018449657838411787,
				0.0005557265532194718,
				-0.0008117217021160748,
				-0.000806764622133747,
				0.000831300099466732,
				0.00044624559046800485,
				-0.0008359342279503786,
				-0.00013211843269145924,
				-0.0004473372234472346,
				-0.0008359846039247567
			],
			[
				-0.0008085982043052793,
				0.0002319739892071035,
				-0.0007290526726769177,
				0.000400933047117412,
				0.0009008717133871741,
				0.00032568740375004995,
				-0.0004766051314535587,
				-0.0002970314587815401,
				0.0009466056261010353,
				0.000235635995006927,
				-0.00020809843412819063,
				-0.0006991876716258101,
				-0.0007908047257458848,
				-0.0006024794298597054,
				0.0006335003526567193,
				-0.0009588330501769948,
				-0.0004458727668782776,
				-0.00028093728992643863,
				-0.00035065119233774003,
				-0.00028026227615454637
			],
			[
				-0.0006352485649576886,
				0.0009649935633240523,
				-0.00017218383017533225,
				0.0003488891039978531,
				-0.00020882508203380428,
				-0.0009562145016891046,
				0.0005480522286949196,
				0.00024445056021741435,
				0.0006198596699283623,
				1.0955368092249165e-05,
				0.0003981128006587103,
				0.0005902392429417264,
				0.0009958914841617424,
				-0.00014214663366013804,
				0.0009116844004436475,
				-0.0005564434180655957,
				0.00010541488404113681,
				0.0004208891007564696,
				-0.0001955036899235834,
				-0.0008019492297849712
			],
			[
				0.0009647789854451217,
				-0.0006632399536339739,
				-0.0007460366370855166,
				0.0004767241852074336,
				-0.00017306466498883744,
				-7.976559304806344e-05,
				0.00015371780738297498,
				-0.00016942801507026167,
				0.0007052186734267771,
				0.0007763362947791185,
				-0.0006695057768713207,
				0.00018982998301294391,
				-0.0003404522223148214,
				0.0008643872940527952,
				-0.00035537538444991906,
				0.000663130902680162,
				0.00048561891970160106,
				-0.0005978024884755238,
				0.0008277864524260956,
				-0.00022760288827793464
			],
			[
				0.0003209665530772804,
				-0.0005027901374611124,
				-0.0007222450472233165,
				-0.00014917073775084025,
				0.000559168416348958,
				0.0005060426102739244,
				0.0006221568715030316,
				0.00038076719058761466,
				-0.0006664203800916461,
				-4.87718632222236e-05,
				0.00018103035987236215,
				0.0006830978839951576,
				-0.00039551401957508593,
				0.0007688858016261691,
				0.00019882769781734335,
				0.0006315431103388525,
				-0.000989048783091459,
				-0.0006306919817841281,
				0.0008612467217148474,
				-0.0009184271333248158
			],
			[
				-0.0009339111991358337,
				0.000439939931677974,
				8.390691304035916e-05,
				0.0007693456091761221,
				-0.0004296560762218893,
				-0.0006561955975874077,
				0.000939793484165619,
				-4.038092769175102e-05,
				-0.0008604086285887813,
				0.0003484755345688976,
				-0.00031860388898271035,
				-0.0009889191819220549,
				0.0002767056753840106,
				0.00013335119951055768,
				-0.0009241437809411299,
				-9.676462971220138e-05,
				-0.0007548580642423889,
				-0.00031863534673083583,
				-0.0009401634488175573,
				0.0005631256689247271
			],
			[
				0.0005501226855460469,
				0.0005250339089030072,
				-0.00027736215035286955,
				0.00047695118479506313,
				-0.0005940381861807058,
				-0.00033273255407501924,
				0.00025806732095973845,
				-0.0008819278711373648,
				0.0007496745195977067,
				0.00015484668145795987,
				0.0007751671760086727,
				-0.0006082399968053858,
				-0.00041001089720018365,
				-0.000615159039367515,
				-6.451227939793249e-05,
				-0.0005669894325045926,
				0.0004539681290223606,
				-0.0005228677724602824,
				5.681839042077767e-05,
				0.0007152325621119023
			]
		],
		[
			[
				0.00036652610632770667,
				3.505227925245454e-05,
				0.0008957696609287729,
				2.250402663410097e-05,
				-0.0009278831881392876,
				0.0006416848766461125,
				6.479588879568492e-05,
				0.0009757359757434107,
				0.0005806315682749762,
				-0.0007708677076411519,
				-0.0007478650139633844,
				-6.625742635574315e-05,
				0.00015048131398271098,
				0.0008518373976664246,
				8.342994513840124e-05,
				0.0008930484098465131,
				-0.00027454669786271247,
				0.0007881966165933828,
				-0.0007858396866526128,
				-0.0007194395709060331
			],
			[
				-0.0007113564309825754,
				-0.0005326293508310467,
				-0.0005816377311301578,
				-0.00022539915337568383,
				-0.00011107523125484956,
				-0.0005675263039896902,
				0.0006365324280437905,
				0.0008318897851132096,
				0.000836846001571311,
				0.00017092312938918916,
				5.331329343096175e-05,
				0.00011108764303763329,
				-0.0004554969007661189,
				-0.00030174436391366987,
				-0.0006781463704731292,
				-0.00037019845469326424,
				-0.00011399798524081419,
				-0.00041804081998428485,
				0.0009958782484648068,
				-0.0008197934405679201
			],
			[
				0.0006181757528172093,
				-0.0008154437183005032,
				3.656507760714284e-05,
				-0.0006004041839766864,
				-0.0008898323817433409,
				-0.0008588686130670093,
				-0.0007255637986541197,
				0.00020052154439652021,
				0.0006054719608376679,
				2.409941064995683e-05,
				-0.0005336304496131683,
				0.00013462730765182048,
				0.0005580972881957978,
				-0.0009209588363275459,
				0.00010256277063329226,
				0.000585318939025989,
				0.0008907582379188285,
				0.0007625995228411884,
				0.0007872673250540298,
				-0.0009634127247693274
			],
			[
				-0.0003538060630578912,
				0.0007199425332028279,
				-0.00018372480390092892,
				-0.00046467831383005564,
				0.0007712597529347107,
				0.0009912187984137113,
				0.00021384647337246401,
				-0.00022588432784001803,
				0.00012432989859781493,
				0.00014639791972338593,
				0.0004333536469749643,
				0.00044408340504178186,
				-0.00044365921417430904,
				-0.0006429233876406861,
				0.0006282817026599123,
				0.00012373026968034583,
				-0.00018882588743626227,
				0.00022270545581447917,
				0.00032171117852427514,
				0.0002119803870060373
			],
			[
				-0.0009557721981263548,
				0.00013304117010601692,
				-0.00046859852089360784,
				-0.0003284427789433113,
				-0.0007853347651354157,
				-0.0002636760454134821,
				-0.0005559088680902045,
				-0.00024141290882329948,
				0.0005794605508831301,
				-0.0006168347201802025,
				0.00021644620397021194,
				0.0007709241002204702,
				0.0007834458241786177,
				6.180800956444863e-05,
				-9.712640687271727e-07,
				0.00022957282800669656,
				-0.0008557363253731267,
				-0.0003334633026840253,
				-1.0187766167964402e-05,
				-0.00024261720753329641
			],
			[
				3.611998085440208e-05,
				0.0005347990940370788,
				-0.0008396145837744153,
				7.650277953511289e-05,
				-0.0004500097370283649,
				-0.0008749472980170749,
				0.0002287813096669704,
				-0.000506746626565573,
				-0.0009442479389791296,
				0.0002735680685453587,
				-0.0007928674811582388,
				8.574603323927531e-05,
				0.0007873341084727301,
				-0.00016261500841287994,
				-0.0007795350268053447,
				0.00034020449684220625,
				0.0008480456239651809,
				-0.0008961016326294802,
				0.00021504821260133087,
				0.0003882042461927338
			],
			[
				-0.0009461323073000767,
				0.00038712579436369493,
				-0.0009921247724428105,
				0.0007170988182051178,
				-0.0006161038548956213,
				-0.0006746317130087263,
				-0.0007641008180793245,
				0.00042610712228070857,
				-0.00031778609419196794,
				0.0002059923613562161,
				-0.0005506481073607323,
				8.754668162769329e-05,
				0.0007971933445982677,
				-0.0007657375714365586,
				-0.00017495920958146224,
				-0.0005243162710016014,
				-0.0009706022349852573,
				-9.280469858627882e-06,
				0.00044999015703530093,
				0.0004774560528131267
			],
			[
				-0.00026821842738191043,
				0.00039417593826331716,
				0.0001749837198643915,
				-0.0008915977901154369,
				-0.0006164719445557296,
				-2.6524464214874107e-05,
				-0.0004824894072755615,
				-0.00015640519529593316,
				0.0007042258816175484,
				0.00042393269340126904,
				0.00036286740326159123,
				-0.0009346041815506503,
				0.0004221687247528258,
				-0.0008982414706405401,
				0.0009551969788656029,
				0.0006268346521255319,
				-0.0003677087770925329,
				-0.0005303913428881446,
				-0.00027082961089770156,
				0.0009104226745453939
			],
			[
				-0.000540979126911872,
				0.0007632417514417374,
				0.0006386598061187581,
				-0.0002762192514928981,
				0.0009525657374858938,
				-0.0008346134362473905,
				-0.0004226879957348102,
				-0.0009362507758808623,
				0.0006894944649494747,
				0.0008389820192154123,
				0.0006762723193996039,
				-0.0005577793308091574,
				-0.0007996659743798387,
				0.00033170608306784923,
				-0.0007733248014806608,
				-4.248810261602888e-05,
				2.050701030843153e-05,
				-0.00047050791932160734,
				-0.0001605609441432199,
				-0.00023905835686470716
			],
			[
				0.0009109676371800558,
				-1.6163587417322494e-05,
				0.0003395265582024037,
				0.00013017106040364118,
				-0.000761810794881896,
				-0.0006773377236212077,
				-0.0005627287238785031,
				-0.00034201729866319304,
				-0.0008288967026600742,
				-0.00037168356681984923,
				-0.00023355627383319798,
				0.0008896190844812479,
				-0.00017130731454554412,
				0.0002323087699265165,
				0.00046261245806645764,
				-0.00015306946233838061,
				0.0003177026587965798,
				0.0005693194705910078,
				0.0005331877318560968,
				-0.000562830549179618
			],
			[
				2.126859507395242e-06,
				-0.0008026003606391228,
				0.0005690755235083452,
				-0.000192247606541087,
				-0.0005223438726442025,
				0.0005200856612823934,
				-0.000490949245555977,
				0.00024577659347111867,
				-0.0007747684525078724,
				0.0007473229996464096,
				-0.0008081223699928321,
				0.0004911007801966134,
				-0.0006044632055712775,
				-0.000782218577667474,
				-0.0006950020139235161,
				-3.796740173680102e-05,
				0.000122301302376354,
				0.0007111666228928318,
				0.00014606609877698055,
				1.797814887765704e-05
			],
			[
				0.0004431391698537252,
				0.0008925921520747653,
				-0.0009970649303288677,
				0.0006990323103735266,
				0.0008222688109262694,
				0.0008743146509485736,
				0.00035126298280716895,
				0.0008049816196900688,
				0.0006310250182477489,
				0.0006292743620775927,
				0.0007426398889969581,
				-0.000967155981431212,
				0.000844332985514332,
				0.0004691761623590192,
				0.0009381089239505688,
				-0.00042695199212469247,
				-0.000807814318657713,
				0.0009383129881104055,
				0.0006244383272790025,
				0.0009555354824557173
			],
			[
				-1.8656384158077018e-05,
				-0.0007808251757786516,
				-0.0009055200448118226,
				-0.0007934065679597597,
				0.0007784734118423781,
				0.00040176645701845695,
				0.0007806652075780566,
				0.00025129525454368443,
				-0.0007055236269277867,
				0.0008589770164944826,
				0.0003518344310308912,
				6.931006796770129e-07,
				8.789932218088896e-05,
				-0.0003204901906976108,
				-4.809248116128325e-05,
				0.0009542649098750978,
				0.00019860640027618138,
				-0.0008768291473551195,
				0.0004181074563074107,
				0.0002745959877805482
			],
			[
				-0.00011503663397793341,
				0.00010988548705570273,
				-0.0005475327854021361,
				-0.00030908311790482255,
				-0.0004838157566780805,
				-0.0009633107027533104,
				-0.0003950989687728876,
				0.0008832807053578372,
				-0.00012713580943318162,
				-0.0009197145148704467,
				0.0009505077996113159,
				-0.000589193969822931,
				0.00021094768300079867,
				0.0003764788577439633,
				-0.00025300090796732163,
				0.0006756748993198231,
				0.0008033143826790697,
				0.0009219406426896114,
				0.00010968789713284698,
				-0.0007626526602070559
			],
			[
				0.00028596264538505905,
				-4.7640033404010404e-05,
				-0.0004833154165096598,
				-7.964863013926269e-05,
				0.0004845951102781245,
				0.0008092694037762681,
				-0.00035790785760061517,
				-0.00015991970128732456,
				-0.0004756751116844406,
				0.00013766613876121134,
				-0.00028649641548706794,
				-0.0005559808397384823,
				-0.00047803143628570295,
				-0.0009417711045867638,
				-2.2343592586739416e-05,
				-0.0005175814195379034,
				0.0008393433067729801,
				-0.00023495608328382139,
				-0.0008244380153379756,
				-0.000913475733071623
			],
			[
				-0.0005042442063278456,
				-6.77500561959936e-05,
				-0.000668602017179856,
				0.0006468433828882428,
				0.0002622516165055519,
				-0.0002631064398741261,
				-0.000632023655098287,
				0.0002924667535284626,
				5.992306420287818e-05,
				-0.0006743645535436282,
				-0.0006599792807324611,
				0.0007630923028692214,
				-0.00024206384211229184,
				0.000573936569585358,
				-0.0007335919271991721,
				0.000927959903186216,
				-3.4154875458690132e-06,
				-0.0003491008207775091,
				0.00014810714062419455,
				-0.00035825268114729816
			],
			[
				-0.0009524239970412288,
				-0.00020274938340893623,
				0.0004564723638714773,
				-0.00033746547732973944,
				-0.00014519943413083517,
				0.0003889851814095817,
				-0.0004833575773421772,
				-8.322513621053301e-05,
				-0.0004785224865048092,
				-0.0006390234185109007,
				-0.00034346166932491904,
				1.3961443397753895e-05,
				-4.628533336496689e-05,
				0.0006821461833964617,
				0.0003570929060295778,
				0.00033444369390996597,
				-0.0007052324793046283,
				0.0005065912888886732,
				-0.0008692776028784341,
				0.00013443000281138356
			],
			[
				-0.0006441139494852064,
				-5.8681750192716856e-05,
				-0.00028146888718438227,
				0.0008187534267063228,
				-4.5461305304979e-05,
				-0.0004389435138596751,
				0.00044747521049212126,
				0.00032437764203840035,
				0.0005003454304498909,
				-0.0002052116263952208,
				-0.00035864749268836626,
				-0.0007573237344602233,
				1.3623543221520868e-05,
				-0.00037682579282753335,
				0.0007394003817171202,
				0.0004898365360705753,
				0.0009922794254876533,
				0.00046506319089253956,
				-0.0005660944449799971,
				-0.0009752001089154206
			],
			[
				0.0003674663032726456,
				0.0007489799386362235,
				0.0009582811514332714,
				0.0003988005153071699,
				-0.0008372861147670437,
				-0.0001298786384116619,
				-0.000162341081737545,
				0.00023933942964036873,
				-0.0008759350266586827,
				0.00026232371127051803,
				0.0002734218764619445,
				1.9885303209551735e-05,
				-0.0003075329052618905,
				-0.0008437268329747942,
				-0.00034056731932016477,
				-0.0005085939815752498,
				0.00020781807805400642,
				0.0006803307106952696,
				0.0004734496696613053,
				-0.00045289732577860555
			],
			[
				-0.0004608354686491006,
				-3.84058574736377e-06,
				-0.0006500819505621029,
				-0.0003132060422545681,
				0.0007503896287994029,
				0.0003530836658746032,
				0.0007235934155967365,
				-0.0006400770910240525,
				-0.0006803196023142926,
				0.0009875786083730982,
				-0.00012022236838489704,
				-0.00019389609952126486,
				-0.0005285090625595696,
				0.0009043576430591556,
				-0.0007625036520388036,
				0.00030618718112515424,
				-0.0005472397410303362,
				0.0003970201778581968,
				0.00034275054982462697,
				-0.00029424573360537724
			]
		],
		[
			[
				-0.0002779169362904807,
				-0.0002660209983888646
			],
			[
				-0.0009201194691445023,
				-0.000798042806713197
			],
			[
				0.0006200630157708635,
				-0.000459332265331873
			],
			[
				-0.0003406226322731019,
				0.0005243441336346402
			],
			[
				2.8324438662266378e-05,
				0.00022397287270588934
			],
			[
				0.0008582916982930809,
				-0.0006981057135207611
			],
			[
				-0.000841943916744939,
				-0.0007515617302829574
			],
			[
				0.0006720638543785441,
				0.0009855087160848355
			],
			[
				9.479348573665741e-05,
				-0.00021444077360501207
			],
			[
				-0.0006568612519809098,
				-5.002251175169727e-05
			],
			[
				0.0006947461098728818,
				-0.00039427807385484213
			],
			[
				-0.00031683038075609325,
				0.0007316895396043386
			],
			[
				0.0008566503797931913,
				0.0007982915101607398
			],
			[
				-0.00026395504567101294,
				-0.0009311078041829409
			],
			[
				-0.0008091346448279089,
				-0.0009041066624495237
			],
			[
				0.0006519159880109934,
				0.0009308909470002063
			],
			[
				6.277819372928857e-05,
				-0.0005540542247016813
			],
			[
				-0.000941409037395913,
				0.00036184851125754705
			],
			[
				0.0008150714292637176,
				-0.00042244946646955415
			],
			[
				0.0002533223346215701,
				0.0008070990191967901
			]
		]
	]
}