{
	"model_params": {
		"input_dim": 10,
		"units_per_layer": [
			20,
			20,
			2
		],
		"acts": [
			"leaky_relu",
			"leaky_relu",
			"identity"
		],
		"init_type": "uniform",
		"batch_size": 200,
		"decay_rate": 0.95,
		"decay_steps": 576,
		"epochs": 800,
		"lambd": 1e-05,
		"limit_step": null,
		"limits": [
			-0.001,
			0.001
		],
		"loss": "squared",
		"lr": 0.005655844946607864,
		"lr_decay": "exponential",
		"metr": "euclidean",
		"momentum": 0.7709349296879282,
		"reg_type": "l2",
		"staircase": true
	},
	"train_params": [],
	"weights": [
		[
			[
				-0.0001079909409351838,
				0.0006033665641191402,
				9.739997128901034e-05,
				0.0008703101492967115,
				-9.525314049298639e-05,
				0.0005217730102491701,
				0.00010485296450345682,
				-0.0002429150970649288,
				0.0006167121668682429,
				-0.0001840650030199083,
				0.0005108780132280738,
				0.0009387991337579142,
				-0.00040282258248711675,
				-0.0007113526075242229,
				-0.0002040051124098072,
				-0.00023939395809575938,
				-0.0001687394752020883,
				0.0008639575873388044,
				-0.00010607013031095126,
				-0.0009756303918567635
			],
			[
				-0.0009456731367360028,
				0.00026510014055690606,
				0.0007054857174300536,
				0.000887712795728251,
				0.0001814807221353137,
				-0.0008491906536216963,
				0.0007041571624667763,
				0.0003765419413198914,
				0.0008643604364211182,
				-0.00018560401882186813,
				0.0006773330411336664,
				-0.0006320885366014484,
				0.0004907336906511608,
				0.00017525332780195875,
				-0.00012794838323516313,
				0.00014211504296715973,
				0.0005444244083959305,
				0.0003030250032032347,
				-0.0003822461250153193,
				-0.0005679736235476736
			],
			[
				-0.0005597122628931061,
				0.0001890838291316642,
				-0.00026281657923792317,
				-0.0003648100801232352,
				-0.0001970035924433979,
				-0.0007744757003583513,
				8.92091079930915e-05,
				0.0006065054277953148,
				-0.0005096675901867978,
				-0.0004985276090185797,
				-0.0009491029617726952,
				-0.000545871661732213,
				-0.0009423093127170967,
				-0.0003510158227693034,
				0.0004752293361474371,
				-0.0002745032006062273,
				-0.00023453557277224024,
				9.523868106727103e-05,
				0.00011218971310211507,
				-0.0004290239743609761
			],
			[
				0.0008256906542000418,
				6.173295846296622e-05,
				0.0001475542614865601,
				-0.0008252676291667594,
				0.0008595980391221108,
				0.0008176192639901333,
				-0.0009824666994029294,
				-0.0005991769493465368,
				0.0003786825304617151,
				-0.000891490423845456,
				-0.0005890374846825421,
				-0.0001069424199328068,
				-0.0009413042340431424,
				0.0003489098010323933,
				-0.0004506830349431002,
				0.0008685097337841799,
				0.0005652617473425117,
				-0.0009474544405325492,
				-9.876795214957277e-06,
				-1.8959096166600107e-06
			],
			[
				0.0009147485955316981,
				0.00011851038914145826,
				-0.00041370329334691465,
				0.0008307960120806821,
				-6.19209482051377e-05,
				-0.00016966017257942446,
				-0.0007953515740282284,
				0.0002461238414119512,
				-0.0008028280542355714,
				-0.0006149435052712122,
				0.0009216780426720094,
				-0.00030609223215112677,
				0.000716098207963799,
				-0.0003867826018258935,
				-0.0003608367189003708,
				0.0006123060125498565,
				-0.0009057715300737909,
				-0.00033830082437381285,
				-0.0009837282745580518,
				0.00021265770898818608
			],
			[
				-0.0005855927151568335,
				0.0004932472334208222,
				0.00021824959652267132,
				-0.00036231850972918435,
				0.0004641361443375985,
				-0.0009773522152614956,
				0.0005302337208767842,
				0.0004483816428284364,
				0.000429620600599799,
				0.0009415211697300361,
				-0.0005643722626840988,
				-0.0008235391908912957,
				0.0005016144357928957,
				-0.0003363817336276536,
				0.0007973811352689547,
				0.0007091798325897494,
				0.0006932326363470493,
				-0.0009479902983469482,
				0.0007595751651309384,
				-2.9807493021369465e-05
			],
			[
				-0.0002530040578913133,
				-0.0004197189038617781,
				0.00013824821449273748,
				-0.0003061187293748362,
				-0.0006412745201922652,
				9.857035758208317e-05,
				-0.0006392165220125989,
				-0.0007524056802440893,
				0.000941189173649745,
				-9.429142195593496e-05,
				0.0009541078551935801,
				-0.0009267644526252153,
				0.0008673335220878869,
				0.0006053370661939499,
				-0.0006463628621882827,
				-7.736125140625884e-06,
				0.00010466773179157885,
				0.000803504225015385,
				0.0005536046261761579,
				0.0006261727437861346
			],
			[
				0.00025936212761201835,
				-0.0003609374882210994,
				-0.000872097314921828,
				-0.0004140686710914335,
				-0.0006244622703483929,
				0.0005024341288993321,
				0.0004820169757271235,
				-0.0005358774508098765,
				-0.0006667449252253951,
				0.0004055976820988806,
				0.0005936347417875112,
				-0.00020549592662902284,
				0.0001993323905703239,
				0.00034954410161519567,
				4.901699891877737e-05,
				0.0006641810588929064,
				3.460634660608841e-06,
				0.0005945368814203925,
				-0.0008976461980911453,
				0.0006208716163141289
			],
			[
				0.0008048827304657428,
				0.0006666053967240432,
				0.0002075775087036361,
				-0.0003037615686796025,
				0.00017257273398165515,
				1.9108085346717426e-05,
				0.0005549504446858043,
				0.0006122009311632687,
				0.0009088256129808066,
				0.00047169951236752223,
				0.0006439840836428253,
				-0.00025427557640707874,
				-0.0006652490696538284,
				0.0009006926003981073,
				0.0006692432507173318,
				-0.0007811000677670295,
				1.088571480623783e-05,
				-0.0003801365998839681,
				-0.0004009781418574652,
				0.00048383459421495593
			],
			[
				-0.0004787491532751638,
				-0.0005743367475759078,
				-0.0008762302613336664,
				0.0005988617448613358,
				-0.0007028315622958289,
				-0.0009015967444156217,
				-0.0006915249016109737,
				0.0002386845645127992,
				0.0006694221490588402,
				-0.0006613303310915237,
				0.0005759993440176677,
				0.0005490293121797986,
				0.00024760003864540453,
				0.00010966779347664781,
				-0.0005059782171499147,
				0.0002683178341288295,
				-0.00048100648250746245,
				0.000555742154402378,
				-0.0004732782906053093,
				-0.00038078776155743
			]
		],
		[
			[
				0.0003098678425670605,
				0.00038811970113242136,
				0.0006083938796281718,
				8.657819728010666e-05,
				0.00018952176867096976,
				-0.00046786281010226434,
				5.5847158314475606e-05,
				0.0001421919503189937,
				0.0005014961397979947,
				-0.0004677239811183367,
				-0.00041307246199516533,
				-0.00039551832238002467,
				-0.0007875486352467058,
				0.0004553572306882426,
				-0.0003773991062050548,
				-0.0004541699593722464,
				-0.0006797005397014677,
				-0.000966268001416031,
				0.0004329884951310547,
				0.0006022896837391488
			],
			[
				-0.0008586557262619265,
				0.0007246042606781737,
				0.0006326524866809519,
				-0.0006235848439207907,
				0.0003115760838195063,
				-0.00020988660318549575,
				-0.000699247898892803,
				-0.0005679094009451732,
				-0.0003670151982160559,
				0.0006233021594159308,
				0.0005213559329319546,
				0.00042131125190249187,
				0.0009368388067688654,
				-0.0007064170925868823,
				0.00022990684491376676,
				-0.0009876227978640156,
				-0.0006931384690522129,
				0.00016850914007791483,
				-0.0003063668478589912,
				0.00045009062508951573
			],
			[
				0.0005604215364529686,
				-0.0007121855404629594,
				-0.00023452722419704504,
				0.00019135037435213226,
				-0.0009233623900283044,
				-0.0004020762288297799,
				-0.0007561642177121221,
				-0.0003575081697588596,
				-0.0007194827113310476,
				-0.00021681440484628807,
				0.0004048774928304881,
				3.880367802982067e-05,
				0.000603494168946209,
				0.0008314761061015792,
				0.0003752344334185462,
				0.0007849573798806553,
				-0.0008059481346773485,
				0.0008335033034585725,
				-0.0002441226903621401,
				-0.00043411641837460245
			],
			[
				-0.0008367801381192528,
				-0.0003712968469855429,
				-0.0007643098769548651,
				-0.000510979548592109,
				-0.00021047575082674518,
				0.0007801703000891223,
				-0.0006118698785916457,
				0.0008229352598900386,
				0.0005822577950874463,
				-0.00027586768083812867,
				0.0006911886291882667,
				0.00016478306921306578,
				-0.0008121514902852591,
				-0.0003191146684654631,
				0.0002699349701236924,
				0.0005688832064168717,
				-0.00012858078351528596,
				-0.0003641916286624159,
				0.0008094220943416913,
				0.0008898577670924154
			],
			[
				-0.0009946739001744755,
				-0.0006532119082109089,
				-0.0008124337180027537,
				-0.0008615946708634868,
				-0.00044605504713892265,
				-0.0008464360151655437,
				1.0725131499491475e-06,
				0.0004585842613694252,
				-2.7782663245467837e-05,
				-0.0009806662255589357,
				6.370460824438057e-05,
				-0.00082004567167248,
				-5.097382213998429e-06,
				-0.00029941966888600755,
				8.998281466312185e-05,
				0.0006827252984469628,
				0.0006563063618942573,
				-0.0008539591258840509,
				-0.0006386842718361603,
				0.0002999264240528825
			],
			[
				0.0007950182598514351,
				0.00032217684846765006,
				0.000728799832544374,
				-0.0009277160892797183,
				-0.0006943791177054,
				0.0008801987318215708,
				0.00038499510481554097,
				-0.00011792356571826382,
				-0.00026961697733165417,
				0.0003328084778006085,
				-0.0007843370222489472,
				0.0009968194037332282,
				0.00044957541080689655,
				0.0003412243132740107,
				-0.0006635858582066179,
				-4.7994081630366734e-05,
				0.0009184564231099934,
				0.00013218861381911933,
				0.0007709492518546456,
				0.0009785135906529054
			],
			[
				-0.0004233408309748055,
				-0.0008782982723843507,
				0.0002212526983132021,
				0.0009664638562265223,
				-0.0009139897034042832,
				0.000397232999421011,
				-0.00019267390171894049,
				0.0005749665033291048,
				0.0007113547997355883,
				0.0006888543876200487,
				-0.0001856320124606598,
				-3.308407895093212e-05,
				0.0006413267317832204,
				8.819997021823297e-05,
				-0.0002006047876654351,
				-0.0009350938540241882,
				0.00027949523465125507,
				-0.0006892789243328879,
				-0.0006647915311561606,
				0.0007636018265316576
			],
			[
				0.0005907932734848609,
				3.831908656923072e-05,
				-0.0003271139293797074,
				0.00025423721010872473,
				0.0008593994097056471,
				7.811861954977917e-05,
				-0.0008193615815034465,
				-0.0002709753415587612,
				-0.0006512949396060119,
				-0.00036686628971510627,
				0.00024564529117956555,
				0.0009756431763876783,
				-0.0001151095812469713,
				0.00041609123862902143,
				0.00026984812052391837,
				-9.982336535560956e-05,
				0.0004782214907480273,
				0.0006550729475974862,
				-0.00032859909546833154,
				-0.0007156984392374965
			],
			[
				-0.0003693432088068074,
				-0.0002059437977595766,
				0.00016004826979705263,
				0.0007822619805250063,
				-0.0007628578028482045,
				-0.0009019312537991717,
				-0.0009218119165194403,
				0.0003959641054086789,
				0.00099732274198094,
				-0.00019378418723081767,
				-0.00034070268752222764,
				7.678743743519704e-05,
				-0.0008712685923054735,
				0.00020236744175557739,
				-0.00082168167929361,
				0.0003045990104335644,
				0.0003234684638853615,
				0.0005202779353465556,
				0.0001870390205204616,
				-0.0006459398594702801
			],
			[
				0.0006900784099972777,
				-0.0006482299977561408,
				-0.0007161734929741795,
				-0.00035591354622239524,
				0.0005412137136714121,
				0.0005035858330476128,
				0.0008962797152916233,
				0.00020060666978332958,
				-0.00013033977738109042,
				0.0007737754820046276,
				0.0007350659691346129,
				-0.00021841272047912132,
				0.0009817572625071083,
				-0.00015307705515498534,
				0.00038353749417600045,
				0.000373235619579339,
				-7.061513845701549e-05,
				0.00028133295159002013,
				0.0008369700328676299,
				0.0009026577027960892
			],
			[
				-0.0007897315342524553,
				-0.000639308925015357,
				-2.342554169416748e-05,
				-0.00020591391429998615,
				0.0004414270631669002,
				-0.0008965351512369111,
				-6.669526440716324e-05,
				-0.0007969910336786215,
				-0.00034135443975420255,
				-0.0007356670609758981,
				0.00042857417534325807,
				0.00028474089894641027,
				0.00016899846344027364,
				0.0008708755980066487,
				-0.00035839713628569344,
				0.0003283900443543759,
				0.00014741234069472024,
				-0.000608190509362115,
				-0.0008759309801896522,
				0.0002586606754065232
			],
			[
				0.0006071961100345194,
				0.0003575732880995242,
				-0.0008657777284659656,
				0.0009314215172130716,
				0.0005551261375112216,
				0.000407593751271075,
				0.000507331702732287,
				0.00012308076240877242,
				0.00029746367157690496,
				0.00029397989078897317,
				0.0006633371281857146,
				0.0005348249111190736,
				0.000748341732109019,
				-6.164522501556763e-05,
				-0.0009269354271529844,
				-0.0002974322753379504,
				-0.0005670687486517632,
				-0.0006494382968674109,
				-0.0007819006973266698,
				-0.0005046159380475974
			],
			[
				-0.0002453001612986352,
				-0.0004794101393592405,
				-0.0005494992726065431,
				-0.0008634908720233255,
				-0.0005754617839605212,
				0.0004537764341381019,
				-0.00020408510734735616,
				-0.0006554790936323698,
				0.00022298357580501256,
				0.0005385015990940132,
				-0.0003493944479374762,
				9.353588489097761e-05,
				0.0001400229524927139,
				-0.0006633524941253108,
				0.0009559923842023589,
				-0.0009798908356354803,
				0.000656370347484597,
				0.0008489186732755765,
				-0.0008288090534637074,
				0.0007587820037601774
			],
			[
				0.0008199370727846756,
				0.000500563454708148,
				-0.0008922346835391972,
				0.00047067720467338834,
				0.0009087419729520308,
				0.0004950504748936044,
				7.840956449258331e-05,
				0.0005549234672161006,
				-0.00022856052703902076,
				0.00034728821360860895,
				-0.0007261552104313978,
				-0.0002465419050690516,
				-0.0005445513082405065,
				-0.0009420168245720602,
				8.742194038308202e-05,
				-0.0006583338339483926,
				-0.0005404294754027022,
				0.0005491448855574972,
				0.0002533470629503345,
				0.0009492897654138574
			],
			[
				0.00079784184274071,
				0.0005587989442782208,
				0.0005326804570314374,
				0.00036355461975844843,
				-0.000898882888911742,
				-0.00019050876906576738,
				0.00017004355172360553,
				0.0002862867009854192,
				-0.0008771072352711973,
				-0.0006124954413840262,
				0.0009782924324188238,
				0.0007038963201443193,
				0.0004511074020398483,
				8.29361567631485e-05,
				-0.0007141876039125337,
				-0.000865425051212327,
				0.00013895848610240768,
				0.00020504759854705337,
				0.0007049582904306516,
				-0.00042806649350410233
			],
			[
				0.000642200610518928,
				-0.0005596380854085383,
				0.0003428524139582993,
				-1.8728094571628063e-05,
				0.0004997771267163367,
				-0.00045892996106993355,
				0.0008131148763484818,
				-0.00038971723378583524,
				-0.0002410036352076026,
				-0.000678092445187964,
				0.0006586378324935456,
				-0.00043380992841594336,
				0.0009348167024522116,
				0.0006163604423673195,
				-1.8965096183300384e-05,
				-0.0006779621447753964,
				-0.0008288938352259929,
				-0.00011793949929749404,
				0.0001630730871070051,
				-0.00038355810148319965
			],
			[
				-0.0005999949801213406,
				0.0005384841533755769,
				0.000624123287206982,
				0.0007970855609804057,
				-0.0003851524862870117,
				-0.00018448074994932995,
				0.00011295141439439794,
				-0.0008247874644534596,
				0.0002269528672332597,
				0.0009509431723126586,
				-0.00045067281877901784,
				0.0006493977028023971,
				0.0009587090735406413,
				5.462081560369744e-05,
				0.0007984055172018229,
				0.0003833743871025318,
				0.00013235494091784353,
				0.0006981307808334937,
				-0.00016797349392485433,
				0.0003690716586916749
			],
			[
				-0.0007386890309533248,
				0.00028184408506277633,
				0.0007982339459168869,
				7.74180303144082e-05,
				-0.0005876037513621285,
				-0.000389750024956357,
				-0.0008919686843438195,
				-0.0006160901802478962,
				-0.0005926586561235396,
				-0.0004923012259626007,
				-0.0007535439239577253,
				0.00022949193755741806,
				-0.0009627322748307241,
				-0.000569300704641856,
				0.0003880749004517537,
				0.000509800831433877,
				3.7093706561149844e-05,
				-0.0006297463229978264,
				0.0006908060875987284,
				0.00022626602044128748
			],
			[
				0.0002662575434215545,
				-0.000980375068793103,
				0.0005158396267074519,
				-0.0006956186551636242,
				-0.00066282076399928,
				-0.0006372619735838243,
				0.0007870490103832903,
				0.00013793336885285627,
				0.0005956585644383173,
				-0.0009905449669717474,
				0.0006681553686372582,
				-0.0007306116391656264,
				0.0005150879545816748,
				0.0005913266887847496,
				2.0651631382141017e-05,
				0.00030046469647366614,
				0.0009849266619645736,
				-0.0008723098490270303,
				-0.00045917756216470786,
				0.000679990021563263
			],
			[
				0.0003350400194814941,
				0.00048564159212078706,
				-5.9282123028776964e-05,
				0.0007761434685308831,
				-0.0008928854854685506,
				-0.00031607027076741793,
				-0.0006458650036639531,
				0.0005551306151735989,
				-0.0005286427034430243,
				0.0003595626672490168,
				0.00047950728624535283,
				-0.00036849621996289854,
				0.0003341171190141879,
				-0.0006879253110929778,
				-0.0003984623749095326,
				0.0007436723734040669,
				0.0005225940438303466,
				-0.0009391653361085397,
				0.0008118796207216949,
				0.0004461959027259022
			]
		],
		[
			[
				3.2231531266566516e-06,
				0.0003048435845079496
			],
			[
				-0.0007613011012448851,
				0.00029958787221683264
			],
			[
				-0.00033628340579002435,
				6.451569035807476e-05
			],
			[
				-0.0005620614893927524,
				-1.9067438157424404e-05
			],
			[
				-0.00021316335285210262,
				0.0003961234945948841
			],
			[
				-0.0009293172408986747,
				0.0007291454860790362
			],
			[
				0.000724103904205794,
				0.0003223505205971443
			],
			[
				0.0005971663728852735,
				0.0008400907718876854
			],
			[
				0.0008852761866615169,
				0.0006518280812841054
			],
			[
				-0.0006163582745978973,
				-0.0009712306121635188
			],
			[
				-0.0006628337989136655,
				-0.0007127685677623841
			],
			[
				0.0004889531096226925,
				-0.00047064067056794463
			],
			[
				0.0007262448147772162,
				0.000799751315983842
			],
			[
				2.5945085663446913e-05,
				-0.00045997618641864405
			],
			[
				-5.224913086667642e-05,
				-0.0006478445636030181
			],
			[
				0.0008292743949103547,
				0.0009050621320359227
			],
			[
				0.0008231585935037857,
				0.0006734427898352441
			],
			[
				-0.0005875460893361975,
				0.0007841661483465833
			],
			[
				0.00015270331140350467,
				-0.0003036643850169678
			],
			[
				0.0009482558844238862,
				0.00027275285979369503
			]
		]
	]
}