{
	"model_params": {
		"input_dim": 10,
		"units_per_layer": [
			20,
			20,
			2
		],
		"acts": [
			"tanh",
			"tanh",
			"identity"
		],
		"init_type": "uniform",
		"batch_size": 100,
		"decay_rate": 0.95,
		"decay_steps": 500,
		"epochs": 150,
		"lambd": 0,
		"limit_step": 500,
		"limits": [
			-0.001,
			0.001
		],
		"loss": "squared",
		"lr": 0.01,
		"lr_decay": null,
		"metr": "euclidean",
		"momentum": 0.6,
		"reg_type": "l2",
		"staircase": false
	},
	"train_params": [],
	"weights": [
		[
			[
				-0.0005667145132120515,
				0.0005144311435432022,
				2.8637795635242562e-05,
				0.0007067776410891679,
				-5.8389690756955486e-05,
				-0.0007631245952723984,
				-0.0006862618998247267,
				0.00012312167185593082,
				0.0005436186877819139,
				0.0006242635554677049,
				-0.00010864091825048858,
				0.000164487080617949,
				-0.0004588587260829218,
				0.0005846549921498514,
				0.00014530368488351454,
				0.0003596722592757553,
				-0.0002596242224637799,
				-0.00023025307222048982,
				-0.00036353084854014335,
				-0.0001667389763740294
			],
			[
				0.0007360250933403096,
				-0.0008336774820224455,
				2.838552095274353e-05,
				0.0009376124530557858,
				-0.0009109407256842538,
				0.0007864036785100459,
				0.0007746445126674917,
				0.0006026003934874412,
				-0.000731305071395201,
				0.0008121800452327648,
				-0.00048283729597885293,
				0.0008279962813580572,
				0.0009348301678028224,
				-0.0008133770743797519,
				-0.000788151507253399,
				0.0003653390791238944,
				-0.0008266084684638708,
				-0.0007951003171814804,
				-0.0009265722894198405,
				0.0008015237886856413
			],
			[
				0.0003469483570150611,
				0.0001867629948437738,
				0.00013830597031510542,
				0.0005802472262166048,
				-1.802208171991569e-05,
				0.0004556017161197487,
				0.0003425363129873481,
				0.0008058447422367222,
				-7.067208951262987e-05,
				0.00030718491185085747,
				-0.0003243779517818164,
				0.0004742168335758908,
				0.00035606559889780616,
				0.00038007526998194425,
				0.00012035233642262392,
				-2.0951685685598968e-05,
				0.0005055791214631771,
				-0.0008806837259817937,
				-0.0005015532553287166,
				-0.0001857509810995377
			],
			[
				-0.0005787302500813438,
				0.0004203177301672081,
				0.0005281416613168741,
				-0.0005100973627319212,
				-0.00023073280328411543,
				-0.0007175762148502465,
				-0.0004919479705188141,
				0.00020861190572004002,
				0.0004822072745486268,
				0.0005703850484345893,
				-0.0004914163816091324,
				0.00044000927657124106,
				-0.00047522445427679717,
				0.0005573168528014074,
				-0.00042944217216877266,
				-0.00034862697238295713,
				-0.0005557532163921084,
				0.0003023158593967923,
				0.0004997013507187728,
				0.0007277069511717714
			],
			[
				0.0008950202777451449,
				-0.0003814360742870242,
				0.00020652988890647902,
				-0.00012349750656740692,
				0.00028751765567259623,
				0.0002552634725899675,
				-0.0009753724205060388,
				-0.0002675659178857999,
				-0.000976284672986699,
				-0.000843086962939597,
				-0.00015163317911138455,
				5.604546654482622e-05,
				-5.199929320238582e-05,
				0.0008338816785562044,
				0.0005323997669025307,
				-0.0007088074028403202,
				0.0008454350513700496,
				-0.0005400622924856951,
				-0.0002766221326889638,
				0.0002776856965914286
			],
			[
				-0.0003459701446642966,
				0.0005464616701835931,
				-0.0007317462535398915,
				0.00039912139508582745,
				0.0009063762291557733,
				-0.0009598347114152564,
				-2.0790142881683613e-05,
				-0.0007126551721219623,
				0.00030982269928961554,
				0.0007335920951176654,
				0.0006442458114763183,
				-0.0007187936478140751,
				-0.0005304833043854713,
				-0.0008510659408468375,
				0.00047984350763066795,
				0.0004075467483535145,
				-0.0007274324265888155,
				-0.000957704251966274,
				0.0007786716114565103,
				-0.0005305868857767109
			],
			[
				0.00021690763493391048,
				0.0003749248640307454,
				0.0008141533625311212,
				-0.00018719936141699885,
				-0.00025760895356955,
				-0.00039463331447570126,
				-0.00030702082600768496,
				0.0004958439399599397,
				9.18877729025908e-05,
				0.0004609966094364696,
				0.000862990552512594,
				0.00028147787106722706,
				0.0003055570368345178,
				-0.0006601243857592037,
				-0.0003977483054971472,
				-0.00026945414016865297,
				0.0005480342942160105,
				-7.810419232451293e-05,
				0.0009251003247328889,
				-0.0009490742937110431
			],
			[
				0.0008144209819087639,
				-0.0007802758249011699,
				0.00020976024756974273,
				-0.000872740888656667,
				-0.0006246576154627381,
				0.0008571208864374081,
				0.00048060404325993376,
				0.0007705694933310952,
				0.0009770844820352776,
				0.0008975493236432659,
				0.0006758665284172128,
				-0.000993490377718054,
				0.0009165045447228856,
				-0.000431153389397164,
				-0.0005714289420718868,
				-0.0009973364786630152,
				-0.00012097945276825302,
				-0.00035217033512180103,
				0.00046356431674990004,
				9.528465688009823e-07
			],
			[
				0.0007107256748833776,
				0.000359284001744322,
				0.0006139704350633353,
				0.0006843753487159744,
				-0.0003777070441847852,
				-0.00011536684794548433,
				-0.0009674881216199929,
				0.0005003447731198188,
				-7.629905878156484e-05,
				-0.0005839539605858668,
				0.0006610224797715882,
				-0.00024194189374899806,
				0.0003509900669419713,
				0.0001528983460411114,
				-0.0009979348757169456,
				0.00013224817047666508,
				0.0009013117154991566,
				-0.0007295561411152516,
				0.00042269207917866244,
				0.0004168442674249615
			],
			[
				0.000565351422966682,
				0.0001824763153469263,
				0.00024311762818558682,
				-0.00039607585799517704,
				-0.0008153090279630655,
				-0.0009512870474302537,
				0.00048088470389375166,
				0.00022008536872576614,
				-0.0002177867245985077,
				-7.719821872790742e-05,
				-0.00016001272680049713,
				0.0007296045766822608,
				-6.544565618828678e-05,
				9.30503177736402e-05,
				0.00015816714853665093,
				0.00015973815279510923,
				0.00039523374524509224,
				-0.00017077095197887897,
				0.0004589277897070064,
				-0.0004559390516314495
			]
		],
		[
			[
				0.00037761865915504037,
				0.000792073538590832,
				-1.785304099940631e-05,
				-0.00019107445128268988,
				0.0008156568009660779,
				-0.00027935303658298727,
				1.0521542198762114e-05,
				-0.0006110815193010888,
				-0.000899815277842156,
				0.0007731936523495491,
				-0.0005131540913738335,
				-0.000189829298571301,
				0.0002895515925197879,
				0.00013291709569715222,
				-2.0056271666286755e-05,
				-0.0007185614110892398,
				0.0007064328250750626,
				-0.0007970869244034951,
				-0.0007661416853863574,
				0.0009886367133365545
			],
			[
				-0.0002180538605474027,
				0.0006062912982054431,
				0.00016229393904537487,
				0.0008312303809035304,
				-0.000320113106049027,
				-0.0005277715038085027,
				-0.0008752176753534704,
				-0.0005357467871315912,
				0.0008762366428011828,
				0.0006050113878101992,
				-0.000270448595222752,
				0.000578654772669231,
				-0.0008871198599864892,
				-0.0008485041961507826,
				6.659181617185402e-05,
				-0.00020640628566440003,
				-0.0001968630739302026,
				0.0006271447157150238,
				-0.0007996575901494434,
				0.0007456194634569728
			],
			[
				1.5561112728287516e-05,
				0.0008838377353380586,
				0.0009136063244298369,
				0.00027515896195022733,
				-0.0001250733251688652,
				-7.189215128711732e-05,
				-0.000829542275224044,
				0.0009881339421215513,
				-0.0006306133464056516,
				-5.976819793222657e-06,
				0.0009786573972393854,
				-0.0009722528316284728,
				-0.0007926058598032085,
				0.00044461676298677565,
				0.0006192753798333415,
				0.0008700276176301948,
				-0.0005389496324681473,
				0.000595052235829881,
				0.00019809565352596806,
				-0.0007293082078863129
			],
			[
				-0.0009496342625111669,
				9.794618595932651e-05,
				0.00043075995329150884,
				-0.0002597639481184586,
				0.000759660051112982,
				0.0007897064557206878,
				0.0003813115775559066,
				0.0006344557582241329,
				-0.0002027064805392504,
				-0.0009567404762938026,
				0.0003563396839857721,
				1.7489136732610567e-05,
				-0.0009445176810882749,
				-0.0007406540653076559,
				-0.0005320627646025238,
				-0.0006688682589197428,
				-0.000200618838845328,
				-0.0009542985832474249,
				-0.0005475146617162448,
				-0.0009042568275564809
			],
			[
				0.0009548549259230836,
				-0.0009345383138447043,
				-0.0003603074836459584,
				-1.4777790966704783e-05,
				0.0005222212005475092,
				4.3603621165474874e-05,
				2.2472646319988358e-05,
				0.0003802814824981366,
				0.00036572970549500873,
				0.0001897506400135012,
				-0.0009754212193632524,
				-0.0008422050354348345,
				0.0008335292196943035,
				-5.591976237875125e-05,
				-0.000978228743212613,
				-0.000898595181902933,
				1.969671240513362e-05,
				-0.0001306915209799706,
				0.0005469817708435634,
				-0.0008526470934077932
			],
			[
				-0.00014571927591268126,
				-0.0007151721420532921,
				-0.0001556513148785434,
				0.0006936251629330156,
				0.0003967101045595034,
				-0.0005647989487524199,
				-0.0005625265126636626,
				0.00026021573899646325,
				-0.00037391407557951914,
				-0.000748620071308074,
				0.0005596630608284774,
				-0.0006896583720951152,
				-0.0006725837205807865,
				-0.0005924652485602424,
				-0.0007607182978792917,
				-0.000562733381070869,
				0.0009621285407158293,
				0.0006276089240695834,
				-0.00014847222596942912,
				0.000351299183413764
			],
			[
				-0.00035737723254859516,
				0.000245554536505639,
				0.0001099834081780555,
				0.0002810574255417294,
				0.00088939488316998,
				-0.0008657757320644734,
				0.00029001426659025845,
				-0.0007042732421210097,
				0.0008454843972835128,
				0.00026266084917108876,
				0.000424394843864876,
				-0.0002981275004062036,
				-0.0005906835155745701,
				-0.0009326544960269474,
				0.00021357505456239185,
				0.00038934789784122255,
				-0.0006805875815945168,
				-0.0003163830403967498,
				-0.00070717547571508,
				0.0005869735157052725
			],
			[
				0.0006328623496930708,
				0.0005642127768615576,
				0.0009328090535992292,
				0.00012583355939669596,
				-0.0008136710781931573,
				-0.0009454392128135407,
				0.0009337208776551606,
				4.6359510533203543e-05,
				0.0006447235786014498,
				0.0009785067605043388,
				-0.0008686431004792623,
				0.0008187038202107227,
				0.0008501870260846666,
				-0.00041737013436377816,
				0.0009753188422482149,
				-0.0006035890175525209,
				0.0008730870146627838,
				-0.00038440757215293605,
				-9.984447102819071e-05,
				-0.0007130407848862856
			],
			[
				0.0004177642328000242,
				0.0007613536974082301,
				-0.0006850395218774474,
				-0.0009618883302702155,
				-0.0003050900828865475,
				0.0006444603087574013,
				-0.0004263138430951152,
				-0.00019582772248353056,
				-0.0009910450759055378,
				0.0002097564168052088,
				-0.0007412694549957886,
				0.0004048811988268059,
				-0.0007936754906368272,
				0.0005807027659810204,
				0.0006221544551796678,
				-0.0007648366971145615,
				0.000901258189042546,
				-0.00015743372259512372,
				-2.680389807398068e-05,
				-5.754853446790346e-05
			],
			[
				-0.0003565198399373521,
				0.0007558525992484718,
				-0.0009026968105907541,
				0.0007549850197073407,
				3.5811495712229253e-05,
				0.00042952468839040623,
				-6.582629358596256e-05,
				1.9683432484681254e-05,
				-0.0007977155798301596,
				0.0009197823622512649,
				0.0005669743534476919,
				-0.0003126279286342386,
				0.0009471712198640585,
				-0.0006554502854498738,
				-0.0008614368512521646,
				0.0008687305961564038,
				2.6591043068460544e-06,
				0.00018832175080768618,
				0.00022042752731612483,
				0.00044222951775609357
			],
			[
				-0.0009421853134607719,
				0.0003311717615786351,
				0.0007379041876771138,
				0.0009029423028003025,
				-0.00013436702632950513,
				-0.0008510392031093567,
				7.0236376480622715e-06,
				0.0008835207131176264,
				-0.0009646898526026478,
				-0.00022063115220924412,
				-0.000403222625054275,
				0.0004705482034594122,
				-0.0007600064700460656,
				-0.0005194521202764146,
				-0.0004219127110619802,
				-0.0007747821866499107,
				-0.0005177690751949776,
				5.3099796993054046e-05,
				0.00020399608702241327,
				-0.0001174974884400712
			],
			[
				-0.00012096201181725026,
				-0.0004558894673423968,
				0.0006559852952926879,
				0.00017002251380916896,
				-0.0005542492715120422,
				0.00014265992543429154,
				-0.000250317247037136,
				-0.0009305089300111325,
				-0.0002022590951045347,
				-0.00023282076982219894,
				0.0007099458253024056,
				0.00014948127043326793,
				-0.0005680485570786527,
				9.926566451602323e-05,
				0.00070207857197731,
				-0.0004976582919572856,
				0.00035929527679254584,
				0.0003181684604867648,
				0.00027374688425397284,
				0.00036124382819865486
			],
			[
				-0.0007962835899100636,
				-0.0006034114246752789,
				0.0005453403001330656,
				0.00043146383861258756,
				4.9225492919218426e-05,
				-0.00040824262420830523,
				-0.000825740023416985,
				-0.0008606589800728375,
				7.048742491101343e-05,
				-0.00045412818187197694,
				-8.224992770647279e-05,
				-0.000848886528786236,
				0.00014561139417970334,
				0.0007789104896519764,
				0.0009420967061335812,
				-0.0006523198963132355,
				-0.00046582878370636884,
				-0.0006003090856652766,
				0.00033718204105329694,
				0.0004954153104111006
			],
			[
				0.0008571114451562094,
				-0.00010599856472348157,
				0.00042582601601258603,
				0.0004129868665331093,
				-0.000550055139365832,
				-0.0009553886651880785,
				-0.0004245756513800216,
				4.350891315232962e-06,
				0.0004162408802873951,
				-0.0002866251002093214,
				0.0002832392423224551,
				-0.0009267569143686944,
				-0.0004612639043653421,
				-0.0006653444446931486,
				-0.0008934612868349452,
				0.0009838150369505718,
				-2.321358383161262e-06,
				0.0006504477562873946,
				-0.0006562580265487232,
				-0.00022621307584976512
			],
			[
				-0.00085465960272421,
				-0.0008898815454252367,
				-0.0004480540840640897,
				-0.00043962289370164684,
				0.0005447034969835384,
				0.0005422042770235505,
				0.0008089783826194094,
				2.8443725108067298e-05,
				-0.000792340578850905,
				0.00012108553813593203,
				0.00029159653608288715,
				-0.00047065094893665037,
				0.00020912341526390884,
				0.0009585727570003586,
				0.0006221166946536513,
				-1.265658247827893e-05,
				-0.0003352610251813761,
				0.00022729703152666952,
				8.18250008706744e-05,
				0.0009143311807211479
			],
			[
				-0.0009847746172482368,
				-0.00039305238004797634,
				-0.0005472278061200257,
				-0.0009068146957476837,
				0.0009165973856390122,
				0.00048514252329972564,
				0.0008181044201771143,
				-0.0004201386158850435,
				0.000490524903392985,
				-0.0008932793722180466,
				0.0005449815444846121,
				-0.00024703119045625806,
				-0.0008182414509291925,
				-0.00038645439882045924,
				-0.000733208755178907,
				0.000517437799852292,
				9.242737770390587e-05,
				0.0003633196660257599,
				0.0005926642600747442,
				-0.0006520699660186834
			],
			[
				-0.0003752090220641073,
				-0.0007396430865506546,
				-0.0008211611742820506,
				-0.0005225108652629588,
				-1.2541748569636644e-05,
				0.00014900870921232337,
				-0.0009249181153062012,
				0.0007951884948056535,
				-0.0004078107653539731,
				-0.00021726485004293643,
				0.0006872667826246174,
				-0.0001530019258486608,
				0.00014881837982396308,
				0.0007133921791036674,
				-9.243955337252504e-05,
				-9.913462285241663e-05,
				-0.0005757094905739575,
				-0.0002874430087298146,
				0.0005332100049984365,
				0.00031015452196615865
			],
			[
				-0.0006606707489239681,
				0.0005066520749037061,
				0.0009150464651969138,
				0.000586252175937479,
				-0.0007015037867510983,
				0.000683502978230794,
				0.0002812913261741178,
				0.00026951535613435216,
				0.00042041075635072876,
				0.0005585476720148838,
				-0.0006655651021188547,
				-0.0001728904681337982,
				-0.00010097702816487075,
				-0.0005996438196625942,
				-0.0006397891756491087,
				0.00045375209659709336,
				0.00021461375835035018,
				-0.0006003143503309689,
				0.0004319790958965573,
				-0.000936282561541292
			],
			[
				0.0003547428623491425,
				-0.0006154920252427502,
				0.000549024277448486,
				0.0003392874752416468,
				0.0001127324988486559,
				-8.915058905131171e-06,
				-0.0008974081109427814,
				-0.00022919865420125047,
				0.0008899190623793943,
				-1.1957216468729166e-05,
				-0.0004873253198276078,
				6.492955832514483e-05,
				-3.563342150269969e-05,
				0.0009661377814101811,
				0.0002776357087384538,
				0.0007333694762630557,
				-0.0002371771834603671,
				0.0007165072109521944,
				0.0001784958678856894,
				-0.0003459660283629027
			],
			[
				-0.0003173026448399283,
				0.000859821073626342,
				-4.780645376897222e-05,
				0.0001628683367739187,
				-0.0004635440119171939,
				0.0006606789487789394,
				-0.0004124932632442875,
				0.0005865992605372668,
				-0.0004269424330030476,
				-0.00010020735505570364,
				0.0009649771110026794,
				-0.0003613280871037712,
				-0.0003830202554983799,
				-0.0003039469716015075,
				0.0006828839102218192,
				0.000298133224110466,
				0.00013697852958059905,
				-0.00020853651175689624,
				-0.0001286911837279776,
				0.0005669385263228318
			]
		],
		[
			[
				-0.00019954849959407924,
				0.000761251324096657
			],
			[
				-0.00039328901796669964,
				0.00016557958381022337
			],
			[
				-0.0007619905068583228,
				0.0006350003882145952
			],
			[
				-0.0005485562845647665,
				0.0006159075250937451
			],
			[
				0.00027288452956680245,
				-0.0001589156544275159
			],
			[
				-0.0008302866511528462,
				0.0009317035668404783
			],
			[
				-0.0007291466223256597,
				-0.000828870584905383
			],
			[
				-0.0005402014380377525,
				0.0002004245531801827
			],
			[
				-0.0003349359291024501,
				-6.39259894209068e-05
			],
			[
				-0.0005694009239460617,
				-0.000324885001440462
			],
			[
				-0.0005327278936386073,
				0.0006962412258593109
			],
			[
				5.548316035069783e-05,
				0.0003083536909629697
			],
			[
				-0.0009062960279076465,
				-0.0005032151540897085
			],
			[
				-0.0009965467377131766,
				0.0004098016952107449
			],
			[
				-0.0004326112553123103,
				-0.0007727145373396134
			],
			[
				0.0007289106081196305,
				-1.4850652111128397e-05
			],
			[
				0.0002464408622662518,
				-0.0004927460097121088
			],
			[
				0.000656669093400218,
				-0.00015059244495256704
			],
			[
				-0.0002046237047966901,
				-0.000585544683979771
			],
			[
				0.00020918127007514857,
				-0.00041322751450205745
			]
		]
	]
}