{
	"model_params": {
		"input_dim": 10,
		"units_per_layer": [
			20,
			20,
			2
		],
		"acts": [
			"tanh",
			"tanh",
			"identity"
		],
		"init_type": "uniform",
		"batch_size": 100,
		"decay_rate": 0.95,
		"decay_steps": 500,
		"epochs": 150,
		"lambd": 0,
		"limit_step": 500,
		"limits": [
			-0.001,
			0.001
		],
		"loss": "squared",
		"lr": 0.01,
		"lr_decay": null,
		"metr": "euclidean",
		"momentum": 0.6,
		"reg_type": "l2",
		"staircase": false
	},
	"train_params": [],
	"weights": [
		[
			[
				-0.0004497706055880575,
				0.0008816967105827649,
				0.0006644087049400319,
				-0.0006652908002048543,
				-9.01718181391749e-05,
				0.0007053768082041019,
				4.911307724279803e-05,
				-0.0001258955945849645,
				0.0009572607744875649,
				-0.0009109478242706453,
				-0.0006559703934414607,
				-0.00019614793894984835,
				-0.0009142808936921265,
				-0.00014237422446923412,
				-0.00010943326935766674,
				-0.000948982782834729,
				-0.0002831653751901857,
				-0.0009467364727309034,
				-0.00014863465046290058,
				0.0002938872554363579
			],
			[
				0.0009034741522597376,
				0.000677074980802586,
				-0.0005314102823104703,
				-0.0009208068415879889,
				3.924395972971411e-06,
				0.00036295711931938804,
				0.0009685015386926323,
				0.0006936971417415294,
				0.0008040994328685767,
				-0.0006931840538669308,
				-0.00023231032391184537,
				7.036979259561092e-05,
				-5.1886331061208515e-06,
				-0.0008780925573594989,
				-1.2291945512850951e-05,
				-0.0009986096997067618,
				-0.0003832567344953066,
				-0.0008207901272175431,
				-0.00012020975422941007,
				-0.0002837868054387469
			],
			[
				-0.00031219831922720714,
				-0.0001849681408494741,
				0.0008012545649460996,
				0.0004349181092402432,
				0.0007715699853673569,
				-0.0006594689644580163,
				-0.0002748439124740787,
				-0.00030499167054959524,
				0.0008616215102778902,
				-0.0008109342846519796,
				0.000662672752393388,
				0.00038589538603342336,
				3.0236356686352437e-05,
				-6.552745129178358e-07,
				-0.00012080199401695872,
				6.439741384904022e-05,
				0.00010190994205669379,
				0.0008953638014750911,
				0.0005585817156060276,
				-0.0008747332143954514
			],
			[
				0.00039958427707104333,
				-0.0006025262028592082,
				0.0006733374573481884,
				0.0004391275572084032,
				-0.0006679281159640211,
				-0.00026134705370922835,
				-0.00016787956894320972,
				0.0002491252830246391,
				-0.0005210681870096597,
				-0.0009677792565747439,
				-0.00018222378532023844,
				0.0002713693261660137,
				-0.00021647910418374887,
				0.0007571782617557669,
				-0.0007836966773178218,
				0.0007540319856987642,
				-0.0006679817223773969,
				0.0004981568243679799,
				0.0005314467665438307,
				0.0008375039590261175
			],
			[
				0.0008719894759488516,
				-0.00015337708530741056,
				9.00041952678148e-06,
				9.584199903968707e-05,
				-0.0007488496897264156,
				-0.0007016551447713679,
				-0.0009808296560188863,
				-0.0002595419955593969,
				-0.0005140809181795325,
				0.000656438607826629,
				2.9598291639307793e-05,
				-8.439190392599684e-05,
				-0.0006380585016748767,
				-0.0004141720658354906,
				-0.0009390414189547509,
				-0.0002746304236173069,
				-6.370159638083566e-05,
				0.0005843553821408506,
				0.0006861624043639574,
				-7.711932500910584e-05
			],
			[
				-0.0006874138797652455,
				0.0009252992585320914,
				-0.000989377510586431,
				0.0004769357972580167,
				-0.00046851255440841406,
				-6.545840683448993e-05,
				-0.0008516848368363341,
				0.00040850844253224167,
				0.0006173198972502876,
				-8.225805471605892e-05,
				-0.0008537653883164665,
				0.00022551624740308938,
				-0.0004015214020874698,
				0.0008998721249290325,
				0.00015082830586339536,
				0.00040268748981359755,
				0.0003251858691421287,
				0.0004002463849710062,
				6.563272712872435e-05,
				-0.0007534159613398453
			],
			[
				-0.0003778351303743157,
				-0.0005480370745184238,
				0.0008492265405475653,
				-0.0002152010217541389,
				-0.00040308917568768307,
				0.0007973538790885027,
				3.5990177205366984e-05,
				0.00045801537816360437,
				-0.0009966268083190732,
				0.0003708955673837613,
				-0.0008076011357718349,
				-0.00023193683738351244,
				0.0005396051037589156,
				0.0008314706904501935,
				-0.0003528865195571673,
				-9.232419080315883e-06,
				0.0007731116081030171,
				0.0005440765192678968,
				-0.0009300621911565379,
				-0.00041765256067616697
			],
			[
				-0.00011935578241664474,
				0.000797343283763612,
				0.0009521729929524256,
				-0.0006524390161415342,
				-0.0009912290381644904,
				0.0005094632441093659,
				-0.0008157643221680766,
				0.00048759549431456797,
				-0.0006220341907898844,
				-0.0005214607801789627,
				0.0005133962361992305,
				-0.00021728339560896906,
				-0.0004906331398613338,
				0.000987009151937104,
				0.0006509795459227535,
				0.000686376194107824,
				0.0008707647171115036,
				0.000388642967475094,
				1.4590076646357102e-05,
				-0.00023551747150924362
			],
			[
				0.0007861224681187664,
				-0.0006440355442904964,
				0.0004113024196479027,
				-0.00030209434750601315,
				0.0005147006273193216,
				3.443741868437364e-05,
				-0.0009198670195054863,
				0.0004864548871857362,
				-0.0001164724219665065,
				0.0009781651016678534,
				-0.0006107629869930897,
				-0.0008051579667803273,
				0.0005469809010226485,
				-0.0001938091735436252,
				-0.0009656183456066408,
				0.0007133936709548664,
				-0.00027240143085587823,
				0.0008309123566019347,
				-0.00010653729747147093,
				-0.0005627246428657053
			],
			[
				-0.0005047144831945338,
				-0.00056342175470051,
				-0.0002566225610987425,
				-0.0009706769083904543,
				0.000414271184530096,
				-0.0007429814676048139,
				9.767057524349369e-05,
				0.0006002565737752825,
				0.00031517380312972784,
				-0.000568242509699234,
				0.00041039931823568096,
				0.00041130539279557714,
				-0.0007976841875721392,
				-0.0005917302240413476,
				3.6875261042523116e-05,
				-0.0006111541772335496,
				0.0002622606472043455,
				7.546894261744631e-05,
				7.577096706284036e-05,
				-0.000632579551756467
			]
		],
		[
			[
				-0.0006686021648418326,
				0.0007105596903848139,
				1.2786220335283746e-06,
				-0.00024678043309302785,
				0.0006558711470479215,
				-0.0005082591673970382,
				-0.000606257353259284,
				-0.0008350543840360299,
				0.0005295934964433086,
				0.00035473465001462047,
				-6.380947914501724e-05,
				0.00033012093152162323,
				0.0006015122974164539,
				0.00022200844174150003,
				-9.433097465799949e-05,
				-0.0005418858706111161,
				0.0009003876536033495,
				0.0008622599697038302,
				0.0007968724797130899,
				0.00037182038698967915
			],
			[
				0.0009121217203152451,
				0.0005606738091988586,
				-0.00012575975170628514,
				-4.7547038573741746e-05,
				0.0002447679307219419,
				-0.00011962266046485186,
				-0.0005637659559165658,
				0.0002562625560381653,
				-3.126357371225014e-05,
				0.0009974574127554169,
				-3.3925632793658806e-05,
				-0.0005381853062658277,
				2.4311341208014918e-05,
				6.804783526818655e-05,
				-0.00021229186222570932,
				-0.00032312311821735304,
				-0.0003244283034423103,
				0.0002113645154509841,
				-0.00014402768820868147,
				0.0004162977848961196
			],
			[
				0.0006336081619466778,
				-0.0008445428475063788,
				-2.3421547666165055e-05,
				-0.0007640526584407559,
				0.0008197133319379397,
				-0.0001617685822448376,
				-0.0007050694647923979,
				0.00034879798182279914,
				0.0002966314743840751,
				3.117854636281261e-05,
				0.0007454860077527618,
				-0.0003684577070646438,
				-0.0009963381754459714,
				-0.0008553890658741934,
				0.0005784764311243869,
				-0.0006436918571969348,
				0.0002285434593922342,
				-0.0002798453357510666,
				-7.833479926649262e-06,
				0.00045816253593280575
			],
			[
				2.6139427103570503e-05,
				-5.40039976819278e-05,
				1.60663040023113e-05,
				0.0009748816677495071,
				0.0009724656698809689,
				-0.000741672770455231,
				0.0008276018286766298,
				0.00028605231303739675,
				0.0006300423818081673,
				1.5524920367211963e-06,
				0.0009276073768879529,
				-0.0006352605217591913,
				0.0006142965495554962,
				0.0006437052014568252,
				-0.000141563693240311,
				2.08044939131102e-05,
				-0.0008689943475633608,
				0.0007906159194025657,
				0.0004803283837534929,
				0.0006751271644889231
			],
			[
				-0.0005075847223232286,
				-5.854497183106972e-05,
				-0.0006534902241163809,
				-0.0006326887406390103,
				-5.918425114874101e-05,
				0.000498767845582805,
				-0.0009289715181228944,
				4.7943155891859695e-05,
				-0.00033181527659354826,
				0.00021039720638573248,
				-1.6470297832656957e-05,
				0.00030079560381963163,
				0.0003586412940042457,
				-0.0004137905406747149,
				-9.381764980497681e-05,
				0.00022986346459637143,
				0.0004957112656471853,
				0.0005179582505585867,
				-0.0003934321597540278,
				0.0007861469794969973
			],
			[
				0.0007997390748146994,
				-0.0005632129915286861,
				0.0003220580249726202,
				0.00037135674570020166,
				-7.939992185023793e-05,
				-5.6952312603713293e-05,
				-0.00021960854714372056,
				0.00026655619669088237,
				-0.0004672940000701875,
				0.0005536132845069838,
				-0.0006761119298003002,
				-0.000961815884994555,
				-0.0005557587840269774,
				0.0005222839065549642,
				-0.0004372450860826194,
				-0.0008111220779629638,
				0.0001677537247613463,
				-0.0007593211610704123,
				-1.657150470311562e-05,
				0.0006492028762519948
			],
			[
				0.00022712075271090135,
				0.0006128279117142022,
				-0.00021529130045423695,
				-2.3211191242487753e-05,
				0.0008378310265541591,
				0.00047809100989369235,
				0.0006650764376320145,
				-0.000319670945452657,
				-0.00020721867420586833,
				-0.0009192239788926211,
				-0.00024233432861212002,
				0.0009426563679682969,
				0.00037691892997178855,
				5.5487637167534127e-05,
				-0.00045578445832604637,
				0.0005281121915772118,
				7.591480221781199e-05,
				-0.00015482236670433334,
				-0.0005877849053615764,
				0.00019763157809976595
			],
			[
				-0.0003340232742008824,
				-0.0008013553735833121,
				0.00015536672522278947,
				-0.0005813642361201957,
				0.0002965630711512072,
				0.0008932722012365856,
				6.433310555124154e-05,
				0.0006427637593089152,
				0.0009338025765101153,
				0.0006751593679084624,
				-0.0008856352698721697,
				-4.073375547071576e-06,
				0.0005175440604770262,
				0.0007418724057870188,
				6.660550313718986e-06,
				0.00037193922387218485,
				-0.0005347853258547555,
				-0.0006210511524280247,
				-0.0005455527030235677,
				9.936725100929684e-05
			],
			[
				-0.00021952867512284291,
				-9.435281818028906e-05,
				-0.0009321170769456706,
				-0.0009754822133611612,
				0.0005836381392465729,
				-0.000698070504102077,
				-0.000582164641491199,
				0.0008588371722576202,
				0.0005894872380524561,
				-8.755992130469667e-05,
				0.00037793498691954773,
				-0.0008335212515714495,
				-0.00018122528167832815,
				-0.0009069117644969039,
				1.6655991083247557e-05,
				0.0006431934413294363,
				-0.0009362058539137794,
				0.0009145287557061736,
				-0.0004107263943455248,
				-0.0006037428801289262
			],
			[
				0.0007325960608459449,
				0.00047333083654077187,
				2.8100679693268986e-05,
				0.00030761000632790894,
				0.0009496818102925351,
				-0.0008102591031891124,
				0.00043394269348633096,
				-0.000994582488739577,
				-0.00016469388626011308,
				0.0009008685983137176,
				-0.0005057614511499469,
				-0.000829504546559273,
				0.0008495581435170678,
				0.0004909034796201433,
				0.0006417598743006573,
				0.00010796518950050428,
				-0.0008794324466483167,
				0.0006246755803963968,
				0.0008298538511848229,
				-0.0008651738855242091
			],
			[
				-0.0009404551078788228,
				-0.0004442921320046096,
				0.0009954683342342776,
				-0.00020584939546250717,
				0.0008918263297411576,
				-0.00010170057060817923,
				-0.0003784397055913389,
				-0.000628981637861452,
				0.0008946483958342608,
				0.0004318891794672611,
				-0.0005707389462886172,
				-0.0007483133444892598,
				-0.0006862853393226389,
				-4.5083318435442635e-05,
				0.0006537216605056624,
				0.000494846212188049,
				0.0008649438539065865,
				7.579336532390394e-05,
				-0.0003436996432559683,
				0.0008587785886312043
			],
			[
				-0.0006058919041507301,
				-0.0005993591196320354,
				0.00064529399878054,
				-0.00046193502036160684,
				-9.720792227028313e-05,
				-0.00042998169704646966,
				-0.0006678519378498994,
				-0.0006194495280182666,
				-0.00012431274160221823,
				-0.00015815278029044548,
				0.00027751310100614774,
				0.0002140955772844766,
				0.000837303056578108,
				0.0009813563391761512,
				-0.0005342279386038519,
				-5.0463940265409635e-05,
				0.0006201134368790883,
				-0.000682394880456086,
				2.3380351498870737e-06,
				0.000284818857094654
			],
			[
				0.0007342571075949795,
				0.00014349769211369754,
				0.0007726812958672516,
				-2.927226269738674e-05,
				-0.000282367599815726,
				0.0008702833285290795,
				0.0008887936716635114,
				-0.0007789180969942478,
				-0.00036194934459400077,
				0.0008356000916851947,
				-6.643946374305281e-06,
				-0.0008878370744404068,
				8.402821200441087e-05,
				0.00017890858660003545,
				-0.0004694265823139374,
				0.00015962126376970615,
				-0.0003010766144472115,
				0.000976610421538503,
				0.0009174778407531746,
				7.814619768948834e-05
			],
			[
				0.0008211565460541023,
				-0.000510524926494847,
				-0.0008622736537709563,
				0.0003681116138192638,
				-0.0006376603800791361,
				-0.00017470996395216472,
				0.0004066673543875398,
				-0.00038447455362198115,
				0.0003094475012622377,
				0.0004885796521661018,
				-5.5420819954171e-05,
				-0.00098866540261565,
				0.00043704491013683974,
				0.00013883731033132655,
				0.00023780028015354016,
				1.3111084231544378e-05,
				-0.0005018257597332382,
				0.0002081822865993893,
				-0.0007564550664485041,
				-0.00028126355903076636
			],
			[
				0.00010719723666847091,
				-0.000758537146753822,
				-0.0007356982978810565,
				0.000978930067403412,
				0.0008723779034187635,
				-0.00029272381846272766,
				0.000832584755810747,
				-9.540194298112814e-05,
				0.0003822167307489224,
				-0.0009488350336623615,
				-0.0006867151234434626,
				0.0005024479716845306,
				0.00011123325540121436,
				-0.0008268369044221893,
				-0.0001555987975148188,
				-0.0003059419941242678,
				-0.000770137393123471,
				-0.0008813580465893878,
				0.000784833503501711,
				0.0007336686099005871
			],
			[
				-0.0008408976538202953,
				0.0008875784435851606,
				0.0005293974938385443,
				-0.0006424545300727752,
				0.0003450858151934455,
				0.0005134626648580834,
				0.0004970835249139228,
				-5.874946805177754e-05,
				0.0006724113659730474,
				-0.0002106859180339742,
				-4.522775394281118e-05,
				9.565597918568267e-05,
				0.0007405254558009004,
				0.0004914651165944897,
				-0.0004090521603524517,
				0.0003441917534030086,
				-0.00028741575521617894,
				0.0009530833207858005,
				-0.0004097717634398033,
				-0.0001926229879803769
			],
			[
				0.00025173041470802696,
				-2.915731747310567e-05,
				-0.0008349079350245701,
				0.000769852390758046,
				-0.0008065540867666901,
				0.0001749106785440466,
				-0.00010385662953480562,
				0.0003129717331747488,
				0.0005292367821978364,
				0.000457788785282703,
				0.0001324003329162926,
				0.0004990520666955148,
				-0.0007894532831266605,
				-3.703544250355641e-05,
				-0.0003089701030408176,
				0.0007266570182369405,
				0.00037590637071723194,
				6.880265175609611e-05,
				-0.0008953006202297793,
				0.00017429087167847323
			],
			[
				0.0008014402289642573,
				-0.0007953738407144922,
				0.00023400777692043364,
				0.0007263565690527477,
				-0.0009942748535862619,
				-0.0006233921530611108,
				0.0005459353863685353,
				0.0005494012091258815,
				-0.00034671780055185427,
				0.0007980605801219888,
				0.0007958763810589941,
				-0.00043266727620733497,
				0.0009265884050079669,
				0.0009521635144876038,
				0.0007536497999201682,
				0.00024192765509081673,
				-0.0004391563957925486,
				-0.0002825289340482493,
				-0.00019723916760694957,
				0.0008448950492449929
			],
			[
				0.00010286912356098068,
				-0.0006205407663477456,
				-0.00031308734220598217,
				-0.0007820076193593352,
				-0.0006644878112272017,
				-0.0004719542719381773,
				0.00038880653321860534,
				0.0008185708702040614,
				-0.0008224904648678288,
				-0.0005482421640489674,
				-0.00094392486630991,
				0.0006603372000122067,
				0.0007623063074656269,
				-0.0009299940045589585,
				-0.0009758274055680023,
				-0.0009644062604850338,
				0.0006481331345859524,
				2.7003277963974373e-05,
				-0.0008733874844854249,
				-0.0005637148068119676
			],
			[
				0.0004608921676838905,
				-0.00065058276201751,
				9.42642184914768e-05,
				0.0001167516546925517,
				-0.00010730511455240795,
				-0.0006146071253902822,
				0.0008717320774679364,
				0.00020913999821030077,
				0.0004991679092674985,
				-0.0002268965894906931,
				-0.00028077519302060724,
				0.00016918081508887715,
				0.0008200761227830818,
				-0.00030843536771155654,
				0.0007856378547883495,
				-0.0002347755218420173,
				0.00034077168227560875,
				0.0007238410150013251,
				-0.0008995219292997097,
				0.0009316405521659697
			]
		],
		[
			[
				9.041511307464941e-05,
				-0.00010841388517608805
			],
			[
				0.0003733610422654106,
				-0.0005589953665253105
			],
			[
				0.0004628245785450627,
				-0.0003567585928803143
			],
			[
				-0.0009565444863483286,
				-0.00020156483999744638
			],
			[
				0.0004028658018190737,
				0.0009685097002013268
			],
			[
				-0.0002862170604300924,
				-0.00034679267834116943
			],
			[
				-0.0009027598086773566,
				-0.0007600277777708482
			],
			[
				0.0008737357224928772,
				0.00030068601725298646
			],
			[
				0.0006769742798674342,
				0.00020895876603878598
			],
			[
				0.0007276920780234142,
				0.0005664584721119324
			],
			[
				0.0008560647101253705,
				2.2187220298678072e-05
			],
			[
				0.00044223588670330325,
				3.4226127116540215e-05
			],
			[
				0.0002856659033329148,
				-0.0001598116219729233
			],
			[
				8.576707137196351e-05,
				0.00011671174788602267
			],
			[
				-0.00043974824407762346,
				-0.0002626837432588726
			],
			[
				-0.00017373571117177767,
				-0.0009505985336188008
			],
			[
				0.0003278557812055067,
				0.0001766094340071593
			],
			[
				-4.6296494865624856e-05,
				0.0005419117066328867
			],
			[
				-0.0009082928847187981,
				0.0005901464844304816
			],
			[
				-0.0005697085081092563,
				-0.00013642087776347524
			]
		]
	]
}