{
	"model_params": {
		"input_dim": 10,
		"units_per_layer": [
			20,
			20,
			2
		],
		"acts": [
			"tanh",
			"tanh",
			"identity"
		],
		"init_type": "uniform",
		"batch_size": 91,
		"decay_rate": 0.95,
		"decay_steps": 500,
		"epochs": 150,
		"lambd": 0,
		"limit_step": 500,
		"limits": [
			-0.001,
			0.001
		],
		"loss": "squared",
		"lr": 0.007185958238678252,
		"lr_decay": null,
		"metr": "euclidean",
		"momentum": 0.7977428112252327,
		"reg_type": "l2",
		"staircase": false
	},
	"train_params": [],
	"weights": [
		[
			[
				-7.204727015071885e-05,
				0.0007114119272692825,
				-0.000501307772399965,
				0.00037797265390726023,
				0.00048201951264758756,
				7.532825799356612e-06,
				0.0003907464028593886,
				0.00034989329492416863,
				-0.00015944160359422632,
				-0.0006423176471545206,
				0.00096740013712584,
				5.51549927751908e-05,
				-0.000733186866145052,
				-0.00021190523922351076,
				-0.000553598868457585,
				0.0006540869368196586,
				-6.857481644267894e-05,
				-0.00022439904412772948,
				4.675796128625581e-05,
				-0.0009829588321740327
			],
			[
				-0.0006974167365600594,
				0.000688042030073542,
				-0.0008376446599816711,
				-8.207614923748797e-05,
				0.0007862603463404756,
				0.00046551013498259946,
				0.00048653494334666364,
				0.0007369900697411038,
				-0.00047635017029555235,
				0.0007102794863764002,
				0.0005762408518382672,
				0.0002047528016801757,
				0.0001115562245527172,
				0.0007373269046959997,
				0.00045740220736250757,
				-0.0009274150443856634,
				-6.356178550452802e-05,
				-0.0007710017311364094,
				-0.0003992597288088542,
				0.0001745782114184265
			],
			[
				-0.0005255428724922802,
				-0.00011340598206486879,
				-0.000539940871349116,
				-0.00022987740488027337,
				0.0003568233356871357,
				-0.0006909379585889004,
				-5.879975908543384e-05,
				-0.0003320620011371049,
				0.0006502299973495627,
				0.00015921443906016493,
				-0.0005287519646245504,
				0.0009227466077328585,
				0.000986031224584254,
				0.0002109250677952907,
				-0.0007302704222008135,
				0.00044752140732666934,
				-0.0005814176728978469,
				0.0005656214731516169,
				0.0009579851360514377,
				0.00042373036130579993
			],
			[
				0.00030073828670048523,
				0.0008815458203651836,
				-0.0004860946669141311,
				-0.0006820477246142407,
				0.00015397584774133263,
				0.00042604390307935747,
				-0.0006568297486158887,
				4.539041125160739e-05,
				-0.000622090165363355,
				-0.0004941748394506113,
				-0.00011842117970508334,
				0.0002626389945513249,
				-0.00016501804656360796,
				-0.0007119064803043477,
				-0.0005607033120273706,
				0.0005709197983654012,
				-0.00024515029572297657,
				0.0004206708101875971,
				0.0009182738257046,
				0.000256033838413201
			],
			[
				0.00021355169022956358,
				0.0003426643512827207,
				0.0007618795025745454,
				0.0004526099291399478,
				-0.0006727421193965073,
				0.000568654123492664,
				0.000434849535865617,
				1.5838830827027625e-06,
				0.000559636178045525,
				-7.08246254799745e-05,
				-0.0003714663620282768,
				0.00046540427745722277,
				-0.0009527475212114567,
				-0.0005640746544013531,
				0.0003547996569943793,
				0.0005885193370782193,
				-0.00013524132271731395,
				0.00021893670416401386,
				0.0009764191520968044,
				0.00019229251874345135
			],
			[
				-0.0003333257416458877,
				-0.0008684270290969463,
				-0.00030989385115156145,
				-0.00043200984075812015,
				0.0007017578282021751,
				3.3362870817327858e-06,
				0.0004397752203185465,
				0.00039906648025872233,
				0.0004961530939551638,
				5.492937576426389e-05,
				0.00025915547430809633,
				-5.175244364053139e-06,
				0.00013895693216767896,
				-3.6807132068188446e-05,
				-0.0001200336964027526,
				0.0007156843266170033,
				6.149351056616414e-05,
				0.0009809827476915953,
				0.00017547304324973842,
				0.000988923630821089
			],
			[
				-0.0004782205220749871,
				-0.0003913376989525994,
				0.00021937855031818913,
				-0.00039087178803117676,
				0.0009353729405115593,
				0.00022811515796741658,
				0.00041149897727833567,
				-0.0002817655325871597,
				0.0006161699301142885,
				0.0003942598004705502,
				-0.0005555665303950044,
				-0.0003189248882288809,
				0.0008495421628269516,
				0.0005373677293941726,
				-0.0007922805378650999,
				-0.0009620840646288826,
				0.00021448764068218067,
				0.00044180618415105887,
				-0.0005938114242312062,
				-1.5100131857596769e-05
			],
			[
				-2.8530415821119534e-05,
				-0.0009056964903529558,
				-6.25969131374444e-05,
				-0.0003296893934170446,
				0.0004046822070379497,
				-0.000996166252038798,
				0.0002907269873930066,
				-0.0006130365790187935,
				-0.0009074794269607361,
				4.396179902393959e-05,
				-0.000145477164450369,
				9.929391030611659e-05,
				-5.367355521425734e-05,
				0.0005864796005314817,
				-0.0001430374563340369,
				0.000730719860271217,
				0.00012343622511211752,
				-8.776041653073621e-06,
				9.308198821380599e-05,
				0.00018041966030211162
			],
			[
				-0.00011894463134656699,
				-0.00027820575296188285,
				-0.00020438811634210935,
				-0.0006674137943929453,
				0.0007450632512275746,
				-0.0002115507652007229,
				0.0008077789544487333,
				-0.00042686214298640393,
				-4.3098461736994545e-05,
				0.0002943927194032621,
				-0.0009738647679752996,
				0.0007337258519247714,
				-0.0005254043871577858,
				-0.0002832558622847852,
				5.5792196235556705e-05,
				-0.000616136930534509,
				-0.0002452575436117574,
				0.00022421652856772774,
				3.4740280026657145e-05,
				0.00010929196847976868
			],
			[
				0.00044534079648563267,
				-0.000124751710570665,
				-1.5111465280817941e-05,
				-0.00021017664476894414,
				1.9956174637975966e-05,
				0.00010715305146269285,
				0.0006267073299997836,
				0.0004402254272559843,
				-0.0005091199398467924,
				0.0009444992995376665,
				-2.0261824922810116e-05,
				-0.0006571593582125352,
				0.0002602553510327756,
				0.0008036314678608175,
				-0.0002074460908224249,
				0.0003535092674050674,
				-7.238632949937735e-05,
				0.0008109960843485989,
				0.0007676721439100406,
				-0.0007484843827078708
			]
		],
		[
			[
				-0.0009259183030763911,
				-0.0008020399499808424,
				-0.0009470833867199971,
				0.0009500346454159288,
				0.0003536328076749623,
				0.000647328037257162,
				0.00011190010149721217,
				-0.0009109827120306342,
				-0.0005255596906428228,
				2.343156628648816e-05,
				0.00047106801687762045,
				0.00020978897723214485,
				0.0003105160281172252,
				-0.0005183019031168812,
				0.0006346081846056685,
				-0.0006288723552514894,
				-0.0008861594271037958,
				-0.0007837020222764108,
				-0.000983507375744957,
				0.0001652118931349479
			],
			[
				0.00015837444400118778,
				0.0003952207400598727,
				-0.0006290756685275562,
				0.00039320801397936295,
				-3.527753336711871e-05,
				0.0008771473902731914,
				0.000326777666757886,
				-0.00012414528699397653,
				0.0009775293468028655,
				-0.0007136737237896962,
				0.0009133074876168769,
				0.0007223277556511771,
				-0.0004738755981769158,
				0.000256984085067112,
				0.0009994592011138967,
				-0.00010154095533021804,
				0.00028338314894629205,
				-0.0005684659436478187,
				0.0008059708375355446,
				-0.0006090585563473128
			],
			[
				0.0003064935094778123,
				-0.0006428288206759838,
				-0.00021085694899954685,
				0.0007292566201568306,
				-0.0004203053933015603,
				0.00024284483690614755,
				9.392311925845629e-05,
				0.0008162943038934551,
				-0.00012164926272306676,
				-0.0003969611085890112,
				-0.0002892941321796951,
				-0.00023916938981639532,
				-0.00011071181584580735,
				-0.0003905470794920556,
				-0.0005177239005533705,
				0.0003126945530488761,
				0.0007295654644322584,
				-0.0008340675305486309,
				0.0004682371365181547,
				-6.99778706431957e-05
			],
			[
				0.0001009894459255711,
				0.00010800223124058251,
				0.0003314676464477595,
				0.00028868277805236967,
				0.00028601313294365814,
				-0.0004226392309245571,
				-8.859792743638154e-05,
				-0.00097699629900184,
				0.0005119345600692793,
				-0.0006679151782340641,
				-0.0008515671124347009,
				0.00027570103105212826,
				-0.0004768160075127052,
				0.0003281918365059368,
				-2.4782871984976298e-05,
				0.0006168983372238845,
				0.0008501315983188372,
				-0.0009718046353835208,
				0.0007751745924616648,
				0.0005831885261280857
			],
			[
				0.0004191919018123589,
				-0.000933686412082283,
				0.0008665787206724607,
				0.000549900756793643,
				0.0006894824165407326,
				0.00021766983657185842,
				-0.0004906291967194214,
				0.0008055396390606951,
				0.0002143473865766272,
				0.00017535091125850302,
				-0.0009550363802523414,
				0.00025575638173479416,
				-0.0008052379546700688,
				-0.0007523024714692604,
				0.0003420246633905645,
				-0.0007831420092948207,
				0.0002199118743311389,
				-0.0002752579466189846,
				-0.0002548068153257663,
				-0.00032365871479997854
			],
			[
				0.0007079163679045441,
				0.0006122070020514411,
				-0.0006698021423505585,
				-0.00043790680430967394,
				0.0002051897564993915,
				-0.0008107668851029683,
				0.0006450222579153341,
				-0.0007683415925021116,
				0.00015463209394260481,
				9.313903455974927e-05,
				-0.00032254079801796287,
				0.0006262859557574784,
				0.00013324447921400705,
				-1.7508865867436624e-05,
				3.5744240461468325e-06,
				0.00012572658316341713,
				-0.0009237598383844172,
				9.67690148591016e-05,
				-0.0006156359536369056,
				0.0008857398447745517
			],
			[
				-0.0006253281528365504,
				-0.0008512138655504323,
				-0.0002875306509380185,
				0.00016104861173322463,
				0.0009029230117376514,
				-0.0007456188526331032,
				0.0006741939683805962,
				-0.00030119462570344995,
				-0.0008179968688563333,
				-0.0006666269758688174,
				0.00012067517991058685,
				-0.0009291316248719346,
				4.7866026264915514e-05,
				-0.0002521040298901512,
				-0.0006990658395452673,
				-0.0005314233397292523,
				0.00025040079294817003,
				5.9959030141930455e-05,
				-0.0004051862213513013,
				-0.0006190053343171949
			],
			[
				-0.0006321007384198238,
				-0.000772677889088653,
				0.0008867869289260653,
				-0.0004688863487466999,
				1.5979806834050475e-05,
				-4.908753465667371e-05,
				0.0009276625739566176,
				-0.0007258397313325096,
				-4.747274515090876e-05,
				-0.00022970895586849993,
				-0.00041098479165039084,
				-0.00038043000082036956,
				-0.0004543139300130061,
				0.0007707550245336259,
				-0.0005708539721224071,
				-0.0005215787219811936,
				-0.0003390550603459783,
				8.781148869069786e-05,
				0.0007621281156122378,
				-0.000960424330395808
			],
			[
				0.00045537117062321823,
				1.0952960445475808e-05,
				-0.0006436963620769624,
				0.0004733131240968213,
				-0.0006765073797621037,
				0.00020581262866467749,
				0.0001761640238520741,
				8.99776726609458e-05,
				-0.00013816811400571896,
				0.00034153827271523533,
				-0.0005364721253958576,
				0.00010722389709675478,
				0.0009408094346247118,
				-0.0004470778540336444,
				0.0009736104395267394,
				8.97015757911309e-05,
				0.0006894704323691604,
				0.0008933007448040727,
				-0.0007284577631992287,
				-0.000846025370256114
			],
			[
				0.00020183578260428913,
				0.00045420220293683955,
				-0.00021849759950736574,
				0.0004911897981931949,
				-0.0006945355746585456,
				-0.0006739861483648948,
				-0.0002033731350444232,
				-0.0008672388444631838,
				-0.0003623193229495838,
				-0.0007181085676407932,
				0.0009419753689093311,
				0.00048522182050006577,
				0.0009601811101916588,
				0.00018236106131435488,
				0.000756242991567865,
				-0.0007681358150952793,
				-0.0009353862716244921,
				0.0008652157765893266,
				-0.0003463898613933552,
				-0.0007957241715301005
			],
			[
				-0.00035568428302263765,
				0.0005953480116304148,
				-0.00013134051478971202,
				-0.000925845415788745,
				-0.0007662440035635749,
				0.0007500932195449637,
				-0.0007298389864631885,
				-0.00016167803950105017,
				0.00020681459256107816,
				-0.0006892538153213856,
				-0.0002292772860522232,
				-0.00056925760952143,
				0.0006026686119789783,
				0.0004128538956575192,
				0.0009447383278302849,
				-0.0006403508309561892,
				-0.00023634818788733898,
				-0.0009097912120763581,
				0.00017750805356746301,
				0.0006345784265568448
			],
			[
				-0.0003012214216693163,
				0.0007861425234003945,
				-0.0007904553856892396,
				0.0004658243862431207,
				-0.000700610556448271,
				0.00020646964255824482,
				-0.00024321003768356243,
				0.0003909219583452194,
				-0.0006213252189928573,
				0.0006501088837890527,
				-0.000813266524480288,
				0.00011995364406340863,
				-0.00028630577363377395,
				-0.0003030884831178558,
				0.00039898013833914846,
				-0.00012350674734158185,
				-8.128073475892599e-05,
				-0.0006031580057890231,
				0.0004438962679049099,
				0.00021749993335716728
			],
			[
				-0.0004088490462396774,
				-0.000633085764802067,
				-0.000635794341380933,
				0.0007573880588198163,
				0.0009164454605076352,
				0.00014078358009049345,
				0.0002730241653701728,
				-0.000915084811733504,
				-0.0003428232767075008,
				-0.0005607253634621319,
				-0.0005902155429178665,
				0.0008886891829922741,
				0.00015135474329617442,
				0.0007060742692289296,
				-0.00012353060778772516,
				-0.0007325117215136312,
				0.00040469907469296135,
				-0.0009497224367663233,
				-0.0006970682461230333,
				-9.748204775794991e-05
			],
			[
				-0.00044708895666393795,
				0.00039422394812086065,
				-3.787318831723345e-05,
				0.0001800830679259673,
				0.0007499766630214089,
				0.0007003824316663427,
				0.0004108892860697573,
				0.0005653206226436183,
				0.0007407274652657561,
				0.0005127203998748426,
				-0.0004484803454822213,
				0.00024108906765345716,
				0.0009459502574854783,
				-0.0008224088379265363,
				0.0002975897702544978,
				0.0009663175755523202,
				0.0007537615811680893,
				-0.00018098703886762154,
				-0.00039655507569439036,
				1.1636661867505012e-05
			],
			[
				0.0009195534430891693,
				-1.235117063619253e-05,
				2.9754635193543055e-06,
				0.0006556175279624986,
				-2.9452463405008067e-06,
				-0.0004593640108451043,
				-5.178014862521605e-05,
				-0.0004131825173308883,
				-0.0002183010231234828,
				-0.0004444339133547108,
				0.0006745551144579087,
				-0.00025914416966927266,
				-0.0007809174076450325,
				0.0007535653287324511,
				0.0005942425514120476,
				0.0006032388636257151,
				0.000697356859347856,
				0.0006397908639791318,
				0.00023069863079269205,
				0.00026056416135852075
			],
			[
				-0.00045679479145150227,
				-0.0005884735159697159,
				0.0005796054277640446,
				-3.4300903051748093e-06,
				0.00018465223572463468,
				0.0003557256075484576,
				0.0004003511223511795,
				0.0002499431699611763,
				0.000407263557001799,
				0.0008669141834379732,
				0.0003276536999147594,
				-0.0007521730734350322,
				0.0005576950566127373,
				-0.0006616385504206444,
				0.0008474945169645862,
				-0.0003849497881575206,
				0.0008472565674759332,
				0.00013049608886816534,
				-0.0007473676303691187,
				0.00031351751074170796
			],
			[
				-0.0005233794009018395,
				0.00044000234802987347,
				-0.0008804357070116153,
				0.0009926195258391714,
				-0.0007975708879060129,
				0.00012450984277739482,
				-0.0009092508765041474,
				0.000616296870705825,
				0.0006296996313290316,
				0.0002318397191628204,
				-0.0005117921036403432,
				0.0004267532785012793,
				-0.0005353906129299134,
				-0.00023540498129410482,
				0.0008525999374350106,
				-0.0005238117871964075,
				2.1940559594822544e-05,
				-0.0006374591065414843,
				-0.0005869632903864293,
				-0.00034943857086523766
			],
			[
				0.0007077736377661948,
				-8.075707643924804e-05,
				0.00019747496780794663,
				-0.0007781075714072818,
				0.0007138271189864444,
				-0.0007546009201261324,
				-0.0009596168117263562,
				0.0002765859105305288,
				0.00025187459714396776,
				4.047120139252032e-05,
				-0.0006534246428743068,
				-0.0007807748402828625,
				-0.0005807556461812145,
				-0.0001296175356290583,
				-0.0007257209588746829,
				-0.0005140339045306275,
				-0.0007759477184073316,
				-0.0008772747356446124,
				-0.0008795280115701023,
				0.0005331362765378677
			],
			[
				-0.0001315129884785324,
				0.0007448837535902601,
				-0.00036988650619814627,
				-0.0008654148414378887,
				-0.0006338550174562001,
				0.0008199238003176242,
				0.00021957822660204312,
				0.0006310098901397684,
				0.0003304762781915086,
				-0.0005382303056717596,
				0.0006919418946872468,
				0.0003954804064459491,
				0.0007957788027385274,
				0.0005248816478220176,
				0.000186896234172928,
				-0.00046217516772169547,
				-0.0008124031749712515,
				0.00010590065633796718,
				0.00028672991053086457,
				0.0007920061407697518
			],
			[
				0.00013574854726017575,
				-0.0007116988760261424,
				-0.0006469905585192199,
				0.000701795812957861,
				0.00019891757830961337,
				6.669372803722235e-05,
				0.00037441639873386366,
				-0.0007747089900488831,
				4.143032386537469e-05,
				-0.0004172583131966121,
				-0.0009453211495185216,
				-0.0009708768897052962,
				0.0007672423815531352,
				-0.00029892902740134635,
				-0.00031037368593324756,
				-0.0005436630599707437,
				0.0004668731244842452,
				-0.0007652300025103455,
				-0.0004937215922177494,
				0.00013960456486649731
			]
		],
		[
			[
				0.00024604781165410276,
				-0.00041636256900812565
			],
			[
				0.00018220793696725312,
				-0.0001671827978216387
			],
			[
				0.0007231986698698965,
				-0.00016840611581510605
			],
			[
				-0.0004530701878017895,
				6.716288024910815e-05
			],
			[
				0.0005716516305237101,
				0.0006480755056723192
			],
			[
				0.000635984570862324,
				-0.0004604234623355075
			],
			[
				-0.00019893214760391702,
				-0.0007515718750542009
			],
			[
				0.000918612053364678,
				0.0009751791601788767
			],
			[
				-0.0009144140832342405,
				0.0008159153927536984
			],
			[
				-0.000839374771961713,
				-0.0003117945914352183
			],
			[
				0.00042543159977221604,
				-0.00011719445170009979
			],
			[
				0.0009254139404762055,
				-0.0007627756083378306
			],
			[
				-0.00037383181833322695,
				-0.00038001310766100143
			],
			[
				-0.00024763091479293583,
				0.00023181892227141674
			],
			[
				0.0009649762675443502,
				-0.00031777910715950796
			],
			[
				-0.0002045844328442285,
				0.0005446593410507372
			],
			[
				0.00024904643473366915,
				-0.0004082615463724353
			],
			[
				0.00022565554294055163,
				4.0331922428042156e-05
			],
			[
				-0.0006657385222324471,
				-0.00025544074010747206
			],
			[
				0.00015982663989045644,
				-6.719615471653759e-06
			]
		]
	]
}