{
	"model_params": {
		"input_dim": 10,
		"units_per_layer": [
			20,
			20,
			2
		],
		"acts": [
			"tanh",
			"tanh",
			"identity"
		],
		"init_type": "uniform",
		"batch_size": 100,
		"decay_rate": 0.95,
		"decay_steps": 500,
		"epochs": 150,
		"lambd": 0,
		"limit_step": 500,
		"limits": [
			-0.001,
			0.001
		],
		"loss": "squared",
		"lr": 0.00891214076925288,
		"lr_decay": null,
		"metr": "euclidean",
		"momentum": 0.6,
		"reg_type": "l2",
		"staircase": false
	},
	"train_params": [],
	"weights": [
		[
			[
				0.000683583113515581,
				0.00020202908501784503,
				-0.000268583192196886,
				-0.0009599310283375307,
				-0.0007763578133434928,
				0.0009189541734885452,
				7.444425160766733e-05,
				8.72034504070618e-05,
				-0.00045332548654391006,
				-0.00034702147770516165,
				-0.0006378569499864375,
				-0.000845629000026781,
				0.000730665648804185,
				0.0007942714137070502,
				-0.0002774059843149839,
				-0.0008891034965978124,
				0.0006885540672340654,
				0.0007756026085939632,
				-0.00020336136288640636,
				0.0008072692727192938
			],
			[
				0.0009201573490394651,
				0.0003009174334718456,
				-0.0005818026059508214,
				0.0008782207262388873,
				-7.773378506879315e-05,
				-0.0006099647443137761,
				-1.1474488006687827e-05,
				0.0006987948146081871,
				-0.0004006683186208844,
				0.0006282184101975843,
				7.017343353728114e-05,
				-0.0008044548442734052,
				3.0540098671599444e-05,
				0.00035372022832878846,
				0.00010018284783090345,
				-0.0006424111038284249,
				-7.042256952306673e-05,
				0.0005329302528638714,
				-0.0009282328591797475,
				-0.0003380135109246218
			],
			[
				-0.00037209583072377224,
				0.0004736603032664535,
				0.00036499799901933225,
				0.0009656017991560638,
				0.0008464357776069857,
				0.0008490597687974234,
				-0.0005206862370749374,
				0.0001135819469931475,
				-0.000661267711826361,
				-0.000979347266737484,
				-0.000715057966064508,
				0.0006568141646865874,
				0.0008719203552086177,
				0.00016177420272233995,
				-0.0003639430573304863,
				0.0008031070520520048,
				0.0005376905989864175,
				0.00032191545129424035,
				0.0006307274429630944,
				0.00046632148524504164
			],
			[
				0.00027084746968539827,
				-0.0006044384905500909,
				-0.0005176767750360326,
				-0.0007930545511917152,
				0.0004990305024995937,
				0.00024919979136469326,
				0.0006368460168781477,
				2.0775259282548777e-05,
				6.944789880459134e-05,
				-0.0004213149441763881,
				-0.00015824007937935815,
				-0.0006858444050185197,
				-0.0007616221457334906,
				0.0007334939937034422,
				0.0003163413178227368,
				0.0009235176184447971,
				0.0004629580387206765,
				-0.0005209323125757973,
				-0.0007422029652001256,
				-0.0002569641544540489
			],
			[
				-0.0008254773545426928,
				0.0004853422995154898,
				0.00046627846856648844,
				-0.0001460169083993139,
				-0.0009597730160415013,
				0.0004533042253319509,
				0.00024148456163282546,
				-0.000694050254510126,
				0.00013229404989878435,
				0.0006977173699563568,
				0.0005128029657869072,
				-0.0007346465940018736,
				-0.0005756288423739609,
				-3.6988366269103106e-05,
				-0.0007266689187231068,
				0.0007353142759809585,
				0.0003199352726965916,
				0.0003847898809494236,
				0.0009404397864310613,
				-1.801820277194167e-05
			],
			[
				5.1864601846837114e-05,
				-0.0009491463916208809,
				0.0001899584726993541,
				0.0009072705446482767,
				0.0004456068970320453,
				0.0007123198259041761,
				-0.0009732694776725339,
				0.00019229822362223752,
				-0.00043359800498459845,
				-0.0007688891488367706,
				0.0009565992069344403,
				-2.032060379304865e-05,
				0.000972395257524147,
				0.0003153135457103957,
				0.0001898651195222365,
				0.00042091143895959865,
				0.0009284970412735732,
				-0.0009135495338887599,
				-8.160414845546015e-05,
				-0.00037868298563828516
			],
			[
				-0.000658333570333678,
				-0.00039355775076694926,
				-0.0008946807261550359,
				0.0007521553555481374,
				-0.0005004499064206376,
				-0.0007405888647259357,
				0.00037176729229426806,
				0.0008953899021117962,
				0.0001443864008971547,
				0.0002513841603249522,
				0.00024534395637579374,
				-0.0006013252592871184,
				0.0005328407536281889,
				0.0005692399692259827,
				0.0005425014255377892,
				-0.0009662346527917867,
				-0.0006019442607454417,
				-0.00021375083830573426,
				-0.00022798986130621748,
				-0.0006717100842654087
			],
			[
				-0.0006391276591693953,
				-0.00023373410940221188,
				0.0003892063492499107,
				-0.0004292162348676907,
				0.0005093393751461645,
				0.00014047681029608918,
				0.00018912633876433946,
				0.0007177897502252959,
				-0.0006293433965686994,
				0.0007699100410954842,
				-0.0008521323430084793,
				-0.0002680500706001734,
				0.00019465038618388933,
				0.0009512099883571465,
				-0.0006122832667227252,
				-7.215006312195427e-06,
				0.00014044821689225572,
				-0.0007785861629516048,
				-0.0002228095440885944,
				0.0001391255489070441
			],
			[
				0.0005939077804752845,
				0.00012980171339072965,
				0.00041980137143633744,
				0.0006535338025665412,
				-0.0001812762511382444,
				0.0009160907389437159,
				0.0001531497114803798,
				0.0009499135147906443,
				-0.000688508067111887,
				0.0006732110530640152,
				0.0009594986324953092,
				-0.0009388229834978537,
				0.00045313849613158597,
				-0.0006426244944817987,
				-0.0008307259368607443,
				0.00010292533376306213,
				0.00047871026846338523,
				-8.498346729656349e-05,
				0.0005469025711206965,
				-0.0008358747382976715
			],
			[
				-0.0007567226985631212,
				2.151851542614479e-05,
				0.0008322109943149577,
				-0.0008461721983280073,
				-0.0007380609533843039,
				0.0005922414892833637,
				-0.00022342378223978818,
				0.0008887094693334078,
				-0.00048795687751817445,
				8.37156088171389e-05,
				-5.320750284653025e-05,
				-0.0007561705312276843,
				0.0006453553195144453,
				0.00016375315018954937,
				-7.076494204834782e-05,
				-2.072554246965717e-05,
				-0.0006278151696058356,
				0.0004631021410252266,
				0.0001754382049336679,
				4.763173268266651e-05
			]
		],
		[
			[
				-0.00047283878905111584,
				-4.4944361159974426e-05,
				0.0007008219500758278,
				0.0006281875087017317,
				-0.0006791966782672918,
				-0.0006247240415747704,
				-0.0004596852441844672,
				0.0006551637967825224,
				0.0001442098075053399,
				-0.0005531319328854962,
				-1.5228324525026586e-05,
				0.00026452146812876057,
				0.0006613420705447702,
				0.0001567447768124671,
				-0.0008721842873232067,
				3.2004537619816044e-05,
				0.0008852458298623266,
				5.1209162175989194e-06,
				-0.00011905723835640373,
				0.0005444369982375399
			],
			[
				-0.0004960908159519686,
				0.0009104277328231994,
				0.0007751043697951019,
				-0.0005802947341944225,
				-0.00044281057188567203,
				0.0009386054915556466,
				0.0005378156655952695,
				-0.00018659216718144367,
				-0.0006160996606455115,
				0.00047149005586699525,
				0.000577215358929581,
				-0.00016900122887258213,
				-0.00033985614009483453,
				-0.0007283593455595219,
				-0.0007592241238834315,
				-0.0009764319056815978,
				-0.00020137995571663865,
				-0.0008394502122866543,
				0.0008800014809658748,
				-0.00029268046428479195
			],
			[
				0.00038917017785758986,
				-1.237928896051033e-05,
				0.0009248641602899457,
				-0.0007015439363161567,
				0.00036178101485686187,
				0.00038698706978099813,
				-0.00037955626922008044,
				-0.00045734495167289624,
				-0.00032583577457682544,
				0.000525840931295618,
				-0.0003800151470104893,
				0.0005768499885638438,
				-0.0006482902429299521,
				-0.0006077329378837266,
				1.6945242089618732e-05,
				-0.0008056790053984234,
				-0.0004643775232573824,
				-0.0006358286920598386,
				0.000811322883641135,
				7.767557996928172e-05
			],
			[
				0.0007752045722364809,
				0.0002734475344824223,
				0.0005461769703305425,
				0.0008078022877948737,
				-0.00012037704202283092,
				0.0004295215585924676,
				-0.0006047457797310912,
				0.0008565534721398031,
				0.0009767174236573217,
				-0.00010872897049347843,
				-0.00037400189619384255,
				-0.0002520745353085523,
				0.00039779538686380363,
				4.86478779706354e-05,
				-0.00041573688891575534,
				-0.00013943587993229926,
				0.0008476994527187281,
				0.000635946396479151,
				0.0008849570697973337,
				-0.0009389649992121178
			],
			[
				0.0007814241538048397,
				0.0009119819087852982,
				-0.000586031908551508,
				0.00027689297713117344,
				0.00035240413114104654,
				-0.00036602742227237516,
				0.0006769653243697039,
				0.0006856409831203023,
				-0.0008411130097506348,
				-0.0002844763083545656,
				-0.0005200379861336091,
				0.00037063279795672833,
				0.000902926508776501,
				0.00022637197154583223,
				-0.0009997329711490246,
				0.0003777139668473385,
				0.00039636635244404985,
				0.0007488865313499717,
				-0.0005913975731941486,
				0.0003217150510839428
			],
			[
				0.0002176624987477937,
				-0.00017266102985933338,
				-0.00023104733903105145,
				-0.00021128408130441053,
				0.0009690359250900749,
				0.0007116483913529091,
				0.00020348569730559585,
				-0.0004825253397880842,
				-0.00019870618104822827,
				-0.0008658067375326828,
				-0.000963302066408392,
				0.0006108884913324768,
				-0.0005242836426721815,
				-0.0004789873684687365,
				0.0003112971974151403,
				0.0002211053489050291,
				0.0002831241078114924,
				0.0006700363044894306,
				0.0006010886869088213,
				-0.00044795945975623704
			],
			[
				-0.00034485455637072414,
				-0.0005650291667242111,
				-0.00017466150514168174,
				0.0009121812944564928,
				0.00036771794752625477,
				-0.0008248282758236763,
				-0.00037243378574287726,
				-0.000459630079641139,
				0.0005577090146949967,
				0.0008742369115881383,
				0.00023587517874690527,
				0.0003183786082686967,
				-0.00047310510608511056,
				7.196210119358635e-05,
				0.00021298222368262756,
				-0.0006809215518470977,
				0.0002507511717265206,
				0.00027683759444177753,
				-0.0006467499454639121,
				-0.00032276041570044646
			],
			[
				0.000146315950840152,
				-0.00012024377911072268,
				0.0006171123986833502,
				0.0005777930253454569,
				0.0008761286249362305,
				-2.8217632552776303e-05,
				-0.0006055261052823825,
				0.000990894987674005,
				0.00021631718454591864,
				0.0008529832084804047,
				-0.0003166396505901323,
				-0.0002243165611990188,
				-0.000260892867424515,
				-0.0004446320923353681,
				9.303235646421302e-05,
				-0.0007923348037927638,
				0.0005002275526221282,
				-0.00035841263120651816,
				0.0005348857819413189,
				-0.0009739977678139509
			],
			[
				0.0007464323252540199,
				0.00064841617007999,
				-0.0008229538056566035,
				-0.00039737106925704627,
				0.0005805370981594698,
				0.0007779402569769044,
				-0.00035010175359524774,
				-0.0004084794611387332,
				0.0007543536780402656,
				-0.0005832954210520431,
				-0.000431839091755972,
				-0.00021908765877052888,
				-0.000471636758219145,
				-8.310925239520418e-05,
				-0.0006703782481368372,
				0.0006446879119977136,
				0.0007314568739955731,
				0.0007009403463967285,
				0.0009837370624055939,
				-0.0006396214554922142
			],
			[
				0.0006318964019218823,
				0.00040039892890201623,
				0.00020448832166403618,
				0.0005801535221574472,
				-0.00033031686907423043,
				-0.0009489574795680024,
				-0.0006886402535234364,
				-0.0005301615370125526,
				-0.00019267970155307373,
				-0.00022067047937630987,
				2.265937168134625e-05,
				0.0006266721161705814,
				-0.00020296327743487153,
				7.27156081402878e-06,
				0.00012199972744923824,
				-1.0318343706431417e-05,
				0.0005401338855110253,
				0.0008115600644254982,
				0.00019247922024501684,
				-0.00020117695253408477
			],
			[
				-0.0007566243855487202,
				0.0007053416216845107,
				-0.000801206944690648,
				0.0007808459704038942,
				0.000477628310938056,
				-0.0006772170682083731,
				-0.0004146684565041114,
				-0.0005559784062769114,
				-0.00013594727751659486,
				0.0002430165954516719,
				0.0009237573848837537,
				-0.0005226279382364669,
				-0.00029107502413792876,
				0.0002118841237607682,
				0.0006455353161831424,
				0.00034208683294187294,
				-0.00033143617464897427,
				-7.435402005254686e-06,
				-0.0005259376976315285,
				-5.8918622775192345e-05
			],
			[
				-7.472785291808481e-05,
				-0.00017866785969295558,
				0.00010152880109258315,
				-4.179192311633154e-05,
				-0.0009227573574148764,
				-8.968198134266456e-05,
				0.00011103300155267982,
				0.0001634584716012986,
				-0.0007023869252310324,
				0.0007807962235776291,
				4.703836291007862e-05,
				-0.0009135054758398238,
				-0.0005391705465694934,
				0.0006102342574639712,
				0.0006609463566537457,
				0.00023064343297656952,
				-0.0002971593178208394,
				0.0007513369869632228,
				-0.0005515831022954642,
				0.0007881475089592483
			],
			[
				0.0008654382523942345,
				-0.0008374860009728007,
				0.0008916042329806932,
				0.00021421039708331593,
				-0.0007345286790744628,
				0.0005737774683649425,
				0.0002295284090891173,
				0.0006064795899821352,
				-0.0006784975270113494,
				-0.000823293183295581,
				-0.0005265833385586839,
				-7.026176320319992e-05,
				-0.0004084311170245114,
				0.00020575736168402929,
				-0.0002054501652228979,
				0.0006764838678089947,
				-5.958348686963986e-05,
				0.0008141278874906951,
				0.0007052793698556052,
				3.6788334713629264e-05
			],
			[
				0.0008863488654450359,
				0.000548740267811219,
				-0.0008042142236596148,
				4.951329662094173e-05,
				-0.0002226194609655967,
				-0.0005380288723048831,
				0.0006999838597110571,
				-0.00041978204415022205,
				-0.00035445064320438545,
				0.0008621236782126018,
				-0.0004440417255959819,
				-0.0007933248875615934,
				-0.0006977275949563244,
				0.00016180232648268502,
				-0.0005432297536943627,
				0.0007797518854414452,
				-0.0004903227002230602,
				-0.0004266370615241932,
				0.0004302227000695135,
				0.0004418507379604763
			],
			[
				0.0005456292823955357,
				-0.0006787326698658614,
				-0.00013216747965440364,
				-0.0009232199844140678,
				0.0005769039338555354,
				0.0006286499124276892,
				0.00039854590828920376,
				0.000781721476888948,
				0.00016983604576201574,
				-0.0009560614690511984,
				0.000526349448591461,
				-0.0004790967878589489,
				-0.0002079579630869441,
				-0.00088547575898803,
				-0.0007375047213148163,
				0.0008821561411888189,
				0.0006181276062814183,
				0.00028503964287087,
				0.0006116839127575822,
				0.0003206980542195463
			],
			[
				-0.00050630922392327,
				-0.0005496891121898589,
				-0.0009176667093680484,
				0.00045794908583027434,
				0.0002872462346130958,
				0.000988223028812088,
				-0.00010713709706484508,
				0.0006114147356866297,
				8.872483028065704e-05,
				0.0008994842650665539,
				-0.0008747477371519961,
				8.560130471704547e-05,
				0.00018981161772032478,
				-0.0003727764024284907,
				-0.0006262038848149874,
				-0.00026453772825091445,
				0.00021371380442708043,
				-0.0002783806235495651,
				-0.0003495767437966791,
				-0.0008990766124582559
			],
			[
				-0.0007675969723944922,
				-0.000883911467219364,
				0.0006446769060787024,
				-0.00016300166318138402,
				0.0005635281113127819,
				-0.0001640522194373995,
				0.0005704125346834899,
				0.0002376549837467877,
				-6.287579078408448e-05,
				-2.122548453837832e-05,
				5.85145305890412e-05,
				-0.0002558094010992346,
				6.138906775463872e-05,
				-0.0006729506814808757,
				-1.0815461664441008e-05,
				-3.747724116486093e-05,
				-0.0003398286518736611,
				-0.0007620471081779792,
				0.0007727081087020365,
				-0.000602741800461938
			],
			[
				-0.00018926592624324257,
				0.00046475907496632387,
				0.0007258747926545993,
				0.000684913588678862,
				0.0008407905068265342,
				0.00045356590948818784,
				0.0008643481464558672,
				0.0002571997742742964,
				0.00042069016460821143,
				0.00016387338380695338,
				0.0006503629916904809,
				0.0009547018502268495,
				0.0002049870446276809,
				-0.0005774085745912988,
				0.0001567277501979135,
				0.00013107373583500339,
				0.00047007298418536253,
				-0.0007518172819037476,
				0.00028193244957374036,
				-6.520398335270136e-05
			],
			[
				0.000540822309821587,
				-0.00030517073111447756,
				0.0007108945235366748,
				-0.0009807932378349527,
				-0.0006996819708216255,
				0.00011276423027352812,
				0.000882550799456486,
				0.00041634613414108664,
				0.00088616431451871,
				0.0005020433703291519,
				-0.0006545421020778693,
				-0.0007190248975332653,
				-0.0004354861354466604,
				0.0002653260416096003,
				0.0008281550892873955,
				-0.00019885512429325988,
				-0.000662531275805593,
				-0.00045243923813064217,
				8.9627467878444e-06,
				0.000566519182971721
			],
			[
				0.0005473336059038565,
				0.00022778712726630244,
				0.00018115910427965996,
				-0.0002588343697183189,
				-0.0004999243974495016,
				0.0008206134631722067,
				-0.0004281029526390401,
				-0.0009152871749166443,
				0.00044672006432803493,
				5.3021371359751645e-05,
				-0.00011598787221137074,
				0.0007965640057524957,
				0.00017572526880306927,
				0.0009345382867638303,
				-0.0007293883914399278,
				0.00013615159866062253,
				0.00038846636534578386,
				0.0005031642707269742,
				-0.00013705390996509074,
				0.0008493872544695477
			]
		],
		[
			[
				0.00057272308789435,
				-0.00017253083700582647
			],
			[
				-0.0003608522054053383,
				-0.0006626791703081357
			],
			[
				-0.00047480584568614483,
				-0.00011597171171601683
			],
			[
				0.00034655083096910076,
				0.0006722325148198719
			],
			[
				-0.0006769417272861644,
				-0.00048468552844175487
			],
			[
				-0.0003046738590856764,
				8.713652807431998e-05
			],
			[
				-0.0009280945235400988,
				0.000968972298539874
			],
			[
				0.0003267106367984209,
				-0.0007311873867260108
			],
			[
				0.000980791007868383,
				-0.0008016668235962456
			],
			[
				-8.206102443362355e-05,
				-0.0009275323373143058
			],
			[
				0.0004074431949392472,
				-0.0007134884893409237
			],
			[
				-0.0004418012062229311,
				0.0006724342655422481
			],
			[
				0.0006536498760910756,
				-0.0009290383938625356
			],
			[
				0.0009652889211059128,
				-0.0006165080522652588
			],
			[
				0.0002108656362194369,
				0.00034802205858037874
			],
			[
				4.159718336650036e-05,
				0.00036291788075247956
			],
			[
				-0.00024867271478123975,
				-0.00031016460527041173
			],
			[
				-0.0007134698639536239,
				-6.737693358848502e-05
			],
			[
				0.0002121345535323724,
				0.0007952505215043733
			],
			[
				-0.0009040804047102482,
				2.4658212063989734e-05
			]
		]
	]
}