{
	"model_params": {
		"input_dim": 10,
		"units_per_layer": [
			20,
			20,
			2
		],
		"acts": [
			"leaky_relu",
			"leaky_relu",
			"identity"
		],
		"init_type": "uniform",
		"batch_size": 200,
		"decay_rate": 0.95,
		"decay_steps": 576,
		"epochs": 800,
		"lambd": 1e-05,
		"limit_step": null,
		"limits": [
			-0.001,
			0.001
		],
		"loss": "squared",
		"lr": 0.005655844946607864,
		"lr_decay": "exponential",
		"metr": "euclidean",
		"momentum": 0.7709349296879282,
		"reg_type": "l2",
		"staircase": true
	},
	"train_params": [],
	"weights": [
		[
			[
				0.0005541645851703553,
				7.708511410472064e-06,
				0.0009532271421643312,
				-0.0009791017066924249,
				0.00013864710607070624,
				-0.0004215933594253832,
				0.0008820458763534561,
				-0.0007368533882188149,
				0.0008412541585309391,
				-0.0008316171663682452,
				0.0009755126005757675,
				-3.832819224224102e-06,
				-0.00043588789221262326,
				-0.00011414128601979683,
				0.0006672677216011049,
				-0.0007900232778557362,
				0.0005166540900062521,
				-8.192904931104191e-06,
				0.00046214934481538504,
				8.689355515289002e-05
			],
			[
				0.00014165444916416068,
				-0.0004471450786681841,
				-0.0009689110834882078,
				0.0008422969991260568,
				0.0009938658904260853,
				-0.0007581974989009035,
				-0.0008925180981981582,
				0.00043118104591781175,
				-0.0001802142682624919,
				-1.0632281115820945e-05,
				0.00037480068256141126,
				0.00026383807143451885,
				0.0003781358864860271,
				-0.00022880113415204304,
				4.9016888360468554e-05,
				-0.0005686356112461952,
				0.0005881602782505581,
				0.00018382523917351095,
				-8.04257470150263e-05,
				0.0004523983365935769
			],
			[
				0.0003749283293158006,
				-0.00030156656899241413,
				0.0007171624670122808,
				-0.0006321589155935386,
				2.3241504508809312e-05,
				-0.000863469696633592,
				0.000666302204417261,
				-0.0005448480516376461,
				0.0008759883210580147,
				-0.0006577041563614838,
				-0.0007295490199988313,
				0.0002076977157140635,
				0.0001450633400224056,
				0.00038391739336240006,
				-2.2201491915959694e-05,
				0.0008856414643414214,
				-0.0007489063650503574,
				-8.405653059389184e-05,
				0.0006600114512746115,
				1.4794061478408784e-05
			],
			[
				-3.9424457300135185e-05,
				0.000490347680592713,
				0.0004327121082369741,
				-2.7106778865364505e-05,
				-0.0003836024960991287,
				-0.0008234258557414582,
				-0.00041137055950984827,
				-0.0006244908055803172,
				0.0009379500339110926,
				-0.0007824690750658696,
				0.00027301329987586016,
				-0.0005005852119235308,
				-0.0009713646082830717,
				0.0008789139586651779,
				0.00010180290350281121,
				0.0006565514339489206,
				0.0006026753500193668,
				0.0002555275359461158,
				-0.0006204058958449723,
				1.6389807963357794e-05
			],
			[
				-0.0008605778721909043,
				-0.0007987212475790824,
				-0.0007999402477919842,
				-0.0002541839431498945,
				-5.53348774301976e-05,
				0.0005840488186107393,
				0.0007355998879794955,
				0.0002717162768876742,
				0.0006518218030055389,
				-0.0006083561009034039,
				0.0002034800928057568,
				-7.954494442664114e-05,
				-0.000907741241260214,
				2.5931193016745686e-05,
				0.0005095872503586519,
				0.00039384007759727356,
				-8.131524857077268e-06,
				-0.0004618393391353135,
				0.0007960360291543699,
				0.0009566326535528466
			],
			[
				0.0007447817028496942,
				0.0008708748790953156,
				0.0008427046671673612,
				-0.0001336689136974149,
				-0.0003347950703125422,
				-0.0001969645115552747,
				0.0009207507675761104,
				0.00042792811838315544,
				-0.00017775072653412936,
				-0.0009120873010902057,
				0.0005166651925879954,
				0.0009892059772121345,
				0.0002668729459102139,
				-0.0006645724963730442,
				-0.0009416378704046968,
				0.0004854253847119696,
				-0.00019897611954472613,
				0.0009167421447616143,
				0.0008776904612937458,
				0.0004247427987049113
			],
			[
				-0.00023866428230897001,
				-0.0001055642903574134,
				0.0005655724693760236,
				0.0006575545633562647,
				0.0007090725008958632,
				-0.0007957300525896345,
				0.0008674951201765293,
				0.0002651079987723529,
				0.0005069248152381597,
				0.0003173555392686975,
				0.0007766443298533221,
				-0.0006113277743871741,
				-0.0003464896135043303,
				-0.0007497845295778565,
				0.0007380878597107892,
				0.0006738525113571671,
				-0.00026291017543107786,
				8.018474306200913e-06,
				-0.0005601151774275302,
				-0.0009075770101299376
			],
			[
				-0.0008059063340176456,
				0.00019480113765602252,
				0.00022275104617086702,
				0.0008811503907219052,
				-0.0009665430568827927,
				0.0009065003616429751,
				0.00011202262441909589,
				0.0008607897110329576,
				0.0009009116965971685,
				0.00020645556888351075,
				0.0009423498945935413,
				-0.000742250320374865,
				-0.00025462076637874367,
				0.0008095750003540786,
				0.0001634173601894411,
				0.0006229168267677919,
				-0.00033646767181886466,
				-0.0006308757849406053,
				-0.0008922677682063205,
				-0.0008004659878573022
			],
			[
				-0.0003437459767133864,
				-0.0006866981879599574,
				0.00015575737728601522,
				-0.0008212848192668687,
				-0.0009362173212383313,
				0.00033476602745847843,
				-9.301967568638278e-05,
				-0.0002941096705485753,
				-0.00058978980784101,
				0.0007569616966992083,
				0.0008426767767813481,
				0.000935138704250732,
				-0.00046388071487710777,
				4.74375476163455e-05,
				4.27802724285364e-05,
				-0.0006419766323640728,
				0.00010951595507011232,
				-6.863407656127786e-05,
				0.000942675626233307,
				-0.0003195807263705175
			],
			[
				-7.33323255197165e-05,
				0.0005862590436707402,
				-0.00039365486109595627,
				0.0009668215577294447,
				0.0002942536206003571,
				-0.0004096050856813847,
				-0.0003956964203381566,
				0.0008633275511778979,
				-0.0004227361018431004,
				0.0005959878409507616,
				0.00019095062107674608,
				0.0009286414734284464,
				0.0006715603106983547,
				-0.0008468223555794616,
				0.000699942926025803,
				0.0007925524766619421,
				-0.0001436842763910531,
				-0.0007855701458319127,
				-0.0008783670892974203,
				0.0005011955537437243
			]
		],
		[
			[
				0.00043581489654606013,
				0.0003514837364441523,
				-0.00024106933080301877,
				-0.0004813828798360891,
				0.00017082742141635702,
				0.00024956642046459554,
				-0.00019589535700575956,
				0.0008202372275590939,
				0.0005228321536453011,
				0.0004116649003447206,
				-0.00026511988227628726,
				-0.0008113161623011602,
				0.00041430001471404795,
				-0.00015028758591253673,
				-0.0007288125902080076,
				-0.00023774687765434942,
				-0.00027297412247227477,
				-0.00044221487240325024,
				-0.000763626865304341,
				0.000810952116420688
			],
			[
				0.000492251712391674,
				-3.789269942100222e-05,
				0.0005137901181254171,
				-0.0008789764888566592,
				8.700944147855931e-05,
				0.0003866529136204739,
				-0.000919552023128015,
				5.246579427701115e-06,
				-0.0005230320257202492,
				0.00011851215448568518,
				-0.0003149071809231683,
				-0.0004680711718917796,
				-0.0007510104188788822,
				-0.0005096392978753059,
				2.6059243851982378e-05,
				0.00016763292242800575,
				-0.0004967024083762894,
				-1.4823257931551514e-05,
				0.000683967569433437,
				0.0008646593975356177
			],
			[
				0.00021069864726105578,
				0.00022716466747115514,
				-4.201563719231547e-05,
				-0.0005342822285963205,
				-0.0005594932472425591,
				0.00011962547355216986,
				-0.00027214847556619845,
				-0.0008541317324476207,
				0.0004912602671331826,
				0.0007688944672954502,
				0.0002881491410847005,
				-0.0005687560269836259,
				-0.0001040154513923026,
				-4.106184318110502e-06,
				-0.00013546830762022923,
				-7.156139668778618e-05,
				-0.0009331058700630013,
				-0.0002893318027384511,
				0.0003456845028205315,
				-0.0001924404575166592
			],
			[
				-0.0005164299282618713,
				-0.0005970753985874671,
				0.0004666123462210526,
				0.0007577345530638535,
				-0.0007540556674613598,
				-0.0005145557494793523,
				0.0008566644664410538,
				-0.0007252756827948344,
				0.0006216935189539401,
				0.0008815806851004825,
				0.0003248586678531041,
				0.0007966518600966556,
				0.0007781964114433673,
				0.0002957201029868898,
				-0.00042154279134463653,
				0.0008342930273907488,
				0.0009995629571300886,
				-0.0007243806147066419,
				-0.00018557956632212695,
				0.0007521212696578509
			],
			[
				-0.00046483107209392043,
				-0.000658521947109376,
				0.000359500399238792,
				0.00013870778799198857,
				0.00011967358651797854,
				-0.0009414794094258748,
				0.0008702056428476937,
				-0.00026680649101786154,
				0.00046423527809071985,
				-0.00038660939806919317,
				0.0007611968479514341,
				0.00021553033264127804,
				0.00017372409392713982,
				0.0005149378301649344,
				0.000843718187633903,
				0.0005302125821403519,
				-0.00021289512004934075,
				-0.0008038186563805547,
				0.0008335077843999938,
				-4.529302685294084e-05
			],
			[
				-0.00017877621306895588,
				0.0003607974358158935,
				0.00039670117142746376,
				-0.0007217133784061802,
				0.0005766876061671811,
				0.00036722207628435356,
				-0.000195228459785223,
				-0.00060386179514432,
				-0.0004352326063482672,
				0.00031015405132210497,
				-0.0008053441403093187,
				-0.0008337221585321735,
				-0.0007081583224640342,
				-0.0008400517721699017,
				-0.00020681855695671534,
				0.0007869994620666434,
				-0.000907148360960454,
				0.0007612245233752435,
				0.000772150195454511,
				-0.00034405658870315103
			],
			[
				6.098504210323859e-05,
				9.989882157079226e-05,
				-0.0008229938508859129,
				0.0005934058130631754,
				-0.0006756218052172071,
				-0.0004570143562432731,
				-0.000290368162883726,
				0.0005526032660602357,
				0.00011763913354425172,
				-0.0002981642848972894,
				-0.0004373042964688281,
				0.0005978456400403487,
				0.000554126138869302,
				-0.00019114089515232587,
				0.0008786264640799381,
				-0.0004017713227925775,
				0.0008480100492112891,
				0.00048711383776453717,
				0.00035266281808361507,
				0.0007592615344887948
			],
			[
				-0.0006106275469640707,
				-0.0005179024353710917,
				-0.0009711338340210744,
				6.14196067536244e-05,
				0.0001346526670357017,
				-0.0003073602021927324,
				-0.0007127188740524151,
				-0.0004094831722236647,
				3.2089060054299326e-05,
				-0.0007904117432148457,
				7.785414462788912e-05,
				0.00016306295498783128,
				0.0006740754896462967,
				-0.00013248028098605217,
				-0.00037968446935051237,
				0.0004427152291207627,
				-0.0009190137940394039,
				-0.0009912214215949079,
				0.0009834207402390975,
				-0.00034026716994115414
			],
			[
				0.0007709933688330635,
				0.0004679571700430098,
				0.00017984568527979437,
				0.0007865431612895657,
				0.00033969286113826394,
				-9.381298563738755e-05,
				-0.00028159407458336566,
				0.0006740371450532118,
				0.0005804214130963818,
				0.0008907862504803857,
				0.0009641209551580717,
				-0.0006998289927836528,
				-0.00015505982791795894,
				-0.0004996982199842158,
				0.0006530471258610728,
				-0.0009200510246807887,
				0.000850524270695011,
				0.00015940335943240682,
				-0.0003488994543814865,
				0.0008692269152085828
			],
			[
				9.361751266151594e-05,
				0.0008037604952258865,
				-0.0009970527921212586,
				0.0004897172266150264,
				0.00022378939434827523,
				0.0005011275857038137,
				0.0006907298774175444,
				0.00034776666501778954,
				0.0008053174128922968,
				0.0007660112269764969,
				0.0008893916639744876,
				-0.0005079509299957157,
				0.0003436792920426656,
				-0.00019423858978802008,
				-0.0009042116236857294,
				0.0001713543927831971,
				0.0008693153683150526,
				-0.00045651478865011243,
				-0.0008448558528649722,
				0.0005842296751269477
			],
			[
				0.0005881406445254376,
				0.00014955589211412476,
				0.0004641641411846408,
				0.0005769465841918568,
				0.00029446523803365533,
				5.6022756078095504e-05,
				-0.0002891450215100831,
				-0.000869885312541739,
				-0.0004832630654503878,
				-0.0007662879142432213,
				-0.00027583025901735825,
				0.0006874161358100914,
				-0.0009931886162434097,
				-0.0005071906792941419,
				0.0007888992586972117,
				0.0005975113232493997,
				0.0006468934556278533,
				4.6384868708291074e-05,
				-0.00047866802200432644,
				-0.0004884245476612486
			],
			[
				-0.0005351421951207804,
				-3.063285887995365e-05,
				0.0006492213124699468,
				-0.00012728027160992044,
				0.0002578033590699754,
				0.0009686728022820232,
				-0.0005466446792463102,
				0.0004602997002103801,
				0.00043535137410311724,
				0.0009149448405969308,
				3.265970666490236e-05,
				-0.0006374924323984752,
				-7.818361011990133e-05,
				-2.9134273842137005e-05,
				-0.0008549466249907911,
				0.000244864716154535,
				0.0005870534566863089,
				-0.00047927128290591134,
				-0.0007712711401749088,
				0.0005265807735910948
			],
			[
				0.00035918433711526867,
				0.0005989257152879896,
				4.6395073168307424e-05,
				0.00021541470576942829,
				0.0001142583665307863,
				0.0005249636005567786,
				0.0008127143549796377,
				0.0002910168290443608,
				0.0009229859739803049,
				-0.0005220481869963138,
				-0.0009964126159952066,
				-6.778902396011174e-05,
				-0.0006717740387163422,
				2.8160473396541532e-05,
				0.0004074595840844906,
				0.0004566884783583896,
				-0.0008596811707676184,
				0.0008239846729865968,
				-0.0005849637077018507,
				-0.0008303642830180302
			],
			[
				-0.0009414029683773138,
				-0.0009994922320389265,
				-0.0006287259251505325,
				-0.0008610093982466731,
				0.0009155437510259409,
				0.0008631121788181372,
				-0.00018938883410619869,
				-0.0008055257159320073,
				-0.000840033137457275,
				0.0005073377906764541,
				0.00038775700545962176,
				0.00020664534053664368,
				-0.0007275889694346396,
				-0.0007131338072127813,
				-0.0007076058565994737,
				0.000245504780286273,
				-0.0001797839862422261,
				0.00042544009362337643,
				3.54170432630232e-05,
				-0.0007999631932840181
			],
			[
				-0.00045372103392512457,
				0.0009303304609675131,
				0.0007261901313012752,
				-0.00034549120948150307,
				-0.00025108628713545894,
				-0.0001131774062973301,
				0.0004979136874888991,
				0.0003595077915420806,
				1.0645021732299653e-05,
				0.0007218738159218991,
				-0.0007068107882995875,
				-0.0007478525794106008,
				0.000359612824385147,
				0.0007126248257410138,
				-6.004344110924209e-05,
				-0.00013280692438005141,
				-0.0003441324781830906,
				0.0005250165990643709,
				0.00024592220418326967,
				-0.000630947208860754
			],
			[
				-0.00010966190120504456,
				-0.0008609745750324016,
				0.000997821359407936,
				-4.919860004204326e-05,
				0.0008795872259856053,
				0.00015191609660897992,
				7.73589050560501e-05,
				-0.0005194918094450296,
				0.00046629580343081453,
				-0.0006898042413785881,
				0.0006400255290758008,
				7.783492948395957e-05,
				0.00018863770121210744,
				0.0003700549081431907,
				-6.558037955101126e-06,
				0.00029842994390610823,
				0.00041651075833059855,
				0.00014827155670836707,
				0.0001813899091378593,
				-0.0006508471700651199
			],
			[
				-0.0009234084845725119,
				-0.0003666560274439699,
				-0.0009878152371106373,
				-0.0003260258252379915,
				-0.00013131630418898468,
				0.0007937281511435754,
				-0.0007262300018038099,
				0.0004132623306300192,
				0.0009280152451239955,
				0.00041230912014480364,
				-0.0003522746388211147,
				0.0007922129589538805,
				-0.000620737223599319,
				0.00047922133424189756,
				0.0006205257739563118,
				-0.0002623253733800195,
				-0.00043370177926455565,
				-0.00041042360368951215,
				0.00031222979736386224,
				0.0007353400246258915
			],
			[
				0.0004893691699148551,
				0.0002707823665739474,
				-0.0005321518898397932,
				0.0006482277363778072,
				0.0004189052706664079,
				0.0009952230608835416,
				-0.0008848568836604616,
				0.00025320699274952924,
				0.000549351579392712,
				-0.0006684289073176815,
				0.00027842956133685044,
				0.0001237089798719114,
				-0.00024096076846103398,
				-0.00024080745687611778,
				-0.0009106835422084274,
				-0.0003790145628204828,
				-0.00025641889452700207,
				0.0006204777566415725,
				0.00015575934598915865,
				-1.52771862886379e-05
			],
			[
				-0.0007435046600836707,
				0.0009336418114151194,
				-0.00024294433297876222,
				0.0006467567152242035,
				0.0007843687326820942,
				-0.000271918593073192,
				0.00028554919653640516,
				-0.00044704300574574236,
				0.0004767364597097637,
				-0.0009630163195396713,
				-0.00012613696608443532,
				-0.00040684137598302565,
				0.0005147364029976572,
				0.0006521128241508856,
				0.0008891461896248902,
				-0.00011083353521844862,
				0.0009061378643294038,
				0.00038008476235775997,
				0.0008555677791681267,
				-7.088256883405536e-06
			],
			[
				4.490861162875846e-05,
				-0.0007213441297470923,
				0.000780607447562792,
				0.0005498131237868665,
				-0.000671724389610771,
				-0.0006437956215864294,
				0.0005106591209288181,
				-0.0004890769787639599,
				2.1272488070769478e-05,
				0.0009265950170353927,
				-0.0009495475506282443,
				-0.00011124916106903518,
				-0.0003269761593300458,
				-0.0005042115201857314,
				-0.00030941330353443015,
				-5.786216220513517e-05,
				0.0003044697931168978,
				-0.0007263278727779306,
				-0.0009003513703013504,
				-0.0005170815977109935
			]
		],
		[
			[
				-0.0006977199507933973,
				0.00026997452672479776
			],
			[
				9.213654122451186e-06,
				-0.00013943044567416127
			],
			[
				0.00011041780736792926,
				-0.0005522997286699585
			],
			[
				0.0006052648451248461,
				-0.0006710061945178411
			],
			[
				0.0003141859633260802,
				5.2310477149508997e-05
			],
			[
				-0.00046882005901524224,
				-0.0002311455707940999
			],
			[
				0.00019546463633042608,
				0.0009029069522496014
			],
			[
				0.0007839634960276061,
				-0.00013761830136956022
			],
			[
				-0.0008096619780508867,
				-0.0007216700188652802
			],
			[
				0.0002784094917152385,
				0.0006888333102645287
			],
			[
				-0.00048517274074991537,
				0.0001070958343288137
			],
			[
				-0.000262306856069896,
				0.0005575437993796284
			],
			[
				-0.000991720984191175,
				0.0009828271402884674
			],
			[
				0.00019190907946956904,
				0.0002534406138426251
			],
			[
				-0.0004004729201938158,
				0.0002464040926956901
			],
			[
				-0.00011432343798832361,
				-0.0009213406125921997
			],
			[
				-0.0007857717659747028,
				0.00031003357307196567
			],
			[
				0.00024324594208412968,
				0.0007690677742646797
			],
			[
				0.00037512934098970596,
				0.0002062695996542538
			],
			[
				0.0004842367317073038,
				0.000936883800813376
			]
		]
	]
}