{
	"model_params": {
		"input_dim": 10,
		"units_per_layer": [
			20,
			2
		],
		"acts": [
			"tanh",
			"identity"
		],
		"init_type": "uniform",
		"batch_size": 16,
		"decay_rate": 0.95,
		"decay_steps": 500,
		"epochs": 700,
		"lambd": 0,
		"limit_step": 500,
		"limits": [
			-0.001,
			0.001
		],
		"loss": "squared",
		"lr": 0.001,
		"lr_decay": null,
		"metr": "euclidean",
		"momentum": 0.4199289601348085,
		"reg_type": "l2",
		"staircase": false
	},
	"train_params": [],
	"weights": [
		[
			[
				0.0005473550930175275,
				-3.7304621694207014e-05,
				0.0003921745072602324,
				0.000598526788880682,
				-0.0008586336491067654,
				-0.00043814390103885865,
				-0.0007654778157951379,
				0.0006514780918079356,
				-3.0813336372357246e-05,
				-0.0009589256124562284,
				-0.00017789544481449336,
				-0.00045986043180289474,
				-0.00012010616078636743,
				0.0009442763972038015,
				0.0005841300972802739,
				-0.0008098310326447527,
				-0.00042829106427886665,
				0.00041973569652401237,
				0.0003047704644362863,
				0.00025404426151218293
			],
			[
				0.0007793364684174988,
				0.000942853574936398,
				0.00011286157548283122,
				0.0007621710771829992,
				0.0008589756292113541,
				0.00024132345213582628,
				-0.000676798486320064,
				0.0006326493594588731,
				0.0006500805911598584,
				2.7722112135593552e-05,
				0.0001769384635200578,
				0.0006625306266328636,
				0.0009761120713495356,
				-0.0008410609892367016,
				7.927395098706247e-05,
				8.606192983662145e-05,
				-0.0009587960418082691,
				-0.0009322956347981757,
				0.0003178416119839428,
				0.0005295259980272595
			],
			[
				-0.0006456967099767122,
				0.0005079370245832965,
				0.000817058746836291,
				-0.00016734410927158239,
				0.000777258555956661,
				-3.637976360725296e-05,
				0.00030942517706457947,
				0.0004917450683047809,
				0.0006938956296920473,
				-0.0005118085847304443,
				0.000553658088723446,
				0.0007135996106226209,
				-0.0003619578279587623,
				-0.000936906408154794,
				-0.00015995763798188592,
				-8.853668595271765e-05,
				0.0007200714381323044,
				0.0004945828841066886,
				-0.00032696587991944907,
				0.0008046814903923353
			],
			[
				0.0005075389715632106,
				0.0006658284335934752,
				0.0008987975153919882,
				-0.0006911823318637813,
				-0.0009056661066662601,
				-0.00022114170958940753,
				-0.00022871335330854287,
				0.00041895557111475763,
				0.00044381899198941673,
				7.753205559748642e-05,
				7.464053964336011e-05,
				0.000509658536590761,
				-0.00033617692872445844,
				0.0004896645464327976,
				-0.0007267783578587124,
				-0.00040911680265630324,
				0.0005346244761041832,
				0.0007195837814192973,
				0.0005239206127962072,
				0.0008157102741862892
			],
			[
				-0.0002524360994925739,
				-0.0005968397529259821,
				0.0006744765564695794,
				8.298294673341746e-05,
				-7.026439640749245e-05,
				-0.00033039918479980934,
				-0.0002715164008444855,
				-0.00030830486289664424,
				0.00016464871620093936,
				-0.0004050314691883859,
				-0.0007288566039475287,
				-0.0008862072972497295,
				0.00047049166798809666,
				-0.0006165064901672852,
				0.00016656549800570485,
				-0.00016026767116242313,
				0.0001633504435430992,
				0.00021618792122744834,
				-0.0006168735731577125,
				-0.0008325993382489721
			],
			[
				0.0008232017467637281,
				-0.0005173909322372572,
				0.0009171547167349981,
				0.00035521248910206195,
				0.00046633241436048957,
				-0.0006562274170285988,
				0.0005007347097418112,
				-0.0009211992311599095,
				0.0008330406400459051,
				-0.00074332035006403,
				-0.0003141913198479381,
				-0.00033147547989704053,
				-0.00031685758248305976,
				0.0008551706635439576,
				-0.00046563216179364316,
				0.0006805300307921691,
				-0.0009394194976546149,
				-1.3485316912565347e-05,
				-0.0009709758299389722,
				0.0008566550962788128
			],
			[
				0.0006837411759276649,
				-4.631566238943205e-05,
				-4.7993398491757576e-05,
				0.000615679452608626,
				-8.463894578660631e-05,
				0.0005765305790417451,
				-0.0008342517856128942,
				-0.0007169413143781169,
				-0.0009294252145682667,
				0.00039019650941614836,
				-0.0007935988753232455,
				-0.0004817066993029062,
				-0.0007320935452570997,
				-0.0008078261087485435,
				4.541325173295155e-05,
				-6.872397423816e-05,
				-0.0005128443381572714,
				-0.0006251176909904568,
				-0.000950059598494738,
				-0.0008933840704609522
			],
			[
				6.248319995659285e-05,
				0.0009304893158859949,
				-2.369894373010031e-05,
				3.4782967227067665e-05,
				0.0002850236252657614,
				-0.00029587263207841487,
				0.0003692612698540682,
				-0.0006250123785048712,
				-5.175202003850749e-05,
				0.00021617658031938217,
				-0.000830786402939546,
				-0.000764300517478423,
				0.0006340996384687221,
				-0.0005827354298775253,
				1.0710590085481492e-05,
				-0.0008205376003288298,
				0.000645948751469273,
				0.0003562457823905233,
				-0.00028837111945058673,
				-0.0004985019626957974
			],
			[
				0.00025648304403462323,
				-0.0006703016209285333,
				-0.0006563107929417462,
				-0.0003060175419350033,
				0.0002946721206826023,
				5.7173879819974027e-05,
				0.0007622427849947617,
				0.0002812018799294867,
				-0.0008551769475670703,
				0.0003815342223039615,
				-0.0005876026529748031,
				-6.311063135084737e-05,
				0.0005882543896439153,
				-0.0005261852342638387,
				-0.00099539136692265,
				-0.0006882163940844974,
				0.0007447721493681798,
				-0.0002751710849998774,
				-0.0004633277483594853,
				0.00047370294244599657
			],
			[
				-0.0004322538080727252,
				0.0007405637057310204,
				0.000975698138988151,
				0.0005734737861281514,
				-0.0007622415804634246,
				0.0007342141785107823,
				0.00011189021449662718,
				-0.0007419582392049226,
				0.0002767412270914854,
				-0.00022263254210976794,
				0.0004272257698022582,
				-0.00036661332221303165,
				-0.0009175842518426953,
				0.0005160179322770517,
				-0.00046923543812825864,
				-0.000518318632507009,
				0.0008840182158932456,
				0.0009291808610652377,
				0.0008432327285591932,
				-0.0006974301752838627
			]
		],
		[
			[
				-0.0003164330611756407,
				-0.00035600519624084015
			],
			[
				2.6044158535134913e-05,
				-0.00020323497649737292
			],
			[
				-0.0007219803975852283,
				0.0007544692563764463
			],
			[
				0.0006444745015327729,
				0.0009098825795573581
			],
			[
				0.00046639697472308046,
				0.00037142121906730665
			],
			[
				0.0009558514009266224,
				0.00015006271134473492
			],
			[
				5.247848797608609e-05,
				7.662263426654872e-05
			],
			[
				-0.0008172960779317429,
				0.0004407324876062218
			],
			[
				-0.00035796458613759484,
				-0.0003497399317317014
			],
			[
				0.0009435236139793304,
				0.00045176440689836126
			],
			[
				0.0002671381793862568,
				0.00010048024728988173
			],
			[
				-0.0004215964808491473,
				-0.0002448897111626238
			],
			[
				0.0008505193713546509,
				0.00015172476184814316
			],
			[
				0.00011872075744837735,
				0.00017015761080524687
			],
			[
				0.0007217568862054173,
				-0.0004767529088268803
			],
			[
				0.0002303645180309849,
				0.0009936078242719186
			],
			[
				-0.00010092317875230435,
				0.0006335276560815589
			],
			[
				0.0004333183784032662,
				-0.00025562825801339747
			],
			[
				0.00030696285960701494,
				-0.0003415815799021948
			],
			[
				6.735057915013506e-05,
				0.000495917800874631
			]
		]
	]
}