{
	"model_params": {
		"input_dim": 10,
		"units_per_layer": [
			20,
			2
		],
		"acts": [
			"tanh",
			"identity"
		],
		"init_type": "uniform",
		"batch_size": 16,
		"decay_rate": 0.95,
		"decay_steps": 500,
		"epochs": 700,
		"lambd": 0,
		"limit_step": 500,
		"limits": [
			-0.001,
			0.001
		],
		"loss": "squared",
		"lr": 0.001,
		"lr_decay": null,
		"metr": "euclidean",
		"momentum": 0.4199289601348085,
		"reg_type": "l2",
		"staircase": false
	},
	"train_params": [],
	"weights": [
		[
			[
				-0.0001337052742365468,
				-0.00046263804870527617,
				0.00013026045088282531,
				-3.268055654585475e-05,
				-0.0009204297189592345,
				-0.00048801116840764156,
				0.000250048151989625,
				-0.0002483123276475807,
				0.0001308717987899598,
				0.0005319274882121686,
				-0.0004236013087874522,
				0.0004772901956361852,
				0.0008776337579531012,
				0.0007857022017457823,
				0.00013306972995033692,
				-0.0006551546192214477,
				-0.0001837070178013616,
				-0.0005042742163194636,
				-0.00015650525578426186,
				0.0002718748179470578
			],
			[
				-0.0007834960137518332,
				-0.0009198892783122338,
				-0.0009138008220113325,
				0.0006739403863336556,
				-0.00015698237024309905,
				-0.00010487410104350974,
				-0.00038326713255067135,
				-0.0004251151983762129,
				-0.0005934635550526539,
				-6.786646887656982e-05,
				0.0004617903985668734,
				0.0005921381896341396,
				-0.0006190647505785687,
				0.0007123914376280897,
				0.0005918089701383627,
				-0.0005727452221827898,
				0.0007150706427930776,
				-9.404175838839549e-06,
				0.00018853806961959484,
				-0.0003902140351302461
			],
			[
				0.0006695577679828807,
				0.0009085537809460803,
				0.0008807506602724361,
				-0.0008985663892585377,
				-0.0004209965099607071,
				0.0006085063977109904,
				-0.0003865003903493232,
				-0.00015820171699894845,
				-0.00017310021755006155,
				-0.00011695396857285955,
				-0.0003863467194615693,
				0.00038749904128791094,
				-0.0005288067616358518,
				0.0008556939402484436,
				-0.00037125246760471306,
				0.0009921475786835022,
				0.0002591838499357722,
				0.00014611631867136724,
				0.0004230339780060752,
				0.0007508859782459614
			],
			[
				-0.0008678588072379194,
				0.00012717097383798661,
				0.0006907359729130804,
				-0.0005364913495353792,
				-0.00013048561735487692,
				-0.0005262683232948229,
				-0.0005231773610808221,
				-0.0009165993820436489,
				0.0007625694845805062,
				-0.000501092144274625,
				0.0007679655497533145,
				0.0009182284249268178,
				0.0006312494081387641,
				0.00026918705348676487,
				-0.0005155213020020011,
				-0.0009243990218833074,
				-0.00037962995217185073,
				0.00017301665860981904,
				7.142753302933637e-05,
				0.0008849364063744029
			],
			[
				-0.0008787168074652394,
				-0.0004983736174819178,
				-0.0006342477862810426,
				0.00024153820200208858,
				0.0001925241153449735,
				-0.00039176907067649356,
				-0.00023602625553685282,
				0.0009592266344295225,
				0.0006273783129595331,
				-1.663007284860617e-05,
				-0.00020420202922348605,
				0.0005415414266078571,
				0.0009315970895578873,
				0.00017650228114808359,
				0.0005238582903263644,
				0.00016807643652476433,
				0.0009137309170126394,
				0.0007111487359563497,
				0.000604491014599586,
				0.0008645855707445857
			],
			[
				0.00040696755139730005,
				-8.484683779057397e-05,
				0.00021600048188053162,
				-0.0005274334857147454,
				0.0009220377185391716,
				-0.0007299630198030613,
				0.0005964798326062216,
				-0.000513830197998368,
				-0.0005437797104214915,
				5.977383441971816e-05,
				0.00018869015501702074,
				-6.257326786230028e-05,
				0.0005878819049843112,
				-0.0005564185325052193,
				-0.0003899578694375878,
				0.0008641796936188842,
				0.000535125784545809,
				0.00017129110872129527,
				-0.0005989092335409658,
				0.00031787393093545
			],
			[
				0.00015989508284823648,
				0.0009115698554028077,
				-0.000615123479853545,
				-0.0007332660929918924,
				0.0003948142119204027,
				0.0007571509640427363,
				0.000995662189003703,
				0.0003392514485401775,
				-0.0007665637350492371,
				-0.00016687963002378562,
				0.0008712888352101075,
				-0.00011754573563029598,
				-0.00044677144758810123,
				-0.0008615542634174606,
				-0.000595294594090628,
				1.1342698464734307e-05,
				0.0005157644914797915,
				-0.0009341064796771914,
				-0.0005138384756721375,
				-8.682293539608412e-05
			],
			[
				-0.0006914863951373376,
				-0.0009399391965425714,
				0.0006706565704035804,
				0.0009578078750841755,
				0.0004625764604205727,
				-0.00011139436731941773,
				-0.0004867578520878086,
				0.0005541320372537703,
				-0.000656079155756887,
				-0.0009666476570946967,
				-0.0002148218418618435,
				-0.0005251528091909046,
				-0.0005714988276241817,
				0.0009478977983030427,
				0.0006414973455055003,
				0.0005179973607740279,
				0.000427987853716171,
				-0.0004663799567035989,
				-0.0008456517033176978,
				-0.0006213014929277196
			],
			[
				0.0009345153213475377,
				0.0004610830013511663,
				-3.6348980285540525e-05,
				-0.000488742378721088,
				0.0006471954561648179,
				-0.0006952104269020546,
				-8.80147149701061e-05,
				0.0007500092493746054,
				-0.0005365733389801535,
				-0.00036195417082634314,
				3.0031660445874013e-05,
				-0.00010895628772907462,
				-0.0007296753216546016,
				0.0002509990814088545,
				0.0008435450591810379,
				4.8926553639394446e-05,
				0.00047121226040785775,
				0.0006438451908698205,
				0.0009700362872164495,
				-0.000927774597124466
			],
			[
				1.1652320208492334e-05,
				-0.0009925108376071141,
				-0.0005699214670491668,
				0.0008757232929533876,
				0.0006281796533618136,
				0.0008088580172677731,
				0.0006331016676727941,
				0.000224943457375483,
				0.000706276066227334,
				-0.000246025954465521,
				0.00032673853989043664,
				-0.000512466867466503,
				0.0004366886084461504,
				-0.00033458455225571823,
				-0.0006919122916834175,
				-0.0003229619250829923,
				8.448836162424549e-06,
				-0.0007491060007352151,
				0.00041971738940993833,
				0.0008801145485044302
			]
		],
		[
			[
				0.000946856207681326,
				-0.0006009754230969417
			],
			[
				0.00042401257254186405,
				-0.0006168966696235827
			],
			[
				0.00030307247635065243,
				0.0006263900398479352
			],
			[
				0.00093708160012783,
				0.0007003952403813653
			],
			[
				-0.00023091950453477312,
				-0.00045722179863128746
			],
			[
				0.0007863054213821043,
				-0.0004829757589392054
			],
			[
				-0.00033287900885672667,
				0.0004647649987913633
			],
			[
				-0.00028672119942540044,
				-0.00042401602858706223
			],
			[
				-0.0005378427729542958,
				-0.0005924006559945652
			],
			[
				-0.0003801924703298225,
				0.0007465115544197773
			],
			[
				-0.0002594991390512107,
				0.00038433313010437036
			],
			[
				0.0003163704309014459,
				-0.0009090132949396466
			],
			[
				0.00015359292913083686,
				-0.00045668182778190185
			],
			[
				0.0005038579209178775,
				-0.0008956129122313051
			],
			[
				-0.0004883254210799031,
				-3.6570534619831245e-05
			],
			[
				-8.067552667662885e-05,
				0.00024429527765934544
			],
			[
				0.0005539047502913731,
				-0.0006807374696667578
			],
			[
				0.00013697929182733396,
				-0.00045149828799269127
			],
			[
				0.0003045986739075937,
				-0.000697232868921539
			],
			[
				-0.0006358751678913526,
				-0.00031610754370423554
			]
		]
	]
}