{
	"model_params": {
		"input_dim": 10,
		"units_per_layer": [
			20,
			20,
			2
		],
		"acts": [
			"leaky_relu",
			"leaky_relu",
			"identity"
		],
		"init_type": "uniform",
		"batch_size": 200,
		"decay_rate": 0.95,
		"decay_steps": 500,
		"epochs": 800,
		"lambd": 1e-05,
		"limit_step": null,
		"limits": [
			-0.001,
			0.001
		],
		"loss": "squared",
		"lr": 0.005,
		"lr_decay": "exponential",
		"metr": "euclidean",
		"momentum": 0.6,
		"reg_type": "l2",
		"staircase": true
	},
	"train_params": [],
	"weights": [
		[
			[
				0.00048673497693611334,
				0.00042973587620228357,
				-0.0002253794874791901,
				-1.070985972334332e-05,
				0.00047587535832286395,
				0.0007485375474817701,
				-4.0217218744663494e-05,
				0.00047199154007151784,
				0.00034213553678470493,
				-0.0002990381374821262,
				0.00047367139482377366,
				-0.0009122719006918198,
				0.0007618185103722178,
				0.00013907717657941324,
				0.0008403433346904658,
				-0.000690471168144474,
				0.0008844999256026264,
				-0.0005236092167138326,
				0.0002565570731251159,
				0.0006379218421673006
			],
			[
				-0.0008539016400112065,
				-0.0004698270675427876,
				-0.0009008431033987516,
				-0.00020093871713857032,
				-0.0004244988859498424,
				-0.0001980031046533204,
				0.0007822561740425558,
				0.0004851087135462578,
				0.00042175313403339763,
				0.0009825863466798607,
				-0.0004160108596593462,
				0.0005257253625770206,
				0.0007358716829166416,
				-0.0007365392399863304,
				-0.0008100240232344118,
				0.0005917907176273896,
				5.3505303514815626e-05,
				0.0002441691902693977,
				1.3452355052752992e-05,
				-0.0008076794504471298
			],
			[
				0.0005967232291499665,
				0.0006618065359360323,
				-0.0006249381432297274,
				0.00021837082334733634,
				9.980348055004733e-05,
				0.0005073341037028414,
				0.0006457837828345945,
				-0.0004163741170980002,
				0.0006387454470888623,
				0.0004069346702367429,
				0.0006241490653443094,
				0.0004390016589805,
				3.915910889553168e-05,
				8.077413293925209e-05,
				-0.0004867153051941218,
				0.000646669698335103,
				-0.00012201844317170224,
				-0.0006347529754690591,
				0.00022890836469159322,
				0.00015504724421097475
			],
			[
				0.0009063199062453056,
				0.000447784970313631,
				-0.0007573554296306013,
				-0.0009714001863567423,
				9.244186967614508e-05,
				0.000799783129888992,
				0.0009687827659337666,
				0.0007369255577718149,
				0.0009238748879044462,
				-0.0007209406316537033,
				0.0001285332842931744,
				-0.0007558097025095958,
				0.00035692271212359314,
				-0.0001553038173507784,
				-0.0007254828092762183,
				-7.62056727933334e-05,
				0.0005973097125472793,
				-0.0009169238744537697,
				0.0006033555923593984,
				0.0002737649619165342
			],
			[
				0.0009457562756905276,
				0.000644740318653912,
				-0.00017973727147015887,
				0.0008469600875372744,
				0.0006915234672348375,
				5.199252201780924e-05,
				-0.00022305697868934995,
				-0.0003023079219446967,
				-0.00029500542116173807,
				-4.508781219002159e-05,
				0.0009332487254616138,
				-0.000925339720774681,
				-0.0007810389119424825,
				0.0009528116375201925,
				0.00029767033273530165,
				-0.00021033659070903799,
				-0.00010317102939667194,
				-0.0007321844562618871,
				-0.00014744107453466837,
				-0.0004068474881608002
			],
			[
				-0.0005635643439921101,
				0.00025653118922398994,
				0.0008151675613438951,
				8.107750339347679e-05,
				0.0006500292352229133,
				-0.00020887901486754082,
				0.0007501399480096846,
				2.4346418274025835e-05,
				-0.0004858529307529049,
				2.033685777216355e-05,
				-0.0008754125204539265,
				0.0002962121942863842,
				0.000235495720987724,
				8.790879645521497e-05,
				-0.00010793998967240808,
				0.00037527765970154017,
				0.0009041729749890922,
				-0.000373209144842763,
				0.0003752403964179241,
				-0.0007571589526361717
			],
			[
				-0.00017033777581774642,
				-0.00017529506987527625,
				0.00042367221042355157,
				0.0007494393029362438,
				0.00048499883691682896,
				-0.0006880608825554078,
				0.0008055497229043128,
				0.0006384491385516967,
				0.0005923737657141336,
				-0.0007417842852171633,
				0.0006287521144183201,
				-0.000519303547809809,
				-0.0009199607757417101,
				0.0008327592024894572,
				0.000893650892707818,
				-5.2313031537064205e-06,
				-0.0001177459156907674,
				0.000919694815297316,
				-0.0005179187492602984,
				0.0009478883524176821
			],
			[
				0.0007395572007928746,
				-0.00025944916348281423,
				-0.00020499429587328357,
				0.00032720138529776575,
				-0.000894138871096307,
				0.00012536870209294546,
				0.0008870167933277971,
				-0.0006879165091426687,
				-0.00041075315666348083,
				0.00040489812304704857,
				0.0004443795806015338,
				0.00013121170017764243,
				0.0009334943915608126,
				0.0007843795880877599,
				-0.0006049123431312287,
				0.00015673563006988155,
				0.0005822146665710472,
				-0.0005455188522451588,
				6.283293883680569e-05,
				-0.000515846824837723
			],
			[
				0.0008832159410223806,
				-0.00016153381765612765,
				0.0003516206291035802,
				0.0003677850580751721,
				0.0008801920207512741,
				0.0007715533573737976,
				-0.0005685206437917261,
				-0.00043610805624315894,
				-0.0005981675027949805,
				0.000993569997981157,
				0.0008733225040877476,
				-0.0007891276535096808,
				-0.0001091073022614304,
				-0.0002556134887600434,
				0.0007102430216830307,
				0.0003751916296945547,
				0.00036968170167066055,
				-0.0009145110685119795,
				0.0008892137263427542,
				0.0002100649329116245
			],
			[
				0.0003726476605365376,
				0.00011011711655082071,
				0.0009090380364765959,
				2.7053279402906383e-05,
				-0.00016732285340626365,
				-0.0005447154525176985,
				0.00029686167168180354,
				0.0006556358197678995,
				0.000913288294911375,
				-0.00045830094809351583,
				-0.0006228569640748683,
				-0.0007267532029474278,
				0.00010191079747239756,
				0.000798463337666954,
				0.0006556603719631421,
				-0.0003653427459462393,
				0.00014159868199671967,
				1.9948955598966377e-05,
				-5.646600541465237e-05,
				-0.0009647666546719929
			]
		],
		[
			[
				0.0009576608332173618,
				1.8530326673822e-05,
				-0.0002230754356493498,
				-0.0006414241307893045,
				-0.0009406140679038644,
				-0.0003952044033198152,
				9.990750358608884e-05,
				2.780396297851406e-05,
				-0.0005921496950416416,
				-0.0007736982451017846,
				2.3387217624543316e-05,
				-0.00011385169948894007,
				0.0006194237881407081,
				0.000496803805304517,
				-0.000687885707609655,
				-2.5310098227896696e-05,
				-0.0005423230350835371,
				-0.0004596708752955121,
				-0.00039726449625349634,
				-0.0009639215857935844
			],
			[
				0.0005847691460885865,
				-0.0008593416939602235,
				0.00016914369306180637,
				0.000955055313915521,
				0.0006114195557719285,
				-0.0006516542161545977,
				6.335397409012729e-05,
				0.0005922917297174132,
				-0.00031551268997792234,
				-6.049309793611517e-05,
				0.00037126756660517705,
				8.10567836181358e-05,
				0.0005144879336746709,
				0.0004288969860486347,
				-0.00025968035251727924,
				0.0006576910494367754,
				-0.0007471826510510118,
				0.0001613748839657239,
				-0.0005078735143510822,
				0.0007323850109965521
			],
			[
				0.00043187238289664324,
				0.00015661847129039438,
				0.0004715800687532816,
				-0.000424018957248409,
				0.0006173127629684849,
				0.00016735409424324557,
				0.00013348439974627093,
				0.0007229789973899473,
				-0.0006362549042810837,
				0.0004676565601307433,
				-0.0009043138177032508,
				0.0007403297492782639,
				-0.000497859665472119,
				0.0007841730199767323,
				-0.0005313565811953774,
				-0.00020986011047243423,
				-0.0009539048602187708,
				0.000380815630715932,
				0.0008265305706185338,
				-0.00027204293344473146
			],
			[
				0.0006951833076854091,
				0.0005516522522646893,
				0.00014907897384936635,
				-0.0009196198891309277,
				0.0003718475837985256,
				0.0004398314360541343,
				-8.19423946578563e-05,
				0.0005517608748181427,
				0.00036955864764239075,
				0.00013729294836132525,
				-0.000234912686151324,
				-7.053731711586543e-05,
				-0.00017862890348669877,
				-0.0004234366216182532,
				-0.0006159981346082221,
				0.00029225423922495716,
				0.0004683156519864522,
				-0.0005531279080655589,
				0.00016271130847614638,
				0.00010144929733284062
			],
			[
				0.0003607326384050184,
				-0.00012188627507988257,
				-0.0009503989819345493,
				-0.0006822276715360662,
				0.0003830547956918814,
				-0.0004043851179155282,
				0.0005961588615096488,
				-0.00013579786213910251,
				0.0009537832128990718,
				0.0006549998308323336,
				-0.0005147465350030005,
				0.0008106358385109021,
				0.0004783514799190842,
				0.00011573068071790682,
				-0.0002968353892431608,
				-0.0005543419068549336,
				0.0007959934870557341,
				1.867171819649083e-05,
				-2.8490261090599275e-05,
				9.008518174206384e-05
			],
			[
				0.0005777328958385339,
				0.0005505598004700144,
				4.914494847898946e-06,
				-0.000981247894776301,
				-7.62659978925577e-05,
				0.00020250875800238168,
				0.0007395558139528166,
				7.686840427685734e-05,
				0.0007148998948910031,
				-0.00024365130623878553,
				0.0009718457781906515,
				0.000999725422956935,
				0.00042734806463002,
				0.0005343420712371418,
				-0.0006076217464223886,
				0.0009730470229792178,
				0.0007896523035053797,
				0.00021263387507974114,
				-0.0001690303129506603,
				0.00034429379451172645
			],
			[
				0.00044562979185718,
				-0.0005913655442539281,
				0.00023572147427862998,
				0.0004698609196398349,
				-0.0002811199791668711,
				0.0004020265432087141,
				-0.00017568673429024133,
				-1.4485254855517394e-05,
				-0.0007972180430756333,
				2.5110862816851232e-05,
				0.0009520569014698258,
				-8.53519789505002e-05,
				0.000916292526681669,
				-0.00032888622131334387,
				0.0006392788958868632,
				-0.00025789222443722414,
				0.0005516097649755556,
				-0.0005863766841266553,
				0.0004752258235883717,
				0.00019113553994576067
			],
			[
				-0.00042577243922115374,
				-0.00016188441828521706,
				0.0003131039585801672,
				-0.00012816710467073995,
				-0.0009866135421065015,
				-0.0008692836646166693,
				-0.0003511924931884065,
				-1.882922082594449e-05,
				-3.660457592120415e-05,
				0.0008213912417064731,
				-0.0001332830556669848,
				-0.000404939684323683,
				-0.0008525323417012518,
				0.0007818718121886125,
				-0.0009692771521948834,
				0.0003506122584323746,
				0.000383417135175055,
				-0.0005423769801566756,
				0.0005012977217382232,
				0.00029956436097115314
			],
			[
				0.0002886219332902426,
				-0.0008095017632968717,
				0.0004554593376684449,
				-0.00048282236448970073,
				0.0009968846824407141,
				-0.0003651101770250968,
				-0.0007512639911431531,
				0.00044013856294535816,
				0.00032286912368934906,
				-0.0009128836409256211,
				-0.000372908840285139,
				-0.0009807200911571873,
				-7.296827854351201e-05,
				0.0009850199388772743,
				-0.00018891347610553182,
				0.0006589515624031558,
				0.0007098573131214096,
				-7.899285176898906e-05,
				-0.0006360058378855138,
				0.0009000898076137794
			],
			[
				-0.00029829703386929896,
				0.0003717774370648318,
				0.0006262357604529371,
				0.0002098978871004698,
				0.0005493890870558863,
				-0.0005795463464355033,
				-0.0005894363670607923,
				0.00017540283064628056,
				-0.0007783716572046051,
				0.0006163453426524981,
				-0.0004575507537467119,
				-0.0004802947853231672,
				0.0007390889609084521,
				-0.000536737203245729,
				-7.099695352006633e-05,
				0.00021367493303648798,
				0.0009311880838496511,
				0.0007673744815035362,
				0.0002986251764707179,
				0.00030189420935248677
			],
			[
				0.0005799025062316753,
				0.0009932308121632484,
				0.000862167389648001,
				0.0005888341975429016,
				-0.0009718923023670727,
				0.0005700750559304384,
				-0.0008356362353453277,
				0.0005354472589518557,
				0.0001420451476614867,
				0.0006838869822349749,
				-0.0008568231038503013,
				-0.000300607419430478,
				6.985009992581197e-05,
				0.0007475091149478342,
				-0.0004991686818134331,
				-0.00020876577653599802,
				0.00029150574106480637,
				0.0004274198113545433,
				0.0007168591402857644,
				-6.440849960984325e-07
			],
			[
				3.2439031639887534e-05,
				-0.0005794314805914918,
				-0.0007308983869247752,
				-0.00040845751900480786,
				0.0004733596420266992,
				-0.0009856959851809455,
				-0.00015696955077139732,
				-0.0004696827323612205,
				-0.0006818481614465593,
				0.0006759456568544353,
				-0.00037725562470314095,
				-0.0002221126745268454,
				0.0007024756354309491,
				-8.756866836737794e-05,
				0.00011929181608257076,
				0.0006837816363496015,
				-0.000453071290204363,
				-0.0001019111730330164,
				0.0006878700984912409,
				-0.0007516665978934725
			],
			[
				0.0004811143856886847,
				-0.0008494140020483551,
				-0.0008921829141562776,
				0.0009081701264132941,
				-0.0005166905877850334,
				0.0003607640250356003,
				-0.0003300345677746912,
				-0.0008110682663038488,
				-0.00019711796847573387,
				-0.0003355451443154807,
				-6.648670903975913e-05,
				-0.0008739742788272185,
				-0.0009585040577309169,
				0.0005918253128496425,
				-0.0003967289273582675,
				-0.0005461124096495365,
				-0.00023008346812954095,
				0.0006241490275995692,
				-0.0001135615822498399,
				0.0003029411455508981
			],
			[
				0.000543033282970872,
				-0.000403338608593584,
				-0.00035587023016435903,
				-0.0007862914258369824,
				-0.0008390207198798268,
				0.0006459154144964796,
				6.250237569927039e-05,
				-0.0005287557301951875,
				0.00012905776340104477,
				0.00037325291145009847,
				-0.00016919441017052472,
				0.0006214384719880988,
				-0.00038227324355622546,
				0.0006378045344290677,
				0.0005961153941130809,
				-0.0005505414111305813,
				-0.0009041863756340722,
				0.000556238783599739,
				-0.0005843373601495457,
				-0.0008488238263205006
			],
			[
				0.0003319564593256474,
				0.00024768108801151434,
				0.0004571418016863771,
				-0.0008797367455170167,
				0.00020170112647630327,
				-0.0001384555037107038,
				-0.0003653446233540334,
				0.0008240008120558087,
				-0.00035172360434782576,
				-0.00017706544860914702,
				-0.00046805872793618186,
				0.0002118567403912269,
				-0.0006577672976626472,
				-0.0009333738479594909,
				0.0003967708471080604,
				-0.00024002828725917238,
				-0.0006143657352227769,
				0.0006119319347898452,
				-0.0005444616722616649,
				-0.00037687001444997015
			],
			[
				-0.0005104404900497821,
				0.00037958539223184617,
				2.3384543862843424e-05,
				0.00014692492253120712,
				0.0008708831870481533,
				0.00010144592578842197,
				-4.344377878249888e-05,
				-0.0003771482737767322,
				0.0008568857179455771,
				-0.0002702004198143242,
				-0.0001244541429770656,
				0.0004786419849214102,
				-0.00013356770463754093,
				-0.0001625501798488485,
				-0.0008500628554362877,
				-0.0002951836084074133,
				0.000994798122483682,
				0.0005344561069488254,
				-1.15271964786516e-05,
				0.00011836996346194554
			],
			[
				0.0004687154806666681,
				0.00045301272627795534,
				-1.6222060650986168e-05,
				-0.0007107636121465664,
				0.000132614898185348,
				-0.00040452575548630425,
				0.00040381011246273585,
				-0.0008647326183223228,
				0.0009402512358355959,
				-0.00015732550543174815,
				-0.0003485491847906024,
				-0.0008270875607996615,
				0.00045275990577758624,
				0.0004786901762195001,
				-0.0004925826724176505,
				0.000994236891471983,
				-0.00081308818654687,
				0.0007120415917790312,
				-0.00037246551317959907,
				-0.0007234137818049882
			],
			[
				0.0006273613662342427,
				-0.0007864391615492857,
				0.0005703572509158053,
				0.00034617692642883394,
				0.0006929581056592093,
				-9.539168598187288e-05,
				-9.791455705691378e-05,
				0.0005413613942413895,
				-0.00046301471409326855,
				0.0008909370414814319,
				6.313490834505614e-06,
				0.00037245377753937384,
				-0.00035630246843065523,
				9.357054710613195e-05,
				-0.0006229753392876531,
				0.00013868540488199527,
				0.00021156970628931826,
				-0.0004909997653265068,
				0.00019576372967294257,
				-0.0009685268797063933
			],
			[
				-0.00015260549653054638,
				-0.0006461353024420466,
				-0.00045145848972036773,
				-0.00029440955802979786,
				0.0002609493243155307,
				-0.0005423123640145251,
				0.0006858397647846767,
				-0.0007841270317848017,
				5.6207559375060986e-05,
				0.0009724258771870377,
				-0.00032783774747252115,
				0.0009874293635182864,
				-0.00021071139646822656,
				-0.0008573949560151868,
				0.0004275174706681723,
				-0.00013879651862824468,
				-0.00010041174354783573,
				0.00028248267939003134,
				-0.00039039159207130596,
				-0.0007005644868030054
			],
			[
				0.00018093193379332593,
				-0.0005700609510933461,
				-0.0009408623090432427,
				0.0006508862578470363,
				-2.7123031845545506e-05,
				4.566988398109571e-06,
				-0.0005832925581063782,
				-8.959103302040616e-05,
				-0.0001749973699805376,
				0.0005717992315643317,
				-0.000244338585480034,
				-0.0008492258762150887,
				-0.0005680186565570871,
				-0.0003249202439494918,
				-0.0008015043185004942,
				0.0004037385557314032,
				0.0008561401858320572,
				-0.0003564272896674856,
				-0.000892198994404748,
				-0.0006957701574642345
			]
		],
		[
			[
				0.0005306810144937414,
				0.00043882038594432677
			],
			[
				-0.0007104684500045257,
				-0.0001162991272323406
			],
			[
				-0.0004417766029534615,
				-0.00043959965454343816
			],
			[
				-0.0007704937742352473,
				0.000977437628294049
			],
			[
				0.000556123946162344,
				-0.0004324780720799115
			],
			[
				0.0003253456302702948,
				-2.0621524009633825e-05
			],
			[
				-0.0009799797069863013,
				-0.0009200268562360561
			],
			[
				0.0009804597652654469,
				0.00038816109352635413
			],
			[
				0.0005507525893558973,
				-0.0003071659798099828
			],
			[
				0.000256376358854269,
				0.00021561785759296038
			],
			[
				-3.698870076261911e-05,
				0.00036437184478284464
			],
			[
				-2.474096048112257e-05,
				0.0005115918782476704
			],
			[
				-0.0005260999308463524,
				0.0005078767595976172
			],
			[
				-0.0003390781886496928,
				0.00011219605898619544
			],
			[
				0.0004011251615845203,
				0.000748072793709837
			],
			[
				0.0003780074249528406,
				0.0009626775112982796
			],
			[
				0.00034061608199569297,
				0.0004875593904693056
			],
			[
				-6.202879811608342e-05,
				-0.0006989061942664114
			],
			[
				-0.00012366532860007555,
				-0.0008491327935954032
			],
			[
				-0.00036632451392697326,
				-0.00040539015966802646
			]
		]
	]
}