{
	"model_params": {
		"input_dim": 10,
		"units_per_layer": [
			20,
			20,
			2
		],
		"acts": [
			"tanh",
			"tanh",
			"identity"
		],
		"init_type": "uniform",
		"batch_size": 100,
		"decay_rate": 0.95,
		"decay_steps": 500,
		"epochs": 150,
		"lambd": 0,
		"limit_step": 500,
		"limits": [
			-0.001,
			0.001
		],
		"loss": "squared",
		"lr": 0.01,
		"lr_decay": null,
		"metr": "euclidean",
		"momentum": 0.6,
		"reg_type": "l2",
		"staircase": false
	},
	"train_params": [],
	"weights": [
		[
			[
				0.0001461172712871855,
				0.0005569552462540758,
				-0.0008715145088070205,
				6.14276742832104e-05,
				-0.00023778067902252228,
				0.0007852823379580411,
				-0.000992083931538727,
				0.000951406026652345,
				1.682657081516245e-05,
				-0.0006670007578340693,
				-0.0002868228891021882,
				-0.0008827771303907787,
				-0.00018869817763477,
				-0.0007094517343218336,
				0.0003661345426650361,
				-0.0009576652900151286,
				9.093364848039923e-05,
				0.0007163899459274356,
				-0.0002052013127106818,
				0.00047845176960679796
			],
			[
				-0.00027584249490896905,
				0.00018140466896839373,
				-0.0007733301271560797,
				0.0007484915258523166,
				-0.0002777714797071631,
				7.11772937091377e-05,
				0.0008157033431328117,
				0.0003091475659135121,
				0.0003633307397593764,
				0.0005336776045332776,
				0.0005595405344405195,
				-0.0009820763074133642,
				0.0006697891183746587,
				-0.0003903570666750418,
				-0.0006209789172182867,
				-0.0007919217039350599,
				-0.00026325938076204,
				0.0009676875687319435,
				0.0005466550078069804,
				0.0006744012014457551
			],
			[
				0.0004487294951410121,
				-0.0009329791730841681,
				0.0008431105932126676,
				-0.0007701528232260274,
				-0.0005283376717715334,
				-0.00026716086415340715,
				0.0004389359038625188,
				-0.0009762012144407395,
				-0.0006596113323974733,
				-0.0007952250571370294,
				-0.0007032863152680834,
				-0.00038695840714955394,
				0.00017377931370821478,
				-0.0004123951921587828,
				0.0002762166370944535,
				0.00031574864215034464,
				0.000620714354986015,
				0.000507775150886782,
				-0.00016740448092626313,
				0.00043253061677099927
			],
			[
				-0.0002190034097645379,
				0.0007795706994811133,
				-0.0007293798315782889,
				-1.1063420510868923e-05,
				-0.0004815778258229937,
				-0.0003551825718891257,
				0.0005229850788597834,
				0.0006849725784675647,
				-0.0007820520170099899,
				0.000824529219158505,
				-0.0004817672705234868,
				0.0002684904136172979,
				0.0009888626732722844,
				0.0006941286027517697,
				0.0005522199474563274,
				0.0008527255998632898,
				-0.0005873981199600631,
				-0.00047874761992232557,
				-0.0008919161371648599,
				-0.0008880591949297769
			],
			[
				-0.0009122505396626088,
				0.00021507830378377293,
				0.0005698302403324789,
				-0.0003904445840232771,
				0.0008599530842068955,
				-0.000894696084428692,
				0.0008081420542709493,
				0.0004675703857077208,
				-0.0006807928573433537,
				4.007878988089141e-05,
				0.0004295377583866742,
				-0.000946580822179423,
				-0.0007640649771608113,
				-0.00013905825729827552,
				-0.000993175161978125,
				0.0009043742949611197,
				0.0007879321586185407,
				-0.0006864015473632531,
				-0.0008000418506078086,
				-0.000578758476405348
			],
			[
				-0.0009863458286112424,
				0.00047148940568427617,
				0.00011508244306620793,
				0.000595176208885551,
				0.0009552368912767203,
				-0.000766475896687939,
				-2.671360075738008e-05,
				0.0005158405377321147,
				-0.0006392099207397828,
				9.47552927112016e-05,
				-0.0009472742538026276,
				-0.00047911698382687004,
				-0.0004907981848911311,
				7.387694320691108e-05,
				0.0006548407491731856,
				-0.0006180514278952489,
				0.0001431037729152933,
				-0.0009391414744820895,
				0.0007865489558327356,
				-0.0009730154480125701
			],
			[
				0.0001486753086670288,
				4.4969079796731894e-05,
				0.0008678089813946453,
				0.0006906375243169094,
				-0.00037336580855873707,
				0.0009927074181159045,
				-0.00046479754324032683,
				-0.0005697443546502401,
				0.000198151954516046,
				0.0006975771484042468,
				0.00033579041530677864,
				6.153495872634465e-06,
				9.191763774303021e-05,
				-0.0005527118716461285,
				0.00039863817512012585,
				-0.0008270952579354409,
				0.0009535978454371114,
				0.0009662694636892091,
				-0.00028180082269571225,
				0.00010036075417985818
			],
			[
				0.0003193036267777631,
				0.0002823573767035208,
				-0.00022610554016292133,
				0.0007617461780038306,
				0.000298794632854596,
				-0.00048286199198545646,
				0.0005122180548187171,
				0.0006188474764548283,
				0.0004610656222384436,
				0.00020095960944625292,
				0.0002598964820815085,
				-1.0143890887834642e-05,
				0.0005323170901621948,
				0.0009677032127726449,
				0.0001049788733794414,
				-0.00038623395293246193,
				0.00013112258023599294,
				-0.0008648771284705721,
				0.0008870162588942292,
				-0.0008569295327967097
			],
			[
				-0.0005252900245939459,
				-0.0006408665415211304,
				0.0008553907449947921,
				0.0002675526678991892,
				-0.0005044489776595513,
				-0.0002499975316653778,
				0.0005316435042244311,
				0.0009281882500084906,
				-0.0006640164052954605,
				-0.0008661901768643026,
				-0.0008116014234903276,
				-0.0003024196666329078,
				-0.0007224100351485144,
				-0.0009939762914251533,
				-0.00037958527508970773,
				-0.00020809552912213667,
				0.00046243642169250545,
				0.00015761264734279277,
				0.0005007876612096412,
				0.0009197222940565812
			],
			[
				-0.0006437896192953443,
				0.0006450113399195554,
				-0.000784336910788693,
				-0.0009236917828113369,
				0.0009255864417721121,
				-0.0008117037451576039,
				0.0007428808879787517,
				-0.0002119455111619775,
				0.0009884089567264486,
				-0.0009861989768396376,
				-0.0009983419615407277,
				4.8537935663858e-05,
				0.0008090689145191273,
				0.0007698800474260576,
				-0.00021194773342093703,
				0.00024239348712201767,
				-0.0003095646875244944,
				0.0008989862696680596,
				0.0005140797440387505,
				0.0006926157607728578
			]
		],
		[
			[
				0.00021671714090479256,
				-0.0003522291504833861,
				-0.0007256193429408906,
				0.000811315245135281,
				0.0005371339969116305,
				-0.0005199952929487939,
				-0.0008696630236083381,
				4.664580263671046e-05,
				0.0003296143235615909,
				0.0001549703944952838,
				-0.0005407262430421278,
				0.0009845213186258426,
				0.0003469468383699391,
				0.0005183969408374847,
				0.0005394688210181903,
				-0.00020045511080085546,
				2.2555623487023786e-06,
				0.0006897883510121386,
				0.0006358924582954566,
				-8.113734490698991e-05
			],
			[
				-0.0003658949515810717,
				-0.00020269815948218371,
				-0.0009544232891396796,
				0.0008513155190626829,
				5.606013963258081e-05,
				-7.255614054090789e-05,
				0.0004941820213355591,
				-0.00048306739836986097,
				-0.0005896733449010164,
				0.0003305850001191766,
				-2.743806287430078e-05,
				0.0003422857696067274,
				0.00034530048883975035,
				-0.0008380250344118949,
				-0.00044228321813478066,
				-0.0009685775088019975,
				0.0007297170809420438,
				-0.00020617386314097572,
				0.0002204544780559602,
				6.608653749614582e-05
			],
			[
				-0.00037464935914191446,
				-3.9678028781805303e-05,
				0.0008045213201968676,
				0.0006432572625628932,
				-0.0008973512238461541,
				-0.0001640765267968689,
				0.0009325635262181326,
				0.0002627423707029402,
				-0.0006228357742873,
				-0.0004948889114875992,
				-0.00020746158442573343,
				-0.00034251701624220395,
				0.0005299325632936148,
				0.00016930633930610983,
				7.282699864997653e-05,
				-0.000727315619142404,
				0.00024178818232296353,
				0.0007271929070371476,
				0.0004737586680638561,
				-0.0003753267731364876
			],
			[
				-0.0003941369647352406,
				0.0005295854908775955,
				-0.0005720633113164144,
				-0.0009672937592342097,
				0.0003659801860000857,
				-0.00041197682235753535,
				0.00014603187926219975,
				-5.563407796349074e-05,
				7.951931658581974e-05,
				0.0009728458462235465,
				0.0007039033197062006,
				-0.0008750493337786174,
				-0.0008643964865648504,
				-0.0007534645294031408,
				0.00019537026168144392,
				-0.000522265930867174,
				0.0005644278755285725,
				-0.0008156670406437288,
				-0.0007827891851827705,
				0.000578280234618412
			],
			[
				-0.0007945906606271442,
				0.0009197065544351269,
				-0.0009236938007011171,
				0.0007739848707956742,
				7.200068463952391e-05,
				9.28526337292488e-05,
				-0.00031137199241349964,
				-0.0008636869566758633,
				-0.00043670108389154546,
				0.0007685156873395657,
				-0.0009087020447237429,
				0.00031221943514345954,
				-4.485895981162227e-05,
				0.0001687450537429182,
				-0.00038609199970879196,
				-1.4709741283935396e-05,
				0.0006068954526502756,
				0.0003527951951959982,
				0.0008694321699355438,
				7.570599356179503e-05
			],
			[
				0.0003528122882992689,
				-0.00013252152905960984,
				0.0006538690793420837,
				0.0005017163749674223,
				0.0007898062262376786,
				0.0007481695225066711,
				2.198145550651046e-05,
				0.0007575424903537454,
				-0.0009562569393025855,
				-0.00084737242673998,
				3.828448598036161e-05,
				-0.0007609221121387408,
				0.0002777057999887669,
				-0.00022512604792473945,
				0.00019822550793918876,
				7.173171810814327e-05,
				-0.0005417096839493662,
				1.5327066395650138e-05,
				-0.0003220816942550935,
				-0.000492986542802834
			],
			[
				0.0007194077390869967,
				0.0006178931560036566,
				-4.085557692691457e-05,
				-0.0006027219303076019,
				-0.0007839376115599748,
				0.000913897427861351,
				-0.0007135056838664445,
				-0.00020078269348892475,
				-0.000727210340793913,
				0.00010712497578788528,
				0.0007820581473727667,
				0.0008160043728015426,
				-0.0006986455854280428,
				-5.050637470204106e-05,
				0.0001345464305866006,
				0.0003208770114721544,
				-0.0009181096227115762,
				-0.0009872243633173813,
				-1.2868705071621394e-05,
				-0.00024861234430453806
			],
			[
				-0.0005509832434922484,
				-0.0008079379916170031,
				-0.0008196988578154683,
				-0.000485752448704178,
				-0.0001029768836009646,
				-0.0009729399479419432,
				-0.0006205810040878044,
				-0.0005448060845652713,
				0.00025405441194010993,
				-0.0008320395605646596,
				9.67657816007743e-05,
				-0.0008316287336467316,
				-0.0006418480094827692,
				0.0006240350127169501,
				0.000827966135030767,
				-0.0003762818351175808,
				-0.0007685542345698593,
				-0.0007348604617825423,
				-0.0009791758364246408,
				-0.0002133357302700876
			],
			[
				-0.0003406795535594656,
				0.0007106891634205432,
				-2.5524119091742295e-05,
				0.0004196779586392212,
				-0.0006673759737343266,
				-0.0006025709285745369,
				-0.0005280000366133905,
				0.000795360975037828,
				0.0006739653119546261,
				-0.0006047635295326412,
				0.0008719645470046794,
				0.0006003667680767658,
				-0.0007203992726570246,
				-0.0002441522916774091,
				-0.0006030231547030212,
				-0.0006568174818225534,
				-0.000796615452624291,
				0.0009455183026826975,
				0.0005010103050840664,
				-4.433399147463484e-05
			],
			[
				-0.0005279010773393943,
				-4.440864202707572e-05,
				0.00042814805251753475,
				0.0007458574931655895,
				0.0006391270381232883,
				0.0005532044703669935,
				-0.00041043267467542606,
				0.0007291898472221825,
				-0.0006606716440547714,
				-0.00082372009148643,
				-0.0006117106822525422,
				0.0005406379087281711,
				0.0005535591874907446,
				-0.0003213606802384101,
				0.0009849737986065547,
				0.0008260275095184448,
				-0.0005098788748629766,
				0.000636322280668689,
				-0.00014434423217244525,
				0.000752651877724331
			],
			[
				-0.0002503640315638251,
				0.00044489007043968976,
				0.0004960341428334493,
				0.0006077331799230047,
				-0.0004877997406398727,
				0.0005054816575084224,
				-0.0008277150685090505,
				-0.00016267080119981544,
				-0.0007844733882198927,
				0.0006373864410653678,
				0.0002734671784904738,
				-0.0005141517857907137,
				-0.0005157922465543012,
				-0.0007957821884292573,
				5.709354419480882e-05,
				-0.0008967763199050067,
				0.0009595969413559702,
				0.0009058023417508937,
				0.00012486498837218306,
				7.762465954817875e-05
			],
			[
				0.000497784093504511,
				-0.0003092086589542726,
				-0.0009987281660389583,
				0.00043376659986119276,
				7.773994949405766e-05,
				-0.0008437873904131352,
				-0.0005906121867936453,
				0.0007704317526542707,
				0.0005723258266977021,
				-0.00039957060543747015,
				-0.00035551648443255825,
				0.0002251533551429134,
				0.0006197811065012883,
				-0.0003666699789301622,
				0.0007651869935771762,
				0.0008623043236217914,
				-0.0003123595267227765,
				0.0006717026626224282,
				0.0001796457598388871,
				0.00019133616254479887
			],
			[
				-0.0003178848136732886,
				-0.0003527184499876908,
				-0.0009983180373640548,
				-0.00047577676772309085,
				0.00013766703751520596,
				-0.00024929859315000287,
				9.052352735040804e-05,
				0.00037600107083990723,
				-0.00023864743962537932,
				0.00045014464059047344,
				0.0007582760568911112,
				-0.0005403832975361877,
				-0.00091273236563083,
				-0.0008242718440310233,
				0.0008796507666068507,
				-0.00026981322870259456,
				0.0005654200223466418,
				-0.0005296239521388748,
				-0.0008327050496975471,
				0.0005156646496545748
			],
			[
				-0.0003372535710412728,
				0.000692421150043439,
				3.698279270045917e-05,
				0.0005615033460530184,
				-0.00018135337966658515,
				0.0006742909710740696,
				-0.0008659861454351117,
				0.0008229868322889055,
				-0.0009070105448611685,
				-0.0009650382779069744,
				-0.0008863263743229815,
				2.663068704095769e-07,
				0.0008017948276199676,
				-0.0005991408944604304,
				-0.000597736191980929,
				0.0008327871848708959,
				-0.000959975560620788,
				-0.0006473209511355686,
				0.0003658842045592913,
				-0.00019607213322554392
			],
			[
				-0.0003325949922071327,
				-0.000931774033822328,
				-0.0005588198660678326,
				6.722963836536993e-05,
				0.0009447725600630038,
				0.00010868652986975418,
				-0.00010353429366320884,
				-0.0005751365072572718,
				0.0003804532333713552,
				0.0005063349590779427,
				-0.0004111878077536999,
				0.0001468779379930243,
				-0.0009604980548916031,
				8.134083411389238e-05,
				0.00020456247112366475,
				-0.00031517723016816635,
				-2.0767637908918274e-05,
				0.0006932706528252309,
				0.0001366994664865947,
				-0.0007925879853815673
			],
			[
				0.00034196379314622364,
				0.0004992040184534023,
				0.0004869216585518363,
				0.0009367086849491287,
				6.723650544915825e-05,
				-0.0007524229954899013,
				0.0008713683421090019,
				-0.0005190565852747709,
				-0.00033804408383966787,
				0.0009051589727000369,
				-0.0001418137534445219,
				0.0008243743820441649,
				-0.00022888721448718213,
				0.0008761592218140529,
				-6.173252787237081e-05,
				4.464300877856471e-05,
				0.00031862806404220866,
				-0.0006770189504145272,
				-0.0007756892108683449,
				0.0008094618527687396
			],
			[
				-0.00017989305620087358,
				0.0003693938726052569,
				0.0007490134449205153,
				0.0001259857194264571,
				0.0009052841489886152,
				-0.0007379087825157271,
				0.0007213132048791862,
				-0.0007391898020951782,
				-0.0004678996671346314,
				-0.0006847935402329903,
				-0.0006910142434786834,
				-8.450636747863881e-05,
				2.1872517754111323e-06,
				0.0009322639819506606,
				-0.00048052335449383517,
				0.0007921729830481035,
				0.00044238991671708143,
				0.0007817855359717547,
				-0.0004246571297968506,
				0.0005392902514627532
			],
			[
				0.0005925767981408796,
				9.511774748990746e-05,
				-0.0004927679040652884,
				0.0006145184940736812,
				-0.0007671541088204166,
				-0.0003793847341284351,
				-0.0005025565195787016,
				-0.00024095008480352128,
				0.0009048222790630544,
				-6.48215065475635e-05,
				-1.497781729466012e-05,
				-0.0001596602308297022,
				0.0006086578242810558,
				-0.0007972937678680887,
				-0.0005594510846497836,
				-0.00015614667691521888,
				0.00038630817868048873,
				0.0007881193533351158,
				0.00026581791551254143,
				0.0002669578459147234
			],
			[
				0.0007285075099979523,
				-0.0002607972813578681,
				0.00043983795408659206,
				-0.0008336104640021369,
				-0.00048281128234065583,
				0.0005977395644310376,
				0.0009692576954837022,
				0.0009436101580782503,
				0.000882366670528469,
				0.0009433038499659404,
				-0.0009928658980750877,
				-0.000536100674951624,
				-0.0003848098496077062,
				-0.0009084892904234781,
				0.000647410723713908,
				0.00018921184645375746,
				0.0002533813785991609,
				-0.0008584748573846317,
				-0.0007672843871000807,
				0.0006319957644722611
			],
			[
				0.0006018912311586029,
				0.0009302055221133408,
				-0.0008402092984672468,
				0.0002790717172337252,
				0.0009321612346913409,
				-0.0004733016059913635,
				-0.00017355740614688497,
				-0.0009749339324369278,
				0.0003698319090216437,
				-0.0003523932851142859,
				7.517036894615298e-05,
				-0.0006199614700797373,
				-0.000581451547929941,
				-0.0005053864090495055,
				0.00040303210198230585,
				-0.00030428901173071353,
				0.0003006857745002304,
				-0.0008944865424543764,
				-0.0009768829607021906,
				0.0009133563208031069
			]
		],
		[
			[
				-0.000119350807331728,
				0.00022090621860717976
			],
			[
				0.00020519701604114525,
				0.0007953561745092997
			],
			[
				0.0009463690486159126,
				0.0002996048869287056
			],
			[
				-2.8231932122516415e-05,
				0.000493059454023481
			],
			[
				-0.0009440672658729446,
				-0.0009583408569475632
			],
			[
				-0.000685619665803861,
				2.1141315791257855e-05
			],
			[
				1.710412433883154e-05,
				-0.0001419558272870694
			],
			[
				1.9483368094576998e-05,
				0.0002670669150500798
			],
			[
				0.0006007879075328002,
				4.382494066659088e-05
			],
			[
				0.0009102629712761298,
				0.0008798990225375612
			],
			[
				-0.0009209196157228765,
				0.0007609610353544636
			],
			[
				0.0006664174615850604,
				0.0008853727865421658
			],
			[
				-0.0009236164540288591,
				0.0009592453283351751
			],
			[
				0.00029656124013308126,
				0.0006717060868034663
			],
			[
				-0.0009354260765987721,
				-0.00024219020645449714
			],
			[
				-0.000452957655866604,
				0.0006984739696731669
			],
			[
				0.0008224316695229356,
				0.0005844225020570049
			],
			[
				-0.0009916037466321545,
				-0.0002515688332474584
			],
			[
				-0.0009643972190085295,
				0.0009308662184034475
			],
			[
				0.0007304948221176287,
				0.0006369052107162063
			]
		]
	]
}