{
	"model_params": {
		"input_dim": 10,
		"units_per_layer": [
			20,
			2
		],
		"acts": [
			"tanh",
			"identity"
		],
		"init_type": "uniform",
		"batch_size": 16,
		"decay_rate": 0.95,
		"decay_steps": 500,
		"epochs": 700,
		"lambd": 0,
		"limit_step": 500,
		"limits": [
			-0.001,
			0.001
		],
		"loss": "squared",
		"lr": 0.001,
		"lr_decay": null,
		"metr": "euclidean",
		"momentum": 0.4199289601348085,
		"reg_type": "l2",
		"staircase": false
	},
	"train_params": [],
	"weights": [
		[
			[
				0.0009893117702186854,
				0.0006287399168268424,
				0.0002900639587943689,
				0.0007752345580904797,
				-0.0005688509157204771,
				-0.0008337313044460953,
				-0.00013001399973196714,
				0.0005458629945769085,
				0.00026917026581785037,
				0.0004794348422313111,
				-0.00046636404688636104,
				0.0005566178702572052,
				0.0009934742518415032,
				-0.0004161752032393782,
				-1.64903710938634e-05,
				0.0008934368032496741,
				-0.00014339577807920235,
				-6.921326667662982e-06,
				-0.00042373156772242777,
				-0.0006288713380457143
			],
			[
				7.168326528777212e-06,
				0.00014945609678796508,
				-4.647132859791859e-05,
				-0.00026902909580938175,
				-0.0009662960474968235,
				0.0008978816467990491,
				0.0005691759427079402,
				0.0007029096434799759,
				0.0009671562069364964,
				0.0008187148579227583,
				-8.08301689645645e-05,
				0.000705564570380908,
				-0.00017884944398534493,
				0.0004076549464071793,
				0.00039004590309720064,
				-0.00048650896494796373,
				0.0003478856386362763,
				0.00017095145473962022,
				0.0005450769178502947,
				-0.0009282822521285497
			],
			[
				-0.0006419201130190406,
				0.00010778156753669379,
				0.0007665655955164297,
				0.0001283758290405153,
				0.0007009536131204347,
				0.0005907597941411738,
				1.5871529389044304e-05,
				-0.0005974186311191283,
				-0.0009662600455431468,
				-0.0005074601883393557,
				0.00028374120001381227,
				-0.00039090441642794624,
				0.0002665539023207577,
				0.0004127709567540022,
				0.00087993549184248,
				-0.0003833579400783078,
				0.0004758993393179816,
				-0.0003674412600843613,
				-0.0009740747215804162,
				0.000898586940466507
			],
			[
				-0.00012820872681135436,
				-0.00018881541701465745,
				-0.0005075141348123642,
				1.964192271556556e-05,
				0.00045086535242323464,
				-6.870606175048328e-05,
				-0.0006569749476053724,
				-3.105362021616463e-05,
				-0.0004784116007257287,
				0.0006547627890088131,
				0.00017817236295711802,
				0.0008764399584759008,
				0.000480736872173019,
				0.00029674894430811553,
				-0.00022494311053531963,
				-0.0003737915058179529,
				0.00011959170146027035,
				0.00043033806410236203,
				3.956079106733285e-05,
				-0.0004977031698392755
			],
			[
				-0.0004860557215443157,
				0.0008684082671817125,
				0.0009521227069041963,
				0.0007342847661287268,
				0.0009777791420044306,
				-0.000704909212724679,
				-0.00044808231378623727,
				-4.480303318932547e-05,
				-0.00026716528543231253,
				-0.00014521553325278868,
				0.00031898850317151083,
				2.828211262211576e-08,
				0.000832747308939852,
				0.0009553739545316146,
				-0.0008854724225997041,
				0.00039125055231062204,
				-0.0006682144383797757,
				-0.0006424869171100005,
				-0.0002490224796804361,
				0.00021074448450011116
			],
			[
				7.542880362443522e-05,
				-0.00044546520878198945,
				-0.0005199606267696044,
				0.0007626266762351705,
				0.0009841863968393142,
				-0.0007046913597403237,
				-0.0006109689055926702,
				0.0001515000235249094,
				-0.0005908577699689492,
				0.00027944322921391227,
				0.0009787765526737373,
				-0.0002020997000085847,
				-0.000866416302701399,
				-0.00046474541391292186,
				-0.0008954504168393964,
				0.00011729507777766268,
				-0.0009598028374452106,
				0.0004966646111790752,
				-0.0008291854370775163,
				-0.0008238071946133514
			],
			[
				-0.0008066291887780875,
				-0.0003686309359232032,
				-0.000931358988963066,
				0.0005008212950777847,
				0.0007885812989692747,
				0.0002920643439588682,
				-0.0008988815666484652,
				2.6583099735442723e-05,
				-0.0002743053846838131,
				-0.0003525760434288525,
				-0.0009186619203825882,
				6.781054320161191e-06,
				0.00018782491974247257,
				0.0006366163974144137,
				0.0004288548962156876,
				-0.0006607740308571832,
				0.00017481227501283465,
				-0.0009682381039030523,
				-0.0009999474971443517,
				-0.00013086649620419805
			],
			[
				-0.0009841828783690157,
				0.00013029306475935876,
				-0.0007783151602430865,
				-2.468222585340677e-05,
				-0.000430822784576333,
				-0.0007256557175252978,
				0.0009484105519660007,
				-0.0005844823904782551,
				-0.0004531873116655476,
				-0.00023463963042887807,
				0.00028654437852526746,
				-0.0009230032157653994,
				-0.0007256445230908622,
				-0.000781690910249236,
				0.0005551285007458179,
				0.0006664315038685225,
				0.00035383678866053505,
				-0.0008262343513431101,
				-0.0003086356971773814,
				-0.00045357403203412643
			],
			[
				-0.00026835332097396966,
				0.0006995740452834399,
				-0.0006527623696729552,
				-0.0008322837536199213,
				0.00020158730503294533,
				0.000906519374357283,
				0.00024079590731890927,
				-0.0005014965393260252,
				0.0009829188356607166,
				-0.00035130445336760397,
				-0.0003068728885179308,
				-8.230337559395312e-05,
				0.0006242444244164936,
				0.000869005926568013,
				0.0008443098802668767,
				0.0009262634469357322,
				-0.0008128297257645592,
				0.00022549636302708577,
				0.0007385249109634637,
				0.0003715773986871099
			],
			[
				0.0004953192875635517,
				-0.00037835118825112505,
				-0.0008455117103442361,
				-0.00019207099318123855,
				0.0005027087317831787,
				0.0008344992129606958,
				0.0007123182616918763,
				-0.0008426627101295446,
				0.0002827951934822261,
				0.0002514963189230602,
				-0.0005770456799175348,
				0.00015873544441179395,
				0.0006004353530519432,
				-0.00043052022640127153,
				0.0006399581595255236,
				0.00044916455858233506,
				0.00013150069551684908,
				0.0008742244238651243,
				4.344876851135413e-05,
				0.000779647894732526
			]
		],
		[
			[
				-0.000256340799243479,
				0.0008677224816315632
			],
			[
				8.086955476697163e-05,
				-0.0007258676109692201
			],
			[
				0.0002714778397971797,
				-0.00010009614862405147
			],
			[
				0.000421587453926821,
				-0.0009964560035214637
			],
			[
				-0.0009348034804096621,
				-0.0005958653074058231
			],
			[
				-0.0007420889475513433,
				0.0009847437142165528
			],
			[
				0.0008717667141512171,
				-5.8191445234351095e-06
			],
			[
				0.0002852491237361431,
				0.00014540703985189822
			],
			[
				0.00024360481932492444,
				0.0003368612120885422
			],
			[
				-9.74736065325212e-05,
				-0.0003866169795126717
			],
			[
				-0.0009773142106356575,
				0.00010831982456277717
			],
			[
				0.0004019546241270772,
				-0.0009498481292658019
			],
			[
				-0.00011073259938362899,
				-5.231508809395047e-05
			],
			[
				-0.0007073455134490507,
				-0.0004082428995549398
			],
			[
				-0.0006591953923123046,
				9.780722872962735e-05
			],
			[
				0.00043683934641685967,
				0.0008289927102232357
			],
			[
				-0.00033933352455771425,
				0.0004467778614697612
			],
			[
				0.0001265157832429219,
				-0.0006486136671598341
			],
			[
				-0.0006267913288476266,
				-2.846100681337129e-05
			],
			[
				0.00048189222305777346,
				0.0009205196007464674
			]
		]
	]
}