{
	"model_params": {
		"input_dim": 10,
		"units_per_layer": [
			20,
			20,
			2
		],
		"acts": [
			"leaky_relu",
			"leaky_relu",
			"identity"
		],
		"init_type": "uniform",
		"batch_size": 200,
		"decay_rate": 0.95,
		"decay_steps": 500,
		"epochs": 800,
		"lambd": 1e-05,
		"limit_step": null,
		"limits": [
			-0.001,
			0.001
		],
		"loss": "squared",
		"lr": 0.005,
		"lr_decay": "exponential",
		"metr": "euclidean",
		"momentum": 0.6,
		"reg_type": "l2",
		"staircase": true
	},
	"train_params": [],
	"weights": [
		[
			[
				-0.000477137914710205,
				-0.000320533014146158,
				-0.0002795859214858625,
				0.00037226055600318004,
				-0.0006047468092115454,
				0.00048442966249931537,
				0.0005941204229377058,
				0.0005338282528553873,
				-0.0004914037053629177,
				5.0161530450268084e-05,
				-0.0002129282340818697,
				-0.000695540103374765,
				-0.0007204277679791582,
				0.0007410006017965001,
				-0.00041965814516054195,
				-7.2628378953200345e-06,
				-0.00044518314750374623,
				-6.995581223961337e-05,
				-0.0005367707043960273,
				-0.0006554282565819475
			],
			[
				0.000780121649122875,
				0.0002612752338598506,
				0.0002398329617871657,
				-0.0002494974578261509,
				0.0009647657562271601,
				0.00039144586207589096,
				-0.00013183972171965878,
				-0.00018398601419239544,
				-0.00033787063338420944,
				-0.00044496134846458,
				0.0007433572995221432,
				0.0005955071076987086,
				0.0007179592206224719,
				-0.00015691192247994337,
				-0.000983205404805059,
				0.0002942717882206951,
				0.0005502098767587744,
				0.0007827581370253942,
				-0.0004035610215155261,
				0.00039413736118865724
			],
			[
				-0.00047780923470400465,
				-0.0008063753274174233,
				-0.00029610293084712986,
				0.0009291330406042784,
				0.0006400192801758755,
				-0.0007533509892292285,
				-0.00015506727007125784,
				-0.0007664116165770705,
				0.00081567107573821,
				0.0007970418740947136,
				0.0003485055344447177,
				0.0003307156956009235,
				0.0004899953108601644,
				-0.0008950150663855252,
				6.619612525334299e-06,
				0.0009875248211960292,
				0.00017969158131881128,
				-0.00025575598396701386,
				-0.00012887493616100892,
				-0.00048421362413454845
			],
			[
				0.0006775883880316763,
				0.000695178717980832,
				-0.0009697154533396639,
				6.141105557409625e-05,
				0.00042488782592407857,
				-0.0008549633625893134,
				-0.00011561242732929268,
				-0.0006903144049066614,
				0.0006539694831981435,
				-0.0007637999211957212,
				0.0001732687289183435,
				-0.0006822576032885526,
				0.0007057557291743944,
				0.0007674057454463443,
				-0.0005547107052239729,
				-0.0007922970236867342,
				0.0004231586951367139,
				-5.485421439475034e-05,
				9.371703716363426e-05,
				-0.0005166532650383924
			],
			[
				-0.000486098598955899,
				0.00013745325764543174,
				-0.0008492462259550655,
				-0.0008055750266935604,
				-0.00010280309152056798,
				-0.0003534743259928253,
				0.0008524022842195558,
				0.0005070904779429133,
				-0.0006717180697332244,
				0.0006078804621365739,
				0.0005339937371097345,
				0.0008570410400702512,
				-0.0004861422033537584,
				-0.0006973157771171432,
				0.0003780042995569636,
				0.00011340046245121474,
				-0.0005846556258294693,
				0.0009507689770226215,
				0.00030511258141279764,
				0.0003775110610986824
			],
			[
				0.0003007126672633098,
				-0.0007025652517760821,
				-0.00060416089245332,
				-0.0007038141458983007,
				0.0008889762228406527,
				-0.0006817165563528633,
				-0.0005740149304274481,
				0.000625655153774976,
				-0.0009820056668954072,
				0.000855935469544078,
				-0.0009402886996467952,
				-0.0007935173821004525,
				-0.0009795585002661126,
				-0.0002083060326975219,
				-0.0006696477425076498,
				0.00019834693606046207,
				0.0007207173497529608,
				-0.0009646019432378685,
				-0.0008295273088084254,
				-0.00021362337048610905
			],
			[
				0.0002863602970904597,
				0.0007494164444584563,
				-0.00029643750679750694,
				0.00012527160295689919,
				-0.0008628317297211521,
				-0.0004208212984050865,
				-0.0009229258065956463,
				-7.335966434049164e-05,
				0.0002862418676467867,
				0.0007494417310602516,
				-0.00022305043439587986,
				-0.000455792199094236,
				-0.0004989449780516695,
				-0.0007590533069551684,
				-0.00032229250033526796,
				0.0006007422140159049,
				0.000437338547836169,
				9.169356670119498e-06,
				0.0003597963140223176,
				0.0003493492284718869
			],
			[
				0.0008212052074736687,
				-0.00014313418630927525,
				0.000268952815299595,
				1.3113437009144944e-05,
				0.0002950129279191793,
				0.000952858871688907,
				-0.0009941231162163883,
				0.0007693089750767004,
				-0.0008338381841900941,
				-0.0007051172556678849,
				-0.0009976717199078444,
				0.00023399120831464246,
				0.00013811184978125774,
				-0.00042974535077904853,
				-0.0004509260264568347,
				-0.0009089981239663383,
				-0.0003045787643868801,
				0.0008552062888470876,
				-0.0004658044933135699,
				-0.0007321526139561832
			],
			[
				-0.0009500575778020635,
				-9.651900138018263e-05,
				-0.00018859002686243923,
				-0.0008529548877541606,
				9.647395614833729e-05,
				-5.005534614698241e-05,
				-0.0004129880617836781,
				7.410689593833546e-05,
				-4.9525072396321384e-05,
				-0.00012297551263312095,
				0.000968973780670881,
				-5.050187195917142e-05,
				0.0009215392685269605,
				-0.0008596805418741014,
				-0.0006309981804176779,
				0.0007136440772482543,
				-4.4883518013220545e-05,
				0.0004405044885420846,
				0.0009703013805247573,
				-0.0005267869601478046
			],
			[
				0.00031246744336712305,
				-0.0006449752046947595,
				-0.0002425842143206385,
				0.0003765628365155183,
				0.0002022137065511734,
				-0.00012386253821900146,
				0.00029764359920255584,
				0.00023193855276655985,
				0.0007882423513880757,
				-0.0002458167346153919,
				0.00011651906450761977,
				0.0002470889512960115,
				0.0007930458178806599,
				-0.0009051057756667869,
				-0.0008094799625620473,
				-0.0009356429549165497,
				0.00020129708052073637,
				-0.0008662465546148408,
				-0.00022558303270345985,
				-0.00023931339964430268
			]
		],
		[
			[
				-0.0006938419229873589,
				-0.0002040833855948916,
				-0.000280698399183607,
				0.0003519712143154844,
				0.000994546983845026,
				0.00041578398539563626,
				0.0005476239163567239,
				-0.00020473546903221102,
				0.0006227867606108464,
				-0.0003879691961495397,
				-0.0002641333687400611,
				0.0005247965597406353,
				0.0005000168429209549,
				-0.0006053967479063989,
				0.0006241645650323919,
				-1.6511899279517041e-06,
				-0.0005901886186642131,
				-0.0007498807047854377,
				0.0006664350251507957,
				0.000718775025145646
			],
			[
				-9.351997221909714e-05,
				-0.0007858914561908888,
				0.000956245443523171,
				-0.0001667611533155911,
				7.420118516945277e-05,
				0.0005129762961614346,
				-0.00019185558251944815,
				3.4137826589616905e-05,
				0.0007995362212142993,
				7.36869963376401e-05,
				0.0003454079876747385,
				-0.00041790748800900964,
				0.00011895943008291316,
				-0.0005118732666184794,
				-0.0007472066193264466,
				0.0006225224549473198,
				-0.000383064853881107,
				0.00039499944117930884,
				0.0007267214335721559,
				0.00022724820756758073
			],
			[
				0.0007233419295609002,
				0.0005347190155157631,
				0.0006925846744109021,
				0.0004027959382752826,
				-0.0006950814970736046,
				0.00015596600256092348,
				-0.0007777139622023419,
				0.0007142475032104788,
				-0.00025291228018348535,
				-0.0004269158481339852,
				-0.0006105183606683242,
				0.0007746712143648156,
				-0.0009468846748033175,
				7.196811690670974e-05,
				-0.0009624681026261146,
				-0.0007245646979715854,
				-1.488315365664886e-05,
				-0.0005187515903485324,
				-0.0005774032911470104,
				-0.0005660951318349474
			],
			[
				-0.0009601499955609117,
				0.0008081596825219107,
				-0.00042623575808117375,
				0.0006658877853579057,
				-6.937654492129809e-06,
				-9.812143681801563e-05,
				-0.0007359708450051521,
				-0.0006818877394945131,
				0.0008683967392945475,
				-0.0009835404032275533,
				0.00018501111419286643,
				0.0003460048665184039,
				0.00043858957327385945,
				5.290523075818557e-05,
				-0.0009882516852916757,
				0.00042085265692230604,
				0.0006786995922277302,
				-0.0007924869003340134,
				-0.0009539186479484347,
				0.00032190749301541904
			],
			[
				-0.000796816285563841,
				0.00018798763538400618,
				0.0008224222604865774,
				2.7175750031401078e-05,
				-0.0009821505734462616,
				0.0007933466390611633,
				-0.0006744245720023889,
				0.0002346716575706571,
				-0.00048514085437866353,
				-0.00022337687409323828,
				0.0003731135851466603,
				0.0006847145282752017,
				3.833499961953331e-05,
				-0.00019907070607842357,
				-0.000541539248566288,
				0.00013720085613625854,
				0.00012147739274820965,
				-0.0007349543613179509,
				-0.00022506340278841748,
				-0.0003859913220580078
			],
			[
				-0.0002441137756053393,
				-0.0006727618969448179,
				-0.0005931621715947084,
				0.0005125742266115375,
				-0.0005248962691273142,
				0.00012922967875304728,
				-0.0007457203145915667,
				-0.00014601163710017202,
				0.0004676038674973858,
				0.00047590066072558104,
				-5.511095895655211e-05,
				-0.00038419222557276305,
				0.0008154912868438436,
				-0.0008525297630253273,
				0.0006599954813015939,
				0.0003941728578904847,
				0.0004136200219314503,
				4.084976556147893e-05,
				0.0007786133280469002,
				-2.7292566190003677e-05
			],
			[
				-0.00023063899875529485,
				5.561648482243879e-05,
				-0.0008891983264302739,
				0.0003693968211285238,
				-0.0009152917046014648,
				-0.0002683310832132928,
				-0.00015380700905996258,
				0.0006669949000132436,
				0.0002626031137339189,
				-0.0002142503146478345,
				0.0006785570787296686,
				-0.00015850164430192737,
				0.00013291714111032197,
				-0.0008461026293480813,
				-0.00013748580187296746,
				1.1891192313602094e-05,
				-0.0008762088468123024,
				0.00017138643765385363,
				-0.0003619446876619142,
				9.880973467342154e-05
			],
			[
				0.0009793517117252211,
				0.0007444498319929772,
				0.0006156098245328476,
				0.00012395296151996075,
				0.00028886602931815493,
				-0.000505875961847732,
				0.00014192524846639003,
				0.0008281999257863258,
				-0.00016767894145543248,
				-0.0002641045364342833,
				0.0006514972724427181,
				0.0006357863000292804,
				-0.0004478527184299108,
				-0.0003210990261505273,
				-0.00046275283221631504,
				-0.0008701149904806718,
				0.0006245639844023889,
				0.00042614204077729757,
				-0.0007662134663909055,
				0.0005431439471249471
			],
			[
				-0.00010680890381089831,
				-6.457753039275697e-05,
				-0.0008411559429676366,
				0.0007730980088125122,
				0.0007482491043556655,
				0.00017887365684956212,
				0.0004706928104242945,
				0.0009003295180263406,
				0.0005008799526421118,
				0.0006690071590700454,
				-2.794694909334422e-05,
				0.00013977306924180645,
				0.0008155571530231562,
				-0.0008286434848423361,
				-0.0002434666567233785,
				-0.0006655214164814019,
				0.0004503673262318882,
				-0.0007720765281378598,
				-0.0003944149460986653,
				0.00031811295596659837
			],
			[
				-0.0008608255892077633,
				-0.0001341876598453793,
				-0.0005867092762797325,
				0.0003744088953362625,
				-0.0002953275770905181,
				-0.0009531949219151992,
				-8.461990792289732e-05,
				0.0004264115754070098,
				0.0005139003262736969,
				-0.000211697446856016,
				-0.000557425536469026,
				-0.0006891148204667162,
				-0.0007266336615449544,
				1.2079840061955888e-05,
				0.0006382258677325833,
				0.0005836406536408004,
				0.0009700916492038562,
				-0.0007300638016962349,
				-0.0004998643272291621,
				-0.0007542880555781158
			],
			[
				0.0005937161038502468,
				0.0009793491374894578,
				-0.0004125215133239797,
				-0.00048310447657461955,
				0.0008080854960335572,
				0.0009878825094140633,
				-0.0009486206314012318,
				-0.00027627200435174904,
				0.0009572780710965022,
				-0.00014000465099369677,
				-0.0006272196882755183,
				0.0008775231756240425,
				0.0008865580561845858,
				0.000385630708819071,
				-3.989547839925952e-05,
				-0.0009400751980105886,
				0.0008341343724486703,
				0.0005815124851075255,
				0.0008747921323711619,
				0.0007669063207298159
			],
			[
				7.017476920877707e-05,
				0.000959413188074357,
				-0.00012106076569029002,
				-0.0009325400015787906,
				1.4098560703957371e-05,
				0.0008306357504409337,
				-0.000495083394170996,
				-0.0001515648971146446,
				0.0007147716557659848,
				-0.0003653484055013889,
				0.000778323718394004,
				0.0006321903069638744,
				0.00038686332308828235,
				0.0006955135175425163,
				0.00025470533014759636,
				-0.0007387889730564598,
				-0.0007029465864175936,
				0.0005046583902967203,
				5.9490498104083954e-05,
				-0.00010748288009080893
			],
			[
				-0.0007475849251687774,
				0.0006708323764847658,
				-0.0009009168830190255,
				-0.0006741519596471042,
				-0.00011143632168246302,
				-0.00018645935304452757,
				0.0001234715142481367,
				0.0008547067485489674,
				0.00022409089386326068,
				-0.00012621871827474653,
				-4.353767245045704e-05,
				0.0006226232556542284,
				-0.0009389863687704725,
				0.0007705030285761105,
				-0.0002162477711105382,
				0.00039584210710783886,
				0.0005991434748359504,
				-0.0007466769322485281,
				0.0008752225645530932,
				-0.0008295635377366085
			],
			[
				-0.0005767356009385681,
				0.00034446380606144604,
				0.00016973662129341448,
				0.0006941848180933806,
				-0.0002171216830307417,
				-0.000622389741447093,
				0.000655319709220361,
				-0.0007813610942686664,
				0.0004076846670078868,
				-0.0005176108993516391,
				0.00030796170472702895,
				0.00010460577266107728,
				-0.0009149700061384114,
				-0.00017847775918684958,
				0.0005398041691347653,
				0.0003950289569237776,
				-0.0003040506655522475,
				0.0007328478643987234,
				0.000582433198014626,
				-0.00039400713491851813
			],
			[
				0.0008415690251015026,
				-0.0008391810650117974,
				2.7413139128195946e-05,
				0.0009671853763925701,
				8.728902945384274e-05,
				0.00011267570905787038,
				-0.00029009543336921766,
				0.000786094985289089,
				0.00012055890111554958,
				-0.0001624356270720751,
				-0.0009533859943202983,
				0.0005423432352576363,
				0.00030561285981249835,
				0.0008460953461245104,
				0.0009368351259012196,
				0.0006616346224535006,
				0.0002528491932231353,
				0.0008941033284486865,
				-0.00012140717099877647,
				0.00012259822638657357
			],
			[
				0.0005642864079607394,
				-0.00030009143510268646,
				-0.00032001987696105645,
				-0.0007753733999625678,
				0.0009712310330434177,
				0.0004164671076989507,
				0.000818897174578001,
				0.0009692584905123002,
				0.0009511506203342211,
				8.886454752492939e-05,
				-0.00041188858373671674,
				-0.0007132849453398988,
				0.0008611497486534295,
				0.0003279809823859166,
				-0.0008889400177010287,
				-8.526390592751619e-05,
				0.0007148593929175769,
				-0.0008345227050168245,
				-0.0003406268363291672,
				0.0006209994302867792
			],
			[
				0.0007839781519558124,
				-0.00045993157600309625,
				0.0003639752312267813,
				0.00031484440967353327,
				-0.0006559834057809772,
				0.000173106298411736,
				2.9392821481685023e-05,
				0.00020875162980265845,
				-0.000881278296715045,
				-0.0006118014790689817,
				0.0007750686429934181,
				-0.00025256707905163436,
				0.0003499286894593607,
				-0.00015666211878251856,
				-0.00012963403564841694,
				0.00026015342664449095,
				-0.0007823124307502198,
				-0.0009180800970275556,
				0.000973467879035619,
				-7.595683015721713e-05
			],
			[
				8.192001534038096e-05,
				0.0007174656160445594,
				0.0007025651093420266,
				0.0008721186791420556,
				0.0004766378805343696,
				0.0008806276077520069,
				0.0009322446358061059,
				-0.0005046110929433945,
				0.0003124369511232736,
				-0.0002197546472008609,
				0.0009036258862392783,
				0.0005511724073527331,
				-0.0003826882111514689,
				-0.0006451886123024821,
				-0.0006820598702866321,
				0.00032922677178088373,
				-0.0004994554683661126,
				0.0006647339863677713,
				-0.0007520805401161235,
				-0.0009809455222373877
			],
			[
				-0.00010271864448882636,
				0.0004267735703664692,
				-2.6334430222368292e-05,
				0.00044431738864488,
				-0.0009107355389459772,
				-0.0007982768518220114,
				-0.0008926579054162536,
				0.0005468002763596214,
				-0.000310733639256404,
				-0.00048179171336683595,
				-0.0006201400784927722,
				-0.00018548452927503556,
				-0.0006302927778120346,
				-0.00015636493484713924,
				-0.00034772870676314535,
				0.0002999990774166805,
				0.00038527758472447636,
				0.0005150809510942437,
				0.0005803669858096589,
				-0.0005452522327339948
			],
			[
				-0.0009391254227333042,
				0.0005738599317207675,
				9.127881655357278e-05,
				-0.0006034299435264785,
				-0.00015633992869685804,
				0.0005031303072055575,
				-0.00032251889419292917,
				0.00039784977091976317,
				0.0008477839415631141,
				0.00034434597277766097,
				-4.561680360424744e-05,
				0.0006879814326041765,
				-0.0007431517651382602,
				9.282456751579784e-05,
				-0.00046517996656250454,
				0.0005238778500230368,
				-6.563129358178315e-05,
				0.0009483965546302335,
				-0.0002972106658379783,
				0.0007616379775817811
			]
		],
		[
			[
				-0.0008313264393393864,
				-0.0003250316295311973
			],
			[
				0.00039540873684179426,
				0.00024856498766826353
			],
			[
				0.0009492387696500785,
				0.00036793940720407934
			],
			[
				0.0009787633739244718,
				-0.0006386619981123227
			],
			[
				-0.0008496140388283358,
				0.0002054267900077776
			],
			[
				-0.00048070738195208414,
				0.00031530609737706974
			],
			[
				-0.00021047298971518585,
				0.00028499353819549434
			],
			[
				0.00037150942980677644,
				-0.0008123169884740067
			],
			[
				0.00011820797928537474,
				0.00014770158343785345
			],
			[
				-3.8406659896548915e-05,
				0.0006966067531678295
			],
			[
				-0.0005936850803735763,
				-0.0009534485373822344
			],
			[
				-0.0008314953867238715,
				0.0006196100517175493
			],
			[
				0.0005801353748753346,
				0.0009569845520809171
			],
			[
				0.00045164544444937084,
				-0.0006063430155545911
			],
			[
				0.0006717870451487876,
				0.0007442866462831024
			],
			[
				0.0009292884625936597,
				0.0008705317169515694
			],
			[
				0.0004285920755499248,
				-0.000767373580535494
			],
			[
				-0.0009165530305759597,
				0.0006413642047708792
			],
			[
				0.00047375305810063145,
				0.0006929667075038109
			],
			[
				-0.00082274097445806,
				-0.0004229247817627515
			]
		]
	]
}