{
	"model_params": {
		"input_dim": 10,
		"units_per_layer": [
			20,
			2
		],
		"acts": [
			"tanh",
			"identity"
		],
		"init_type": "uniform",
		"batch_size": 16,
		"decay_rate": 0.95,
		"decay_steps": 500,
		"epochs": 700,
		"lambd": 0,
		"limit_step": 500,
		"limits": [
			-0.001,
			0.001
		],
		"loss": "squared",
		"lr": 0.001,
		"lr_decay": null,
		"metr": "euclidean",
		"momentum": 0.4199289601348085,
		"reg_type": "l2",
		"staircase": false
	},
	"train_params": [],
	"weights": [
		[
			[
				-0.0007975127918459027,
				0.0006881640072308873,
				-0.0009396878288519755,
				-0.0007324234674319723,
				-0.00017084633426408245,
				-0.000626489343005886,
				0.0006293298468049522,
				0.00045601259783603393,
				0.0006801601127410573,
				5.368814111909783e-06,
				0.0004915982847647565,
				0.0009762047224392842,
				0.0003153731059417056,
				-0.0009672941923867302,
				-4.906294970654984e-05,
				0.000685254925468684,
				-0.000771489702070222,
				7.745543476804636e-05,
				-0.0004008937708505464,
				1.1787665581990646e-05
			],
			[
				-0.0006715899449252147,
				0.00038251745635901565,
				-0.0002435764665857181,
				-0.00025158391237180755,
				0.00017837876405105645,
				0.0002586673737003493,
				-0.0005915292470930731,
				0.0009088605281104001,
				0.0006572854258291919,
				-0.0002856253033878557,
				5.422171925029704e-06,
				-2.4310184641610096e-05,
				-0.0005360867488743211,
				-0.000929731815940738,
				0.0008984932547212129,
				-0.0008509580133061483,
				0.00025581361723991036,
				-0.0009092557148331611,
				0.00014829717114141086,
				0.00031562573958036954
			],
			[
				-0.0002350216267236378,
				-0.0002713428413883168,
				-0.00040596001641142096,
				0.0008960249719663156,
				-0.00036217681037618995,
				-0.0003015485327591361,
				-5.0067972385300094e-05,
				-0.0005132637594508192,
				-0.000806326395553444,
				-0.0008220600314299415,
				0.0007115365228296834,
				-0.00013499492619584294,
				0.0008572497076828505,
				0.0004288804823998273,
				0.0005438048901416086,
				0.0007534398564079552,
				0.0002328433480425576,
				-0.00022948570374360156,
				0.00023853111107577027,
				-0.0007662521468045114
			],
			[
				0.0003970602762419361,
				0.0006725748729458053,
				0.0005478699915082179,
				-0.0009527513518765061,
				-0.00017527031432743034,
				-0.000451709181843075,
				0.0004821765399500319,
				0.0008286681336076318,
				-0.00016610608573730892,
				0.0003867536875729006,
				-0.0009279859487644096,
				0.000653339989651971,
				0.0006368636162285678,
				-0.0003151962783230495,
				-0.00015533613174943531,
				0.0004241774246901099,
				0.0005901835530151343,
				-0.00010430697844480746,
				-0.00034913797861985715,
				1.4028470106115624e-05
			],
			[
				0.00014055339610470814,
				-0.0007473771914535839,
				0.0003897335199981656,
				0.0001224225824456623,
				0.0005826256677928243,
				0.0009962067082177738,
				-0.000922813989846276,
				4.4133298457306415e-05,
				-0.00037172726040692484,
				-0.0003973279234095699,
				-3.707084244906336e-05,
				0.0004816536308784795,
				-0.0009615882495833634,
				0.0007651880758875647,
				0.00037500736349071204,
				0.0002173875790184997,
				-0.000562952932857332,
				-0.000902457222791542,
				-0.0004380922697382019,
				-0.00022746113888417877
			],
			[
				0.00034183212248583834,
				-0.00038151851117851604,
				-0.0008088117625031874,
				0.00047516587545387416,
				0.00044249984363901396,
				0.00016520359293596232,
				0.0009185343126434493,
				0.0003287945028390591,
				0.0009554903432275191,
				0.0009644901468863444,
				-0.00044651787381196886,
				-0.0009092529836412464,
				-0.0009741876414492626,
				-0.0006490303074848732,
				0.00011620624820547895,
				-0.0003963895290145762,
				-0.0008804702936324803,
				-0.00011369114030566712,
				0.00042671029327911417,
				0.0005458307731862307
			],
			[
				-0.0009186518800924944,
				-0.00017022191990446437,
				-0.00029624380205070565,
				0.00031086414829944943,
				-0.0005929181277033884,
				3.43761027842462e-05,
				-4.037673369633281e-05,
				0.00022247605395270937,
				0.00027311876962019346,
				-0.0003205993083365624,
				-0.0006813231772384643,
				-0.0009056317174775517,
				-2.7432654617863582e-05,
				0.00042153732097159635,
				0.0008595143839563865,
				-8.148029639494167e-05,
				0.0006003884036734932,
				0.00033509805374165743,
				0.0008924523721756776,
				-0.0002506861441410244
			],
			[
				-0.0008160623316145203,
				0.0003022287983418272,
				-0.00044685678719618154,
				-0.0003590943077329752,
				-0.0005135879689391713,
				-0.0003499210651478348,
				-0.0006835291283825899,
				-0.0009331664845238643,
				0.0009418482070467353,
				-0.0007726022872754221,
				-7.497759094176736e-05,
				0.0004270853987124821,
				0.0002540923429523484,
				0.0008420009596289799,
				0.000865507246726801,
				0.0007945772344365063,
				-0.000795109325979245,
				-0.00045540426908893177,
				-0.00018181910846780066,
				1.1610011325423894e-05
			],
			[
				-0.0005487735421116748,
				-0.00037791469680388784,
				-0.0004009869731609148,
				-0.00012666418078418088,
				0.00048510793534606213,
				-0.0004759956130839573,
				0.0007859626540611608,
				8.534863795749419e-05,
				-0.000786326094341206,
				0.0006515430832982607,
				-0.0008408460742989561,
				0.0003870470559867341,
				-0.0006649286026640702,
				0.0006206876032743035,
				0.0005717497610967647,
				1.13053330004127e-05,
				0.0007157628338307158,
				0.00036655338768075635,
				0.000140189384082037,
				-0.00011432792074425537
			],
			[
				-1.6326817111130378e-05,
				0.0005299592453875063,
				0.00028505867237269347,
				0.0006573515459016132,
				0.000890059274518193,
				0.0007944963866574073,
				0.0003715956040766101,
				-0.0007610956359113632,
				0.0006102243470410497,
				-0.0009177763137929707,
				-0.0006967060270017869,
				0.0009267995297447095,
				0.0007497264539012166,
				0.00021846829668366384,
				-0.000242985688099927,
				-0.0007541312721741716,
				0.0008877588901380939,
				0.0001772630899230911,
				-0.000496133029839468,
				0.00048657151264840624
			]
		],
		[
			[
				0.00046182239352445,
				0.00041106105661571917
			],
			[
				-0.000569033623297925,
				9.059865725086279e-05
			],
			[
				0.0007361592407855704,
				0.00041199312188493816
			],
			[
				0.0007713210304535472,
				-0.0002331166761619359
			],
			[
				-0.0004051495124140829,
				-0.00036116300915603515
			],
			[
				0.0008918192969423447,
				0.0007056245220348892
			],
			[
				6.622623001468564e-05,
				0.0004290610035308383
			],
			[
				0.0005707805552190475,
				0.00010021818585008316
			],
			[
				-0.0006455738450059517,
				-8.89293846370573e-05
			],
			[
				-0.0005683418396045263,
				0.00015493128949654205
			],
			[
				-6.732384679873074e-05,
				0.0002368969223405196
			],
			[
				-0.00016100663028516824,
				0.00018244673349342004
			],
			[
				-3.624310743878577e-06,
				-0.0007642074050852117
			],
			[
				-0.00041577756172713224,
				-1.993809144262967e-05
			],
			[
				0.0008523902681235437,
				0.0004006339500877906
			],
			[
				0.0008133594122446874,
				0.00012121240110160754
			],
			[
				0.0007851793050972337,
				0.00043268914387034315
			],
			[
				0.0004725638061411873,
				-0.0009021953709156996
			],
			[
				-0.0006051164616211331,
				0.0003329281346799869
			],
			[
				-0.00017140847192535433,
				-0.000516757518049214
			]
		]
	]
}