{
	"model_params": {
		"input_dim": 10,
		"units_per_layer": [
			20,
			20,
			2
		],
		"acts": [
			"leaky_relu",
			"leaky_relu",
			"identity"
		],
		"init_type": "uniform",
		"batch_size": 200,
		"decay_rate": 0.95,
		"decay_steps": 500,
		"epochs": 800,
		"lambd": 1e-05,
		"limit_step": null,
		"limits": [
			-0.001,
			0.001
		],
		"loss": "squared",
		"lr": 0.005,
		"lr_decay": "exponential",
		"metr": "euclidean",
		"momentum": 0.6,
		"reg_type": "l2",
		"staircase": true
	},
	"train_params": [],
	"weights": [
		[
			[
				-0.00036946993241801756,
				-5.562269617094518e-05,
				0.0005103539026033704,
				-0.0008357487626516212,
				-0.00038783726068137246,
				-0.00038269844051321163,
				2.859550055449604e-05,
				-0.0003418181849941586,
				-0.0006691591525339362,
				-0.0009142285991290964,
				0.0008144506386362526,
				0.00015031087723614426,
				-0.0008842022256138238,
				0.00012589968152305377,
				-0.000832821881923397,
				-0.00030864881245038053,
				-0.0009397953547668017,
				0.00019842203165524284,
				-0.0009130670277414057,
				-0.0003266176806219983
			],
			[
				-0.0009128625713586012,
				-0.0009671481481334719,
				8.110619405441084e-05,
				0.000722515115766545,
				0.0002460462452619548,
				4.820162411359251e-05,
				-0.0008464481212643211,
				-0.0002140407038811287,
				0.0006454478727836277,
				-0.0007920253895982549,
				-0.0002701111679289643,
				-0.0008597835267801974,
				0.0005084341366638405,
				-0.0009034595387835197,
				-0.00038709461778588695,
				-0.000640782831767138,
				0.0007771971270624544,
				0.00033170155174984894,
				0.0005477473323443687,
				0.000791556236082708
			],
			[
				1.7598491439496482e-05,
				-0.0006896388813818899,
				-0.00023105090904854933,
				-0.0005038010586152433,
				-0.0003317285208481231,
				-0.0008855977365840069,
				0.0004455947508597137,
				0.00046653211131405864,
				-0.0004191999886456266,
				0.00038323828878356926,
				-0.00023145035503175173,
				0.00022697367334920137,
				-3.786179738157205e-05,
				-0.0004274939904221715,
				-0.0007151037453074092,
				-0.0007493251461711562,
				-0.00019492100246857106,
				-0.0007263916920345936,
				-0.0009453048236029829,
				-0.0008967571499991089
			],
			[
				0.0006028688218766417,
				0.0008922344872722826,
				0.00027713282422456146,
				-0.00043699159999202705,
				-0.0007948036831347762,
				0.000251222376761101,
				-0.0005368705030207359,
				-0.0008426629926805778,
				0.0003194650312080456,
				0.0008147033541477059,
				-0.0005289024719781161,
				0.00029704179208210526,
				6.734417236347852e-05,
				0.0009862753199608074,
				0.0005930280332973931,
				0.0006621703261170423,
				-0.0002739433931192199,
				-0.00018752853982669437,
				-0.00019903211600336374,
				-4.1923495537763626e-05
			],
			[
				0.000803943934028164,
				9.038974609573052e-05,
				-0.0009934236720964646,
				0.0004484678865614639,
				0.0003388023130157967,
				-0.00039063620427387806,
				0.0003613485704009505,
				0.0005237416822298573,
				-0.0009635782585849479,
				-0.0006206645130108221,
				8.068987795821015e-06,
				0.0007701177659367355,
				-0.00015720168084424073,
				-0.0001700318582371778,
				-0.0008455613259857153,
				0.0002270254972137856,
				0.00010648670323075166,
				0.0007394114049218993,
				0.0006966874986750861,
				0.0009298188227444639
			],
			[
				-0.0007734265713671114,
				-0.00043640534909547134,
				0.0009642766546258332,
				0.0008938628353073368,
				0.0008788225078611492,
				-6.115705278389981e-05,
				-0.00034856334927154103,
				0.0006163117779580468,
				0.0007601132937439371,
				-0.00021975532562586934,
				0.0009697606247173881,
				0.0006375642243512103,
				0.0004207335520146698,
				-0.0001920325511075078,
				-0.0006454290907172036,
				0.0008579692982318655,
				-0.000896017094090843,
				0.0005959892227401853,
				0.0009635165746689138,
				0.00028079016782996255
			],
			[
				0.00034225403213786047,
				0.00027473223205887057,
				-0.0008500865348488966,
				-0.0002418924095742203,
				5.221149167851293e-05,
				0.0005921763748130537,
				0.0007505800932251852,
				0.00017786672251795914,
				-7.934132542442972e-05,
				0.0002964422763841127,
				0.0005782833576273537,
				0.00024266293214198192,
				7.4283525271016e-05,
				-9.445660084102237e-05,
				0.0004236544794105053,
				-5.3370652042599126e-05,
				0.00042867999724127714,
				-0.0007079006329197889,
				-0.0008916044104110226,
				0.000987067751331726
			],
			[
				-0.00013281204933589307,
				0.0002809032682304525,
				-0.0008986883856167348,
				-0.0007546834844940849,
				0.000506917200057476,
				-0.0002371105269301523,
				-0.0008184194387153541,
				-0.0001225561727280684,
				0.0005382925841570412,
				0.0006670611529980693,
				-0.00012800732885775252,
				-3.0603950940987445e-05,
				-0.0007269140225468543,
				-0.0005091062668108908,
				-0.0008165140217449224,
				-3.320936120277437e-05,
				-0.0007534649442842733,
				-0.0005997960182667246,
				0.0006700839479591256,
				-0.00015565153634625824
			],
			[
				-0.00038668991571278594,
				0.0002605972540435995,
				0.0005938225354499168,
				0.0008092908068633316,
				-0.0006829007858997656,
				-0.0004640762726158329,
				-0.000281554113714487,
				-0.00021967284226812067,
				-0.000287595894606838,
				-0.000881161732557837,
				0.00029473953413342914,
				-0.0004823189187019548,
				-0.0006480788215286579,
				-0.000333211824832794,
				-5.8650677389327616e-05,
				-0.0005316078821786794,
				0.0009067544137927033,
				-0.0006986515847112243,
				0.0008702617291946593,
				8.059756352739658e-05
			],
			[
				-0.00034311025352902003,
				-0.0008643520088198195,
				0.00026919774561962734,
				0.0008622519668683643,
				0.0004009844020082139,
				-4.6677416778253145e-05,
				-0.0008105579648941331,
				-0.0002070423760032749,
				-0.000998776171051688,
				0.0009163459263810893,
				-0.00015059799008669788,
				8.563921812399932e-05,
				-0.0003479163004542809,
				-0.0002843327426783638,
				0.00020586537483312435,
				-0.0003124110212245996,
				1.9797579811301836e-05,
				-0.00042824108255092356,
				0.0005727843721862499,
				0.0007218195366020129
			]
		],
		[
			[
				0.0007790248866666957,
				-0.00013846581367113768,
				-0.0003441507215416579,
				-0.0008608805705431488,
				0.0007274111621914635,
				-5.7531914258320406e-05,
				0.0001289767952425446,
				-0.00046831580199227594,
				0.0009949813845934294,
				0.0009291411801344274,
				-4.6192226373161773e-05,
				0.0006121310009267831,
				0.00018725987247816519,
				-0.0009202977735579377,
				0.0007063592427230087,
				0.00019299801755272641,
				-2.699110177689179e-05,
				0.0005277068862988496,
				0.0007595105096925689,
				-0.0005713358787059282
			],
			[
				0.00012606735090346893,
				0.0003677045912386539,
				0.0007466601281971355,
				0.00026271130898195775,
				-0.00010877684222344636,
				-0.0009845656458189532,
				-0.00079482127298838,
				0.0006347608504259062,
				0.000915422422474603,
				-0.0004003997633248058,
				0.0004627966519240728,
				0.00023011456383146655,
				-0.0008242570770408919,
				-0.0004574342327781413,
				-0.0003087220094729861,
				-0.00012127148011414522,
				0.0005298234128350684,
				0.0009253791875717314,
				-0.000670720806550841,
				0.0006906196367587019
			],
			[
				-4.267905323045325e-05,
				-7.819583974664535e-05,
				-0.0008303740957341726,
				-0.00037242171419716815,
				-0.000425322392000987,
				-3.693942411166565e-05,
				-0.0005260769316414433,
				0.0009349538096353719,
				-0.00012019499463515344,
				0.00028064096979241084,
				-0.0008709614025940531,
				0.000388565987349692,
				-0.0009803410743752727,
				0.00021118951279757727,
				0.0009036819884476284,
				0.0006124846442389577,
				-0.00028252486826868095,
				0.0006812682220597936,
				0.00045429854539338183,
				0.0008747235446386603
			],
			[
				0.000980740144575712,
				0.00041271622499463125,
				-2.9737810902300552e-05,
				0.00012965574853268875,
				-0.0002729845594163507,
				0.00040787518083639017,
				0.0001693441852332416,
				-3.573821375719131e-05,
				-0.0001962260296189004,
				0.0002964790308949681,
				0.0009153692463676694,
				-0.0005721609761595627,
				0.0008037405670318582,
				-0.0006503474614988033,
				0.0005319968130962694,
				0.0006049583131170046,
				-0.0005654465345008801,
				9.048352522783316e-06,
				0.0007670254595754445,
				0.00010865459975548022
			],
			[
				-0.0009889634462385017,
				-0.0009409360043556634,
				-0.0001363717341607535,
				-0.0002908453700292646,
				-0.0004926097693038414,
				0.0002075453000115184,
				-0.00038136641900700233,
				9.950878821961945e-05,
				-0.0004280755657507209,
				0.0009002078779721532,
				0.0005223532347167436,
				0.00033347682123275766,
				0.0007258936356121213,
				-0.0007844674475166178,
				0.00011114630862116238,
				0.00037097054052068787,
				-0.0002289280673694556,
				-0.000922064623257721,
				-0.0008335069378051015,
				0.00012030624156997576
			],
			[
				0.0005244744095889496,
				-0.0006563628721286477,
				-0.0005248465470322996,
				-0.00033315319953140007,
				-0.00020660635159358814,
				0.0007935519964260725,
				0.0007399583652659249,
				-0.0006408459965899056,
				-0.0008173893419315291,
				0.0004892763030078613,
				0.0006456730876246339,
				-0.0005398399417087874,
				-0.0007672820434260186,
				-0.00020113451987799477,
				0.0008551283382962414,
				0.0007859299433773813,
				0.0005189362666914125,
				0.0006470791004488188,
				0.0004622315846898621,
				0.0001198765407748356
			],
			[
				-0.00031577183543188064,
				0.0009989496002444768,
				6.576310052946164e-05,
				-0.0007687036897285484,
				-0.00027961651059911995,
				-0.0001415519600762498,
				-8.396389042952411e-05,
				0.00035248869846493864,
				0.0009731441175177707,
				0.00016816291110763,
				-0.00040448970854603083,
				-7.457149740591371e-05,
				-0.0006393724712551649,
				-0.00024082711248242376,
				0.00021161776243772373,
				0.0005986002708778899,
				0.0004538145760020543,
				0.00015763159731926532,
				-0.00045636472443248666,
				-0.00012832704146650278
			],
			[
				-0.00029715643580234465,
				-0.0005364847166083745,
				-0.0009996126202615726,
				-0.00044886507170651476,
				-0.0005805617877361589,
				-0.0006811452723466067,
				3.817369504837396e-05,
				-0.0009033747803077648,
				-0.000593825607031467,
				-0.0009098840668957276,
				-0.0005780456871394524,
				-0.00036173811544263886,
				-1.8408345380254917e-05,
				-0.0007962623422663152,
				0.0003153258561606155,
				0.0002093496120662234,
				-0.0005279927597278771,
				5.830483463790297e-05,
				-0.0007254793592184847,
				-0.00024847436885981524
			],
			[
				-0.0005618490608757919,
				0.0007168144850625896,
				-0.00012253061220635856,
				-0.00030767952776830285,
				0.000892263494563301,
				-0.0004081176594066794,
				0.0005393885259008099,
				6.462548259950594e-05,
				5.032267397288748e-05,
				-0.0004184305172623792,
				0.00043945351751019444,
				-0.00046109641001477076,
				0.0009976789936858967,
				0.0007470898711443887,
				-0.00041513612550879225,
				0.0008183411432232568,
				0.0008130628097328936,
				-0.00012408640448854436,
				-0.00019381827750134374,
				-0.0005512213536968726
			],
			[
				0.0007518370677767137,
				0.00042442736858046477,
				-0.0004468490853836302,
				0.0005564450106862171,
				-7.312911155367028e-05,
				0.0007399366798560901,
				-0.0007101593158299157,
				-1.8260707611233908e-05,
				-0.0002554320196471604,
				-0.0006187463243068629,
				9.159934283291412e-05,
				0.0009864162821795097,
				-0.0005054024655138018,
				-0.0009674900848860507,
				-0.0006670549424660355,
				0.00035646979753862595,
				-0.00040461576673218587,
				-0.0009161217942587758,
				0.0008665782246515292,
				-0.0008001363281305412
			],
			[
				-0.00010360751442040203,
				-0.000530635251502948,
				0.00027124106296805956,
				0.0007256708958840096,
				-0.0008545895805324828,
				-6.911130613572621e-05,
				0.00014027534805250937,
				-0.0004209121149527761,
				0.0002990148089410331,
				-0.0006379222351413744,
				-0.00010418420562165241,
				-0.00045380972350377816,
				-0.000330423533192687,
				-0.0008369361113824649,
				-0.0002650014168425705,
				1.2502761565322696e-05,
				-0.0004869050195822355,
				-0.0003460675424804949,
				-0.000779268639987939,
				0.00044668285195001173
			],
			[
				0.0005929419677384779,
				-0.0006445844237606471,
				-0.0009160496186573399,
				0.0003114085196252916,
				-0.0006023730083868346,
				-0.0007278383601263881,
				-0.0006303910382333311,
				0.0006597855308400709,
				-0.00010636884602595309,
				0.00018976576440010674,
				0.0003931061698844709,
				3.561845359028584e-05,
				-0.00045278774238681745,
				0.0004633202010898229,
				0.00021131719798284554,
				-0.0001646627701218466,
				0.000308304930263381,
				-0.00018934071546647152,
				-0.0008817970610106411,
				2.198340610472943e-05
			],
			[
				-0.000992000392957849,
				-0.00033492777500802753,
				0.00035996859654896605,
				0.00031723901046852836,
				0.0005904323482114982,
				-0.0008836704404462192,
				0.000397646454658108,
				-0.0006225452640052367,
				0.0003285917957864394,
				-0.0001911560967996648,
				0.0008388155968597751,
				-0.0002473734649603603,
				0.00044098016600252346,
				-0.000827954280746879,
				0.000927190061416688,
				-0.00040617222337679265,
				0.0002378308095668984,
				0.00015320244488524135,
				-0.0001841440413220634,
				0.0007117363712554905
			],
			[
				0.0005174279026707773,
				0.00015304653416273748,
				-0.0005490600285290852,
				-0.00021024176498671038,
				-0.0008622691556825579,
				-0.0005584589157749707,
				-0.00039253594544546373,
				-0.0007591805559105058,
				-0.0008997414963403883,
				0.000558977837772018,
				0.0009672984607551672,
				0.0009114154443813527,
				0.00021765117105994737,
				-0.0004912759872524872,
				-0.0008517475187704223,
				0.0009828661818270137,
				-0.0001851939671529497,
				0.0009435845492360608,
				-0.0009236089195215913,
				-0.0004827260787989711
			],
			[
				-0.0003384224095210384,
				-4.929100616047786e-05,
				0.0007992339053756728,
				0.0007754643869215129,
				-0.00046764557322732285,
				0.0005033516872307896,
				0.0007421808819492691,
				0.0003760957694936701,
				-0.0005195329641154387,
				0.00026200555704022194,
				-0.00014937857520574548,
				-0.00017650549693637354,
				-0.0006961220855778495,
				-0.000553225108468112,
				-0.0004993115800368686,
				1.1597819025827103e-05,
				-0.0009727967655318322,
				-0.000904239311658124,
				0.0002510340534151974,
				0.000558409639767876
			],
			[
				5.829970614334252e-05,
				-8.215046096615806e-05,
				-0.0004971724713354032,
				0.00035994474155519557,
				-0.0006450356285120782,
				0.00016604408803473462,
				0.0009184830936432018,
				-0.000865186189765393,
				-0.0005981048127135793,
				-0.0001332256462950774,
				-0.000880662843772191,
				-0.0009493153839426882,
				-0.0008543425432547104,
				-0.0004792725842136065,
				-0.0006387492479483077,
				-0.0003218753509084229,
				0.0003813290619028053,
				-0.0007887820709310328,
				-2.589975351427248e-05,
				4.5599436992003464e-05
			],
			[
				0.0007594560273644863,
				-0.00011522066121262607,
				0.0007910330955229054,
				-6.15649463565817e-05,
				-0.0006850821221579573,
				-0.0009542128584469667,
				-0.0004607494594245971,
				0.00010787104452558076,
				-9.720277006309772e-07,
				-0.0007338368031995298,
				0.0005506852956687247,
				-0.0005860166743744274,
				-0.0009989543491677713,
				0.0003305876883086638,
				-9.044708683565456e-05,
				-0.0005828688543928181,
				0.000584915723761244,
				0.0005715842386453693,
				0.00017274579601429482,
				-0.00017464006985730982
			],
			[
				-9.671536544714047e-05,
				0.0007662510884548848,
				3.8523545712735576e-05,
				-0.00030549515206631584,
				0.0009099357758333216,
				0.0006884913789861147,
				-0.0002908391358272416,
				-0.00022976006146059765,
				0.0003376021198223378,
				0.0007999928104207511,
				0.0009236912214540193,
				0.0004218246935674432,
				-0.0009787775271275967,
				-0.0005166427815368024,
				0.000300889521333377,
				2.297410859579711e-06,
				0.000647980687315166,
				-0.000703327440900044,
				0.0007534701877669758,
				-0.0007476144547301886
			],
			[
				0.0006724814546955468,
				-0.0005019345513236821,
				0.0009081743729491265,
				0.0009238754373025236,
				-8.581878055546801e-06,
				-0.00034137794788085944,
				-0.0009579663654951005,
				0.00042619618897370734,
				2.1019823724597155e-05,
				-7.685978275342011e-05,
				0.0008872284549342991,
				-0.00019856899251228643,
				0.00047476666859790377,
				-0.0002655990350160722,
				5.17393283161647e-05,
				-2.002752037443185e-05,
				0.0006977250855439924,
				0.00039366031451927054,
				0.0004297358194428353,
				-0.000896854988867053
			],
			[
				-4.4764156792992415e-05,
				-0.00013046583143001183,
				0.0004693661759622746,
				-0.0002906046458932139,
				0.00015497638707363533,
				-0.0008673460430599038,
				0.0006969478835776139,
				0.0007073298540763333,
				0.000660550289050159,
				0.00032754380436148976,
				1.5690407939922355e-05,
				-0.0008885756837688692,
				-0.0006999900236562682,
				-8.356040201161052e-05,
				-0.00010193828356431275,
				0.00040189753194088567,
				-0.00012532398255912303,
				-0.00010911660013516468,
				-0.00017062413866487545,
				0.0006586118918910687
			]
		],
		[
			[
				0.00042711784429271525,
				0.0009833946761229934
			],
			[
				0.0007218200046065432,
				-0.0007107681072241892
			],
			[
				-0.00017883749024316003,
				0.00047374366300823316
			],
			[
				-0.0003793889065743217,
				-0.0004994607326081575
			],
			[
				0.0006014277295585662,
				0.0006944171982952532
			],
			[
				-0.0006951831716716781,
				-0.000351810817037216
			],
			[
				-0.0005797354434850315,
				0.0002593817149526337
			],
			[
				0.0006249776956311461,
				0.0009704602914912372
			],
			[
				-0.00032118124551194956,
				0.0003298660427355237
			],
			[
				-0.0006668576795242014,
				0.0008699878028779555
			],
			[
				-0.0003017795443229157,
				-0.00043826150490861406
			],
			[
				-0.0007853413224545467,
				-0.00044304775033925515
			],
			[
				-1.6749578834936293e-05,
				0.00011110614241768976
			],
			[
				0.0002568802595629251,
				-0.00023656382587560506
			],
			[
				0.0004102284825808378,
				0.0002248795972924736
			],
			[
				-2.8431188395333607e-05,
				-0.0004102704623338369
			],
			[
				0.000769965021022081,
				0.0007324159847382926
			],
			[
				0.0006529785905552757,
				0.00046229316431160936
			],
			[
				0.0008961898685872799,
				0.0008649617758571823
			],
			[
				0.00020913675014564087,
				-0.00018724114762910425
			]
		]
	]
}