{
	"model_params": {
		"input_dim": 10,
		"units_per_layer": [
			20,
			2
		],
		"acts": [
			"tanh",
			"identity"
		],
		"init_type": "uniform",
		"batch_size": 16,
		"decay_rate": 0.95,
		"decay_steps": 500,
		"epochs": 700,
		"lambd": 0,
		"limit_step": 500,
		"limits": [
			-0.001,
			0.001
		],
		"loss": "squared",
		"lr": 0.0021435193860245855,
		"lr_decay": null,
		"metr": "euclidean",
		"momentum": 0.6,
		"reg_type": "l2",
		"staircase": false
	},
	"train_params": [],
	"weights": [
		[
			[
				0.0006306062757219578,
				0.0001520222576399436,
				0.0007998651977403971,
				0.0007612018620417017,
				0.00048347866094721153,
				-0.0006730299174245586,
				0.00020267885636769266,
				0.0006122750445625156,
				0.0007769135567764749,
				-0.0004498356040646712,
				-0.0005567346778850233,
				-0.00040703854396798695,
				-4.5297453560903594e-05,
				0.00025697922620374915,
				-0.0004939195991036161,
				0.0003216175269508373,
				0.0002569742890985334,
				0.000732466213839942,
				-0.00013096857061898205,
				4.770892911858766e-05
			],
			[
				-0.0009455647979857267,
				0.0003486000023654144,
				0.0001939568254024236,
				-0.00011817873624388089,
				-0.000580778371651717,
				-0.00022519681987053636,
				-0.0007615011491858665,
				0.0007488491615261588,
				-0.0007199568763442436,
				-0.0002804901995634068,
				-0.00040568201693794517,
				0.0009908989728448585,
				-0.00018759796380507661,
				0.0009767392872502782,
				-0.00033897275642368464,
				-4.4394226787096707e-05,
				9.200080301990867e-05,
				0.00027687723524676393,
				0.000590850260153731,
				0.00044817240070050635
			],
			[
				0.00075146272725927,
				0.0007608323969346598,
				-0.0008691303343475608,
				0.00036273144665636666,
				-7.618358538668841e-06,
				-0.0006053846710451986,
				0.0009971301755345775,
				4.754112281604803e-05,
				-0.0005457636010582517,
				-1.8979201154558202e-05,
				0.0007275729166198873,
				-0.0009459937308109261,
				2.1347823215129213e-05,
				9.863288352592319e-05,
				-0.0007294135453089193,
				0.0007361576551225086,
				-0.0005165151010024542,
				-0.0005248306946403229,
				0.0007209047566853154,
				-0.00048808113872540694
			],
			[
				0.0005707840831351836,
				-0.0009159163860636275,
				-0.000746586325815636,
				4.131262094651789e-05,
				0.0005019288264000649,
				6.036967506444532e-05,
				-3.845211692383391e-06,
				-0.00013405665335350283,
				-0.0007858540676472663,
				-0.00014123042922646275,
				-9.726505566494458e-05,
				0.0007211482292063588,
				3.6641051915360916e-05,
				0.0006621509946715502,
				-0.0005218043066928384,
				0.00018691621497817423,
				0.000929350848693664,
				0.0003248484613035598,
				-0.000936314482485139,
				-0.0008896769035395607
			],
			[
				0.0008376289467104212,
				-0.0004270663992217027,
				0.00010819795720583649,
				0.0003601318986258947,
				-0.00027555320872444636,
				-0.0005416706536307476,
				-0.0003666818736090347,
				0.0006527752637377233,
				0.0009277548847761205,
				-0.0007780559372502347,
				0.00029058148368416893,
				0.0006039614495221685,
				0.00037787689511594304,
				0.0007465191958739262,
				0.00022136098563736283,
				4.9948347156840564e-05,
				0.0003993535484051085,
				-0.0007878648474699335,
				-0.000492088856567771,
				-0.0009600003369076403
			],
			[
				-0.00027664817965225997,
				-0.0003219059468948187,
				9.975454625881213e-05,
				0.0009024048124122871,
				1.7940267081064873e-07,
				-0.000831772226896428,
				0.0008720581969799061,
				-0.0005896038226618379,
				0.0003132150652707319,
				0.0005268549935729973,
				-0.0005132411465451178,
				0.0007798489385005298,
				-0.0005101790969378334,
				0.0007981476708289555,
				-0.0005344218373736911,
				0.0005348405915780749,
				-0.00010025365627697755,
				0.00018344963432594184,
				-0.0006963105704084179,
				0.0002969514093631312
			],
			[
				-0.000671097789765046,
				0.0008451327251802125,
				-0.0006925901209269107,
				0.0008515643014588312,
				0.0004370512021521027,
				0.0009939094662781821,
				0.00027982553783723225,
				-0.0004589321989410183,
				-8.567660265587217e-05,
				5.478278076303817e-05,
				-0.0006253623881613934,
				-0.000462038101653216,
				-0.0008645879862801142,
				-0.0005124378861299423,
				-0.00039299105816298786,
				0.0006717097434401217,
				0.00028591673451352335,
				0.00023564412239761127,
				-0.0008104700508948627,
				-0.0003767052267249385
			],
			[
				-0.0004045805204110889,
				-2.8895297720317177e-05,
				-0.0003796112826105045,
				-0.0005618868058816726,
				-0.00017360197606625214,
				0.0005235486957441704,
				0.0009711576672845608,
				-0.000661828220395809,
				0.0009685797828496612,
				-0.0006149575794363058,
				0.00018662517047232543,
				0.0005713623159714232,
				0.0005413767746654731,
				0.0005222179434802754,
				0.0005814286278756574,
				0.0008417828935903008,
				0.0009215604609593281,
				7.442768202942768e-05,
				-0.0004525961710717068,
				-0.0007551344664584303
			],
			[
				-0.0005457730506290659,
				-0.0002341410406221314,
				0.0007181257637070874,
				0.0009052024168064725,
				-0.0008807909451876074,
				-0.000465583369623531,
				0.00037838875965020007,
				0.00019636454297858146,
				-0.0007077786358634303,
				0.0005996886193489397,
				-0.0006020328546000315,
				-0.0007723161423110734,
				0.0008924138506794593,
				0.0009955203386861344,
				5.446411654461288e-05,
				0.00045047891891837675,
				-0.0008883182549958926,
				0.0002987669455528806,
				-0.00043950093171618175,
				0.0008060267128338838
			],
			[
				0.000365597458520927,
				-0.0009325978482904093,
				0.0009417512111359234,
				-0.0006982685615214343,
				0.00043444237308773036,
				0.0003931687613123243,
				0.0004871720881408515,
				0.00020418407735108934,
				-0.0005187478784652927,
				-0.0002768179654265714,
				0.0007239078502823126,
				0.0004920124815168149,
				-0.0007942275014820801,
				-0.0008391940444296369,
				0.000572880161866781,
				-0.00020479689805039667,
				-0.00044377864083661644,
				-0.0006185009716877113,
				0.0008558408942642784,
				-0.00020807254156698506
			]
		],
		[
			[
				0.000375908906006874,
				-0.0005120668988815922
			],
			[
				0.0008229453711926485,
				0.0007201384835077776
			],
			[
				-0.00021854848382279004,
				-0.000767848235255801
			],
			[
				0.0004788103653845311,
				0.00022346444355578828
			],
			[
				0.00013259934283983178,
				2.607648722110058e-06
			],
			[
				8.019014897089481e-05,
				0.0006600162218748477
			],
			[
				-0.00018874012613891036,
				0.00088195712965649
			],
			[
				0.0003657448435680096,
				8.893470579683042e-05
			],
			[
				0.0009948675639397512,
				-0.0004805792454169288
			],
			[
				-0.0007381207706825784,
				-0.0007367936752837161
			],
			[
				-0.0007393758469916889,
				0.00033224882903317614
			],
			[
				-0.0005224384151447938,
				0.0004823687374494582
			],
			[
				-0.0007816774445356696,
				-0.000815564756058637
			],
			[
				-7.698177885761951e-05,
				-0.0004400792337741846
			],
			[
				4.0170160659381594e-05,
				-0.0004679575874841226
			],
			[
				0.0006792408824695668,
				-0.00011397897031697579
			],
			[
				1.1418139403391843e-05,
				-0.0008094135014029666
			],
			[
				-3.321866917995093e-05,
				-0.0004760250448250605
			],
			[
				-4.901502904958502e-05,
				0.0005367987906478957
			],
			[
				0.0008429151866671044,
				0.0008720109937571307
			]
		]
	]
}