{
	"model_params": {
		"input_dim": 10,
		"units_per_layer": [
			20,
			20,
			2
		],
		"acts": [
			"tanh",
			"tanh",
			"identity"
		],
		"init_type": "uniform",
		"batch_size": 100,
		"decay_rate": 0.95,
		"decay_steps": 500,
		"epochs": 150,
		"lambd": 0,
		"limit_step": 500,
		"limits": [
			-0.001,
			0.001
		],
		"loss": "squared",
		"lr": 0.01,
		"lr_decay": null,
		"metr": "euclidean",
		"momentum": 0.6,
		"reg_type": "l2",
		"staircase": false
	},
	"train_params": [],
	"weights": [
		[
			[
				-0.0008175960946930248,
				-0.0009012427271247354,
				-0.0005396709784282624,
				-0.0007631692444819731,
				0.00021095684970914678,
				-0.0005897892505157685,
				-0.0005891279729905807,
				-0.00010050894337021573,
				-0.000922760208193985,
				-0.00026954634220075955,
				0.00027019032949695166,
				-0.0006476943572562208,
				0.0004912654346703339,
				-0.00036141082699209996,
				-0.0002277561429177903,
				-0.0008989917278943887,
				0.00011606382450055162,
				-0.00020088126554487459,
				0.0005636865722934341,
				-0.0001271635407289202
			],
			[
				0.0008567209376130565,
				0.0005014157187251255,
				0.0003322392740884646,
				-0.0006590533700335263,
				-0.0005675424706767793,
				-0.00015455431982870844,
				-0.0008562386205361545,
				-0.0003439888913360884,
				-0.0006401914329848719,
				-0.0001688837004457808,
				-0.00012090948838717108,
				0.0006872676219497368,
				0.0007174449829943713,
				0.0006722471852306092,
				2.616656723254088e-05,
				0.0009684279806302259,
				-0.0003496534505393398,
				0.0003106818086899485,
				-0.0009463107211504593,
				-0.0002524924322933735
			],
			[
				0.000911135506518327,
				0.0007780378367252233,
				0.0005652221987134623,
				-0.0009974850983479767,
				0.0006947606604064704,
				-0.00014409741525630237,
				0.0006308536830125612,
				-0.0003084485980063505,
				-9.140959406782573e-05,
				-0.00028505556401369934,
				-0.00016136248968677406,
				0.0004199322323663315,
				3.559417507711287e-05,
				-0.0006654999464286322,
				-0.000364720886096527,
				-0.00017195320712981642,
				0.0006326372208714248,
				0.0007200005252224766,
				0.0009709781487327825,
				-0.0008876810941360444
			],
			[
				-0.00025138842092885683,
				-0.00031016404264351104,
				-0.00024378613006918878,
				0.0003262873532077085,
				0.00035122912526202015,
				-0.0009890838030796535,
				0.00024045907924416174,
				0.0007415660616736663,
				-0.0008111166575446993,
				-4.402211343165806e-05,
				0.0007408206864426387,
				0.0002338871499922815,
				-0.00022689456309982453,
				0.0008457031981918958,
				-4.695115325885064e-05,
				0.00010773293546956176,
				-0.0005669260137996669,
				0.0003677964915455331,
				-0.00014722068129661373,
				0.00011036071969767417
			],
			[
				0.0006720641188594754,
				0.00011696150599395513,
				0.0003202488968710674,
				-0.0002696088974249671,
				-0.000286131266475141,
				-0.0006576528898582743,
				0.0009939609513867406,
				0.000913364452093126,
				-0.000295656267595485,
				0.00044516791142577925,
				0.00013203527712234413,
				0.000531566272470933,
				4.78983975392539e-05,
				6.718331623041204e-05,
				7.261827566394739e-05,
				-0.0003271585372708508,
				-0.0008602234894006018,
				0.0006909251470263768,
				-0.00047159560730671555,
				0.0006448405796885177
			],
			[
				-0.00046422299951559597,
				-0.0005520503821024288,
				0.000817542109822336,
				0.0007280238486212193,
				9.088309140684709e-05,
				-2.7018983354775176e-05,
				-0.00046712304599868506,
				-0.000981275915161015,
				-2.1112404569210812e-05,
				0.0007454390191565482,
				-0.0004771921093521248,
				9.660851339097186e-07,
				-0.0006777843124784495,
				-9.413667164363186e-05,
				0.0002748541387360866,
				-0.0005855312808567749,
				-0.00013461607743088598,
				0.0001314508485052064,
				-0.00042571377752574895,
				0.00031290480970001117
			],
			[
				0.0008211412426709233,
				-0.0001303870059546694,
				-8.483373458638345e-05,
				-0.0006794714553648889,
				0.0006238887047684215,
				0.00022574820697189124,
				-0.0009131836319056166,
				0.00014564357794083602,
				4.471323695882175e-05,
				0.0005488088645561322,
				-0.00014140543418087478,
				0.00018477626872188718,
				-0.0009186111885270441,
				0.0009274035338739221,
				-0.00037163816531774916,
				0.00014983161661514329,
				0.0009760997356286698,
				-0.0002248219756775296,
				0.0007102963456468562,
				-0.000277267341803799
			],
			[
				1.163780396983634e-05,
				-0.0006461037511458805,
				0.0006412234204645124,
				0.00041222950449799206,
				0.0001592627115237404,
				0.0006382703649740445,
				0.00011777957234584253,
				3.6389967067335235e-05,
				0.000760523635852784,
				5.160656125247857e-05,
				-0.0006028808022147998,
				-0.00011928044367987174,
				-0.0009956241352259833,
				0.0004000536199366964,
				-0.0006660715860906685,
				-0.0003244984891956833,
				0.0005107683977472065,
				-0.0009421569927789754,
				0.0007945580501206844,
				9.252314638923793e-05
			],
			[
				-0.00017789649657102766,
				0.00013808447437785808,
				-0.00010316764966213717,
				0.0007891286247715225,
				-0.00018787993184907052,
				-0.0007049386099257364,
				0.0006290477134986371,
				0.0007342994971635613,
				0.0007500929749880805,
				-0.0005036112459236865,
				-0.0003678913681785781,
				0.00033138208892224074,
				-0.0003325402317272101,
				0.00012038941971391037,
				0.0003633357729089014,
				0.0001079711027301344,
				0.00037842905530181044,
				-0.0005542374698106413,
				-0.0006855513321886919,
				0.0007486947022230176
			],
			[
				-0.0008859845057467735,
				-0.0005335317913639459,
				0.0009495294824965544,
				-0.00023136904139643005,
				0.0002828260356271422,
				-6.933263746426905e-05,
				-0.0008256605127410571,
				-0.0005020198428115015,
				0.00024097541973339392,
				-0.0006052715729143328,
				-0.000622514172503335,
				0.0001806465377302514,
				-0.0009692456696417293,
				-0.0006719783502279187,
				-0.0009471376944641494,
				-0.0007350560371752711,
				0.0008999645261641165,
				0.0003254081817778247,
				-0.0008240666646764478,
				-0.0006911710101805658
			]
		],
		[
			[
				-0.0009047785824121859,
				0.0005485190576630496,
				0.0009355912600661675,
				-0.0002568754048345754,
				2.845856194208171e-05,
				-0.0001207156740577653,
				0.0006606792580945533,
				0.000863821370129829,
				0.00010646765735142553,
				-0.0004255133906854773,
				-0.000948418872583507,
				-0.00038079450776976477,
				0.0007112835631123706,
				0.000258969742870136,
				0.0006650410060706424,
				-0.0003242255579748388,
				0.000320191575596487,
				0.0007070297026025277,
				0.0006558591135604223,
				0.00047204479523765656
			],
			[
				-0.0003695633650299768,
				-0.000349839626548224,
				-0.0009162112049187828,
				-0.0009192498073363162,
				-0.0008763711362159022,
				-0.00019930799555241332,
				-0.0009368840272065718,
				-0.0006663093458418721,
				-0.0001435432474174976,
				0.0005458641414594796,
				-0.0009258616880135641,
				-0.0005865188271081277,
				-0.0005529430847379031,
				-0.0006601588842886306,
				0.0009021412662162764,
				0.0004656155116993634,
				0.0006310891878747677,
				-0.000157287909922015,
				0.000797854151915409,
				0.00013281071954866883
			],
			[
				-0.0008117285333149822,
				0.00038982292534163747,
				7.977331845064758e-05,
				-9.015146555463403e-05,
				-0.0001881228203464946,
				-0.0002933425327114579,
				-0.00030624375384680615,
				0.0009661784656070215,
				-0.0006970171465661428,
				8.877843684304055e-05,
				3.6204473902851824e-05,
				-0.00020560870693316666,
				-0.0008261151930883628,
				-0.0008314968225175734,
				-2.5942611966396547e-05,
				0.00020432630194271617,
				-0.0003701716657784624,
				0.0008313828468079977,
				-0.00045983899781387705,
				0.0006061688188841003
			],
			[
				-0.00032122976074111856,
				-0.0005684412300877804,
				0.00045381838127771896,
				-0.0003840489619359156,
				0.0006241771927575988,
				-0.00047401950191056975,
				-0.00066259155978805,
				-0.0009281052154261282,
				0.0002991212459084391,
				-0.0009463222837705025,
				0.0003394538806744758,
				0.0009185257529339818,
				-0.0006301872482950162,
				0.000110969360026763,
				0.0008222320651567975,
				0.0003514047677530066,
				0.0007710381068020858,
				0.0008243078540154578,
				-0.0007022689664528418,
				-0.0007157639136267089
			],
			[
				-0.0008046327908322835,
				8.417277452331417e-05,
				-0.000456096352935611,
				-0.0009646988475580865,
				0.00028223133302854135,
				0.0004695028003170066,
				-0.00036611873639866223,
				-0.0009218250440498794,
				-0.0004470760308601571,
				0.00011333796513420436,
				-0.00042417599222200784,
				0.0006519817064657249,
				0.000979508496856823,
				-0.0007214399669352633,
				0.0008826984727285058,
				-0.0007427259232482531,
				0.00037084999689379595,
				0.0007604450917226033,
				-0.00012580610168293086,
				0.0006424502891377315
			],
			[
				-0.00034222187530578844,
				-0.0004267651192953499,
				-0.0005331675263729023,
				-0.0004663897372286454,
				0.00012246400192510512,
				0.0009212035407467219,
				0.00034941013096636,
				-0.0005799991105260909,
				0.0005068997828528983,
				-0.0009599688095525603,
				-0.00022705824666092392,
				-0.0006659363484239469,
				0.000523835760031119,
				7.783124661340547e-05,
				0.00012554580406672544,
				0.000743723765051858,
				-0.0008454664834721924,
				-0.0004752620925461419,
				-0.0006480117199757058,
				-0.000831074377235391
			],
			[
				0.0009225622824681745,
				-0.000582785733025966,
				-0.0003676170305854296,
				-0.0009571432777905558,
				0.00031989501676675026,
				-0.0005359433720112502,
				-0.0006917970042396191,
				-0.0009302049938315586,
				-0.0009903069328795373,
				-0.0008808214317457886,
				0.0007510500646016665,
				0.0007770919566434198,
				0.0005880011597259166,
				4.4217530072316377e-05,
				0.00044238357686351244,
				0.0005529484484351136,
				0.00039979594870555996,
				0.0001046117289065741,
				0.000924984673804607,
				-0.0005047093275498198
			],
			[
				-0.0002779544461671351,
				-0.0009805609861857397,
				-6.180062300570528e-05,
				0.0007126960454830894,
				-0.0008882388364151994,
				3.0063155323689335e-05,
				-0.0002886899466027291,
				-0.0005128039068422687,
				0.0008620476519377643,
				-6.891748964631096e-05,
				-0.0008500726744382015,
				-0.00041414421404868,
				-0.00041605761285035527,
				0.0002079989731796181,
				9.482898484572118e-05,
				0.0007845296740282067,
				0.0007171451849336634,
				-0.0008647422299185443,
				0.0003641103179366741,
				2.348455861185257e-05
			],
			[
				-0.0005541741238524369,
				-0.0007143552133298172,
				-0.00021450766559431096,
				-0.00033352716675269804,
				-0.0007742626924077201,
				-0.00016715897143323804,
				0.00045173245269017836,
				-0.0007099002813239761,
				0.00019538667482519017,
				0.0008923210755294527,
				-0.0007211518199054341,
				0.0002458312944532946,
				-0.0005517854894919878,
				-0.0003866657979692523,
				-0.00015287511321905307,
				0.00010347602127203743,
				-0.00044250473543160627,
				-4.0174445108569494e-05,
				0.00046216413788454443,
				0.00011716257579595787
			],
			[
				-0.0007095063444675883,
				-0.0007910254231778733,
				7.580828249702655e-05,
				0.0005746523621244844,
				-0.0005526374545918718,
				-0.000298461287758256,
				-0.00012937275396372662,
				0.0005070879832108502,
				0.0007335997907504958,
				0.00027483052241983395,
				-0.0008754255554210497,
				0.00011787041890896129,
				-0.0002612158590553804,
				0.0006021373439633289,
				-5.3903204140109116e-05,
				4.970858652760413e-05,
				-0.0009228776003162094,
				-0.00013679606023160248,
				0.0009648528709151416,
				0.0005405580426615247
			],
			[
				0.00012823584241114213,
				-0.00016046835460147197,
				0.0003476915291651566,
				-9.259280408218556e-05,
				-0.0002728533709162766,
				-0.0003986270365039377,
				0.0008012781509381688,
				0.0005472367410710908,
				-0.0003914664253460698,
				-0.0008154161916490939,
				0.00038635926061845755,
				2.4902551354748356e-05,
				0.00041179578749139,
				-0.00014874347938530512,
				-0.0006610557637310073,
				0.0004812402312152563,
				0.0008718961071851449,
				0.0004981310285300888,
				0.00033226686564370744,
				-0.00039510350328968884
			],
			[
				0.0007658114812796896,
				1.3450604810695587e-05,
				0.00019127105519697375,
				0.0003567606494442909,
				-0.0004186928128580361,
				0.00016250643771298845,
				0.0008037088955091536,
				-0.0005247912814313814,
				-0.0007524235042131122,
				0.0002385940312246977,
				0.0009869437155972985,
				-0.00014697777924965294,
				0.0007995095145088092,
				0.0005087275615615512,
				-0.0002109300386049142,
				-0.0001298485677889181,
				0.0006553133915432351,
				-0.0007149485485480225,
				-0.00028718591739110603,
				0.0005009102453217246
			],
			[
				0.00033851994331543056,
				6.620229608228045e-05,
				-0.0004474907770316203,
				0.0004298916656838732,
				0.000912099151553541,
				-0.0009134308856813509,
				0.0008815871669568098,
				-0.0005012660569177583,
				-0.0006469306236769756,
				0.00044749233694912276,
				0.0004454896142610642,
				-0.00041229468988299264,
				0.000560679321012725,
				-0.0002749105563286376,
				0.0008111201530738696,
				-0.00015422163169881388,
				7.562664927979537e-05,
				0.00018657538728703536,
				0.00013025700225091186,
				-0.000685981279420558
			],
			[
				-0.00044082660999374633,
				-0.0006467534858978778,
				-0.0001991825972352592,
				0.0004793357384944264,
				0.000876054901614401,
				-0.00015599363879860255,
				-0.00033241129501849966,
				0.000516476034905078,
				-0.0006833481546046698,
				-0.00021976470257178526,
				0.0008934792371332603,
				0.000793342374739934,
				-0.0003883793305362519,
				0.0007804738112149562,
				-0.0009139557787490378,
				-0.0004132639502619173,
				-0.000246122052783935,
				3.0460991991632666e-05,
				0.0004758425737980336,
				-0.0008921031537729094
			],
			[
				0.0005031926475671411,
				0.00022896841382931106,
				0.0003698181653127631,
				0.00032856615261709406,
				-0.0003987452420127069,
				-0.00043187835503791174,
				4.181624810945038e-05,
				0.0008669164287566484,
				-9.405840243796202e-05,
				0.0001425231453465012,
				0.00044777070818524515,
				-0.0003186857185567837,
				-0.0007998286717631151,
				-0.0005592075397533238,
				1.2022148387114432e-05,
				0.0006083206037326618,
				0.00038470156764443047,
				0.000495185928427137,
				0.0007045429818432418,
				-0.0008216582561086647
			],
			[
				0.000992809624675905,
				-0.000261316507458987,
				0.0005265291899805068,
				-0.0006879089298926794,
				-0.0003194986454190034,
				0.0009451494812181458,
				-7.404228640015475e-06,
				-0.0007691776234410257,
				7.037595279530957e-05,
				-0.0008088010495904159,
				0.00019197204985712223,
				-0.0007900389426434714,
				0.0005926884320317451,
				0.0005609750021381434,
				0.0003303217750981733,
				0.000205272328893269,
				0.00014278843086702178,
				-9.31856364482452e-06,
				0.0007604417453562138,
				0.0009126176886343259
			],
			[
				0.0005669681897051157,
				0.0007557282975261279,
				-1.840379327836309e-05,
				-0.00017215843510817014,
				-0.00034049813862777414,
				-0.00015569038385505982,
				0.00045758095995788854,
				0.00072762684636949,
				-0.0003291554206271541,
				0.0003003952549828304,
				-9.258897838924592e-05,
				-0.0008929227432390396,
				-0.00012690062750175964,
				0.0001574245784046488,
				8.722304619917728e-05,
				0.0007442926907348226,
				-0.00017488876098715718,
				-0.00015247622320045814,
				-0.0006958843625209394,
				-0.0007165007155280707
			],
			[
				-0.00020990782933328234,
				-0.0006738110006941907,
				-0.00015247804339613635,
				-0.0003712000252528283,
				-0.0006122659457179012,
				0.00010367294997821346,
				-0.00019718367426565413,
				-0.0009517886278930258,
				0.0002862362437762388,
				-0.000628094854349569,
				0.0006131030613543862,
				-0.0009024637124381141,
				0.0008477268173395121,
				-0.0008680282284391869,
				0.0009150094939714617,
				0.000769224685574395,
				0.00020540916893435342,
				-0.00026436920341540483,
				0.0008326430229384251,
				-0.0009884552438556291
			],
			[
				8.217866264379815e-05,
				0.00035726549427987186,
				0.0008650056609305957,
				-0.00023828095803088314,
				-0.0005766318282803358,
				0.0009774412914711592,
				-0.0009296778074652885,
				-0.00017813040868702148,
				0.0005042285231765906,
				0.0005744330849242214,
				0.0007043087651382712,
				0.0009318308469561222,
				0.0009958208682813376,
				-0.0007065510249675036,
				-0.000241514756647448,
				0.00010811674374908067,
				0.0008528514802202706,
				0.0009112911173749746,
				-0.0009966102179778252,
				-6.01648608049059e-05
			],
			[
				0.0004782560852869683,
				-0.0007167326881506474,
				-0.0002783179601914827,
				6.068387190026397e-05,
				4.836145253910972e-05,
				-0.0008193231909397471,
				-0.0009312112335139154,
				-0.00092068473306677,
				-0.0007524629429140572,
				0.00016617569168706978,
				0.0007834837013054304,
				0.0009558349391535757,
				0.0005156396739800367,
				-0.0009543050644248781,
				-0.0008050708328025163,
				-0.000401784817146265,
				-0.0007001611633600999,
				0.0004303113412263836,
				0.00022424451350488593,
				-0.0009587670746404211
			]
		],
		[
			[
				0.00017458861647667617,
				0.00029830005402066667
			],
			[
				0.0009577900702869959,
				0.00018036892179567558
			],
			[
				-0.0006943080219267748,
				0.0003182139917787558
			],
			[
				0.000884965228551228,
				-0.0001753673202964938
			],
			[
				0.0009224578819518805,
				-3.69818318570012e-05
			],
			[
				-0.0008495483906203041,
				0.000509598032266343
			],
			[
				1.0450528560225708e-05,
				-0.00092693690631365
			],
			[
				-0.0009790055929186317,
				3.303139503269361e-05
			],
			[
				-0.0002059742237955005,
				0.00030055784267944826
			],
			[
				-0.00022069700642872708,
				-0.0005077162996328057
			],
			[
				-2.2309745709222974e-05,
				-6.377912894891711e-05
			],
			[
				-4.146093375133591e-06,
				0.0009603763563524122
			],
			[
				0.0009033248576558737,
				-0.0009749592947179324
			],
			[
				0.0008431793621050331,
				-0.00036909401529504945
			],
			[
				-0.0008800100880229649,
				0.0006372056096947726
			],
			[
				-0.0001975993852353379,
				-0.0006859061304615899
			],
			[
				-7.405305567157708e-05,
				-0.00038704346270582743
			],
			[
				0.0009166581684780359,
				0.00022609393176735242
			],
			[
				0.00011684714161352971,
				-0.00021549265202901863
			],
			[
				-0.0008763039702134348,
				0.0008624421396096716
			]
		]
	]
}