{
	"model_params": {
		"input_dim": 10,
		"units_per_layer": [
			20,
			20,
			2
		],
		"acts": [
			"leaky_relu",
			"leaky_relu",
			"identity"
		],
		"init_type": "uniform",
		"batch_size": 200,
		"decay_rate": 0.95,
		"decay_steps": 576,
		"epochs": 800,
		"lambd": 1e-05,
		"limit_step": null,
		"limits": [
			-0.001,
			0.001
		],
		"loss": "squared",
		"lr": 0.005655844946607864,
		"lr_decay": "exponential",
		"metr": "euclidean",
		"momentum": 0.7709349296879282,
		"reg_type": "l2",
		"staircase": true
	},
	"train_params": [],
	"weights": [
		[
			[
				0.0006290447275984553,
				0.00021887950947881716,
				0.0007578838900484438,
				1.2664388768668421e-05,
				-1.0396249122972441e-07,
				0.00036301918331392417,
				-0.0007499902849983002,
				0.00019485609493485878,
				0.0009780034550338525,
				0.0006157971252543713,
				-0.0008993544248371201,
				0.00026390305721082506,
				0.00035488628516653904,
				0.000576259252059467,
				0.00025963450362645924,
				5.9015973943849984e-05,
				0.00020164343009099824,
				-0.0009290854402365359,
				0.0007625874111380573,
				5.511966811836528e-05
			],
			[
				0.0005235761013165569,
				-0.0007009359737204391,
				0.00010710660572383897,
				-0.0009198109980504374,
				0.00015032794820781848,
				-6.620799474080187e-06,
				0.0007135478909438987,
				0.0005551500310590251,
				-0.000651534527978118,
				0.0003790318301791244,
				-0.0006503276157552224,
				-0.0003228236339136583,
				0.0009140739193728865,
				0.0005163455734214402,
				0.000926360674822648,
				0.0008061625846630244,
				0.00012170218379893528,
				-0.0006950448434793486,
				-0.0007570485284408368,
				-0.00023145039867993478
			],
			[
				0.0006791926500581958,
				0.0007914166538715234,
				-9.566887736542178e-05,
				-0.0006587417633316286,
				-0.0008841014289245379,
				0.0006466044178135661,
				0.00010781531019425769,
				-0.00016683563077910663,
				0.0005154261646185859,
				-0.0008923366222156495,
				0.00026778785489726194,
				0.0007204306928889064,
				0.0009232458194495606,
				0.0001033670003091154,
				0.00020852828403921156,
				0.00025758787701002676,
				0.0005794417638811135,
				-0.00017931909700786425,
				0.000658267402754288,
				-0.000404169004975834
			],
			[
				0.0008629450877755164,
				-0.0009429912800018856,
				0.0008956992556509867,
				-4.316124897234166e-05,
				0.0006718225839952878,
				-7.88949345366342e-06,
				-0.00012243178281570375,
				0.0008832995581182577,
				0.0007438726999007455,
				0.0003782104735831082,
				0.0007841417063416684,
				0.0004372998262642,
				-0.0008655881009249478,
				0.0009363756425674269,
				0.000677524284164768,
				0.0003178834923689422,
				6.214336554200765e-05,
				0.0009847247086993902,
				0.00039881408380720656,
				-0.00048412637516313014
			],
			[
				-0.0006444891064730274,
				0.0009480397991224311,
				-0.0002429696731912072,
				0.0005776586396755775,
				0.0007996473478675487,
				-0.0007500576145022897,
				-0.0007394832570978534,
				0.0009491780671909765,
				-0.0005211695922171589,
				0.0006438985220070107,
				-0.00018990129690762752,
				0.00038419769203741714,
				0.0008517045081758285,
				-0.0009589744514356755,
				7.008367611555815e-05,
				0.0009076348014707522,
				-4.203729279668217e-05,
				0.0006709779525021133,
				-0.0006598233408144731,
				-0.0003635221429643561
			],
			[
				-0.0007817866659693551,
				-0.0005580489211946087,
				-0.000714055336724536,
				0.00045531028830962726,
				0.00043205957785998257,
				0.000526027843221066,
				-0.000975305324730946,
				0.00014410293085902128,
				0.0001853576774546678,
				-0.0002575193781500509,
				-0.0003642705026809576,
				0.0008969051337929213,
				0.0005890162209748382,
				-0.0005828238403053176,
				-0.0009187197031099521,
				-0.0003474301401095374,
				-0.0009644115191526664,
				0.0004857483900721244,
				0.0001799794014514639,
				0.0007145136005997103
			],
			[
				-0.00043878711311883965,
				-0.00019235537304164321,
				-0.0002478388533212197,
				0.0003841794480856978,
				0.00029165280937347524,
				0.00044392796270207127,
				0.0006277309605643418,
				-0.0002024707844698559,
				0.0003831417635272872,
				0.0008436930866943784,
				-9.231103326311121e-05,
				0.0004346082700066303,
				-0.0004973075843259994,
				-0.000619919435710899,
				0.0002572810849188847,
				0.00010357887486406206,
				-0.000387049120856483,
				4.9478829311601965e-06,
				0.0009056480434675455,
				0.00017903212395215494
			],
			[
				0.0002521044089179355,
				0.0006429963242190733,
				-2.1991502255019977e-05,
				-0.0005365768331251181,
				-7.39556528997911e-05,
				0.0009784364028629202,
				0.0003484224646761848,
				-0.0004933194299316224,
				-0.0007351590791484384,
				0.0005813058062215061,
				-0.0004926544308637015,
				0.0003047289081460564,
				-0.0004871845448337236,
				-0.00015203427968844103,
				0.0005591967077979568,
				-0.0009796899613126677,
				0.0002953727281994876,
				0.0008389860306301196,
				0.00010232574597310133,
				0.0007312296681504856
			],
			[
				-0.0007193145104049919,
				-0.00010420193747366733,
				0.00019966835809696144,
				-0.0007999280880713487,
				-0.00020790404022916827,
				0.00014777484878209933,
				0.00031142967112626936,
				-0.0009120937424213849,
				-0.0005047453371410242,
				-0.0006642324080946204,
				-0.00036764372431433287,
				-0.0005649598215784433,
				0.0007043838935528036,
				0.00048255436007831206,
				0.0005400021361104393,
				-0.0007299035588023105,
				0.00020403122142815676,
				0.0006575793089777277,
				0.0004212039031994245,
				0.0008954190515665734
			],
			[
				0.00029896703150818216,
				0.0004035759495956653,
				0.00013089704299405563,
				5.6127797225105375e-05,
				-7.29881866966453e-05,
				-0.0007397369364110433,
				0.0006850827777740022,
				0.0004963099847978176,
				0.0007078378467607327,
				-0.0004011662672094001,
				0.0006161459257977102,
				-0.0006247570389316988,
				0.0005073605088581309,
				-0.0009608263347720248,
				0.0009210267671942839,
				0.0001808251781354089,
				0.00010513612617576041,
				9.133721121263932e-05,
				0.0006020219469933638,
				0.0009064383155747615
			]
		],
		[
			[
				0.0005643593937780828,
				0.0002151667278485741,
				-3.357631725744124e-05,
				-0.000576065587844288,
				-0.0009697030670982969,
				-0.00021200177665201307,
				0.0008892713251880812,
				-0.0007049906370411101,
				0.0002759728854170578,
				-0.0007313590405470447,
				0.00014298429271955787,
				0.0002272556026227592,
				0.0008433365627787579,
				0.000576759997098094,
				-0.0006129248886120955,
				-0.0002562926792784657,
				-2.7541875880002166e-05,
				0.00017698049364740114,
				-0.0006118438222031346,
				0.00011202259233839711
			],
			[
				0.00017646607495453099,
				0.0006723653242277524,
				-1.3179943751827653e-05,
				-0.0006225604742153253,
				-0.00034062409009808815,
				-0.0006355440193374878,
				-0.000364494223259819,
				0.00019360270566057226,
				-4.5548410637377365e-05,
				0.0008908846605321101,
				-0.000692411733977816,
				-0.0006236650845562031,
				0.0004993216225900963,
				0.0004992541578383912,
				-0.000543270569846168,
				0.00016510943590416485,
				-0.0007003887260845401,
				-0.000594510163042413,
				-0.0008654410149686642,
				-0.00025157052390832146
			],
			[
				0.0007724606319922834,
				-0.00046981641732237844,
				-0.0001690568578236256,
				0.00025983797118998234,
				0.00018681714742601815,
				0.00027105861364042604,
				-0.00023569775381676887,
				-0.0001314974704492791,
				-0.0006169298404204935,
				-6.84070366591534e-05,
				0.00045082422366342096,
				-0.0009796933913983118,
				0.00024082778746649792,
				-0.0006034287366849514,
				-0.0002701954889592126,
				-0.0005637747026511723,
				0.00036888383335321713,
				-0.0003492530311192647,
				6.173015734971059e-05,
				-9.7834935373325e-05
			],
			[
				-0.000459580520407177,
				9.090663123232918e-05,
				-0.000767028964040368,
				0.00026192021703383937,
				-0.0006784238264586864,
				0.00017169798918616392,
				-0.0005038087635385036,
				-0.0009422512109128718,
				0.0008220740909184521,
				-0.00022238329880133853,
				-0.0006051918557368277,
				4.4884977617848897e-05,
				-0.00031078572215624556,
				-0.0002934110208503598,
				0.0008058126855677902,
				-2.4275006228565224e-05,
				-0.0008542536615076962,
				-0.0009057520103658401,
				0.000260719826560676,
				-0.0006267946654506374
			],
			[
				0.0001936772168147933,
				0.00041486587426226755,
				0.0008083087324115383,
				-0.0009446462874321811,
				0.000236367934515054,
				-0.0004290834376713124,
				-0.00021451140767099464,
				0.0003027694167076827,
				-0.0006002289870719728,
				-0.000708171742294734,
				-0.0003297421730886061,
				0.00083598883974607,
				0.0007482521560654304,
				0.0007916132676524638,
				-0.0007654027227713784,
				-0.0005964957680114569,
				-2.6660788880054995e-05,
				-0.00020072466226181754,
				-0.0007271137203034519,
				-0.0003527211110046413
			],
			[
				-0.000333761919890865,
				0.0007392971576620404,
				0.000241127726482687,
				0.0007237921819066304,
				-3.735900239480695e-05,
				0.00030529343571986155,
				0.0006402191035100467,
				0.0006690260439459353,
				0.00019938951022934327,
				0.0009555741771898876,
				-0.00040182736268808844,
				-0.0005496086379176004,
				-0.00013034129499314348,
				-0.0007295918916745503,
				0.0008126370561643845,
				0.0005547837949982613,
				0.0005460911113970464,
				-0.00015121171098565495,
				0.0007237082158883972,
				-0.00044432025032383686
			],
			[
				8.744152839319048e-05,
				-0.0006893434050674556,
				-0.0007488164579990614,
				-0.00040905753380512835,
				0.0008309792324538456,
				-0.0004269197567608471,
				0.00028048462954931644,
				-3.636100736103718e-05,
				0.0006790880850868044,
				0.00024044794773505555,
				-0.0004217618278289779,
				-0.0003814827759112265,
				0.0003234605563613574,
				-0.0006123914822786256,
				-0.0002993061657120124,
				-0.00014811596650749512,
				0.000784553549025743,
				0.0008519187787108895,
				-0.0003385211704279949,
				-0.0006960573565892826
			],
			[
				0.0007397472704883344,
				-0.00024276244468423604,
				-0.00022397852124428352,
				-0.0008845364404802653,
				0.0007384895871332012,
				-0.0009064350747929466,
				-0.0004273555694921132,
				6.425988007256788e-05,
				-0.0007262513467014033,
				0.0004962651645292521,
				0.0005834943760992936,
				-0.0006226863289480122,
				-0.0007333556495335734,
				-0.0005868217412625318,
				-0.0009929325184702133,
				4.796808001591253e-06,
				9.425209651037192e-05,
				-0.0008915965961130283,
				0.0005505947143675436,
				1.1157695331964453e-05
			],
			[
				0.0003867243163599532,
				0.0007616741102883802,
				0.0005986600956601387,
				-0.0009762518696638156,
				0.00040916073419921097,
				5.741167442898255e-05,
				-4.1871588094157105e-05,
				-0.0008011799583488346,
				0.0005244006901822481,
				-0.0005099216860207341,
				-0.00045245685569419926,
				0.00022885219857685882,
				0.0006484829143358665,
				0.00019173544847294818,
				-0.0008599127638138362,
				0.00031083184970906127,
				0.00047167673468262645,
				0.00041042686260330907,
				-0.000689673075285898,
				-8.563197975393583e-05
			],
			[
				0.0007833733708537682,
				-0.0008592686133453384,
				-0.00018897852111153003,
				-0.0009544316826248991,
				-0.00043530087598716064,
				0.00043472606393158905,
				-0.0009899943957262796,
				-0.0002257091666777411,
				0.0006903128251867651,
				0.0001525666205924568,
				0.00035739444396357166,
				0.0002818382684392224,
				-0.0005207544998579039,
				7.701522947482493e-05,
				8.486061054446326e-05,
				0.0006597785038345552,
				-0.00012375263611007713,
				-0.00014221456959365034,
				0.0005096446603304098,
				0.0009654802429980686
			],
			[
				0.0007596152038601587,
				0.00045580852863050703,
				0.0008977160895658539,
				0.0005864477654510302,
				0.0005539437254311944,
				-0.0008269246977454634,
				-0.0009530241652642153,
				0.0008919637681969125,
				-0.0009774501295077961,
				-9.532651948487717e-05,
				-0.0009848116609241834,
				-0.00024636285950586554,
				0.00015076302973918154,
				-0.0004597025809426914,
				-0.0003903766282790538,
				0.0006228660117355898,
				-0.000945635361362519,
				0.00043630949731657135,
				0.0003572582863419886,
				0.0008089391829425446
			],
			[
				0.0006294124161119142,
				-0.0009724731807278937,
				-8.154035233438048e-05,
				0.0008315017706546149,
				0.0008939806387524413,
				0.00010145357031762542,
				-0.0004439628682574026,
				-6.9744583890134e-05,
				-0.000922108765691912,
				-0.0008202988670574562,
				-0.00016247458035587318,
				-0.0001719542791981199,
				0.00014612998550400658,
				-0.0002602265175194018,
				0.00041901042727758033,
				0.00041867732321649513,
				0.0005653041843465259,
				0.0005831074377840883,
				-0.0004927116451070015,
				-0.0003572912377590192
			],
			[
				0.0009643999866927365,
				-0.00019268977348754497,
				0.00022674929680800422,
				-0.000922448016640127,
				-0.0008974004266361186,
				-0.0008806951840033046,
				-0.0007875762693294939,
				0.0008004995239271637,
				-0.00023530848526359942,
				0.0005734428713345561,
				0.0003264558859762288,
				-0.0008537889139294463,
				-0.00028397178511354324,
				-0.0007369269793617011,
				-0.00018985570747695468,
				-0.000903236867736633,
				-0.0008894509369986068,
				-0.00019191925398389894,
				-0.0006528323015347557,
				0.0003988713156704599
			],
			[
				0.0001067567642463465,
				8.75912832619917e-05,
				0.00013929122360854937,
				0.00031566280344995715,
				-0.0006154066009209816,
				-0.0005675929345133356,
				-0.0003540515554374857,
				-0.0009725644159015654,
				0.0006059260198365349,
				0.0003938001607553135,
				-0.000863972976840614,
				-0.0004894864656219551,
				-0.00046300245221383984,
				-0.00013642763828008064,
				-0.0008587084206650344,
				0.00048193942721661194,
				-0.00022223463297863552,
				-0.00025942392822403187,
				0.0009694990974998853,
				-0.0001384202380275161
			],
			[
				0.0006560788855296301,
				-0.0008589303487528835,
				-0.0009227160509552123,
				0.00032321760408951994,
				0.0005409901355314375,
				-0.0006471519653229894,
				-0.0007290525546849564,
				-0.000547998028387193,
				0.0005186518047851413,
				0.00014910810034852182,
				-0.0002855150126015904,
				-0.0005641369091013888,
				-0.0008958265876663072,
				8.752821496707248e-05,
				-0.0008740904915257683,
				-0.00028701195990073257,
				-0.00043528361843423987,
				-4.83560389484579e-05,
				-0.0005394080025781922,
				3.7777585384750345e-07
			],
			[
				-0.0005919119356273952,
				-0.00020492098968721286,
				-3.3681670304723326e-05,
				-0.00038127526761977837,
				-0.0008751631474138793,
				0.0007143492997244436,
				0.0002798826717842766,
				-5.178949649408727e-05,
				0.00020149862503053323,
				0.00024556038825259015,
				0.0006129367745593408,
				-0.0002962398496059067,
				-0.0006548766091384153,
				0.000776292872086378,
				-0.0005742214644866173,
				0.0004703781488113942,
				-0.0005767504532565736,
				-0.0005141541020114678,
				-0.000762328456095464,
				0.000303261177571997
			],
			[
				0.0007162478042389868,
				2.9713672378605272e-05,
				-3.8680559787398214e-05,
				0.00044327385962700163,
				0.00018914054787912572,
				0.0007052888959829745,
				0.0008627193398543663,
				0.0004683559613159146,
				0.0005912532704632433,
				0.00022751681989186868,
				0.000543200306700173,
				-1.8767935637903355e-05,
				0.0007544780088297664,
				-0.0001859419290611106,
				0.0005701071295964582,
				-0.0008914589033553624,
				-2.834736361952443e-05,
				-0.0008719571078750572,
				0.0006434898545369192,
				0.000373208581747728
			],
			[
				-0.0009228538375444034,
				0.00021395189483243014,
				-0.0005986696968613067,
				0.000398649525846888,
				-0.0003973581087421609,
				0.0003571369457053453,
				-0.0006074000050485808,
				0.0007550264487645375,
				-0.0008956357435072216,
				-0.000526089462163261,
				-0.00022515078806960927,
				-0.00023127843746592852,
				-9.253240885506069e-06,
				-0.000486143918069369,
				-0.0006274295586722338,
				-0.0004826125175263591,
				0.0006788328395848323,
				-0.0008987153966874666,
				-0.00046694624527776824,
				0.00026376185957455037
			],
			[
				-0.00025700899254214263,
				-0.0005906356155057253,
				0.00043095804409245056,
				0.0008115732395328815,
				0.0008483854081679494,
				0.000999156240356984,
				-0.0008699285279309617,
				-0.0005755289309995119,
				-0.0003564651120675133,
				-0.000734069041566807,
				0.0004793298320145572,
				3.700859327432642e-05,
				-0.0009276674120035913,
				-0.0009877899259232215,
				-0.00028621149966335407,
				0.0007268544121084471,
				-0.00023727530226431948,
				-0.0003131719064035479,
				0.0007331184341137177,
				7.77316387141503e-05
			],
			[
				-0.0006014416927539579,
				-0.00036526782214887346,
				0.0005256705984700001,
				0.0002882043569348506,
				0.0003635228512787333,
				-8.532046153610095e-05,
				-0.0004207710501504101,
				0.000459847614268974,
				-0.0009445225581194228,
				-0.00016373199211499798,
				-0.00040034051216146277,
				0.0003223497461368498,
				-0.00024251545400801543,
				0.0006866592230263036,
				-0.0004192177960801271,
				8.51031581177704e-05,
				-0.000912027685906089,
				-7.966050581457692e-05,
				-0.000648774729866606,
				-0.0003770280351083462
			]
		],
		[
			[
				-0.000731088515472816,
				-0.0006039391088684656
			],
			[
				-0.0005572542954465419,
				-0.0003404015160781723
			],
			[
				0.00040257710753694624,
				0.0009671606237865592
			],
			[
				-0.00017293368237275564,
				-0.00046588592191817546
			],
			[
				-0.0006618162590058064,
				-7.875764344845689e-05
			],
			[
				-0.0004938561198331791,
				-0.0002494540171483977
			],
			[
				-1.3645737276924471e-05,
				0.0006756039384227834
			],
			[
				0.00013905758284535308,
				7.458851319827511e-05
			],
			[
				0.0003678596798427445,
				-0.00012288466991415168
			],
			[
				0.00045371555404886727,
				6.416447040357505e-05
			],
			[
				0.00010950400593793663,
				0.0005439174418943996
			],
			[
				-0.0006665707106943097,
				-0.0004188504151635535
			],
			[
				0.0008181801235582931,
				-0.0006144861702059787
			],
			[
				0.00039320449282932734,
				-0.0005270120826541607
			],
			[
				0.0007845153025807345,
				0.0006333115653666848
			],
			[
				-0.0005469732706266071,
				-0.0006990013572295113
			],
			[
				-0.0008631364794749647,
				0.00036737816393864046
			],
			[
				0.0005105493800195888,
				0.0005697045064394632
			],
			[
				-0.0005641059717369373,
				-7.602312932662736e-05
			],
			[
				-0.0009294032449116565,
				0.0005880278377570838
			]
		]
	]
}