{
	"model_params": {
		"input_dim": 10,
		"units_per_layer": [
			20,
			20,
			2
		],
		"acts": [
			"leaky_relu",
			"leaky_relu",
			"identity"
		],
		"init_type": "uniform",
		"batch_size": 200,
		"decay_rate": 0.95,
		"decay_steps": 576,
		"epochs": 800,
		"lambd": 1e-05,
		"limit_step": null,
		"limits": [
			-0.001,
			0.001
		],
		"loss": "squared",
		"lr": 0.005655844946607864,
		"lr_decay": "exponential",
		"metr": "euclidean",
		"momentum": 0.7709349296879282,
		"reg_type": "l2",
		"staircase": true
	},
	"train_params": [],
	"weights": [
		[
			[
				-0.00044137402073743414,
				0.00013045758544533723,
				-0.0006653862570712203,
				0.0003304925937838495,
				-0.0006901335443674148,
				-0.0007920376192463678,
				0.0005496870959430789,
				-0.0003703922903809891,
				0.0007169928811460626,
				0.0006517403428300396,
				-0.0009023489195179555,
				0.0008779653717713408,
				-0.0008638460723105517,
				-0.00025952521877637596,
				-0.000304734456786252,
				0.0006257965395885282,
				0.0008532381311071432,
				0.00011751926099710128,
				9.985335400035486e-05,
				-0.0004417011352322315
			],
			[
				0.0006358189390865147,
				0.00021901567003758328,
				-0.00027741901060015324,
				0.00015767365767782354,
				-0.0004378446024994276,
				0.0007987946089660855,
				-0.0006226398285260682,
				-0.0008149752340947139,
				0.00035276889130777937,
				0.0008629194964791308,
				-0.0008784116045820581,
				0.00011499805335858887,
				0.0004199508559191373,
				-9.176454901518123e-05,
				0.0002661389551312349,
				-0.000685300096588833,
				0.0004129601703011885,
				0.00014089668509263144,
				-0.000694396738544443,
				-0.00010207937977431674
			],
			[
				5.297416050623017e-06,
				0.00037212933441642783,
				0.00028740707855765576,
				0.0008721351200790314,
				0.0009492353188878214,
				0.00037415226537405063,
				-0.0007512097604787736,
				-7.737817819847065e-06,
				-3.810268148747055e-05,
				-0.00010630230006147844,
				-0.000974501458341899,
				0.0008456990085721396,
				-0.000867722798330567,
				6.848492949044225e-05,
				-0.00013474780175452806,
				0.0006869966729211657,
				0.0009356649046494178,
				-0.0008603563450248776,
				0.00015694691721054128,
				0.0003551598876112682
			],
			[
				0.0002623028363696511,
				0.0009221890846154034,
				0.0006461456055055184,
				-5.435653122096086e-05,
				0.0008003226004218804,
				0.00015145785047226252,
				-0.00048485974921211425,
				0.000602903129227462,
				0.0004214175270612626,
				0.0007782895355032773,
				-0.0006746532532869019,
				-0.000947899285187692,
				-5.3848094465390266e-05,
				-0.0004957618545500429,
				0.00019332181373517905,
				0.0009863718176815837,
				0.00026557429551860414,
				-0.0008920399991291521,
				4.7729084325169504e-05,
				-0.000743785705135505
			],
			[
				0.0003704316699256174,
				-0.0007465359162279561,
				0.00034514241774081817,
				0.0006774059161679909,
				0.0007512177811339344,
				0.0007643153543144736,
				0.0003899027168892729,
				-0.0004099621382552712,
				2.2020393378288476e-05,
				-0.0005315178225044286,
				0.0004297123316738033,
				-0.00010660912499833766,
				-4.66694639408618e-05,
				0.0007956565971623021,
				-0.0006115480173656904,
				-0.0008028488464117518,
				0.0009811580691719167,
				0.0008086685855975564,
				-0.00014149570785893493,
				-0.00016172277148149554
			],
			[
				-0.000750704629885727,
				0.00042743730084513973,
				0.0006719080508825223,
				-0.0007135401003654127,
				-0.0009980744090085547,
				9.208517077119623e-05,
				-0.0008367397953773781,
				0.000691609072152154,
				-0.0005921337725839047,
				-0.00043301435070621343,
				0.0004938253881700697,
				-0.00011427985022263829,
				0.0003212938372776854,
				-7.42510422207408e-05,
				-0.0008048790008512867,
				-0.00025221278503072654,
				-0.0003976359958744888,
				0.00040100258603368547,
				-0.0007024130501693978,
				-0.0006569076526745472
			],
			[
				0.0009450444069193369,
				-0.00023510306496841939,
				-0.0009233374322459549,
				0.0009790364614543647,
				-0.0007540605797267399,
				-0.0005015179553818503,
				0.0009845217431965073,
				-0.00024390241220251263,
				-0.0008753214888660903,
				0.0009374524356145484,
				-0.0009060873702550747,
				0.0009185509901094636,
				0.0007712581451280536,
				-5.937449326148467e-07,
				0.0004304631502436043,
				0.000554594856326521,
				-0.0006681242264364338,
				-0.0002982868332550863,
				0.00017835028135985411,
				-0.000622403840060405
			],
			[
				-0.0008865526161423883,
				-0.00037665723011230906,
				-0.0001854177884315169,
				-0.000531474422304522,
				0.0006927272270630309,
				0.0007638811736821911,
				0.0005874592753520118,
				-0.0007838755002132889,
				0.00027795501307792316,
				0.0005799170183209492,
				4.785963209314901e-05,
				-0.000924588593668241,
				-0.00011281617824058523,
				-0.00047718916241234544,
				-0.0004869489616485461,
				-0.00029860880880847084,
				0.0002909927268094372,
				-0.0006661350673521052,
				-0.00045139644494716837,
				-0.00020845193729081713
			],
			[
				0.0008089759455133987,
				-0.0008789404522131592,
				-0.00026077732787412435,
				-0.0005328354622038263,
				0.0005476604995699825,
				0.0001215107254888448,
				-0.0007646153001763054,
				-4.003117828502243e-05,
				0.0007121229113849377,
				0.000283702187469144,
				-0.0007926349583646757,
				-8.388435683227998e-05,
				0.0008914401256446879,
				-0.0008383777871093378,
				0.0006739235855051887,
				-0.00043654964191015063,
				-0.0009576418020655593,
				-0.00032602342601753943,
				-0.0007383908279389045,
				0.0009240438435464376
			],
			[
				0.000647291261221164,
				-0.00016254707442312725,
				-0.0005597215009016591,
				0.00017884167637459121,
				0.00022782157690665029,
				-0.0007973710721580985,
				0.0005407257100384204,
				-0.0004555880865333117,
				0.0001763293447340547,
				-0.0004993219259648078,
				0.0002530320237408548,
				-0.000597653534173891,
				0.0005304443958489746,
				0.000532300853789321,
				0.0004353557724480902,
				-0.0007749046299681073,
				-1.1287725215766145e-05,
				0.0008779120647061114,
				0.00033281675779103705,
				0.0004808122078308139
			]
		],
		[
			[
				-0.0006832154631320842,
				0.00024919616589358547,
				0.0007188961840686077,
				0.0009314827993387952,
				-0.00024071745067582608,
				-0.000326476934841335,
				-0.0004305552994467043,
				0.0007998953276751152,
				-7.025831027025525e-05,
				-3.910809447333133e-05,
				0.00044703716853995473,
				2.811656781255426e-05,
				-0.00034301331704162427,
				-0.0007411802814244057,
				5.7435217023344386e-06,
				-0.0006844895811130283,
				0.0001775304436588349,
				-0.0005732031687574419,
				-6.36596100843514e-05,
				0.0008526733244208684
			],
			[
				9.29221877677413e-05,
				0.0003467404000309486,
				-0.00042317153356158865,
				-0.0005742900173396511,
				4.693283233212116e-06,
				0.0006949914214632608,
				-0.0003856191174567145,
				0.0006046389306133839,
				-0.00030426868356741286,
				3.2730153028800914e-06,
				-3.144344552429804e-05,
				-0.0009998776115658688,
				-0.0002779138604475595,
				0.0006958944093627935,
				0.0007145556312878295,
				7.0204831216294505e-06,
				0.0009201876668087144,
				-0.0007957078726994824,
				-0.0005548419534476795,
				0.000605919640984403
			],
			[
				0.0009948122887908323,
				-0.0006326192616892001,
				0.00045815662858953755,
				-0.0009657190149342972,
				-0.0007367024763513732,
				0.0005541934544120277,
				-0.00011057669655766889,
				0.0009228575272168704,
				0.000919009863785352,
				0.000932356109796762,
				0.000998243422322736,
				-0.0003475495095824966,
				0.0009772214238024908,
				-0.0002097209997684844,
				0.0005208168347843945,
				0.0009201901918914949,
				-0.0008006938725461985,
				0.0002570663624466426,
				-0.00046193112567258915,
				0.00011601534866491803
			],
			[
				-0.0008253428871350743,
				-0.0008296596051015952,
				-0.00024501945547379406,
				-0.0008635514330733263,
				-0.0007659250687464506,
				0.0006463600891958355,
				0.00038302356798080423,
				-0.0006586948684972278,
				-0.0009269668975798093,
				0.00048170854438434594,
				-9.458074931717995e-05,
				0.0006414295470478504,
				-7.750565695320935e-05,
				0.00044188498288280816,
				-0.00011341197376352305,
				0.00044854606522247995,
				0.0006426953709806342,
				-0.0006440229696446045,
				0.0007371924403587584,
				0.0006547956611945049
			],
			[
				0.0003726561055759183,
				0.0001537001295407324,
				-0.0007597261046354941,
				0.0007365121075670789,
				0.0007577503846074648,
				0.0009362028030118373,
				-0.0008807957752458003,
				-3.448328566308138e-06,
				5.955650308475994e-05,
				0.0008247054354406649,
				-0.0003455970662118457,
				-0.0007424424144903035,
				-0.00020121617402568215,
				-0.00025519985921218687,
				0.0005151813433437254,
				-0.0003574097828756295,
				-0.0009314302474165748,
				-0.0008703955327821653,
				0.0006996381887955845,
				0.0005081552599230051
			],
			[
				0.00038460653748899646,
				-0.0001835628747481246,
				0.00013160368663857683,
				0.0008794993664149203,
				-0.0006660318428279197,
				-0.0008690622247329858,
				-0.0008928881239552138,
				-0.0006423371678964565,
				0.0006542058112478533,
				0.00022821615707876042,
				-0.00013651041087924074,
				-0.0003770976493041309,
				-0.0007619052236509957,
				0.00011137558350784072,
				-0.00029050743753129685,
				-0.0008862151101414644,
				0.0001527839381033425,
				-0.0008443548316480461,
				0.0007406744923762194,
				0.0005963150744884192
			],
			[
				-0.00013971930154701908,
				0.00034214075011168186,
				0.00040558870650085144,
				2.9077968381619216e-05,
				0.000633352926678708,
				0.0005783656706376391,
				-0.0008680972809654223,
				0.000598156476408699,
				0.00014269276311039089,
				-0.0006263415592021122,
				0.0009890173755249835,
				2.049989014745162e-07,
				0.00014006554051121715,
				-0.00022834274768269644,
				-0.00056666385151151,
				-0.0001664916734375908,
				0.0008298177030701939,
				-0.0001379405937677467,
				-0.0002346597991206643,
				-0.0008652441168009914
			],
			[
				0.0005029317073731209,
				0.0002695428471153694,
				0.0002339463548440728,
				-0.0004040318871011794,
				0.0009763941918298942,
				0.0008348625261647006,
				0.0007564276656381039,
				-0.0008993876827693996,
				-0.00019993335724337639,
				-0.00022107521097123066,
				0.00027583827483951165,
				-0.0005449210044455683,
				-0.0009343218090901453,
				0.0009498493980537044,
				0.0009950029476135163,
				6.221376970571104e-05,
				0.000945616949359926,
				-0.0005309468460832243,
				0.0006550656573857398,
				-0.00021594088252992183
			],
			[
				0.00011724410263217258,
				-8.384020215713116e-05,
				1.9678183115849493e-05,
				0.0008760254441715321,
				-6.823532901927161e-05,
				-0.0009555712222315735,
				0.00027888202315302533,
				-0.0009674141216878101,
				1.719624567169081e-05,
				-0.00013180661305399629,
				3.648621546262221e-05,
				-0.00045063247697379593,
				-0.0006893390018709067,
				0.000943078345296169,
				-0.0006608515811084728,
				-0.0006525797037696408,
				-1.711747851001707e-05,
				6.704015649020229e-06,
				0.00025135910089556885,
				-0.0008430677867313566
			],
			[
				-0.0009519058779008393,
				0.0002319644764267922,
				-0.0007117871263953197,
				-0.0005586194183603282,
				-0.0001523072568107829,
				0.0005511333139121102,
				-0.0007063309026326011,
				0.0007802713198040363,
				0.00030553630532352874,
				7.672257353501309e-05,
				-0.00016593437242129981,
				-0.0004352299683846501,
				-0.00012647383857677854,
				-0.0004553520690932795,
				0.0003647801588618233,
				0.00017715874310229559,
				0.00038221279983180413,
				0.0008942333857919536,
				7.797442463576684e-05,
				-0.000713960516144792
			],
			[
				0.0009603582404337095,
				-0.0008968115512758745,
				0.00014344627068131654,
				-0.00030295481845054554,
				0.0009780574958188487,
				-0.0008359862158797924,
				0.00046625184393173547,
				0.0007572496298545004,
				-1.8848474996512737e-05,
				-0.0007631612874586151,
				0.0003240534073046316,
				-0.0005094233179412549,
				-0.00033522480401256807,
				0.0006328099283734372,
				-0.0008441834895969332,
				-0.0003797688928523069,
				0.000855892246604723,
				0.000995263645820487,
				-0.0009337127964089469,
				0.0001876222692888624
			],
			[
				0.0008732298607519885,
				-0.0001344125664688383,
				0.0005038293639740858,
				-6.490934477019041e-06,
				-0.0009147802658510745,
				0.0006753903853475118,
				-0.0007023921128956577,
				-0.0009399933879273572,
				0.0006896289271652442,
				0.0005021986602327657,
				0.00013697439631672032,
				0.00037421176970152165,
				-0.0004642618513967738,
				0.00016844032879807162,
				0.00010356156008189217,
				-0.0003401624686546974,
				0.000963131334725126,
				-0.00048406685103529075,
				0.0006922859405853058,
				0.0005373921599498986
			],
			[
				0.00026124990250951576,
				-0.00031478437343234703,
				-0.00021198315089707197,
				8.521721767256775e-05,
				6.10167718386595e-06,
				5.3626201147937693e-05,
				-0.0006748640627771518,
				0.0008553355740153117,
				-0.0002857674721091013,
				0.0007275628641756891,
				-0.000957712128150914,
				-5.946359963069183e-05,
				-0.0006311708052942368,
				0.0006488072324090193,
				-0.0009718262470210717,
				-0.0003414975915570919,
				0.0007231785389284766,
				-0.0008359697090993905,
				0.0009838338455347303,
				0.0009599651253343888
			],
			[
				0.00037539913089235186,
				0.0007102423929575142,
				0.0006793525565011566,
				0.0005068160786873555,
				0.00015826575442088155,
				-0.00034149808591741855,
				-0.0004579666045117567,
				-0.0005795325217122907,
				-0.0009908384614075603,
				-0.0006047896249737716,
				-3.0254884117890185e-05,
				-0.0003306149315485885,
				0.0006196486398407277,
				0.0009192649230727165,
				-0.0007615715946516863,
				0.0001653475876158795,
				-0.0009195734670732794,
				0.0008470353080158213,
				0.0002246160000045534,
				0.00016247317892308533
			],
			[
				0.000939390779603175,
				0.0005698126168745606,
				-0.00029176397697597896,
				-0.0003585185386410914,
				0.0005877629139455741,
				0.00025169228960246373,
				-0.00028658403843007487,
				-0.0006869962723032814,
				-0.0009977269309104466,
				0.0003179633258557004,
				-0.00045568571319293217,
				-0.0006457934450156304,
				-0.000370698190524176,
				-0.00070594616293546,
				-5.2578729280331284e-05,
				0.0004429067176676129,
				0.000809949424813067,
				-0.0004068678617497175,
				-0.0008771955271078915,
				-0.0007611787139187633
			],
			[
				9.445251516805261e-05,
				-0.0002545842975222221,
				0.0007861448942897455,
				-5.223185232794815e-05,
				0.0004872999810915772,
				0.0005777875934706034,
				0.0002989700372852059,
				0.00031244800245888564,
				-4.823300398657795e-05,
				-0.0005195460947309757,
				0.0005751865104516849,
				0.00031570361053817066,
				-0.0002890255510398348,
				0.0005320648012887375,
				0.0007082234593352628,
				-0.0003437927353722736,
				0.0001026804688671393,
				0.0009037463518164323,
				0.00046323598317447217,
				-0.0007745023663996153
			],
			[
				0.000535065555403752,
				0.00043513737357359864,
				0.00013000915932997797,
				0.00022867234630945168,
				0.0002946187926452621,
				-0.0008727979686797289,
				-0.00018377306679505097,
				-0.0007053718140895509,
				-0.0006890233852854753,
				0.00010256712936217356,
				-0.0001757004560218933,
				0.0007794513572417026,
				0.0009472665604011541,
				-0.0006895569027997823,
				-0.00020877740730676345,
				-0.0008024349004953149,
				4.136666291283523e-05,
				-0.0006582212919146993,
				-0.00015678391312464552,
				0.00018291644202795047
			],
			[
				-0.0006074920527853009,
				0.0003034882130092981,
				0.0004850478497614361,
				-0.0009223789882626148,
				-0.0006152347129463514,
				0.0009829716353931977,
				-0.00027233379789829717,
				0.00021022657281147988,
				-0.0004331072071243631,
				0.000427374197055195,
				0.00040587857941860005,
				6.964396364257056e-05,
				-0.0006350333298679063,
				0.0005113491893530093,
				-0.0004680711920714873,
				-0.0004213844199090957,
				-0.0005844571644337106,
				-0.0005439303150860501,
				0.0008529543198802884,
				-0.00037737162574152277
			],
			[
				0.00048814505231029883,
				-0.0008254679106263443,
				-0.0007146921732490083,
				9.764077586137815e-05,
				0.000959257429095087,
				-2.4397659085958015e-05,
				-0.0007329444015838271,
				0.00013364179724147194,
				-0.0005918738734831319,
				0.0006644776943039966,
				-0.0005041695860702165,
				0.0006735644213557259,
				0.000554890321602515,
				0.00033624035426393223,
				0.0006095134102745855,
				7.831402952041184e-05,
				-0.0005878187309394471,
				0.0002635696047430967,
				0.0005318971146323214,
				-0.0008634140874296463
			],
			[
				9.726290001549451e-05,
				-0.000915953322924667,
				0.0009496863441591334,
				0.0009471640442567817,
				-0.0004988345844245144,
				-0.0002739055820106435,
				-0.000994175843811525,
				0.0002307786926845773,
				3.4843655605697015e-05,
				-9.352456276245187e-05,
				-0.0003138853968153874,
				-0.0005046345808333159,
				0.0008388518493537009,
				0.0008253716946086686,
				-0.0001862552896656211,
				0.0006669678794295802,
				0.0001760533396918773,
				0.0002919517619909271,
				0.0008157084329884394,
				0.000929993736502535
			]
		],
		[
			[
				-0.0007849741545152782,
				-0.0002668506705238034
			],
			[
				-0.00012795712772661677,
				0.0002579788929589807
			],
			[
				5.2705068159255696e-05,
				-0.00029702744466439705
			],
			[
				7.531673215100754e-05,
				-0.00040624972340399374
			],
			[
				-0.0004245016412379346,
				-3.5572485440638524e-05
			],
			[
				0.00024087559836448078,
				-0.0006233929357184265
			],
			[
				0.0009340005623745126,
				-0.0002974290308142769
			],
			[
				0.00012287921805302898,
				-0.00047268856847871297
			],
			[
				0.0008291703067054808,
				-0.00015802450924293665
			],
			[
				0.0004754658900402481,
				8.549870981335787e-05
			],
			[
				-0.0007014185690844092,
				0.0008009710682895094
			],
			[
				0.0009745943548842275,
				-0.0009078681750839768
			],
			[
				0.00023328386807160064,
				-0.0004228379479500519
			],
			[
				0.0004319185869620366,
				0.0004471062721852362
			],
			[
				-0.0001024898574120245,
				0.0006943647827518163
			],
			[
				-0.0004790545004755808,
				0.0005508740274900242
			],
			[
				-0.0006987721970629971,
				0.0007199196498786592
			],
			[
				-0.0009091364498027146,
				0.00029969275577865977
			],
			[
				-0.0005887081820050693,
				0.0007771565469084207
			],
			[
				-0.0005990073537356089,
				-0.00040260581833004565
			]
		]
	]
}