{
	"model_params": {
		"input_dim": 10,
		"units_per_layer": [
			20,
			20,
			2
		],
		"acts": [
			"leaky_relu",
			"leaky_relu",
			"identity"
		],
		"init_type": "uniform",
		"batch_size": 200,
		"decay_rate": 0.95,
		"decay_steps": 576,
		"epochs": 800,
		"lambd": 1e-05,
		"limit_step": null,
		"limits": [
			-0.001,
			0.001
		],
		"loss": "squared",
		"lr": 0.005655844946607864,
		"lr_decay": "exponential",
		"metr": "euclidean",
		"momentum": 0.7709349296879282,
		"reg_type": "l2",
		"staircase": true
	},
	"train_params": [],
	"weights": [
		[
			[
				-0.0007288179089604918,
				-0.0005344014368625697,
				-0.0003317825782682795,
				-0.0009893330912767635,
				0.00011549476062063576,
				-0.000702104212678525,
				-0.0006844404078015943,
				-0.00011215899229708695,
				0.0007547727965221886,
				8.264985388017204e-05,
				-0.0008269254548382961,
				-0.0007032369314920779,
				0.0006811423083559801,
				0.0003895342862598758,
				-0.0005198738157208432,
				0.00036465503949689856,
				-0.0004036716893905623,
				0.000253086916833675,
				-0.000857455836349609,
				-0.00019708536338930395
			],
			[
				0.0007823324921236545,
				0.0006674139295229028,
				0.000753627076465047,
				0.00027610072754954084,
				0.0004862480194826153,
				0.0002326961496108839,
				-0.0009828150028700073,
				0.000292192499130223,
				-3.2644633083814614e-06,
				6.22599106672964e-05,
				0.0006176808780613018,
				-0.0005901008538108728,
				-0.0003198069829193611,
				0.0009277405725338621,
				-0.0009704240993751601,
				0.00016410802419537926,
				-0.000349997320232009,
				-0.0007723038711632557,
				0.0009686187945345394,
				-0.00048529067517903376
			],
			[
				0.00022190897570395322,
				0.0003833123776944235,
				0.000578962710765441,
				8.361420491926415e-05,
				0.0004717655305825231,
				0.0007145862993319914,
				0.0004085439195130958,
				0.0007172874536585979,
				0.00020057604831080354,
				9.096131084140933e-05,
				0.00016051909408804662,
				0.0008971152565297148,
				0.0006403050426172583,
				0.00043358952824388793,
				0.0009882863831097112,
				0.00024925177934596865,
				7.623908633570928e-05,
				-2.8629753569178805e-05,
				0.0001735563064179772,
				0.0009570039456893642
			],
			[
				-0.00044928136353132575,
				-0.0009050680401826072,
				-0.00031570158765984683,
				-0.0001079828942328958,
				0.0005751556763243723,
				0.00027095666963904055,
				-0.0007385539117697251,
				-3.8167141072312986e-05,
				0.0006211176434828289,
				0.00043954785214860796,
				-0.0007184717125374186,
				0.0007468555874103901,
				0.0007662777398063836,
				-0.0007628630408533554,
				0.00027250340274518974,
				0.00029248200959015717,
				-0.0008852261903179606,
				0.0009562442325337399,
				0.0007675208344461045,
				-0.00046416795513083155
			],
			[
				0.0007973398282608752,
				6.212314984948967e-05,
				0.0008410774925655747,
				0.00021872010992839532,
				-0.0009566640027714204,
				0.0004122700885038047,
				0.0006391210660488132,
				4.120623931473818e-05,
				0.0006545120552434299,
				0.0005206610548842826,
				-8.122338260490604e-05,
				0.0003792468026159626,
				-0.0002737265026073252,
				0.0006872206521443098,
				0.0006859310423982731,
				4.232938313415897e-05,
				-0.0006355092425080416,
				0.0001655717895381419,
				-0.00025182632422012104,
				0.00013953556803513335
			],
			[
				0.0003709223213050189,
				-0.0005224679947661644,
				-0.0004745636762675127,
				-0.0008093418675983565,
				0.00042834640729635747,
				0.0003406304172381665,
				-7.770885124493176e-05,
				-0.0002602989261485067,
				0.000907359864477727,
				-0.0002343120025538989,
				-0.0005255785714370197,
				-0.0006495087687062726,
				0.0009782223918497097,
				-0.000545243336984846,
				-0.0005008328697751932,
				-0.0009251927835957572,
				0.0005428018166643614,
				0.0009202857135493167,
				-0.00016476927590256072,
				0.0007077241738608965
			],
			[
				0.0006044148346000121,
				0.00035499104056261124,
				3.257835815513653e-05,
				0.0007065373290484345,
				0.0004527716067597345,
				0.0004367677872714991,
				-0.0008631098949909864,
				-0.0005262789107706671,
				0.00048514590279437504,
				0.00023347671204672956,
				0.00011128099384348695,
				-0.0009382195275038859,
				0.00042235114336099,
				-0.0008752389521099866,
				0.0003405645394156957,
				-0.00039165101405458434,
				9.371842753500264e-05,
				0.0009886633417141976,
				0.0002524762923162803,
				-0.0004767876657913626
			],
			[
				0.00022088284761967187,
				-0.00021209353738060302,
				-3.0004408423603998e-05,
				0.00037156870910411426,
				0.0008825098854811826,
				0.0005308104265981453,
				0.0006769164201765898,
				-0.00011655893866128748,
				0.0008757198009390814,
				-5.674414622843969e-05,
				0.0006302671436985157,
				0.00013294523105393833,
				-0.0006917719169450494,
				-0.0005866945430735579,
				-0.00023813185354364162,
				0.00015127040353413016,
				-0.00036137680725340275,
				-0.0007767366010844393,
				-0.0007125633848455795,
				0.0005926738646549101
			],
			[
				-0.0009888625749223817,
				0.0008863395439263806,
				-0.00019876842683808603,
				-0.0009466149297483635,
				0.0009541365435844188,
				0.0005504674404934894,
				0.000845808905530751,
				0.000828296422038691,
				-3.3612455724408e-05,
				0.0003251982982505578,
				-0.00044685494280876053,
				0.0004955786098471129,
				0.0002717670097111646,
				0.0009737611347122072,
				-0.0002502033525856063,
				0.00036531123292306354,
				0.0008981277984094105,
				5.030958139998882e-05,
				0.0002945369045899049,
				0.0009240155123301987
			],
			[
				0.0006430442349833333,
				0.0006687749511505722,
				8.004296852144057e-05,
				-0.0005574672400569114,
				-0.0005238325274288065,
				-0.00037797495711644285,
				-0.0009480191302632917,
				0.00018926437170789122,
				0.0001772327510283138,
				0.000521109946267204,
				-0.0006065987527185193,
				0.00014515881324026793,
				-0.00013148596659330017,
				-0.00014984099137841072,
				-0.0007013780188184111,
				0.00023034530032177382,
				0.0009803329558333964,
				0.00029063005472737807,
				-0.0009588335762737532,
				-0.0005921228230311329
			]
		],
		[
			[
				-0.00046872550220446564,
				-0.0006192155293388702,
				0.0005520695524016106,
				-0.0005688487624256795,
				0.0004441367162362302,
				0.00039973521777198406,
				0.00047133746582993046,
				0.0007119223590510639,
				-0.0008192888157582732,
				-0.0004385546924670212,
				0.00036918415844328003,
				-0.0007666536385366098,
				0.000639772793944199,
				0.0008692327128725045,
				0.0004348283944850227,
				0.00011888387618088996,
				-0.0005059202722408654,
				-0.0007785006494764601,
				-0.0008157754416869257,
				-0.0006009799387622836
			],
			[
				-0.000942124504277601,
				0.0007664678133997851,
				0.0004394629270090054,
				-0.000990982960733934,
				-0.0008826337671848781,
				-0.0002613574786593433,
				-0.0009357817288460509,
				-0.0006952303454045095,
				-0.00019859019086252024,
				-0.0005483257276025564,
				7.9110002050309e-05,
				0.0007321216753419406,
				-0.0003434601647395115,
				-0.0009812856885234084,
				-0.0008794022205582639,
				-0.00029066263171936965,
				0.0008097079320759702,
				0.0005147855856622624,
				-0.0002621809094974565,
				0.00034583020625976045
			],
			[
				2.3079288989070372e-05,
				0.0004804928819165115,
				-0.00045531251766504585,
				-0.0007788329504070224,
				-4.956353222846646e-05,
				-0.0004979112523190295,
				7.756845941853281e-05,
				-1.6891895930397577e-05,
				0.0007480553158397945,
				0.00011092040585352942,
				0.0005234631595832831,
				-1.99338743724711e-05,
				0.0003537554550041835,
				-0.0009458508783763546,
				-3.955461353035133e-05,
				-0.0007791280547098156,
				-0.00022346847970409155,
				0.0009996218157559533,
				-0.0008771397866960444,
				-0.0005514341475738658
			],
			[
				0.00038726450071400044,
				-2.6539456238619812e-05,
				0.00018289950163649258,
				-0.000492340886072737,
				0.0008704512841126934,
				0.0002885282582019103,
				-0.0003683387456457943,
				0.0008053705976184692,
				0.0006143892924394948,
				-7.016298105670194e-05,
				0.0004753798295415205,
				0.0008839850128170566,
				0.0007637355551097429,
				0.000704882100576124,
				-0.0002888183186197413,
				-0.00022879786302298748,
				0.0009871754258880773,
				-0.0007326620508645231,
				-7.047017322129711e-05,
				0.0006938390013829507
			],
			[
				-0.0007671141085547102,
				-5.3845339427462764e-05,
				0.0003046434536611562,
				0.00024876606728974917,
				0.0004608256496656507,
				-0.0005575291946700574,
				-0.00041391318282544783,
				0.0005246692062365126,
				-0.0007331220281845193,
				-0.0005200781647815406,
				-0.0005002899170208804,
				-0.00013105548103458742,
				-0.000846404944061173,
				-0.0006250115274946029,
				-0.0005080837274855272,
				-0.0009065687048601146,
				-0.0007167346659289555,
				0.000873651941762015,
				-0.0006876342551571618,
				0.0009411417877131332
			],
			[
				0.0008738167461062847,
				0.0009984942113400118,
				0.00015647655422959864,
				0.000867536556484754,
				-7.861079995860588e-05,
				-7.471364225537758e-05,
				-0.0008016188579448096,
				-0.0009560915209601943,
				0.0006796033566631131,
				0.0004686474162268108,
				0.0006647113961979329,
				0.0005791434929539102,
				-0.0002493048709166605,
				0.0008149411680698202,
				0.00026244978487558455,
				5.206883718257495e-05,
				0.00024264198479570227,
				0.00031878448919265114,
				-0.00030957098114656905,
				0.0003442542731069433
			],
			[
				-0.0009413778378340013,
				-1.9038038811267652e-05,
				-0.00015696551999993267,
				0.0003812918041038711,
				0.0006522337460482055,
				0.0002145060186638779,
				-0.00010965673794873323,
				-0.0007094360721990856,
				-0.00016039996318888377,
				0.000918144440193464,
				-5.7390550241726685e-05,
				-0.00030416816756076925,
				0.0004042898846281745,
				-0.0008019129966522387,
				-0.0009308248206704541,
				0.00036625408826772353,
				0.0007602964024141065,
				0.0008727048560868305,
				-0.0009636960571889006,
				0.0002128313876164946
			],
			[
				0.0009392970642029363,
				0.0004662550071231487,
				-0.00019308604294585962,
				0.00015337406777862534,
				-0.0008256437948186127,
				-5.0124302292807997e-05,
				-0.0005172381719965756,
				-0.0006743708689034149,
				-0.00027724317501636223,
				-0.00039545171438860557,
				-0.0005904184517985461,
				0.0006330718488976419,
				-0.0009982731512563822,
				0.00032096905567411175,
				0.0009306077817710773,
				-0.0003336681032993698,
				0.00046342237606746516,
				-0.0005924127453503722,
				-0.0007955507921135296,
				-4.587334413822691e-05
			],
			[
				-0.0006551589120611014,
				4.078252821742927e-05,
				-0.0006296419925028383,
				0.00017780973407485485,
				-0.0009217855006327016,
				-8.804285417075917e-05,
				-0.0008313223235656595,
				0.000817730294843895,
				0.000285061431936648,
				-0.0009256379395621564,
				0.0006556733187649635,
				-0.0002466809542323907,
				0.0005033870422282915,
				0.000188142778726765,
				-0.00023348789475167075,
				0.000611210522306423,
				-0.0006739838912146279,
				-0.0005850276033815096,
				-0.000856753960534236,
				4.401230619047072e-05
			],
			[
				4.277321788763509e-05,
				-0.0003800673731102251,
				0.0002174760854931209,
				-0.00036897279565180634,
				-0.00039275553494292573,
				0.0001631127821646839,
				-0.0004594747501888637,
				0.0005752303085342816,
				0.0001535592964396473,
				-5.363560494624231e-05,
				-0.0009398113457112451,
				0.000338354287501292,
				-0.000131544521118977,
				0.0007014036062662919,
				0.0005919185346572695,
				-0.00018522231004723232,
				0.000876353653735396,
				0.0005880503150569993,
				0.0009522314657935478,
				-0.0002530386045806783
			],
			[
				-0.00044631333530909575,
				-0.0009187838641309902,
				-0.0007256030733338832,
				-0.0005338566634959811,
				-6.518506158194532e-05,
				0.0005787609736923279,
				-0.0005845165923244484,
				0.00010142756457791184,
				0.00010485489835016719,
				-0.00046930814322489775,
				0.0005255132057058604,
				0.0006411615977319645,
				0.000684377157822166,
				-0.0006394205859009918,
				0.00018150215057987783,
				-0.0006361126335480479,
				7.79647911693937e-05,
				-0.0005364835613546634,
				0.0006142085198047873,
				0.0007869017429567849
			],
			[
				-0.0001524459859099126,
				-0.0004207521323859149,
				-0.0003277787333802771,
				0.0007864124136739978,
				-0.0009527992738977924,
				-0.00037678732109788337,
				0.00042243930986619643,
				0.0009324856869139344,
				0.00025139129767067924,
				-0.00031604508263866787,
				0.00016340267914046868,
				0.0003372634272661274,
				-0.00017530463818413882,
				-0.0006733750016503874,
				0.00045401772688053875,
				0.0008516866695931491,
				0.000565486371204092,
				0.0001837113799582602,
				-0.0005107333147474101,
				0.0006379850058315084
			],
			[
				0.0006851552004450796,
				-0.000976451794845743,
				0.0006400584915558611,
				0.00030482600350525903,
				0.0008269135554220468,
				-0.0003398416088260112,
				4.20363957938626e-05,
				-0.000306681655116797,
				-7.921925949070285e-05,
				-0.0008022730490159018,
				0.0009408644015173569,
				0.0009738726044014405,
				-9.077373996640124e-05,
				0.00028812107994475385,
				0.00013064956331390338,
				0.0007675484441231363,
				0.0008828697330977233,
				0.00025007497798283434,
				0.0006024511429242969,
				-0.00023685998584217403
			],
			[
				-0.00021495467242618857,
				0.00017146538428046616,
				0.0009150766000122592,
				0.0004951121825794314,
				7.029465170120867e-05,
				-0.00044950423279615365,
				0.0004562327186632344,
				0.0006367292878374535,
				-0.0005367969955141454,
				-0.0006507299246201574,
				0.0006062729981515967,
				-9.657648099936102e-05,
				-9.621459703733294e-05,
				0.000929015744533621,
				-0.0005497931429300775,
				-0.0004245787867528466,
				-0.0001903628557044266,
				0.0004560963703967183,
				0.000640888200052376,
				-0.000762778198430512
			],
			[
				-0.0004169043417109657,
				-0.0007301714458306654,
				0.0007522106443384,
				-0.0002743997725784702,
				0.00059203298828662,
				5.246167634159315e-05,
				-0.0005533453069196486,
				-0.00043453571881709265,
				0.0004993078284074423,
				0.0009202777655932701,
				-0.0006331439455000995,
				-0.00022044984966366934,
				-0.0003112460428933635,
				-0.00010998880321078965,
				-0.0003174008266260351,
				0.0005282308475942998,
				-1.6299034032336845e-07,
				0.00028573563848809124,
				0.0009029767534330471,
				-0.0009790763365719543
			],
			[
				0.00021240695628652116,
				-0.0009655816356178191,
				-0.00010427285387837554,
				0.0007630750983845913,
				0.0009456524761899954,
				0.0007390396819852057,
				0.0007771800510141115,
				0.0007469842467809054,
				0.0009389922511543619,
				-0.000964806156364546,
				0.00021517331086286793,
				0.0005012014826893858,
				0.00014299144919069145,
				0.0007286551564404608,
				-0.0001473984439173719,
				0.0009775044712926548,
				-0.00027135873640283896,
				0.0009572382663551324,
				0.0008385206397837628,
				0.0007468433406848853
			],
			[
				-0.0005389369584248249,
				-0.0009239928539508058,
				-0.0009488391692215359,
				-0.0005640309656069902,
				0.0006921737797280138,
				0.00021563075087373913,
				0.0006899528521721514,
				-0.00017004903524855128,
				-0.00013969845754400459,
				-0.0007564008832841239,
				0.00030118149324082923,
				-0.0009419497824767352,
				-2.1518163968222998e-05,
				-0.0002785721120568534,
				0.00013307833549323043,
				0.00021018097049101906,
				-0.000379785157646797,
				-0.0007238650741514968,
				-0.0007672099838457081,
				0.00014584972503933302
			],
			[
				-0.0006213808633099829,
				-0.0009452803587115242,
				-0.0007018323705452164,
				-0.0007207396861827267,
				-0.0002804376259185479,
				0.0006756955772417577,
				-0.0004844476972956231,
				0.0005876655832154243,
				-0.0003901294162569595,
				-0.00034270510890869305,
				-0.0008981293631519038,
				-0.0003847689662956837,
				-0.0005360639235087676,
				4.857959884227653e-05,
				-0.0009730245467762664,
				-0.000909764705008329,
				0.0008409473527881746,
				-0.0002518131511439945,
				-0.0007273292151650332,
				-0.00093856732893341
			],
			[
				-0.0008406715999271525,
				-0.00023604035807938014,
				8.249773653867939e-05,
				0.0002807580238739281,
				-0.0004747269942283798,
				-0.00042732283626009334,
				0.0003961136475223383,
				-8.002804802657556e-05,
				0.0007945999684007255,
				-0.0008707038326959451,
				-0.00017319595827992515,
				0.00024048838081760972,
				0.00029737455098645697,
				-0.00014176236272413374,
				-0.0006060813678345045,
				0.00041691006830154903,
				0.00031802506699260026,
				-0.00040304079732062046,
				0.00018039123182011867,
				-0.0005408599624819696
			],
			[
				-0.00016966088501529073,
				-0.00031888657344360553,
				0.0006972803966558299,
				-5.127439524318781e-05,
				0.00040115320752762834,
				-0.00032381924531109136,
				-0.0004693257742357127,
				-0.0007079270438292589,
				0.0007368370395736856,
				-0.0004576449358974817,
				0.00041189606985338927,
				0.00032979351843807556,
				-0.0008925735543985601,
				0.0006524783722502844,
				-0.0007997118819499398,
				0.00038175931467594564,
				-0.0007531676236924006,
				-0.000883067380682193,
				-4.266756636051451e-05,
				-0.0007526371800957479
			]
		],
		[
			[
				0.0008729111754762441,
				-0.000509476833792057
			],
			[
				0.0005452170910354593,
				0.0004198412172218167
			],
			[
				0.000591102785484897,
				0.0002600129198787528
			],
			[
				0.0009699286999071697,
				0.0008240816515589844
			],
			[
				2.2073774429616196e-05,
				0.0003924490168930796
			],
			[
				-0.0009910359602813689,
				-0.0004856031909972818
			],
			[
				0.0006601651584249879,
				-0.00036897081881491413
			],
			[
				0.0004848094162457244,
				-2.757477277082589e-06
			],
			[
				-0.00030725905676044427,
				0.0007607738229841255
			],
			[
				-0.0007934890432818031,
				-0.0008695345174705605
			],
			[
				-0.0009650823341531047,
				-0.00020794997471315526
			],
			[
				0.0007087482467722833,
				0.000142606587243259
			],
			[
				-3.896912637091246e-05,
				-0.0005499391117948032
			],
			[
				-0.00024447090563608923,
				-0.0008350348825926819
			],
			[
				-8.4079305449166e-05,
				-0.0003808022603698074
			],
			[
				-0.00038714993947426253,
				-0.0008492383313801666
			],
			[
				0.00093345588638383,
				-0.0009904580068445616
			],
			[
				0.0003955254504785766,
				0.0004979018887456546
			],
			[
				-0.000834338825855223,
				-0.0009267331436230553
			],
			[
				0.00019661452405752037,
				0.0008863659886742003
			]
		]
	]
}