{
	"model_params": {
		"input_dim": 10,
		"units_per_layer": [
			20,
			2
		],
		"acts": [
			"tanh",
			"identity"
		],
		"init_type": "uniform",
		"batch_size": 16,
		"decay_rate": 0.95,
		"decay_steps": 500,
		"epochs": 700,
		"lambd": 0,
		"limit_step": 500,
		"limits": [
			-0.001,
			0.001
		],
		"loss": "squared",
		"lr": 0.001,
		"lr_decay": null,
		"metr": "euclidean",
		"momentum": 0.4199289601348085,
		"reg_type": "l2",
		"staircase": false
	},
	"train_params": [],
	"weights": [
		[
			[
				0.00022336619959038091,
				0.0002811940469102574,
				-0.000828447285049363,
				0.0006140570367664955,
				-0.00024150876681570455,
				-1.0328369781208895e-05,
				0.0002354652311350894,
				-0.0009264643889736386,
				-9.588498498803923e-05,
				-0.0007789866731051036,
				0.00022295299720315556,
				-0.0002800477375100636,
				2.4118584259565264e-07,
				-0.0001155746857580915,
				0.0007605869783675631,
				0.000697728354496088,
				0.0006330547458650543,
				0.0007691036131192287,
				-0.00089384108553126,
				0.0004688924089844969
			],
			[
				-0.0009924996960013167,
				-0.0008471213193844518,
				-3.1133574259130294e-05,
				0.0003978098608590811,
				-0.0009840909240225295,
				-0.0005213826847680754,
				-0.00011926585170825993,
				0.0009093092753777034,
				0.0006387026607107315,
				-0.000548950034529825,
				0.0006093324249696053,
				-8.474354699343327e-05,
				0.0005636106497251975,
				-0.0002786178806575139,
				0.0004078380299111033,
				-0.0002368643757104425,
				0.000528500095647747,
				0.000144783374045598,
				0.0006234440398520886,
				0.0007811771715889265
			],
			[
				-0.0003914374310803847,
				-0.0009129052650013703,
				-0.0003944996417327602,
				0.00022391216665399545,
				-0.00023044556661974453,
				0.0007966704838390493,
				-0.0008789167763379406,
				6.537651150305586e-05,
				-0.00027055903770425527,
				-0.0009085909591749195,
				0.0007829064327966578,
				0.0003537077014426585,
				-0.00013091026188034145,
				-0.0005126795263009046,
				-0.00042614661430953116,
				0.00046212262390438923,
				0.00020371588693007597,
				0.0003389867232130837,
				-0.0005651580230827556,
				0.00042962138553479597
			],
			[
				-0.0009955064770389964,
				-0.0007614740641871265,
				-0.0005528894597946865,
				0.0009377597005251993,
				0.0005046036650941908,
				-0.000316167575958441,
				0.0008332625244817868,
				-0.0003370874460550719,
				0.0009793037992022256,
				0.0006539179701186447,
				-0.00032286771590582216,
				-0.0005458722395330253,
				7.06581780596648e-05,
				0.00018192792169792016,
				-0.0006121718645757004,
				0.00018767588561606225,
				-0.00025443123662657614,
				0.0004077757301856719,
				6.639277926526253e-05,
				-0.0002257496004799144
			],
			[
				0.0007779920604156652,
				-8.932144538505214e-05,
				0.00018545530375123635,
				-0.0007066031047050707,
				0.0007314595855958577,
				0.0005094657882780496,
				0.0007976975808968838,
				0.00023798436582771524,
				0.0008981437781529727,
				-0.0004952746592515869,
				-0.0008036244595375302,
				0.00045483915313979605,
				0.0008996428107564448,
				0.000656465389108254,
				0.0006603135994656248,
				-0.0009582544632495884,
				-0.0002370215691250248,
				-8.91445722647641e-05,
				-0.0009867242193513082,
				0.0005344765567717811
			],
			[
				-0.0004398267942811369,
				0.0009217792169230752,
				-0.000992607590516941,
				-0.0007463649543724553,
				-0.0001711215239633821,
				2.6157846586077893e-05,
				0.000689148383139706,
				-0.0006281936952756422,
				0.0003029112293528467,
				-0.00017507700154292458,
				-0.00091380889279656,
				-0.0001507929457425925,
				-0.0008160989366789817,
				7.033771297008289e-05,
				-0.0004593950757314445,
				0.00033685848975759385,
				0.0005590794268664429,
				-0.0008773474820412493,
				-0.0002739629348642449,
				3.0116623269447508e-05
			],
			[
				-0.0007934528348068446,
				-0.0003722084092125089,
				-0.00022560182241576252,
				0.0003565348323117971,
				-0.0005739069175516736,
				-0.0007404940618419875,
				-0.00021668214900895193,
				0.0009769435737870397,
				0.0009970788164742448,
				0.0007607300163946166,
				0.0003278742494126829,
				0.0006827418005078164,
				-0.0008807337107505398,
				-0.0005447974950893204,
				-0.000377441071075372,
				0.00015340555961418194,
				-0.000866843960821863,
				-0.0004288013516946845,
				-0.0009481409708987871,
				-0.0006404579291248132
			],
			[
				-0.0006383929754659762,
				0.0007998529207828714,
				-0.000930057579358002,
				-0.0002225063083098693,
				0.0002444222019138485,
				-2.896946758126754e-05,
				-0.0005781522516287021,
				0.0009348738123471857,
				-0.0008286812132862045,
				-0.000846730310155874,
				0.0003444554778371416,
				-0.0009534307141640724,
				-0.0002522453373382487,
				-0.0007331401259024755,
				0.0007503282491560716,
				-0.0009078105018096659,
				-0.00037648355792399026,
				0.0008333229522173289,
				-8.943228249222012e-06,
				6.883920968868635e-05
			],
			[
				-0.0003261400558364489,
				0.0009084253067140383,
				-0.0009019523701658132,
				-0.00093099938615739,
				0.0004813275785911851,
				-0.00034415475617362843,
				0.00017085432440191225,
				-0.0005483216068490331,
				-0.0005249052351966571,
				-0.0008612158662537055,
				0.0003776440027953528,
				-0.000471714394326441,
				0.0008296047786848029,
				0.00015202527558781653,
				-0.00022707107425876225,
				0.0004059512156401176,
				0.0003879225797417244,
				-0.000521494310329239,
				-0.0007287036285439583,
				0.0005449288733070609
			],
			[
				0.000629258696662711,
				-0.000475162183301717,
				-0.00027289692461425475,
				0.00021037255224423982,
				-4.5135433492612866e-05,
				-0.0005511948463686163,
				0.000877967992379592,
				0.000578889103315042,
				0.0006474341214004402,
				-0.0002557352479948833,
				-0.000301204411130317,
				-0.00012991120123906417,
				0.00026840884274313085,
				-0.0002352958838198302,
				5.244337634738826e-05,
				0.0002704781618538307,
				-0.0004707368685187048,
				-0.00019370297678899682,
				-0.000483966450818514,
				-0.000908127755738994
			]
		],
		[
			[
				-0.0006068459836611484,
				0.0007372616339964147
			],
			[
				-0.00014660666534280556,
				0.0004287150998708632
			],
			[
				0.0008523509536739438,
				0.0008550705760279919
			],
			[
				-0.0004092664547999281,
				-0.00013688472853963887
			],
			[
				-4.77004567184696e-05,
				0.0008719036410978079
			],
			[
				-5.48709142887409e-05,
				0.0008743062535551888
			],
			[
				-1.4123686974522407e-06,
				-0.0004090568835368744
			],
			[
				0.0005961074825145793,
				-0.0009402738224685934
			],
			[
				0.0004200524271697156,
				-0.0002932659851397119
			],
			[
				-0.0006795878417147581,
				0.00013199885568481655
			],
			[
				-0.0004062843901261648,
				1.1983662954178449e-05
			],
			[
				-0.000797767636973366,
				0.0004040422299745863
			],
			[
				-0.000995674590811109,
				0.00012598353825239912
			],
			[
				-0.0009758077366149881,
				-0.0007736051242097781
			],
			[
				0.00046191881391604715,
				-0.00028735405516253597
			],
			[
				4.3378666866639116e-05,
				0.00044808492340592406
			],
			[
				-0.0004250358744583376,
				0.0006936872208551806
			],
			[
				0.000663756845041829,
				-0.0007084427675009597
			],
			[
				-0.00040032001832768585,
				0.0008180408514870331
			],
			[
				-0.0008773850123312155,
				0.00035723674726017163
			]
		]
	]
}