{
	"model_params": {
		"input_dim": 10,
		"units_per_layer": [
			20,
			20,
			2
		],
		"acts": [
			"leaky_relu",
			"leaky_relu",
			"identity"
		],
		"init_type": "uniform",
		"batch_size": 200,
		"decay_rate": 0.95,
		"decay_steps": 500,
		"epochs": 800,
		"lambd": 1e-05,
		"limit_step": null,
		"limits": [
			-0.001,
			0.001
		],
		"loss": "squared",
		"lr": 0.005,
		"lr_decay": "exponential",
		"metr": "euclidean",
		"momentum": 0.6,
		"reg_type": "l2",
		"staircase": true
	},
	"train_params": [],
	"weights": [
		[
			[
				0.00017806438564638583,
				0.0003777463446902438,
				0.000964896118117385,
				-0.00032759810952909675,
				0.0006193664708033972,
				0.0006951898680994007,
				7.491828545486611e-05,
				0.000473492827808441,
				3.4303770209921734e-05,
				-0.0008289162213360719,
				0.0008809436299933803,
				0.0008613561856480605,
				0.0006794724595221161,
				0.00018605094237500192,
				4.559196154669382e-05,
				0.00018819446058492202,
				0.00014032729399248442,
				-0.0009442512530965463,
				-0.0003531845408284029,
				-0.0002884815651736114
			],
			[
				4.5618269589737344e-05,
				-0.0008217525575799218,
				0.0004831201361616159,
				-0.0009863810649597521,
				-0.0008103472711653159,
				0.00034814399318939485,
				0.0003166065821618403,
				0.0003492344835194091,
				0.0002291014406103839,
				0.0008239691113434576,
				0.0009717241212229308,
				0.0002681920249187691,
				-0.0007488386651987256,
				-0.00010803979592497349,
				-0.00011485131608143112,
				0.0006902471836617206,
				-0.0001764687131772351,
				-0.0006246738545219296,
				-0.0006044931855331863,
				-0.0006675880520438501
			],
			[
				-0.0003019654311136752,
				-0.00038480010304021463,
				-0.0002893472535506407,
				-0.0009604881326526709,
				0.0008007976507014797,
				-0.0006281564989342057,
				0.000728769264877467,
				0.0009490213444130601,
				0.0009726110115082925,
				0.0008721117241490522,
				0.0009330021099265829,
				-0.0005153097237388524,
				-0.00010068836185123022,
				0.000465323272461718,
				-0.00047990023823004995,
				-7.852236039078116e-05,
				-0.0009732198650553914,
				-0.0002519667853780126,
				0.0009538180963750737,
				-0.0007370683854807145
			],
			[
				-4.343961491138628e-06,
				-0.00021005739111649535,
				-0.0004753296340988247,
				-0.0009513642406307311,
				-0.0009537236879162543,
				0.0007279388082823378,
				-0.0007256207103502934,
				-0.0006619257421746885,
				0.0007364620696463822,
				-0.0002047352889770988,
				0.0006693491297323419,
				-0.0007066766707688671,
				2.9630256267841257e-05,
				0.00042742067559419514,
				-2.472829866574048e-05,
				0.0003608799055959224,
				-0.0004649012521737146,
				-0.0006243317900000838,
				0.0008523169402571472,
				-0.00012538918399267998
			],
			[
				-0.0007731966022880758,
				-0.0008736174825989544,
				0.0009581915470549093,
				-0.000747219803795396,
				-0.0006693315485189606,
				0.0009248223502498192,
				-0.0004797325834348054,
				-0.0008070726351720428,
				0.0003055750618111571,
				-0.0004915183909611227,
				0.0007402432413637766,
				0.00010650902660239701,
				0.00032785072490400333,
				-0.0009754063948070171,
				0.000712879724962268,
				-0.0009146349309357071,
				0.0009432716859840383,
				0.0008408610939085734,
				5.868623798343663e-05,
				-0.0002393034106007863
			],
			[
				-0.0006274791127380852,
				6.559781302156297e-05,
				0.0007218027074611479,
				0.0006744170989870868,
				0.0009711600603561771,
				-0.0009390062982829802,
				0.000649532367395965,
				0.00026236030894568967,
				-0.0009653857166479711,
				-0.0005890923813445896,
				-0.0009368011089691726,
				-0.0009140576803101688,
				0.0007975742312859055,
				-0.0009057802566502848,
				-0.0004599016654639081,
				-0.00019684926218386265,
				-0.0006049422802596969,
				-0.0001891102074953468,
				0.0006423163682441411,
				0.0006250997345710772
			],
			[
				-4.0884111448347225e-06,
				-0.00021992643123844573,
				0.00017160544574600588,
				0.0006844412860683483,
				0.0009613024773656139,
				0.00012716944121686329,
				0.00038167106096960966,
				0.0002675754895078541,
				-0.0003219292630760307,
				-1.4939128329461478e-05,
				-0.0005339580796538696,
				-0.0008301627620579164,
				0.0005498230407021188,
				-0.00032901562588251193,
				0.0008439331872170175,
				0.0003711277944499847,
				-2.497144630660955e-05,
				0.0004323513407459411,
				0.00019551690384087038,
				-0.0008594493327383441
			],
			[
				0.000951164623431644,
				-0.0007445990631618904,
				0.0006572143002046419,
				-0.0007093690895792666,
				-9.122759672567857e-05,
				-0.0004755776619811869,
				-0.0006712080040109634,
				0.0007991880673268168,
				-0.0008990827240205559,
				0.00021777940547950065,
				-0.0001969204686780861,
				0.0004585170835456206,
				0.0002619824892079465,
				-0.0003971971732691051,
				-0.00013318356809044116,
				-0.00010395637955927636,
				0.00018309851647670345,
				-0.0007308951441241234,
				-0.0006226738491006607,
				0.0009013918578987946
			],
			[
				-0.00030886411595669255,
				0.00026437039600996884,
				-0.00023884773553857301,
				-0.0003822782752710348,
				-0.00020140096288697752,
				0.0009312480331880918,
				-0.0002755786320946434,
				0.0005816241019006481,
				-0.0006077418336034369,
				0.0005281648574102036,
				-0.0009608902809397491,
				-0.0009045109849895852,
				0.00026027520233400363,
				-0.00018341747878516186,
				0.0006207365629938748,
				0.0005588528335924636,
				0.0007490218247405524,
				0.0005394035668048924,
				0.0008773632906021753,
				0.00026088386423456103
			],
			[
				0.0004794740607978378,
				6.84871411979625e-05,
				-0.0005999475682963304,
				-0.0001560542538650196,
				0.0007088826059286363,
				0.00010658182962812587,
				0.0007052301943720678,
				-0.0004866840296403734,
				-0.00048704333788237577,
				-0.0008540268117105665,
				-0.000830333605205877,
				-9.082140037209793e-09,
				0.00016549801483363089,
				-0.0003982645569040375,
				0.0006042923917581012,
				-0.00017344609611924142,
				0.0007876323414618878,
				0.000512319176528683,
				-0.0009118479318596979,
				-1.615495860575857e-05
			]
		],
		[
			[
				-0.0007648357893350892,
				0.0002722186990629545,
				-0.0004820088435149015,
				0.00016051999204806156,
				0.00045599083662019335,
				6.592228258650058e-05,
				0.0008451658805298454,
				-0.00041173624945230755,
				0.0007065814905362303,
				-6.878522509425804e-05,
				0.0006683829437394266,
				-0.0003480832958976638,
				7.472033480590426e-05,
				-2.8993974767148344e-05,
				-0.0005136875463260136,
				-0.0003409428275327591,
				-0.00022548090477726278,
				-0.0004342684348781525,
				-0.0008039879193165636,
				-0.0007486542327064995
			],
			[
				0.0007686378899780322,
				-0.00026299435742594746,
				-0.00047782172440322525,
				-0.00017728378112499919,
				0.0009371805261070745,
				0.0001325859060862819,
				0.0002709002044774772,
				-8.637490337355441e-05,
				0.0004899143859280017,
				-2.2343761183565587e-06,
				0.0004419303149075149,
				-0.0007711499633544785,
				-0.0007655752728124481,
				2.2214715105962944e-05,
				0.0005770802614600979,
				-0.00042010915693307753,
				0.0005304294995669731,
				-0.000952000615087049,
				0.0008409806124578835,
				-0.0005589978250009871
			],
			[
				-0.0004185930907840763,
				0.0007433287929263311,
				8.789262431939653e-05,
				0.0005762906511617408,
				-0.000443941079590303,
				0.00030433858246925113,
				-0.00016547251773618753,
				-0.00024901826488602484,
				6.989344184472066e-05,
				1.205255863228824e-06,
				0.0008810040856852242,
				0.0005999576199154615,
				-0.0006415607896720836,
				-0.0002805276722372892,
				-1.7713878342547496e-06,
				0.0009111050476897794,
				0.00017752342016851496,
				-4.719960033610043e-05,
				-0.000832653847827205,
				-0.0007682429134656908
			],
			[
				0.0009964378609022277,
				-0.0006581820177591876,
				0.000860573146010114,
				-0.0005952685987936732,
				0.00039268728304521494,
				-0.00018531785767582451,
				-0.0007687237722496194,
				0.0003219722050509376,
				-0.00016733964751965646,
				-0.0005970214942668359,
				-0.00036517947257103133,
				8.04847861966588e-05,
				-0.00012876894969047223,
				1.6335855284157e-06,
				-0.00015277438722294105,
				-0.0004115753961141406,
				-0.00041738339218837543,
				0.0001674358488972347,
				-0.00018733000735588173,
				-4.323987879504567e-05
			],
			[
				-0.00029664262131244025,
				-0.0004259312722150173,
				-0.0009911622855776345,
				-0.0005046300405577787,
				-0.0007653839288341526,
				0.0002676016355487442,
				0.0004722140146221903,
				-0.0004092172074217264,
				-0.0009339386796963097,
				-2.6767292779991355e-05,
				-0.00068193089836435,
				-0.0003301996282429198,
				0.00030793164860608334,
				-0.0003350286544114456,
				-0.0009264874297818276,
				-0.0004450373059721191,
				-0.000735353270672204,
				0.0008204553126892225,
				-0.0008700095346253398,
				-0.000754383189204905
			],
			[
				0.0005140534521738732,
				-0.0004444745425941414,
				0.0009694024717435564,
				0.0009119408916406857,
				-0.0007612136953576387,
				0.00029193789721351153,
				-1.660877309936663e-05,
				-0.0007281877706352305,
				0.00017000663604241242,
				0.0006629717803937436,
				0.0003063262062098738,
				-5.236865133765819e-05,
				-0.0007435544109518577,
				0.0005728501381392376,
				0.0007832303163582872,
				-0.0008604018661257611,
				-0.0006534362528936688,
				-8.46285624997305e-05,
				0.0009409865275568209,
				0.00025030616505416006
			],
			[
				-0.0007388292144379854,
				-0.0007304636361840533,
				9.491862206343574e-06,
				-0.0006800743045635557,
				0.0007823440991512874,
				-0.0007059034932286655,
				-0.0004147941866987335,
				2.665209882282086e-05,
				0.0004384402630136842,
				0.00040645552843119877,
				-0.000501808775939832,
				0.0009639864144199515,
				0.0009567933639403102,
				0.0006357564045650741,
				-0.0008982779612695988,
				-0.0008507636078868868,
				5.223244186129054e-05,
				0.0003850702451248442,
				0.0005693477208823447,
				0.0003166581584880608
			],
			[
				-0.00037921218131212544,
				0.00018246918945655937,
				0.000964565894330797,
				0.0009028341689790013,
				-0.0007119166618508321,
				0.0009191015329437335,
				0.0002798024980527308,
				-0.0005075422824632128,
				-0.0009933337486008988,
				-0.0003315721949064967,
				0.000867276868411402,
				-0.00037220293725523444,
				8.017863807461612e-05,
				-0.0004016129512426055,
				0.0006983544986995114,
				-0.0005097969275331631,
				-0.00010533467808193175,
				-0.00048752728960325964,
				0.00027843702123157756,
				0.0004373148901789111
			],
			[
				0.00019217851923633935,
				-0.0009879982792197041,
				0.0006553713897037114,
				0.0005391463787575604,
				0.0002937192123976997,
				-0.0007850097762849941,
				0.0007865633685074903,
				-0.0009636400991823351,
				-0.0008466721904699952,
				0.0005323099920763329,
				0.00026803555716214413,
				-0.0007663564004626554,
				-0.0003055657659312512,
				2.6519001282830634e-05,
				1.7351613633834152e-05,
				-0.0005168219160766361,
				-0.0005949673710722447,
				-8.367390299353675e-05,
				-0.0009515972168329421,
				0.00013542036983750006
			],
			[
				0.0004752025491025916,
				0.0008457181111170406,
				-0.0004511454530867463,
				0.00045552124765185905,
				-0.0008368827248624287,
				-0.0002398003199804282,
				-0.0005327845557512982,
				-0.0006148689631699348,
				-0.00045852262917380295,
				0.0002692358013361147,
				-0.0001872518297947732,
				-0.00014281254806046135,
				-0.0006901130554628858,
				0.0008109407381854253,
				0.000643483669134402,
				0.0007214887146347298,
				0.00019799782814935107,
				-0.0007548797011402788,
				0.0005924040866502776,
				-0.00039646933282309926
			],
			[
				0.0002599062646528982,
				-0.0006870876994262717,
				-0.0005601465567504037,
				-0.0006253130877564407,
				-0.0008411380403470419,
				0.0005260488143420834,
				-0.0009140992556746466,
				0.0009528780746628127,
				-6.170407713328152e-05,
				-2.451955460597841e-05,
				-0.0005836881517043702,
				-0.0009512514029125394,
				-0.000546875546342625,
				0.00011159178118971716,
				-0.000470326207177699,
				0.00036775468701606587,
				-4.582854062554719e-05,
				0.0008585478996335776,
				-0.000978450973259111,
				0.00033064946946397217
			],
			[
				0.0007759106757195015,
				0.00038810622125271844,
				0.0005949149767899239,
				-0.0007555146640731523,
				0.000805601549957175,
				-0.000597487858400974,
				-0.0005799834149035246,
				0.0009326439672339532,
				-0.0003099788423867797,
				0.0006601377580558673,
				-1.168704287946693e-05,
				-0.000610042306780702,
				-0.00022186753363791613,
				0.0008684736188361538,
				0.0005304665580015229,
				-0.0006093235919421787,
				-0.0009391842586005914,
				0.0008832055209185789,
				0.0002857625224890305,
				-6.706085396979925e-05
			],
			[
				0.0008872777410388873,
				0.0006005936363555169,
				0.0009270096532001996,
				0.0004714073289626857,
				-0.0004489807498350995,
				0.0006710038718808458,
				0.00042552481825180533,
				0.000816613115507565,
				0.0005923850703581093,
				0.0007259567362236574,
				6.28069453870732e-05,
				0.00024380992008358983,
				-0.0008392138145288164,
				0.000529180184162723,
				-0.0005208273067789404,
				0.00037638056540884295,
				0.0006509526618681237,
				0.0006713187455669168,
				0.0009969022606359356,
				-0.0002614903645901792
			],
			[
				-0.00010420363131883768,
				-0.0004185495758934259,
				-3.7846597737273106e-05,
				0.0008606583856413477,
				-0.000397614845870887,
				-0.0007372887158188515,
				0.0005576313795440779,
				0.000979114547722957,
				-0.0009588924745382055,
				-0.0006438325808780734,
				-2.0430277901599837e-05,
				-0.000957815439515932,
				-0.0008554666881697029,
				-0.0008145051094256044,
				0.0005990263031328312,
				-0.00024908207126225453,
				-0.0009729250354076647,
				-0.0007789536985916088,
				8.949924730408416e-05,
				0.0007016676511595143
			],
			[
				0.0001419569318028514,
				0.0005091278604362072,
				-0.000851384288067373,
				-0.0004904810087656919,
				-3.425379822383798e-05,
				-0.0005032234516910643,
				0.00043428298831132603,
				0.0006583230478992505,
				-0.00046674036190914034,
				-0.0007906790545593896,
				-9.487259697268111e-05,
				0.0004019821899442981,
				0.00043250589566684984,
				-0.0007589397084680902,
				-0.00017979331333462076,
				-0.0008582410783670425,
				-0.0006940592872999669,
				0.0008968437779218999,
				-0.0007091396183067127,
				0.0004357142259391266
			],
			[
				8.037298048070357e-05,
				0.0006890168774637475,
				-0.00014714930589429542,
				-0.00022560663744004427,
				-0.0006920257913402847,
				-0.0009114894681702892,
				-0.000795928549468411,
				-0.0005756908183262928,
				0.00039884499767118913,
				0.00019622478871830122,
				0.00019510027719744222,
				0.00025484921510079256,
				-0.0009732006329152232,
				-0.0007240984084459083,
				-0.000849773403246968,
				-7.736853493131091e-05,
				-0.0007651370873730981,
				0.0004691905938269175,
				-0.00045752988541206065,
				0.0001835523902793655
			],
			[
				-7.767467273946951e-05,
				7.69242066379469e-05,
				-0.0006962917732766822,
				-0.0004732678100023846,
				-0.0006980147613753693,
				-0.000493570597740528,
				0.0004606526124757695,
				0.00034978478298339764,
				0.0009023376150322305,
				0.0009100386097490964,
				-4.327614791903951e-05,
				-0.0003777234176500264,
				0.0009294837899955547,
				-0.00010257921643815114,
				-0.0008857345996156037,
				0.00015952458359438644,
				0.0008157877014171584,
				0.0007744295553821195,
				-0.000942699669851466,
				-0.0004981620517718926
			],
			[
				7.760237437103848e-05,
				-2.0438671297195576e-05,
				0.0003569170849628087,
				0.0008317227055542767,
				0.000337339613016139,
				-0.00020936211190584358,
				-0.00024176579454177906,
				-0.0006256465763007264,
				0.00020858221773675128,
				-0.0007860914301364366,
				0.00013123111603098223,
				-0.0008954683739259655,
				-0.0009477149405631876,
				1.5329425493452445e-05,
				0.0005769395390748902,
				0.000800374667650294,
				0.00041896788210686814,
				-0.0006747326686431113,
				-0.0007558865365315346,
				-0.000297188899353285
			],
			[
				0.0006322357237428123,
				-7.79167652138604e-05,
				-0.00010053496526540179,
				0.0006723440433638412,
				0.0008134226581346861,
				-0.00021604208329427952,
				0.0008471058243827571,
				-0.000521779149949102,
				0.0007374158409554261,
				-0.0005976609542248015,
				-0.00011965077495777754,
				0.00014111602017494,
				0.00027411014351822654,
				-0.00011305982929791885,
				0.0008061873210793698,
				-0.0005383103283712181,
				0.0004018445413636561,
				0.00012976804747455288,
				-0.00047449768310905613,
				-0.0007384239518483604
			],
			[
				0.0005449547470441584,
				-0.0005579154930603558,
				0.0008860093708838598,
				0.00023883852839588445,
				0.00026433052871790595,
				-0.00028337662282111587,
				0.000706703759128304,
				0.0002105834294385098,
				0.0009397833248325786,
				-0.00018744491872807868,
				-0.0008290396046279347,
				0.0001742052867439094,
				6.224408629787069e-05,
				-0.00029162188090838036,
				0.0003197722630685581,
				-0.00044686881455108707,
				0.0007180006591820686,
				0.0005608285763914441,
				-0.0009333387869831791,
				-0.0005424427646678071
			]
		],
		[
			[
				-0.0005797219122963624,
				-6.750615547913429e-05
			],
			[
				0.0003356525697578313,
				1.0942740059414254e-05
			],
			[
				-0.0004136835590232388,
				0.0006402519891095951
			],
			[
				0.00019185028070514698,
				-0.00026021218578635647
			],
			[
				0.00048338395689708196,
				0.0004537823135403261
			],
			[
				0.0005555794772982524,
				0.000321468988072876
			],
			[
				0.0007067096304200322,
				-0.0007375094365424397
			],
			[
				8.053531855472585e-05,
				-0.0006766505586809155
			],
			[
				-0.0006166014027357793,
				0.0002916313786796396
			],
			[
				0.0005910036090233527,
				-0.0007536711929389502
			],
			[
				0.00013417374849897766,
				-0.0007665651168831586
			],
			[
				3.904248507773881e-05,
				0.000437931978108236
			],
			[
				-0.0006432068761313494,
				-0.00022900560326966969
			],
			[
				0.000814156757785706,
				-0.0007892731519572858
			],
			[
				-0.0006571130352142972,
				-0.0004620172727751897
			],
			[
				0.00046773813737307417,
				-3.2276073814822446e-05
			],
			[
				0.000867248284880096,
				0.0007544974790655639
			],
			[
				0.0009272989843703257,
				9.875625839796511e-05
			],
			[
				-4.515358028996878e-05,
				0.0008794030126330734
			],
			[
				3.8700446036382544e-05,
				0.00031685715583491727
			]
		]
	]
}