{
	"model_params": {
		"input_dim": 10,
		"units_per_layer": [
			20,
			20,
			2
		],
		"acts": [
			"leaky_relu",
			"leaky_relu",
			"identity"
		],
		"init_type": "uniform",
		"batch_size": 200,
		"decay_rate": 0.95,
		"decay_steps": 500,
		"epochs": 800,
		"lambd": 1e-05,
		"limit_step": null,
		"limits": [
			-0.001,
			0.001
		],
		"loss": "squared",
		"lr": 0.005,
		"lr_decay": "exponential",
		"metr": "euclidean",
		"momentum": 0.6,
		"reg_type": "l2",
		"staircase": true
	},
	"train_params": [],
	"weights": [
		[
			[
				-0.00011023089207569576,
				0.0004887953582297802,
				2.0202171403692652e-05,
				0.0007844646380726252,
				-0.0003623820579258195,
				-0.0005915163468816893,
				-0.0005582555304132139,
				0.0009303826241916732,
				-0.0003856126871663168,
				0.00036189193999659427,
				-0.0008856293676742883,
				0.0006219865969485448,
				-0.00014704873817016312,
				0.000988142043725341,
				0.0002757771654501686,
				0.0006656528565340515,
				-0.0008756864349830475,
				-0.0005233580849946695,
				0.0007017926664025817,
				0.0004984515725472186
			],
			[
				0.0008192598942563271,
				2.3230208118094975e-05,
				0.00016996460746939173,
				0.0008124221272502361,
				-0.0008911515217427225,
				0.0009551093919078161,
				-0.0008341528268274371,
				0.00033695257284844984,
				-9.482457179112267e-05,
				-0.0006821497225111709,
				-0.0007615418743324389,
				-0.0006292423909705951,
				0.0007726579606078918,
				-0.000364696901417963,
				0.0005387298921500515,
				0.0007039749294101615,
				-0.0005696812691914026,
				0.0008495566106576707,
				-0.00013553378206575294,
				-0.0007517694036828231
			],
			[
				-0.0006846881442482751,
				0.0008754271415218943,
				-0.0003443277683666746,
				0.0008480348685516244,
				-0.0006404725870663964,
				-0.00038492085007779946,
				-2.152100755715351e-05,
				-3.8059050096397526e-05,
				0.0005880071486260767,
				-7.860154941676596e-05,
				6.896127653647078e-05,
				0.0005110389910442227,
				-0.0006602586352515024,
				-0.0007972531027176828,
				0.0005092245729159228,
				-0.0009451015012079327,
				-0.0004444632497423781,
				-0.0007128442097937898,
				0.0006513284648176772,
				-0.0007829217484913822
			],
			[
				-0.00092311095691924,
				0.0006073097371239085,
				0.0007636832755959662,
				0.00010012827481593314,
				0.00012105840928551396,
				9.911395933537878e-05,
				5.769550681911139e-05,
				-0.0005873217498420815,
				0.0005280970369341115,
				0.00016861694145429203,
				-0.0005120086350700006,
				-0.00019313031743935975,
				0.000961897418620359,
				-0.0003498767627321766,
				0.0009539893752360654,
				0.0007212981847064771,
				0.0006586102860098436,
				-0.0009214299788474927,
				0.0004693404713494256,
				0.0003582425549769185
			],
			[
				-0.0009455600265977695,
				-0.00011646149365355954,
				0.0008517166113448538,
				0.00020515551406952745,
				0.00018154230463526366,
				-0.0004942818172385373,
				-0.0005567184322984542,
				0.0007660695595054431,
				0.0002915245192785987,
				3.29576770922073e-05,
				0.0003686430184899217,
				-0.0003120926747013659,
				-0.0003123598594328798,
				0.0007874310210441112,
				-0.0008635514571919513,
				0.00016227465536604378,
				-0.00019034783383628604,
				-0.00011409628091397519,
				0.000847872363713525,
				0.000385649316212721
			],
			[
				-0.0005320019491109171,
				0.0006112154763140149,
				-0.00022694694521163238,
				-0.0007133497105440664,
				0.0002333846023622368,
				-0.0007101818860498733,
				-0.00019636590929687303,
				-0.0002911068572967661,
				-0.0009445507680717204,
				6.42943463541757e-05,
				-0.0006869485354982308,
				0.0008032869590510784,
				-0.0006907947708607629,
				0.000849611347831404,
				-0.0006981290922858485,
				-4.400415045940735e-05,
				0.0007016256390386284,
				-0.000658498214071785,
				0.00041261968132211323,
				-0.0008651487703527267
			],
			[
				-0.0001913894229234361,
				0.0009131552038848863,
				-0.0008353336027198166,
				0.0004142184133925134,
				-0.0005807551252969352,
				-0.0009014640905208502,
				1.8029598074305276e-05,
				-0.00045380937346819225,
				0.0004150165720840774,
				-0.00018090331856800243,
				0.000679023690368205,
				0.000840458889803775,
				-0.0007790452345478689,
				-0.0003989492575950386,
				0.00016890040866382222,
				-0.0006514783110069715,
				-0.000858295833363113,
				-0.0007425777266605585,
				0.0008704418310599741,
				0.00023689922778997443
			],
			[
				-0.0008613679033055466,
				-0.0009223152237505439,
				0.0005170280457157215,
				-0.0007845113879215403,
				-0.00013099324384788225,
				-0.0007467237872843393,
				0.0002532568070202363,
				0.0007058665913224492,
				0.0006507454651545495,
				0.0008617548760722225,
				-0.00042041224977242984,
				0.0007887874559949582,
				-0.0001835534158496564,
				-0.0003382044953423107,
				0.0009357398665022524,
				0.0005764027694869843,
				-0.0008109954994759705,
				0.0003324062815036387,
				-0.00038766538980635,
				0.0009237986767176175
			],
			[
				-0.00021327951011263586,
				-0.0007932727424540642,
				6.656261431012517e-05,
				0.0002783768462921287,
				-0.00034229712985205964,
				0.00010369353898622064,
				-0.0006774213554953057,
				0.0004286965885323896,
				0.00023846423700816946,
				0.0005121580468318823,
				0.0003981688443625798,
				7.042792685671125e-05,
				0.0007796131873155324,
				-0.0005555952172605419,
				0.00035738712849652334,
				0.0006183621088877572,
				1.8434341152682174e-05,
				0.00046670124419237176,
				0.0001798819474405247,
				-0.0005759224353491304
			],
			[
				-0.0005002517845805414,
				0.000684845071889048,
				-0.000429140839562115,
				0.00047422172793537467,
				0.0007991469989862246,
				0.0009061555354726006,
				7.637601138501984e-05,
				0.0003628585922562783,
				0.0004945869456872188,
				-0.0007940128590968898,
				-0.00026935916385141057,
				-0.00077961133031507,
				-0.0009005897820119857,
				0.0007117708033329453,
				0.00012831228679097096,
				0.0002692167359782537,
				-0.000954036044626935,
				0.0007346949846793317,
				2.378809169238487e-05,
				-0.0005073525267522672
			]
		],
		[
			[
				0.00032669872889531546,
				0.00028386063620059496,
				-0.0005098888071040906,
				0.0004502352157816972,
				-0.0005844671936319915,
				0.00010423473870316237,
				2.1869939153641455e-05,
				8.423040695455125e-05,
				-0.0009059781112823282,
				0.0007925202185485186,
				-0.0007149708774327351,
				-0.00045271956371372183,
				-6.766466694659305e-05,
				0.0005499345609626732,
				-0.00016250802109172376,
				6.853998327253333e-05,
				0.00033055545824250574,
				-0.0005312926099924221,
				0.00012417757967269423,
				-0.00048006049672027573
			],
			[
				0.0002958564149237164,
				-7.6741103024564e-05,
				0.0003969710492174221,
				-0.0007477760353198944,
				0.00013530477246455927,
				0.0005422551744307699,
				-0.00022978137868879807,
				-0.0008518971449300239,
				-0.0006724160274214861,
				0.0006957073987198354,
				-0.0009477464727946568,
				-0.0005897593234875049,
				0.00043706804993172833,
				0.0004158603218432674,
				-0.0002365970631191701,
				-0.0007398382466180726,
				-9.892843549988179e-05,
				-0.00013412750511498039,
				-0.00037394975785678877,
				-0.0009456172775054799
			],
			[
				0.0004489008843075967,
				0.00017416877169377154,
				0.0009436157946197984,
				-0.0007019429089602729,
				-0.0007453840334671581,
				0.0008470856133085021,
				0.0005974095416816005,
				-0.0006708829171402167,
				0.0005997491731821211,
				-0.0008131480790085404,
				0.0005489877601131021,
				-0.0003961340062533698,
				5.917735328088598e-08,
				-0.0002879837770161176,
				-0.0009023229529530026,
				-0.0008079442273970994,
				-0.0006025317462701981,
				0.0006645208917386478,
				-3.6241331733159396e-06,
				-0.0009877293405659863
			],
			[
				-0.00012732022398364619,
				-0.0009781876311506905,
				0.0006524741161787226,
				-0.0005087504398572469,
				-0.0005294225270355982,
				-0.00038130894697303397,
				0.0006984625496027183,
				0.0007332045650681686,
				-0.0009723736577465017,
				0.00022550100555922747,
				0.0007718575792430569,
				-0.0004579274466169663,
				-0.0006774406362861473,
				-0.0006282250837131334,
				-0.0008501182157791714,
				-0.0006840375427637211,
				-6.25868771116085e-05,
				-9.974141048218164e-05,
				-0.0007402682876245315,
				1.5483924495410077e-05
			],
			[
				-0.0005343038123191573,
				-8.438715688735045e-05,
				-0.0007461376854969841,
				-6.791629191835939e-05,
				-0.0006084599948899303,
				0.0007852859972084813,
				0.0003181064088351221,
				-0.0007942335738992932,
				0.0002289103017937802,
				7.537228531453088e-05,
				0.0005513749242583705,
				-0.0009303167955782667,
				-0.00021424490066530313,
				0.0006465850800021463,
				-0.00029959085788194395,
				-0.0007071045123791005,
				-0.00021931785266805749,
				0.00023163913150094735,
				0.000364579967142703,
				-0.0006138772214683214
			],
			[
				-0.00041231754972211206,
				0.0005914433152256447,
				-0.000789951805997118,
				9.625568657664835e-05,
				7.454357631454713e-05,
				0.0002411668089753534,
				-0.0003150041530447772,
				0.0003538017003420137,
				-0.0009085076539448334,
				-6.865031988951696e-05,
				0.0009723212719615535,
				-0.0001165085884242287,
				-0.0006357937287470448,
				0.0004917826467539261,
				-0.00022834281297735772,
				0.0004372055875238234,
				0.0005479472392841817,
				4.192553703923139e-05,
				-0.0007899356182798532,
				-0.0009562810569735496
			],
			[
				0.0006632130279524058,
				-0.00011479803428568719,
				-0.000631600584614171,
				-0.0005744915405748697,
				0.0008725273926774094,
				-0.0003369342063377547,
				0.000470247032602189,
				0.00017486169007261852,
				-0.0008732566843207251,
				0.0004507393648135883,
				0.00032762851152203214,
				0.00027398766116706083,
				0.0001767088515179612,
				-0.0004768366861934585,
				0.000422429098933685,
				-0.0009071192570713505,
				-0.00022460053621184818,
				-0.00041471973103274684,
				-0.0006073927314813343,
				-0.00011465134500869816
			],
			[
				0.00035778081446789355,
				0.0006066824106187949,
				0.0009240647121767449,
				0.0004721092328861323,
				-1.1536521932865775e-05,
				0.000887754428185763,
				-0.0007832348058364793,
				-0.00035876040037477594,
				-0.0009423146944878225,
				0.000270011696280189,
				-0.000537218303705377,
				0.00036504629680634117,
				0.0008926372790429007,
				-3.165420492607664e-05,
				0.00015802873242405082,
				0.0007013405524250718,
				-0.0005611003428903283,
				-0.0005715287156443762,
				0.0006944995477901335,
				-0.0007606722699345223
			],
			[
				-0.0006773927569465817,
				-0.0009759553181940374,
				-0.0006495139948951463,
				0.0005179753410858845,
				0.0005195855847432982,
				2.964711067076622e-05,
				0.0004909766525201982,
				6.518724553712294e-05,
				-0.00027531936902357797,
				-0.0007361807627622979,
				0.0009601494238495219,
				-0.0008697569786256867,
				-0.0005322932881301576,
				-0.0007562153580883781,
				-0.0008238006552047859,
				0.00047604959244518783,
				0.00021769756417019167,
				-0.0005988029565689634,
				-0.000584200240515818,
				0.0007881663340580799
			],
			[
				0.0009896182225767568,
				0.0001571704434134957,
				-0.0005513410083668904,
				0.0008458421342094819,
				-8.093646106350767e-05,
				-8.879187507372134e-05,
				-0.00016115642412449244,
				0.0002102992646438014,
				-0.00019868034489323302,
				-0.00038261678723161704,
				-0.0006559366025169322,
				0.0005972980200700997,
				-0.0008938998791123683,
				0.0008108484903250192,
				0.00040861522407271695,
				0.000505357810811012,
				0.00041186020615024965,
				0.0006345721568266909,
				0.0008952520632947716,
				-8.431110990774783e-05
			],
			[
				0.0006199915927953075,
				0.0005111164161280383,
				-0.00046705708284642286,
				0.0004994098020660348,
				0.0009532137226136101,
				0.0007162486635333531,
				0.0006299046745585728,
				0.0008023210910583574,
				0.00033961964158047645,
				0.0001800274911262544,
				0.0002454747612185002,
				-0.0007100920639695876,
				0.00046028960151359784,
				0.00011553588168949046,
				-0.00022734089880670477,
				-0.0007629368998605731,
				-0.000339062860007626,
				-5.4540249827939534e-05,
				0.0006827958807749457,
				-0.00039754579691304317
			],
			[
				-0.00042841766628490556,
				-0.000549108580494203,
				-0.0002308462172021981,
				0.0004273153406817241,
				0.0006955483189475704,
				0.0007284904245297786,
				-0.0008032887227420218,
				-0.0008379117655647792,
				-0.0005858185151924185,
				-0.0005946007267301714,
				0.0001822696692838266,
				6.994815321290614e-05,
				0.0008686153887740762,
				-0.000612665384668476,
				0.0009018798541033967,
				0.0006003828382812524,
				-0.0008436077569830632,
				0.00020927081762793683,
				-0.00010920964015885537,
				-0.0008645165815749394
			],
			[
				-0.0009710868806639619,
				0.00014734630370530463,
				-0.0006894775638204791,
				0.0004211280981353666,
				-0.000798685189749664,
				0.0007135799305929304,
				0.0007299865920524244,
				0.0009371685795873156,
				-0.0005911527586891077,
				-0.0007256033290654878,
				0.0001580850767639785,
				-0.000686049831086946,
				0.00016706142608893175,
				0.0007208310230623913,
				0.0007310440294175005,
				0.000703925184383925,
				0.0009511491943957019,
				-0.000997943868609501,
				-0.0001340263603394631,
				-0.0008686424503409895
			],
			[
				0.0005205450126399358,
				-0.000620353149949642,
				-0.0009241874031785529,
				9.865304913336467e-05,
				0.0005934350978640229,
				0.0005104990601403473,
				-0.0006807892412152328,
				-0.0005300419951985673,
				-0.0009610985222164475,
				0.000991728252908795,
				-0.00015878699795336313,
				0.0008714469989866836,
				0.0006218815089932242,
				-0.0009303375696757894,
				0.00020210167222062844,
				0.0007168690680337134,
				-0.00023708736662138514,
				-0.0002685839434076895,
				0.0005664391108364019,
				-0.00046606192438259405
			],
			[
				-0.0001823134836073199,
				-0.00025339507884758667,
				-9.797952328753428e-05,
				0.00042569147552136335,
				0.0009024440952349856,
				-0.00021756650542303826,
				-0.0001387703341956634,
				0.00019605484335663234,
				-0.0007326514914601609,
				0.0009538812457374388,
				-0.0005391194410022579,
				-2.113290397726727e-05,
				-0.0009968948951224659,
				-0.0001477042441247969,
				0.00032230857637957676,
				0.0007764846857268805,
				-0.00031616876416113793,
				0.0003018734804101802,
				-0.0005140451074143415,
				0.0008177482664956889
			],
			[
				0.0005832177087034427,
				-0.00022697556099505632,
				0.0002326939308852356,
				0.0003119201834861664,
				0.0008894861341451053,
				0.0004755590191597137,
				0.000849779050872648,
				0.0009778561080496613,
				0.0003744119742714177,
				0.0004853150597730492,
				0.0009411247698179106,
				0.00023708283274332179,
				-0.0007766942405259243,
				-0.00010437353457828013,
				-3.420766605649291e-05,
				0.0007501714382541361,
				-0.0008019037325753211,
				-0.0009529710122456916,
				-0.00046548385639983206,
				0.0004057515868411061
			],
			[
				-0.0006562245024081568,
				-1.6398026355864907e-05,
				0.0005698552511686037,
				-0.00022206710771029451,
				-8.931739351776731e-05,
				0.00017529160469888466,
				0.00016755961141288718,
				-0.0002881934857283617,
				0.00033078173017488414,
				-0.00043445528394297757,
				-0.0006697058122479876,
				0.0003093180078702939,
				0.0006324968976040919,
				-0.0007551787408464672,
				-9.076444168085022e-05,
				0.00098525172300773,
				0.0009608982929866384,
				-0.0005426091517686293,
				-0.00020876158312271636,
				0.0006586495124455481
			],
			[
				-0.0008614102459302891,
				-0.0003831995763097613,
				-0.00016656316247531478,
				-0.0003806427258942242,
				-0.0005446582167293417,
				0.000574169510618958,
				0.00018203911554757818,
				-0.00043273397788792486,
				-0.0001573762468991993,
				-0.0008510854072010883,
				-0.0001499504050287583,
				-0.0005347220458529139,
				-0.00011109912314145268,
				-4.2361738156897893e-05,
				-0.000730526142272742,
				0.0003965372918066886,
				-0.0009476501615654875,
				0.0003343698803949279,
				0.0008556234449393128,
				-0.00010646680128275634
			],
			[
				0.0001746227264747015,
				-0.0005177517323276142,
				-0.00037288102915633916,
				8.1866479582254e-05,
				0.0002852048884071795,
				-0.0003368544349451525,
				-0.0009220881116114899,
				0.00027133323404006783,
				-0.000676196891867054,
				0.0003557011834921771,
				0.0008535391087168824,
				-0.00034517507531602585,
				0.0009466713188279767,
				0.00015358624444195413,
				0.0005797809157195746,
				-0.0006383493443908817,
				0.00018769984454625687,
				-0.0006819503207270532,
				0.0008603534758380759,
				-0.000843826857379473
			],
			[
				-0.0003801430901676663,
				-0.0006502288710891126,
				-0.0005783573154207638,
				-0.00022405604548819214,
				-0.0007555444473880311,
				0.0008925344866343098,
				-0.0006245262729781549,
				0.0007734302527551194,
				0.0008975500053253903,
				0.0007066990310836388,
				-4.7343045150337174e-05,
				0.0008757776164834653,
				0.0008542957098679007,
				0.0002486382425665448,
				-0.0003488095155285009,
				0.0005007209154589401,
				-0.0008804352812447982,
				1.9754226268206727e-06,
				-0.0002598097447550487,
				0.0009612101698762321
			]
		],
		[
			[
				0.0006833682165510275,
				-3.33511876623551e-05
			],
			[
				-0.0002681693940761638,
				-0.00020951691667757096
			],
			[
				0.0008545131623888629,
				0.0004643131505451823
			],
			[
				-0.00044698082047707466,
				-0.00021257790889462334
			],
			[
				-0.0007377585003039723,
				0.0005135206214127179
			],
			[
				-0.00032408813667273264,
				0.0009831503465888088
			],
			[
				0.0008751628778713122,
				0.0005954615100960249
			],
			[
				-0.0008631553197319738,
				0.0006667234696335024
			],
			[
				0.0006249853925951415,
				-0.0005488110816939349
			],
			[
				-0.0009147172510107626,
				-0.0008247813004217096
			],
			[
				0.0009511708156666784,
				-0.00024632846605744294
			],
			[
				0.0008241244689744561,
				-0.0005728359136146655
			],
			[
				-7.043100734620495e-06,
				0.0009459006005097549
			],
			[
				-0.0006503484484864383,
				0.00031176771080369727
			],
			[
				-6.339491399250498e-05,
				-0.0003150099544838705
			],
			[
				-0.000895535469455881,
				-0.0008390531659784521
			],
			[
				-0.00011165438451185713,
				-0.0007957691736281081
			],
			[
				-0.000538049660561359,
				0.0005536878975161434
			],
			[
				-0.0004917934897943021,
				-0.0009284913099229495
			],
			[
				0.0009761251950382772,
				0.0003813694253660626
			]
		]
	]
}