{
	"model_params": {
		"input_dim": 10,
		"units_per_layer": [
			20,
			20,
			2
		],
		"acts": [
			"leaky_relu",
			"leaky_relu",
			"identity"
		],
		"init_type": "uniform",
		"batch_size": 200,
		"decay_rate": 0.95,
		"decay_steps": 576,
		"epochs": 800,
		"lambd": 1e-05,
		"limit_step": null,
		"limits": [
			-0.001,
			0.001
		],
		"loss": "squared",
		"lr": 0.005655844946607864,
		"lr_decay": "exponential",
		"metr": "euclidean",
		"momentum": 0.7709349296879282,
		"reg_type": "l2",
		"staircase": true
	},
	"train_params": [],
	"weights": [
		[
			[
				0.0006585979900767293,
				0.0003020577826463064,
				-0.0003675308383205727,
				0.00029312123885190345,
				0.0007768678206721855,
				0.0002538036439928232,
				-8.510154035881441e-05,
				0.00044170148602056284,
				0.0005735430580615854,
				0.00047887498714083935,
				0.0008170480919190127,
				4.117173266836587e-05,
				-0.0003568877408902622,
				-0.000864855681155094,
				-0.0007423715667013245,
				0.0001651333565910577,
				0.00011377577807067493,
				0.0008150308138501,
				-0.0002541817836069697,
				-0.00035821433124716374
			],
			[
				-0.0004930880404917137,
				0.0004311321814962153,
				9.386738186188204e-05,
				-0.0003304219406361832,
				0.0008379234741566128,
				0.00029294766824451116,
				0.0004884499459156064,
				-0.0007389409167830427,
				0.0003936949728384565,
				0.0008897522093159597,
				-0.0009744851545524202,
				-0.0007515330615335212,
				-2.9250526113576512e-05,
				0.0009164725385928151,
				0.00046217350517071686,
				-3.1433229121979184e-05,
				-0.0002852018932776155,
				0.0008863363722497613,
				0.0007594726050375519,
				-0.0008318234721673499
			],
			[
				0.0009382798772269991,
				0.000838950307838063,
				-0.000924980521095996,
				0.0006807328270493286,
				0.0002661501435914943,
				-0.00017268146557455346,
				0.0007139941353217953,
				0.0009089239060848144,
				-9.367026899007253e-06,
				-8.924757981399205e-05,
				0.00044851226234610543,
				-0.00014336265069393424,
				-0.0008695208929014997,
				-0.0005771281129258683,
				-0.0004423760437900064,
				0.00016024473977775916,
				-0.000814301160451135,
				-0.00010081678586281622,
				-0.0003661618781030185,
				-0.000522492140909471
			],
			[
				-0.0006123085407924722,
				-0.0006570058612335128,
				-0.0008629110902309929,
				0.0008743874274247979,
				0.000578143431668346,
				-0.0007614073633869354,
				-0.0002656683914939855,
				-0.00040701016150119184,
				-0.0009286722255159841,
				0.0008180927503389985,
				-0.0006140417495654553,
				-0.0007163384342263337,
				-0.00039076662525954766,
				0.0009408725859770645,
				0.00044389644205787733,
				-0.0008789575781266023,
				-0.0009326300361010702,
				-0.0005790413036604427,
				-0.0007195532032201928,
				-0.0006597398213215209
			],
			[
				-0.0004739333424943446,
				0.0006647999059599665,
				0.0008796409695197203,
				0.0007116494741730625,
				0.00018519301422289538,
				-0.0006112176500429403,
				0.0007407455805712177,
				0.0008150149876964294,
				0.0005219268325607001,
				-0.000329175409778687,
				0.0002886510173988456,
				0.0006875915999071799,
				-0.0002791947959120542,
				-0.00042601413716415043,
				-0.0007344438091704823,
				-0.0007160973769056582,
				0.0004591083237120994,
				-0.0004240888508396821,
				0.0003879776126709817,
				0.0007613981573555504
			],
			[
				0.00013425214410377954,
				-0.0007770456170238643,
				0.00019860521100642276,
				-0.0006024904000844372,
				6.857886510608976e-05,
				-0.0009745436989850085,
				0.0006753390714151046,
				0.00045266945202912176,
				-0.0009511933345275268,
				0.0006695797034930453,
				-0.0008967028005678901,
				-0.0007202358917541463,
				-0.0002553032503063782,
				0.0006341638704670625,
				-0.00033360849777215183,
				-0.00045085095567998603,
				-0.000984318470119073,
				0.0003252068033614299,
				-0.0002231244728559456,
				0.0006298189955843561
			],
			[
				-2.4447909354107888e-05,
				-0.000174267197907972,
				0.0007850670998668244,
				-0.00023403729306130372,
				-0.0001760535029382864,
				-0.0006383842616516684,
				-0.00035706619934085086,
				0.000820209160169145,
				-0.0007746717482047559,
				0.0007315662815933601,
				-0.0008695010913379589,
				-0.0001667937100440235,
				0.0008940794036001235,
				-0.0001741207920936738,
				-0.0006706968370255253,
				-0.0009604288612412647,
				-0.0008947294726350135,
				0.0007676098123022405,
				0.0005892089705435669,
				0.0002800960745018453
			],
			[
				-0.0008032150209188241,
				0.0008564777597179674,
				1.1620863407398692e-05,
				0.000686110335947888,
				-4.230099990694945e-05,
				0.00017953931607835472,
				-0.00012000873123442621,
				-0.00018015603147274444,
				0.0009050104410512209,
				-0.0009629630882032989,
				-2.261765161477077e-05,
				-0.0009253916845013652,
				9.6142856144403e-05,
				-0.000869464797426237,
				-0.00019912659983129606,
				-0.00016138735624588493,
				-0.0005341861565738267,
				0.00041074736287491343,
				-0.0005032974910468093,
				0.0006963158127870409
			],
			[
				0.000698493418219544,
				0.0005193942653712188,
				-0.0001412340215189811,
				0.0004401131522309867,
				0.0006818831381350699,
				-0.00011719231127196481,
				0.00016586375428724077,
				-0.0002962524455102926,
				0.0004653823157049911,
				0.0005786472087145561,
				0.00038920411159455194,
				-0.0004740805311779883,
				0.0001045377921247352,
				9.074499280414794e-05,
				-0.0006465027199539042,
				-6.4594557672309e-05,
				-0.00039338812364465435,
				0.0007113117777132938,
				0.00018005901601756574,
				0.00024126228017756768
			],
			[
				0.0001341607124381724,
				0.0008544797717846243,
				-0.0007786101556311676,
				0.0001501221981558636,
				2.5068428862734006e-05,
				-0.00015811583001412873,
				0.0005544818849596714,
				0.0008355472548681718,
				-0.0009364967635364325,
				0.0002918697692830825,
				0.00032950770332429544,
				0.0006432240989074915,
				0.0002891773751267485,
				0.0004130380805052328,
				0.0007581868493977766,
				0.00021720885673017485,
				7.71409399132931e-05,
				0.0008015582485083285,
				-0.0001981860552026331,
				-0.000962695570431189
			]
		],
		[
			[
				0.000514309999044925,
				-0.00042850355735160497,
				-0.0009238084519824255,
				-0.0001670870701375877,
				0.00021459397125137415,
				-0.0005102623868125746,
				-1.0177033057671286e-05,
				-8.025513679334705e-05,
				0.0006171246283434783,
				-0.0001658415423058437,
				0.0009245380023785595,
				-0.00013843859772459124,
				0.00012109076892837098,
				0.0006460083813619054,
				-0.000640693426753268,
				0.00018309004589418115,
				-0.0002702091700460278,
				0.0008787466169020077,
				-0.000859310712733635,
				-0.0003140341629229253
			],
			[
				0.0006040541352850661,
				-0.0009546383523578588,
				0.000760030638555917,
				0.0005328189692586061,
				0.0008690795553849768,
				0.0003475016730991353,
				0.0002154797405327731,
				-0.00040938146693911097,
				0.00021223448023362668,
				-0.0002081285831356676,
				0.00015131012636893397,
				0.0005573907610008013,
				-0.00038209253116313713,
				0.00036045689259401334,
				-0.0006730727204943381,
				-0.00023466572830723993,
				0.0003289017405102904,
				0.0004413892732690653,
				-0.00039136133648186267,
				-0.00027236621834123204
			],
			[
				-0.0001020648443665486,
				0.0005319858333842661,
				-0.0009528391024964842,
				0.0005054404236973786,
				5.360544274127851e-05,
				-0.000821533971713268,
				0.000736274915836958,
				1.0950031453627485e-05,
				1.0623799237688804e-05,
				0.0008238967896294482,
				0.000979374475756566,
				-0.000866440470356143,
				0.0006532494975621239,
				-6.051364866640845e-05,
				-0.00015850928566470102,
				-0.0009158669683808476,
				0.00014647146283743397,
				0.0008704026157173137,
				0.0001538473287340926,
				-0.0007079697717898461
			],
			[
				-0.0008777810633487932,
				0.00048548253095722564,
				0.00033260339172886777,
				-0.0004134324810267043,
				0.00017942384643083575,
				0.0004302991741570426,
				0.0008499209068117304,
				0.0003232517267145658,
				-0.0004019864170023295,
				-0.0009705262688574734,
				0.000380107789191715,
				0.0008545642909456403,
				0.0006152368287849501,
				-0.00036586725684549634,
				0.000685529339417276,
				-0.00048621863647216746,
				0.0008135553007733907,
				-2.0222182693708547e-05,
				-0.0005936844553085221,
				-0.0004838959116723942
			],
			[
				-0.0009655841294828669,
				0.000985384165058794,
				0.000373027240668865,
				-0.0006877725466635403,
				0.0004521390107017065,
				-0.000985106209269261,
				-0.00020777942209481413,
				-0.0009771464872828355,
				0.00034657395174911504,
				0.0008729804431029838,
				-0.0003605792883192633,
				-0.0001727464069742606,
				0.0006351528647112251,
				-0.00010635436301299371,
				-0.0001375183486827321,
				-0.00031374155399425854,
				-8.576206486812961e-05,
				-0.0004798263472774087,
				-0.000910052103178801,
				0.00042003508512310564
			],
			[
				-0.00047533566731056576,
				-0.0002581607212955202,
				0.0004395292706565509,
				-0.000874636862323221,
				0.0008653301274812884,
				0.000490305850167318,
				0.000588162970353052,
				0.000713504248705415,
				-0.0008915597878930761,
				0.0005609164145966108,
				0.0005347779926195434,
				0.0008929168880246465,
				0.0009840469177013877,
				0.00018943347517544253,
				-0.0009763746488216066,
				0.0002893039590652262,
				1.7704554724292006e-06,
				0.0004231199419975464,
				0.0008352613244661977,
				-0.0008081326304397896
			],
			[
				0.0005473187057481771,
				0.0008573694001927561,
				-0.0005446988222818753,
				0.0007607080362642858,
				-0.0008945986126395034,
				0.0007562589131834029,
				-0.0009433243402662493,
				0.00029177654805945816,
				0.0005264628069178163,
				-0.0008016280336822634,
				-0.00016696557616642353,
				0.0001316317898708791,
				0.000596649017586456,
				0.0006384619128081952,
				3.937502457141036e-05,
				-6.767457352599513e-05,
				0.0009334355361512558,
				0.0006567647431379474,
				-2.7510983905001214e-05,
				0.0009099548243788288
			],
			[
				0.0006169031775336146,
				0.0005919737624261632,
				-0.00014031219911991638,
				0.0009159150288307759,
				-0.0008028410164830135,
				-4.786918584439529e-06,
				-2.968549540023212e-05,
				-0.0009236990483027463,
				0.000359088356515293,
				-0.0002279570665196176,
				0.00042403657491474843,
				0.00017748334657214943,
				-0.0006890269124756145,
				0.0005433263390810306,
				0.0007849762535435676,
				-0.0007823312069244381,
				0.0007569182435441316,
				0.0009139856967291622,
				5.358484117371854e-05,
				0.0001885784725215642
			],
			[
				-0.0008608220741448809,
				0.0003208695433205809,
				0.00022664648319168962,
				0.0003232019089547209,
				0.00022748091988739018,
				-0.00089506824753788,
				-0.0005526768279752988,
				-0.0007865883981534869,
				0.0007696293348747262,
				-0.0003881529871806338,
				0.00029525155224764807,
				-4.323181977009135e-05,
				0.00012238371917056663,
				-0.00033619722476731,
				0.0008268614879844206,
				0.00013139616279401003,
				0.0007493338452287134,
				5.575904188247433e-05,
				-0.00017288999082130376,
				0.00013308236256021609
			],
			[
				-0.0004500748487408186,
				0.0008386915414956523,
				-0.00045195557790802686,
				-0.000788551407873847,
				-0.0007166226252285051,
				-0.0006668146675992419,
				0.00032258422178047105,
				0.00029970412659467596,
				0.0006457727914476327,
				-0.0005295842684866386,
				-0.0006742699729086646,
				0.0005828706159453831,
				-0.0006348345854132464,
				0.0006484145661365859,
				-0.0003182999917769856,
				0.0009346520356658763,
				-0.00045302218175178807,
				0.00042013158910299557,
				0.00013176584041201087,
				0.0008391371964079938
			],
			[
				-0.00012105020976999677,
				0.00024019541817460466,
				0.0005110580839793278,
				0.00019574462614275904,
				-0.0006346614482625697,
				-0.00032311978635365967,
				-4.010790635312336e-05,
				-0.00012817274143636116,
				-0.00014733247570926356,
				-0.00013109831195148435,
				-0.0009884094756221367,
				-0.000852203016717674,
				-0.0002454329306432548,
				-0.0001456948175123403,
				0.0001049527654915889,
				-0.0008530624148151804,
				-0.0002495456907683518,
				0.0006284798683257836,
				0.0005337776237723758,
				0.0009390391748201376
			],
			[
				-0.0004977571281432016,
				-0.0006103434295083707,
				0.0007080692872041938,
				0.000494992096460111,
				-0.00072276585482786,
				1.7111970456605043e-05,
				0.0007331599052665028,
				0.0005304158493988429,
				1.6498560404674695e-05,
				0.0001631672055954997,
				0.00038810410585843574,
				9.451917159681547e-05,
				0.00028889492614096604,
				-0.000761849978856582,
				-0.0006808985681786979,
				-0.0006837737093274521,
				-3.8616227818439675e-05,
				0.0001513107911963081,
				-0.0007141001934225573,
				0.0009468321001445707
			],
			[
				-0.0007222265607186711,
				0.00011602199719763849,
				0.000665985431519239,
				0.00030829036071267947,
				0.00018588976068440962,
				0.0009604799535242693,
				0.0008303395443463408,
				-0.00035061955661549104,
				-0.0009122317096401871,
				-1.645421450087751e-05,
				-0.0003169759783376089,
				-0.00010942105369718131,
				-0.000983028303614067,
				0.0007094928452057515,
				0.00019351356362673489,
				-0.00046464077475667895,
				-0.0007217268906334121,
				-0.0008266622007414519,
				0.0004738548150699023,
				-0.0006294010133708012
			],
			[
				-0.0006338729506759575,
				-0.0005746922369763078,
				0.0009624403355601207,
				-0.0006621248191920257,
				-0.0007181544194097922,
				-0.0008125223446789232,
				-0.0008634657919735851,
				0.0005952486794102167,
				0.00013165749606678994,
				3.8255337391096024e-05,
				0.0005455546014061139,
				-0.0002254926854101453,
				0.0007793327067808047,
				-0.00014738687893656492,
				-8.721039431777667e-06,
				0.00042427474172499553,
				-2.319421571271357e-05,
				-0.0008423793933012846,
				0.0006673642909711215,
				-0.0005148313613699352
			],
			[
				0.0009107989373780604,
				-0.00021662490290887365,
				-0.0004163291002788643,
				0.0006530135750374782,
				-0.00010787781464844867,
				-0.0009175787065804291,
				0.0005012776629176479,
				0.0008556204394742433,
				-0.00020699564728039288,
				-0.0001403185897614292,
				-0.00033953995376818046,
				-0.0002651125520798303,
				-0.0006450946328719442,
				0.0009714922816315176,
				-0.00019211458822742755,
				0.0006372036204338586,
				-0.0007797991205932886,
				-0.0006592684248793183,
				-0.0007821822531003069,
				-0.0009312268624925589
			],
			[
				-0.0006829004837016615,
				-0.0008857663233621165,
				0.000272940844182061,
				-0.0008506437679209878,
				0.0005426448293566818,
				-0.00024523586252079286,
				0.0003588714713794992,
				9.464600308241007e-05,
				9.200209929616991e-05,
				0.0009436526480130975,
				-0.00012164003155777853,
				-0.0008009120061810719,
				0.00040509651750995,
				-0.0008520302433716343,
				0.0004929095335674096,
				0.0008019115171451637,
				-0.0008571861403205072,
				-0.0003980549872254804,
				0.0009866895538511475,
				-0.00047474758351584683
			],
			[
				-0.0006908373402422821,
				0.000812659952140338,
				-0.00019992010762653575,
				0.00032137375103312633,
				-0.0003576123990904745,
				0.0009600932614820699,
				0.00074677712043712,
				-0.0002808877614066057,
				-0.0006159413827882812,
				0.0007335456075648918,
				-0.0007952532014024331,
				-0.0008924723484656472,
				-0.00024553925567047407,
				0.00013281477688483422,
				-0.0003259406095773818,
				0.0009148058323802976,
				-8.245433319700886e-05,
				0.00019136962582018044,
				0.00039163909157043444,
				0.0008688465528399192
			],
			[
				0.0005789180632243349,
				-0.0005793575319076305,
				0.0003684011471889951,
				-0.0005616967320501212,
				-0.0009666772850435475,
				-0.0007854255677507649,
				0.0005103231972902829,
				-0.000937101725599777,
				-0.0005252032507439557,
				3.1322243479178086e-05,
				6.776697947883411e-05,
				-0.0003037927430580811,
				-0.0005774777995532663,
				0.0005749716915235588,
				-0.0006616134754018365,
				-0.0008881164622681744,
				-0.000835253255096424,
				-0.0004920989852398297,
				-0.0004895799689647993,
				0.00016124721786932653
			],
			[
				-1.5957217098247403e-05,
				-0.0005551676139148996,
				0.0001000963346189411,
				-0.000938756188123264,
				-0.00011092070432055351,
				-0.0009742981272651645,
				-6.630262602191081e-05,
				-0.00015844228513134362,
				0.00023945608290267678,
				-0.00043855022718348265,
				-0.0005184603157075049,
				0.0007824494023287397,
				0.0004334234678764464,
				0.0009361626842476804,
				0.00016379730197310497,
				0.0008175141590028834,
				0.0005413682184638436,
				0.0008338658429253188,
				0.0004193917624549415,
				-0.0002706850146232345
			],
			[
				-0.0002496682200936795,
				0.0005248073272864928,
				-0.0004118884994399768,
				-0.00010775303673700258,
				-0.00045935802968348157,
				0.0006887750737419301,
				-0.0002229062745051553,
				-0.00021766698633009837,
				0.0006229178628835421,
				0.0006979101518367935,
				-7.183008179597738e-05,
				-0.0005406069388140524,
				-0.00043875191980882234,
				-0.0005288525421086295,
				-0.0008831618861907287,
				-0.0006347794857098686,
				-0.0008099845601721494,
				-0.0006870728526601824,
				-0.00011703361601898203,
				-0.0007838771163968892
			]
		],
		[
			[
				-0.00042231057507260614,
				0.0004121623717037871
			],
			[
				0.0008657672637472323,
				-0.0006069687834164444
			],
			[
				0.000642336568657463,
				-0.0009863695074108184
			],
			[
				-0.00038065957971358366,
				-0.00035074072747826436
			],
			[
				6.0231600328439086e-05,
				-0.000269154142469912
			],
			[
				-0.0009764708657124064,
				-0.00024772606594345684
			],
			[
				-0.0007837060613224624,
				0.0002864153193992691
			],
			[
				-0.0009870308060926673,
				-0.0006836826379429746
			],
			[
				-0.0009326153166098539,
				-0.00039674738744809447
			],
			[
				-0.0007289896178742706,
				0.0003681839821122498
			],
			[
				0.0007454570503818744,
				-0.00038813184039144404
			],
			[
				0.0001181580191839881,
				-0.00015325021090328047
			],
			[
				-0.00012494338969301036,
				1.4345005221902797e-05
			],
			[
				-0.0006999039844380306,
				-0.00014329564201504886
			],
			[
				-0.0005899295678059129,
				-0.0002625520994812853
			],
			[
				-0.0004009043583285179,
				-0.0009881668326015482
			],
			[
				-0.0008008887409999275,
				0.000827218495227697
			],
			[
				0.0006205723978606609,
				0.0004965253433525147
			],
			[
				-0.000339013637085213,
				0.0007231966448946886
			],
			[
				-0.0005239045036457908,
				-0.0007770527260524606
			]
		]
	]
}