{
	"model_params": {
		"input_dim": 10,
		"units_per_layer": [
			20,
			20,
			2
		],
		"acts": [
			"tanh",
			"tanh",
			"identity"
		],
		"init_type": "uniform",
		"batch_size": 100,
		"decay_rate": 0.95,
		"decay_steps": 500,
		"epochs": 150,
		"lambd": 0,
		"limit_step": 500,
		"limits": [
			-0.001,
			0.001
		],
		"loss": "squared",
		"lr": 0.01,
		"lr_decay": null,
		"metr": "euclidean",
		"momentum": 0.6,
		"reg_type": "l2",
		"staircase": false
	},
	"train_params": [],
	"weights": [
		[
			[
				-0.0009735179923083492,
				-0.0006870089852031287,
				-0.0005980467197678921,
				-0.0009442086060003365,
				-0.0007807765059741656,
				-0.0005616656263319748,
				0.0003655083007366401,
				0.0006522565236210943,
				0.0005065346660919588,
				-0.00045482410341266563,
				-0.00019629792000243817,
				2.7753339276970386e-05,
				-0.0007015235564778904,
				-0.0004025055472021108,
				8.370751057644411e-05,
				0.0004363596079840432,
				0.00014370368697441704,
				0.00014072145497599146,
				0.0009629151978410157,
				0.0001508236067185927
			],
			[
				0.0008556526262326477,
				-0.0007739860108036423,
				5.071160337029811e-05,
				0.0004040126929277536,
				-0.0009747216101151255,
				-3.931510435667613e-05,
				0.0007186581558717407,
				0.0005662467513144541,
				-0.000788599561498975,
				0.0009680534343961744,
				0.0002849061321660092,
				-0.00025688355487405487,
				-0.00031831427946173467,
				0.0005056210252048583,
				-0.0002272947163964572,
				-0.0006969552964030947,
				-0.0006476391498716097,
				-0.00019473947367069087,
				0.0005917308086861438,
				-0.0007191873324364024
			],
			[
				-0.00011990042836535289,
				-0.0008294367420051514,
				-0.00044594092619897,
				-0.00022558256181781492,
				-0.0006005189859128548,
				-0.0005803832037847728,
				0.0003073886816187428,
				-8.816961223902871e-05,
				-0.000875069810859042,
				0.00017975116426377112,
				0.0008850582463138948,
				-0.000360378220433395,
				0.0008488373807777148,
				-0.00013375180662393495,
				0.00031264705492695696,
				0.0003869242085356116,
				0.0005716104461986823,
				-0.0002658906660038252,
				-9.708635196200752e-05,
				-0.0006446336595585037
			],
			[
				0.0006970635231685137,
				-7.399615970538629e-06,
				0.00032901194603034557,
				-8.617001530841838e-05,
				0.0004566325932038294,
				0.0003276745818392606,
				-0.00015686149643019914,
				-0.000194344622184752,
				0.0009521811933148993,
				0.000591503326509145,
				0.0008118751594966636,
				0.0007095345073467318,
				-0.00014910052323539012,
				0.0003411917186106478,
				-0.0007768140145838938,
				-0.0008908015003456242,
				0.0004365476101000879,
				0.0001907352672853276,
				0.00035247138536403174,
				-0.0008145450840879194
			],
			[
				0.0004015090035808075,
				0.00011744518565479697,
				-8.988762582173208e-05,
				0.0005219129572614385,
				-0.0004231533536074725,
				-0.00039785853191709865,
				-0.0006635647887715602,
				-8.499764066903406e-05,
				-0.0005328693755719503,
				0.00048776121186127393,
				0.0008548042481691636,
				-0.0009765563488718436,
				-0.0006445553307953193,
				0.0006531918250588891,
				0.0008244173751164956,
				0.0008594411774311588,
				0.0001332983853317279,
				-0.0005284854983980991,
				0.0006550534908029218,
				-0.0006132440804497
			],
			[
				3.826248223567073e-05,
				-0.0007183177524264628,
				-0.000834023036691693,
				-0.0007250682880965858,
				0.0008741637678710158,
				-0.000996013935484969,
				-0.00035549842946546036,
				-0.00033574564082084217,
				0.0008203877186947538,
				-0.0007978574541397792,
				-0.0008737289135962949,
				-0.0004480739282984523,
				0.0002099317469622581,
				-0.0002150365051531829,
				-6.403613348383462e-05,
				-8.910448436212843e-05,
				-0.0002436415652344859,
				-0.0006005660879828763,
				0.0007317817908979298,
				0.0005072646814335109
			],
			[
				0.0006860108360011753,
				0.000661131532708587,
				-0.0005849532999213987,
				-4.281965663965328e-05,
				-0.0005923216090882556,
				0.0004804916735570506,
				0.0005224195467706844,
				-0.0009446232394663543,
				8.549203943594512e-05,
				-0.0008060485847308052,
				-4.654193417692157e-05,
				-0.0009878019110311398,
				0.00014045596991313965,
				0.0005526256392743084,
				0.0004700925252618133,
				-0.0009974414511323116,
				0.0009866806836882247,
				-0.0004940224263950304,
				0.00011877831663187886,
				0.00034594522079055604
			],
			[
				-0.0005595001147930836,
				-0.0006696041214422238,
				0.0003644620527665876,
				-0.000760899125632353,
				0.000867252154567481,
				-8.225607956608208e-05,
				0.00025373264873329603,
				-0.0008739068313304013,
				-0.0003072096386106031,
				0.0003059078589218464,
				0.0006204703825348238,
				0.00028111417241384476,
				-0.00047056466421398896,
				0.0007349138048069177,
				0.0006091592350240583,
				-0.0003118319391573809,
				0.0007629442044639646,
				0.00010128779652788817,
				-0.00020551140284797028,
				-3.3630827765936296e-05
			],
			[
				9.803239268997913e-05,
				-0.00082707920281452,
				0.00010069860952625562,
				-0.00011968705197844937,
				-0.00019023414725193846,
				0.0009796729054172412,
				3.7583866190639935e-05,
				-0.00039287940085447467,
				-8.712084647887841e-05,
				-0.0003160556155873351,
				0.0008274658861690896,
				0.0008841107082542335,
				0.0007393776241906901,
				-0.00020246995360956137,
				-0.00021180420031027976,
				0.000975381592125334,
				0.00078324599754099,
				0.00084803568151477,
				-0.0004392363870232103,
				0.000741603468410098
			],
			[
				-0.00033464832658990605,
				-0.0004885274207443855,
				-0.0006373400891464487,
				0.00017339191116676894,
				-0.0006211342042488131,
				-0.0008617743450834557,
				0.000902855281665627,
				0.00018022238963973157,
				-0.0006719968985260507,
				-0.0001502790698876713,
				-1.0950833311557367e-05,
				4.272809819717252e-05,
				-0.00020168545710849098,
				-0.0003465279638056349,
				-0.0008641840507129992,
				0.0007230391926744022,
				0.0008381967021051902,
				4.667578183583125e-05,
				-0.00023070539845681907,
				-0.00033882237307223035
			]
		],
		[
			[
				0.0008723090576292266,
				-0.00020361896991542253,
				-0.0007402330976950962,
				-0.000322766325151171,
				5.461744168577137e-05,
				0.00023217809315308007,
				-1.9549324647865447e-05,
				0.0007277398459051138,
				0.0005138435121235423,
				-0.0004894642136275114,
				-0.0004973795606784452,
				0.00021483982812358564,
				0.000451429017936589,
				0.0008125520174446339,
				-0.0008948597143509579,
				0.000453102855404351,
				-0.0006441200488346269,
				0.0005399198832919145,
				-0.0005051268324496871,
				2.900605250056275e-05
			],
			[
				-0.0006864491345313597,
				-0.0006807658604444941,
				-0.0008032678663723892,
				-0.00026998511424433257,
				0.0009834044425488194,
				0.0006539807824780623,
				-0.00026813028668750034,
				-9.795315447254892e-05,
				0.0006011127803175586,
				0.0002963392761262426,
				0.0003258222853007851,
				-0.00025908169926892996,
				0.00012765725037470078,
				-0.0006269830879242289,
				-0.0004299699272904187,
				-0.00029832590420914907,
				0.0007275502040267746,
				-0.0006572245406649708,
				-0.0008784986106964605,
				-0.00022217670713590954
			],
			[
				-0.0009984792598377239,
				0.0006995926879712873,
				0.00025134672979176906,
				-7.426687827024713e-05,
				0.000972539026989966,
				0.0005891495614299021,
				-0.00030556179454344675,
				0.0003830534612978252,
				0.0009564242443995583,
				0.0007339542916286826,
				-0.0003392294794556487,
				0.000846187851997561,
				0.0005703255648909194,
				0.0008836860074952573,
				-0.00028210437942390574,
				-0.00068675708574253,
				0.0007973293697591272,
				-8.967732792471053e-05,
				0.00014830028920021486,
				-0.0007772448517088933
			],
			[
				0.0004353716570517762,
				0.0009682179337298525,
				0.0008733075081280896,
				-0.00013193481178423445,
				-0.0008770709237755115,
				0.000529075812174207,
				4.8202249800261e-05,
				-0.0006253907020440137,
				-0.0007376921364582894,
				0.0003936940875458269,
				-0.0007067634310624518,
				-0.0006960463346398387,
				0.00046484970238461665,
				0.0009978960420014733,
				0.0008836330590842221,
				-0.00018847091362488347,
				-0.0003194154211108548,
				-0.00010145341844627583,
				0.0005257678471192742,
				-0.00014815926535870097
			],
			[
				-0.0007388603284094964,
				0.0008136319773296105,
				-0.0007289934193084591,
				-0.0002625446713838695,
				0.0007226330684724355,
				0.0007301165209850529,
				-0.0009040603158194094,
				-0.00037927735543335107,
				0.0009443744804764466,
				0.0008856102729081538,
				-6.54447979067461e-05,
				0.00028660398912581497,
				0.00044506882646652766,
				0.00052746609253762,
				-0.00041217633479232265,
				0.00013877053056092687,
				-0.0007145016103442747,
				-0.0004311051494780725,
				-0.0007295075536727607,
				0.00046485857504106453
			],
			[
				-0.00045540897658019033,
				3.668255477107642e-05,
				0.0003507018747220139,
				6.402597233810532e-05,
				0.000814389215738039,
				0.0002732550463337511,
				0.0008742053561621662,
				-0.000570016327251949,
				-0.0009056667533418377,
				0.000616799690119862,
				0.0004030987254283161,
				-0.0004959844201476862,
				-0.0003864229966597237,
				0.00040680147245467243,
				-0.0009050667717580614,
				-0.0006220304334548904,
				-0.0005170910504500117,
				-0.00012808923014706,
				0.000994394189818286,
				0.00025055651438095675
			],
			[
				-0.000674344274679749,
				-0.0009661066830041347,
				-0.000233824046604584,
				1.727123791392133e-05,
				-0.0004292457428661711,
				-0.0003035832567580077,
				0.0006692165292404987,
				-0.0006204464043851428,
				0.000687190294562834,
				-0.0007522049477302489,
				-0.0005279683099951103,
				-0.0009796603983398425,
				-0.0004986502450332422,
				-0.00038660930090475445,
				0.0002910402983774391,
				-9.261164235571326e-05,
				0.0004146338248441181,
				0.0005139768969555532,
				0.0002874335472579817,
				-0.00025764995894622395
			],
			[
				0.0005931689173207639,
				-0.0005802644536389414,
				-0.0007610705372749556,
				0.0009252692797950702,
				0.0001543600979318205,
				-0.00014770277473917352,
				0.0007936326680194653,
				0.0004943343749554676,
				-0.00038862444175498465,
				-0.0003345076198436257,
				-0.0009634425873619153,
				-0.0003889611539263602,
				3.876732384067963e-05,
				0.00017519756725408483,
				-6.054633098811243e-05,
				-0.00038243483612649906,
				0.0002797662661004276,
				0.00039222599087685166,
				-0.0007797306426977036,
				-0.00029184146711713917
			],
			[
				-0.000911037181908666,
				0.0005126925613775813,
				0.0007015340531090215,
				-0.0008444124383098603,
				0.00013838501388579636,
				-0.000559907954382611,
				-0.0003424427707682976,
				-0.0006605648855044781,
				-0.0007698782821705123,
				-0.0006512617311124332,
				0.0006611596873966152,
				0.00041930295596405475,
				-0.0005723053999055958,
				0.0008510681688109832,
				0.00048217164805945244,
				-0.0008685362616428593,
				0.0005073041753539467,
				0.0006550957514558566,
				0.00047425615752763606,
				0.0003190958310957425
			],
			[
				0.0008196626273560448,
				-0.0008403188834437425,
				0.00028141259280575954,
				-0.0006221583411767677,
				-0.00036965914736263495,
				-7.746847438223025e-05,
				0.00017799215183804742,
				-0.0002849509471076235,
				0.00012540249550651553,
				0.0001450954706267622,
				0.00016335705421748146,
				0.0008597522410222498,
				-0.0003901600887979528,
				8.021805853961213e-05,
				-0.0004769834200720553,
				-0.00026149063054661825,
				0.00021251354862400137,
				-0.0008249061060501022,
				-0.00047816064057506406,
				-0.00011406407527810231
			],
			[
				-3.276044300288476e-05,
				0.00017003071072108382,
				-0.0009020521708297533,
				0.0003435949894241379,
				-0.0009566025467559975,
				0.000925722310096479,
				0.00016006442549677206,
				-0.0003150638797039982,
				0.0007274053625952422,
				-0.0008399947619508952,
				-0.00025076043088974374,
				-1.4961847618170281e-05,
				0.0009350428462333465,
				0.00037344255877163517,
				-0.000774319639205185,
				-0.00022488478912945163,
				0.0003723489669983334,
				-0.0006450938890244749,
				0.00033680341600035254,
				0.0005829375108712528
			],
			[
				0.0008932202311807036,
				0.0005265286337921284,
				0.0005681316767266486,
				0.0004381525696311548,
				-0.00025732468398556693,
				-0.0003896449969318787,
				0.00040075642426293527,
				0.0006587879367329675,
				0.0008473554758008865,
				-0.0004131984795180181,
				-0.00023314144063977334,
				-0.0008000336062762676,
				0.0007419193812946675,
				4.356431036523184e-05,
				0.0004910127242024232,
				-0.00031701074671866786,
				0.0003525104196324424,
				-7.929391231553294e-05,
				-0.0007339948754374735,
				-0.0007853086322812626
			],
			[
				2.1239471859194232e-05,
				-0.0007142551349831408,
				-0.00045526455126180675,
				1.956233362209077e-05,
				0.00025508755586391564,
				0.0005202949165191435,
				-1.6085572395545126e-05,
				0.0008731028344851916,
				-0.00040050860262701464,
				0.0003677637824716026,
				0.00010365997292862013,
				-0.0007769943855906696,
				0.0005321104069300965,
				0.0005214270413070562,
				-0.00044712626988504004,
				-0.000962845116898847,
				0.0006921639090492378,
				0.0006448524199396098,
				-5.657260538022605e-05,
				-0.0005830945118708447
			],
			[
				0.00031006052893050055,
				-0.0006069384005362088,
				-0.0006841085095735515,
				0.0008018596036092418,
				-0.0006295862315490404,
				0.0005197082491421438,
				0.0006459331920005557,
				-8.643360760187584e-06,
				-0.0002777025317058866,
				-0.0005691642326686101,
				-0.0003956958350184945,
				0.0007066172272282851,
				0.0008174387946346942,
				-0.0002105407981902969,
				-0.0006700022686781015,
				0.00018216288173621056,
				-0.0007721609223662698,
				-0.00011601483744977446,
				-0.0005953509379213993,
				-0.0008124887988916103
			],
			[
				-0.0008962683957025412,
				0.00034396939513471224,
				0.000866438548390143,
				0.0005035362526831231,
				0.0006053523568455149,
				0.0004647642990888699,
				0.00034699053146296276,
				0.0007980716042992355,
				-0.0003077380821286922,
				-0.0009212589391522026,
				0.0008151401133648735,
				0.00010611715787383182,
				-0.0008312465512606364,
				-4.9955010133915915e-05,
				0.00023155711947435713,
				0.00014413623323335256,
				0.00044580699151251357,
				-0.0007114843746871826,
				-0.00037331576549778033,
				8.503186081244602e-05
			],
			[
				0.0006515589394588692,
				-0.0002620541293948626,
				0.0009001067404792982,
				-0.0008811969528993806,
				-0.00034660276804295736,
				-0.00034221555073525134,
				-0.0006182609927889582,
				-0.0008137571606519887,
				-0.0006408395228160067,
				-7.452465484481636e-05,
				0.0004782515825762282,
				0.0009535335566004093,
				0.00032532719702640977,
				0.0007152940981814634,
				0.00011329813973621735,
				-0.00041108922123979537,
				-0.0009054583401069017,
				0.0005449069240844489,
				0.0008119785739118157,
				0.0006149200596318278
			],
			[
				0.0009029160545999905,
				-0.00023239265011627786,
				0.0007077511599400785,
				-0.000603910817734307,
				0.0008424703855524631,
				-0.00021220372718009717,
				3.8745556735104384e-05,
				-6.511399015998688e-06,
				0.0006544488844043837,
				-0.0002323626095071423,
				0.000836196063733422,
				0.00041499975757961134,
				-0.0006055520695063329,
				-0.0003874074380575388,
				0.0007381936192494729,
				0.0009339487220285654,
				-0.0006268908900377421,
				-0.000207971282027922,
				-1.8286023033312624e-05,
				-0.00014769844066524977
			],
			[
				0.0007126212539582577,
				-0.0009044197786276858,
				2.1909006188187627e-05,
				-0.0009612898507185035,
				-0.00015691314795783116,
				0.0005021194441950081,
				-0.0009122119144104531,
				-0.0009621894068692434,
				-5.1789118799394586e-05,
				-0.0006391511031332805,
				-6.31016303156318e-05,
				-0.0005364953564386545,
				0.00039123123497418087,
				0.0005690423256710967,
				0.0005686566596277945,
				0.00024170630214087412,
				-0.00010480937939463494,
				-0.00039411582133258886,
				-0.0006449342940630412,
				-5.9714573683106e-05
			],
			[
				0.0005006543419177761,
				9.649022181691951e-05,
				-0.0001981854588506564,
				0.0009350732121189967,
				-0.0005614611368649256,
				0.00022600063289837657,
				0.0005255178658073421,
				0.0002827587483584047,
				0.0001478882281249821,
				-0.0003655906805300075,
				0.0004208237715177098,
				-0.0004789811225947067,
				0.0009288090706105019,
				-0.00038082804558414577,
				0.0002516856975796147,
				-0.0008448660136073427,
				0.0004688727959442976,
				-6.305846499394337e-05,
				0.0006014965791671766,
				-0.0007569692378529496
			],
			[
				0.0008431724235756434,
				-0.0009849250222482423,
				-0.0001887938399567832,
				-0.0002716805122018513,
				-0.00024082760153841456,
				0.0004903743134957691,
				-0.0008569069675409241,
				0.0003872838880524252,
				0.000650162429682165,
				-0.0002394929661843259,
				0.00039781196551787754,
				-0.0007613645462438315,
				0.000976997277344547,
				-0.0005233264922947884,
				-0.0009229933477734824,
				0.000676503177804987,
				-0.0008146483762234458,
				0.000432262150349803,
				0.000719260734034607,
				0.0009166556456216505
			]
		],
		[
			[
				0.000927278553207823,
				0.0003278180293975275
			],
			[
				-0.0007043469911951199,
				-4.3730776795204186e-05
			],
			[
				0.000591647191981091,
				-0.00022325608018379994
			],
			[
				0.000598834869835233,
				2.6184023354592408e-05
			],
			[
				-0.0005161797911539541,
				0.0004555366948548105
			],
			[
				-0.00023115063266676008,
				0.0007135678414448186
			],
			[
				-0.0009073364920293634,
				-0.0006188894526497939
			],
			[
				-0.0004249890359109467,
				-0.00018828910017691246
			],
			[
				0.0009680304643672252,
				0.0001603831186479498
			],
			[
				0.0009456824102837464,
				-0.0007493274188848469
			],
			[
				-0.00013019568782743883,
				0.0002740126158993473
			],
			[
				-0.00026663602220469793,
				0.0007243245307417092
			],
			[
				0.00027516651707219244,
				9.766282708067054e-06
			],
			[
				0.00020316785357957093,
				0.0006245890255359467
			],
			[
				-0.0007876003463926491,
				9.87821977954783e-05
			],
			[
				-0.000908145007658848,
				0.0008608241334122516
			],
			[
				-0.0008148613333170021,
				0.0005331456080975108
			],
			[
				-0.0009660638943911814,
				-0.0009817381795244337
			],
			[
				2.513531676447936e-05,
				0.0009893110507563836
			],
			[
				-0.00035667039852489517,
				0.0009872521078938042
			]
		]
	]
}