{
	"model_params": {
		"input_dim": 10,
		"units_per_layer": [
			20,
			2
		],
		"acts": [
			"tanh",
			"identity"
		],
		"init_type": "uniform",
		"batch_size": 16,
		"decay_rate": 0.95,
		"decay_steps": 500,
		"epochs": 700,
		"lambd": 0,
		"limit_step": 500,
		"limits": [
			-0.001,
			0.001
		],
		"loss": "squared",
		"lr": 0.0021435193860245855,
		"lr_decay": null,
		"metr": "euclidean",
		"momentum": 0.6,
		"reg_type": "l2",
		"staircase": false
	},
	"train_params": [],
	"weights": [
		[
			[
				-0.0007684539907232169,
				-0.0009713623227809139,
				-0.0006902367416226576,
				-0.00024284325464137186,
				-0.0009378291261638839,
				-0.0005469548282384085,
				-5.614102980330653e-05,
				0.00047980455353375563,
				0.0009439872931918925,
				1.617624002308118e-05,
				2.114714757075987e-05,
				-1.6109858002973185e-05,
				0.0006607185355398913,
				-3.902797504594217e-05,
				0.0009516683003581643,
				0.0007527215009561848,
				-0.0009252951128284964,
				-0.00044880663472693643,
				-0.0003082894261562133,
				0.00011197281988894786
			],
			[
				2.289212935176893e-05,
				3.3066310062490655e-05,
				0.0008241843558706346,
				-0.000650713346031504,
				-0.0005510371913549522,
				-4.071552318680907e-05,
				0.0006107306530334388,
				-0.0006839971804755147,
				-0.0007669634731298578,
				0.0004545754604287477,
				0.0009461533570087623,
				0.00037430361260593634,
				-0.0004255151067880538,
				0.0009617645094910018,
				1.0408021228604106e-05,
				-0.00010409202056480037,
				-0.0003136127426622173,
				0.0008950367531596142,
				-0.00039506287642829437,
				-0.0001650443468253404
			],
			[
				0.0007090430859562782,
				0.0008259886163718086,
				0.00012818474619780487,
				-0.0009996006406633926,
				0.0007448634638847194,
				-0.00029736350695485996,
				0.0001114268348114465,
				0.0008787110998091012,
				-0.00033168164819103406,
				0.00045075388377802355,
				0.0007234289473319689,
				-0.000966712598641323,
				-0.000404443649119012,
				-0.000125933539364323,
				0.0009529448673001528,
				0.0003506494741175698,
				-0.00016831129819062365,
				-9.368536499797058e-05,
				-0.00012304082960363876,
				-0.0008967903075648925
			],
			[
				0.0004410364295549408,
				-0.0006100256550622648,
				0.0003660213666164384,
				0.00036913235826029566,
				0.0003178329993401062,
				-9.57030000075669e-05,
				-0.00022245909448522048,
				-0.00044150264052970065,
				0.0002443098931958637,
				3.034872641612769e-05,
				-0.000792377566977784,
				-0.0004819632715066484,
				-0.0008060148940247751,
				-0.0008191029971146026,
				0.0007051388364439036,
				-0.00032255001811811975,
				0.000718637065880432,
				-0.0004125140156966854,
				0.0004449589172190744,
				0.0007366075489264495
			],
			[
				-0.0007296120342584317,
				-0.0007478559343957766,
				-0.0007163705149930189,
				0.0009581935908031568,
				0.0001759659922624232,
				-0.0008657019253457336,
				0.0006082607577970976,
				-0.0009133323939701594,
				0.0008121374515050069,
				-0.0004765241552353303,
				-0.00038228017839464013,
				-0.0006685434114714146,
				-0.0005072124062912033,
				0.0006747476156154623,
				-0.000625819065727834,
				0.00020533520784899047,
				0.0003137410707150308,
				-3.3345196117190684e-05,
				-3.9152095693765826e-05,
				-0.0007321034485215232
			],
			[
				0.0005341999945486541,
				-0.0008788790159950191,
				0.0003593113182035748,
				0.0003501836428796024,
				0.00018849990322944866,
				2.9931151944872017e-05,
				-0.0004909601808229718,
				-0.0004997213487506342,
				0.00018904843175898169,
				-0.0008549459957237419,
				0.0009511592633652671,
				0.00026062151305128933,
				0.00044018346733138867,
				0.0007278799254931507,
				0.000850817846842837,
				-0.0006979214165729758,
				-0.0001925819320662117,
				0.0008520266073313164,
				0.0001021117879465678,
				-0.0002562158153761822
			],
			[
				-0.0006211427476941265,
				-0.0001382107397827774,
				-3.8824802622041874e-05,
				0.0007362492958224276,
				-0.0006791972885628375,
				8.002388615639526e-05,
				-0.00014617977813332337,
				-0.0006893328290412538,
				0.0009187935375663807,
				0.00020915116429376444,
				0.0003323723952535001,
				0.0008525629405136215,
				-0.0001339953393984097,
				0.0009508276145678907,
				-0.0005751931382275328,
				-0.0003668926221934752,
				-0.00013696553151771923,
				0.0005751912136306547,
				-0.0005623404836093447,
				-0.00023120606547443476
			],
			[
				-7.88545947479995e-05,
				-0.0009535007010163472,
				0.0008227138850717788,
				-0.0008229845322010376,
				-0.0006626573851767106,
				-0.00019858759816750095,
				0.0007880326395675798,
				6.716999755083984e-05,
				-0.00015622895772773892,
				0.0005545879729004397,
				-0.00022408920076563504,
				-0.0007479461879601381,
				0.00048297678073903763,
				-0.0005936377840576519,
				0.0004901631297226676,
				-0.0007587493508200245,
				-0.0003107614151482461,
				-0.00046035102844133816,
				0.0008642731425311694,
				-3.3600958154902374e-05
			],
			[
				-0.0003741905362529965,
				-0.0003414473004051522,
				0.0009560813775556045,
				0.0009975583253398193,
				-0.00011251041752982573,
				0.0004849499545730093,
				0.00024269391124822877,
				0.00023301359864979273,
				-0.00098545672120099,
				0.00011597571694657994,
				-0.0005735001498208024,
				0.0007083427018744022,
				-0.0007619284824270304,
				0.0006290773946699786,
				8.10851097740083e-05,
				-0.0009254131326588504,
				-0.0005490896217714685,
				-0.0009738623789248884,
				-0.0003497345017629736,
				-0.0008486678789423654
			],
			[
				-0.0006239656388006066,
				-0.0009228539756924736,
				-0.0003293873697672138,
				4.998888031177394e-05,
				-0.0009561517832110001,
				0.0009452540116559802,
				3.1843125616346033e-06,
				-0.0004391226048651431,
				-0.00010206232188445896,
				0.0007286058739552285,
				-0.000575896256574493,
				-0.0005565561573256888,
				-0.0007393805293298009,
				2.4964136326573877e-05,
				-0.0008153942765573228,
				0.00024291832169185258,
				-0.0006155796966962823,
				0.0008428860030480225,
				0.0008011771420675662,
				-0.0007541442629329389
			]
		],
		[
			[
				-0.0007021104303833103,
				0.0003747958553746145
			],
			[
				0.0006676108314903491,
				0.0007485712965350079
			],
			[
				-0.0008257256221555133,
				-0.00032423491229718545
			],
			[
				0.0007428033044878247,
				0.0006785745737533293
			],
			[
				0.0007065613203237299,
				-0.000711277540301589
			],
			[
				2.9842068281344097e-06,
				-1.677952130419119e-05
			],
			[
				-9.438738543607794e-05,
				0.0004522254669196801
			],
			[
				-0.0008886068923877176,
				0.0001909013568317647
			],
			[
				-0.0004878576909684904,
				0.0007759020285888921
			],
			[
				0.00033107283057889924,
				0.0001554534440318903
			],
			[
				-0.0006056514850389077,
				-0.0006959053909945576
			],
			[
				-0.0004752981968343882,
				0.00010316576412536856
			],
			[
				-5.212629285000054e-05,
				-0.0007017329524635434
			],
			[
				0.0006868447460087431,
				-2.848535308295206e-05
			],
			[
				0.00020128063106768235,
				0.00018417101373184477
			],
			[
				-8.65544204177686e-05,
				0.0007007013860308997
			],
			[
				0.000654047059529458,
				0.0005161023431882994
			],
			[
				0.000423808233005925,
				0.000352890494044029
			],
			[
				0.0003753432833901139,
				0.0005179665810162851
			],
			[
				-3.822147061889971e-05,
				-4.357429484817615e-05
			]
		]
	]
}