{
	"model_params": {
		"input_dim": 10,
		"units_per_layer": [
			20,
			2
		],
		"acts": [
			"tanh",
			"identity"
		],
		"init_type": "uniform",
		"batch_size": 16,
		"decay_rate": 0.95,
		"decay_steps": 500,
		"epochs": 700,
		"lambd": 0,
		"limit_step": 500,
		"limits": [
			-0.001,
			0.001
		],
		"loss": "squared",
		"lr": 0.001,
		"lr_decay": null,
		"metr": "euclidean",
		"momentum": 0.4199289601348085,
		"reg_type": "l2",
		"staircase": false
	},
	"train_params": [],
	"weights": [
		[
			[
				0.00043236985548699954,
				-4.676146808171898e-05,
				0.00016027000750862513,
				0.000925702300758238,
				0.0005636234700199787,
				-0.0001621430646288433,
				0.0002777919491862707,
				0.00021698693519239158,
				0.00031339289584769725,
				0.0004599984195503195,
				0.0004325075475010258,
				0.00017617164086113557,
				0.000994912334374974,
				-0.0008327384538238556,
				-0.00029970999033094084,
				0.00057273499763554,
				5.397871492384245e-05,
				0.0005245772673961931,
				-0.0005191212210902978,
				0.0007153450200698881
			],
			[
				-0.0008725308017797578,
				-0.00037305666794146416,
				0.0002625790329184555,
				-0.0001750138844581184,
				0.0006870515616479332,
				-0.0004935425568901982,
				4.9782361994057294e-05,
				-0.00017059161327488042,
				0.00013562769793256865,
				-0.00038387665197317934,
				-0.0008709640673335424,
				-0.0007024611461135147,
				9.501327999170226e-05,
				-0.0004121379709361905,
				0.0002194335511431088,
				-0.0002405657401190999,
				-0.0007804792110084926,
				0.00027543231029203354,
				0.0008881499003121304,
				0.0004816146730232788
			],
			[
				0.0007557556141578839,
				-3.19457713334663e-05,
				0.00015865461302540284,
				0.00022720265747889308,
				-0.0003459337932370315,
				0.0003241013380786055,
				-0.00027991495270849524,
				-1.6597833389555422e-07,
				8.396807212400059e-05,
				0.0008689917836346012,
				0.0008069399402809735,
				-0.00046218201489619127,
				0.0004899934875761613,
				5.505238922740648e-05,
				0.0007362936062720671,
				-0.0009756301052601326,
				0.00048487798499876494,
				0.00019342177383411554,
				-0.0004198451985759319,
				0.000981030735906426
			],
			[
				0.00021732556444041583,
				-4.399490093338269e-05,
				1.4031824543678413e-05,
				0.00037373210324030226,
				0.0008946958139553344,
				0.00030963583512439146,
				-0.000676116085768202,
				0.000586519750001684,
				-0.00019277391902166729,
				0.0001158767730447261,
				-0.0007740771581676431,
				-0.0009964647232550128,
				-5.5960056607691705e-05,
				0.0001182812973110276,
				0.0005142799757817619,
				-0.0005640636960639151,
				0.00042862451638045105,
				-9.979746639576749e-05,
				-0.0009703793145665755,
				-0.0005479579997676653
			],
			[
				-0.0001431317330666639,
				-0.0005726330130240935,
				6.288527892104722e-06,
				-0.0008633270435897758,
				0.0003278485456156639,
				0.00017782867219548536,
				0.0008355863630412881,
				0.000822503299122502,
				-0.000264339256892403,
				-0.000369181576875973,
				8.85415540459926e-05,
				0.0009917273160488013,
				1.5748156649707202e-05,
				1.0146778956629608e-05,
				-0.0009686576944402015,
				-0.0006135206462938809,
				0.0009354722861230442,
				-0.0002677926871114489,
				0.0005595575495601229,
				-0.0007441341161254576
			],
			[
				-0.00010139428541964298,
				-4.697003799836001e-06,
				0.0007176016907491363,
				-0.0005355228372843537,
				-0.0005685899338347895,
				-0.0007273018963262379,
				-0.0004535273776389481,
				-0.0009748952030192598,
				0.0005734919185408681,
				-0.0003462162622628074,
				0.00022281286774171048,
				0.00020826436830877703,
				0.0007876445782196147,
				0.0008941066249564514,
				0.00011181491031236218,
				-0.0007521468778237426,
				-0.0001009930895652329,
				-0.0005907829041041233,
				-0.00020175865728292526,
				-0.0004799627748623001
			],
			[
				0.0002338965462812645,
				8.50765018674351e-05,
				-0.0001108593559220756,
				-0.00010168537468275955,
				5.648403535131116e-08,
				0.000337509425965412,
				0.0008935393102423956,
				-0.0007429558633341305,
				0.0008179446065975841,
				0.00031386618218178625,
				0.0001274401761087291,
				-0.0008666891138674149,
				-0.0008232187195761563,
				-3.9903301736076324e-05,
				0.0007766260469998746,
				-0.0009026640284059428,
				0.00010223734512492216,
				0.0007579956961997229,
				0.0008605909582388737,
				0.0009780596151084996
			],
			[
				-0.00035429526529758525,
				0.0008047856005063596,
				0.0008470859703278515,
				0.000890808834227136,
				0.0003980289153631962,
				-0.0006486174822142832,
				0.0009888151893020663,
				7.420319569796576e-06,
				0.0003516400700996317,
				0.0007666167639628256,
				4.961856929142387e-06,
				-0.0006483311715412157,
				-0.0008239648083877225,
				0.0005060369574828622,
				0.0001940797863479518,
				0.0005657121730640667,
				-0.0008256977635822298,
				0.000902188259863402,
				0.0008848721697646258,
				-0.00030754912674583036
			],
			[
				-0.0001883496595069718,
				0.0007709198774256438,
				9.606262324925955e-05,
				3.569557486452998e-05,
				0.00027888644501728637,
				-0.00028233057483898155,
				0.0005966392302257247,
				-0.0008214659983446652,
				-0.00043613395237178756,
				0.0003182336323193679,
				-0.0008219864467858642,
				0.0007426826326381245,
				-0.0004245135923832453,
				0.000385544671526891,
				0.0009327874746375463,
				-0.0002830163908857477,
				0.00018702707778124193,
				-0.00036475352346179626,
				-0.00023267525898311274,
				-0.0003735173994625278
			],
			[
				-0.0006673243316480176,
				-0.0006624478577325339,
				-0.00023243899393041016,
				-0.0001342007096901787,
				-0.00036284888901172386,
				-0.00025254432085497253,
				-0.0005759222765420231,
				3.9685129692038166e-05,
				0.00012519344031901715,
				-0.00013419346584314033,
				0.0004425256417608754,
				0.00045676292075452524,
				3.265757384856107e-05,
				0.0009748736416222066,
				0.00031847703082996397,
				-0.0009311975459936239,
				-0.0009404865279728554,
				-0.0007496233972518437,
				-0.0005396312268349951,
				0.00023234974290210308
			]
		],
		[
			[
				0.0005894167292876784,
				0.0009578499725268847
			],
			[
				-0.0009890691658787682,
				0.0006906541904308657
			],
			[
				-0.0008255862249864055,
				-0.000890544775197518
			],
			[
				-0.00039008795910344717,
				-0.0006186857999176279
			],
			[
				-0.00037821707688791143,
				0.00018033980656618522
			],
			[
				0.0004662767093180833,
				0.00016804090733074997
			],
			[
				0.0007132623907545714,
				0.0003371303501244027
			],
			[
				-9.923450411602141e-05,
				-0.00015417735141616193
			],
			[
				0.0006034786429341562,
				-0.0003956810598667429
			],
			[
				-4.7488222458514e-05,
				-0.0008124187753110337
			],
			[
				-0.0009785058320013118,
				-0.0006667699340683793
			],
			[
				0.0007045067593808229,
				-0.0006858317116729964
			],
			[
				-0.00075148417602103,
				-0.0006040333979712198
			],
			[
				-0.0003324622754738429,
				0.00027968756485111817
			],
			[
				0.0002910684802533135,
				-0.0002613613171619602
			],
			[
				0.0006751028922619415,
				0.0009731789986511408
			],
			[
				1.1328190607050011e-05,
				-0.00014506616954902056
			],
			[
				-0.0006596303437899709,
				0.0005838310337822246
			],
			[
				0.00026317179036991164,
				0.00013366091760375954
			],
			[
				0.00024491272675372655,
				-0.00034126729585890186
			]
		]
	]
}