{
	"model_params": {
		"input_dim": 10,
		"units_per_layer": [
			20,
			20,
			2
		],
		"acts": [
			"tanh",
			"tanh",
			"identity"
		],
		"init_type": "uniform",
		"batch_size": 100,
		"decay_rate": 0.95,
		"decay_steps": 500,
		"epochs": 150,
		"lambd": 0,
		"limit_step": 500,
		"limits": [
			-0.001,
			0.001
		],
		"loss": "squared",
		"lr": 0.01,
		"lr_decay": null,
		"metr": "euclidean",
		"momentum": 0.6,
		"reg_type": "l2",
		"staircase": false
	},
	"train_params": [],
	"weights": [
		[
			[
				0.00041774114372753845,
				-0.0005153719142879667,
				0.0006530171854957063,
				-0.0005693061811478765,
				0.00016108476681214452,
				-8.866776908178498e-05,
				0.00020868884305044353,
				0.000286467834984098,
				6.359696197475611e-05,
				0.0003390522716606346,
				0.00016851521997050985,
				0.0002478368288655066,
				0.0005568088760406361,
				-0.0006265601422740762,
				0.0009039146898853199,
				0.0008507561372460156,
				9.139784410827027e-05,
				0.0003042665027230165,
				0.0002969483642349931,
				-0.0009011175346507261
			],
			[
				0.0009474835095150673,
				0.00037277773059910956,
				0.0005772228166815217,
				0.000827410472296409,
				-0.0007812459960168341,
				-0.0008869070251455111,
				-0.0006262964823596298,
				0.00022789231256432375,
				-0.000988026572260258,
				0.00020846155640246908,
				-0.0009151517687813935,
				0.000278432376995721,
				0.000324527540579464,
				0.0005419394938729223,
				5.782223658572184e-05,
				0.0007651178759863458,
				4.976729711204681e-05,
				-0.0003566057222179204,
				0.00044862147424346846,
				-0.000749671093669312
			],
			[
				-0.0003845844809036279,
				0.0006598695155837447,
				0.0002857574148909124,
				0.0005450636737182482,
				0.0006738746901197034,
				-0.00020597143268839238,
				0.0007217867547261668,
				-0.0004562346636390229,
				-0.0006203962879921465,
				-0.0007292229888480584,
				0.0006688068508034358,
				0.00023037118515112321,
				-0.0009231727329109652,
				-0.00030038505625221807,
				-0.0008753446609930469,
				-0.00011216217155189906,
				-0.0005818995397695488,
				-0.0009340557469716278,
				-0.000583586068392519,
				-0.0005852014000691768
			],
			[
				0.00016122835659163992,
				-0.0006309161117014894,
				-0.000991721060843655,
				0.0002995972750865826,
				0.0006884845183078787,
				-0.000623544418872013,
				0.00010503056047737316,
				-0.0009002650768689158,
				0.000372798422312572,
				0.00039068878750752765,
				-0.0008571573733023481,
				0.0009215451542762046,
				0.0004416980788178387,
				-0.0003957581451641554,
				-0.00016173762638422337,
				-2.516416460237637e-05,
				0.0008793094532649742,
				0.00044919949706983815,
				-0.0001411450677572232,
				0.0005922838156179806
			],
			[
				0.00047121763665318363,
				0.0006526813891150564,
				-0.0007802183514328805,
				-0.0007845111727058965,
				-0.00037627864106565224,
				0.00021909376043278473,
				0.0009402717519545211,
				0.00030506746841825623,
				0.00033089655585972545,
				0.0004187190241863015,
				-0.0008040924798799503,
				-0.0008379063884857516,
				0.0007764549960899685,
				2.406121987714614e-05,
				-0.0006680404459019616,
				-0.0009163048094474879,
				0.00011945486994966847,
				0.0002801323911105259,
				-3.2207045926326786e-05,
				-0.0005818055224972236
			],
			[
				-1.3917580330095837e-05,
				0.000872180052039837,
				-0.0009817010322069226,
				-0.0008091594626492068,
				-0.0008008822915902469,
				0.000552491347985894,
				-0.000575815357222443,
				-0.0005968098332669708,
				2.95559297125009e-05,
				-0.0008040096021928237,
				-0.0004090916366280311,
				0.000244959796608261,
				0.0003732710367070455,
				-0.0009488593486262436,
				-0.0005529510300354707,
				0.000292570770023507,
				0.0008094416975884084,
				-0.0007548376916715087,
				-0.0004575906661004654,
				0.0003877018543031938
			],
			[
				-0.0009566047783146332,
				-0.00045356456735631736,
				-0.00013523854532445886,
				0.0006587389868418464,
				0.0005739446452243148,
				-0.0009346513833799248,
				-0.0002934115512470459,
				0.0008658662370172232,
				-0.0009940949070456912,
				0.00020685138811413336,
				-0.0008329461392889415,
				0.00023510694490396248,
				0.0008855210248041407,
				-3.384299742767861e-05,
				-0.00042639366376851396,
				0.0007606079901242328,
				-0.0003773511883121872,
				0.0002499241875081905,
				0.000913471343301809,
				-0.0009168506241141321
			],
			[
				0.0007058952007100905,
				0.0006012461545051194,
				-0.0008341870270480727,
				-0.0001840039119290868,
				-0.0005830242728356634,
				-0.0006766332552071051,
				0.0003407652805407907,
				-0.0003342446401831165,
				-0.000664342791265438,
				0.00045883811102659746,
				-0.0004704121783932713,
				-0.00043572765374156816,
				0.0004547065015682906,
				0.0003881053522601218,
				-0.0006127000988048228,
				-0.0002525539740379619,
				-0.0005339104781901041,
				0.0006874621503231207,
				5.481246585638819e-05,
				-0.0005970758799926961
			],
			[
				7.927897717370166e-05,
				-0.0008857468855076234,
				-0.00021505469815796417,
				-0.0005816911382213914,
				-0.0008121222121866168,
				-0.00027493576700615317,
				-0.0006324455126965885,
				2.1955140835899084e-06,
				0.0009116277615509717,
				0.0008245539342026616,
				-0.000508616628202135,
				-0.0005456345701769354,
				-0.0007085794134709289,
				0.0004378092168462579,
				-0.0005354563535167529,
				-0.0003719212247619959,
				0.00013473810580999827,
				0.00012165289128291128,
				0.0003645640303212127,
				0.0005725665249634183
			],
			[
				-0.00033540193490463313,
				0.00041060876467815676,
				-0.00024529211582232247,
				-0.0001723613230653838,
				0.0008031319327523887,
				-0.00035087866847160543,
				0.0004192207370901544,
				0.0007485267421660543,
				-0.0009546741891549622,
				-0.0009376967546901518,
				-0.0006398638679434476,
				0.00048160743109757127,
				-0.0003513674178552322,
				0.0007201368421714898,
				-6.108871190427419e-06,
				0.0005457409086840315,
				-0.00042633126235682405,
				4.407522728445208e-05,
				0.0009428567745317087,
				0.0005395978392595277
			]
		],
		[
			[
				-0.0009931261021736,
				-0.0007943181189248707,
				0.0006793690344462095,
				-0.00013553455749678385,
				-0.0007527206127621453,
				0.00014009181623051412,
				0.0002402680058504437,
				0.0004989541887502902,
				0.0006048866721670427,
				0.0004979202980914879,
				0.0008930657926833553,
				0.0007538354457001042,
				0.0005318054364055408,
				-0.0006634217800723463,
				-0.00010694447072577497,
				0.0009482280583662708,
				-0.0009602110879785557,
				0.0003846527383402588,
				-0.00034347726191947907,
				-0.00026021411006116053
			],
			[
				-3.618823421224014e-05,
				-0.0009736413957000201,
				-2.269139908041588e-05,
				-0.0009454616816129449,
				6.015824502587225e-05,
				-0.00023156175093383565,
				0.0007669605358426692,
				-0.000909194215951164,
				6.47562005786969e-05,
				0.0002692410212045977,
				0.0004973400351448607,
				0.0008112081039008217,
				0.0005904126169477624,
				-0.0003697702943613546,
				0.00020602989892059328,
				-0.0003941576299331393,
				-0.0003894165365371632,
				0.0004673431878445835,
				0.00036675639837120645,
				-0.0001041814347983996
			],
			[
				-7.787190298580438e-05,
				-0.0006809236235227961,
				0.0007091543458198179,
				0.0008430030584159153,
				-0.0006049108280075269,
				0.00038203390958147583,
				0.0005985306947318746,
				0.0008651731727667377,
				0.0005764231155266782,
				-0.0001321185389895807,
				0.0001292137833466243,
				-0.0009049042086613295,
				0.0003175591390257458,
				-0.0003765071808151621,
				0.00010992183638118633,
				-0.0006462730229974312,
				-0.0006529800545514812,
				-5.625634514390019e-05,
				-0.00014648084171464302,
				-7.941411746485412e-05
			],
			[
				0.0009933465947845055,
				-0.0002269138348894368,
				0.0007181188027720669,
				0.0009081435437349396,
				0.0001695224257876164,
				-0.0009963031555963436,
				0.0003360935238861534,
				-5.1500071489679416e-05,
				0.00034822402136171996,
				-0.0006891842618083491,
				-0.0003163820908875896,
				4.159529229076208e-05,
				-0.0004355716476760336,
				-0.00025006575279200077,
				0.0001536785315197403,
				-0.0006001081781690505,
				-0.0009296868433840462,
				-0.00016891859291186793,
				0.0006456641081176307,
				0.0004841659759718213
			],
			[
				-0.00022818375552714374,
				-0.0006697737707352749,
				0.0006977047245745416,
				0.0008837320967707105,
				0.00031283207691728166,
				0.00048176373002523716,
				-0.0003113631181451017,
				-0.00042289612151825853,
				-3.9431500822124585e-07,
				0.0007666036034744141,
				0.0001987107340833674,
				-0.0006861344727493893,
				0.000788806961580259,
				-0.0003992427782803109,
				0.0007150592526608084,
				-0.00031319002972898845,
				-0.0005028165294642147,
				-8.113064445735337e-05,
				-8.19475005249125e-06,
				0.0009522333071136605
			],
			[
				0.0003937915241503554,
				0.0007082143628011036,
				-5.02079958377697e-05,
				0.0008975966810980513,
				5.367947053579224e-05,
				0.0007231734117772257,
				0.0008446459844865771,
				0.0007766594778319186,
				0.00060659378266825,
				0.0004061316789421305,
				0.0002752941133954503,
				0.00043606771704830035,
				0.0002478690309464901,
				0.00017045478787183202,
				-0.0003743548880707564,
				-0.0005338379670812752,
				1.4076386154162051e-05,
				0.00017811926206938748,
				0.0003032830740338228,
				0.0008347488500890449
			],
			[
				0.00021325457014902583,
				0.00025384921634959536,
				-0.0005769540672829201,
				0.00022695135463527989,
				0.00010100203595000078,
				-0.00021125103779698806,
				0.0001290584628931919,
				-0.00015348144599360957,
				-0.00048179223125359113,
				-0.0009988475530541263,
				-0.0005796056341581672,
				0.0009841648932409084,
				0.00010716074556775122,
				0.00022310646892750342,
				0.0008444078235932287,
				0.0009407318631594937,
				0.0006643047540150953,
				-0.0007394672493273624,
				-0.000585280275232996,
				-0.0006466820798533618
			],
			[
				-0.00023567733386653392,
				-0.000778232230800276,
				0.00017623482278326117,
				-0.000757181786292702,
				0.0002114344563518835,
				-0.00010758767597979539,
				-0.0007756117564739993,
				-0.00018559859894126294,
				-0.0004783249164434797,
				0.0006495648468460285,
				-0.0001807227777473212,
				-0.0005977163267299346,
				-0.0007346567054914135,
				-0.0008748557275726095,
				-0.0006671880394795609,
				-0.00017369281090615573,
				0.0004507961282382961,
				2.8458795544130874e-05,
				0.00037140957803367155,
				0.0006051451528163237
			],
			[
				-0.0005980238274188043,
				-0.0005871519162300271,
				-0.0005427435158540559,
				0.00015181313444715132,
				6.193635203802792e-05,
				0.0004858511922193412,
				0.0008860894762913419,
				7.61017913209136e-05,
				0.0007425438465403487,
				-0.0006036115684896055,
				-0.00080266036672324,
				-0.0003091353753809725,
				0.00014399764319962993,
				0.0005899886341254091,
				0.0009086194346361318,
				0.0007572381172814529,
				-0.0008018613056156847,
				-0.00045036834107803965,
				0.0009187652254961467,
				-0.00033842172192980553
			],
			[
				-0.00032409918656279755,
				-0.00010022974614724725,
				-0.0003198313962803587,
				0.0008548840125892215,
				-0.00073328524175258,
				0.0005450577140090763,
				0.0004908452621257924,
				-0.0001734941728680164,
				-0.000252945148964473,
				-0.0009345077537543691,
				0.00029723336253813714,
				0.0003111530929085216,
				-0.00016249253488642527,
				0.0007827684543624859,
				-0.00038611753097340083,
				-0.00034751498010637176,
				-0.00035151838524624624,
				-0.000657494931736791,
				0.0005854559878445016,
				-0.0008694071900404556
			],
			[
				0.0009047123854667184,
				0.0005631993594180558,
				0.0008023383977934936,
				-0.0002842919201835552,
				-0.00044272535024359816,
				-0.00041191640901480447,
				0.0006841030386157785,
				-0.0003085208968784225,
				0.0003739543524426026,
				-0.0004220383090900537,
				-7.466617625536559e-05,
				-0.0008811658995428564,
				-0.00024998275470817144,
				0.000385315531213123,
				-3.838966170286828e-05,
				-0.0008602909164986337,
				-0.0003129090623300403,
				-0.0003092748744681897,
				-0.0002247278986047094,
				-0.0007462914745118798
			],
			[
				-0.0006195240656240602,
				1.639392099040001e-05,
				0.0009872539586132925,
				-0.0008110268974386415,
				0.00033394676290833254,
				0.0005449471907845328,
				-0.00015336607793561764,
				0.0005678464838838131,
				0.0006738853553841398,
				0.0007030828659547344,
				0.000900988288543304,
				-0.00027439426150688154,
				0.0007396806843950399,
				5.7634225964655825e-05,
				7.125653061438426e-05,
				-0.0009652142589945458,
				-4.884869175438467e-05,
				-0.0006803713619836867,
				-0.00046732455379728437,
				-0.0007724587839744426
			],
			[
				-0.00032788811228298556,
				0.0003445630450188983,
				0.0008127557139574401,
				-6.7562940124776816e-06,
				5.273201393706049e-06,
				-0.0007308096472715307,
				0.00021053045122855084,
				0.0006031908436125526,
				-0.0006752243516636991,
				-0.0004494619058565874,
				-0.00010832654568790345,
				0.00022858694126337673,
				-0.00023994245223885665,
				0.000890632788587879,
				0.00025510629280993554,
				0.0005949115511940755,
				0.0007469293875455724,
				0.0006804952934635219,
				-0.000821340134297361,
				0.0004957810043033045
			],
			[
				-0.0009937777923377069,
				0.0008841615843967875,
				-0.00038250293169922705,
				-0.0005835614158465089,
				-0.0006047552179931168,
				-0.000562753724437429,
				3.187835066519604e-05,
				-0.0001906670849654424,
				-0.00013375878366360297,
				-0.00069500004506673,
				0.00015922387502919928,
				-0.0002608056518754471,
				0.0005112200913709377,
				0.00025220355029655626,
				0.00036765287927988436,
				0.000726002011197048,
				0.000686948937046606,
				0.0008239524579508474,
				-0.000751782673334554,
				-0.00012208570592240231
			],
			[
				-0.00042585706960210823,
				0.0001532034614154928,
				0.00045207602356697003,
				0.000522033676620519,
				0.00012078400391399486,
				0.0009915132282466012,
				-0.0009520122391476207,
				-0.00015182462603632895,
				-0.0007417733022719397,
				0.00026640304430291823,
				0.0009672623706890576,
				-0.0009200420609705331,
				-0.0005812802249611593,
				-0.000486710661968943,
				0.00011108484573035815,
				-0.00047379854266168175,
				-0.00023308870168017263,
				7.89172315108892e-05,
				0.000741757610765881,
				-0.00039527759825112114
			],
			[
				4.434417816158833e-05,
				0.0009653925764322069,
				-0.0009166050552224086,
				8.991384253633611e-05,
				0.0007807875757431964,
				0.0007851113182806267,
				-4.919611736655652e-05,
				-4.5245584811354905e-05,
				0.00047059036048263084,
				0.0005778145510347524,
				-2.6780906306142233e-06,
				3.0305331645747108e-05,
				0.0006327984204779833,
				0.0009721871368994894,
				-0.000760966298404642,
				-0.0003701748956790201,
				-3.478256141039779e-05,
				-0.00020395041778964473,
				-0.0001781913877206598,
				-0.00040951076127612176
			],
			[
				-0.00047290698224879927,
				-5.044970148732086e-05,
				0.000177160919947635,
				-0.0002986665501545422,
				0.0001316750414565547,
				-0.0005623632513576783,
				0.0008709268652317629,
				0.0009362743317506135,
				0.0004943019148428574,
				-0.0006269656981465288,
				-0.0005414783645699468,
				-0.0007140414749217915,
				-0.0004292587767318394,
				0.00012987644848660475,
				-0.0006935184121287317,
				-0.0008333834315371964,
				9.079930894241779e-05,
				-0.0003673157318299405,
				0.000551206731807288,
				0.0009017920326587871
			],
			[
				-0.000194517428305812,
				-0.0007815262005461119,
				0.0007528884391152242,
				-0.0002025504380253493,
				9.242818669446813e-05,
				0.00022073519845359048,
				-0.00019354147813354543,
				-0.0009521449548267168,
				0.00036242440910038017,
				-0.0001214542334697764,
				0.0003615070718058957,
				8.80252196999692e-05,
				0.0006159545197105085,
				5.785314672327661e-05,
				-0.000714294204872357,
				0.000806223455101063,
				-0.0006985549861145532,
				0.0002436937888415662,
				-0.0001320351488342384,
				-0.0009214810456340079
			],
			[
				0.0003721401075422305,
				0.0002857509728459123,
				0.0007140210723437467,
				-0.0003984015710409123,
				0.0009674225033253444,
				0.0008171086594410267,
				-0.000745317915167893,
				-0.0003233481535675336,
				0.0002226453786601881,
				-0.00030237299391577203,
				-0.0005273204817922634,
				-0.000513526594348269,
				0.0006001476356202345,
				0.000658149851245545,
				-0.0002766320237589455,
				0.00016745856214864176,
				0.000861060157673188,
				0.000695777570107359,
				0.00011237924112958149,
				0.0005771371220381755
			],
			[
				-0.00025588288728918833,
				-0.0007688907644760283,
				-0.00017477265197152496,
				0.00039953945571049947,
				-0.00019376756226179915,
				0.00011235485675576405,
				-0.0004598769115028771,
				0.0007788739005419778,
				-0.0008905843316006382,
				3.843087345039263e-05,
				-0.00012165735090768838,
				-0.000906580343650258,
				-0.0007750312426248685,
				0.00047255592067695627,
				-0.0006440378033000642,
				0.0005960495613301852,
				-0.0007503528184266148,
				5.254400641310558e-05,
				-0.00020891587090262047,
				0.00025916825369941754
			]
		],
		[
			[
				0.0008424716996055096,
				-0.0009126920122262072
			],
			[
				-0.0008375401857485283,
				4.8616353976117105e-05
			],
			[
				-0.0005793003315449966,
				-0.0007206084360324099
			],
			[
				0.0005178028732609431,
				0.0002223080574445921
			],
			[
				0.00023913916799078077,
				6.857219692234977e-06
			],
			[
				7.588303470773051e-05,
				0.0009061351546354667
			],
			[
				0.0002042559985164906,
				-0.0008656531730308464
			],
			[
				0.00022907844779973237,
				0.0008301599635252227
			],
			[
				-0.0007165931659613743,
				0.0001084370118378693
			],
			[
				6.376798492388502e-05,
				-0.0006923072858527825
			],
			[
				0.00010661086880651744,
				0.000737537835404744
			],
			[
				0.0009827561816539167,
				0.00015416739627600938
			],
			[
				0.0008865092132363205,
				-0.0009182990891618798
			],
			[
				0.0007277458801515739,
				0.00014638475769668865
			],
			[
				0.000843516384090341,
				-0.0009677469304741628
			],
			[
				-0.000885899444635482,
				-0.0003575969503890544
			],
			[
				0.00046433748005640955,
				-0.00078539883574126
			],
			[
				-0.000774928350058892,
				0.0006001802640295494
			],
			[
				9.556291500434897e-05,
				-0.000840162613473231
			],
			[
				0.0005307000015479942,
				0.00021573694849793081
			]
		]
	]
}