{
	"model_params": {
		"input_dim": 10,
		"units_per_layer": [
			20,
			20,
			2
		],
		"acts": [
			"leaky_relu",
			"leaky_relu",
			"identity"
		],
		"init_type": "uniform",
		"batch_size": 200,
		"decay_rate": 0.95,
		"decay_steps": 500,
		"epochs": 800,
		"lambd": 1e-05,
		"limit_step": null,
		"limits": [
			-0.001,
			0.001
		],
		"loss": "squared",
		"lr": 0.005,
		"lr_decay": "exponential",
		"metr": "euclidean",
		"momentum": 0.6,
		"reg_type": "l2",
		"staircase": true
	},
	"train_params": [],
	"weights": [
		[
			[
				0.0005432312005258372,
				-0.0006912505063701109,
				0.0004160134375134699,
				0.0005558359722928805,
				-0.0006175225822416409,
				0.0006739978364952285,
				0.0005813130405953812,
				0.0008944399735854925,
				0.0001964215476305375,
				-1.9278334989837696e-05,
				-0.0008966616044672831,
				-0.000778817990677952,
				0.0007138509137093927,
				2.443425163424582e-05,
				-0.0006804470868095492,
				-0.0005670154223131588,
				0.0005334638179802054,
				-0.0009080190166590647,
				-0.0006683259344764359,
				-0.0002432904088853085
			],
			[
				-0.000749256133738952,
				0.0003004561121800304,
				0.00016731234805656857,
				0.0009366576715328187,
				0.000570455271025211,
				-0.00010658943231320155,
				-0.0009537393608757823,
				-0.0003533133534619788,
				-0.0008303021344119983,
				0.0008916587981787529,
				0.00022473674112751755,
				0.0002377048212791862,
				-5.206094112978211e-05,
				-0.0002197383069389269,
				0.0006682026901054579,
				-0.00021942346214767056,
				0.0009241210453523568,
				0.0009395397265308063,
				0.0007994302626617694,
				-0.0006309040071999137
			],
			[
				0.00013625311232644223,
				0.0008224393327759753,
				-0.0001869341327918623,
				0.0005435162898377289,
				0.0006717782199608488,
				8.545479443851822e-05,
				0.0009951483491658013,
				-3.387091125379917e-05,
				-0.0006297792765863379,
				0.0008082260902212194,
				-0.0008432496433782746,
				-1.8538450108059566e-05,
				9.122913141306442e-05,
				0.000863739233924479,
				-0.00019466917719952552,
				-0.000873765079748189,
				-0.00010029979337989236,
				-0.00040565799837060724,
				-0.00015100538799083928,
				-8.575122238065687e-05
			],
			[
				7.056324522328335e-05,
				0.0003556109283087093,
				0.00019989575737111576,
				0.0006543727078020185,
				-0.0003419880488538787,
				2.7685051977541144e-05,
				-0.0001377911970535246,
				0.0004535919113277788,
				-0.00043145589460712674,
				0.0006103394841862305,
				0.0003006630608638212,
				-0.00016454909890698064,
				0.0008067101048186251,
				-0.0008383207793540502,
				-0.0007704504946146198,
				0.0008176540345539213,
				-0.00022594807738347898,
				-0.0004898370873973239,
				-0.00012053040061218371,
				0.00037347459498368075
			],
			[
				-0.0006312926118070397,
				-0.0007584426001791189,
				-0.0008862085822909638,
				0.0005137718407111842,
				-5.140559084595726e-07,
				0.0008461464130546607,
				-0.00021181313426181438,
				-0.0004851627992253591,
				0.0001608222745499209,
				-0.0008639942282311251,
				0.0006237760709784583,
				0.000682975514059188,
				0.0004867660859570939,
				-0.00095944961034555,
				-0.000800457992515111,
				-0.0007026196459193118,
				-0.0008385240490249075,
				0.000504901101638732,
				0.0006091890681244902,
				0.00021189119721386597
			],
			[
				0.0007552938526841824,
				0.0007818896816465058,
				1.049223695562436e-06,
				-0.0006433737819730131,
				0.0008980360072059392,
				0.0009814675242651155,
				-0.0009848289373817361,
				-0.00026787755457676886,
				-0.0007656284978774448,
				-0.00026641609296844317,
				-0.0008755986841473531,
				0.00039539133691947966,
				-0.0005858120444524886,
				-0.00015163915775309158,
				-0.0009873928479583922,
				0.0005026627002938063,
				0.00022586139860915474,
				0.00048219169503482774,
				-0.00025457367427238675,
				0.0006614473887002078
			],
			[
				0.000485691816533196,
				0.00046602376748072294,
				-4.958739430846199e-06,
				-0.0003750410104594726,
				0.0009811992689827175,
				-0.0006615712743000793,
				-0.0008598436728363035,
				-0.0006849948818002936,
				-0.000555884482625465,
				-0.0007315551160746115,
				0.0004205472971491977,
				-0.000722773600660029,
				0.00018654632493372543,
				-0.000539626187385546,
				0.00028727151987838965,
				-0.0007957535521090637,
				-0.0002604201333895964,
				-0.00018243998258070393,
				-0.0002291529756638127,
				0.0009570122745197096
			],
			[
				-0.0009141611189898293,
				0.0003329818715307768,
				0.0005721037091628515,
				-0.00013761944378436165,
				-6.756773748965955e-05,
				-0.00084863858077795,
				-0.00011407659919898693,
				0.0002511215957652173,
				0.0001231978248473313,
				0.0003328831457185893,
				0.0007509119743587106,
				-1.4386047387619566e-05,
				0.0007006975000115189,
				0.000613618915578148,
				-5.0007682995197424e-05,
				0.00012081756685468651,
				0.0009111813619756173,
				-0.000762351602957317,
				-0.0006219038889152766,
				-0.0009527710611853255
			],
			[
				-0.0007154889676565064,
				-0.00030638860805324805,
				-4.3717153482159465e-05,
				-0.0004895664300247309,
				-0.00021519955744030855,
				-0.0006988680606244226,
				-0.00014754211722417933,
				-5.5381253840053974e-05,
				-0.0001910174564247742,
				-0.00026673055128751733,
				0.0009131582233073241,
				-0.00043874253904011256,
				0.0007556116814150409,
				0.0007971250311914293,
				0.0007662360520839533,
				0.0005498881677236606,
				0.00034451285731280684,
				-0.0005757297581228944,
				0.0003707574146509466,
				0.0002278720116301394
			],
			[
				-2.8344337436990268e-05,
				0.0005615631249844876,
				0.00011674338858645456,
				2.7126844751868646e-05,
				-0.0009428102833660492,
				-0.0002664712220139694,
				-0.0007670415298116967,
				-8.971108117363771e-05,
				-6.59518368910124e-05,
				0.00011645407313192542,
				0.00013230712009214382,
				-0.0002408003150640623,
				-0.0007152174609555746,
				-0.0005057028271365333,
				0.000703808559505301,
				0.0008298170093605521,
				0.00010673805676216603,
				-0.0008694349513626978,
				-0.0002094253029774946,
				0.00033148737452681504
			]
		],
		[
			[
				-0.00022559255907901447,
				0.00027965581885366106,
				0.0008588786659165279,
				-0.0004479009502974976,
				0.0007352939407197158,
				-0.00030861158550308404,
				0.0004965077703951543,
				0.0006569346777007558,
				-0.0004361075771012326,
				0.00031039198745992733,
				0.0005260714763631613,
				0.0004526541982707692,
				-1.6083093026348413e-05,
				0.00019492197666545036,
				0.0009539857279419559,
				0.0003320068459295772,
				-0.00048585080252824375,
				0.00011785574895476826,
				-0.0002728019238800179,
				0.000747701311677133
			],
			[
				-0.00025130257567444075,
				0.00016319926095206502,
				0.00038818172076004,
				0.0007187356907371125,
				0.0008005355178190346,
				-8.238435602752703e-05,
				0.0009851895226205428,
				-0.0008311619045153196,
				-0.00024310535121618913,
				7.901955771717588e-05,
				-0.0007929419382907927,
				0.0001639294147047837,
				-0.0008571784701331455,
				-7.271586768670612e-05,
				0.0005188672500677873,
				-0.00026558859855597646,
				-0.0003948787381000138,
				-0.0009682465269025061,
				-0.00014423323425994837,
				-0.0009470920647755952
			],
			[
				0.0002309022280081992,
				0.00029449027224777284,
				-0.0005571854163765801,
				0.0008728790577103884,
				0.0008107871413914275,
				0.0008770806148529428,
				0.0007815038720572676,
				-2.7323321740042156e-05,
				0.000668276163050148,
				-0.0009801907024334685,
				7.069051378716384e-05,
				-0.0009066224916933082,
				0.0006615593476557711,
				0.0004776652249734116,
				-0.0009377902491008927,
				-0.0008167688332346914,
				0.0003184525227610895,
				0.0007555172805026398,
				-0.0004257489768871714,
				0.000961241723238269
			],
			[
				0.0009362650020087993,
				0.0006209659702014192,
				-0.0002812362505748955,
				1.6349925940421046e-05,
				0.0007826075973607093,
				-0.00025762408291140227,
				-0.0003975624892379885,
				-0.0008321956006508731,
				0.0009418611797506946,
				-0.0006249315481123328,
				0.0002828955945251633,
				0.000639680501004769,
				-0.0006132607713384207,
				-9.067687643293245e-05,
				-6.067323144120021e-05,
				-0.00018361050661630691,
				-0.0002792380362061489,
				-0.0007785165367049982,
				0.00015228405542860196,
				-0.00022995691284568068
			],
			[
				0.000718770297243587,
				0.000682536123681219,
				0.00039748985423881163,
				-0.00028406190872326455,
				0.00010714907091216911,
				-0.0002823949074034455,
				0.0006538051230216601,
				-0.0005756323892174625,
				-0.00013253344484861704,
				-0.00019646292281915497,
				0.000257336350463655,
				-0.00035346038512125834,
				0.0006072877528527443,
				-0.0009762415634602295,
				0.0007228144592698431,
				0.0005440063490679539,
				0.00038876098330177153,
				0.00045237177405646196,
				-0.00034677271086045965,
				-0.0005673994614460358
			],
			[
				0.0006290936480883432,
				-0.000991272722892725,
				0.0009706991927723565,
				-0.00038581065659623387,
				0.0005666717246297854,
				0.0005968459512260653,
				-0.0001855996893838157,
				0.00032827383570829707,
				0.0007938698226279961,
				-0.0004480859192024536,
				-0.00027844144602608937,
				0.0001686697960576369,
				0.0008006310389096301,
				0.0004301051008134863,
				0.0008195185272660479,
				-0.0006963126725348953,
				-0.0002541868471338995,
				-0.00027282052876659595,
				-0.0008954199195929907,
				-0.00021429025826967746
			],
			[
				0.0006001404462445642,
				0.0007158766613452364,
				-0.00032859171811967466,
				-0.00012631994454065398,
				0.000909750464011055,
				-0.0004849788874247312,
				0.0008212039892607813,
				0.00018499845327050188,
				-0.000710468123322158,
				-0.00023378188112257938,
				-0.0008821824404788659,
				-0.0005331367882815783,
				-0.0003398398000588205,
				-0.000828100406499968,
				0.0004391394766495194,
				0.0009560685603914642,
				0.0002074445859629034,
				-0.0006239976125113217,
				-0.00017601993930013227,
				0.0009822461041020616
			],
			[
				0.0006684344432186593,
				-0.0002693338762942368,
				-0.00021098335614744702,
				0.0003381246146113323,
				-0.000495562395274429,
				-0.00043342762124102044,
				0.0009560144105192382,
				0.000990660461996782,
				0.0005123528619064897,
				0.0006860410210040566,
				0.00048543220350733495,
				-0.0008978790746613106,
				0.00031918137772358134,
				0.00020888045077131962,
				-0.0007099532908684432,
				-0.0006256412424523403,
				0.0009644165123919254,
				0.00022650488328037352,
				-0.00014578626376926616,
				-0.000714780905822352
			],
			[
				-0.00036450523831015947,
				0.0009962028310529871,
				-0.0007713947304573529,
				-0.0007088928958129992,
				-0.00027264029611572796,
				0.0006361652409733458,
				0.0009154250475444184,
				-0.00037213006826354513,
				-0.0009237103198319328,
				-0.00019771391571672182,
				-0.0007613538999226413,
				-0.000530996285572875,
				0.00036257286301633247,
				-0.0006168338883010198,
				-0.0009877826835028294,
				-5.975973651474952e-05,
				0.0007677857672379416,
				-0.0008892107510506244,
				0.0005666273122027676,
				-0.00021505030446056315
			],
			[
				-0.0004654442269269155,
				-0.00028159736840312926,
				0.0008190117060937734,
				-0.0003816014566773656,
				0.000797273166596249,
				-0.00036500589527515117,
				8.405146078032115e-05,
				0.0007800606588277696,
				0.0009552608742132485,
				9.850612202561048e-06,
				0.0005693678346101695,
				-0.00011463622684926668,
				-0.00029633258117356203,
				0.0002653514519128971,
				-0.00013791350235472686,
				-0.0007370259510429715,
				-0.00023654378969034748,
				0.0006371140089232563,
				-0.0009774311061173412,
				0.00032692530253927883
			],
			[
				-4.5304091744643483e-05,
				-0.000593999700172593,
				-0.000527347675620474,
				0.00023537521663681625,
				-0.0008777430902436793,
				0.00017464332721535045,
				0.00018350471714234044,
				0.0008768435305393947,
				-0.00029976340763372103,
				0.00021861105976954094,
				-0.0009870447025244035,
				0.0006737348727297511,
				0.000680890192912511,
				0.0008268117815268478,
				-0.0008183507915342831,
				-0.0009141739158327386,
				-0.0007886337694468213,
				-0.00017099007451681642,
				0.0007678109371632646,
				0.000594262157713003
			],
			[
				0.0005104902832074158,
				-8.826120356451427e-05,
				0.0009487473570388067,
				-0.0004531835800438759,
				-0.0007835280762730148,
				0.00012824365709370052,
				-0.000373665052566917,
				0.0009632261504185623,
				0.0002802419934064121,
				1.7271973754579267e-05,
				-2.5253330708049633e-05,
				-1.2964381882594632e-05,
				0.0005112884319199305,
				-0.00042072011013618194,
				-0.0006722048801346694,
				-0.00045071460625985727,
				0.000900547065525691,
				-0.00039555562213553093,
				-0.0007735032975036627,
				-0.0004704361802434729
			],
			[
				-0.0007823890629515593,
				-0.00028269035742384393,
				5.891447466589163e-05,
				0.0004031601112488687,
				-0.00012151832564178506,
				0.00030062439044237243,
				-0.0004948143558157709,
				9.415573583750709e-05,
				-0.0008084914365349965,
				0.0009853996514818638,
				0.0006222527191561784,
				-0.000846810812871216,
				-0.0009966874297335363,
				0.0007303441161492263,
				-7.034718809680138e-05,
				0.0003068484350279986,
				-0.0004858699154822033,
				-0.0007023161564795298,
				-0.0009714209176647797,
				0.0003470174386079126
			],
			[
				-0.00013840043548230094,
				0.00027260290624000105,
				-0.00024878568329448594,
				0.0009605148306622473,
				0.00040097282654557925,
				-0.0002598494289965547,
				-0.00014276366551290917,
				-0.00036193010846388837,
				0.00036878211987172063,
				0.0009511589963467429,
				-0.00027878497468765114,
				-0.0007130552062894269,
				0.0005445918937116662,
				-0.0008643821210339535,
				0.0007489318018467628,
				-0.0002150178244222159,
				0.0009527918219077449,
				0.00031657434292805793,
				0.0004698317382465975,
				-0.0007169202964701471
			],
			[
				-0.00048154690765457727,
				-0.0007832869802301787,
				-0.0006378588775958705,
				0.00022749532079892397,
				0.0007042649334503017,
				0.0009705601965170432,
				9.74271972703604e-05,
				-0.0007285339298521783,
				0.0008456467013608043,
				4.353945920365643e-05,
				0.0008249392571597453,
				-0.00011558719477666019,
				0.0005278801336961699,
				0.0008469325400157397,
				-0.000693759298901701,
				-0.00029475954772745694,
				0.00043918198206237204,
				0.0006488736913289816,
				0.00044244442571113297,
				-0.0002613141807495951
			],
			[
				0.0008088175269063199,
				-0.00046508402170307623,
				0.000114091621093583,
				0.0004755536037606696,
				0.0007429697792984778,
				-0.0007155667301772535,
				-0.0006931154936790491,
				-0.0007598136222919804,
				0.00030562642710957777,
				-0.0009050898622116883,
				-0.0009721224496679483,
				0.0002267003177247901,
				-0.0005963996467669839,
				-0.00023623205382391642,
				-0.0003948896114618636,
				-0.0007462538109433097,
				-0.0006097298159853754,
				-0.00033865849263499804,
				-0.0007307541762080752,
				-0.0006674580975941184
			],
			[
				-0.00026298746326543167,
				-0.00020838742003548782,
				-0.0004566431828555433,
				0.0002885964620631806,
				-0.0009339672879510846,
				-0.00021877498614335386,
				0.000639211290691763,
				3.5485589560376894e-05,
				1.3505789192175396e-05,
				-0.0009153640788648179,
				-0.0006000213081082954,
				0.0003723163878051408,
				-9.85165889304696e-05,
				-0.0005092833345605594,
				0.0008485439438783171,
				0.00020498449852763222,
				0.00017892418988960752,
				0.0007813903277586976,
				0.0009599566091349028,
				0.00012726693266372643
			],
			[
				0.0007654764286125252,
				-0.0006862918217130625,
				0.0006182157406358845,
				0.0003820770928057446,
				0.0009204266536068373,
				-0.0009003764892692437,
				-0.0006970288126437265,
				0.0002927424994507641,
				-0.00043898529454399957,
				-0.0004889549019114561,
				0.0004323413767773185,
				1.578364839922744e-05,
				-0.0006721679871016922,
				0.0009572866664511559,
				0.0008764913662517397,
				-0.0004952808425706419,
				-0.000527279376333482,
				-0.00020369295078331026,
				0.0004868047632984188,
				-1.8007383794741002e-05
			],
			[
				0.0007712896219015364,
				-0.0008677250125872134,
				-0.00031959731793562555,
				0.0008464355641107741,
				-0.00025566552819029996,
				0.0002018600936957045,
				0.000491909877057291,
				0.00046760358903179277,
				0.0009932661388110061,
				0.0006746430542820181,
				-0.00017894367243285103,
				-0.00017870588767321372,
				-0.00031177324763292935,
				0.0003014136193735305,
				0.0007622604399650219,
				-0.0007566892829537685,
				-0.0009512344679718749,
				-0.0007496712771310063,
				-0.0004010806492926707,
				0.0004964810828979485
			],
			[
				-0.0008890519627212605,
				-0.0005869311085937714,
				-0.0009618412242197803,
				-0.0004059420900544377,
				-0.0007262165141200796,
				-0.0009271166931671913,
				0.000882917039486103,
				0.00037696186708629327,
				0.0006741859634666239,
				0.0006090357539727052,
				-2.7402011159518343e-05,
				0.0005691501905285541,
				0.0008919628222556022,
				-0.0007772534325288569,
				-0.0009167824017901724,
				0.00025780902463628966,
				0.00034956000953006994,
				0.0008629184160239029,
				0.0006670415324732677,
				0.0003387358364082757
			]
		],
		[
			[
				0.00017946204663589482,
				0.00021327761926069285
			],
			[
				0.0001464001856745791,
				0.0006681314093393217
			],
			[
				-0.0005288847707681107,
				-0.000797033655627182
			],
			[
				-0.0004178758394577049,
				-0.0005332564468347456
			],
			[
				-0.0008117648788415401,
				0.0004890555439581532
			],
			[
				0.0006876964037794378,
				-0.0006307772957080773
			],
			[
				7.700457299702297e-05,
				-0.0009406665247692474
			],
			[
				0.00041176236399293755,
				-0.0005478742577939977
			],
			[
				-0.0006344784433703447,
				-0.0004968362228877397
			],
			[
				0.000948220406842409,
				0.0002441655232295907
			],
			[
				0.0003836839882101629,
				-0.0005213784071531641
			],
			[
				-0.00010190905080242115,
				0.0009805463875494358
			],
			[
				0.0008094455831994835,
				-0.0009503786645245556
			],
			[
				-0.000245864374504426,
				-0.00016373655704879917
			],
			[
				-7.351522182685085e-05,
				0.0007663732651781786
			],
			[
				0.00021938189862395698,
				0.0009303118554759638
			],
			[
				0.00042471144681540014,
				0.00032293194768406646
			],
			[
				0.0008861696783834313,
				0.000893484366774701
			],
			[
				-0.00014199503497550547,
				-0.0008251116680688139
			],
			[
				-0.000668353176967476,
				-0.00012989713628534425
			]
		]
	]
}