{
	"model_params": {
		"input_dim": 10,
		"units_per_layer": [
			20,
			2
		],
		"acts": [
			"tanh",
			"identity"
		],
		"init_type": "uniform",
		"batch_size": 16,
		"decay_rate": 0.95,
		"decay_steps": 500,
		"epochs": 700,
		"lambd": 0,
		"limit_step": 500,
		"limits": [
			-0.001,
			0.001
		],
		"loss": "squared",
		"lr": 0.0021435193860245855,
		"lr_decay": null,
		"metr": "euclidean",
		"momentum": 0.6,
		"reg_type": "l2",
		"staircase": false
	},
	"train_params": [],
	"weights": [
		[
			[
				-0.00010829771012644304,
				0.0009502659864022551,
				0.0003760957466558588,
				-0.0009717157481693808,
				0.000570166841004336,
				0.0006368098876263987,
				-0.0004408991838946284,
				-0.00039849614103715876,
				-0.0006110184214478243,
				0.0006305673943732689,
				-0.0008770972653042761,
				-0.0006972514230361751,
				-2.5767852214197973e-05,
				0.0009786990403487356,
				0.0002836075671026207,
				-0.00012475980224114537,
				-0.00011150101141052234,
				9.676245241524418e-05,
				0.0007028992402563618,
				-0.00016640050694187902
			],
			[
				0.00010693836009568157,
				0.0009761101566080703,
				-0.00036296533054564037,
				0.0009585268317642412,
				0.0004504138490585936,
				0.00016723241244785561,
				-0.0005188562253477902,
				-0.0005028579722312416,
				0.0009124617838720572,
				0.00071185424543929,
				-0.0004233847109826181,
				-0.0008959106159510681,
				-0.0007302322610348497,
				-0.0005966272188088085,
				0.00028339678944832333,
				0.000967726415942673,
				0.0008886388514968708,
				-0.0006462226808988281,
				-0.0002135925592107095,
				0.0006264147368220205
			],
			[
				0.00020256739161593137,
				-5.277794835886014e-05,
				-0.0003930199672219145,
				-0.000418673592859824,
				0.0004094861617005691,
				0.000532695514110699,
				-0.0007656657702811085,
				-0.0007238830189619941,
				-0.000879199675972993,
				-0.0008640084907330266,
				-0.00025261024723597617,
				-0.0009488122054413845,
				0.00038943415111497527,
				0.0002247827899319113,
				0.0009342966457336417,
				-0.0003951379779999207,
				9.967830335558822e-06,
				-4.7436727820407984e-05,
				-9.528347455451747e-06,
				0.00025321550620272535
			],
			[
				-0.00018600940442981993,
				-0.0009668974023553485,
				0.00014828297262121427,
				0.0008018366472824362,
				-0.00042520315024376716,
				0.0001534696572713138,
				-0.0007341588776863621,
				-0.00021842245004170737,
				-4.863998031070897e-05,
				-0.00043714878411352937,
				-0.00010566223987736436,
				-0.00043955124940901194,
				-0.00043048802266120996,
				0.0006290183205549158,
				-0.0003056841435711635,
				0.0003159782505744034,
				0.0006098004404627496,
				-0.0007681644921152899,
				0.0001145031379445739,
				0.00013277040494164656
			],
			[
				-6.16641985798905e-05,
				-0.0003106670614484888,
				0.0001322906636928914,
				0.00014517132328295177,
				0.0004392554172010124,
				-0.0005228455172722345,
				-2.8608884606034645e-05,
				-0.00048463673965768676,
				-0.0006333869475346574,
				0.0002720269548619793,
				0.00011550557029600499,
				-0.0006215192999690796,
				0.0008263195556450506,
				-0.0004247766758091494,
				-0.0009512284283809136,
				-0.000672133176455093,
				-0.000460598574785877,
				-0.00014027343359286528,
				-0.00023606717667111086,
				-0.0002450975658261261
			],
			[
				-0.00045391590414941695,
				-0.0005979294543818756,
				-0.0002481720168772011,
				-0.0006549110815058368,
				0.00013951970038450154,
				-0.000354641608639435,
				-0.0006452550122827119,
				0.000432651817092206,
				-0.0007622945673441446,
				-1.3147021060140856e-05,
				-0.0008594133582981633,
				0.00014882274763465433,
				0.0006529045910214852,
				-0.0005574281581196884,
				0.00030119514786306183,
				-1.7289658060988273e-05,
				0.0009154122258349699,
				-0.0002260200235892131,
				-0.00030074870634462676,
				0.0007848588469593892
			],
			[
				0.0003967195627799184,
				-0.0004357328204269218,
				0.00044892064421051176,
				0.0007364418880856476,
				-0.00014352317641631808,
				-0.0004857529880992337,
				-0.0008755394115123483,
				0.0005792712910059874,
				-0.0007334937072399276,
				-0.000439141897434798,
				-0.0006529267814484234,
				8.355356264515734e-05,
				0.0007286119315455318,
				0.00028586102796238685,
				0.00045586499445528987,
				-0.0009762856765052146,
				-0.00012080944161098545,
				-0.00032350176321236117,
				-0.000723597944562415,
				0.0007696785360291234
			],
			[
				0.0001606876764380159,
				0.0003063389655306363,
				0.000991752666863183,
				-0.0006867905714007328,
				-0.0007979020028054838,
				0.00028602533723305515,
				-0.0005688783856419267,
				-0.0007222986064870971,
				0.0002726518848342088,
				-0.0002848861726221459,
				0.00040724171648952464,
				0.0009525515750981716,
				-0.00012735314360506986,
				0.0006699147149435668,
				0.00021624606791731957,
				-0.0003313728366236906,
				0.0008380601280874259,
				0.0001666820278540019,
				-0.0008185462504691847,
				0.0008567046682609091
			],
			[
				0.0009238651665772885,
				-0.0005233137127523106,
				0.00015621308111404635,
				0.00054441541326521,
				-0.000937948300936008,
				-0.00045222054868939397,
				-0.0006016399986850261,
				-0.00012770312319909346,
				-5.126639560787936e-05,
				-0.00024321553363535148,
				0.0002997114347757946,
				-0.0008307920959533235,
				0.0007692710318432598,
				-0.0001791588992802051,
				-0.0005355964602621093,
				0.0005162121999990892,
				-6.8154004885453e-05,
				-0.00025424312810108684,
				9.362428749057111e-05,
				0.00028999450386454385
			],
			[
				0.0005857588844121453,
				0.0002178243983814354,
				0.0003022076494789141,
				-0.00019937758018257368,
				0.0005098497928062373,
				5.371516527356173e-05,
				0.00040498942511845316,
				-0.000835390171575988,
				-1.6735317340613566e-05,
				0.000666047059812846,
				-0.00032018589998212437,
				-0.0004516558144742269,
				0.0008267382996326662,
				-0.000970153440000099,
				-3.4264943254366646e-05,
				0.0005847028148924644,
				0.000639215652956604,
				-0.0007377894126814979,
				0.0009918996688498623,
				0.00038621645311365076
			]
		],
		[
			[
				0.0007394725966919848,
				0.0009625427528653107
			],
			[
				-0.00026205776425029597,
				-0.000949435313990493
			],
			[
				0.0008628429466831435,
				-0.000537204755023315
			],
			[
				-0.0005019158328163718,
				-0.00014155394265931757
			],
			[
				-0.0005046064349896964,
				-0.0009997140065307662
			],
			[
				-0.00038507430092893054,
				0.00015822614122774198
			],
			[
				0.0002401913261660671,
				-0.00020442446150024734
			],
			[
				-4.5552608169158616e-06,
				0.0007163359339264828
			],
			[
				-0.0006763718288377163,
				-0.000488447840517515
			],
			[
				0.00021274881823669673,
				-6.462928998999455e-05
			],
			[
				0.0003363805863900067,
				0.0001128214077941352
			],
			[
				0.0006539648354155192,
				-0.0001485382283161001
			],
			[
				0.000631717280618477,
				5.9788495521560054e-05
			],
			[
				-0.00037873945413310775,
				0.00029113091931281566
			],
			[
				0.00013495221024442477,
				-0.0006525302746846567
			],
			[
				-0.00010126340829434471,
				-0.00040588062890923736
			],
			[
				0.00030492102857452934,
				-8.460660566043552e-06
			],
			[
				0.0007717723463537675,
				0.0002603585300644277
			],
			[
				0.0007286381060470073,
				0.0008550088294466188
			],
			[
				0.0009607042770189153,
				-0.0008865138516124933
			]
		]
	]
}