{
	"model_params": {
		"input_dim": 10,
		"units_per_layer": [
			20,
			20,
			2
		],
		"acts": [
			"leaky_relu",
			"leaky_relu",
			"identity"
		],
		"init_type": "uniform",
		"batch_size": 200,
		"decay_rate": 0.95,
		"decay_steps": 576,
		"epochs": 800,
		"lambd": 1e-05,
		"limit_step": null,
		"limits": [
			-0.001,
			0.001
		],
		"loss": "squared",
		"lr": 0.005655844946607864,
		"lr_decay": "exponential",
		"metr": "euclidean",
		"momentum": 0.7709349296879282,
		"reg_type": "l2",
		"staircase": true
	},
	"train_params": [],
	"weights": [
		[
			[
				-0.0005314205077239949,
				0.0009843518294069373,
				-0.0004014784675043046,
				0.0006250510074926063,
				0.0009024182568561998,
				-3.504871002691723e-05,
				0.0007593901966630135,
				0.000747336053889554,
				0.0004767203326642201,
				0.00043309084863071444,
				-3.64512180999867e-05,
				-0.0009230315438585,
				-0.0003238804397679853,
				0.0005601179927911654,
				-0.0006681384468382283,
				0.0005313463398889742,
				0.0009278956001983001,
				0.0006294799994139015,
				0.0004440432759895464,
				0.0004744352480200969
			],
			[
				0.0008124108358358384,
				0.000680660241413146,
				-0.00022487514462771446,
				-0.000854882309211936,
				0.00043950764553448134,
				-0.0007358149069537299,
				0.0008795697652394499,
				0.0006234564850160886,
				0.0003044946512593316,
				0.000985303105590904,
				0.00022380176093427938,
				7.607621015041964e-05,
				-0.0004720850266646193,
				0.00018812160395064868,
				-5.405438055938077e-05,
				-3.288511166820514e-05,
				0.00014446458867697866,
				0.0009580421945055047,
				-0.0002723445010600538,
				0.0008098416235325832
			],
			[
				-0.0005638306638868205,
				-0.00013504213951109098,
				0.0005694995559873805,
				0.00011413275812370452,
				0.0009336272818714583,
				-0.00025110453708251067,
				0.0005339323131472442,
				-0.0003308943128326946,
				0.0007590017677908012,
				-0.000845049404639624,
				0.00028565433874309216,
				-0.0006025005495366425,
				0.00039543349193439637,
				-0.0009878209899384703,
				0.0005324179405760934,
				0.0003798442401912493,
				0.0008743886337170847,
				0.0007076310700385514,
				0.0005995215816300284,
				0.0006818342962516498
			],
			[
				0.0007060363247307368,
				-0.0009200805455719237,
				0.0001716373196204116,
				-0.0003348166761656954,
				0.0008332927327215562,
				0.0009534149192202157,
				-0.000754290646776916,
				0.0008149198714812562,
				0.0009496101316668383,
				-0.0003489389250702919,
				-0.0007297595201275731,
				-0.00058250560840847,
				-0.000761912561800247,
				0.0006070267294939302,
				-0.00021772259969478206,
				0.0008125673604360657,
				-0.00040172914990817103,
				0.0006255062787212718,
				-0.0005776162499725637,
				-0.0009297175806361436
			],
			[
				0.0007355451996288733,
				-0.000490650278045566,
				-0.0008946227815826975,
				-0.0008481813337671427,
				-0.0007159661842816511,
				-0.00024147487685038027,
				-0.0007066415324104696,
				0.0006244468461428356,
				-0.0008252616466633034,
				0.0009977529521667935,
				0.00045915788076464803,
				-0.0006416454097183224,
				4.267827636086148e-05,
				-0.0004446964223688241,
				-0.000991458905381278,
				-4.398546326892026e-05,
				-0.00017978332654729873,
				-0.0004222717784850003,
				-0.0001535526698367405,
				0.0006985975741333886
			],
			[
				0.0004362553684276302,
				-0.0003136435840406464,
				-0.0005845719521345742,
				-0.00040198991514815653,
				0.0006032924206489057,
				-0.0003101153395267431,
				-0.0006746163216187564,
				6.0240605953163764e-05,
				-0.00011327723651130377,
				-0.0006266326343675648,
				-0.00043374618344544746,
				-0.00034200054206465105,
				0.00015105257753138908,
				-0.0004720410287543897,
				-0.000238706928738905,
				-0.0003498716501332533,
				-7.244839981225754e-05,
				-0.0007877888524943743,
				0.0005483897178022322,
				-0.0008991012723172445
			],
			[
				-0.0004858424091322062,
				-0.00022696934863318833,
				-0.0005624442031917098,
				5.0937499206157996e-05,
				0.0009970915175569004,
				-0.0009053439586840377,
				0.0009802180359944454,
				-0.00037367074736431257,
				0.0008202314928021839,
				0.000804432425906512,
				-0.0006925835064883962,
				-0.0008695440073591329,
				-0.0003376581836066428,
				0.0007838984872683091,
				0.0007343391276260487,
				0.0008513165981150399,
				0.0008921325779586385,
				-0.0007088167925672198,
				-0.0008952955196111882,
				0.0007514039514745119
			],
			[
				-0.0006878939171744123,
				0.0007132914870981574,
				0.0001808339578288434,
				-0.00035871078578683744,
				-0.0008663681458846528,
				0.0008568426043976103,
				0.0006555665156453608,
				0.00020161112143448874,
				-0.0005901461032349755,
				0.0009242655725544384,
				-0.0006951305024367198,
				-0.0008288733548822787,
				0.0005076493077603278,
				0.0002092350200728491,
				-0.0006264724507185145,
				0.0007565144692049106,
				-0.0005678461350652744,
				0.0006830203442247784,
				-0.0006688128321625678,
				0.00015005770748580875
			],
			[
				-0.0007585028430953051,
				-0.00038252092092094477,
				-0.0004964745701643279,
				0.0006046342631596815,
				-0.0009950724468437624,
				0.0008075518857247055,
				0.00016732623158253177,
				-0.0004902363438532666,
				0.0007495900361649942,
				0.0002052260518478745,
				-0.000678946462632186,
				0.00016550694986462895,
				0.00011049019736494642,
				-0.0002562925882886966,
				0.000583464426062589,
				-0.0007865970494780283,
				-0.00012876037771103845,
				-0.0007130698862644422,
				-7.929211238964307e-06,
				0.000938430962737507
			],
			[
				-0.00022668644428097554,
				0.0006444821849098368,
				0.0009220203941247697,
				0.00038972956552130915,
				-0.0004587493397318006,
				-0.0009259045216137984,
				0.0003024952055001723,
				0.0006322257178101832,
				0.0004177113391171097,
				-0.0002916115732622457,
				-0.0009306439649898186,
				0.0008037455901529651,
				0.00040407230270647567,
				-0.0009929106234654863,
				0.0006619104579514709,
				-0.000773018689131151,
				0.0002963727252419321,
				-0.0009338961180829219,
				0.0008331328189795097,
				-0.0003301554484667204
			]
		],
		[
			[
				0.0007456113718021364,
				0.00025882024575007794,
				-0.000567589672137625,
				-0.00042252076097800176,
				-0.00033860830981641363,
				-0.0006732077576687815,
				-0.00028602479514221364,
				5.0302592671364575e-06,
				-0.00044556898036423535,
				0.00029929071171510115,
				0.0007675902688608878,
				-0.0008866472236837466,
				0.0005587946354820284,
				0.00030647165896868995,
				-0.000761811663303462,
				-0.0005594206154754915,
				0.0007420137930056459,
				0.00032629720721128234,
				0.000645007583897931,
				-0.0007926191383753463
			],
			[
				0.0005736374005142267,
				0.00035910281949686927,
				3.742103295960048e-05,
				0.0005806088872717993,
				-0.00025153850028504304,
				-0.00013871468383073072,
				-0.00013127130081965377,
				-0.0009822603964490632,
				0.0006691009955831109,
				0.0007812274263509027,
				0.0002628542070170943,
				0.000890508676258105,
				0.0003718720423680538,
				-0.0004799980668019545,
				0.0002858504255776719,
				-0.0007688421453341354,
				-0.00033076065204525843,
				-0.0001305120165622911,
				-0.0008909775450368869,
				-0.0009931136629937898
			],
			[
				-0.0002034517909126676,
				0.00015959890381310351,
				-0.0009234567027050973,
				-0.00026942161878417954,
				0.0003226341203463887,
				-0.0005909029718545027,
				-0.0001516350754275004,
				-0.00033892054664361453,
				0.0007259492243477915,
				0.0007524924817460834,
				-0.00028768032791885473,
				-0.0003621706857689595,
				-0.00026662008089866783,
				0.000494757579858851,
				-0.0005289744803853389,
				-0.00033675376779500365,
				-0.00016349416426168447,
				-0.00033201549656437465,
				-0.00038507249019131145,
				-0.00035262769134415553
			],
			[
				-0.0005337023827322559,
				-6.701113772203708e-05,
				0.0002182664315295501,
				-0.00011728604209402225,
				-0.0007826399738093226,
				0.00011543953396868844,
				-0.00018218659154511864,
				0.0008423173278192329,
				-0.0004414320684576862,
				-0.0006835667027282235,
				-0.0003764107263229797,
				-0.0007319977395858624,
				-0.0003893408866326982,
				0.0005321752130868749,
				-0.0008034242367460233,
				0.00046952772969282804,
				-0.000882951156094892,
				0.0006746926144329344,
				-0.00022420442071144884,
				-0.0006764910202210306
			],
			[
				-0.00017843955202155224,
				0.0009898780428217219,
				-0.00014175343258652422,
				0.0006280737603771873,
				0.000479778169826546,
				0.0008433556799078306,
				0.0009233430039806844,
				-4.360742044523546e-05,
				-0.0004714224131727809,
				-0.0007871764012429145,
				0.0004542667804028225,
				0.0008010961625904063,
				-1.1240845095246204e-05,
				0.0007337976251116749,
				0.000978517006055776,
				-0.0009345813028003265,
				0.00014872782923002555,
				-0.00018237570247897877,
				0.0006974483312028983,
				0.0009611801802477372
			],
			[
				-0.0008019313730408921,
				-0.0007077687453460669,
				0.0005611259012004823,
				0.00031929899274893403,
				-0.00022930066032465053,
				0.0006872847483602011,
				-0.00019572069508555815,
				0.0008122402730153075,
				0.0004129598765841354,
				-0.0009440401485514541,
				-0.0006053017423316573,
				0.0007204418114444514,
				0.0006840666597819609,
				0.0008448840945896989,
				-0.00011115233394704883,
				0.0009809609346474366,
				-0.00028517516752051605,
				-0.0006828847690264395,
				-0.00031954184846756943,
				-0.0003839963026371709
			],
			[
				-0.0009291359758081361,
				-0.0009212144764538396,
				0.0002638341076285518,
				-0.000987968685882486,
				0.0008587217678155657,
				-0.00025656961110911806,
				0.0009184544869117284,
				-0.0003390731038596733,
				0.0007664156724642148,
				0.0005017200984129744,
				-8.669260432468359e-05,
				-0.00028263100175749333,
				-0.0009361371627418056,
				0.000949682257262881,
				-0.0002602280876305177,
				-0.0004110996855930598,
				0.0007401634704229151,
				0.0006031374264946934,
				-0.0005056603635176069,
				-0.00026188393982990224
			],
			[
				0.000763971989828706,
				0.0006330009221641563,
				-0.00019519595131112406,
				-0.0006211535865084101,
				-0.0006744955761186162,
				-0.0004440972595718,
				-0.0005550694289331959,
				-0.0006512458214304655,
				0.0001694803658461256,
				-0.0006573672009687434,
				-0.00038937954747366875,
				0.0006895714099265258,
				0.00044526983987202575,
				0.0004457610015287561,
				-5.835684563240814e-05,
				0.00039879351199246724,
				0.0006357109212164558,
				0.0004980148781381884,
				0.0007089612805137931,
				0.0008608235472167415
			],
			[
				0.0005260062378893717,
				-0.0005796753574670679,
				-0.0007466329070812518,
				0.0005785368161466953,
				-0.00046190128128207393,
				-0.00011189907134914788,
				-0.0001640690761970944,
				0.00015959333287187023,
				-0.0006318615016123149,
				0.00041470867044361573,
				-0.00033335602340064344,
				0.00042614371329830684,
				0.0001782335907062997,
				0.0005173029897565821,
				-0.0002766701101493441,
				0.00018652156712822723,
				0.0007297643258068656,
				0.0003484507809751287,
				0.0007061290573479632,
				0.0003979530983729473
			],
			[
				-0.0005486300960072659,
				-0.00033468893989342966,
				0.00045993308766923216,
				0.0004551182022380241,
				-0.0004980982052428988,
				0.0009611236389992705,
				-0.0004934424101268748,
				0.00045790824787235386,
				0.0001302011287154343,
				0.00040984473464055534,
				-1.0463084786858142e-05,
				0.0002482364956687942,
				-0.0004882337086925144,
				0.0009373379020465691,
				0.00010797996828051395,
				-0.0004565747803084002,
				0.00042974244252856684,
				-0.0002752759034809249,
				-0.00029710117898539966,
				0.0008130128462229584
			],
			[
				0.0003796182466913043,
				0.00043070760887544096,
				-0.0008301811933451075,
				-0.0006509866289449211,
				0.0006585022205603227,
				0.0004933036086388273,
				-0.0006443279094891969,
				-0.00039450828825590874,
				0.0009510783131324268,
				0.0006412121103697192,
				-0.0003246123555602159,
				2.464978661538726e-07,
				0.0004996982721458822,
				0.00012047766243372454,
				0.0001008249400615282,
				-0.0008262185193028851,
				0.0009447586208107942,
				0.000992272230032041,
				0.000555759956288468,
				0.0007144500302410468
			],
			[
				-0.0008546325076294541,
				-0.00017618857905767028,
				8.096138555807359e-05,
				2.5792839640263743e-05,
				0.00022583020246904652,
				0.0004075352404088234,
				-0.0009185257718683642,
				-0.00013888327821097815,
				0.0008458536744789242,
				0.00012214992000702846,
				0.0005911527020283835,
				-0.00045173808730459154,
				3.479785489077063e-05,
				-0.0009331746203377501,
				0.00020267549321013227,
				-0.0004507247109921302,
				-0.0007606048916270756,
				-0.00038659831401639886,
				0.0009763434335257879,
				0.0005643505664972473
			],
			[
				-0.00016361872663119123,
				0.0005503684464753533,
				-0.0005747675359254385,
				-7.357345316757644e-05,
				0.0005044524892803995,
				0.0008274184932863765,
				-0.0002375226706672215,
				0.0005580304611364022,
				0.0009678419149019412,
				-0.00018500841863057916,
				8.336552616735552e-05,
				-0.0008414164286672608,
				0.0007267748193734674,
				0.0007791822180448799,
				-0.0008047108608210318,
				-0.0006570789005025356,
				0.0005570459185608593,
				0.0004465544477836581,
				0.0004262719990282325,
				0.0008347402537327313
			],
			[
				-0.0007667512392978457,
				0.0008597574483672648,
				0.0003857252011051995,
				-0.00035388944923420173,
				0.0007246398276020561,
				0.0004766780945335825,
				-0.0008886134416635943,
				0.0008742357725965693,
				0.0008615836394330685,
				0.0003236078708699845,
				-0.00018903893393604502,
				-0.0002555883900863605,
				-0.0007691252918885556,
				2.722242618613882e-05,
				0.0003341994638427952,
				-0.000338665668234311,
				0.0008367764399588905,
				-0.0008677522626540889,
				0.00042621386233571254,
				0.00090433295304244
			],
			[
				0.0008800790968518236,
				-0.00013208142524521029,
				-0.0007675769596735896,
				0.0009394460492978924,
				0.0004544851713686028,
				0.0006195618004569941,
				0.0004464439557655031,
				-0.0005777718824996781,
				0.00026242913019506697,
				-0.0008250999841577986,
				-0.00046339683039254816,
				0.0009482238256116459,
				-0.0009360943011424485,
				-0.00035671984220612,
				-0.00020282874922962458,
				-0.0001135760443676042,
				0.00011384324463818295,
				-0.0005174774389125776,
				0.0007704856660524621,
				0.0005720958756635656
			],
			[
				9.122136872614537e-05,
				-5.700167339309117e-05,
				-0.0008250149592032377,
				0.000917797484065363,
				-0.0003501555650985375,
				0.0005876478674931998,
				0.00042293057663567385,
				-0.0007970995741267779,
				-0.0008564036717593897,
				-0.0008414838144571679,
				-0.0009256440584411938,
				7.897530220167146e-05,
				-0.0002705427812338708,
				0.0005793061942203444,
				0.0009875823851104538,
				-0.000623820119199169,
				-0.0006589034654697372,
				0.0004246761286471972,
				-0.0004201234209797902,
				-0.0007941886466601871
			],
			[
				0.0003911745630650761,
				-1.1292649840160835e-05,
				0.0003252039333734996,
				-0.0007841048634146131,
				-0.0006907390143397942,
				-0.000665339441842683,
				0.0003491389876464988,
				-0.0005459835787183893,
				-0.0005436639744841789,
				0.000608244254666133,
				-0.0004155425782174829,
				-0.0007632997817151712,
				-0.0009115902543616857,
				0.0005817413539875847,
				0.0009431310247005034,
				-0.0004613270601315837,
				0.00033715229325434796,
				0.0003074121434505643,
				-0.0007955789757907634,
				0.0006222757469959287
			],
			[
				4.16179093512051e-05,
				-0.0004198951734776375,
				-0.00045025222277822246,
				7.721912177379082e-05,
				0.0006164428829375194,
				-0.0006175546174579658,
				-0.0003853124750138608,
				-0.00042254639058086354,
				-0.0006392214331010992,
				-0.0007066353471186875,
				0.00026216905500971274,
				-0.00028103073595118816,
				-0.0005294664592781708,
				0.0002319555238375489,
				0.0009307980828586193,
				0.0007801850986610538,
				-0.0007257014157312205,
				-0.0005841658564755041,
				-0.00023017816600682877,
				-0.0009121090101246081
			],
			[
				-0.0005621756363269918,
				0.000826766659641087,
				7.158453635118284e-05,
				-0.0006893861951726957,
				-0.000554883529358749,
				2.222926204899548e-05,
				0.0008305920321535962,
				0.00014500798275386998,
				0.0006641952406821901,
				0.0005671984398019625,
				0.0007575054724881696,
				-0.000265041500433137,
				-0.00012597580319810705,
				-0.0004462228650694469,
				0.0003596856114323284,
				-5.2728636679223056e-05,
				0.00010459329796113693,
				0.0006806145670913929,
				-4.048482226799927e-06,
				0.00031447400336166395
			],
			[
				0.000354327928707402,
				-0.0002392649941753746,
				0.0005245578380543852,
				0.0009273056493010036,
				3.441449033929952e-05,
				-0.0009205553628382208,
				-2.1551636313744613e-05,
				-0.0008961874477699814,
				-0.0003706152627415502,
				0.00027385688058136374,
				-0.0006795949573909234,
				-0.00021153954068095927,
				-0.00021520201465529667,
				0.00016053407224729727,
				-0.0006542575806421614,
				0.0004609292966235366,
				0.00019696591470831355,
				0.0005661302147623791,
				-0.0008193110894458895,
				0.0007038857024785964
			]
		],
		[
			[
				-0.0008437659074016739,
				0.0006344774044252446
			],
			[
				0.00023242209924413735,
				-0.0005694302073141426
			],
			[
				-0.00023956370286609956,
				0.0007335414547492509
			],
			[
				-0.00023025588405425792,
				-7.672069107021403e-05
			],
			[
				0.0002964895517589851,
				-0.000894570637101831
			],
			[
				0.0005406523278442077,
				-0.0006579118792670756
			],
			[
				-0.0009419429167789881,
				0.00011071613429673136
			],
			[
				-0.00011740351794593915,
				-1.291693949801863e-05
			],
			[
				-0.0001009205024057458,
				0.000675820692763256
			],
			[
				0.0005753196830876651,
				-0.00023916439284032683
			],
			[
				0.0006739903220172067,
				0.0005693858202816362
			],
			[
				0.0006683705606830863,
				0.0003427150705046962
			],
			[
				6.856716067342103e-06,
				-0.0007060539289003027
			],
			[
				0.00016332126220261066,
				0.00042695954433283985
			],
			[
				-0.0009027689891033801,
				-0.0007244498538472484
			],
			[
				0.0007303508580074037,
				0.00011903795047374204
			],
			[
				3.8285143374124087e-05,
				-0.00024402977795522898
			],
			[
				-0.0007229756339259417,
				0.00030872549924687294
			],
			[
				0.0008223891183256752,
				-0.0002100185803387977
			],
			[
				-0.0005722800546899155,
				-0.0004919186507436968
			]
		]
	]
}