{
	"model_params": {
		"input_dim": 10,
		"units_per_layer": [
			20,
			2
		],
		"acts": [
			"tanh",
			"identity"
		],
		"init_type": "uniform",
		"batch_size": 16,
		"decay_rate": 0.95,
		"decay_steps": 500,
		"epochs": 700,
		"lambd": 0,
		"limit_step": 500,
		"limits": [
			-0.001,
			0.001
		],
		"loss": "squared",
		"lr": 0.0021435193860245855,
		"lr_decay": null,
		"metr": "euclidean",
		"momentum": 0.6,
		"reg_type": "l2",
		"staircase": false
	},
	"train_params": [],
	"weights": [
		[
			[
				-0.00041987595123579055,
				0.000824508750711725,
				-0.00017988059097564114,
				-9.880500979289185e-05,
				-0.0006601848522910497,
				0.0007186145179139379,
				0.0002803418478362664,
				0.00024162669499419608,
				-0.00021888657882083095,
				-0.000663313927894746,
				-0.00023312576059161816,
				-3.0954246019531816e-05,
				-0.000355960867431707,
				0.0004718556941143927,
				-0.0008708490222553811,
				-0.000659126607415246,
				0.0009001851944228443,
				0.00015856554431141218,
				-5.922795231830301e-05,
				-0.0009999981690728482
			],
			[
				-0.0009602381809890335,
				0.0007847056384252594,
				0.0007580786947757137,
				0.0007109145588578092,
				0.00022849550584274725,
				-9.354709393515125e-05,
				-0.000383767453549114,
				0.0008408171632280023,
				-0.00037673309966366575,
				-0.0005401271919555656,
				0.0002837143685258841,
				-0.000491563003903738,
				-0.00044064554279857717,
				0.0009845855141667218,
				-0.0002441656647644124,
				0.000890157121917851,
				0.0007401647706959369,
				0.00020652059681425467,
				0.000507977484923088,
				-0.00031641651901769484
			],
			[
				-0.0006521090843910848,
				-0.00031649518004369835,
				0.00014461407281935205,
				0.00012616743051228007,
				0.0005306757590128773,
				0.0006444609695517964,
				-2.3653237171953733e-05,
				0.0005102780652901889,
				-0.00021146598304044157,
				-0.0009756817810302268,
				-0.0009842431529202122,
				-0.000261274450802184,
				0.0007829792237540746,
				-0.0007695142141947548,
				-5.007740321777128e-05,
				0.0006196589134347941,
				-0.0009524047227103341,
				0.0005636718148107863,
				0.0008984217283046795,
				0.0006841560022995334
			],
			[
				-0.000863507616923799,
				-0.0007584871557101511,
				-0.0009298139934465619,
				-0.0001513689093380359,
				-1.541407277554801e-05,
				0.0007729717055004264,
				-0.0001473006587532948,
				-0.000810446323612295,
				0.0007233420826334527,
				0.00045770891508392923,
				0.0003208660842528349,
				-0.0003554715587743624,
				0.0005863786741027728,
				-0.0008725442327577888,
				0.0005866412458648514,
				0.0008951977921672644,
				0.0007016543590239613,
				-0.0007304300615497082,
				0.0004246495718856374,
				-0.0005362852002257004
			],
			[
				-0.0003599121710657232,
				-0.0005991434876564464,
				-0.0009093006977334152,
				-0.0009007593148324729,
				0.00015982025271732685,
				0.0009395792726396995,
				-0.0003123965561471595,
				-0.0004698264750309869,
				0.0007948773521623343,
				-0.0002831576935998372,
				0.0006118308253154979,
				0.0008487915836261828,
				-0.0007523996349969549,
				-2.8462070463888237e-05,
				0.0005810520068960127,
				0.0001972515139098735,
				0.00030179697897434105,
				0.0006079395597996429,
				-0.0009612266790188012,
				-0.0006646399428871364
			],
			[
				0.0005921780679000596,
				0.0004565669624806807,
				-0.0007649866612637275,
				-0.0006928980652728194,
				0.0005421776308779979,
				3.0458341263290114e-05,
				-0.00036482748791920793,
				-0.00014041702762625599,
				-0.0004653149958306431,
				-0.0005498140314135469,
				4.105090039603068e-06,
				-0.0009681234162858734,
				-0.0005891501469662643,
				0.0001792086587528532,
				-0.0007373417529041988,
				0.00048408288489756087,
				-0.0001714472843844455,
				0.0005320429864071913,
				0.0005008124231540877,
				0.000440549032973658
			],
			[
				-0.0006880638324723614,
				-0.0007981812090441169,
				2.4450325601632758e-05,
				-3.5683019734858716e-05,
				0.0007249827659072546,
				-0.00027487306320199,
				-0.0008807774734171908,
				0.0008751124054889668,
				0.0002643089466925503,
				-0.0007456274827920171,
				-0.0006017259070809655,
				0.00017153550466115835,
				-0.00025942958535270374,
				0.0008605122534178086,
				-0.00016326201243876243,
				-0.0008164832295058948,
				0.0008389704544958306,
				0.0005224177701065292,
				0.0009335706808707635,
				0.0002635329559861209
			],
			[
				0.0007582151615640438,
				0.0003074444955580326,
				0.0007875287646696724,
				0.0008231797784262437,
				-0.00032775092289597364,
				0.0005459106612008206,
				-7.820043832436818e-05,
				-0.0006342121664860724,
				0.0009039415747321411,
				-0.00041392457420431536,
				0.0006932883551428091,
				-0.0004953438178822071,
				-0.00017392231053691917,
				0.0005261938404880658,
				8.078686843955552e-05,
				0.0006151788087991549,
				0.0009027041050851667,
				0.0004774014798301705,
				0.0002955974770337956,
				0.00031683115577837853
			],
			[
				-0.0003922467523521236,
				0.0008094919300783616,
				0.0006298446374475176,
				-0.0009455341498743133,
				0.00021165806882017762,
				2.416841058367164e-05,
				-0.0005800622472814914,
				0.0006164449540090166,
				-0.0005970540677674381,
				0.0008677008822442127,
				0.00044172160898297706,
				-0.0008958785166440749,
				0.0007486032469990178,
				0.0007716006856375122,
				0.0009711009303029275,
				0.0009777614663788172,
				-0.00012193454203740224,
				-0.0009921140990597729,
				-0.0008311617961881632,
				-0.0004031292087081508
			],
			[
				0.0002475141300189352,
				-7.383183076324629e-06,
				0.00019127396980532464,
				0.0006418933590227151,
				-0.0002917804300710538,
				0.0005087874769042703,
				0.00012327869452149857,
				-0.00034898374216182405,
				0.0007655992223540586,
				0.000692886575396591,
				-0.00021667294739360313,
				-0.00028056446866158975,
				0.0005513221147973324,
				-0.00024243838013189502,
				-0.00022251856216320292,
				-0.0006894592309344561,
				0.0007884900304597699,
				0.0002484877963915852,
				0.0005488665512265007,
				-0.0006526103766086658
			]
		],
		[
			[
				-0.0006409344478135761,
				0.0001421526259816528
			],
			[
				0.0004714203113700497,
				-0.0004206451186206901
			],
			[
				0.0004473918424444019,
				-0.0008066429172387717
			],
			[
				0.0009309803814291913,
				-4.055988064695739e-05
			],
			[
				-7.456974006758905e-05,
				0.00043745212722241106
			],
			[
				-0.0006348452706462049,
				-8.054060675102858e-05
			],
			[
				-0.0006951568337915089,
				0.000339989553198938
			],
			[
				0.00012620848658392424,
				-0.0006578434491707479
			],
			[
				0.0009127176710184107,
				-0.0008395262287463466
			],
			[
				-0.00036355353549334104,
				-0.0005919047198537882
			],
			[
				-0.0008243161598067561,
				-0.0007150624138826609
			],
			[
				-0.0009749611987141804,
				0.0006822564420194944
			],
			[
				0.0007507552323519598,
				0.0007853292848988551
			],
			[
				-0.0003261153876657534,
				0.0004594374426833438
			],
			[
				-0.0009137187996287455,
				1.409044380933349e-06
			],
			[
				0.0008005839162715423,
				0.0005262658465216793
			],
			[
				0.00048093352972700034,
				-0.0007543815607213807
			],
			[
				-0.0009645863530606054,
				-0.00032902017912417737
			],
			[
				1.1666135224879491e-06,
				-0.0009276347636916717
			],
			[
				-0.0003951396129653808,
				-7.881963026683248e-05
			]
		]
	]
}