{
	"model_params": {
		"input_dim": 10,
		"units_per_layer": [
			20,
			20,
			2
		],
		"acts": [
			"tanh",
			"tanh",
			"identity"
		],
		"init_type": "uniform",
		"batch_size": 100,
		"decay_rate": 0.95,
		"decay_steps": 500,
		"epochs": 150,
		"lambd": 0,
		"limit_step": 500,
		"limits": [
			-0.001,
			0.001
		],
		"loss": "squared",
		"lr": 0.00891214076925288,
		"lr_decay": null,
		"metr": "euclidean",
		"momentum": 0.6,
		"reg_type": "l2",
		"staircase": false
	},
	"train_params": [],
	"weights": [
		[
			[
				0.0003018978765824934,
				-0.00022084119568138846,
				0.0003495780845154087,
				0.0006553912165153653,
				-0.000608483904891858,
				-0.0004265893336773206,
				0.0006366413213685352,
				-0.00043843515549154156,
				-0.000897617797530881,
				-0.00024782576835600547,
				0.0009015314401947725,
				0.00034698506725427134,
				-0.0005903124404067996,
				-0.00037778982972798696,
				-0.0009640721459651378,
				-0.0007063093795604475,
				-0.00010703843390210994,
				7.19337130024051e-05,
				-0.0002093219695820538,
				0.0009391167645820713
			],
			[
				-0.0003764553725413598,
				-0.0008085912726873759,
				3.1213735425668484e-05,
				-0.0007657140573405459,
				0.0005267311643048624,
				0.00047912507516645786,
				0.0006487316606470393,
				-6.11682869885782e-06,
				0.0008619464777433622,
				-0.0009127003733431023,
				0.0009388425562759416,
				-0.0007033905461564514,
				-0.0009637574957942627,
				0.0001816267067954512,
				-0.0005194080747224412,
				0.0006732500703564731,
				0.00036906555705351314,
				0.000907473360034178,
				0.000841352205276532,
				0.0002194491734381391
			],
			[
				0.00034857596650378743,
				7.052327090564152e-05,
				-0.000984051400239304,
				0.0006385565853515348,
				-1.3039382060238544e-05,
				0.0002658667619586546,
				-0.00011307818882105587,
				-0.00020049482200272897,
				0.0002946313536386822,
				0.00016438108196651573,
				-0.0009197038034977032,
				0.0006771481792485811,
				0.0008711292614941696,
				0.0001858011484329571,
				0.00015808331563077634,
				0.00036462019326693757,
				0.00023544424224760155,
				-0.000780564408481276,
				0.0006177335152121647,
				-0.00048570040494467896
			],
			[
				0.000882532901066145,
				-0.00039484530929525846,
				-0.0005715798586859344,
				-0.0004561167755322491,
				0.0001161292941649671,
				-0.0002103308242702471,
				-0.00014216796345693794,
				-0.000903689150172273,
				-0.0004822406011549841,
				0.0006064360541680517,
				0.0006788649574478211,
				-0.0005156997338718743,
				-0.0009233145006886891,
				0.0009215642691764283,
				0.00029138184151322375,
				0.0007283845283206824,
				1.9916747072463818e-05,
				-0.0006975416848280323,
				-0.0009703646032503975,
				0.0005041204557500096
			],
			[
				-0.0009840234216645521,
				0.0008361146044639437,
				0.0001839128178114963,
				-0.00010124737476852855,
				0.00047823754176574214,
				-0.0008650358466578295,
				0.0009634918745735506,
				0.0005106982656247767,
				-3.35668213566169e-05,
				-0.0005014013792112504,
				-3.2491436266445656e-05,
				0.00023452873130812507,
				0.00018657011362431964,
				0.0007225241079854704,
				-0.0006618523125915693,
				-0.0009468633676854587,
				0.0006467970890274588,
				-0.00016278215905332226,
				0.0003711083478987712,
				-0.0001274162552122104
			],
			[
				-0.0003773315434716151,
				-0.0007913550506229994,
				-0.0005296076442271058,
				0.0006542797084796543,
				0.0005793376716270572,
				-0.0008661601246797684,
				-0.000842840092266663,
				0.00027731633277426984,
				-0.00010180197497112672,
				0.000994279917428442,
				-0.00028679710112233976,
				-0.0003350655935395483,
				0.0004034934325960354,
				0.0003824567218008374,
				-0.00044813092293872754,
				-0.0004013998113025681,
				0.0003708572879104182,
				-0.0005108021137895878,
				0.000586585433018172,
				-0.0007471681830479196
			],
			[
				0.0004914015528692691,
				0.00013165098646277917,
				0.0003082648486017745,
				0.0006390572816414462,
				0.00037786322039871315,
				0.0006302970606300736,
				-4.542015576442513e-05,
				0.0001317264737313393,
				0.00010184379653945669,
				-0.0004708279218699527,
				0.00020717740220896406,
				-0.0009834563038165901,
				-0.00011425720463858525,
				-0.00018355019827558008,
				-0.0002886540072232224,
				0.0005751458134791458,
				-0.0004465726004255202,
				-0.0006098807812195553,
				-2.786356551200738e-06,
				-0.0009083082346798853
			],
			[
				0.0007530481906545773,
				-0.0006501819732646612,
				6.329286748457544e-05,
				0.0004968353600301417,
				0.0005448148626806648,
				2.6540487791644777e-05,
				0.0005302755768575511,
				-0.00014491719491581986,
				-0.0009646624364956928,
				0.00033422092901648406,
				-0.0006721374043628288,
				-0.0001292621424167995,
				-0.0006300356190940613,
				0.00046453572295838594,
				-0.00013722309175672896,
				-0.0003587164199671467,
				-0.00039833682716077217,
				-0.00037478924863856107,
				0.0007187989286321489,
				-0.000785743323197825
			],
			[
				-0.000575083407518739,
				-0.0004863370404015932,
				0.0006402118372972046,
				-8.420094317123641e-06,
				-0.00028950490252511443,
				0.0008929945726462499,
				0.0001035804222109314,
				-0.00043500148272384003,
				0.0007121296273092253,
				-0.0008481943365876818,
				-1.0846029844379474e-05,
				0.0007140634871081609,
				-0.00039360297885672436,
				0.0009229082627618423,
				2.6739500000967295e-07,
				-0.0007387667269838981,
				0.0008732177774816027,
				-0.0008676487850386326,
				0.0006416860348782991,
				-0.0007772365828348489
			],
			[
				-0.0006591691220583285,
				-0.0004870532315118186,
				-0.0009180817699099606,
				-0.0009838109855844902,
				0.000889282012163357,
				-0.0007336549325703874,
				-0.0001908034806925292,
				0.000930989498195694,
				0.0006265441816887254,
				5.204263606967607e-06,
				-0.0008724747400836058,
				-0.0007439712033549659,
				0.0001579840679756465,
				0.00035784987699727226,
				0.0008426833608529774,
				0.00014250277661438963,
				-0.0001097948722515456,
				-0.0003257136711448021,
				-0.0008446103637690489,
				0.0006160734874886139
			]
		],
		[
			[
				-0.0006073656678374883,
				0.0005578315320148703,
				0.0001454908627718085,
				0.00041442451649817977,
				0.0007660724617462697,
				-0.0002104061559798125,
				0.0009409060306442198,
				-0.0008111469077735911,
				-0.0009785652840140998,
				0.0007669661316640577,
				-0.0006873688694178084,
				-0.0007496455178734902,
				0.0005670405781212366,
				0.00021962437579872555,
				-0.000345443625487521,
				0.00043248466046504064,
				0.0009791436700900056,
				-0.0006102456981875095,
				-0.0007709121291701211,
				-0.0008907944376568271
			],
			[
				-0.0008124163998239209,
				-0.000910405169001723,
				7.126637726095095e-05,
				-0.00032026805807484893,
				-0.0009223837875736887,
				-0.00030330486059785763,
				5.474773751835862e-05,
				-0.00046072472348012057,
				-0.00011753895175065912,
				-0.0007594415426230214,
				0.0005455785888717729,
				5.6731829447034896e-05,
				0.00015174924643232687,
				0.00017154822217629677,
				-0.0008862951231878129,
				-1.2253213559654383e-05,
				0.0004175632852170515,
				-0.0004552873470562651,
				0.00039431695175960366,
				-0.0007834707661733295
			],
			[
				-0.0006769965803884532,
				0.0008014968339306334,
				0.0007465875419019902,
				-0.0001262524503728732,
				0.0005732306403726914,
				-0.0005884766319989576,
				-0.00019324531038906925,
				0.0003346646630782023,
				0.0008388465435668427,
				0.0005042426739030675,
				0.0008325795528168838,
				-0.00035045468881775114,
				0.00032296212182153635,
				-0.00019578378526670327,
				0.00011884094820124608,
				-0.0004530447841638683,
				0.0003777433905053334,
				0.0009487301279691551,
				0.0003221344823813735,
				-0.00015015964692786834
			],
			[
				0.0007097824516368778,
				-6.782590200665338e-05,
				-0.0007443459300473101,
				-0.0005013556630623266,
				-0.00013948426632598627,
				0.00047817114172955507,
				0.0008717458253119635,
				-0.0007857829342869109,
				0.00028223661666222275,
				-0.0008147132023121138,
				-0.00028654891925602,
				-9.414755012557838e-05,
				0.0008638220307478589,
				-0.0008082232213858849,
				-0.0006920004103199702,
				-0.00035889832410612103,
				-0.0004424866001834382,
				0.000845739779809469,
				-0.0006957310322828732,
				0.00023212969387633722
			],
			[
				0.00029917527446110146,
				0.0007409412612159308,
				-0.0009913445737514735,
				-0.0009203516267016419,
				-0.0007427481004256009,
				0.0004037641690947066,
				0.0007065696200947453,
				-0.0009767921785242863,
				-0.00031413643482672477,
				3.5020066406756586e-05,
				0.0006723125427745686,
				0.0008885402924804085,
				-0.0006542238521312007,
				0.0003792674018431824,
				0.0008050534206961845,
				0.0005969802113117032,
				-0.0005413658605668403,
				0.0005299056741323103,
				0.0006325716260789501,
				-0.00021681209832098887
			],
			[
				0.00034003149500796753,
				0.00013231668594199846,
				0.00044450279483225236,
				0.000309413819526619,
				-0.0007628287533055294,
				-0.0004935203933950066,
				0.0001967381934623758,
				-0.0006600057182930567,
				0.000968885417807549,
				0.0005303241031196012,
				0.000855768175731769,
				-0.0004944849143142298,
				0.000681626470234693,
				-0.0005680390538457112,
				0.0008541428472191954,
				0.00027328716552938283,
				0.0008540972873890224,
				0.0008995735141308758,
				0.0009447715778731474,
				-0.00021153793389595756
			],
			[
				0.0008041308185340445,
				-0.00010293726881685657,
				-8.773650736229198e-05,
				0.00026005727504865915,
				0.0009805842225340386,
				-9.445505856572824e-05,
				-0.00012429642062612505,
				7.093194143771076e-05,
				-0.00013356553144015955,
				-0.0006867746297888207,
				-0.0008621361679383335,
				-0.0004142525671186767,
				-0.0006635062866937271,
				0.0001640289551989734,
				-0.0006763959482723142,
				-0.0002778109992359472,
				-0.000965031415555063,
				0.000504811087601023,
				-0.0007584606925327782,
				-0.00023143969539170532
			],
			[
				4.718903430957189e-05,
				0.0007979990755339744,
				0.0008675823912775178,
				-0.0009960104069569313,
				0.0008950274861881402,
				0.0007281223585350765,
				-6.489916274693441e-05,
				-0.0006362636471208924,
				0.0009844897899739151,
				0.0008155326387882381,
				0.00038592443295308197,
				-0.00032376329096638816,
				-0.0006363064105712693,
				0.0007735211052608236,
				0.0005866654166981032,
				0.00033295236523947416,
				6.217484635822907e-05,
				0.000401518191460487,
				-0.0009452071249475063,
				-0.00012034743718447615
			],
			[
				0.00021257344499325554,
				-0.00023108707625931607,
				-0.00044588098328334435,
				-0.0006303059674250375,
				-9.039697233570497e-05,
				0.0008634542255425131,
				-0.0008654307212127528,
				0.00011105555085574046,
				-0.0009525966945303556,
				0.0009883846570840136,
				-5.2629601835248304e-05,
				0.0008317184758893836,
				0.0004087194004359861,
				-0.0009560066249372323,
				-0.00042591413345012335,
				0.0004076540070397912,
				0.0005325743519209779,
				-1.6467941450188468e-05,
				0.0009652979595740669,
				-0.0009068347948650791
			],
			[
				-0.0003149472981513258,
				0.0001177405682085352,
				-0.0008362390050952256,
				0.00017701017852605853,
				0.0008533365897328213,
				0.00016759127950820253,
				0.0005685840289229457,
				-0.000886048284612168,
				0.0003222703870320741,
				-3.470850123923723e-06,
				0.0005899769080847305,
				-0.0008656236164326137,
				0.00021035078225150445,
				0.0005523896018536736,
				-0.0008545117041922426,
				-0.0004957959740596812,
				0.00018580008675490194,
				-0.00028660950103998224,
				-0.000986814112990669,
				-0.00026197655049812975
			],
			[
				0.00017334468792805412,
				0.00017304021791889035,
				0.00029925127355584806,
				-6.129181116778354e-05,
				-0.0008603659059626638,
				0.0006701731696881963,
				0.0007010694910095394,
				0.00013996545167249534,
				-0.0007128769127711953,
				-0.0002947894101647,
				0.0006398474605422986,
				0.0009216480261885923,
				-0.000746984489548989,
				0.0007735204031573196,
				0.000686041764897533,
				-0.0006082359644502427,
				-0.00034809385424705683,
				0.0005299545710159778,
				0.00023760945030059494,
				0.00042613453372926575
			],
			[
				-0.0006506342823923963,
				-0.0003844023867543791,
				-0.0009554085580608194,
				-0.00029990919570412045,
				-0.00037059571614743957,
				0.00022109049321076602,
				0.0003516304333888026,
				-0.0005289910016129005,
				-0.00036061301269889713,
				-0.000402522483092511,
				0.0009230457410527855,
				0.0008030865109111549,
				-0.0006624088681734484,
				-7.864721606764364e-05,
				-0.0007979907592446334,
				0.00032016841904746493,
				-0.0008053221311654122,
				0.0006342841327223857,
				0.0008401450418375216,
				-5.204924705157058e-05
			],
			[
				2.8545160596100266e-05,
				-0.0006999149709802355,
				-0.00018437808681089573,
				-0.0006169956443160241,
				0.000191666815957222,
				0.00048269823102111407,
				1.4869604176063382e-05,
				-0.00022377525805287622,
				0.000556381882339003,
				0.0007504178165546689,
				-0.0005854330693461365,
				-0.0009773534429170175,
				0.0004510853381699204,
				0.0002242385504349347,
				0.0009077985005126082,
				-0.0006325384135991743,
				0.0006012896235729483,
				4.000149245879728e-05,
				-0.0008640220594012225,
				-0.0007069859916780188
			],
			[
				0.00032544647876416185,
				-0.0006907167198416464,
				-3.4751408339224596e-05,
				-0.0007051690031188565,
				-0.0002903860612775864,
				-0.000980453974452618,
				0.0005245299435989695,
				-0.0009883206984659108,
				0.0006125631389764684,
				-1.0409753267621741e-05,
				0.0005844118855556171,
				-8.17077466468781e-05,
				-0.0003229755239974488,
				-0.00012911933230699217,
				-0.000929841380462456,
				0.000480649565299129,
				0.0009406269394746862,
				0.0002860282600098793,
				-0.0004982577737569263,
				0.00031702424223375926
			],
			[
				-0.0007387083372906167,
				-0.0008081818633010538,
				-0.00033601828496719935,
				-0.0007477697764317359,
				-0.00015285069093429638,
				0.0009460218840978785,
				0.0005715972807734189,
				-0.0006950400977396133,
				0.0004495568954045383,
				0.0007162037450422071,
				-0.000753572214898753,
				-0.0006414705383737311,
				0.00041977881003200435,
				-0.00019521068115806433,
				0.0008739671931833207,
				-0.0006468644139665273,
				-0.000836793697518173,
				-0.0004097853444456044,
				-0.000144195757734862,
				-0.0008358001277473781
			],
			[
				-0.0009178700951640217,
				-0.0007964213183357918,
				-0.0007679797185508293,
				5.914940529032158e-05,
				0.00020278553330333533,
				-0.0005025922257002032,
				-0.00040740090612278437,
				-9.489504441372466e-06,
				-0.000862390483220981,
				-1.488913193756409e-05,
				0.00028957416186650145,
				-0.0004277077928703368,
				-0.00041600150060633627,
				-0.0007988069227330419,
				-0.0003595443606910373,
				0.0005805632579092201,
				-0.0002567065261253126,
				0.0004884651332947364,
				-0.00017809868002020184,
				-0.0009416808815117191
			],
			[
				0.0003098045713703186,
				-0.0008792899379133517,
				-0.0009825081303101524,
				-0.00027135877989017954,
				-0.00028877633069684136,
				0.00036237651272645957,
				0.00010236135267659542,
				0.0007890441628314736,
				-0.00040576591991107905,
				-0.00044706589004056237,
				-6.128644150086291e-05,
				-0.0006918871693160282,
				0.0007838514025394886,
				-0.0008921502911662074,
				0.00026394664320490095,
				-0.00026680194888444313,
				-0.00044074434236704744,
				0.00043246952686429893,
				-9.296367790296764e-05,
				-0.0008447690882539223
			],
			[
				0.0002680288405683864,
				0.0007971335405265651,
				-0.000738521834265253,
				-0.00014120112923141927,
				0.0006260441753405863,
				0.0007181559768973946,
				0.0006898761149257777,
				-0.00027796238525943577,
				-0.0008157718361752691,
				0.000553081383862145,
				-0.00012936552106190423,
				0.000771970997737838,
				-0.00092647523860166,
				0.0004567922139722524,
				2.7481092880984577e-05,
				-0.0003462838229676981,
				-0.00021664189722410952,
				0.00032719066847155306,
				0.0009178457801567936,
				0.00019463089823596076
			],
			[
				0.0009198760196516202,
				7.581633164771041e-05,
				-0.00047508086847285853,
				-0.0001136085358800985,
				-0.0003073707373464525,
				0.00020613175597729728,
				-0.00019420077444734756,
				2.113797055240392e-05,
				0.0008659417552613494,
				0.00019506268299265004,
				0.0007252623058709986,
				-0.0001370399647513225,
				-0.00019177957679241688,
				-6.244236471957421e-05,
				0.00021146447100097777,
				8.466234838051833e-05,
				-0.0009667479715244383,
				0.00016435029406499757,
				-0.00027665606497774455,
				-0.0007122319957274072
			],
			[
				-0.0004972402133693253,
				-0.0004996944306220026,
				0.0006760772396994844,
				-0.0006395907664527003,
				-0.0006824158797218707,
				0.0008966416988527856,
				2.9325820816894672e-06,
				-0.00030555308506236467,
				0.0009633948569191249,
				-0.0006502808258677867,
				-0.0008580448396936724,
				-0.00014574006431822782,
				-0.0009562503903733042,
				-0.0006897599777926265,
				0.00031902786040124064,
				0.0006936838411579819,
				0.0009404516070264431,
				-0.0004643069627854264,
				0.0009260434442586014,
				-0.0007734203041307777
			]
		],
		[
			[
				-4.063291754745086e-05,
				0.0006436311442544118
			],
			[
				6.298110015767158e-05,
				-0.0006023345764633293
			],
			[
				0.000992000054249298,
				-3.303734613405076e-05
			],
			[
				-0.0009978475254476453,
				2.8061065621801193e-05
			],
			[
				-0.0008984317502697191,
				-0.0009359627462102074
			],
			[
				0.00031495978225711007,
				-0.0009330941568847165
			],
			[
				-0.00011966850510268512,
				0.000906128692730924
			],
			[
				-0.00043420304564285113,
				-0.0005786341260167132
			],
			[
				0.0009620286931778898,
				-0.00033114012104878813
			],
			[
				0.0009128349320454889,
				0.0007956866088549622
			],
			[
				-0.0003694452975786848,
				0.0003365598136648722
			],
			[
				-0.0005590374992268732,
				0.0008679511807234497
			],
			[
				-0.00033705612094419896,
				-0.00037111700770437795
			],
			[
				0.0009420503330331831,
				6.547624304225111e-05
			],
			[
				0.0007036870577258811,
				0.00014942004272763582
			],
			[
				-0.00041497767595281745,
				-0.0005760383952007776
			],
			[
				-0.0004223918599281771,
				-0.00046314170482671655
			],
			[
				2.505796105548041e-05,
				-0.00024090838839997187
			],
			[
				-0.0007745687214956831,
				0.00014576799016939937
			],
			[
				-0.00034380850438447475,
				0.00045479736379014195
			]
		]
	]
}