{
	"model_params": {
		"input_dim": 10,
		"units_per_layer": [
			20,
			2
		],
		"acts": [
			"tanh",
			"identity"
		],
		"init_type": "uniform",
		"batch_size": 16,
		"decay_rate": 0.95,
		"decay_steps": 500,
		"epochs": 700,
		"lambd": 0,
		"limit_step": 500,
		"limits": [
			-0.001,
			0.001
		],
		"loss": "squared",
		"lr": 0.0021435193860245855,
		"lr_decay": null,
		"metr": "euclidean",
		"momentum": 0.6,
		"reg_type": "l2",
		"staircase": false
	},
	"train_params": [],
	"weights": [
		[
			[
				2.9577517596267745e-05,
				0.0002594809952654322,
				-0.0001731453789558865,
				7.416311973088897e-05,
				3.8846731314853876e-05,
				0.0003509963515113839,
				-0.0008121370134134301,
				-0.00036965258230569687,
				0.0006171734106760181,
				0.0008926683009905965,
				0.000790727499289735,
				-0.0008620458053303279,
				0.0006078939403957003,
				-3.237746800443912e-05,
				-0.000310420933280972,
				-0.00031976634118686834,
				-0.00018404582748303053,
				0.0008443730582750296,
				-0.0009622584143194795,
				-0.00010013049593731902
			],
			[
				6.000145807355029e-05,
				0.00020097840978897954,
				-0.00013282385465871837,
				8.252862843051282e-05,
				-2.5835950383552983e-05,
				0.0008763511472306945,
				0.0002577561360274179,
				0.00035907190903893146,
				0.0003938321814737026,
				0.0005403805376617522,
				0.0009285453386057409,
				-0.0007623491704892245,
				-0.0007255277776803569,
				-0.00028409399529469195,
				-1.9212041060548846e-05,
				0.0006062144674759782,
				0.00034742190089179985,
				-0.00021048913841594354,
				0.0007842070418811438,
				-0.0005135863897107907
			],
			[
				-0.00032844462403970815,
				-0.0005006662652828389,
				0.0004675365548244188,
				-0.00014812669553054868,
				-0.0007677937965055388,
				-0.0009393892776106603,
				-0.0006301229914737427,
				-0.0007995100612209069,
				0.0006900459012543166,
				-0.0005404242568262717,
				-6.854333490286164e-05,
				0.0008456895689007435,
				-0.0008983069140352216,
				-0.00016247800421890753,
				0.0006159117668650712,
				9.972455731795181e-05,
				-0.0005159519347966106,
				-0.000925156738772646,
				-0.000941803590879834,
				0.0001789197844953448
			],
			[
				0.0004360972354251534,
				0.00029702683936341074,
				-0.00017941434527213903,
				0.0006872206656661967,
				0.0008257230172908376,
				-0.00048727631491199766,
				0.0007771364695482118,
				-0.0001490372234675295,
				0.0006121198060144964,
				-0.00027030056896668953,
				-0.0008336497323940817,
				0.00034184183465520526,
				0.0006785372921340421,
				0.0008473487956811034,
				0.0009731191686172913,
				-0.0001341886172871767,
				-0.0005953951888706011,
				0.000578431854450118,
				0.0008712486784029964,
				0.0008939761075676188
			],
			[
				-0.00030931021170677324,
				-0.0007787758572700814,
				0.0008492517798613349,
				-0.0009356336280729216,
				-0.0009129724334575855,
				-0.000122392784093017,
				2.1948007696541254e-05,
				0.00044974724153168605,
				-0.0008291324884583995,
				-0.0007357413911999675,
				0.0006898561026520784,
				0.00026675103560596996,
				-0.0009411242820304184,
				0.000548962462527952,
				-0.0006012771718996668,
				0.0009927005468145012,
				-0.0007320879875886932,
				-0.00040082062382281846,
				0.0007260484108107558,
				0.0005169513273036981
			],
			[
				-0.0004923063401110075,
				-0.0008729045907160096,
				-0.0003952798260717285,
				-0.0008887058602261812,
				0.0008915223341376139,
				-0.00016874329918772338,
				0.0007439089770473978,
				0.0006554985093224356,
				-0.00026031971595473946,
				-0.0007850148505105694,
				0.0003298690110845124,
				0.000226634769951696,
				0.0006459019988868423,
				-0.0006427093481613553,
				0.00022849584259205234,
				0.00019203713482835176,
				-0.0009390017815385923,
				-4.71759848185429e-05,
				-2.8725235084876974e-05,
				0.0008359162916754116
			],
			[
				-0.0008321681756571953,
				0.0007117845234175042,
				-0.0009823723523220075,
				0.00018688011618447908,
				0.0007252365555047904,
				-0.0005901821670376377,
				-0.0009772443718883649,
				-0.0009351839907692774,
				-0.000245491765078623,
				0.0007945628331234298,
				0.00030211759693898627,
				-0.0008280362935006684,
				0.00012693495470826057,
				0.0002546771943390334,
				5.733152840344327e-05,
				0.0008810112948614657,
				-0.0003092002562570806,
				-0.0009770766069462907,
				0.0009081991274044307,
				0.0005652846383880931
			],
			[
				0.0006167775195497294,
				-0.00018263671363473336,
				0.0006266346063131976,
				-0.00022610985948937708,
				-0.0007396334653860174,
				-0.00032444837732353024,
				-0.0007110187891340718,
				0.00034748172299237014,
				0.0009265020717940228,
				-0.000512057443205623,
				0.0009872676238194909,
				2.096226856702259e-05,
				4.4042593546393454e-05,
				-0.00029111671730377325,
				0.0009678925129642632,
				0.0007555560531767502,
				-0.0008889904734138249,
				0.00013790876121047265,
				-0.0005991672704791729,
				-0.00041232599325286207
			],
			[
				-0.000125550792505617,
				0.0006600831478788783,
				-0.0002527242117909607,
				0.0003745282947921365,
				-5.850401677263582e-05,
				0.0005709087402026552,
				-0.0008983622467903128,
				0.0007691657170721419,
				0.0004615622251841259,
				0.0007339398835751972,
				-0.00042150092309234724,
				0.0005978849564140199,
				0.0009876150500554809,
				0.0005597430090654701,
				-0.0005531745814627615,
				-0.0008983676066668864,
				0.0007511327469294118,
				-4.135645152855271e-05,
				-0.0006411100400522912,
				-0.0004136755150194835
			],
			[
				0.0002238071248037946,
				-0.0004973113357261802,
				0.0009413971100016437,
				-0.0006942820320927448,
				0.0002994093609589698,
				0.0005916844934529238,
				-0.0008556254558871124,
				5.142086216614397e-05,
				0.0006117022254007191,
				0.0003476656317475844,
				-0.0002837271113033784,
				5.92362910630871e-05,
				0.0009042131571790121,
				0.000930707789578116,
				0.0007311760604732124,
				-0.00021347135117925832,
				0.0005433718828439914,
				-0.0008420484253979279,
				0.000623215941387418,
				-0.0007168019552737739
			]
		],
		[
			[
				0.0008132815366539694,
				0.0006608875755116333
			],
			[
				-0.0008383602088476674,
				-0.00065009890446061
			],
			[
				-0.0004400783807533773,
				-0.0009963530568774543
			],
			[
				-0.000442174164410438,
				0.000895764811910497
			],
			[
				-0.0005279650546449659,
				0.0006880354456708037
			],
			[
				-0.0005025362292283136,
				0.0005998116221771696
			],
			[
				-1.6985817966984253e-05,
				-0.0002415096271076733
			],
			[
				0.0003374593484464748,
				0.0005513412380702316
			],
			[
				-0.0003149790523555953,
				0.000850293385570935
			],
			[
				0.0005180205223117172,
				0.0007429147569304986
			],
			[
				0.000704705377315632,
				0.0002523402821362733
			],
			[
				-0.00011931774125827532,
				-0.000730283221292318
			],
			[
				0.0006447052346861349,
				1.1365067309643045e-05
			],
			[
				0.0009959741087668503,
				-0.0007397270543301575
			],
			[
				-0.0007174459843993883,
				0.0002651365964779478
			],
			[
				7.724041654044765e-06,
				0.0007706280551786166
			],
			[
				-0.00036152237838822025,
				-0.00040363590412961585
			],
			[
				0.0005672091949157233,
				0.0004104959426129162
			],
			[
				-0.0002378765476811986,
				-3.15275779491273e-05
			],
			[
				-8.218084040452207e-05,
				-0.0004344600907133971
			]
		]
	]
}