{
	"model_params": {
		"input_dim": 10,
		"units_per_layer": [
			20,
			20,
			2
		],
		"acts": [
			"tanh",
			"tanh",
			"identity"
		],
		"init_type": "uniform",
		"batch_size": 91,
		"decay_rate": 0.95,
		"decay_steps": 500,
		"epochs": 150,
		"lambd": 0,
		"limit_step": 500,
		"limits": [
			-0.001,
			0.001
		],
		"loss": "squared",
		"lr": 0.007185958238678252,
		"lr_decay": null,
		"metr": "euclidean",
		"momentum": 0.7977428112252327,
		"reg_type": "l2",
		"staircase": false
	},
	"train_params": [],
	"weights": [
		[
			[
				0.0008827604373964671,
				-0.0002091727707068101,
				0.00014141634205198169,
				-0.00047037437219577894,
				0.00023395459219785128,
				0.0004172199192638245,
				-0.0007094302599966311,
				3.011655537399848e-05,
				0.0009127893278672711,
				0.0008782176019475575,
				0.0007487262698215856,
				-0.0003742724041614962,
				-0.0006493526206478948,
				-0.0005063620071796666,
				0.00030983713894330704,
				-0.0009144567185411789,
				-0.0004710760475031963,
				-0.000768285370985062,
				0.0009660812863661059,
				0.000864458185092426
			],
			[
				-0.0005393817434149657,
				-7.917246049836282e-05,
				-0.00048442115759327737,
				-0.0005100823737128264,
				-0.000980630905437437,
				0.00032740954802471314,
				0.0007167150270622276,
				-0.0008416193494431678,
				-0.0008743638415249524,
				0.0005306848370787924,
				-0.0005188145665606437,
				-0.0007139712195078833,
				0.0009074403174486503,
				7.638247132803959e-05,
				-0.000940788370484464,
				0.0006544404330927915,
				-0.0005534772913260034,
				-0.0009975698869170348,
				0.0006040935148061591,
				-0.0004387806195134225
			],
			[
				-0.0007756921918041974,
				-0.00014990889006390206,
				0.0008246848596096443,
				-0.00045489889771945413,
				0.0006368836739240043,
				0.0006001897968292268,
				-7.205512651515546e-05,
				0.0008443444246115604,
				0.0008599370460715251,
				0.0007320705423644982,
				-6.947275992886951e-06,
				0.00011118425419233001,
				-0.00036457896966697546,
				-0.00020999701266033563,
				-0.00019299542416837312,
				0.0002973626364470932,
				0.00014532606338262108,
				-0.0005651800337515543,
				-0.000586412218887937,
				-0.00014914500757731686
			],
			[
				-0.0008486912392883792,
				-0.0004577955095174107,
				-0.0008838138930411745,
				-0.0004180668361398306,
				0.00010942462570494348,
				5.987520280629176e-06,
				0.0009006415498239034,
				-0.00021254936151661387,
				0.0005281841184145333,
				-4.567860295242633e-05,
				0.00021302653988463489,
				0.0006092161858773223,
				-0.0005624893290147757,
				0.00047838137731446716,
				-0.00023424650063523327,
				-1.9187887166629593e-05,
				0.00042151380287207274,
				0.0008631507685331458,
				0.0007185731300910563,
				-0.00028743166600176035
			],
			[
				-0.0007154082210447954,
				-0.0002675009857377093,
				-0.0009292488890766096,
				-0.0004567142826078054,
				0.0007910802713619156,
				-0.00030887906362863987,
				-0.0009618308163179041,
				0.0006064263002420276,
				0.0008500768197899134,
				-0.0006887071101821185,
				0.00010982357487719814,
				-0.0005032366475955518,
				-0.0002674533134766566,
				4.951441974173406e-06,
				0.0003826325848390916,
				-0.0005041849567834218,
				-0.00012390235477438268,
				-0.0007332288773348264,
				0.0005763997735602072,
				0.0009584383284678608
			],
			[
				-0.00020833529833861068,
				0.00054452303895652,
				0.00040871188103698054,
				0.0006490712797762356,
				0.00012913345721934813,
				-0.0003527960145806657,
				0.0008585595020937781,
				-0.0007426934041808054,
				0.0004323924696214903,
				-0.000606831281558214,
				0.0009481731823516714,
				-0.0008989605622262687,
				0.0008573909272808985,
				0.0005897987835829161,
				0.000876345453908269,
				0.0005756422503449914,
				0.00019302729461092996,
				-0.0002703918839536497,
				0.0002320101150370599,
				0.0001396765908504966
			],
			[
				-0.0004478777628508883,
				0.00034882139116340855,
				-0.0007692958328827718,
				-0.0005803651534617453,
				0.0008633027376634894,
				-0.00021844613679329042,
				0.0006332705612255246,
				0.0004433793452763145,
				-0.0006521686312203868,
				0.0006663839057851561,
				-0.0003942362092510661,
				-0.00016662831270600447,
				-0.0009712211696573156,
				-0.0002643237137742667,
				0.0009351434157055781,
				0.00043929605097719473,
				-0.0006175385801416573,
				-0.0007849261929875271,
				-5.9873349133622946e-05,
				-0.0006662951809264669
			],
			[
				-4.6706902957991455e-05,
				0.0005534308470497666,
				0.00017016518710293504,
				-0.0004735130209227676,
				0.000601231890337848,
				9.174812689956638e-05,
				-0.0007288406827078094,
				0.0007169346768093811,
				-0.0004368235469735778,
				-0.00025156237470151926,
				0.0008808069803303662,
				-0.0006590042490448597,
				-0.0007981388120870323,
				-4.2756410254740466e-05,
				-0.0007127850873154828,
				0.0008332682798812289,
				0.0008827593967479417,
				0.000334088038297594,
				-5.9098261835340135e-05,
				4.855580649850821e-05
			],
			[
				-0.0004296064521771048,
				-0.0005852018990389269,
				-0.00028816129807274747,
				0.0001830106022251421,
				8.952787264901061e-06,
				0.0006743662681630263,
				0.0009515109439000061,
				-0.0002875545995094258,
				-0.0009771704672016381,
				-0.0008466083343407552,
				4.311317559053322e-05,
				-0.0004542939966118831,
				0.0005495359053719773,
				0.0005222414860260626,
				-0.00031153835041731635,
				0.00023972398067823573,
				0.00040885437131922726,
				-0.0002742435316996103,
				0.0006238891701569186,
				-0.0005691303683973397
			],
			[
				-0.0009706676608874744,
				0.0009185134888203233,
				-0.0007434739945359173,
				0.0003604985018765491,
				0.0003771419352656398,
				0.0006698214806384725,
				-0.0007824467091566627,
				0.00011121072863350926,
				-0.0008888926357126894,
				-0.000517178850922669,
				0.0003293315099610497,
				-0.0007060387942565062,
				0.0003237486911040839,
				0.00021098119161262188,
				-0.00022645965226842832,
				0.000205896796701206,
				0.0009752779620789661,
				0.0006116436588251921,
				-0.0004271829251542989,
				-0.0006986480829129402
			]
		],
		[
			[
				7.058129562620267e-05,
				-0.0005334863614989956,
				-0.0005845560205013007,
				0.0006410256842127816,
				-0.00048526564373209153,
				3.230327230863681e-05,
				-0.00014611019425487442,
				-0.00021528731012392653,
				-3.221082708765332e-05,
				-0.0005144583106109362,
				-7.825002840891083e-06,
				0.0006721127500483534,
				-0.00040472966317756304,
				-0.0006434005473738418,
				-0.00032371847473541913,
				0.0009943881074312958,
				0.0008156449968636324,
				-0.00046775023769512016,
				-2.3101934000181647e-06,
				-0.0008969036728903859
			],
			[
				-0.0008750872296288115,
				-0.00032550530080526397,
				-0.000843043414497225,
				0.00010341790341381052,
				-0.0006619338757680633,
				-0.0009684999229003872,
				0.00010840901523324529,
				0.00017140803943594025,
				0.0005550704677734287,
				-0.0003192445002706181,
				-0.0005562542356234823,
				-0.00042754467653128626,
				-0.0007545076112587488,
				-0.0007732553519848264,
				0.00036022791494159717,
				-0.00012279389880329639,
				-0.0009565999122033184,
				0.00016341459728541662,
				-6.241438968738523e-05,
				0.0001873804905079652
			],
			[
				0.0004979039198422768,
				-0.0007996597628599574,
				-0.0003499978472303986,
				-0.00020923066625180885,
				5.127387833050588e-05,
				-0.00035325934132865466,
				0.0008949499516768121,
				-0.0006117258817888872,
				0.0003553585947642438,
				0.0009548621082662956,
				0.0002303106422480636,
				0.0003976717672250804,
				-0.0006501470993674826,
				0.00022806152254473936,
				0.00021672764867545526,
				-5.4646422265846955e-05,
				-0.0005981634551636266,
				0.00010540879420695582,
				0.00018983741359148852,
				-0.0004204461610910204
			],
			[
				-0.00018127706646904108,
				-0.00023839361352426323,
				-0.0007340227286882948,
				0.0009041980364916293,
				-0.0008985348192471987,
				0.0009160286565611843,
				-0.00019937647187099987,
				0.000785762819942298,
				-0.00044530658740281814,
				0.0002694329139385696,
				0.00032115565564482993,
				-0.0009651422864830591,
				0.0008815885779013578,
				-3.0842304867016506e-05,
				-0.0001181861306619068,
				0.0003501056801762468,
				-0.0007918783139621437,
				0.0007242723353776679,
				-0.00013326974118629397,
				0.0003508231670218869
			],
			[
				-0.0008027055350775292,
				6.709632296032081e-08,
				0.00038706861303334475,
				0.00039484375850915975,
				0.0006678620527763137,
				2.1413102813401096e-06,
				-0.00039503596976047815,
				-0.00018454561543134428,
				-0.0001996333795868839,
				0.00047659218733545755,
				-0.0004143393104324948,
				0.0008591218454460558,
				-0.00010407177207405721,
				0.0006879302924349033,
				0.00023767480733896825,
				0.00029704165621307005,
				0.00031533842841262706,
				0.0004072861635418322,
				-0.00018962221828051006,
				-0.0009018534186812504
			],
			[
				-0.0003701846839262961,
				-0.0004589073367520333,
				-0.00010640252604419303,
				0.0008184049561191778,
				-0.0008925276051998867,
				-6.883441163931957e-05,
				0.0007783849487332994,
				-0.0008365639115741148,
				-0.0007442728591374977,
				-0.0005612459562477674,
				-0.00014470338286828887,
				0.0008588116769445019,
				-0.000784136864128475,
				0.0002482610970621086,
				-0.00010011340993512619,
				-0.000680428135328294,
				-0.00026060396266679555,
				0.0008836148306033602,
				0.0004774555908025951,
				0.0007346990141170412
			],
			[
				-0.0009361665809563839,
				0.0009444488001813221,
				0.0003782867102616746,
				0.0004548431419659849,
				-0.00028838881389635796,
				5.431764386662984e-05,
				-0.0009700499142280552,
				-0.0003914212291788417,
				0.00021819111022947308,
				0.0003932441932304894,
				-0.00023250421279641192,
				0.0006483727260756785,
				-0.0005051213690336029,
				-0.0003148923133141037,
				-0.00020298223646908562,
				0.0007405629239949415,
				-0.0007144816995912156,
				0.00020970653874100107,
				5.556097180466676e-05,
				-0.0009880095048881374
			],
			[
				-0.0006687241434976354,
				0.0006854413126563929,
				0.0002476227894552469,
				-0.0007972222407780329,
				-0.000594716322772364,
				-0.0006595999487313571,
				0.000920703809647299,
				0.0003156887802420701,
				-0.0009082833434088586,
				-0.0005312174380360441,
				-0.0007395420576781256,
				-0.0006030793714600423,
				-0.0003508625506776495,
				0.00020886441125823126,
				0.0005160707637119801,
				-0.0001613936248343619,
				-0.0002642340236384291,
				0.0009186677732723192,
				-0.0001962086863581447,
				-9.904987411591228e-05
			],
			[
				-0.00014758361019848155,
				0.0003279371634265617,
				-0.0006763482282648301,
				-0.00038665418476656495,
				-5.5362018903483586e-05,
				4.048228612363552e-05,
				-0.0008732239259261587,
				0.00013974037043686105,
				-0.0007608686792871867,
				-0.00018705504184399245,
				0.0003069950180107947,
				0.0006481948290147676,
				-0.0005466729512153649,
				0.00034602082708747517,
				-0.0006901918551727438,
				-0.0006985370492650466,
				-0.00027790194885976647,
				0.0009304611384541117,
				0.0006300831326510104,
				-0.0005246762802245723
			],
			[
				0.00019657789511513249,
				-0.00018388867243316568,
				-0.0005713734477794614,
				0.0007559189406895147,
				0.00012513217029359652,
				-0.0007029445219043709,
				0.00015638064825577677,
				-0.0009113812461716879,
				0.0006167867721543244,
				0.00011607933337985784,
				-0.0009947529035397662,
				0.0008073171539367697,
				-0.0007741789777585253,
				0.0005805626432400929,
				0.0003083763794410673,
				0.0006189419988657629,
				-0.00023832671255036124,
				-0.00039973943521368516,
				0.0008695889169877185,
				-0.0008593014425469967
			],
			[
				-6.74315590355537e-05,
				0.0009717479145415105,
				0.00011266498083096176,
				0.0007783452375074423,
				-0.0003642586049423357,
				-0.0005614836320369531,
				-0.0003226115789177886,
				0.0007233404045938611,
				-0.0003409989242488372,
				-0.00023255843252838334,
				0.000169216886943183,
				0.0007684764383708712,
				-0.0004297380182446904,
				-0.0009400156945283418,
				0.0005215341307310821,
				-0.0007852310203317548,
				0.0005554992262198609,
				-0.000801891314371926,
				-0.0008382369287524585,
				-0.00052497749367849
			],
			[
				0.00014451308736813137,
				0.00044260348418536863,
				0.0005436214091703374,
				-0.00048474890393620206,
				-0.0001611488494623292,
				-0.0005501364351316875,
				-0.0007456880909077503,
				0.0007239356782793799,
				-0.00022569601649029996,
				-0.000861840837595278,
				-0.00023881775160269328,
				0.00017871191630896405,
				3.862192047434472e-05,
				0.000395188744237569,
				0.00015843685481659584,
				0.0005372308796915257,
				-0.00046165505293943793,
				0.0002962106552263865,
				-0.0003571868623889565,
				0.0005038174777752297
			],
			[
				0.00026994671871891475,
				8.051150732362226e-05,
				-0.00021591958019999023,
				0.0009407075829301944,
				-0.0005940947379445439,
				0.0007161277284843434,
				-0.0006617392696784592,
				-0.00013621315381844837,
				-0.00036653154985199143,
				0.00035105125370431733,
				0.000973966640726796,
				4.7387940466615906e-05,
				0.000633531441599949,
				-0.00015913170430251135,
				0.0004891007784493602,
				-0.00035626806485110514,
				-4.214423022616065e-06,
				-3.216539965939088e-05,
				0.0005747832527488296,
				-0.0008742279452508961
			],
			[
				0.00012287504609677174,
				0.0004919939067858257,
				-0.0006530907168357323,
				-0.0006059325182848017,
				0.00039650567136242953,
				-0.00036455637387642107,
				-0.0005342600592584435,
				0.0008043738912381462,
				0.00010011198893926593,
				0.0006021069277284069,
				-0.0009192506609237783,
				-6.830438138233613e-05,
				-0.0009428167910079157,
				0.0009109447301515999,
				-0.0008832278290032696,
				-2.0167583587414042e-05,
				-8.96506457651481e-06,
				-0.0008347599467188613,
				-0.0005985940818456271,
				0.0005948678447568801
			],
			[
				0.000909351242868395,
				-0.0005282801235934842,
				0.0005097014679872648,
				9.716229482336952e-05,
				-0.0009856473172139113,
				-0.0003449738310259432,
				-8.462762174765357e-05,
				-0.0003342823397975965,
				-0.0006314225811679908,
				0.000315595524792843,
				0.00013651331883880345,
				0.0008746803795431565,
				-0.0009214367454437349,
				0.000907121655480214,
				-0.00048405516692524885,
				-0.0005492102874924685,
				-0.0005627892510101049,
				0.00026205567543497073,
				-0.0006821457465777546,
				0.00024837915662278263
			],
			[
				-0.00013873815604105607,
				-0.00011871245111688179,
				-0.00031538039455148174,
				-0.0005518838696173551,
				-0.00056095594856971,
				0.00035848728707141937,
				2.3162995639721025e-05,
				-0.0007596935110003964,
				-0.0009990496327159108,
				0.00013917411611496003,
				-0.0005674642136414482,
				0.0007716379038631269,
				1.6696138633025704e-05,
				-0.00033924441812898797,
				0.0009672032907572419,
				0.0004345913386697045,
				0.00044004327603562707,
				-0.00015280424293934863,
				-0.00039859357103456917,
				-0.0006993781833335609
			],
			[
				0.0008561261459571878,
				-0.0004761806216738707,
				-0.0007736991780998488,
				-0.00016114721766285372,
				0.0008822873532496824,
				0.0005906837413153961,
				0.0003826838262870698,
				-0.0007721833125884035,
				0.00011253670035276634,
				0.000879281234323093,
				0.00038201458086770134,
				-0.00025512632738095855,
				-0.0007339751483788331,
				-0.00048567222604762694,
				-6.358459956522905e-05,
				-0.0009538721246995598,
				0.00027559798818047195,
				-0.0008595935683070033,
				-0.00023535991950507926,
				-6.4774925195811e-05
			],
			[
				0.0001571055061789159,
				-0.0008833200363855232,
				0.0001667250438823261,
				0.0009214894923744981,
				-0.0009302454417354167,
				-0.0004515722703467706,
				0.00041433639012195033,
				-0.00041009055073524744,
				-0.00018049950931437223,
				0.0008450279521251102,
				5.213549895753656e-05,
				-7.252525073574807e-05,
				-0.00017161789143780952,
				0.00027649217222063547,
				0.0009441876977669217,
				-0.0003365329821559133,
				-0.00032732155243832327,
				8.833274143254556e-05,
				-0.00036001518728995957,
				0.0008688317733492306
			],
			[
				0.0002446062664934268,
				0.0009293296626956115,
				-0.0008529719044917637,
				-0.00012924393848395615,
				0.0007786702253620018,
				0.0006408830928460222,
				0.0007771494478859301,
				0.00029799470121106186,
				4.3874088373542595e-05,
				0.0007579333504430016,
				0.000713477051017718,
				0.00020073976428805831,
				-0.0004708120671727727,
				-0.0002295884574862421,
				-0.0007401325308885538,
				-0.00022728382450810393,
				0.000987398120827081,
				-0.00021437571094146276,
				-0.00047067189400070645,
				0.0006574216989599204
			],
			[
				-0.0007918003208852728,
				-0.0007013629831325265,
				0.000987547602727068,
				0.0006858880121835434,
				-0.0002221131470600046,
				-0.0006856854129290973,
				-0.0005080662607836397,
				4.4614065117647064e-05,
				0.0007444583779970156,
				0.00011617904380769326,
				-5.874399345207591e-05,
				0.0007358980699379363,
				0.0005035046588914918,
				0.0001984408917228165,
				-0.0005801928001646821,
				0.0002813245695360697,
				-0.00016059541646087493,
				-0.0009214054010295478,
				-0.0008693243931302681,
				-2.4790724364887745e-06
			]
		],
		[
			[
				0.0004286657356522964,
				-0.0007559977674450996
			],
			[
				0.0007584236225221001,
				0.0006293121781478328
			],
			[
				0.0005438476378102676,
				0.0008963388982752363
			],
			[
				-0.0008421369157231531,
				0.0005561663645314357
			],
			[
				-0.00023816235501740435,
				0.00042738347376779077
			],
			[
				0.0007388204854605334,
				0.0009456157875785138
			],
			[
				0.0008952476817246106,
				0.0006998856889924132
			],
			[
				9.707830408352356e-05,
				0.0006051040734216498
			],
			[
				0.0004983243242678928,
				-0.0001371213519569134
			],
			[
				-0.000825197885090789,
				0.0009175198634986065
			],
			[
				0.0009075721532057492,
				0.0004692724356437476
			],
			[
				0.0007019415478931818,
				-0.0004797364125066468
			],
			[
				0.00015707059879489001,
				-1.06897407855318e-06
			],
			[
				-0.00024549304943129364,
				0.0009785307576326806
			],
			[
				-0.0006851022383393929,
				-0.0003771694743151177
			],
			[
				-0.0009251967749210288,
				0.0007983645657134938
			],
			[
				0.000544245621217057,
				0.00023738506480497704
			],
			[
				-0.00013453508891832168,
				-1.4207003057556834e-05
			],
			[
				-0.0007818220093346182,
				-0.0006461937045245086
			],
			[
				0.0007614657063260125,
				0.0009189387689521498
			]
		]
	]
}