{
	"model_params": {
		"input_dim": 10,
		"units_per_layer": [
			20,
			20,
			2
		],
		"acts": [
			"tanh",
			"tanh",
			"identity"
		],
		"init_type": "uniform",
		"batch_size": 91,
		"decay_rate": 0.95,
		"decay_steps": 500,
		"epochs": 150,
		"lambd": 0,
		"limit_step": 500,
		"limits": [
			-0.001,
			0.001
		],
		"loss": "squared",
		"lr": 0.007185958238678252,
		"lr_decay": null,
		"metr": "euclidean",
		"momentum": 0.7977428112252327,
		"reg_type": "l2",
		"staircase": false
	},
	"train_params": [],
	"weights": [
		[
			[
				-0.0003384842398851251,
				-0.00047241662538576935,
				0.00045129495272820436,
				-0.000148888227638843,
				0.0008857773971799672,
				0.000604320317231529,
				6.281186297785201e-05,
				0.0003997871021179805,
				6.119647922666e-06,
				-0.00013462819147423623,
				-0.00027802002093568073,
				0.00041521929910073646,
				0.0002709690400338825,
				-0.0007760457585583268,
				-9.506439311559385e-05,
				0.0004850123412905357,
				-0.00018186270538108197,
				0.0008270729212188032,
				-0.0001136616385418183,
				2.2100665526440973e-05
			],
			[
				-0.0007324926000669187,
				-0.0005059503206447475,
				0.0005079647616974591,
				0.0004151239249005302,
				0.0002643148418517312,
				0.0006681763063166024,
				-0.0006571662046864537,
				0.00033844988122455513,
				0.00015518282759650654,
				-0.0006231550008728304,
				-0.0005899659324250727,
				9.307255398216595e-05,
				-0.000556628640405148,
				0.0008092654986273594,
				-0.0007383851026070689,
				-0.0004940271276298172,
				-0.0001206727167287671,
				0.00027677169531682916,
				-7.460118498420058e-05,
				-0.0008876301347511296
			],
			[
				0.0001633773036085423,
				-0.0008490483417197579,
				0.0007415429014893098,
				-0.0006892035231596935,
				-0.0005039614315968446,
				-0.000548623977909386,
				-0.00093446902572551,
				0.00048655121297523857,
				0.0008742267102589483,
				-0.0006721522159341871,
				5.054613869488289e-05,
				0.00030035636205213165,
				0.0008630803607761451,
				-0.00022360804686242304,
				0.0006664225839523707,
				0.0008054470081992453,
				6.940045501320014e-05,
				0.00040574957630867673,
				0.0009248021845236697,
				-0.00020190191844088258
			],
			[
				-8.30384883720403e-05,
				0.00014339633304505102,
				-0.000177502167139576,
				-0.0002959146667470356,
				-0.0009733527704400394,
				-0.0001902531265320777,
				0.00030445142761240736,
				-1.5141730296717396e-06,
				-0.0002347862447501756,
				0.0009272126343555964,
				0.0008323691752676961,
				0.0002872032357124094,
				-0.0002750240060699239,
				0.000592301972689424,
				-0.0007947285600390044,
				9.994850264705905e-05,
				6.48150465246849e-06,
				8.892767961377035e-05,
				5.0250186735893406e-05,
				0.0009250700247516064
			],
			[
				1.8136559690573595e-05,
				0.000956603234462798,
				-0.0003180733923463597,
				0.0004259263136359116,
				-0.0003513089863493331,
				-0.0006292100460974282,
				-0.0005179492464661502,
				-0.00026166786099367006,
				0.000551930368275025,
				-0.000808181683974778,
				1.4836537460840649e-05,
				0.0001571943788096807,
				0.0007823846972771361,
				-0.0007580142769935261,
				0.0005093781238033794,
				2.0598629601326296e-05,
				-0.00026365414047014983,
				-0.0008627469631519469,
				0.0005853232981607014,
				0.0003494917561854241
			],
			[
				0.0007076765776099527,
				-0.00030188650446090406,
				-0.0009096789759238482,
				5.828497448553743e-06,
				-0.00051600434392971,
				0.0005147235619735561,
				0.0005045398952625484,
				0.0009755994000396292,
				0.0001286411545922486,
				0.0006358318802533543,
				0.0007063098038329035,
				0.0003320064000056288,
				-0.0003043704821786759,
				-0.0008304185095266012,
				-0.0008606302446701815,
				-0.00012807336971395892,
				-0.0001888166539867509,
				0.0009880855101895474,
				0.0003769628919796143,
				-2.159713033442743e-05
			],
			[
				-0.0008946737075808724,
				-0.0009991201095889623,
				-0.0008017115537666874,
				-0.0003992424562752104,
				0.00027012576238266304,
				0.00031073793456998407,
				3.488750352506772e-05,
				0.0009567900232460209,
				-0.000729068371664181,
				-0.000527108500854647,
				0.00043352470757138757,
				0.000152425217578276,
				0.00018206801202732452,
				0.0006091719743180845,
				0.0007968006334921306,
				-0.0006318097235704667,
				0.00034950650280857936,
				-0.00021928116205424762,
				0.0007474474295205682,
				-0.00031904247014659544
			],
			[
				-0.00043188431179863173,
				1.28289909900037e-05,
				0.0004901780175495291,
				0.00011342599134708917,
				-0.0006105587190504012,
				-0.00032116866717151946,
				-0.00016678120184415507,
				0.0006335555589035789,
				-0.0005655924853100647,
				-0.0009805061385364027,
				-0.000526006137309496,
				-0.0008096261568957874,
				-0.0005425331728742438,
				-0.0005429850870313589,
				-2.6780949365596564e-05,
				0.000492712091099612,
				-0.0003901826285657193,
				-0.00038162524668004165,
				0.000424038158092365,
				0.0008802743155553654
			],
			[
				-0.0009532716269029494,
				-0.00038688733634546454,
				0.0007424595015782056,
				-0.000589754771076484,
				0.000547197221239125,
				-0.0009784804324038609,
				7.045132925815266e-05,
				0.0005448297048419658,
				0.0008266096592753575,
				9.858143333847116e-05,
				-0.0007397302511453687,
				-8.548026303758019e-05,
				-0.0007046393756091192,
				-0.00015953348669938338,
				0.0005240863608424486,
				0.00038424565745559655,
				0.00031016537995188077,
				-0.0007209024386900929,
				0.0002267991983693914,
				0.0006019107134514691
			],
			[
				0.0005868244812374146,
				-0.0007976803652675888,
				0.0005696787671457661,
				-0.00022828560374713524,
				-0.0007137979536813869,
				5.1366388930437724e-05,
				-0.0002891929348100402,
				0.0003894312780992179,
				0.0006633528714089793,
				-0.0004574680910852349,
				-0.000710300769904429,
				0.0008076511540363745,
				0.00042371785456225505,
				0.000669730185765937,
				-0.0008601133520349728,
				-0.00016412999527035718,
				0.0001590326606088746,
				-0.0009886467562801025,
				0.0008157297400632451,
				-0.00014084978908807686
			]
		],
		[
			[
				-9.67042333958109e-07,
				-0.00037520109981000903,
				-6.658413797987531e-05,
				-0.0008709234562415546,
				-0.0009533366632728469,
				-0.00019435437534278408,
				-0.0009323534129239715,
				7.669934011453328e-07,
				-0.00042972469817389915,
				0.00046580029408569,
				-0.0002807084888361291,
				8.757489983215669e-05,
				-0.0006879725234876877,
				-0.00059751180094459,
				3.4359909113835727e-05,
				-0.0008330686434136767,
				0.000618470208896822,
				0.0007936199884640131,
				0.00019833009093906317,
				-0.0002769029569654227
			],
			[
				-0.0009265814591257806,
				0.00011702297625280455,
				-0.0006013937324783847,
				7.494934540678666e-05,
				-0.0004754406969465283,
				-0.0007136100601519348,
				0.0006555965590373278,
				-3.31343977502019e-05,
				-0.00047323404718142164,
				0.0005307062961609355,
				1.7020460996908585e-05,
				-0.0006549403421164397,
				7.855925548877658e-05,
				-0.0003426086067744278,
				-0.0004912383506953045,
				-0.00045572421655449397,
				0.0005495577360727334,
				-0.00013320087615545395,
				0.0008607619653200852,
				-0.0002004935890024224
			],
			[
				-0.0007260814835647164,
				-0.0004899951587311597,
				-0.0002185276601341619,
				0.0009641261435671491,
				0.00020551774692595696,
				0.00028999022427928694,
				-0.0008125311681883391,
				0.0007610392060248151,
				-0.0005480413202811811,
				0.000606061186377979,
				-0.0007241874410810869,
				-0.0004052637974894797,
				0.00031786186538151884,
				2.436414433057486e-05,
				-0.0006427618607656787,
				-0.0009775009381102382,
				-0.0007958551654558706,
				-0.0005643410739694044,
				0.0008609086942220608,
				6.95941114283677e-05
			],
			[
				0.0008061571113278422,
				-0.0009747226445011614,
				4.1443049632864824e-05,
				0.00038707244448882533,
				-0.0003623238451160103,
				-0.00016513067584358714,
				-0.0005525297045339669,
				-0.00013893139590756467,
				-0.0003578188578054056,
				0.0002331965648585243,
				0.0001276087083436849,
				0.0005345520004075347,
				0.0006111313410648892,
				-0.0007949760525859515,
				0.00039936716916960896,
				-0.0009151550140799492,
				-9.249490375064532e-05,
				-2.8934975391275118e-05,
				-0.0008581080833441686,
				-0.0007742332799906773
			],
			[
				-0.00027134980893035764,
				0.00022884775153990118,
				-0.0005982812034497468,
				0.0007391773926640668,
				-0.0004591996330758681,
				7.136151155388913e-05,
				0.0009813896219870925,
				-0.0008761828604097895,
				0.00016476772154086906,
				-0.00010744806212293083,
				-5.23937484421137e-05,
				0.0006294658097906003,
				-0.000369113020979158,
				-0.00030743009939955025,
				0.0006158665957510499,
				0.0006103324298661332,
				-0.0004558155545274252,
				-2.8736519739710055e-05,
				3.934512655043277e-05,
				-0.0005332326348172953
			],
			[
				0.00030717472155594684,
				-0.000405189237182779,
				0.0007483936748880176,
				-0.0002403025494581867,
				0.0004329896368803724,
				0.00062911985017582,
				0.0007597511385268223,
				-0.000495971781354235,
				0.0009083241691184322,
				-0.0006000852004360371,
				-0.0006911436498398034,
				0.0006954461978916095,
				-0.0009018639417096988,
				0.0003628971848962852,
				0.0005513560041961554,
				-0.0005948987419578658,
				0.0005800838609531945,
				0.00033699948796264874,
				0.0008902787795089322,
				0.0008738517906818769
			],
			[
				-0.0006753244564961747,
				-0.0006277637348435392,
				-0.0006894201606068785,
				-0.00028984463018118527,
				0.0002932688231681946,
				-0.0004769825420019089,
				0.0005815461953914758,
				0.0003810022612880633,
				0.000696345884372268,
				0.0009780335234685785,
				0.000741156482165067,
				0.00018889518711996223,
				-0.00017415623814811718,
				-0.000979891762518033,
				0.0008239179778635512,
				0.0007255347211805045,
				0.0009088873704441434,
				-9.599045710727782e-05,
				0.00010207327931861018,
				0.00038994842868445793
			],
			[
				-0.0008550380544784204,
				0.0006728019409088018,
				0.000782081432442958,
				-3.11915820163138e-05,
				-0.0002781459284033523,
				-0.0006087007968282086,
				-0.00066720292067314,
				-0.00017789691687234658,
				0.0006847669281005327,
				0.0003614729168611667,
				9.604539465736745e-05,
				0.0003402910886803399,
				-0.0006244628690610893,
				-0.0002784499072032351,
				0.0007351750748685268,
				-0.0008864240384662738,
				-0.0009123142435629293,
				0.0006648194868688116,
				-8.03787761761445e-06,
				-0.0008785196391146839
			],
			[
				-0.0006815010991860564,
				-0.0008733993730687868,
				0.0005776839102461682,
				9.989546854741117e-05,
				0.00087791138079971,
				-0.0008976406570420408,
				0.0006282557189905274,
				-0.0007196048356739012,
				0.0009678501420715482,
				0.0009424786665531244,
				-0.0005800630923702625,
				0.0003615215419505186,
				-0.0008138409543903811,
				0.0006148608264786965,
				-8.780181143896071e-05,
				0.0009175293700257306,
				-0.0009364497099781362,
				0.0004923763113631502,
				0.0008613059162238628,
				0.0006895878114154654
			],
			[
				-8.425501056044454e-05,
				0.000958054668293404,
				-0.0008605931231205918,
				-2.7355241406747523e-05,
				0.0007065827715254172,
				-0.0009398245746466477,
				0.00011815383455609087,
				-0.000300791798143476,
				-0.0003239204464574783,
				0.00011644333642595516,
				0.00022465058932748944,
				-0.0005407874326616552,
				-0.0009818562497398335,
				0.0008092208278348795,
				-0.00011159632494208436,
				0.00014908862732870907,
				-0.000573857463175345,
				-0.00010946604869877842,
				0.000609190677010723,
				-0.00032663849731595326
			],
			[
				0.0007563476427609455,
				0.0002673564533249165,
				-0.0005553748507459195,
				-0.00035715383051904647,
				0.0009306785173704491,
				-0.00018518827374814338,
				0.00043301752468441696,
				0.0008472611436129919,
				-0.0007436741418980537,
				-0.0008949664225096193,
				-0.0004382541327871052,
				0.0001819962268835584,
				-0.0007793264845204493,
				0.0008914617553713135,
				-0.0009291137816851935,
				-0.000979674893039314,
				-0.0001753720539992618,
				-0.0008338091716917471,
				-0.0006264140073735259,
				-2.9030633646056616e-05
			],
			[
				-0.0004899626918370169,
				-5.6781424528391496e-05,
				0.0004118389366732861,
				0.0006949541990956018,
				-0.0006325381142086173,
				0.0009955760679351772,
				-0.0009341637687998488,
				-0.0009110082960547867,
				0.0002564744127712016,
				-0.00029027932608798436,
				-0.0006602494792298495,
				-0.0002957922381736025,
				0.0008842338227735063,
				0.0004939900360859226,
				-0.00048802166659486887,
				0.0006637009393828954,
				-0.00010486464506873267,
				-0.0005608595070871107,
				0.0006564683713947337,
				-0.0003278983148050199
			],
			[
				-0.0005722119224240224,
				-0.00027773055603043547,
				0.0004342811275406921,
				0.0006366257888917736,
				-0.0002587208528257479,
				-0.0003283620802987917,
				-0.0008131291648587553,
				-0.0006887636597540749,
				0.00016564942205576482,
				0.0009657571039749951,
				-0.0004583405714344979,
				-9.986177491729583e-05,
				0.0006952424917260323,
				-0.0004169999681235936,
				-0.00010355750428206868,
				-5.306930325269237e-05,
				0.000530412633979966,
				0.0008867633797173689,
				0.0006922630027864282,
				-0.00042029385762342255
			],
			[
				-2.8690069439459226e-05,
				0.0005355485045604941,
				0.00021571916218664135,
				-0.00018018997166762188,
				2.5648521724714072e-05,
				5.23443959908154e-05,
				0.00011223805865361773,
				-0.0009811838699907542,
				6.740263640770392e-05,
				0.000502106390698891,
				-0.0005870135565888663,
				-0.0009173744005267948,
				-0.000800848616397052,
				-0.0005835369770755658,
				0.0009832749095033187,
				6.360818385701397e-06,
				0.00024781569350209773,
				0.00014402797557865597,
				-0.0004696641238834769,
				-0.0003258245562188193
			],
			[
				0.0006315436884658148,
				-0.000945415954872666,
				0.0009214056515204937,
				0.0002173033515482925,
				-0.0008674780414522228,
				0.00011477680725922824,
				0.0004363964710736455,
				0.0003989520273335451,
				9.1265672349189e-05,
				2.4755581261633446e-05,
				-0.00035415252380401995,
				0.0001989761285643599,
				-0.0003147248699827157,
				-9.771081523481584e-05,
				-0.0008647405503435035,
				3.492097924401782e-06,
				0.00034820737367028927,
				0.0009172812341910663,
				-0.0006863538701620078,
				-0.0008035495383950975
			],
			[
				9.345742525907483e-05,
				0.00022141125256782573,
				0.0008706605508176273,
				-0.0008492044534119532,
				-0.00026984174716808786,
				4.3182114847474746e-05,
				0.0008674664044059318,
				0.0007882006631243638,
				0.00039935503373742854,
				0.00018415674988953978,
				0.0006769555898555458,
				6.479792348163503e-05,
				0.0008706073853238245,
				0.0005253772588282538,
				-0.0005859957822116297,
				-0.0006383472672137889,
				0.00018506935478496567,
				0.0006645782803643748,
				-0.0005104004082224363,
				-6.161387738529568e-05
			],
			[
				-0.0007797287025152227,
				-0.0009511013622334275,
				0.0005816529192102283,
				-0.0009891511428829,
				0.0004425966544016884,
				0.00044825709941756844,
				-0.0006134260291711102,
				0.00011441408251850133,
				-3.9882200218270655e-05,
				0.0006311491395793614,
				-0.00044725972341428364,
				-0.0003300556956371889,
				0.0006076019452950787,
				0.0008943479923324384,
				0.0006598257715160617,
				-6.753022117567055e-05,
				-7.935274859025877e-05,
				-0.000549629329571506,
				-0.0005684058896397554,
				0.0006998824815324736
			],
			[
				-0.0003965016640592138,
				0.0008085539407444097,
				0.00045226848778567603,
				-0.00044157158393388343,
				0.0002932286762674177,
				0.00044430787637023887,
				-0.0008515489458448298,
				0.0009967227145964794,
				-0.00041995289684722574,
				4.9210738989556016e-05,
				-0.000870230583223902,
				0.0009660016196733974,
				-0.0007993827228384679,
				0.0008997301881368766,
				-0.0007724484237165794,
				-0.0004290969396102375,
				4.286320600441337e-05,
				0.0009640850094242044,
				-0.00011906097409870766,
				0.0008533700558142989
			],
			[
				-0.00035769292288930995,
				0.0008993766635395672,
				0.0008182968191653352,
				-0.0009534643407489347,
				0.0004143073952628006,
				0.0006963971006332019,
				-0.00032258005087319925,
				-0.0005825431821758762,
				0.0009048444068989504,
				0.000897344256544682,
				0.00010086826567359537,
				-0.0003482266082368733,
				0.0008777920640938137,
				-0.0003712651862499124,
				0.00055163706827408,
				-0.00020574625959222188,
				0.0004957337426056796,
				-0.00014946309744094102,
				-0.0005683964824289072,
				6.442634640103158e-05
			],
			[
				0.0009912871389630147,
				0.0009470053043825076,
				0.000588616480114295,
				-0.0005625122148298245,
				-0.00013987028851425486,
				0.0007183583884466779,
				-0.00048372688010002093,
				-0.0006466597577546463,
				0.000452438214662674,
				0.00021930912208590865,
				0.0007055391728231439,
				0.0007426361245999821,
				-0.0005705247303543543,
				0.000966336212515856,
				0.0007736728947538554,
				-3.573686508064446e-05,
				-0.000893676899495657,
				-0.0002816295229504475,
				0.00037965260071755433,
				-0.0002652727275761728
			]
		],
		[
			[
				0.0009890183277318238,
				-0.0005509390571701476
			],
			[
				0.00026751144360882286,
				0.0009234651751285454
			],
			[
				0.000627317295415497,
				0.00019679395196099832
			],
			[
				-0.0008086153486162362,
				0.0006098292903272847
			],
			[
				-0.0006440442938673541,
				-0.00035024657804447103
			],
			[
				-0.00037757639390193366,
				-0.0009744689580173081
			],
			[
				-0.0005828467822916628,
				1.3640112393449675e-05
			],
			[
				-0.0009853436067758295,
				1.4181670533691985e-05
			],
			[
				-0.0006333882750056143,
				2.1439894159874882e-05
			],
			[
				0.0005907396245818778,
				-0.000516551861109426
			],
			[
				-0.00016215348828682542,
				0.0007063107441630961
			],
			[
				0.000971823525736239,
				-8.597498766970096e-05
			],
			[
				-0.00014862181027887518,
				-0.0007520488388185935
			],
			[
				-0.0001855556550817021,
				-0.000392267979201997
			],
			[
				7.541641415428966e-05,
				0.0007712214075313081
			],
			[
				0.00035842272185311,
				-0.0008339675225646583
			],
			[
				0.00018006651235086247,
				0.0002249949493180626
			],
			[
				0.0009007161392389784,
				0.0004675179379867809
			],
			[
				-0.0003795602251393615,
				0.0007070021942733632
			],
			[
				0.0009411363453653901,
				-0.00045949120107019264
			]
		]
	]
}