{
	"model_params": {
		"input_dim": 10,
		"units_per_layer": [
			20,
			20,
			2
		],
		"acts": [
			"leaky_relu",
			"leaky_relu",
			"identity"
		],
		"init_type": "uniform",
		"batch_size": 200,
		"decay_rate": 0.95,
		"decay_steps": 576,
		"epochs": 800,
		"lambd": 1e-05,
		"limit_step": null,
		"limits": [
			-0.001,
			0.001
		],
		"loss": "squared",
		"lr": 0.005655844946607864,
		"lr_decay": "exponential",
		"metr": "euclidean",
		"momentum": 0.7709349296879282,
		"reg_type": "l2",
		"staircase": true
	},
	"train_params": [],
	"weights": [
		[
			[
				-0.0009556407803846239,
				0.0008740209411157674,
				-0.0006922261026603574,
				0.0004129411153023757,
				-6.603129559507167e-05,
				-5.336829832175763e-05,
				-0.0007394957592434653,
				-0.00040618736796485316,
				0.0005470667686599537,
				0.0008160926300234341,
				-9.693051658253603e-05,
				-0.0005279530783089781,
				1.9284993596643384e-05,
				0.0006717740120688786,
				0.0007188541255991102,
				-0.0009913694478735193,
				-0.000743279559518896,
				0.00034437861858830905,
				-0.0007410896834893032,
				0.00046388915160247373
			],
			[
				0.00019128225897589398,
				0.00019487639859703393,
				0.0009865674643949594,
				-0.00019032006684035552,
				0.0005395327427441545,
				-0.0006252938747701391,
				0.00031239674647834934,
				-8.035573691197008e-05,
				0.0003048989438359678,
				0.000826922513418828,
				0.00038719808673591386,
				0.0005618893208495035,
				-0.00010103390145546219,
				0.000988794631919053,
				-0.00044716784007602334,
				0.0006165960365023277,
				0.00037954002002269947,
				0.0007437116336237472,
				-0.0001724223885354255,
				0.0009054416532904928
			],
			[
				0.000570145499058453,
				-9.278788800425389e-05,
				-0.00027671821159319545,
				0.0001287070691750095,
				-0.0009550545610941395,
				7.995517410364973e-05,
				0.0006091915631090265,
				-0.0003067550757223272,
				-0.0006438032985858109,
				0.0007507831271888346,
				0.0001798809455416208,
				-1.2780133625562217e-05,
				-0.0009241184433772491,
				0.00016622917634843363,
				0.0009144280278639623,
				0.0003428644264051254,
				0.0005235587898313233,
				0.0006435469808516935,
				0.00042575406941795985,
				-0.0001515687826289491
			],
			[
				-8.675993741049325e-05,
				0.0005152843902048391,
				-0.00040181996777317484,
				-0.0008063023485404273,
				0.0009737723949257951,
				0.00040500122622255403,
				-0.000465465130078877,
				-0.0001344790398574169,
				-0.00025705217486654216,
				-0.0003461161584039891,
				0.0009483462697590038,
				-0.0005964579989377633,
				-0.00011798736774536113,
				0.00013201039110176394,
				0.0006563401949677959,
				-0.00026631972132856263,
				-0.000291984431667927,
				0.0003535549675542219,
				-0.0003305133616570582,
				0.0006741182003521615
			],
			[
				1.482560945962252e-05,
				-0.0009315677884460503,
				0.0005600315374934268,
				-0.0008459473451698096,
				0.00014161026612706366,
				0.000904394345339152,
				0.0008754951155899391,
				-5.644699881303427e-05,
				-4.570969856454931e-05,
				-0.0002681106476678381,
				-0.0009052172843363977,
				-0.0008620250145020835,
				-0.0006014870610072705,
				6.216518074077487e-05,
				-0.0003819849277590712,
				0.0009205999959250022,
				1.2178806306401696e-05,
				0.00024345074962313059,
				-0.0008502096873558677,
				-0.0009108758533931605
			],
			[
				0.00031065989737048046,
				-0.00014602895943278634,
				0.0006380964642765023,
				0.0004937485587380864,
				-0.00023109782791296875,
				0.00021228150142593803,
				0.000562725516844565,
				0.0007522574676123324,
				7.346837970429246e-05,
				-0.0003998036715468469,
				-0.0005671247796702856,
				0.00037809826098332815,
				-0.0003885061761606099,
				-0.0004456860439631616,
				0.0005915148057619956,
				-0.0008245464728980485,
				6.223620548902208e-05,
				0.0009591898487123825,
				-0.0005919618008956698,
				0.00030611337180112873
			],
			[
				0.0002712409101576587,
				-0.0003136657301567769,
				0.0009263321393293135,
				-0.0006455589382146765,
				-0.0009783956383271131,
				0.0001267256952173846,
				0.00020670981932358165,
				-0.000329547844660472,
				-0.0005118782385646237,
				0.00012929883997040196,
				-0.0007371598875901815,
				0.0001361519963543681,
				-0.0008494518027172559,
				5.313742237337258e-05,
				0.0006307439891454335,
				0.0007972732073720237,
				0.0003007220336399266,
				0.0008342478093790197,
				0.0003909578341944344,
				-0.0003499512420693247
			],
			[
				-0.0007609142149675252,
				-0.0006702463930965148,
				-0.00027886154298808563,
				-0.0007913955168422169,
				0.0002572874381918961,
				-0.00054892657183563,
				-0.0006337568986611319,
				0.0004655860127456052,
				-0.0007539427803847853,
				-0.0009793586510252511,
				0.0001401340957075249,
				-0.0006017656246394014,
				-0.00031256522739066695,
				0.0007512300830972765,
				0.00036447771400162474,
				0.0002241090258010771,
				0.00043998047591128713,
				0.0006190742118436974,
				-2.0571968191957207e-05,
				0.0007917421737479091
			],
			[
				8.412031234005489e-05,
				-0.000866888870253925,
				-0.0007236344349783705,
				-0.0008303066148529228,
				-0.00091041442104776,
				-0.00046437956547172197,
				-0.0004702590345795767,
				-0.0006063410611509546,
				-0.0009294094028943165,
				-0.000539033580967712,
				-0.0001423934665667426,
				-0.0005449326236914889,
				-0.0006244180481917549,
				0.0005485637286311163,
				-0.00028251441863934735,
				-0.0004716799252567381,
				9.273490240191201e-05,
				-0.00046570084946134685,
				-0.00089668319182702,
				0.0004932759838823786
			],
			[
				0.0007769449873596852,
				-0.0007339238357352318,
				-0.0009408355983197037,
				-0.0006671687725426291,
				-5.968663892811526e-05,
				0.000592747071054608,
				-0.0005662916663830349,
				0.0009695337700706616,
				0.0003358375205756959,
				0.00037572343045711386,
				0.0009781929743779747,
				-0.0006363184712628691,
				0.000532829597676416,
				0.00030628797807826327,
				-0.0003374038492713307,
				0.00026962380828541937,
				-0.00019691481586740452,
				0.00018580075227202448,
				-0.00011063571462445096,
				-0.0009401982619922536
			]
		],
		[
			[
				-0.00080898611346028,
				-0.0007735535445591091,
				0.0002832974062823865,
				0.00024047757226655967,
				0.0001792901169139049,
				-0.00034727696084236096,
				0.0009444209976439025,
				0.00034663754565491763,
				-0.00016890030317495187,
				-5.546177772903875e-05,
				0.0008818130263925218,
				-0.0002372146054623565,
				0.0007748002933946883,
				0.000693270054668004,
				0.0009695551750983325,
				0.0006538782462858972,
				-0.0005540804940920357,
				0.00011477262527949069,
				-0.0007902755166378739,
				-0.000811127171890383
			],
			[
				-0.00030800225713881993,
				0.0007881570279523798,
				0.0006697569985284046,
				-0.000139846077720172,
				-0.0009640428071730889,
				-0.0007202979858514527,
				-0.0006495286472134108,
				0.0006908826499581577,
				-0.00015052052010447242,
				0.000356948192970616,
				-1.560382807271228e-05,
				0.0004138130616526633,
				0.0007455209296469102,
				0.0006485594253513708,
				0.00023428072163582587,
				0.0008346649393802296,
				0.00010153200233876795,
				-0.000599178752755839,
				0.00025790241116489874,
				0.0006652419909727264
			],
			[
				-0.0007604363020085156,
				0.00027952731199558443,
				0.0005194520947995481,
				0.0006614431344922746,
				-0.000944380621847545,
				-0.0008679921328871813,
				-0.0009764679235175495,
				-0.00041787162235511395,
				0.0008121623131477653,
				0.0004204776387057869,
				0.00012865185604905654,
				0.00077960984790482,
				-0.00038498778411495335,
				0.0009399872325540771,
				-0.0003749897681953855,
				3.3232520049232854e-05,
				0.0006978417775518519,
				5.4988802616818665e-05,
				-0.0005052177214795643,
				-0.0006356258480031463
			],
			[
				-0.0008301653515429615,
				0.0008785518749508307,
				-6.145066815432029e-07,
				0.000842885339291847,
				-0.0006375976391836508,
				0.0004096370389547908,
				0.0007987347570346346,
				-0.0007450980256960043,
				-0.00032510220321276884,
				0.00097263675947587,
				-0.00010437278906482675,
				-0.0009404776376978667,
				0.00023887994215667603,
				0.0001665338104179159,
				0.0008535665387857912,
				0.000469539994416631,
				0.0003757283710029353,
				0.00022869707650762568,
				0.0006810156203931595,
				0.00014397508479781782
			],
			[
				0.0009016978250422465,
				0.00023642486867713787,
				-0.0009756308564421689,
				-0.0007041923693891703,
				-0.0006970242333868479,
				-0.000565709219304072,
				0.0002943308164265184,
				6.378136660868932e-05,
				-0.0007602367673107322,
				0.0005376494163208496,
				-0.0001853039994814638,
				0.0009427370481080663,
				-9.738080689262118e-05,
				-0.0009623914057263574,
				0.00035551872849764045,
				-0.0005021623567922194,
				0.0009688542399679512,
				0.0006249722030076189,
				0.0008635837292447017,
				-0.0006690380452650511
			],
			[
				-0.000890368902097302,
				-0.0005892561219336865,
				-0.0009881374742179052,
				-0.00013107119680653902,
				0.00017648607274753565,
				-0.0002186452567316422,
				-0.0008386842946608875,
				-0.00021632126563868195,
				0.00012879256980628958,
				3.934427024403567e-05,
				-0.00028848246369451807,
				-0.0008376487447038579,
				-0.0007795237596409743,
				0.00024526409160922544,
				-0.0009757035425964422,
				-0.0004618070223586892,
				-0.0007973049867736277,
				0.000494148825772241,
				0.00017743695565147766,
				-0.00014551848485500865
			],
			[
				0.0008585394519550051,
				0.00011675299932483742,
				0.0009307129538811579,
				-0.00048763232689942387,
				0.0008080885953117708,
				-0.0005643766613217336,
				-8.180325646962741e-05,
				2.4079020571250633e-05,
				-1.6551687908436226e-05,
				-0.0007859298574976559,
				-0.0005988097462214868,
				-0.0007342307943855298,
				0.0004088965862871839,
				0.00016017319780566312,
				-0.0005840078360184496,
				0.0006626824656596167,
				-0.0007516550754004174,
				0.0007807520204418698,
				0.000530359007673491,
				0.0002085925259972198
			],
			[
				-9.737158566659905e-05,
				-0.00043222783756619856,
				0.0005898525073377119,
				0.0006114717724820624,
				0.0008990108557137538,
				7.882074756267263e-05,
				0.00041782794239045404,
				0.00036507034157638057,
				-0.0008013320776532933,
				-0.0005404864511600494,
				0.0008242811284976199,
				-0.00023312931795777155,
				-0.0002846784953510187,
				-4.114437741385181e-05,
				-5.4642743701280175e-05,
				-0.0009786441742936545,
				-0.0001651442514836761,
				-0.0006880406406939083,
				-3.054624627399404e-05,
				0.00023540197758234547
			],
			[
				-0.0008833406417028605,
				0.0006855448066780847,
				-0.0005740688356011316,
				-0.000536965156517991,
				-0.00012931922588857003,
				0.0008302383758347343,
				-0.00033818024147003385,
				0.0001580206249300279,
				-0.0007855763948658099,
				-0.0003012241018398651,
				0.0003067499635935227,
				-0.0005810533087735059,
				0.0008561340348033045,
				0.0002305257598823765,
				-0.0008586326738788863,
				0.0009055972003174043,
				0.0006661101344826309,
				-0.00045676802094826057,
				0.0005943924372700596,
				0.0009314377633005643
			],
			[
				0.0006263169686522771,
				-0.0009399086980258853,
				0.00012065019529521135,
				-0.0002830441822898502,
				0.0008589614262514123,
				0.00045267709333772347,
				0.0006469852010158221,
				0.0009008134500059686,
				-0.0008273709225547447,
				0.0008080202497802039,
				0.0008323904014477519,
				0.00027706389983540424,
				-8.372321808560465e-05,
				-0.00036746395674893903,
				0.00018510456947190448,
				-0.0006701239975402857,
				-1.7263476432147424e-05,
				0.00018442427488998868,
				-0.0007215497441309889,
				-0.000715046227251454
			],
			[
				0.00042525815772422645,
				7.735632522078324e-05,
				-0.00016163803683330211,
				-0.0006995826543719696,
				2.7406571509803893e-05,
				0.0007456901084590011,
				0.0006096640772265448,
				0.0008291294130785521,
				0.0006500883595240159,
				0.00021695588798812597,
				-0.0006297909360631275,
				0.0008526089848629253,
				0.0006830104567866777,
				-0.0009622272464824426,
				-0.0006104565274649132,
				-2.6692199850121296e-05,
				0.0004922311241863835,
				0.00011712191662223643,
				-0.0005086550323673091,
				-0.0008388601057652452
			],
			[
				-0.0004839914754328976,
				-0.00037249081106640605,
				-0.0005334102629701836,
				0.0002646188782794365,
				-0.0006827085810749442,
				-0.0002826037922790376,
				-0.0004357436463731184,
				0.0009701369430470033,
				-0.0007589075496993183,
				-0.00010433042441528896,
				-0.00010222449700386768,
				-0.0002858386807520225,
				0.0008684857742406414,
				-0.0003264994191318993,
				0.0007112084375534447,
				-0.00024286786883104836,
				-0.000707321733604022,
				-0.0004462025698133103,
				-0.0005903884840192058,
				-0.0009718139609874693
			],
			[
				0.0004337547900936237,
				0.00040351906073946876,
				0.00014598437492964597,
				1.3304989919638889e-05,
				0.0009749029108435683,
				-0.000570396002232102,
				-0.0005687168551800786,
				-0.0006076393635492127,
				0.000790433327840126,
				-4.1721414617346846e-05,
				-0.000979751670949565,
				0.0008725510820591252,
				0.00042526630800292665,
				-0.0009196192174280686,
				0.0005720253809621361,
				0.0004402838244388187,
				1.7080552507212987e-05,
				1.826776265720408e-05,
				-0.00030679311087207983,
				-4.9908677507340686e-05
			],
			[
				0.0007354362625815046,
				0.00020804882112593175,
				-0.0006125974211629002,
				-0.000986361143007753,
				-0.00025514956080451663,
				-0.0008046917568459448,
				-0.00011865950186784428,
				0.00035577187512562166,
				-0.000723426110215688,
				-0.0003569034316575028,
				-0.0002601656785782456,
				-0.0009290939635678896,
				-0.0009508333676015221,
				0.0008582376071718527,
				0.0009245012843128225,
				-3.8903611369098105e-05,
				-0.00020335275620205027,
				0.0002857531123416899,
				0.00046839684402267536,
				-0.0007249674697630895
			],
			[
				0.00038486919342082073,
				-0.0009091081140239601,
				0.0003724946194249212,
				6.881737974118217e-05,
				-7.71690189169962e-05,
				-0.00045247587560897414,
				-0.0006291136615690653,
				-0.0009851311485864983,
				0.000900744468352366,
				0.00042965761502623996,
				0.00020570231095657873,
				0.0007009549565440056,
				0.0006425986006816896,
				0.0009169150122419773,
				-0.0009532468762301425,
				-0.0007515830566322372,
				0.0004989794518137402,
				-0.0004560462118311699,
				-0.0007658384730420968,
				0.00028945725525643547
			],
			[
				-0.00019791167846311983,
				0.0008472227813277416,
				0.0008822179120524707,
				-0.0005551872303219841,
				0.000844734758534431,
				4.195050908390764e-05,
				0.0006328108385018512,
				-0.000765126351367815,
				-0.0004859312736681654,
				0.0005187475683759001,
				0.0002493252758890214,
				-0.0008774527778779842,
				0.00037820781768599637,
				0.0009947864185339472,
				-0.00039149104375416034,
				0.00041394723936139443,
				0.0009018512327858095,
				-0.0008197228348301334,
				0.0001317160795972043,
				0.0008813403335799939
			],
			[
				0.0003786449121169738,
				0.000538599017567136,
				-0.0007437211135361681,
				0.0008250726980339109,
				-0.0008411789593306434,
				0.0003402447094643492,
				0.0004205350525977622,
				0.0006372014994044943,
				7.133558065979223e-05,
				-0.0005632334215885248,
				0.0006003882608070752,
				-0.0007332022980934583,
				-0.00037751668278195407,
				-0.00011227130794947793,
				-0.0002859832295770071,
				-1.236137446252567e-05,
				3.950592575473243e-06,
				0.00020305404666863124,
				0.0004443551108648631,
				0.00028990509526948156
			],
			[
				-0.0005698310529741777,
				0.0005097208084713328,
				0.00068413530239232,
				0.000740758942982803,
				-0.0003601999303933292,
				0.00018520202210678448,
				2.7220154083019022e-05,
				-6.701336001616737e-07,
				-0.0004117890824130422,
				-0.0001173820224430784,
				0.00026671439495494454,
				-5.427487662214769e-06,
				-0.0009581546120068272,
				0.0009207102472113288,
				0.00015098800339511114,
				0.0005226397767228524,
				0.0008356374628901925,
				-0.0005481152341846229,
				-0.0007947036559387451,
				0.0004796982692936993
			],
			[
				-0.0007427863749406996,
				-0.0004104792733650484,
				-0.0009341810388290089,
				-0.000457742123539821,
				0.00021969772886250706,
				-0.0003418892501745761,
				-0.0006608781586593982,
				-0.0006663875572585174,
				-0.0005382590692319725,
				-0.00024403198253810006,
				-0.000724367052943187,
				-0.00031303622246903217,
				-0.00037833514175283445,
				-0.00029324532646188154,
				0.0005772458976520298,
				0.0001541052890244904,
				-0.0008213410428693799,
				4.132213307745649e-05,
				0.0002696458967813226,
				0.0007773170904173687
			],
			[
				-0.0003820124665587756,
				-6.846190048888107e-05,
				-0.0006584116027604802,
				-0.00011374154578249287,
				-0.0007458660760509277,
				0.0009157185379945491,
				0.0008103373855917568,
				-8.661005213024195e-05,
				-0.00022155584956371844,
				0.000813631946653573,
				0.0009715235850766206,
				0.000460761176640157,
				-0.00024734945559788614,
				0.0005021347210157597,
				-0.0004444189542263464,
				-0.0006489944107499078,
				-0.0006796971130968983,
				0.0005970051035459971,
				-0.0003520082612784748,
				-9.466011690694473e-05
			]
		],
		[
			[
				-0.0008523146250433391,
				-0.0007400478390010815
			],
			[
				0.0005811434503399744,
				5.050055411950634e-05
			],
			[
				-0.00047693189611215626,
				-0.0009945325744771035
			],
			[
				-0.0007273510497777824,
				0.0007872800437126507
			],
			[
				0.00010415654226667839,
				-0.0008169759878621709
			],
			[
				-0.0009694395012705082,
				0.0004679616980697086
			],
			[
				0.0007286599217597946,
				0.0005848501879172319
			],
			[
				0.0004951418521118077,
				-0.0009637558551184478
			],
			[
				-0.0008237327531829391,
				-0.0009642613613456808
			],
			[
				8.837539939418886e-05,
				-0.00045067848576550436
			],
			[
				-0.00018121188456698566,
				-0.0009318134883214715
			],
			[
				0.0005862145679455392,
				0.0003587733095494472
			],
			[
				3.0004732621236605e-05,
				0.0005034732022444993
			],
			[
				0.0008818742503453236,
				-0.0005166259506196362
			],
			[
				-0.00048544102255823444,
				-0.000775875990218601
			],
			[
				0.0007002417727485313,
				0.0006234285054180324
			],
			[
				0.00024414487449079614,
				-0.0003057070152761905
			],
			[
				-0.0006701171750744495,
				-5.589799365263181e-05
			],
			[
				0.0008290642030809674,
				0.00011266364945477451
			],
			[
				-0.00020467360326299766,
				0.0006490534673463482
			]
		]
	]
}