{
	"model_params": {
		"input_dim": 10,
		"units_per_layer": [
			20,
			20,
			2
		],
		"acts": [
			"tanh",
			"tanh",
			"identity"
		],
		"init_type": "uniform",
		"batch_size": 100,
		"decay_rate": 0.95,
		"decay_steps": 500,
		"epochs": 150,
		"lambd": 0,
		"limit_step": 500,
		"limits": [
			-0.001,
			0.001
		],
		"loss": "squared",
		"lr": 0.00891214076925288,
		"lr_decay": null,
		"metr": "euclidean",
		"momentum": 0.6,
		"reg_type": "l2",
		"staircase": false
	},
	"train_params": [],
	"weights": [
		[
			[
				-0.0006043462438399449,
				0.0008483637469861253,
				0.0007657308943450545,
				-0.00010904711614393434,
				-0.0002697656066854994,
				-0.0003561531746974989,
				0.00016087687721952522,
				0.0009854139052438856,
				-0.0009612620177343236,
				7.16920688056265e-05,
				0.0009280986306142601,
				-0.00019300385699778098,
				0.0006212314250612972,
				-5.132192016021127e-05,
				-0.0009544329770908586,
				0.0008546889892891978,
				-7.00774735371292e-05,
				0.0008547945827168352,
				0.0008145092042320023,
				0.0006055114460988631
			],
			[
				-0.0008225239682019603,
				-0.0007414345702693492,
				-0.0009893320079383623,
				0.0006295722008423936,
				0.0008248377777746454,
				0.0008269734078911475,
				0.00021764997266399263,
				4.360543359126267e-06,
				-0.0003743111012586755,
				0.0007369687212053647,
				0.0006593362706994476,
				-0.0005872605204026331,
				-0.0009493041271927867,
				8.745390424185775e-05,
				0.0005778593413644751,
				0.0007484089191566044,
				-0.0006417893385370024,
				0.0009043728779365449,
				0.0008185769121139745,
				-0.0008131500457225525
			],
			[
				0.00014105669092138182,
				-0.0009147648215740713,
				-0.0005204976341826633,
				0.0009895893683307976,
				-0.000965242897757276,
				-0.0008821885176204545,
				0.0002976576199801291,
				-0.0005602445512029768,
				-3.7248371147345746e-05,
				0.0006328532559772375,
				0.0001452304202785228,
				0.00011130953017443796,
				0.000873795880501846,
				-0.0008402988426425625,
				-0.0006538578978559813,
				0.00011808477203099281,
				8.540530887534044e-05,
				0.00019497773763816587,
				-0.00046794453563219786,
				-0.0005267006908987553
			],
			[
				-9.435722185194176e-05,
				0.0008632346918477302,
				-0.00017907059783092022,
				0.00018435737119758028,
				-0.0005270485235309015,
				0.00012814377676792867,
				-0.0001713397543677644,
				-0.0009492961788120707,
				0.0002992824751661357,
				-0.0007798854864473688,
				0.0006127412726438749,
				-0.0008899879060737926,
				-0.00037837614496545255,
				-0.0008925528675255834,
				-0.00013232730259523783,
				0.0008091187296437802,
				-0.0009563213927183451,
				0.0003361553268138996,
				-0.000608025889333676,
				0.00013069090374364062
			],
			[
				0.00022602226487180893,
				-0.00025959672997816826,
				0.00042970901679219016,
				-0.0004868987485797826,
				1.431997183333456e-05,
				6.596346671233419e-05,
				-0.000855399790853608,
				0.00019566035835921888,
				-0.0003951993348339489,
				0.0008839825079038422,
				0.0008038671254672392,
				-0.0006788231090381296,
				-0.0004953016916566704,
				0.0004384527840514702,
				-0.00012656899391282853,
				-0.0006154461340324741,
				-0.0009730732230351149,
				-0.0006323020379765238,
				-0.0008520034348523888,
				0.0002652713923495776
			],
			[
				-0.0008066940594848315,
				0.000361104536960507,
				0.0005029178366311845,
				-0.0009874034914049029,
				-0.00034000057077716427,
				0.000622151760419621,
				-9.73048922316488e-05,
				0.000744787402777866,
				-0.00012146953434719835,
				0.00015029859893737267,
				-3.7319272016539135e-05,
				0.0007203087961567683,
				-0.0009926166921749712,
				-9.039993832148303e-05,
				0.0006920791395301066,
				-7.895119589771782e-05,
				8.44144653980995e-05,
				-0.0009761826558885281,
				0.0006680140705756015,
				-9.23897575526955e-05
			],
			[
				-0.00034384743065703476,
				0.0007250550896009149,
				-0.00020433641422027261,
				-0.0006745835041941292,
				0.00014002556658150372,
				0.0007430525528175898,
				0.0009604011222272418,
				7.281527466030096e-05,
				-0.0009582963400072875,
				-0.0008261283816876126,
				0.0004754530710757354,
				0.000898763149622948,
				0.0002524072786366648,
				-9.260420761684693e-06,
				-0.00048357082624859646,
				-0.0007797171811646981,
				-0.00019069761892640696,
				-0.0005255373588001285,
				-0.00015490950756000136,
				0.0002956254320968931
			],
			[
				-0.00041510654146159306,
				0.0007207664527371282,
				-0.00018039532817265287,
				0.0005662138319512573,
				-0.0007243210651473597,
				0.000685942443049935,
				0.0005496283733391332,
				-0.00012663200029364012,
				-0.00029835714576915344,
				0.0008258922963660853,
				-0.00022932397961269318,
				0.00016788406655039593,
				-0.00022328519933651945,
				-0.0007778120028468429,
				0.0005794211978789633,
				-0.0009461456954386791,
				0.00021787943108904318,
				-0.0004310398755498461,
				-8.090970172455259e-05,
				-0.000648279484679323
			],
			[
				0.0005369086221612509,
				-0.0007241773424596125,
				-0.0007954465747487341,
				-0.0005936871670099045,
				0.0004944035912347205,
				-0.0009909425404576939,
				0.000702770855034097,
				-0.00037404503860720536,
				-0.0007448864899276791,
				-0.0006139105200040251,
				0.0002962473764955222,
				-0.00017225611643194565,
				-0.0007347845205260615,
				0.0007424441263516261,
				-0.000485399904927132,
				-0.0009149026279055203,
				-0.0004416385058046388,
				0.0007987159012951244,
				-0.00015388337254813725,
				0.0006860850677342283
			],
			[
				0.0007540021031628374,
				-0.00032261001673237577,
				0.0008993697218778538,
				-0.0005244053719350343,
				0.0007475737767833285,
				-0.00047416779699544095,
				-0.0004950584596203569,
				-0.0007092110035839865,
				0.00012439524733137328,
				-0.0003594128118931475,
				0.0009377710918633542,
				0.000699597099275479,
				-0.0002557294328819499,
				1.5644999886588445e-05,
				-0.0004411764809242011,
				-0.0006836701624583464,
				0.0009855310668816439,
				0.0005919014262404825,
				0.0006602666910363487,
				0.00019471226042554147
			]
		],
		[
			[
				-0.00012953438443674226,
				-0.0003613762640948901,
				-0.0005662728643237604,
				0.0008735578049026537,
				-0.0008759084078010248,
				-0.0007697077913728632,
				-0.00017532902988205029,
				-5.146636026298211e-05,
				-0.0007604808012718807,
				0.0006762726562592712,
				-0.0005095664062522459,
				-0.0005190002770266522,
				-0.0005857319053356644,
				-0.0007839927613521154,
				-0.0009620111198162706,
				0.0004916763729478882,
				0.0005002087164842801,
				0.0008190670112430841,
				0.0003538793623781237,
				-0.0009322683163962595
			],
			[
				-0.000836836649997236,
				0.0009558100257102053,
				0.000847490522200461,
				-0.0007251310668740802,
				-0.0006722169521389419,
				0.000885144865962375,
				0.00042493173899846,
				-0.00010196568557580888,
				0.00022657738191419227,
				0.0005617967513044391,
				0.000860901344001311,
				-0.00028029774123961796,
				-0.00024538102851029615,
				0.0008071369761473272,
				0.0007271531589788424,
				0.0005603174491708319,
				0.000570149688952014,
				6.673711687394247e-05,
				-0.0008503557786422822,
				-0.0008793819965436154
			],
			[
				0.0002656180250432776,
				-5.6331677083280894e-05,
				-0.0008528637556565129,
				-0.0006886097958141539,
				-0.00014535928395680302,
				0.0004572297371135503,
				-0.00017429976410308304,
				0.00021004157491555245,
				0.0005127014108014087,
				-0.0001316412083645917,
				0.00038119064284794523,
				0.00014989314379560965,
				-0.0008843410745900191,
				-0.0005931524994086182,
				-0.0009061433741680191,
				-0.00037456717645040086,
				-0.0008837825149384073,
				0.000292798494692044,
				0.0003569821007551421,
				0.0007705059241906434
			],
			[
				0.0009094279810072502,
				0.00039930510137529767,
				0.0001567832943266097,
				-0.0007512589494432038,
				0.00029798672414717937,
				-3.294134980857662e-05,
				0.0007722339509253242,
				-0.0005432313885334306,
				0.0009563616946176644,
				-0.0004232979734509903,
				0.0003184257721856388,
				-0.0009575300747474929,
				-0.0008843876737116569,
				-0.0009948871886166768,
				2.417414613927523e-05,
				0.0007034095594057397,
				-0.000824909805019214,
				-0.0007576577037033657,
				-0.00018779010280590015,
				0.0008642582631016235
			],
			[
				0.0003048806657809395,
				0.0007293550545427543,
				0.0002491229690589575,
				-0.0006581992960649805,
				-0.0008814427604102709,
				-6.32479326082183e-05,
				0.00026793921946104463,
				-0.00019572297054816338,
				-0.0007244947397029697,
				0.0003749428144804584,
				-0.0007598423055102008,
				0.0001605751137281526,
				0.0004805524806321677,
				0.000732554610975669,
				0.0009354436994056909,
				0.0005606625835987268,
				0.00048169871765343973,
				0.0009129086189255972,
				-0.0004812644514726064,
				0.0006002890236741954
			],
			[
				0.0004860299723628051,
				-5.57795335990747e-05,
				-3.236274593784857e-05,
				0.0004899422115703608,
				-0.0006537776525066017,
				0.0009984444434511176,
				-0.00028857367169123397,
				-0.000297569888222013,
				-0.0004150724359626492,
				-0.00011045505977159455,
				0.0005630286664736581,
				-0.0008242465975804519,
				0.00022774257016826695,
				-0.000287578504861991,
				0.0003630447637707878,
				-0.0007647822045550179,
				0.0006218470698113251,
				0.000987155354480157,
				-0.0005749849067696526,
				0.0006218745054940651
			],
			[
				-5.2063020690681786e-05,
				0.00022745463571736588,
				-0.0008129409178672278,
				0.0006117525855742834,
				-0.0007219524689622745,
				0.0007789862491719435,
				-0.0009063623716733554,
				-0.0007410718783088127,
				0.0002348844511293679,
				-0.0004738748405359916,
				0.0008392273539322005,
				-0.00013336696281241985,
				8.610247225738533e-05,
				-6.530496779177562e-05,
				0.00012329573174731036,
				0.0005291401789507264,
				-0.0002959800243350797,
				-0.00025125758082818455,
				0.0009796575471715278,
				0.0006044581687946258
			],
			[
				-0.0005829222358863535,
				-2.2508519815666933e-05,
				-0.0008849604261481923,
				-0.0005887639091211939,
				0.0007290070604201418,
				0.00042755750307224647,
				0.0005340676021186512,
				0.0004948655984195428,
				-0.0008817480218734517,
				0.0005835053545761196,
				-0.0009133536482945486,
				-0.0007918658641907015,
				0.000393594165996903,
				-0.0005596941681139541,
				-0.00021066899168240894,
				0.00014980571032156506,
				6.428382594126291e-05,
				-0.0005769382426359657,
				0.0005103329263116906,
				-0.0005727243072153616
			],
			[
				0.0005038194700090176,
				-0.00024600098748315126,
				-0.0006816666791445472,
				0.0008984979742562829,
				0.0002978765181626394,
				-0.00042180989526754737,
				-0.00026361507539490606,
				-0.0003719803301086424,
				0.0007746978581707996,
				-0.0006172895552733031,
				-0.0004643590470060255,
				-0.0004369343002994968,
				-0.0001186609273092019,
				0.0004381804414574362,
				0.000447548331853919,
				-0.0009931128491532592,
				-0.0002748458469365525,
				0.0004416343178089762,
				0.00021509089593588953,
				-0.0004058687679044719
			],
			[
				0.0001414855946373474,
				-0.0006844780911401349,
				0.0009713956580298796,
				0.0003484741061965922,
				0.0008319701859027565,
				-0.0007455904541908954,
				-0.0009231372796001343,
				0.0008849107905295707,
				0.00036919621714429844,
				-0.00018177304407685012,
				-0.0007043879474309277,
				-0.00028378017802200325,
				-5.763406289406017e-05,
				-0.00034768619295765576,
				-0.00026199747768129256,
				-0.00024080292360024221,
				8.522738784305954e-05,
				5.910446130800583e-05,
				-0.00010490361270284489,
				-0.0004965112922986305
			],
			[
				-0.0008856157120237873,
				0.0008590013137693201,
				0.0007287554417635129,
				-0.00026913393496575224,
				0.00012368136305601217,
				-0.0009611010246881886,
				0.0009596173963286343,
				-0.0004330094497708801,
				-0.00040918231063049974,
				-0.0005212748709799635,
				-0.00019488291444689305,
				-6.759334909007728e-05,
				0.0001198884586452501,
				0.0007666891791575771,
				-0.0007478110938363973,
				0.000367277875607884,
				-0.0008588359444849823,
				-1.3513502830173269e-05,
				0.0002381681658068823,
				9.454363402577447e-06
			],
			[
				-0.00032881160162834516,
				0.0002361064487088353,
				-0.0006398716363499863,
				-0.00013729552795604353,
				-0.0002804416389475615,
				-0.00010647216428132707,
				0.0006213362101670568,
				-0.0004604136029759705,
				-0.0002579531549942866,
				6.115883740499275e-05,
				-0.0004653166995838914,
				-0.00018571474391762717,
				0.00042509653746235785,
				0.0006496354748258973,
				-0.0006587341715210996,
				0.0001833643687161365,
				-0.0008973218598603667,
				-0.00013696987915439698,
				-0.0009401605356696841,
				-0.00034842346198865615
			],
			[
				0.000611630228535647,
				0.0003083183407045602,
				0.0005729745221054925,
				-0.0006818759360169613,
				-0.0001282567103644543,
				-0.0005463661626276966,
				-0.0009073533965458578,
				-0.0005605401214097681,
				0.0007812463518318056,
				-0.0003654404827010962,
				-0.0007262764220246714,
				-6.482414778320473e-05,
				-0.00019873643146961256,
				0.00012896134650225628,
				0.00036114549100404385,
				-0.0007064443757012636,
				6.177366854506999e-05,
				0.0004963695724230859,
				0.0005448810766898792,
				-0.0004518125685615042
			],
			[
				0.0004776178216989043,
				0.00032411629954564236,
				0.0008232146277186204,
				2.9371307241577273e-05,
				-0.0003567525455333149,
				0.0007656334878023451,
				-0.0009100837658124425,
				0.0005275314192380776,
				-0.0003133030258764864,
				0.0007060053068127993,
				-0.00028324589646956883,
				0.0005662412946846756,
				0.0008200082290232931,
				-0.0002427263099403649,
				0.00015817611998263765,
				-0.0002867967710183652,
				0.00038272519068251946,
				0.00038871325469379357,
				0.00034935094545809897,
				-0.0006743817059190638
			],
			[
				0.0007489716400370123,
				-0.0001849683305177128,
				0.0007570541349868883,
				-0.0005789789359537858,
				-0.0005799576319699276,
				0.000665265500924168,
				-7.034946585630019e-05,
				-0.00014716192515462417,
				0.0005396919303437438,
				-0.0007427546057211692,
				-0.00015499281725655492,
				5.713813696734435e-05,
				0.0005707002095276159,
				0.0008178607723571304,
				0.00011596458356133909,
				-9.857527831296235e-05,
				0.00030745364954806297,
				-3.854516970586055e-05,
				0.000957643881098843,
				0.0003076411492357249
			],
			[
				0.0009316813757064121,
				0.00033755953801675904,
				-0.00027475009030608686,
				-0.0006758268972411279,
				-0.0003536649870143646,
				-0.0004891865537098361,
				0.0004820116743010222,
				-0.0006926811684713925,
				-0.0008002744270550428,
				0.0002345498471845737,
				0.0004147099012948381,
				-0.0007050141529540057,
				-0.0008281844965575434,
				0.0009918514288998273,
				-0.0003767902396851641,
				-0.00035599366865381806,
				-6.831074540154325e-05,
				0.0007044695846245288,
				-0.0009054937213166597,
				0.0007548037607435279
			],
			[
				-0.00014017869343303205,
				0.00014733368028770565,
				0.0007398657640032558,
				-0.0009872909291861764,
				0.00032126450057743186,
				0.0004314008604815573,
				0.000976315275398302,
				0.0002745609466842684,
				-0.00023384964402627323,
				-0.0008378029916451275,
				0.0006653053282774288,
				-0.00014537179554873522,
				0.0007326070496345247,
				-0.0006789412812161315,
				0.0007253186552135691,
				-6.565207050599755e-05,
				-0.00025929137000403005,
				0.00015339140081493952,
				-0.00022581492167703023,
				0.0006207344361280971
			],
			[
				0.0007603476896772322,
				0.0005403786811785493,
				0.0009462327733411073,
				0.0001621790262611785,
				0.0007139191123161229,
				-0.00013834731573100355,
				0.0009238221467882562,
				0.00010985851135025576,
				0.000843856945395905,
				-0.0006412311858118034,
				0.0006945126017085074,
				-0.00043186993133469923,
				-0.0009883218064235895,
				0.0009401998310541461,
				-0.00016937383863471702,
				-0.0006477389307744266,
				0.00023962696353019655,
				-0.0006318805309698841,
				-0.000551367040957788,
				-0.0003516733123663774
			],
			[
				0.0007301418796462772,
				0.00016630232432302992,
				-0.00048270975627956903,
				-0.0003699493214384511,
				0.0005215581401165476,
				-0.00015049365635518399,
				-0.000670438616202274,
				0.00038986107516995124,
				-1.4723730985851183e-05,
				0.0004190111803992068,
				0.0008750675736393604,
				-0.00014088386559843794,
				0.00013104975101060944,
				-0.00031279295402050083,
				-0.00041434824995714736,
				0.00027214138769160196,
				-0.0008557115822331114,
				0.0007250111466135488,
				0.0009224565290003556,
				-0.0006485252427653876
			],
			[
				0.0005249671270398215,
				-8.748347744712227e-05,
				-5.774561547408337e-05,
				-0.00012110409046198493,
				-0.0005012800380723339,
				0.00017422859173513486,
				0.0002555345056959289,
				-0.0007831530938734221,
				0.00012385715542991417,
				0.00024849024830762997,
				0.0008909555933224857,
				-6.719744693846883e-05,
				0.0009934022347631204,
				-0.00021282158411184285,
				0.0005058999355453228,
				0.0005874281341330123,
				-0.00041382354526369066,
				0.00018294730936423988,
				0.0001484532816062806,
				4.046294770876607e-05
			]
		],
		[
			[
				-0.0008280128348023978,
				0.000768535326970113
			],
			[
				0.00040370626349118936,
				0.0005527274427564984
			],
			[
				5.485537944802327e-05,
				0.0003662522210355365
			],
			[
				-0.0003518546485406158,
				0.0006622193676956208
			],
			[
				-8.204744482772177e-05,
				-0.0001956235908914932
			],
			[
				-0.0008616285971418705,
				-0.0007479015547009293
			],
			[
				-0.0006803018118857978,
				0.00011908429313561798
			],
			[
				-0.0002209771064067927,
				0.0004910150225157189
			],
			[
				-0.0003496333133092551,
				-0.0005128707495295004
			],
			[
				0.0004584614746376296,
				0.00010175260095787904
			],
			[
				-9.587371685046268e-05,
				0.0006677033593542906
			],
			[
				0.0006136582112523123,
				0.0006191792732393665
			],
			[
				0.00022184640269641022,
				0.0009444207284081821
			],
			[
				-0.0008462053465695084,
				-0.0007225269596379383
			],
			[
				-0.00027443613797111573,
				-0.0005181951048307367
			],
			[
				-0.0005473500199717188,
				0.00043546421344968804
			],
			[
				0.00026041842795471713,
				0.0003682583855966039
			],
			[
				-0.0007700815412977007,
				-0.0002779227372112645
			],
			[
				0.000524080161931806,
				-0.0008958095525355632
			],
			[
				-0.00044402503170896425,
				-0.00010013228986729646
			]
		]
	]
}