{
	"model_params": {
		"input_dim": 10,
		"units_per_layer": [
			20,
			2
		],
		"acts": [
			"tanh",
			"identity"
		],
		"init_type": "uniform",
		"batch_size": 16,
		"decay_rate": 0.95,
		"decay_steps": 500,
		"epochs": 700,
		"lambd": 0,
		"limit_step": 500,
		"limits": [
			-0.001,
			0.001
		],
		"loss": "squared",
		"lr": 0.001,
		"lr_decay": null,
		"metr": "euclidean",
		"momentum": 0.4199289601348085,
		"reg_type": "l2",
		"staircase": false
	},
	"train_params": [],
	"weights": [
		[
			[
				0.0007312938750373347,
				-0.0004959612912245937,
				0.00011129116270915552,
				0.0006004873773661746,
				-0.0003538008180666894,
				8.433909136565734e-05,
				0.0003457119862547511,
				-0.0001590800871667824,
				0.0004298909022416378,
				-0.0005715071597354133,
				-0.0006602477721771063,
				0.0009709258229648014,
				0.0007635355897786613,
				-2.473658497652439e-05,
				-8.626333087588219e-05,
				-0.00017749407460986792,
				0.0008503748980836084,
				0.0007924315099667547,
				-0.0005480943558438137,
				-0.000847275344745831
			],
			[
				-0.0008776988757071407,
				0.000568526468315229,
				-0.0004160178913661307,
				-8.624912297243339e-05,
				-0.0008998607514810868,
				-0.0008310694069345332,
				0.0006931500058481935,
				-0.000919561808825007,
				0.0001730305503543617,
				0.000949478792141628,
				0.000511680514724438,
				0.000249041031006808,
				-0.000802392794765928,
				-1.1597385618345758e-05,
				-0.000787910421729605,
				0.0009306125407048797,
				-0.00017547692649702508,
				9.372821474320516e-05,
				5.5944324283749855e-05,
				-0.00023757554776172808
			],
			[
				0.0006144274627809512,
				0.0006098799760162412,
				-0.00016434809997786944,
				0.0009407419442494418,
				-0.0007167950202832374,
				-0.00032795288864009083,
				-0.0006808239202014204,
				0.0006379770597764367,
				-0.0004281124823882782,
				-0.000854777047064784,
				-0.0003172161911296487,
				-0.0004784752365526331,
				-0.00038727914067065614,
				0.0003185507780801473,
				-0.0007976511154125338,
				0.00046516941780579265,
				0.00041114375636111273,
				-0.00029372401703520244,
				-0.0006813314745728183,
				-4.076612901827124e-05
			],
			[
				4.881744538431758e-07,
				-0.0004997718609394433,
				0.0004180361103203424,
				8.720208046354813e-05,
				-0.00016860714764366258,
				0.0001933350148169235,
				-0.0004873093460038198,
				-0.00020067063966666156,
				0.0003493079807615851,
				-0.00024792952645816843,
				-0.0009652998219498024,
				-0.0002539589675777345,
				0.0003307796062282677,
				-0.0009922613551375337,
				0.00046646990952828034,
				-0.00024136699281396593,
				0.0004231121238830941,
				0.0005293306675490132,
				0.0005447885718966249,
				0.00022825756743823154
			],
			[
				9.630062563483529e-06,
				0.0004971265533726124,
				-0.0005871191752600741,
				-0.0009331796959020798,
				-0.000962200698274494,
				0.00033440824223707503,
				0.00025220732508649457,
				0.0005604197112059257,
				0.0009992674591939627,
				-1.153135681569847e-05,
				0.0008372588746771057,
				-0.00023521990190161746,
				-0.00027055906351304657,
				0.0005800540273018027,
				-0.000733348573717822,
				0.0008380658391066768,
				-0.0005756029102332667,
				0.0009184788367385341,
				-0.0002836389033783784,
				0.0008215321702480676
			],
			[
				0.00022923113803109034,
				0.00026067830343057675,
				0.0009864874349829037,
				-0.00021891944687205415,
				0.0002745531064332234,
				-0.0003790601153703377,
				-0.00010593635198051607,
				-0.0007105207055170322,
				9.181006295876548e-05,
				-0.0005448834543446794,
				0.00032119181291376643,
				0.0007013655548532922,
				0.0004306467831934886,
				0.0007594189345358632,
				-0.00013934795754037268,
				-0.0005529681308906729,
				7.231503881379234e-05,
				-0.00048327245138301005,
				-0.00018094144255687494,
				-0.0002353791896143125
			],
			[
				0.0005404693666538007,
				-0.00015598747159048586,
				-0.00018426598083666685,
				-0.0005991884292616774,
				0.0007694172395843548,
				-0.000229463718639902,
				0.00022010335973305295,
				0.0008964813729511936,
				0.00043506091284203365,
				-0.0006080867860227563,
				-0.00044925970263692827,
				0.0007190361861070462,
				-0.0002769106021699823,
				0.00016932338730229254,
				0.0006951995476349832,
				0.0008447038766851911,
				0.0004700404457154163,
				-0.0003005433504401769,
				0.0008267309860174816,
				-0.00027857901467478747
			],
			[
				0.0009271530955111693,
				-2.868980167125665e-05,
				0.0006581817479357215,
				-8.258446214933174e-05,
				-0.0006585792915765143,
				0.00047127257202299517,
				-0.0003584446706606588,
				-0.0004580177280960314,
				-0.0009177633732722024,
				0.0008245688028494208,
				0.0005630744787024368,
				0.0002735456516718157,
				0.0007161281363878063,
				9.394865850857834e-05,
				-0.0009048877710851626,
				0.0007636140807817469,
				-0.000649716537170695,
				0.0007590053946854593,
				0.0008712433447893885,
				0.000980229468028585
			],
			[
				-0.00011633740008593833,
				2.6128668488116253e-06,
				0.0003556284016652063,
				0.0005447218495535262,
				-0.000760227260814883,
				0.000426710308686543,
				-0.0006518618915646404,
				0.000992052940669549,
				-0.0008753494730827591,
				0.00025568966860934164,
				-0.0003275681042521983,
				-0.0009866714889540783,
				-0.0003453534541812775,
				-0.00015530322258908223,
				8.035045847468191e-05,
				-0.0005685008154625913,
				-0.00010880044528695535,
				-0.0007665686543327117,
				-0.0003405026422520852,
				0.0008066061604977879
			],
			[
				4.793585662733464e-05,
				-0.0005288791952808467,
				-0.0001299935747083159,
				0.0006085675407361505,
				9.294973336358833e-05,
				-0.00023236817658480184,
				0.0008752377207844615,
				-0.0009709443394894819,
				-0.00044374107316370946,
				-0.0008744801959241683,
				-0.00012958306503472138,
				-0.0006161367921247305,
				8.952999312566165e-05,
				-0.00029922676978971416,
				-0.0007473156959905219,
				-0.0002618458314060031,
				-0.0006373746090820608,
				0.00044156894777368466,
				-7.272759102308352e-05,
				-0.0007258836021202056
			]
		],
		[
			[
				-2.1245022868843786e-05,
				-3.513678463910126e-05
			],
			[
				0.0005299018348025992,
				0.0009196337406994395
			],
			[
				0.0009950748706231446,
				-0.00035331564464913213
			],
			[
				-0.0004944831580633844,
				-0.0006326200566937545
			],
			[
				0.0007356226709860946,
				0.0007360092715027427
			],
			[
				-0.00046434806157134,
				0.0005482590871787067
			],
			[
				0.0006568139222683257,
				-0.0002740830428734824
			],
			[
				-0.0006991609313377611,
				-0.0008291708385408489
			],
			[
				-0.000838904550683589,
				0.0005158007459262078
			],
			[
				-0.0008271837801597328,
				-0.0006088764220383818
			],
			[
				0.0005941901897185034,
				-0.0003024269582510852
			],
			[
				0.0003775596297624481,
				0.00019434061960397413
			],
			[
				0.0009111595881860692,
				0.00040629234200754397
			],
			[
				-0.0006410400970046592,
				0.0002752827609374133
			],
			[
				0.000983011526321722,
				-0.0006290497154063633
			],
			[
				0.000987103478849196,
				0.0009331541346284818
			],
			[
				-0.0007756083316664713,
				0.0006774149565705648
			],
			[
				-0.000731250429315295,
				-0.0009904573770297713
			],
			[
				0.0007069693584793244,
				-0.0001321483506298753
			],
			[
				0.00021525426737743335,
				-2.428838956759782e-05
			]
		]
	]
}