{
	"model_params": {
		"input_dim": 10,
		"units_per_layer": [
			20,
			2
		],
		"acts": [
			"tanh",
			"identity"
		],
		"init_type": "uniform",
		"batch_size": 16,
		"decay_rate": 0.95,
		"decay_steps": 500,
		"epochs": 700,
		"lambd": 0,
		"limit_step": 500,
		"limits": [
			-0.001,
			0.001
		],
		"loss": "squared",
		"lr": 0.0021435193860245855,
		"lr_decay": null,
		"metr": "euclidean",
		"momentum": 0.6,
		"reg_type": "l2",
		"staircase": false
	},
	"train_params": [],
	"weights": [
		[
			[
				0.00045029500304212045,
				-2.606708319002676e-06,
				0.0003514426407493802,
				1.6738761140386912e-05,
				-0.0003936503137961869,
				0.0004332783610422146,
				-0.00011834906262612587,
				-0.0007211317992744763,
				0.0006346539762402625,
				0.0006463537718684929,
				-0.0009038705414631379,
				0.00025276693874399267,
				0.0002984232723408525,
				-0.0009321386559237346,
				0.00042649392533217873,
				0.00046681319458923985,
				-0.0008721939745460614,
				-0.0007337184329082496,
				-0.00032423138107664617,
				-0.00043954130595252156
			],
			[
				0.00022020339415090048,
				-0.0003629157935353764,
				0.00022796738503942583,
				0.0009105862358996645,
				-0.0005283075674860354,
				-0.0005101080290840581,
				0.00022660298746969673,
				-0.000798323231991678,
				0.0009085546209922871,
				0.00031634014185501626,
				8.238108513963457e-05,
				0.0009549419977945609,
				-0.0009921718552991083,
				0.00011262488483141384,
				0.00010951499614435365,
				-0.0009726763786598709,
				0.0008930776906352648,
				-0.0005571902212603243,
				0.000922151096700296,
				-0.0005332974299273783
			],
			[
				-0.00028905208563743165,
				-0.0008685057770979834,
				-0.0005891155144973829,
				-2.6599482667176606e-06,
				5.566498084723782e-05,
				0.00012162831538270447,
				0.00040387494041540313,
				-0.0007045526664679711,
				0.00026831745699341394,
				-0.000825914016590902,
				0.0004499089161739858,
				-0.0008718907944897323,
				-0.0007792790778222763,
				0.0008672588006402421,
				-0.0007074947749828827,
				0.00012134523598768439,
				0.0004133752856799798,
				0.0005101489674000639,
				5.7617003392389926e-05,
				0.0004962332971247324
			],
			[
				-0.0006598004701652793,
				-0.0004277005508231739,
				0.0003971128027246457,
				0.00038179082727358635,
				7.027290141601119e-05,
				0.00022253952051622854,
				-0.0005834772613370048,
				0.000630441836722444,
				-0.00024734399549001336,
				0.0001145312433718888,
				-0.0006660040436773837,
				-0.0007223538840853492,
				-0.0005063805560872372,
				-0.00012702903209638205,
				0.0001116611054350564,
				0.0003571507776714436,
				0.0006573222133357016,
				-0.0007326359268557876,
				-0.0006238126071981284,
				-0.00024047390863466659
			],
			[
				-0.00013644814569702037,
				-0.0009548647607551912,
				0.0005624983978344677,
				-0.0006296332731481709,
				0.0005919193990239905,
				0.0003763780279950504,
				9.56572947860149e-05,
				-0.0008286683139116182,
				2.7444943197895604e-05,
				0.00013786706606523148,
				-1.1070248545074239e-05,
				0.0004161377497772425,
				0.0004627035517696025,
				-0.0003389196817042957,
				-9.69061432687466e-05,
				0.0007750183209709462,
				7.834417925500813e-06,
				0.0005778184782447098,
				3.311934930542472e-05,
				0.0009187655139089245
			],
			[
				0.000872541707463291,
				0.0008362350564936093,
				-0.00038386021344504926,
				0.0003601166766521182,
				-7.6568022980587e-05,
				0.000133309627361332,
				0.00035194076878320053,
				0.0004093003339386359,
				-0.0004837303788261493,
				0.00019217483897079305,
				0.0006684287599918446,
				-0.0007863133627698815,
				0.0002776412536825148,
				-0.0008026990306691091,
				-0.0006304965447227224,
				-0.00012724390243555388,
				1.314329378137918e-05,
				0.00029616879641555923,
				0.0006767327413107005,
				0.0009320673054826465
			],
			[
				-0.0008380555100721652,
				0.0007186798608406545,
				0.0005365753495944589,
				0.0006725780834429596,
				-0.0004786527989432477,
				-0.00019759873671912071,
				0.0007376956547667942,
				5.586183301614471e-05,
				0.0003493695748637885,
				0.0003144035760655583,
				-0.00021774886911345018,
				0.00026808030633457443,
				0.00020805732595350463,
				-0.0007075082769291739,
				-0.00022112464955376001,
				0.00032025395008832827,
				-0.0008882325959089419,
				0.0006148190735931237,
				0.0009886497657938414,
				-5.102341257131671e-05
			],
			[
				6.572680455755784e-05,
				0.000993984544823094,
				-0.0007254918910443403,
				0.0003400756478534467,
				0.000561219149613532,
				0.0008964423023684626,
				0.0002778806900673276,
				0.0001785181146316177,
				0.00021120987175093356,
				0.0005010146760490092,
				-0.0006489352562246882,
				-0.0002592377067056282,
				-0.00033989864999852835,
				-0.0005544100077038631,
				-0.000939782628743042,
				0.0006644545640617722,
				-0.0004961578467012986,
				0.00036438306435094777,
				0.0004161591361699574,
				-0.00010401983955653834
			],
			[
				0.000575650450688673,
				-0.0005598628234527952,
				0.0007521348990998265,
				-0.0005285881787239202,
				-0.00042927139389775594,
				0.0007274137780866803,
				-0.00047545580797749595,
				-0.0005611787481075672,
				0.00016204161323598405,
				0.0007767740967442661,
				-0.0005354714903562548,
				-0.0006647465245403059,
				0.0009641784379220441,
				-0.0005894297882854815,
				-0.00028772328053842315,
				-0.00020469655094064638,
				0.00044637965331401617,
				-5.700562685628102e-07,
				-0.0002522207453045464,
				4.784326537084476e-05
			],
			[
				0.0005961925125161744,
				0.0001186476638576732,
				-0.0008512333142479394,
				-0.00042702715197467196,
				0.00016223309667174083,
				-0.0005083479585193084,
				0.0005985898574501322,
				-0.000635486788908024,
				0.000994539942680684,
				-0.0003870679195430866,
				0.0003869619591053584,
				-0.000543441776860302,
				-0.0009955400268459253,
				0.0005289419044510785,
				0.0004479247107854053,
				0.00011664074019908702,
				-0.0001869022194535241,
				0.0009912115824779679,
				-0.000794935322738446,
				0.00085389158778696
			]
		],
		[
			[
				7.244906685768783e-06,
				0.00029034936589100355
			],
			[
				0.0005109895066534834,
				3.1703152910549136e-05
			],
			[
				-0.00041882307928271616,
				0.0007260335783761595
			],
			[
				-0.0006195942050575227,
				0.0006784313472860037
			],
			[
				0.0007438856028719985,
				-0.000616701675897596
			],
			[
				-0.0009140107929111126,
				-0.0005943648862959039
			],
			[
				5.922297922203489e-05,
				-0.0002334305060830217
			],
			[
				0.0007488049485468167,
				0.00042730347000822784
			],
			[
				-0.00043935515432367493,
				0.00023807447169146238
			],
			[
				0.0005388000697983436,
				0.0008501759094145793
			],
			[
				0.0003357262061220057,
				0.000629489501542889
			],
			[
				-0.0003057882252084763,
				-0.0002321574194886864
			],
			[
				-0.0001551018898651972,
				0.0009621919520489365
			],
			[
				0.0008548159088120936,
				-0.000778258870238534
			],
			[
				0.0007483333489379674,
				-9.595286072857712e-05
			],
			[
				-0.00034538461450047667,
				0.00017299325359109601
			],
			[
				-0.00039287637148150974,
				0.0008007550174795783
			],
			[
				-0.00035849919267049986,
				0.0002773224138132549
			],
			[
				-0.0006694535600120163,
				-0.0002579917185703722
			],
			[
				-0.0008626318077635824,
				-0.0009418811474654497
			]
		]
	]
}