{
	"model_params": {
		"input_dim": 10,
		"units_per_layer": [
			20,
			20,
			2
		],
		"acts": [
			"tanh",
			"tanh",
			"identity"
		],
		"init_type": "uniform",
		"batch_size": 100,
		"decay_rate": 0.95,
		"decay_steps": 500,
		"epochs": 150,
		"lambd": 0,
		"limit_step": 500,
		"limits": [
			-0.001,
			0.001
		],
		"loss": "squared",
		"lr": 0.01,
		"lr_decay": null,
		"metr": "euclidean",
		"momentum": 0.6,
		"reg_type": "l2",
		"staircase": false
	},
	"train_params": [],
	"weights": [
		[
			[
				-0.0005464216234413021,
				0.0008320165566763986,
				0.00019498975746430353,
				-0.0004367080392390128,
				0.0006230174521413196,
				0.0009085659394844302,
				-0.00045892959406476305,
				0.0006148254532243047,
				0.0007166026400017705,
				-0.0003049479293917017,
				0.00046218046375332174,
				8.211690103272968e-05,
				-0.0007817825752793512,
				0.0007622740695657807,
				0.0003968369586990275,
				-0.00030501505976197744,
				-0.0004340766317628477,
				-0.00048508220721089716,
				-0.00044727635302197854,
				-0.0005543502786809651
			],
			[
				0.0009162710949889689,
				-0.00014422182650820317,
				-0.0007583778794827731,
				-0.0009239084527697193,
				0.0005907198907454459,
				-0.0007494038624752863,
				-8.222029983369025e-05,
				-0.0007249389677215941,
				-3.3917779041323375e-05,
				0.00036298518052320654,
				-0.00014004444565996876,
				0.00023513428686895601,
				0.0004776403982414874,
				-0.0006333822415372616,
				0.0008409117421138868,
				0.0007102717898391914,
				0.00039654806972525664,
				-0.0009717987596886302,
				0.0003699257870467779,
				-0.0009867917340034044
			],
			[
				-0.000858277450639064,
				0.0004708883711166069,
				-0.0006187728362752463,
				0.000286652657901741,
				4.616736025199811e-05,
				0.000988412679080806,
				0.00019508926154020753,
				-0.000538345143806797,
				-0.0006653495728313917,
				-0.0003936301832057576,
				0.0008147615485347382,
				0.0004330812311683103,
				-0.00042473060266551646,
				2.3974937528742747e-05,
				0.000774043544973121,
				6.483999321290051e-05,
				-0.00033156552891376156,
				0.00033280349567580574,
				-0.0007721991890460851,
				0.0009696708192478616
			],
			[
				0.0008791818928641352,
				0.0007870879420565646,
				-0.0006662240285325012,
				-0.00034106404594879086,
				-0.0005300277838553626,
				-0.0008107259454843352,
				-0.0004886915321558145,
				7.451514511480541e-05,
				-0.0009388850687006725,
				-0.0005279256952461169,
				0.000568562887380514,
				0.0008845536943303883,
				1.6614456666624736e-05,
				0.000977336590731875,
				0.0007503628318686366,
				0.0008414597546033873,
				0.0006523734608948474,
				-0.0007631345358441357,
				-0.0007874749847660507,
				0.00047824562303435867
			],
			[
				2.2043006007409216e-05,
				-0.0006721475471381396,
				-0.00018768348167742973,
				-0.00019134090105322836,
				5.082752685354368e-05,
				0.0005714013999038627,
				0.000774335098864914,
				-0.0005672001330021044,
				-0.0007207141288960775,
				-0.000514832902424529,
				-0.0006114650010534759,
				-1.7734101352593137e-05,
				0.0009928926028826292,
				0.00030625126767538317,
				-0.0002964484955481284,
				-0.0006406452611933831,
				0.00026624864315231457,
				-0.0006508125741327795,
				0.0008996477305330049,
				-0.00045941353925651465
			],
			[
				-0.0002622116116296196,
				0.00014382727349468026,
				-0.0008476699031792372,
				0.0007252521928375712,
				-0.00016154562502477957,
				2.253155612770498e-05,
				0.000591143978199675,
				0.0007160953625758191,
				0.0007356814875340574,
				2.0649240172650185e-05,
				-0.0006554913918541623,
				-0.0003880597849908414,
				-0.0001271464602149142,
				-0.0005440337554818455,
				0.000649317693573507,
				-0.0005921312424808776,
				0.0006237336849307844,
				-0.0008202522501346967,
				0.0004853724611063627,
				-0.0009056546862401238
			],
			[
				-0.00024072577267735798,
				-0.00016005186206695865,
				-8.794877341697707e-05,
				-0.00036299807131518326,
				-2.485133186112072e-05,
				0.000964203233818389,
				-0.00047875424471004885,
				3.0088845670465025e-05,
				0.0002491718518431037,
				-0.00039579222427288266,
				-0.0005846142087612744,
				-0.0009477876933348439,
				-0.00015917171262551746,
				0.0004938240926797323,
				0.0008470379836476103,
				0.0004905645164589426,
				-0.000470371470154527,
				0.000307815938416886,
				-0.00033844055640648606,
				-0.0007481638607752816
			],
			[
				0.0002408747636163148,
				-0.00026192655948583245,
				0.0005746572262344998,
				0.0006319096379421689,
				0.0004969954880973495,
				0.0009747305672950885,
				-0.0009260926762071677,
				-0.00016242196882937973,
				-5.53373153886885e-05,
				0.0005246624782835505,
				0.0008601486737498951,
				-0.00011024556302468484,
				-0.00011094003394683538,
				0.0007722278179832574,
				0.0008831291673739618,
				-0.0008296128193685214,
				-0.00024014074786238987,
				-8.074151438570553e-05,
				-0.00037317439352065377,
				-0.0003055256314611652
			],
			[
				-0.0005485306721352779,
				6.619842285490317e-05,
				0.0007733472033746222,
				-0.00017196572904537133,
				0.00018611744243627812,
				0.00012309298054200175,
				-0.0008938573760168822,
				-0.0001881785906595756,
				0.0003796141590771578,
				0.000756536364584282,
				-0.0006596749219817988,
				0.00010019615224627016,
				0.0005887243151982539,
				-0.0008553397181956142,
				0.0009345999853089175,
				0.00032287947240501646,
				-6.090500631374075e-06,
				0.0005143758939984366,
				-0.0007494590107069551,
				0.000927560161588732
			],
			[
				-0.00012131622184938435,
				3.378590660108754e-05,
				-0.00027820689744961617,
				-0.0004675257152348389,
				-0.00017303500946759737,
				-0.0006733800024023431,
				0.00037301887561701284,
				-0.0006949534417587033,
				-4.31677425004371e-05,
				-0.0005388696616391524,
				-0.000893112049099196,
				-0.0007148750430715925,
				0.0007867357453197618,
				0.0009228561625800181,
				0.0007850839403353202,
				0.00023930541706563527,
				-0.0007680221666514629,
				0.0006315508261957275,
				-0.0006232872485480616,
				-0.00018701741851679028
			]
		],
		[
			[
				-0.0004225490007924304,
				-0.0008583212512647061,
				-0.000539576838613191,
				0.0005782171505553497,
				-0.00046565956256316304,
				0.0005242009115122264,
				-0.0007055450059438042,
				-0.0007985067967867126,
				-6.501891262684987e-05,
				-0.0009622083475084372,
				-0.0008308740514216984,
				-0.00023032807691406205,
				-0.0005095642394672131,
				2.4070782575650717e-05,
				-0.0005479512671747663,
				-0.0003886907169974536,
				0.00019310860971282883,
				0.0009092112393930271,
				-0.00017909678900943592,
				-0.0007291152495655691
			],
			[
				-0.0009532305161791812,
				-0.00018900835110990748,
				0.0009668136878176435,
				-0.0008913131175796843,
				5.7004759016547136e-05,
				-0.0007933597299766277,
				0.00022847291685058717,
				-0.0003978242411590298,
				-4.866697100738284e-05,
				-0.0009303771107700707,
				0.00032426524711470415,
				0.0007195839550297705,
				0.000555604151413529,
				0.00010784704211790172,
				-0.0006802331517641667,
				0.0009473765455428186,
				0.00033836602776948733,
				0.0005969840050684147,
				-0.000712262209934547,
				-0.000205569115428972
			],
			[
				0.0008107155780250493,
				0.0007564735799978095,
				-0.000604024546993768,
				-0.00036330786383675126,
				0.00014651303647604834,
				-0.0008801487745736845,
				-0.00047327768030391826,
				-0.0009878935737306887,
				0.0005699818016364243,
				-0.0005507393730467492,
				-0.0008848796827903276,
				0.0005904223072302648,
				8.91364503689037e-05,
				0.00016034368193790964,
				-0.00012083888181397054,
				7.169933223193873e-05,
				0.0008698130281365526,
				0.0007574169844725988,
				0.00015301598644538745,
				-0.0009067039106318047
			],
			[
				-0.0008413949061856585,
				-0.0006350992870138017,
				0.0008035007133975851,
				0.00046269343684883025,
				-0.0009580391189604476,
				-0.0004087823363215377,
				-0.0007038021848758307,
				0.0006288443818060409,
				-0.0007436423348110983,
				-1.2578016530335979e-05,
				0.0003338517062314861,
				0.0007122385557024025,
				-0.0004855330433544962,
				0.00047718057582669536,
				0.0005647416424362846,
				9.300093439174061e-05,
				-0.0009397113783551686,
				-0.0002572139050624995,
				-0.0006235598432312731,
				0.0008381021552749425
			],
			[
				-0.0007052476948827538,
				-6.705102178439942e-05,
				-0.00012115427298779301,
				-0.0007248505077817958,
				0.0009656330980344643,
				-0.0003466396675827051,
				-8.6393309252762e-05,
				0.0007471493833230787,
				0.0007376842669967044,
				0.000291401964080525,
				0.00017709579443313185,
				-0.0009063293332778333,
				-0.00014526970301107346,
				-0.0005415075420826294,
				-0.00028292504202414844,
				-0.0004868262238013415,
				0.0007995042614847357,
				-1.4218317451551244e-05,
				6.13530806488679e-05,
				0.00015231592843439998
			],
			[
				0.0007005281981713476,
				-0.00016857256387201654,
				0.0004397879613844448,
				-0.0003351645573606597,
				-0.0007679716216936972,
				-0.000811775962363396,
				0.0009312514634324692,
				-0.0002629105311205402,
				-0.00025084023475399684,
				0.0007979922543079872,
				-0.0004747486884898879,
				5.57140797592759e-05,
				0.00047769383707728613,
				-0.00020191639930171367,
				-0.0004757254315507567,
				-0.0009314085029179356,
				-0.0009028106778389686,
				-0.0003444054437445527,
				-0.0007605510004506859,
				-0.0004998466500993481
			],
			[
				-0.00013842251862792448,
				0.0005942622565987099,
				-0.00012459745647883254,
				0.0007053215838937307,
				-0.0007671690519094874,
				-0.0005357082989831212,
				9.075238710818745e-05,
				0.00021047367688545836,
				-0.0006884479155118985,
				0.0006453941749674508,
				-0.0006449460825411917,
				0.00020813906987165228,
				-4.188488005372635e-05,
				8.30307217417974e-05,
				-0.0009158113640620289,
				0.0008346230557178379,
				-0.0006669397978141207,
				0.0005504207280944418,
				0.0008792600359919473,
				0.00020544329335211195
			],
			[
				-0.00015300622101596727,
				-0.0005843425383791688,
				-0.00053887655319031,
				0.0006919235818823215,
				0.0009495899858917214,
				0.000982596144861091,
				-8.98390331417351e-05,
				0.0007504536638194151,
				0.0008626539651127041,
				0.0001763704795212631,
				0.0007794449717002268,
				0.0001241131551715127,
				-0.0007056492018070622,
				-0.000952518717437957,
				0.00015932548677000113,
				0.00012010315248743033,
				-0.0003707723570231361,
				-0.0004928717633535236,
				0.0007134857294722071,
				0.0009733167433746848
			],
			[
				-0.0006502615213631644,
				-0.0004456938334199289,
				-0.0006269161699970449,
				-0.0006356629537298524,
				-0.0008551683119927553,
				0.0003854037060020206,
				-0.00047427294530842353,
				-0.00032309395534423514,
				9.400414552520665e-05,
				-0.00037331788436010106,
				-0.0002214082448630144,
				0.0006221173958335378,
				-9.816963515752385e-05,
				-0.0006017309286211292,
				-0.00012484899400335662,
				-0.0005769532189380032,
				0.0003459781460304315,
				0.00095472106026414,
				0.0004557575946279482,
				0.0003719802299782986
			],
			[
				-0.0009749563640729307,
				0.0002091843568411693,
				-3.058416358779148e-05,
				4.147109003530252e-05,
				-0.0005946236246702227,
				-0.00039233558083932255,
				0.00048735516550225825,
				-0.0006040580601579684,
				-0.0008096955981893412,
				0.0007357183336522517,
				-5.9878643119476915e-05,
				-0.00043398060461003916,
				0.0007804349496758625,
				-0.0009149401739378156,
				-0.00025956955826429446,
				-0.0006062179869221469,
				0.00029512179595917614,
				0.00012688556036120208,
				4.0405303607610275e-05,
				-0.0006018241975672529
			],
			[
				-0.00010415485489716962,
				-0.000506030052059681,
				0.00042547560403951093,
				0.00018189014021308472,
				0.0008177235934665825,
				0.000347481760246636,
				-0.0009292662275568991,
				1.4668143818751195e-05,
				0.0009708113555478991,
				0.0002872992737110165,
				-0.0004748672863267826,
				0.0006025840476679854,
				-0.0005645954933036332,
				-0.0008942838983079023,
				0.00012419770003068418,
				0.00034281800644974996,
				-0.0007526548512144189,
				-0.0008685996469673383,
				-0.0008789922549001866,
				0.000793295805747031
			],
			[
				-0.0009655912287360582,
				1.9584407523886606e-05,
				0.0002874372544771945,
				-0.0008164655845961297,
				0.0001310924655709058,
				-0.000658656229204551,
				0.000955155846666948,
				-0.0002809001840987142,
				0.0004976557992028478,
				0.0007367952804864181,
				-8.048628448994587e-05,
				-0.000627623105772237,
				-4.0195683473510024e-05,
				-0.0005752323582703461,
				-0.0005237154828655716,
				2.3371582081978867e-05,
				0.000710998111848865,
				-0.0003982045260549949,
				0.000468573633760243,
				2.604083253653468e-05
			],
			[
				-0.00044034411982995874,
				-0.000741471838024175,
				0.0004357250399294494,
				0.0003769898457295646,
				0.00016303427854322781,
				0.0002604477750529745,
				0.0001528239491036254,
				0.00038991890384378123,
				-0.0001415574059049421,
				-0.00010207962042396116,
				0.0004355809184728972,
				0.0004037332959340365,
				0.000809980680991979,
				-0.00041518119393680795,
				-0.0009207706826620852,
				0.0007887000152964553,
				-0.0002896449096141538,
				0.000814557697108635,
				0.00018787913787090302,
				0.0006292117177987063
			],
			[
				-0.0008045583464430864,
				-0.00032944766090053565,
				-0.00044228875823424036,
				8.434196384956259e-05,
				0.00012466320150151394,
				0.000745929987274297,
				0.0007469897037328168,
				0.00012848391128003427,
				-0.00020135194524219387,
				-0.0008093049816283597,
				-0.000856680456916779,
				-9.499780821335755e-05,
				0.0005994106555355513,
				0.0004818966078189741,
				0.00031207075698949584,
				0.00013918608443288876,
				0.00025110345284140925,
				-0.000590410413809811,
				-0.0003614263617641737,
				-0.0005199955285669811
			],
			[
				0.0006448225855521241,
				0.00038188107710339803,
				-0.0005014005152667525,
				-0.0007224230123569733,
				0.0003805102566656912,
				4.2448697782713606e-05,
				0.0008800176318168973,
				-0.00011347556386077722,
				-0.00018816228923194457,
				-0.000984210770928571,
				-0.0004115304439866719,
				-0.0001439077208558135,
				-0.00019921362611350398,
				-0.00039630866624791247,
				-0.0003590121105099328,
				-0.0005031511187715232,
				0.0007234047616717554,
				8.185103667524268e-05,
				0.0009050349156669024,
				0.0005449593388635804
			],
			[
				0.0005885724149028071,
				0.0008280747559980199,
				0.00043032726543580256,
				0.0009601634453270925,
				-5.94607059900789e-05,
				-0.0004854537873719895,
				0.000611375028037675,
				0.0004231263577333822,
				-0.0003706225041753752,
				-0.00010480550189488971,
				1.0513405495301805e-05,
				0.0007695959712821464,
				0.0007896515019925599,
				0.0006859826214313757,
				-0.0002674178539824805,
				-0.0005116624866048456,
				0.00036491845360476865,
				-0.0007698996672894949,
				-0.00034581054255902006,
				0.00025657821569609676
			],
			[
				0.0005459584735714291,
				-3.561353410091387e-05,
				-9.93468765494598e-05,
				-0.00015756501522244573,
				-0.0002537505519465197,
				-0.0009468810267399712,
				-0.0009638595914856322,
				0.0005149195292384683,
				0.0009060766998680594,
				-0.000348650143643179,
				0.0003371045924056486,
				7.718641199090399e-05,
				-0.000833308709646152,
				0.0008951387792820987,
				0.0005778190630871584,
				0.0009084057629143156,
				-0.00022929964345704738,
				-0.0007458053520204204,
				0.0006157406020010116,
				0.0006773417061538757
			],
			[
				0.0006345094284159912,
				0.0004912988271848682,
				0.0008406201003806437,
				-4.666932746263681e-05,
				5.76468618158593e-05,
				-0.0008589751135967092,
				0.0003773320785594469,
				-5.557194615851333e-05,
				-0.00033788054964208113,
				-0.0005494175544487139,
				0.00048415138033608396,
				-0.0006804471807054127,
				-0.0005453801182021085,
				0.0009067509883578849,
				-0.00028472471313873956,
				-1.1832998780483698e-05,
				-0.00012094864349677925,
				0.00046833963926115434,
				-0.0002398526502386711,
				0.0001688650158650168
			],
			[
				-2.9163503802921925e-05,
				0.0001279821234519351,
				-0.00016395142974466159,
				0.0005630077416481714,
				-4.7755194309500476e-05,
				-9.549113417662626e-05,
				-0.0002805476509541913,
				-0.00027737558572734874,
				0.0003040306559165256,
				0.0009848315620496055,
				3.4598687504566565e-05,
				-0.0005759256025747231,
				-0.0005134535818259587,
				-0.0007466128496166757,
				-3.6011280425310324e-05,
				0.0009387269907567136,
				-0.0007356792153738253,
				0.0009757966157583186,
				-0.0007486732764687143,
				-0.0007732931294590844
			],
			[
				-0.0006877020022249751,
				0.0004924161063239705,
				0.000749744960454159,
				0.0008833837792965027,
				0.00017426962741354506,
				0.00027619955865476283,
				0.0004910023225965226,
				0.00041786921519811906,
				-0.00020187673819462894,
				-0.00023488679255918399,
				0.00019132473580361345,
				-0.0005464536581094113,
				0.0007100329038959529,
				-4.449245333333846e-06,
				-0.0009273571201001729,
				-0.00045677796837579937,
				-8.739676766788532e-05,
				-0.00015115242128209742,
				0.00072449718364526,
				0.0005221817893166674
			]
		],
		[
			[
				-0.0006267738418250304,
				-8.829392298065125e-05
			],
			[
				-0.00033737435919954087,
				-0.00013733914039796137
			],
			[
				0.0004034756582009986,
				0.0006750424022683135
			],
			[
				0.0007229477821983673,
				9.755038807792728e-05
			],
			[
				0.0003973231850139206,
				0.0007057986739370662
			],
			[
				-0.0007917309931816826,
				0.0008376630163132533
			],
			[
				-0.0003758577313003257,
				0.0009005092816406369
			],
			[
				-0.0005246692569328202,
				0.00022133193779318638
			],
			[
				-0.0005251608340535181,
				-0.0007224749238187582
			],
			[
				-0.0001491087480432505,
				0.0008670034024414871
			],
			[
				0.0002740773215763872,
				0.0009803422987932067
			],
			[
				-0.0002171803333526572,
				0.00037207140051236467
			],
			[
				-0.0002914050970478832,
				-0.0008713684706493035
			],
			[
				0.00027986020765525437,
				-0.0005383870985846231
			],
			[
				-0.0009717001097911946,
				0.0008117374765683394
			],
			[
				0.0007397572781268895,
				6.855915127398069e-05
			],
			[
				-0.0004803285597574776,
				0.0005570758890183279
			],
			[
				-0.0003492843276923747,
				-0.0005659676696612786
			],
			[
				0.0005417401644896023,
				0.00011700118885259701
			],
			[
				-0.0002509086722961495,
				0.00045017131491655623
			]
		]
	]
}