{
	"model_params": {
		"input_dim": 10,
		"units_per_layer": [
			20,
			20,
			2
		],
		"acts": [
			"tanh",
			"tanh",
			"identity"
		],
		"init_type": "uniform",
		"batch_size": 100,
		"decay_rate": 0.95,
		"decay_steps": 500,
		"epochs": 150,
		"lambd": 0,
		"limit_step": 500,
		"limits": [
			-0.001,
			0.001
		],
		"loss": "squared",
		"lr": 0.00891214076925288,
		"lr_decay": null,
		"metr": "euclidean",
		"momentum": 0.6,
		"reg_type": "l2",
		"staircase": false
	},
	"train_params": [],
	"weights": [
		[
			[
				0.0008517065228179322,
				0.0007016753367708991,
				-0.000464961750950928,
				0.0003442295857453183,
				0.00041411209133667424,
				-0.0007482683249304614,
				-0.000849484834179249,
				-0.0008215404921761591,
				-0.00046964280050537394,
				-0.00043334126841416954,
				0.0008906126068838583,
				0.00023565158197436597,
				0.0006254651388966157,
				0.0004816457373820178,
				-0.0008143517397037527,
				0.00019293606875655568,
				0.0003880707880233704,
				-0.0009361314865644466,
				-9.244953834685178e-05,
				0.00014966421061626302
			],
			[
				0.0004991178703701428,
				0.00021027896702728133,
				-0.0007715785564736564,
				-0.000839879645847359,
				-0.0004288222186680644,
				0.0005230130100987744,
				-0.0003145628870415727,
				0.00083217219166807,
				-0.0005726719604361226,
				0.00038500805126784636,
				0.0006475304578888986,
				-0.00019670923789085815,
				-0.0006048728285935501,
				0.0008256243252324558,
				-0.000708150634763304,
				0.0008144592455592535,
				-0.0006251335062798437,
				-0.0005717357070044926,
				0.00021450202238367595,
				2.6310966029070198e-05
			],
			[
				-0.0003726378097002579,
				-0.0003016127599683638,
				0.0007100736112581169,
				-0.00017619199493516422,
				0.000935386701955383,
				-0.0001848476301449213,
				-7.28651855681834e-05,
				-0.0006582314528359397,
				-0.00011827980698559662,
				0.0006325618207640208,
				-0.0005606898392692191,
				0.00023769853608118156,
				0.0008108492152623058,
				-0.00013710254184692188,
				-0.0007737727776239525,
				0.0007818243088244044,
				-0.0008141691961429274,
				-0.0006802280780846228,
				-0.000488421969991941,
				-0.0004410686161815658
			],
			[
				-0.00021020245526231097,
				-0.0003406721907935413,
				-0.0008080700712369584,
				-0.00020277217763133297,
				0.00046938552528869937,
				0.00030808348966517886,
				-4.482489614146036e-05,
				0.0004635233421017577,
				0.0008499805607916141,
				0.0005958194697318669,
				-0.0006436297457621816,
				0.0002737433838319104,
				0.0005243464613855497,
				-0.00042939601415082685,
				0.0005591592346205372,
				0.0003832270767556323,
				-0.00012562129675237172,
				-0.0003901390097547069,
				-0.0007211400111081527,
				0.0002631931403693209
			],
			[
				-0.0008844744328833356,
				0.000625996904402684,
				-0.00024967483095967745,
				-0.00017347023962292665,
				-0.0008079183475423169,
				-0.000282305719045363,
				0.00011656465713310075,
				-0.0008183922178308516,
				-2.58414867332213e-05,
				0.0004893434915282319,
				-0.0003552530468735244,
				0.00048473814917899855,
				-0.0009431062676517521,
				0.0006186016819428291,
				0.0003000632993889593,
				-0.00015311079628404947,
				8.672326046376701e-05,
				-0.0007435113211760108,
				0.0009912016134061789,
				-0.000582939971893138
			],
			[
				0.0005017406179612411,
				0.0005385862079679401,
				-0.0002814995290102582,
				-0.0009543529143183593,
				-0.00029161162013715256,
				0.0005573944403465898,
				-0.0009790518098335217,
				0.0003414768686236644,
				-0.00013764475444623717,
				0.0009097588361963393,
				-0.00032596195204731874,
				-0.00023338981824955836,
				3.093258272489287e-05,
				7.31623099057767e-05,
				-0.0003771072735121359,
				0.0003254633312062506,
				0.00021482363245392002,
				0.0002592038795875653,
				-0.0007840187320078072,
				-0.0007551187352566093
			],
			[
				0.0008224068326736669,
				0.0005572076177397698,
				0.000478371256809362,
				9.483615038799638e-05,
				0.000993087690611921,
				-0.0001478634979231101,
				0.0003604341834218226,
				0.0003356235035519102,
				0.0008294681508649007,
				-0.0004285129353767634,
				6.37144122667987e-05,
				0.0007793175203431734,
				0.00048506863546960246,
				0.0009976423492125165,
				-2.1794561974759806e-05,
				-0.0006267934459541376,
				-5.749810567186439e-05,
				-0.00036066722099476877,
				7.05479234272726e-05,
				0.0005005803550920446
			],
			[
				-0.0006413162886618722,
				0.0005238470004621306,
				-0.0007446930223787573,
				-0.0005822426107579236,
				-0.0003606612466550541,
				0.0003576758337600107,
				-0.00028390619037659936,
				0.0006079042864649631,
				-0.0009128189270991876,
				4.8089819025579636e-05,
				8.627749849291367e-05,
				-4.2252525215265486e-05,
				-6.766056209214116e-05,
				9.771085283818764e-05,
				-0.0004976555446836475,
				-0.0007861786952454543,
				-6.087431641409169e-05,
				0.00022786976372114178,
				-0.0001567114275262527,
				0.0005512667630871734
			],
			[
				0.0008980723878623117,
				0.00044011634178725946,
				-5.139994222960471e-05,
				-0.0009847976563767606,
				0.0008622208024315597,
				0.000231673300537616,
				0.00012398424775815378,
				0.0005230156671423803,
				8.447639517815885e-05,
				-0.0004547820183847795,
				0.0009736026648462259,
				0.0006859939054654669,
				-0.0005176519888880958,
				-0.0009532895324732373,
				0.0005538160035463656,
				-0.0008297521724803911,
				-0.0009286449071872238,
				-0.0005480752267499852,
				0.0009179321931115812,
				-0.0008478857754032328
			],
			[
				-0.000983583628933916,
				0.0004921562738865637,
				0.00036632861690734375,
				-0.00026292973411522484,
				-3.2833220719613067e-06,
				0.0005967386677060741,
				0.0001986436518446003,
				0.0003404724041157995,
				-6.002093946131293e-05,
				0.0004545462126692894,
				0.0005489208034980728,
				0.00032300707013757125,
				-0.00014961346869152888,
				0.0008374496539437992,
				-0.0009986336994638972,
				-0.000938485314590922,
				0.00041310933274876067,
				1.5323241193229914e-05,
				0.0004853786079771396,
				-0.0007100068875735508
			]
		],
		[
			[
				0.0009160794288335732,
				-0.0007628519395931361,
				-0.0006905828310656222,
				0.0008498401084390584,
				-0.0001973730049761713,
				0.00019668853002368335,
				-0.000761309380298316,
				0.0009811148319276526,
				-0.00031071625889839713,
				-0.00048601264295173045,
				-0.0005821230304957059,
				-0.0002435966030085925,
				-0.00021632388983503664,
				-8.533466532433583e-05,
				8.204561171038199e-05,
				0.0009178449372220913,
				0.0005817284615040467,
				-0.0004047557047213499,
				-0.0006171549624643518,
				-0.00013862492706353028
			],
			[
				-0.0005982198321439454,
				-0.0009024690825743773,
				-0.0005916712285455508,
				-7.773490974379807e-05,
				-0.0007465160391737196,
				-0.0008136729003407113,
				-0.0006059376313144918,
				0.0007392890722829038,
				-0.0001107974618039353,
				0.0006732797102629693,
				0.000567491253083084,
				-0.00046339014091321214,
				-0.0003017055620805802,
				7.401749148287849e-05,
				-0.0007736707025592622,
				0.0005049683048170806,
				-9.031487264814773e-05,
				-0.00048454324836156323,
				-0.0006721510532527383,
				3.613498374061951e-05
			],
			[
				-0.0004572964490731546,
				-0.0006363894827243444,
				0.000933199754724382,
				0.0008004700016916012,
				-0.0004185389526211032,
				-0.0006856439148637574,
				-0.0005653248795922082,
				0.0003334458320833683,
				-0.0007846536458458322,
				-0.0008605645162019478,
				-0.0006819084104102198,
				0.00024863207399247983,
				0.0008942779424374954,
				0.0007969037927084376,
				0.00038011140174146673,
				-8.720302043712996e-05,
				-9.61174190009013e-05,
				0.0003988442740133144,
				-3.485413098767488e-05,
				8.107283560116678e-05
			],
			[
				-0.0004881532656412715,
				-0.0002425950717166418,
				-0.0004449844449641567,
				-0.0004646333413426091,
				0.00017870160600106126,
				-0.0006033345306520159,
				0.0008007775202971106,
				0.0007430636120049777,
				0.0003090055787678672,
				-0.0009597083358760193,
				-0.00013499292468091648,
				0.0008176206175202132,
				-7.840502666869669e-05,
				-6.843435573799649e-05,
				-0.0006781850003407333,
				0.00040476793681958664,
				-0.0009581394086477353,
				0.0003469166563288869,
				0.0007952925043414184,
				0.000267048800206062
			],
			[
				-0.0005708929446233708,
				0.0008984341820629689,
				-0.00047913979866023545,
				8.843146203414438e-05,
				0.0002831402717475052,
				-6.125105483434877e-05,
				0.00085584265826727,
				-0.0004944514153611057,
				-0.00019165638798466914,
				-0.00023479297071124841,
				-0.0003041497568632523,
				-0.0007379965610735189,
				-0.0006043787810240715,
				-0.00012251967540866278,
				0.0002299469383778836,
				5.983180650442508e-06,
				0.000972374328710971,
				-0.0008523097082773539,
				0.00034108407651654393,
				-0.000870238894624317
			],
			[
				0.0005369626032224559,
				-0.0003564478719954232,
				0.0002757555830116892,
				-0.0002770660568540633,
				-0.00017666055902471815,
				-5.3727596213341226e-05,
				0.0006433090019724859,
				0.0008423625074295922,
				1.399437007558609e-05,
				-0.0002028502140121373,
				0.0002552737870661157,
				0.00039100251219151825,
				-0.0004284651138618512,
				-0.0007082539691138285,
				0.0007164682124498631,
				-0.000375478775139261,
				-0.00040194956760233706,
				0.0009901506162776253,
				-0.00020513957783185746,
				-0.00027345423158139123
			],
			[
				0.0005088104776912866,
				0.00034586307354787533,
				0.0006945538678313817,
				0.0003159180261001794,
				-0.0005953395284805088,
				-0.0005740573316074774,
				-0.0002397499565881192,
				-0.0005618010422640059,
				-0.000624489466836682,
				-0.0005617873149099028,
				-0.0005129904553637106,
				0.00026079238209968754,
				-0.0005296618204772425,
				0.0007403308788788679,
				0.0007078191464516431,
				0.0004249724578156116,
				-0.0009256938362571408,
				0.00010845487296743772,
				0.00020608238247065455,
				0.00011549086565155325
			],
			[
				-0.00023987314270055714,
				0.00012902823200512258,
				0.0007450543056748756,
				0.0006238424512871156,
				-0.0004814066681088869,
				-0.0008516139507535321,
				0.00031490942896856113,
				-0.0007353342760870965,
				0.0006465708797981434,
				-0.0009799972563995928,
				-0.00014252140512114925,
				0.000428043943415627,
				-0.0005132783486169334,
				0.0006311998755558891,
				0.0003077814929079222,
				-0.00016608203638601498,
				0.0008223269946966553,
				0.00018298787532474814,
				-0.0005161338588279969,
				-0.00016731027468803485
			],
			[
				-4.158036612406503e-05,
				0.0009130161455086843,
				0.00025009777279305537,
				0.0007991107503660809,
				0.0002726629513714325,
				0.0007243378954051036,
				0.00026967286598453266,
				0.0006225661171233474,
				-0.0006147248498629776,
				-0.0007443380141848831,
				0.00039626559330412157,
				-0.0007071538894198715,
				0.0004240723633941025,
				5.260886204288282e-05,
				1.4360022188935739e-05,
				0.0004160018183124246,
				-2.8382167147247405e-06,
				0.000319131863853579,
				-0.0007269770330562959,
				-0.00021953435550439541
			],
			[
				-0.000287766728189248,
				-0.0006579698989568616,
				0.0008987310299789423,
				0.0008974519565020493,
				0.0008730992867214734,
				0.00045371953441009256,
				0.0001579170291825516,
				0.000212407106599196,
				0.0005368968259708213,
				-0.0002056837952933619,
				-0.0009632474053942118,
				-0.0005193022323508043,
				0.0005860403098901805,
				-0.000969778189453294,
				-0.0008325491014339107,
				-0.00047276209189626094,
				0.0008475071724047066,
				0.00012998554211077228,
				-0.000211768542226648,
				0.0005787749170924124
			],
			[
				-0.0009195445539576288,
				0.00012093692905658046,
				-0.00010247095880197414,
				-0.0008646019184579914,
				-0.00027556325749568964,
				-0.000973472936820031,
				-0.0002676190657978255,
				0.00098088207619725,
				0.0009999762080584377,
				-0.0005048529353755977,
				-3.5880129505998985e-05,
				0.0007072158741534883,
				-0.0009836035575636031,
				0.0007140499679664635,
				0.0009117864430956738,
				0.0009014246781861219,
				-0.00016503082889820478,
				0.0004666105483289863,
				-0.0007452786092536289,
				0.0004716112293232336
			],
			[
				0.00029115065538859344,
				-0.0005238015946256733,
				7.137984296565637e-06,
				0.0006754797900975849,
				0.000627572940673509,
				-0.0007643043690336173,
				0.0009155397412126582,
				0.00034156093562497623,
				-0.0009817339546884106,
				-0.0006368397864266955,
				0.00016397388097499,
				0.0009576012228511657,
				-0.000426730719754163,
				-0.00022686375730709334,
				-0.00020935889206453843,
				9.730286535071715e-05,
				0.000899616771482778,
				5.688860752153823e-05,
				-0.0003947497074124975,
				-0.0009366109492177608
			],
			[
				-0.0005899432894260681,
				0.0009517211068284159,
				-0.0009079739199282284,
				0.00018302990197314323,
				0.00041460325743701,
				-0.00045783461913391,
				-0.0007542817314195629,
				0.00018874316054465256,
				0.00024472477748470247,
				-0.00017288013131909062,
				0.00034081850826865427,
				0.0005084143794914242,
				-0.0006279121016925795,
				-3.3037874306704375e-05,
				-0.0005417584974611183,
				-0.0009328194945374482,
				0.00024176871503941424,
				-0.00019838398671272487,
				-0.0003643332140828133,
				0.0001427995295269714
			],
			[
				-0.0001393514865575458,
				0.0007098981420025617,
				-0.0007605636606537729,
				0.0007270520055834768,
				-0.0005790839935517107,
				-0.0005207265991285538,
				-0.0006483638082247812,
				-0.000544263193483369,
				-0.00047467208106496137,
				0.00035060254307508034,
				-0.0007341634688314009,
				0.0006826918141467722,
				0.0005742146891355769,
				-0.00019676126620526686,
				0.00013632485872730991,
				0.0006508036790594414,
				0.0009581399636008612,
				-0.00010293821964721883,
				-0.0007024938413169817,
				0.0006478865331629058
			],
			[
				-0.0007229854658908131,
				0.00041004365435902434,
				-0.0006122370211392543,
				-0.0008493090609987226,
				-0.0007979855705041488,
				0.0001653980322403434,
				0.0006561436550360916,
				-0.0007790962905936004,
				0.0006775185085370363,
				0.0009225999172697117,
				0.0006336487665641575,
				0.00030813247831403424,
				-0.000856140917542283,
				-0.0009617042708914137,
				0.0005660289474839334,
				-8.014601011064086e-05,
				0.0008334452899333574,
				0.0006654546534254197,
				-0.0009408905973266786,
				-0.0006457041099501693
			],
			[
				0.0004728832421656327,
				-0.0006399149125713506,
				-0.0009218308829952506,
				8.48523095919936e-05,
				4.4184418158394476e-05,
				0.0007504892587264064,
				-0.00018778480817891081,
				0.00023986932017458452,
				-0.0008159559641105854,
				-0.0009725064763319677,
				0.00011114907642703837,
				-0.0001675446064591824,
				-7.512740861274599e-05,
				-0.0009230204882851337,
				0.0009394313500672813,
				0.000679937503607105,
				-0.0003775737363537788,
				0.0007432704750450696,
				7.656240504148697e-06,
				-0.0009510681299304474
			],
			[
				-1.399988239574176e-06,
				-0.0006781046394071951,
				0.00013541685023378699,
				0.00016742088400675142,
				0.0008059673718533765,
				-0.0008703623309853566,
				0.0007403228265698311,
				-0.0006954712064488069,
				-0.0003606279857921084,
				-0.0005596311560011082,
				-0.0008469514575044685,
				0.0008847744314228743,
				-2.43661033938221e-05,
				0.000756717771865058,
				-0.00017428599026557445,
				-6.18532187719545e-05,
				0.00020383225257108854,
				0.000980759353394011,
				-0.0004117542608813565,
				-0.0006897106098679948
			],
			[
				-0.00012558115573883778,
				0.0006196488610202772,
				0.0009238420888811449,
				0.00012942308376404262,
				0.0009082543143482207,
				-0.0006400147322044218,
				0.0005224281144209646,
				-0.00024590460081095396,
				-0.0009751110379294623,
				0.000886059642880382,
				-0.0009892016476157229,
				-0.0006145665954053739,
				-0.00046413611290037674,
				0.0007079710355206578,
				-0.00043481830765676043,
				0.0005423925018397406,
				0.0005812353204206063,
				0.0006030040654584248,
				0.000267116627251301,
				0.000682577689577936
			],
			[
				0.0005949941611009817,
				0.0005768250334035531,
				-0.0008924060938081031,
				0.00017495130460264195,
				0.000675294166023191,
				-0.00024093212435780359,
				0.0004287249775576064,
				1.0559505327453539e-05,
				0.0006665682623420179,
				0.00023457780950373415,
				0.00018714504560467466,
				0.0006709682085774625,
				-0.0006315416342773934,
				-0.00018549034378883818,
				-0.0008859781720154114,
				0.0007301402498107827,
				0.00021348186970804209,
				0.0006416423638677799,
				-0.0005457027815824911,
				0.000772796757785214
			],
			[
				-0.00032826806053597385,
				-0.0002751189148316968,
				-0.0001864305086557265,
				0.00025240404280613875,
				-0.0007506109075209933,
				-0.00047036372705453995,
				-0.0009419205885080097,
				3.9264509159079274e-05,
				-3.428618153452018e-06,
				-0.0007055671950773816,
				-0.0004280750008199272,
				0.0008282118574582853,
				-0.00038819901684381344,
				0.00041268696740621286,
				0.00016711951944952232,
				0.00032211580894061934,
				0.0006489259202952197,
				-0.00012593505981359882,
				0.0002244917042923968,
				-0.0005886308784457748
			]
		],
		[
			[
				0.0005635540819354339,
				-0.0002004405643379121
			],
			[
				0.0008634258516157791,
				0.00031108122112229013
			],
			[
				-0.00028353126682987553,
				-0.0007736087905720311
			],
			[
				-0.0006868861487029001,
				-0.00018456720857726566
			],
			[
				-0.0002213445966066565,
				0.0002794273829065212
			],
			[
				0.0007689418394700681,
				0.0005113551229517697
			],
			[
				0.0004188436578908233,
				0.0003986208847462163
			],
			[
				0.000604362515137405,
				0.0008380377762928829
			],
			[
				-0.0009842702548732776,
				0.00034332788459454306
			],
			[
				2.1769217825731886e-05,
				-4.4085344108374196e-05
			],
			[
				-0.0005326806476408116,
				0.0008613819180324591
			],
			[
				-0.00037537822971092606,
				0.0008054466656134181
			],
			[
				0.0002329942131837567,
				-5.461717704298506e-05
			],
			[
				-0.00019534686744471566,
				2.2090216915775923e-05
			],
			[
				0.000467219668839756,
				-0.0002279965871574643
			],
			[
				-0.00019399377667872323,
				0.0009743350215331535
			],
			[
				0.000342898723863123,
				-0.0009106061136611867
			],
			[
				0.0003651314829999975,
				-0.0003435242473447469
			],
			[
				-0.0008604479805487178,
				0.0009032609367097266
			],
			[
				-5.913006493921016e-05,
				-0.0008873684590744268
			]
		]
	]
}